195 128
54 -0.16673838 -0.24484685 0.15226302 -0.021406962 0.09360917 -0.069577806 -0.13102847 -0.08280252 0.04822489 -0.0105849495 -0.12298963 0.006490319 0.009014745 -0.14227276 -0.015929757 -0.037290957 0.1895164 0.04317506 0.06991818 -0.07028685 0.15397663 0.007858769 -0.034564685 0.01376901 -0.10732714 -0.026971482 -0.0440031 -0.084607616 -0.08927226 -0.1810258 -0.055116344 0.087030515 -0.112795636 -0.09849461 0.011036484 -0.006906655 -0.13090928 -0.059634805 -0.014882269 -0.08832528 -0.057172034 0.10826936 -0.12050282 -0.05494039 0.07847707 0.020643689 -0.1745872 -0.1326987 0.032170147 0.07929408 -0.14708725 -0.08027253 0.0002995772 0.07345309 -0.11532983 -0.20782368 0.06523532 0.008598909 -0.102601774 -0.024456989 -0.1047133 -0.06612311 -0.12755133 -0.11240105 -0.083583675 0.087687746 -0.13626958 0.050287127 0.0057221344 0.036853682 0.08630005 -0.08299305 0.21959811 0.068964995 0.091149256 -0.0028308723 0.13204142 0.0836132 0.018577391 -0.071774155 -0.04454989 -0.0058577643 -0.12791488 -0.08968664 0.0070301886 -0.20417106 0.071134366 0.015214265 -0.013474418 0.16019401 0.03492783 -0.12048788 -0.09711405 -0.060669012 -0.08788003 0.031491935 -0.026210755 -0.15666105 0.10754497 0.08766706 -0.060741212 -0.006924727 0.14110324 -0.08781592 0.018007437 -0.135814 0.10227703 0.1764134 -0.057241693 -0.05279306 -0.05587226 -0.024819793 0.06436706 0.008058575 0.07018111 0.087215565 -0.09172302 0.04866258 -0.029806439 0.02934116 0.033240188 -0.025422625 -0.064135574 -0.24980903 -0.14640121 0.010772183 0.107192494 -0.06926606
86 -0.16712694 -0.25787833 0.16364974 -0.016452087 0.11070689 -0.062469445 -0.14178348 -0.066321835 0.062011667 -0.029308062 -0.110117644 0.016064454 0.00052832544 -0.15921853 -0.022904804 -0.019913921 0.18951015 0.054193236 0.07536541 -0.07288709 0.1667306 0.0050226217 -0.018844845 0.0100589255 -0.14026497 -0.014851444 -0.060010575 -0.076599374 -0.0800484 -0.17722273 -0.07314076 0.08306451 -0.113871254 -0.09408715 0.027260456 0.006656078 -0.12888503 -0.06553058 -0.023004876 -0.07694836 -0.06929415 0.124357775 -0.11890607 -0.06355416 0.067505494 0.019409033 -0.16867521 -0.15071969 0.011266258 0.08046432 -0.16007432 -0.08578797 -0.020589698 0.059215646 -0.13989909 -0.21828176 0.08230824 0.037265778 -0.09130238 -0.044949036 -0.096020624 -0.06640138 -0.12189299 -0.10889444 -0.09770739 0.09614109 -0.15089595 0.057859275 0.003777975 0.03213741 0.09526142 -0.071095854 0.24546696 0.066344514 0.08416136 0.0027773746 0.12264224 0.08553847 0.012161014 -0.083022796 -0.0165573 0.0061919605 -0.116117835 -0.08797804 0.010128868 -0.21471013 0.06701056 -0.001338086 -0.020110063 0.14489563 0.033830382 -0.12602207 -0.09674983 -0.07944267 -0.094414555 0.033434864 -0.025732432 -0.13384837 0.10371626 0.106432036 -0.06047451 -0.008108383 0.14448707 -0.093429774 0.028331382 -0.13838762 0.08708272 0.1697515 -0.04788714 -0.03684229 -0.05086402 -0.014209336 0.058499627 0.012159476 0.05937899 0.07257857 -0.09402556 0.051324256 -0.024395123 0.024717791 0.027234398 -0.020007012 -0.0692395 -0.23763545 -0.13558306 0.0402513 0.09112074 -0.07294708
225 -0.16316408 -0.24339317 0.15254891 -0.019390903 0.09194924 -0.06320885 -0.13802029 -0.0768252 0.05343152 -0.01412246 -0.11633823 0.017487125 0.0060965847 -0.1553251 -0.02284033 -0.040168088 0.1943485 0.03841675 0.07125176 -0.06402406 0.16518842 0.009321708 -0.024492579 0.0059667486 -0.12433986 -0.025443768 -0.041889686 -0.08286725 -0.0872189 -0.18532856 -0.06964225 0.08887068 -0.105742924 -0.09248209 0.020080414 -0.0055291383 -0.12924019 -0.062035616 -0.020789074 -0.08060917 -0.053294297 0.11694222 -0.12991641 -0.06128295 0.08019748 0.008821331 -0.17615552 -0.13671611 0.021407997 0.07854053 -0.14772011 -0.08532633 -0.011372347 0.07837139 -0.12391038 -0.2137609 0.065919206 0.022480989 -0.10257548 -0.033963066 -0.09677933 -0.066963814 -0.13030285 -0.11498787 -0.08491684 0.09087105 -0.1425376 0.06533395 0.0043834923 0.030051814 0.08712374 -0.08572261 0.24753985 0.0680254 0.09915442 0.00085857196 0.13726623 0.08828846 0.02081218 -0.07791429 -0.0403068 -0.007596319 -0.124730654 -0.091982245 0.005833578 -0.20622 0.06760209 0.012841021 -0.01839781 0.16818163 0.03577515 -0.12791719 -0.098573305 -0.0678516 -0.08865115 0.0195817 -0.013095985 -0.15518199 0.09897948 0.10321258 -0.05572517 -0.0043750512 0.13658366 -0.09276859 0.035484817 -0.14244041 0.095162675 0.17242628 -0.05783316 -0.04967039 -0.050975125 -0.012566116 0.06547831 0.009926032 0.06436932 0.086332284 -0.097538725 0.047772475 -0.034310985 0.034149442 0.034140285 -0.021121362 -0.0680921 -0.24737456 -0.14461572 0.011650302 0.102433376 -0.06483649
94 -0.16946517 -0.24572998 0.1504989 -0.031514842 0.095340565 -0.07383283 -0.14268221 -0.08062312 0.057389103 -0.00318548 -0.11684172 0.015334328 -0.003773327 -0.16319397 -0.025471427 -0.042440213 0.20477664 0.044623863 0.07211767 -0.06261698 0.1630111 0.015726928 -0.022235103 0.005406406 -0.118520424 -0.016130501 -0.04611187 -0.08393686 -0.102518626 -0.18021053 -0.058420166 0.083057955 -0.10735519 -0.09623156 0.014911393 -0.014901574 -0.123619944 -0.052206304 -0.01613878 -0.07531921 -0.04988544 0.107845694 -0.125774 -0.053873476 0.07454632 0.006488279 -0.17327352 -0.12893984 0.026707359 0.088992685 -0.14942454 -0.074193634 -0.016039314 0.08266845 -0.12264029 -0.21646921 0.074649125 0.011348625 -0.10892624 -0.038379356 -0.106884636 -0.06489141 -0.13691315 -0.11775528 -0.07840943 0.08890927 -0.13274817 0.058765985 -0.0032507128 0.027256845 0.08796023 -0.082058355 0.22163056 0.058022488 0.1065067 -0.002255 0.13213722 0.08638202 0.017736742 -0.0676366 -0.037105538 0.0032301992 -0.12687965 -0.084318474 0.010615047 -0.19697694 0.06617897 0.012904092 -0.017646302 0.17140007 0.03345169 -0.116850905 -0.085544996 -0.065632924 -0.08012108 0.024025243 -0.025788572 -0.14232878 0.09498403 0.09253843 -0.05511419 0.00044617485 0.12505287 -0.07579373 0.03516091 -0.13119194 0.08297901 0.16695744 -0.04397319 -0.052549604 -0.04693473 -0.014740323 0.070591815 0.0119023835 0.0681907 0.08879573 -0.08693001 0.051757637 -0.034106843 0.041556284 0.03339243 -0.02087283 -0.068241045 -0.24729756 -0.15068899 0.014344575 0.10475047 -0.056182694
96 -0.16814132 -0.24883334 0.15167956 -0.034107316 0.09943778 -0.072826646 -0.13450281 -0.08206918 0.05104943 0.00059451757 -0.120361716 0.012220447 0.0070765 -0.15108727 -0.010616346 -0.034174245 0.19611965 0.042582612 0.07129683 -0.06374268 0.15838903 0.019526167 -0.02262605 0.008220649 -0.1100922 -0.017578067 -0.042850137 -0.07872575 -0.10030499 -0.17694719 -0.054154694 0.08699855 -0.105994955 -0.092532806 0.010124061 -0.022902207 -0.13309036 -0.05282927 -0.018183287 -0.085806064 -0.051917143 0.10674794 -0.12409367 -0.058106087 0.079780124 0.0128229745 -0.1677632 -0.12731065 0.032942433 0.085952826 -0.14592662 -0.06747736 -0.015474871 0.085277736 -0.111772686 -0.21031754 0.07370205 0.0060816915 -0.109886825 -0.024445018 -0.094676316 -0.0647354 -0.13376488 -0.115626164 -0.08048724 0.08780552 -0.13169535 0.057363242 -0.0016710149 0.03681949 0.08593304 -0.08993449 0.22900844 0.063529804 0.10671775 -0.008547197 0.14233294 0.0777031 0.010848866 -0.07631314 -0.046443794 -0.0056693233 -0.1278373 -0.08349617 0.01157505 -0.19741265 0.07349195 0.01688372 -0.015409623 0.17267995 0.034721237 -0.116599776 -0.09292293 -0.064696364 -0.08710135 0.025582377 -0.023390578 -0.15470786 0.101915084 0.0897048 -0.05636084 0.0007529246 0.12830648 -0.080005914 0.023597278 -0.13015379 0.09462803 0.17117468 -0.05425756 -0.05790736 -0.042645484 -0.018418716 0.06490924 0.011049441 0.07432514 0.089210525 -0.08550111 0.049630392 -0.033205267 0.03368729 0.034320444 -0.025710545 -0.06499764 -0.25806883 -0.15300967 0.019224174 0.09821378 -0.06491867
246 -0.16383111 -0.24726667 0.15142162 -0.028198782 0.0914767 -0.07222714 -0.14744666 -0.084786065 0.052964825 0.0031966246 -0.116054736 0.022750126 0.0013371372 -0.16756126 -0.020294875 -0.03915177 0.20020086 0.050936367 0.077909105 -0.05130264 0.15536891 0.011883578 -0.016974906 0.0051178723 -0.119076565 -0.012839252 -0.054406147 -0.08364838 -0.09133339 -0.17195651 -0.06836046 0.07950384 -0.105958864 -0.08969695 0.021632567 -0.019901076 -0.1169173 -0.0582478 -0.015535439 -0.07525268 -0.04202166 0.10221273 -0.122326605 -0.054686394 0.071874335 -0.0039059757 -0.1721769 -0.12955624 0.019971382 0.08497761 -0.14963922 -0.075057216 -0.02172141 0.07842907 -0.117973745 -0.2180788 0.07440764 0.015138063 -0.10136954 -0.04208473 -0.09565939 -0.07300543 -0.127734 -0.10570644 -0.07297757 0.081570975 -0.1366039 0.049510572 0.0023127766 0.02267037 0.07218757 -0.07726994 0.22736138 0.055435807 0.103866294 0.0017499592 0.12369241 0.08633346 0.010534669 -0.06028593 -0.03358812 0.007009133 -0.1362047 -0.081929676 0.0034442116 -0.2159325 0.075896986 0.0073801093 -0.028612256 0.17669441 0.04171879 -0.123344205 -0.07773875 -0.06641403 -0.08869987 0.01914382 -0.01730255 -0.14304729 0.10158069 0.10757756 -0.054582126 -0.0043879715 0.13474952 -0.0822893 0.037665617 -0.14158382 0.077707976 0.18220225 -0.049371045 -0.04052864 -0.04008101 -0.01162679 0.07234523 0.0014984829 0.069043584 0.094740875 -0.10016642 0.055655412 -0.03516163 0.039795417 0.032295484 -0.026610253 -0.07812671 -0.26344687 -0.15543678 0.031012772 0.10234173 -0.059397906
89 -0.16399083 -0.23517653 0.14435242 -0.0331708 0.08889929 -0.07152473 -0.13243558 -0.09032092 0.04816181 0.0043634744 -0.11555004 0.012044114 0.0045516826 -0.14891446 -0.013160203 -0.04486507 0.1946953 0.03453594 0.075639315 -0.060591742 0.14971657 0.01568205 -0.0251343 0.008134734 -0.10967521 -0.02071096 -0.039594788 -0.08122866 -0.102358386 -0.17512695 -0.05366098 0.086955555 -0.10211434 -0.09306788 0.007841332 -0.024265142 -0.120377444 -0.057780273 -0.008669226 -0.085249975 -0.041016206 0.10146178 -0.12886934 -0.05415502 0.080624305 0.002200688 -0.16761126 -0.12486401 0.032824308 0.08303831 -0.1468034 -0.07344652 -0.009671334 0.090735376 -0.10949882 -0.216137 0.067576185 0.004233844 -0.113555126 -0.021267332 -0.10281875 -0.06502214 -0.12929824 -0.11244871 -0.08166458 0.092090696 -0.13392907 0.056923527 -0.003098395 0.027327886 0.07727348 -0.090385474 0.22611855 0.064130284 0.103974275 -0.0029708021 0.13484035 0.08866197 0.018986268 -0.06983688 -0.049406618 -0.0033062773 -0.13489059 -0.086260214 0.005208528 -0.20059757 0.071880534 0.022084776 -0.013328457 0.18084109 0.03778491 -0.11723753 -0.10016121 -0.065839775 -0.08539884 0.01917353 -0.01344187 -0.17112187 0.10482481 0.100299984 -0.057513975 0.0020706768 0.13915636 -0.08356724 0.031062396 -0.13572958 0.10255718 0.17422846 -0.058632582 -0.05947441 -0.051578093 -0.017205542 0.070275374 0.0136955315 0.07278295 0.09022208 -0.092399865 0.055844694 -0.039729055 0.042368185 0.04138139 -0.020124028 -0.07090829 -0.24488094 -0.14910206 0.01471843 0.10637251 -0.054535177
1 -0.16271342 -0.24949324 0.15424693 -0.03304622 0.09543389 -0.06799231 -0.14955579 -0.077877626 0.06396691 -0.011393972 -0.11206721 0.024111636 -0.010072082 -0.17238167 -0.0348562 -0.03316548 0.19832489 0.05373095 0.07923717 -0.036741175 0.16524522 0.011904723 0.006753927 0.006180985 -0.13611415 -0.013990486 -0.066430226 -0.07411884 -0.08508355 -0.17860475 -0.08724383 0.08458627 -0.103407994 -0.08945414 0.0376105 -0.01758907 -0.11752983 -0.059909724 -0.0050985 -0.07822811 -0.048129626 0.1109086 -0.12400099 -0.051951535 0.061726324 -0.016406499 -0.16920583 -0.13691023 0.008559411 0.090349354 -0.1577164 -0.07749794 -0.032979686 0.07813674 -0.13133062 -0.22345515 0.07169169 0.037994567 -0.087023094 -0.04301904 -0.08392103 -0.07326781 -0.11819298 -0.097448625 -0.0794756 0.0906978 -0.14945073 0.053030808 -0.001594642 0.022533795 0.086011216 -0.076116644 0.2515814 0.058680173 0.108876325 0.0061877226 0.11993499 0.098943196 0.004508906 -0.08086115 -0.010069503 0.0066336207 -0.124875344 -0.08556497 0.00040036207 -0.21824384 0.06289949 -0.0054916134 -0.033046417 0.16961008 0.048998777 -0.12088435 -0.059502203 -0.07865541 -0.09129896 0.010382499 -0.021058269 -0.12809467 0.09423047 0.12811479 -0.04957543 -0.009117764 0.13515693 -0.08615843 0.04842792 -0.14172664 0.06752691 0.18170996 -0.05352848 -0.0283124 -0.035234574 -0.011697022 0.07417285 0.011758941 0.054073263 0.0741783 -0.099073954 0.058081243 -0.03246627 0.046511102 0.031701375 -0.01894006 -0.09168147 -0.2629618 -0.15564778 0.03596984 0.10419825 -0.059211228
83 -0.17170185 -0.25641784 0.15330069 -0.017596805 0.10538173 -0.07071103 -0.14113052 -0.067221485 0.058704197 -0.012958454 -0.11740954 0.016017187 0.0039657988 -0.1542977 -0.008915466 -0.029493537 0.17789046 0.038305573 0.07248407 -0.07098648 0.16867827 0.009639928 -0.020825578 0.01237051 -0.116400816 -0.027386192 -0.046945747 -0.0864992 -0.094419196 -0.18780026 -0.068324395 0.0914314 -0.11248252 -0.10394367 0.017671732 -0.0065835374 -0.14123143 -0.06519066 -0.028401123 -0.09319316 -0.05992241 0.11775836 -0.12624666 -0.06289103 0.08185128 0.023233386 -0.17511456 -0.14419027 0.025300318 0.08696149 -0.14883256 -0.083496384 -0.014655657 0.070618935 -0.1205885 -0.21794558 0.07121558 0.02281027 -0.10744049 -0.037319202 -0.0916995 -0.069805115 -0.14064074 -0.11940821 -0.082347505 0.09153712 -0.13183184 0.056614503 0.0037945467 0.04034842 0.08047223 -0.07213402 0.22496392 0.06808878 0.08451975 -0.0085246945 0.136121 0.08065236 0.0046042716 -0.074032284 -0.04524948 -0.006479856 -0.120021686 -0.09538177 0.00876791 -0.20541699 0.07483956 0.01611361 -0.020246536 0.16304456 0.045185044 -0.12376522 -0.09626432 -0.06588117 -0.08842454 0.025378997 -0.021247355 -0.14541239 0.09675835 0.0900479 -0.06246933 0.002755644 0.13819902 -0.09702238 0.025608016 -0.12785567 0.0973441 0.16290767 -0.05543106 -0.047599398 -0.04092869 -0.015820356 0.04738877 -0.00087798893 0.07396523 0.080302715 -0.091940366 0.03752013 -0.027200028 0.02848348 0.025205987 -0.034331203 -0.06612352 -0.24352784 -0.13823134 0.019724324 0.07284174 -0.062356718
119 -0.16389747 -0.25993207 0.16540188 -0.011998642 0.12470803 -0.05462353 -0.14026962 -0.05137221 0.05317393 -0.043784607 -0.11134384 0.008749195 0.0028763958 -0.16030963 -0.017214062 -0.021251567 0.17541896 0.055474337 0.07957244 -0.08869864 0.17909993 -0.0057174796 -0.031387456 0.020644424 -0.13909863 -0.022262016 -0.057631508 -0.0816881 -0.06735368 -0.1898806 -0.08246952 0.080102354 -0.12931912 -0.102205835 0.028289212 0.022615435 -0.14451551 -0.07313849 -0.042177543 -0.0962228 -0.08661584 0.14059134 -0.12273214 -0.07850043 0.08039965 0.039009277 -0.17604296 -0.16194256 0.009181814 0.08162794 -0.16132067 -0.09711012 -0.01589355 0.04405492 -0.14259738 -0.21808033 0.06765322 0.040463258 -0.08885848 -0.04921378 -0.09639678 -0.0656735 -0.120756246 -0.11215016 -0.11209284 0.0990626 -0.16821069 0.06551736 0.009191219 0.033513717 0.09573418 -0.08062135 0.25771227 0.07830845 0.07171101 0.005257241 0.13442717 0.077793054 0.014654209 -0.100986116 -0.025478216 -0.0042830077 -0.11007346 -0.08710305 -0.0016834317 -0.21401711 0.06416168 0.008928075 -0.012501515 0.12972869 0.02854553 -0.12844083 -0.11176028 -0.07174861 -0.092891015 0.03428717 -0.03191625 -0.13509712 0.106366985 0.097812 -0.058807213 -0.005873086 0.14879504 -0.1041644 0.019278048 -0.1400733 0.09402716 0.16004972 -0.051996768 -0.037827663 -0.046405725 -0.01971352 0.04560411 -4.6294586e-05 0.05921643 0.07323195 -0.09541389 0.045209218 -0.020357886 0.022896051 0.026072282 -0.020980278 -0.055482835 -0.22511528 -0.12726784 0.023879318 0.076192364 -0.079439625
58 -0.15648572 -0.24036828 0.1400524 -0.040166937 0.07645266 -0.07361313 -0.15027842 -0.09476635 0.058925558 0.0036055776 -0.11079776 0.02390946 -0.007693138 -0.17014623 -0.03669 -0.04773868 0.20760646 0.05587777 0.07450655 -0.027519537 0.1515315 0.014887454 0.008693448 -0.009075529 -0.12727751 -0.015287045 -0.06500657 -0.084890656 -0.09841942 -0.16824795 -0.077750094 0.08329279 -0.09411768 -0.08658125 0.038019262 -0.018862784 -0.11315402 -0.04960555 -0.00021983648 -0.06469742 -0.03418517 0.09572067 -0.12929733 -0.05487864 0.051693823 -0.027684914 -0.16062753 -0.12710913 0.014885424 0.082554 -0.14646608 -0.07347521 -0.02563178 0.091652475 -0.121171996 -0.22393264 0.06725069 0.018224953 -0.09426029 -0.034378935 -0.090035744 -0.07847546 -0.120423526 -0.09970594 -0.05551496 0.074666046 -0.12495683 0.038408093 0.0035619002 0.027684875 0.07419983 -0.074417405 0.23283502 0.047278892 0.1190951 -0.002851837 0.10336386 0.09381491 0.0050411066 -0.067841485 -0.015563594 0.0068530166 -0.13289785 -0.083326906 0.006784884 -0.20619327 0.06786266 -0.0143817 -0.043092504 0.18178782 0.04784912 -0.12205778 -0.055806637 -0.066515714 -0.08636696 0.01105009 -0.025198804 -0.14266913 0.09975165 0.12587148 -0.045601152 -0.011002233 0.12856574 -0.069117874 0.052267563 -0.1474185 0.052951038 0.19345869 -0.045548487 -0.03717455 -0.040934335 -0.010373464 0.09420971 0.009414754 0.052301098 0.07805263 -0.107385986 0.057271 -0.04228914 0.059808306 0.042800643 -0.01313928 -0.09964652 -0.27637404 -0.16188613 0.03445366 0.11668983 -0.05209736
144 -0.16025914 -0.26843372 0.17253594 0.002187805 0.1452977 -0.032660358 -0.16006297 -0.006344728 0.07562246 -0.08889948 -0.08667075 0.034489144 -0.008196564 -0.17618445 -0.026540892 0.00830202 0.1533329 0.07645318 0.082245685 -0.097198874 0.21171649 -0.025688866 -0.0018551182 0.02921901 -0.18087457 -0.014093117 -0.090219386 -0.081631154 -0.027932247 -0.1892969 -0.12503089 0.081665605 -0.13555367 -0.11158988 0.06484619 0.04645334 -0.15306436 -0.081184864 -0.051381573 -0.097632326 -0.11300349 0.16910227 -0.11977951 -0.08543276 0.059979625 0.036733244 -0.16872938 -0.19775848 -0.020610299 0.08737431 -0.18807189 -0.12101915 -0.03648934 0.019024272 -0.17084315 -0.22248325 0.09002158 0.077270575 -0.04719808 -0.09117071 -0.0650086 -0.0654716 -0.09351646 -0.10599091 -0.13800848 0.10276679 -0.18752733 0.05601103 0.017868774 0.024274731 0.10325256 -0.048384946 0.27988878 0.072384775 0.054974698 0.029016396 0.11030736 0.075325936 -0.008506819 -0.13062933 0.026848173 -0.0027517332 -0.078334555 -0.09504278 -0.0084042 -0.2377874 0.060404282 -0.022090998 -0.03624331 0.0933731 0.034043323 -0.14060698 -0.10281922 -0.09567447 -0.10230744 0.046634566 -0.046762947 -0.0909465 0.09968936 0.12030994 -0.056174416 -0.012693452 0.16399325 -0.12677684 0.019050468 -0.14535882 0.0643829 0.15584216 -0.047410354 0.0010099128 -0.04106406 -0.02341695 0.03302277 -0.010350643 0.035355173 0.03633203 -0.09366859 0.039470226 0.0034540428 0.010285634 0.0043233624 -0.005608753 -0.06303695 -0.22064643 -0.10529178 0.07518672 0.046531063 -0.09434807
52 -0.17363966 -0.25874865 0.167165 -0.02148081 0.10849287 -0.06314101 -0.1493523 -0.058920883 0.06466797 -0.040298603 -0.1051713 0.021412143 -0.0034753317 -0.16831729 -0.029524375 -0.02483592 0.18473402 0.058759145 0.07606953 -0.07116425 0.1792019 -0.0021796708 -0.007847138 0.0074624284 -0.14800815 -0.013779511 -0.06644717 -0.07991046 -0.068594046 -0.18459763 -0.088585995 0.086961485 -0.11573758 -0.09769985 0.043682195 0.011906487 -0.13785563 -0.063841306 -0.024966735 -0.08676672 -0.07223149 0.13465133 -0.12921494 -0.06983048 0.06869456 0.013845809 -0.17099838 -0.15643425 -0.002901606 0.080097556 -0.16929199 -0.098988384 -0.028862497 0.05339989 -0.13772663 -0.21852076 0.083899 0.038436487 -0.08883298 -0.06027166 -0.08295093 -0.067319475 -0.12145573 -0.111555904 -0.10250522 0.094963856 -0.15469189 0.058605682 0.009097969 0.033913847 0.08631253 -0.06851263 0.25348842 0.07003211 0.08679433 0.0037734527 0.118829295 0.08641992 0.008688655 -0.09314667 -0.0053210217 0.0008486857 -0.10984189 -0.09294352 0.007939446 -0.21740712 0.06476022 -0.00092073873 -0.03290853 0.1501966 0.03739162 -0.12425581 -0.091534354 -0.08227122 -0.095054716 0.024030691 -0.029676322 -0.12220039 0.09496489 0.12004225 -0.05009464 -0.003401508 0.1501953 -0.09907643 0.03446987 -0.14344785 0.07739451 0.16947092 -0.053923342 -0.024248261 -0.042088553 -0.018093914 0.05577425 0.0020284145 0.053982753 0.06808739 -0.10471825 0.051970184 -0.025635649 0.03076596 0.022848183 -0.017893303 -0.07497803 -0.24287173 -0.13215838 0.038476434 0.081620365 -0.06828619
244 -0.17384832 -0.26053563 0.16165802 -0.007969976 0.12507242 -0.045062285 -0.15125696 -0.03247489 0.07176868 -0.058401115 -0.09680272 0.01908876 0.00402628 -0.16352835 -0.026567744 -0.009407264 0.16654582 0.06344313 0.08604813 -0.08846168 0.1961618 -0.008970465 -0.010748137 0.024573665 -0.15812846 -0.020249091 -0.067371756 -0.07810646 -0.049305756 -0.18804377 -0.10182538 0.081665725 -0.12080672 -0.098133296 0.04409237 0.03555127 -0.15008873 -0.06798968 -0.042568415 -0.09790277 -0.09272865 0.15822883 -0.12599105 -0.083405375 0.0636916 0.03590057 -0.16780369 -0.17664589 -0.008329077 0.082101114 -0.17734796 -0.1073082 -0.029027333 0.037296273 -0.14840855 -0.21589585 0.09208236 0.053695392 -0.07026704 -0.064657986 -0.07756667 -0.06936775 -0.11372678 -0.10827493 -0.11692209 0.10120736 -0.16604562 0.0630337 0.01537554 0.031058785 0.08982741 -0.05723263 0.26493764 0.07519734 0.06222314 0.013172325 0.12779903 0.07864898 0.003691828 -0.11025211 -0.0030925788 -0.0033598572 -0.09692053 -0.089408 0.0055942344 -0.20886323 0.060498193 -0.006433118 -0.03293792 0.12385513 0.03215799 -0.12807128 -0.10976411 -0.08588236 -0.10117357 0.03686474 -0.044821933 -0.118865065 0.0946907 0.11180353 -0.052086454 -0.0014466754 0.15846166 -0.11371578 0.02442399 -0.14350767 0.083292484 0.15581481 -0.04521374 -0.020506078 -0.042921476 -0.026009606 0.04559253 -0.0019105086 0.05145473 0.059974995 -0.09942799 0.044119332 -0.016262213 0.020953467 0.013309577 -0.014072395 -0.071706295 -0.22955708 -0.12132802 0.049959145 0.054714065 -0.08863795
126 -0.16824996 -0.26315865 0.1627773 -0.017834099 0.114494264 -0.054380205 -0.16520888 -0.053418353 0.07588113 -0.048614282 -0.10234643 0.033392932 -0.01618256 -0.18685295 -0.042206157 -0.017894935 0.18864153 0.06636079 0.0809181 -0.05468711 0.18501666 0.0009956831 0.011277792 0.0062536937 -0.16795711 -0.010148428 -0.07487854 -0.08291019 -0.06295463 -0.18326831 -0.10833222 0.07629475 -0.11322069 -0.09694667 0.059235387 0.019527089 -0.1310003 -0.06259831 -0.022842998 -0.07927087 -0.07936584 0.13988604 -0.12538537 -0.07325385 0.0552728 0.0017490082 -0.1617947 -0.16695794 -0.013354931 0.09146117 -0.17495516 -0.0975464 -0.04476753 0.045201745 -0.15261146 -0.23103955 0.083229356 0.06986696 -0.067623556 -0.0734328 -0.07739148 -0.074997485 -0.100726515 -0.102847286 -0.08848917 0.0871337 -0.15765199 0.048742283 0.011482379 0.01844286 0.0879111 -0.056163277 0.24757202 0.06365814 0.087658495 0.019210817 0.099253014 0.0872102 -0.0056229425 -0.09254102 0.014023976 0.011453855 -0.10680267 -0.09062823 -0.0047322437 -0.21815087 0.05571305 -0.022466062 -0.040577814 0.12780337 0.037031606 -0.12434059 -0.07108421 -0.08893549 -0.08897474 0.023943624 -0.03457664 -0.10111591 0.090016365 0.13450068 -0.04984586 -0.012857468 0.14011382 -0.10037694 0.04591396 -0.148623 0.049686957 0.16933723 -0.044956554 -0.01512382 -0.036968607 -0.009558762 0.06665421 0.003435911 0.038914192 0.059784144 -0.10271805 0.05203644 -0.009201672 0.04520268 0.016320199 -0.009684269 -0.08143535 -0.2523182 -0.14485243 0.058630668 0.08652139 -0.07445783
142 -0.17049801 -0.27052557 0.1585317 -0.01430654 0.11772021 -0.04921541 -0.15729246 -0.038972475 0.062378727 -0.052284405 -0.103142 0.029906742 -0.008426012 -0.16637442 -0.026314499 -0.010962628 0.17485498 0.06308132 0.07780158 -0.067785054 0.18441434 -0.008081769 -0.007557971 0.015156732 -0.15389527 -0.010720149 -0.0696573 -0.085026644 -0.05948595 -0.17886642 -0.10150851 0.08257891 -0.11117582 -0.09912751 0.05134382 0.021875035 -0.13911717 -0.07434141 -0.034495827 -0.08830653 -0.08233006 0.1400674 -0.121704735 -0.08211768 0.06293149 0.022049915 -0.17237401 -0.16686545 -0.00267865 0.085879944 -0.17227975 -0.09969399 -0.033275202 0.041988626 -0.14189595 -0.22300126 0.07925164 0.05518094 -0.0734636 -0.069299586 -0.07944525 -0.06708758 -0.11636305 -0.11428287 -0.1028375 0.09194617 -0.15439543 0.057457693 0.011917422 0.031492922 0.08730121 -0.060734943 0.24709788 0.06286702 0.06777925 0.009682074 0.11469833 0.07706733 -0.0017867812 -0.10193478 0.0025460892 -0.0026983358 -0.095236644 -0.09605262 0.004002863 -0.2162633 0.06316301 -0.009808424 -0.038833033 0.13423076 0.033852767 -0.12494315 -0.09567269 -0.084698744 -0.0960073 0.025775362 -0.030506179 -0.10619994 0.096251436 0.11869872 -0.057725165 -0.0057049613 0.14715488 -0.10494236 0.03069167 -0.14220801 0.071382985 0.16802807 -0.04940785 -0.01975773 -0.039393507 -0.020544348 0.04640456 -0.004588039 0.05256928 0.059109934 -0.10037249 0.03995448 -0.013873252 0.03338348 0.017366651 -0.01788574 -0.07164751 -0.25051323 -0.13695121 0.05008493 0.073886536 -0.07106204
138 -0.16659886 -0.25924113 0.15465027 -0.011825213 0.11784879 -0.052287094 -0.15622541 -0.03750562 0.06892924 -0.057956714 -0.094644755 0.028847959 -0.008791862 -0.15827042 -0.024092339 -0.0068951724 0.16546793 0.056981564 0.071244754 -0.07572384 0.18788517 -0.0072134007 -0.008684647 0.01503824 -0.1604939 -0.015904486 -0.0688246 -0.08805204 -0.05528343 -0.1747601 -0.10114309 0.08391084 -0.116659544 -0.1017831 0.047496203 0.027400367 -0.14408927 -0.07399453 -0.036582988 -0.088886715 -0.085689224 0.14006692 -0.12315416 -0.082839884 0.06553944 0.028008543 -0.16411117 -0.1711369 -0.008761554 0.085657835 -0.1744047 -0.1024521 -0.030522935 0.03979656 -0.1422197 -0.219858 0.07943959 0.056614332 -0.07306089 -0.06442314 -0.080162935 -0.070152536 -0.107360184 -0.11197683 -0.10857948 0.09467034 -0.15935743 0.058212504 0.012776596 0.029429447 0.09063231 -0.058264114 0.2588318 0.07097117 0.06363138 0.016595893 0.11800152 0.08222964 -0.0012846537 -0.10903156 0.004208266 -0.0025972773 -0.09498466 -0.099635586 0.0023310361 -0.21457487 0.062612966 0.00032396626 -0.03278125 0.12529984 0.034652617 -0.12733364 -0.10568866 -0.085921265 -0.09717116 0.027431421 -0.030434452 -0.112256646 0.09549073 0.11928246 -0.055435862 -0.0057152095 0.15138495 -0.10903577 0.022280565 -0.14018886 0.07409188 0.15355325 -0.046536405 -0.020989265 -0.043023586 -0.017769052 0.046947114 0.001318454 0.051879473 0.05853105 -0.098091826 0.041059177 -0.018913861 0.023540674 0.016995134 -0.02024616 -0.06934604 -0.2389268 -0.12680353 0.052495513 0.06434978 -0.077789545
2 -0.16909452 -0.2754313 0.17467041 -0.0040599676 0.13845724 -0.046149068 -0.16102327 -0.01523314 0.075611405 -0.07967748 -0.093498625 0.029056232 -0.006278723 -0.1738386 -0.027006876 -0.0018040024 0.15701555 0.062042683 0.08146145 -0.08937627 0.2049342 -0.015344771 -0.0004552403 0.026348574 -0.18294482 -0.012573227 -0.07492521 -0.08874444 -0.04347287 -0.19177276 -0.11425739 0.080391735 -0.1323722 -0.11023919 0.052565873 0.04141719 -0.15257037 -0.08169444 -0.052966364 -0.09677246 -0.104697876 0.16633503 -0.12451858 -0.08736689 0.06857363 0.035861198 -0.17595533 -0.18821737 -0.014282878 0.08293135 -0.18763529 -0.11960278 -0.035168123 0.024751697 -0.15917483 -0.23193641 0.08584534 0.08189026 -0.06805516 -0.07407341 -0.07687654 -0.06890958 -0.109613426 -0.11845594 -0.12426746 0.108835384 -0.17078349 0.061197285 0.01575328 0.026155572 0.093503475 -0.055124994 0.26354024 0.07476681 0.053340513 0.015474183 0.119855225 0.07007916 -0.0019017962 -0.115032285 0.0063870414 -0.006256344 -0.088631995 -0.10490315 -0.0014579549 -0.2208269 0.05777847 -0.013498878 -0.03160968 0.111024775 0.038822353 -0.13607733 -0.11498803 -0.0958834 -0.10632706 0.032975674 -0.03575123 -0.10528374 0.0899906 0.124970175 -0.053691383 -0.008606422 0.15968719 -0.12558119 0.02159631 -0.14278898 0.08484913 0.1587577 -0.053981245 -0.010641157 -0.040957034 -0.017630573 0.03545897 -0.0053132204 0.04737977 0.047959615 -0.10221654 0.038227025 -0.006548538 0.015470043 0.0048396126 -0.018825041 -0.07212083 -0.24681042 -0.13089943 0.06401035 0.06019514 -0.09029737
145 -0.17062162 -0.27936098 0.17759822 0.0042742295 0.13644058 -0.042590655 -0.17148189 -0.015195473 0.07768826 -0.088099055 -0.09031639 0.0276175 -0.018995835 -0.17858529 -0.033833425 0.0023316042 0.15302205 0.064837255 0.07521824 -0.08366185 0.1977402 -0.017209293 0.008510228 0.033432696 -0.18123205 -0.0033828623 -0.082944945 -0.09235973 -0.034983862 -0.18151923 -0.12215999 0.079273984 -0.12820652 -0.1110487 0.06370155 0.041409753 -0.1426574 -0.0755637 -0.050333034 -0.09637196 -0.10854009 0.16197339 -0.11813279 -0.083071336 0.071189806 0.035501968 -0.17286666 -0.1946589 -0.023926841 0.08500793 -0.19005908 -0.11394474 -0.046046168 0.011568059 -0.15627162 -0.2307636 0.08226439 0.08287086 -0.049796198 -0.0896285 -0.06205112 -0.07267073 -0.09841141 -0.109758034 -0.12959446 0.10230564 -0.18564077 0.06164565 0.020971192 0.025100991 0.09783656 -0.055542782 0.27743784 0.07777262 0.06483485 0.01855064 0.11338837 0.08238252 -0.015558403 -0.119259335 0.0247524 0.005628569 -0.08238548 -0.098060675 -0.002416082 -0.23103775 0.045637503 -0.02138407 -0.043435637 0.10898372 0.03637253 -0.13459088 -0.09670105 -0.09804272 -0.09077952 0.03218188 -0.03551864 -0.07814732 0.09210929 0.13353325 -0.055543527 -0.006825922 0.15561132 -0.125427 0.023616226 -0.14779948 0.06351966 0.1470754 -0.050941713 0.0022271418 -0.031866524 -0.02144606 0.02674313 -0.0073302737 0.041160878 0.039748445 -0.09838779 0.045345653 0.0071321726 0.016195849 -0.0006395148 -0.012202731 -0.06889915 -0.23008658 -0.11819297 0.075627856 0.045529667 -0.08508972
277 -0.17087005 -0.25435326 0.15711261 -0.018941002 0.11840585 -0.058518145 -0.15819392 -0.045338005 0.07139254 -0.049288057 -0.10035255 0.024266608 -0.014410544 -0.17581603 -0.040470295 -0.012967829 0.17940931 0.07140393 0.082958795 -0.06664188 0.18913661 -0.0077527724 0.007952125 0.013122506 -0.16141734 -0.011781401 -0.072629996 -0.07665167 -0.05982581 -0.1821579 -0.107496224 0.08450711 -0.11463308 -0.09900106 0.05047705 0.018821973 -0.13423628 -0.06756244 -0.031366523 -0.08526979 -0.08195354 0.14385746 -0.12637194 -0.07631395 0.05506457 0.011352759 -0.16426554 -0.170416 -0.013548957 0.08135486 -0.17133684 -0.0975164 -0.038534693 0.040693026 -0.15137939 -0.22622773 0.082089126 0.05778512 -0.07734146 -0.068713285 -0.076390326 -0.07024505 -0.112951376 -0.10949001 -0.10284305 0.095805034 -0.1612105 0.05482839 0.01087586 0.022037223 0.091525644 -0.059530288 0.25743732 0.06531044 0.08066028 0.011946129 0.109827094 0.082860604 -0.0016989275 -0.09936729 0.0064603314 0.002446576 -0.10244968 -0.09290716 0.0016039473 -0.21633798 0.06051655 -0.010647258 -0.038982544 0.1363669 0.03399067 -0.12577994 -0.08540502 -0.087582015 -0.09830904 0.021608433 -0.031370576 -0.108424075 0.094085656 0.1254125 -0.049656786 -0.0066777337 0.14943127 -0.10626412 0.036952235 -0.14468576 0.06962401 0.16552597 -0.043684684 -0.016770033 -0.037649475 -0.016456284 0.05541146 0.0019212806 0.04745496 0.055240963 -0.10308054 0.049739733 -0.01738047 0.0353431 0.016312148 -0.016061181 -0.08221574 -0.25155067 -0.13350019 0.051258057 0.07625537 -0.07797704
278 -0.16992413 -0.261174 0.16715626 -0.01134078 0.13048913 -0.047465242 -0.15068102 -0.037982225 0.07073411 -0.06438209 -0.097813666 0.026484285 -0.006510558 -0.17651027 -0.0380816 -0.012289744 0.17680119 0.0732303 0.08380858 -0.078329094 0.192927 -0.01049403 -0.008883944 0.016647844 -0.16497351 -0.006281694 -0.069838576 -0.08146971 -0.055609565 -0.18071193 -0.1014723 0.07901548 -0.11326894 -0.10114288 0.052370843 0.030838506 -0.13375793 -0.064497545 -0.03844995 -0.08286655 -0.09402261 0.15598549 -0.12388252 -0.07979877 0.058207255 0.0175402 -0.15542097 -0.17901705 -0.012557083 0.08161116 -0.1690189 -0.09573934 -0.034817148 0.040555924 -0.15287642 -0.23201749 0.08683325 0.05681951 -0.07403016 -0.06937293 -0.08499258 -0.06430139 -0.106951416 -0.11064405 -0.108102374 0.09777556 -0.16167748 0.05761227 0.0044139964 0.01856985 0.09380479 -0.060276978 0.25546768 0.06728194 0.08053324 0.01885834 0.10864257 0.080344476 -0.006219983 -0.108392574 0.01689831 0.0030045696 -0.098120585 -0.088414185 0.0018555826 -0.21965392 0.060829476 -0.014439346 -0.031678136 0.12201808 0.029091023 -0.12918682 -0.09088708 -0.08698841 -0.08927067 0.035930473 -0.045747794 -0.108742386 0.09631734 0.118594274 -0.052382175 -0.006730157 0.15123546 -0.11244817 0.026527427 -0.14123434 0.06827219 0.16667023 -0.05103414 -0.017799404 -0.03785714 -0.020318387 0.05734719 0.00020095664 0.04027656 0.052758377 -0.09616185 0.047819253 -0.013718251 0.027150225 0.009380547 -0.0062077586 -0.075181484 -0.23750256 -0.1316198 0.05721892 0.069238394 -0.0866903
110 -0.16493729 -0.26755807 0.16950108 -0.007008712 0.12660597 -0.05294165 -0.14690138 -0.038907308 0.06972561 -0.055094752 -0.10251104 0.013001102 0.00022752989 -0.16092831 -0.023063485 -0.011542409 0.17082252 0.059317257 0.07855019 -0.08345117 0.1887869 -0.005722285 -0.010680964 0.024093166 -0.15813394 -0.020510927 -0.06611452 -0.084680766 -0.0643766 -0.1842999 -0.09664388 0.08461419 -0.122587666 -0.1035718 0.047674537 0.028721172 -0.14713891 -0.074568495 -0.03665829 -0.09752746 -0.087525226 0.1521353 -0.1268437 -0.08268316 0.079404145 0.033346143 -0.1701168 -0.17120826 0.0030920058 0.08158585 -0.17792939 -0.10527906 -0.030640408 0.036127962 -0.14660493 -0.22468309 0.081397906 0.057705417 -0.075173035 -0.06240388 -0.08614538 -0.0761692 -0.11900279 -0.11553875 -0.109849356 0.09803248 -0.16049862 0.05735298 0.007513251 0.027171904 0.08624219 -0.0635183 0.2496839 0.075960316 0.06855647 0.011042029 0.12791318 0.083082594 -0.0014064783 -0.1046186 -0.004939512 0.0014783534 -0.09952727 -0.09953226 -0.0032571445 -0.21494883 0.0611726 -0.0001489492 -0.027440956 0.12387615 0.03562038 -0.12550773 -0.10268958 -0.07625432 -0.09556362 0.031032117 -0.029628092 -0.11580961 0.09357316 0.114962086 -0.0511405 -0.0010621749 0.15647535 -0.11661005 0.022550749 -0.13951877 0.087571114 0.1510341 -0.04687029 -0.026375972 -0.042243093 -0.021882886 0.039940465 0.0014519156 0.053615104 0.05937046 -0.10287457 0.045967706 -0.016952386 0.024809303 0.012652981 -0.02063811 -0.07258101 -0.23333846 -0.12914774 0.043040942 0.065357275 -0.07467034
146 -0.16845927 -0.27033225 0.17536223 0.003716154 0.14136168 -0.035653554 -0.1632714 -0.0011108562 0.080979176 -0.097314335 -0.08151338 0.03658531 -0.016230233 -0.16728577 -0.030224094 0.014128309 0.14680944 0.07114001 0.08111442 -0.095185734 0.20675682 -0.027715659 -0.0048173675 0.03170702 -0.18881597 -0.009561174 -0.07957282 -0.08590421 -0.02575054 -0.18426572 -0.12590644 0.073271826 -0.13619453 -0.11435457 0.06713759 0.05428743 -0.15928961 -0.080214314 -0.06384899 -0.09354721 -0.118138425 0.17372778 -0.11834491 -0.09439575 0.06337877 0.043161448 -0.1673673 -0.20114335 -0.034025192 0.07709729 -0.18168937 -0.12038682 -0.04378394 0.0077551925 -0.16069028 -0.23241343 0.09066282 0.08449754 -0.05816979 -0.09026262 -0.070279725 -0.063700505 -0.09954754 -0.118975185 -0.13550876 0.10207363 -0.18188675 0.06534553 0.020943163 0.023087425 0.0993054 -0.05446969 0.27573276 0.078345925 0.04740979 0.016072262 0.11042134 0.06750456 -0.004742933 -0.13219555 0.028592257 -0.0065568425 -0.07323642 -0.108089685 -0.0029555138 -0.2251961 0.05310437 -0.016523719 -0.037184305 0.09577292 0.029920414 -0.13362628 -0.11296493 -0.09665333 -0.098899566 0.040694814 -0.0497159 -0.081473604 0.09696964 0.12980191 -0.052261658 -0.012236406 0.15811327 -0.12844796 0.018063502 -0.14362435 0.07475911 0.15361506 -0.052115537 -0.003698694 -0.031081252 -0.023152258 0.030393915 -0.0103501715 0.040243365 0.035791673 -0.098882645 0.030110577 -0.002314462 0.013469586 0.0027885681 -0.017783768 -0.07106662 -0.23175447 -0.121224545 0.07161609 0.047943126 -0.10102578
254 -0.1609988 -0.26399827 0.16264391 -0.009973194 0.118365765 -0.05130615 -0.14685126 -0.034414608 0.059936292 -0.053109992 -0.097897984 0.019436741 -0.00084419246 -0.15568233 -0.017518539 -0.00898356 0.16662046 0.059378844 0.07762113 -0.08135329 0.1849186 -0.011286572 -0.013407966 0.021542644 -0.15025945 -0.020926002 -0.06856694 -0.090761036 -0.056266736 -0.19112763 -0.09891572 0.08636873 -0.11940807 -0.11086351 0.03654641 0.029307207 -0.14989454 -0.071992815 -0.042927556 -0.09500772 -0.09568772 0.14497732 -0.12324545 -0.082915194 0.07434121 0.037391666 -0.17332004 -0.17365369 0.0042198747 0.08594893 -0.16657314 -0.10668135 -0.020137362 0.036464635 -0.1416459 -0.22212628 0.0705168 0.049131725 -0.077218175 -0.0598228 -0.08960825 -0.06887145 -0.11315762 -0.116746485 -0.10405858 0.09576449 -0.15135215 0.054099876 0.014979045 0.028836045 0.085288934 -0.060342804 0.2406929 0.071119376 0.059399568 0.0048258686 0.1197581 0.07428042 0.0041700327 -0.09644339 -0.013424941 -0.0030675898 -0.0947124 -0.10362416 -0.005188589 -0.21439306 0.062731996 0.0002617435 -0.021488912 0.12819016 0.030058855 -0.12983714 -0.100014456 -0.076204255 -0.10117269 0.035507273 -0.033487454 -0.1188336 0.09981618 0.1037638 -0.061097935 -0.004442972 0.15175426 -0.11307753 0.019267192 -0.13594009 0.09012376 0.16654284 -0.052098714 -0.021362877 -0.04733027 -0.02434443 0.045470335 -0.0093353735 0.058689307 0.065580286 -0.09417343 0.04287593 -0.013052918 0.021342997 0.019655999 -0.028400319 -0.0689772 -0.2524103 -0.13849224 0.04004616 0.07394701 -0.086097494
260 -0.17716862 -0.2688401 0.17228802 0.0038810107 0.13173711 -0.054429326 -0.16452141 -0.015260087 0.081821 -0.075969756 -0.09508787 0.027904868 -0.008017563 -0.16871127 -0.016644394 0.0005014349 0.15288329 0.058415517 0.070411175 -0.0885228 0.20149653 -0.014964069 0.0027067831 0.029279426 -0.17550896 -0.0069548907 -0.07385889 -0.09441776 -0.045866147 -0.18130717 -0.11518205 0.08624523 -0.13180567 -0.11196077 0.05869455 0.034880552 -0.15576887 -0.07728492 -0.05962757 -0.09909225 -0.101910174 0.15639865 -0.121623985 -0.08778656 0.077903844 0.04458205 -0.17419463 -0.19107167 -0.008366933 0.079995535 -0.1791645 -0.11883679 -0.0362045 0.024082216 -0.14484295 -0.23092826 0.085340515 0.07222913 -0.06890722 -0.07865292 -0.06740908 -0.066491514 -0.11537946 -0.12387461 -0.11730662 0.10553881 -0.16562112 0.064201616 0.015537638 0.031659156 0.09061835 -0.05770325 0.25742432 0.078269206 0.04897186 0.009205911 0.117625505 0.07722244 -0.0022806053 -0.11003963 0.0034038178 -0.009029207 -0.08235526 -0.112722956 -0.0059641926 -0.23089428 0.059349187 -0.005255768 -0.035007205 0.112434894 0.043175556 -0.1366438 -0.10939055 -0.09275791 -0.09995741 0.027389612 -0.031957828 -0.1077984 0.08894536 0.12086392 -0.06091192 0.0009892087 0.16401197 -0.13572563 0.020422988 -0.1454239 0.083767176 0.15309273 -0.057589095 -0.01722921 -0.03795905 -0.017784113 0.02610344 -0.007296364 0.04999428 0.05261613 -0.102103405 0.027961299 -0.0054599103 0.02041364 0.004543601 -0.022275552 -0.069590636 -0.24064375 -0.12226675 0.05660209 0.04247516 -0.07696225
105 -0.16557895 -0.27214107 0.17493278 -0.007851328 0.12592395 -0.052197747 -0.16611294 -0.022267083 0.08115824 -0.074204884 -0.08630945 0.034961667 -0.013538771 -0.18173394 -0.038307924 0.003013668 0.1673976 0.06754442 0.08224093 -0.064074166 0.19968349 -0.016513353 0.020912686 0.025210163 -0.1774276 -0.0032565005 -0.08610591 -0.08339395 -0.04728662 -0.17975557 -0.12494756 0.07179004 -0.12200111 -0.10425789 0.069584996 0.03062862 -0.14261186 -0.073514484 -0.038917158 -0.08980641 -0.09455649 0.15204409 -0.11782889 -0.080383904 0.055067144 0.014671421 -0.16470346 -0.19028778 -0.026533183 0.08266424 -0.18201628 -0.108119965 -0.04818053 0.024911689 -0.15484935 -0.23295793 0.08780697 0.0782433 -0.061519057 -0.080204904 -0.07107454 -0.07585984 -0.107612245 -0.11091175 -0.10408301 0.09702191 -0.17251863 0.048501536 0.011813783 0.02796501 0.09518828 -0.049456205 0.25727695 0.069635965 0.06264409 0.013857268 0.09861733 0.08574843 -0.010011033 -0.1131683 0.021873018 0.0007371234 -0.0868351 -0.10173673 0.0011406671 -0.22786805 0.05734801 -0.032989968 -0.04815335 0.11812482 0.040827885 -0.12493928 -0.08385187 -0.09326325 -0.09897381 0.024304766 -0.037436977 -0.08569221 0.08710363 0.13782099 -0.04427564 -0.0136912195 0.15834053 -0.10914151 0.035364874 -0.14699261 0.05546811 0.16119799 -0.04752729 0.001749068 -0.027767109 -0.014906208 0.048917294 -0.0050435322 0.03787214 0.053249653 -0.110739104 0.038648058 -0.0043502827 0.03449166 0.0029793282 -0.01968281 -0.0847979 -0.2526629 -0.12825596 0.07553214 0.06218798 -0.084205955
57 -0.1653701 -0.26617482 0.16533773 -0.004228646 0.13977124 -0.035863064 -0.15594971 -0.0120022455 0.07655525 -0.08672476 -0.08193541 0.02257922 -0.0017136991 -0.16549401 -0.03394454 -0.00020534132 0.15145777 0.065741494 0.08567214 -0.09513347 0.19995113 -0.021839282 -0.0015864644 0.024455078 -0.17965609 -0.010852773 -0.077895015 -0.080788545 -0.038076162 -0.18907091 -0.116890855 0.08164697 -0.12823156 -0.105731614 0.0559591 0.054591063 -0.1550239 -0.07605361 -0.05907565 -0.09035235 -0.111088686 0.16953775 -0.122330144 -0.09536274 0.061187606 0.043748595 -0.15958491 -0.19017698 -0.019705929 0.082574114 -0.19025475 -0.11519665 -0.036893763 0.0129446555 -0.15970714 -0.22563328 0.08566882 0.08020297 -0.058360662 -0.07790455 -0.080726966 -0.063479476 -0.102920674 -0.109555796 -0.13175216 0.10219982 -0.18377674 0.061614893 0.019829756 0.029997183 0.10263845 -0.05570227 0.2800786 0.07520186 0.058895394 0.019294197 0.12218555 0.07737805 0.0005196209 -0.12600753 0.01694678 -0.0026243792 -0.07543485 -0.0965429 4.4630237e-05 -0.21604355 0.05722718 -0.019650685 -0.034234207 0.10458734 0.028699614 -0.13555863 -0.12123982 -0.085909754 -0.10321766 0.03989261 -0.046201028 -0.10129252 0.0977009 0.12007063 -0.0490433 -0.0072363545 0.15977438 -0.124124445 0.017992811 -0.13927023 0.08001861 0.15729183 -0.049606267 -0.008869328 -0.042598043 -0.020994416 0.039107587 -0.0017028804 0.03981571 0.045995448 -0.099513754 0.033538144 -0.008123349 0.012300431 0.008005708 -0.01170089 -0.07319261 -0.22115284 -0.11614818 0.062237464 0.051557 -0.10135649
48 -0.16950034 -0.26581174 0.16678655 -0.01359785 0.11610098 -0.050666332 -0.15958387 -0.0463166 0.06803035 -0.047008455 -0.10517212 0.027524695 -0.0071718814 -0.16628343 -0.028965129 -0.01713214 0.17275673 0.058303934 0.07689434 -0.06781084 0.18535127 -0.00518418 -0.006469424 0.01404545 -0.15429404 -0.0122340005 -0.07317854 -0.086738706 -0.06263382 -0.18350615 -0.09702306 0.08147824 -0.11171982 -0.10213926 0.043626025 0.019230437 -0.13761435 -0.06792909 -0.036475554 -0.08527943 -0.08655624 0.1410543 -0.12795742 -0.07823806 0.06929076 0.024485834 -0.16984056 -0.17198431 -0.0071435156 0.08244297 -0.16709203 -0.09870544 -0.03297693 0.045131035 -0.14593199 -0.22448353 0.08132038 0.052125763 -0.07742941 -0.06651105 -0.078828454 -0.067781545 -0.1137402 -0.111537725 -0.10363026 0.092951804 -0.16152066 0.0598253 0.012003429 0.024900652 0.08869288 -0.06838884 0.25110307 0.07198611 0.08006406 0.011933103 0.11581503 0.08291617 0.0009140544 -0.09635385 0.0027431685 0.006168729 -0.09938438 -0.09805824 0.0015673292 -0.22210436 0.062240582 -0.0010245808 -0.03314311 0.13549724 0.03339027 -0.123913534 -0.09216257 -0.0794198 -0.09211767 0.023305876 -0.030033652 -0.113256365 0.095314704 0.12102113 -0.055796072 -0.007724676 0.15324219 -0.10433484 0.024404546 -0.14150034 0.069110036 0.16870315 -0.05112737 -0.023359291 -0.043749068 -0.019791495 0.05117788 -0.002663329 0.051904444 0.06352223 -0.094563045 0.047991995 -0.016930368 0.030899696 0.016781272 -0.021888612 -0.07096074 -0.24388821 -0.13555124 0.052338466 0.07329109 -0.073750965
198 -0.16310073 -0.26296356 0.17149429 -0.0030168265 0.12022313 -0.043520767 -0.16355975 -0.022555934 0.078919135 -0.074727744 -0.090572275 0.027419178 -0.00898084 -0.16846724 -0.03673038 -0.0041393675 0.15850134 0.067333736 0.07838175 -0.07215655 0.19833854 -0.01900795 0.0030015493 0.020868625 -0.17923602 -0.0074517396 -0.07685289 -0.08976122 -0.04339947 -0.18633404 -0.11665536 0.07764714 -0.12390367 -0.10017874 0.064406864 0.042768188 -0.1421249 -0.07045771 -0.04541796 -0.08527353 -0.10016761 0.15404955 -0.12583221 -0.0864254 0.06750144 0.026189676 -0.16542031 -0.18814594 -0.023503782 0.08452902 -0.17658837 -0.11052226 -0.037498824 0.022996249 -0.15510464 -0.22588946 0.08482094 0.07986937 -0.062105652 -0.079714656 -0.070124246 -0.073248126 -0.100544766 -0.11254344 -0.11029159 0.09122485 -0.16860196 0.06013638 0.015620227 0.023488672 0.094866775 -0.05313309 0.25764763 0.075692296 0.06318193 0.017405285 0.10773788 0.07165835 -0.003156772 -0.108430035 0.017856767 0.0030192446 -0.08669241 -0.1012241 -0.0026801769 -0.21406895 0.047774754 -0.021777611 -0.042794768 0.11186056 0.033499394 -0.13085793 -0.08946598 -0.08860664 -0.09161635 0.029315585 -0.035850134 -0.09120062 0.08664033 0.12813824 -0.049098276 -0.011479726 0.15009509 -0.11831057 0.03204921 -0.14557287 0.065928444 0.15725915 -0.046423208 -0.0092738625 -0.042247247 -0.015217456 0.050543815 -0.0028086866 0.03884489 0.050283827 -0.1011853 0.04034368 -0.00535525 0.03031651 0.008576203 -0.011055897 -0.0790618 -0.23728928 -0.13345832 0.060056817 0.06618466 -0.09129858
61 -0.17859188 -0.27503678 0.1765737 -0.0022629406 0.13250016 -0.049047988 -0.16041453 -0.023060452 0.07927219 -0.07642117 -0.0970232 0.025837956 -0.011367515 -0.17363152 -0.032747716 -0.0035423604 0.16546924 0.07017732 0.07134667 -0.0921357 0.20412593 -0.018855521 -0.0021193968 0.021434646 -0.16820234 -0.016918188 -0.079372995 -0.09288534 -0.050070964 -0.19082773 -0.11368555 0.07916509 -0.13600832 -0.112103194 0.05910624 0.042629324 -0.14401273 -0.0729964 -0.046296727 -0.09479101 -0.1063391 0.1574904 -0.12565129 -0.08976208 0.06741945 0.036436543 -0.17314143 -0.1870184 -0.013057373 0.0878415 -0.18153101 -0.11561665 -0.033928793 0.025737325 -0.16030765 -0.22647923 0.08672051 0.07214679 -0.06847241 -0.086659834 -0.077705055 -0.07362079 -0.10548497 -0.11349625 -0.11180441 0.0928904 -0.16294436 0.050862662 0.021958102 0.023956884 0.08730916 -0.04597996 0.24196695 0.06680799 0.054340135 0.020860711 0.10677663 0.07141229 -0.003212724 -0.10677274 0.01796774 -0.002432977 -0.09015844 -0.09950296 -0.0040126313 -0.22304106 0.057753894 -0.014705311 -0.034996588 0.11399687 0.027535938 -0.12717251 -0.098225825 -0.095519364 -0.09833152 0.036592193 -0.03830046 -0.100079544 0.089171425 0.12228215 -0.056381393 -0.0046832855 0.16585954 -0.12045556 0.024085907 -0.15182285 0.0698883 0.15116157 -0.04835005 -0.012701585 -0.046141904 -0.02040737 0.039855983 -0.0029897278 0.0363487 0.05370763 -0.1019968 0.04000622 -0.0053749313 0.021668186 0.0047230534 -0.00636885 -0.06991262 -0.22970921 -0.11960028 0.066197105 0.05404103 -0.080260225
257 -0.17680101 -0.26672822 0.16258498 -0.00046978943 0.13041842 -0.05580935 -0.13839044 -0.03415554 0.059027556 -0.050844003 -0.106908955 0.01215276 0.006228544 -0.14004505 -0.00476456 -0.014445219 0.15533414 0.036829874 0.06955867 -0.10096773 0.18604726 -0.010597039 -0.034910057 0.018969687 -0.13527042 -0.03229789 -0.046633624 -0.09561469 -0.06772008 -0.19176477 -0.07670917 0.09183731 -0.13063169 -0.1142682 0.022255378 0.033338655 -0.15294187 -0.08055928 -0.05599312 -0.10801979 -0.095415965 0.14995334 -0.12355456 -0.09102623 0.08870529 0.06522614 -0.17440316 -0.17276625 0.01602669 0.084681444 -0.15450054 -0.10560011 -0.0054834937 0.03738927 -0.13259947 -0.21555091 0.07352417 0.048481043 -0.08854865 -0.052143324 -0.089484595 -0.066841625 -0.124295436 -0.12498925 -0.117713414 0.10430191 -0.15349518 0.07393808 0.017153656 0.03352233 0.09235371 -0.0741226 0.23851043 0.087050095 0.046258453 -0.0038935202 0.1482173 0.074806385 0.014899155 -0.09808888 -0.035018627 -0.0132744275 -0.09708905 -0.1105181 -0.0035868431 -0.210596 0.07199622 0.03391493 -0.014038435 0.12132936 0.028176889 -0.13794704 -0.1353923 -0.068942875 -0.095634244 0.030513503 -0.025085716 -0.14091013 0.09201881 0.09534101 -0.07076582 0.0048065623 0.16399938 -0.12335661 0.0009769546 -0.12554257 0.11494759 0.1425291 -0.060880177 -0.044611275 -0.055985015 -0.026672091 0.024893614 -0.005775416 0.07365575 0.0805191 -0.0943361 0.033345543 -0.012714894 0.018028118 0.015752003 -0.033477098 -0.053070057 -0.23903246 -0.13245334 0.018797554 0.053066153 -0.07771923
84 -0.16528156 -0.24879175 0.15231341 -0.025499 0.08370553 -0.07879361 -0.15747708 -0.09143544 0.058393087 0.0005845664 -0.118289895 0.025478711 -0.01490533 -0.17637657 -0.034102585 -0.033245638 0.20324989 0.049321692 0.06638423 -0.022191508 0.15342058 0.018973386 0.014017024 -0.0039468436 -0.13019596 -0.013967505 -0.071080215 -0.08711343 -0.09757777 -0.17348407 -0.077980235 0.089965954 -0.09508195 -0.09446202 0.042295292 -0.022296077 -0.10793631 -0.04746682 -0.008512222 -0.07689455 -0.04325741 0.102688804 -0.12932014 -0.051665448 0.06474996 -0.017592242 -0.17169385 -0.13218892 0.011070716 0.08958281 -0.14263622 -0.072722346 -0.034283105 0.08324301 -0.11390996 -0.2277182 0.069941334 0.032888185 -0.09189529 -0.04023424 -0.08825068 -0.07595071 -0.1262687 -0.104931906 -0.04979707 0.08501374 -0.13702044 0.048870366 0.0053815083 0.021073425 0.076455064 -0.07318498 0.22567533 0.058013864 0.11357084 -0.002515874 0.1138337 0.10638522 -0.0015468817 -0.056456555 -0.016491536 0.01567432 -0.13069473 -0.084842525 0.00074514945 -0.21145026 0.063957185 -0.0068203346 -0.03982379 0.17899585 0.04881196 -0.12192392 -0.04586605 -0.07424686 -0.084688134 0.0033467677 -0.010775235 -0.1264776 0.088071816 0.12381019 -0.04911699 -0.011179642 0.12684251 -0.07997689 0.051078316 -0.14420141 0.0525351 0.17558567 -0.045905728 -0.033486016 -0.036566045 -0.006675882 0.07839834 0.005653241 0.06330347 0.091773905 -0.105566 0.057361305 -0.03164667 0.060380537 0.027358266 -0.023110658 -0.09223849 -0.2823286 -0.16629452 0.030836316 0.113638796 -0.04775084
186 -0.17173886 -0.2782869 0.17650008 0.008825042 0.14323631 -0.04280712 -0.1722698 -0.009917587 0.07703771 -0.097055145 -0.08033468 0.030783381 -0.01877975 -0.18057945 -0.03252717 0.006127296 0.15724686 0.07695908 0.084499076 -0.08278241 0.21627691 -0.024535188 0.002234894 0.024212675 -0.19228101 -0.005251313 -0.08377409 -0.09628291 -0.0390175 -0.18618952 -0.12832943 0.07527407 -0.13419098 -0.107221 0.067614734 0.05888547 -0.15082899 -0.074450865 -0.057625458 -0.09368344 -0.11430126 0.16966812 -0.121740386 -0.092924125 0.065857716 0.035867553 -0.16617146 -0.19959037 -0.02796433 0.0870293 -0.17766383 -0.12278474 -0.042493176 0.0054058875 -0.1570641 -0.23615673 0.08384484 0.09043293 -0.048736256 -0.09623522 -0.06726479 -0.072081186 -0.095932715 -0.11508402 -0.12622252 0.10022006 -0.17851439 0.0643464 0.01922921 0.019457072 0.09848579 -0.045437414 0.27330858 0.076678775 0.05432084 0.020377444 0.107028835 0.07234525 -0.009032695 -0.12814438 0.030512108 -0.001673326 -0.067233935 -0.1043844 -0.011712577 -0.22293639 0.055297796 -0.018163012 -0.041591853 0.096426345 0.02626769 -0.13438858 -0.10243835 -0.09889771 -0.096620224 0.03246257 -0.04916448 -0.07829514 0.09048888 0.13174093 -0.04927978 -0.013003133 0.15695335 -0.11921282 0.028367637 -0.14640035 0.06002912 0.15143406 -0.044169597 -0.0015000602 -0.035408117 -0.014668179 0.040482122 -0.0034753163 0.03845542 0.044665117 -0.10004193 0.031587586 0.000769699 0.023874238 0.0053928113 -0.014635222 -0.07058583 -0.22847986 -0.12156059 0.06916023 0.04228706 -0.09263979
87 -0.16971005 -0.27021763 0.17142047 -0.008500706 0.12635057 -0.047061097 -0.16856146 -0.037295368 0.079432696 -0.06663634 -0.095032476 0.032692596 -0.012173385 -0.18752009 -0.039276645 -0.0041483054 0.17407772 0.073064856 0.08209702 -0.066427246 0.19468583 -0.012961139 0.005511888 0.01592198 -0.17865796 -0.0010059179 -0.0863317 -0.08263693 -0.04963711 -0.18310425 -0.112387985 0.07788489 -0.11872499 -0.10021692 0.06833386 0.027987123 -0.12710366 -0.06064068 -0.038072 -0.078883246 -0.09289962 0.14471176 -0.12463093 -0.07579798 0.05900051 0.0100161955 -0.1650458 -0.17984733 -0.018837152 0.08302762 -0.18031158 -0.105811104 -0.04847327 0.032737587 -0.1554907 -0.230507 0.09001238 0.06846654 -0.058507215 -0.07891719 -0.06925086 -0.07082433 -0.10137867 -0.10798953 -0.107235074 0.094832994 -0.17462024 0.054745268 0.013470613 0.020224568 0.099068224 -0.059356306 0.27426288 0.07107968 0.08485407 0.015728926 0.109382845 0.08562833 -0.008361864 -0.11079304 0.022027917 0.007863122 -0.09677959 -0.08555634 -0.006111275 -0.22555251 0.052805435 -0.028591746 -0.04303821 0.12509003 0.031283103 -0.131644 -0.08177023 -0.09649523 -0.08836554 0.027629908 -0.03392224 -0.09183623 0.09068996 0.13135599 -0.044461243 -0.01627191 0.14879921 -0.10963823 0.03886855 -0.148796 0.049423713 0.1658791 -0.04036315 -0.0089914715 -0.03607986 -0.014255348 0.05289585 0.0025041855 0.037315115 0.04944393 -0.10642759 0.049524315 -0.009090927 0.031256124 0.008368554 -0.008258262 -0.082299605 -0.25422114 -0.13656713 0.07226667 0.078435495 -0.08753607
224 -0.1680923 -0.2629301 0.16849019 0.007859953 0.14109789 -0.03793342 -0.15285113 -0.0033474183 0.07302695 -0.090147875 -0.081340015 0.03037284 -0.009520579 -0.16289511 -0.028446883 0.0069950134 0.15847859 0.0694983 0.08085507 -0.09150838 0.20784003 -0.023720875 -0.0068185613 0.02980639 -0.18343465 -0.010427537 -0.0686075 -0.082648754 -0.037901703 -0.18696031 -0.119557716 0.07352374 -0.12465452 -0.107845046 0.053855106 0.049114082 -0.14995362 -0.07596478 -0.056507513 -0.088108115 -0.11350586 0.17025101 -0.12521109 -0.08922986 0.0643376 0.03859665 -0.16173403 -0.19236635 -0.022888027 0.08083556 -0.18364957 -0.11459212 -0.03525589 0.01211074 -0.15918443 -0.22215551 0.08608452 0.07574858 -0.06270838 -0.08058794 -0.073136866 -0.058653098 -0.09894142 -0.11583658 -0.13328056 0.10592456 -0.1764906 0.062214844 0.017642217 0.020770555 0.09961285 -0.056828115 0.2634605 0.07135245 0.056564376 0.019583117 0.11790553 0.06627041 -0.0041767587 -0.12134791 0.017012065 0.00012202683 -0.075991236 -0.09897319 -0.00015276985 -0.21287385 0.053929977 -0.012907583 -0.03226405 0.09780728 0.022548668 -0.13410865 -0.10866376 -0.09131638 -0.100341745 0.03884065 -0.044386216 -0.09035225 0.09071577 0.11196428 -0.056245808 -0.0078901015 0.15439078 -0.11540449 0.014905876 -0.12928025 0.07721913 0.14326054 -0.043917 -0.0081159165 -0.04113776 -0.018419098 0.032964803 -0.0018707901 0.041304898 0.042831074 -0.09208285 0.034823034 -0.0029611657 0.010446039 0.003103222 -0.013859492 -0.066346176 -0.21945739 -0.1225728 0.06634711 0.052075244 -0.09826282
59 -0.17824322 -0.2597076 0.16580597 -0.008478583 0.12648211 -0.05285707 -0.14124572 -0.03531578 0.06137316 -0.04559814 -0.10956181 0.015430738 0.009524641 -0.14626428 -0.012184381 -0.01408805 0.1607288 0.04370425 0.07261264 -0.093630716 0.19629204 -0.013423533 -0.040190455 0.014339088 -0.13691624 -0.032629505 -0.046579346 -0.090601124 -0.06773358 -0.20058973 -0.083523236 0.09532643 -0.13104168 -0.11691386 0.023110222 0.026149513 -0.15839529 -0.07948598 -0.055025093 -0.11063577 -0.090932466 0.15038103 -0.13261823 -0.082731545 0.093708366 0.058826316 -0.17683539 -0.17013004 0.017367242 0.07919478 -0.1521206 -0.10816508 -0.0076945755 0.03954393 -0.12065452 -0.2079564 0.0800716 0.04888087 -0.09533245 -0.05882864 -0.09536928 -0.060634613 -0.12431781 -0.13375178 -0.10836451 0.10132389 -0.1470423 0.06629301 0.0140501065 0.03239492 0.09042152 -0.07897174 0.23581058 0.07582625 0.054253902 -0.0024820094 0.14350773 0.064868264 0.021034626 -0.09426573 -0.03794076 -0.023888772 -0.10011491 -0.10277383 -0.007263797 -0.2098817 0.07604972 0.035733733 -0.011271103 0.12308931 0.030056082 -0.12973106 -0.12787315 -0.06885072 -0.09863649 0.027784867 -0.029903397 -0.13709608 0.09315674 0.09485436 -0.06356324 0.012706163 0.15704358 -0.12040164 0.0033755032 -0.12458079 0.1147318 0.14039223 -0.060224127 -0.04115427 -0.049289573 -0.02291468 0.031696454 -0.005224682 0.072166115 0.08312964 -0.09644815 0.028546246 -0.008127955 0.020032834 0.014520903 -0.033657365 -0.05231283 -0.22724065 -0.12618883 0.011627826 0.059467223 -0.07673537
47 -0.16868736 -0.26532093 0.16876113 -0.011211669 0.13225716 -0.045861825 -0.163232 -0.02104566 0.07531434 -0.07146004 -0.09182401 0.034558408 -0.013913511 -0.18560776 -0.03604926 -0.0024540245 0.17272373 0.0750586 0.08279449 -0.07268024 0.20106111 -0.014572716 0.0029880996 0.020278417 -0.17349102 -0.0066017783 -0.07428206 -0.08167778 -0.047319703 -0.1852256 -0.117349945 0.07866906 -0.122677326 -0.10717969 0.058798797 0.035018947 -0.14445822 -0.07025921 -0.04123478 -0.08265594 -0.092605196 0.15424347 -0.12508124 -0.08041307 0.06260482 0.017309403 -0.16626728 -0.18240026 -0.018628456 0.084728345 -0.17140943 -0.107130036 -0.039698187 0.028157473 -0.15488553 -0.23060401 0.08693088 0.06921065 -0.065037176 -0.08696175 -0.0732851 -0.07141038 -0.107084915 -0.11355376 -0.114471994 0.09560097 -0.16658068 0.05930916 0.008599664 0.026722452 0.09569419 -0.05728607 0.26597697 0.068239845 0.06860863 0.013253319 0.10095258 0.077263966 -0.0057563363 -0.11935461 0.022043208 -0.004410563 -0.088042855 -0.097183265 0.0024786915 -0.21658112 0.05172541 -0.019018505 -0.036247667 0.11358471 0.02871902 -0.12538832 -0.09528245 -0.09045362 -0.09537363 0.03086007 -0.04505796 -0.09045653 0.081525736 0.124606304 -0.049396437 -0.009104877 0.14393184 -0.10670927 0.03196109 -0.1387725 0.05845149 0.15707198 -0.046219114 -0.004647559 -0.03019094 -0.015617151 0.047108434 -0.0019268496 0.036323052 0.043209393 -0.095653616 0.035158835 -0.010218675 0.029671164 0.008018029 -0.008945786 -0.07491276 -0.23347555 -0.12109861 0.06564773 0.05811911 -0.07805615
118 -0.17208867 -0.2756321 0.17989378 0.0069153127 0.143482 -0.03964418 -0.15720697 0.0031861796 0.07916003 -0.09264389 -0.08736195 0.028628752 -0.0023452884 -0.16491815 -0.021113306 0.010121373 0.14000307 0.06385986 0.075055405 -0.102368 0.21330999 -0.031190658 -0.0107184835 0.031242404 -0.17690465 -0.010696308 -0.07329373 -0.093617514 -0.035187893 -0.1895393 -0.11896534 0.07662819 -0.13282092 -0.11437929 0.05876183 0.05418107 -0.16011702 -0.078441106 -0.06792545 -0.10455587 -0.121313155 0.17111157 -0.12210364 -0.09359042 0.07232759 0.054076716 -0.17283982 -0.19614771 -0.022129342 0.08212319 -0.18244492 -0.12771572 -0.032776747 0.0041181706 -0.15230002 -0.2275141 0.09391532 0.080771 -0.060088713 -0.09051795 -0.069373816 -0.07077285 -0.10903918 -0.12659821 -0.1310387 0.100188516 -0.17153646 0.06728742 0.019134874 0.031680502 0.095457345 -0.051421173 0.25807387 0.07832666 0.03508212 0.012677608 0.12163096 0.06237038 -0.0037859417 -0.1256124 0.00828858 -0.0133950515 -0.07795351 -0.11096911 -0.0025395295 -0.22334766 0.05629901 -0.003656887 -0.03293885 0.09303323 0.03480737 -0.13791195 -0.12089454 -0.09167774 -0.106299184 0.03750358 -0.042249154 -0.09462917 0.0882332 0.12075471 -0.05884575 -0.005232815 0.16949643 -0.1338282 0.012545667 -0.13167621 0.084288485 0.13942115 -0.052688878 -0.009898574 -0.03686829 -0.022316942 0.022594891 -0.009718393 0.0477337 0.048249237 -0.102431625 0.026697211 -0.0011136357 0.013455923 -0.005539956 -0.014167156 -0.065043114 -0.2278288 -0.11684933 0.059636753 0.03196663 -0.09242052
115 -0.1689466 -0.28173828 0.181421 0.0036289336 0.15070544 -0.038794756 -0.1598352 -0.004354703 0.077334866 -0.09445796 -0.0879457 0.023203757 0.0013189664 -0.1693036 -0.020322466 0.0088799065 0.14434512 0.06389812 0.08444045 -0.11246405 0.20967641 -0.023320714 -0.013305833 0.028660836 -0.17757258 -0.017411212 -0.073392384 -0.08849122 -0.03118423 -0.19112147 -0.11994048 0.08186207 -0.13478193 -0.11959073 0.054472104 0.0585053 -0.16271912 -0.08029536 -0.07129717 -0.10179793 -0.127989 0.17763619 -0.12808138 -0.09551314 0.071484506 0.060983393 -0.1672584 -0.20108639 -0.018451639 0.077151366 -0.19026059 -0.12378073 -0.027266579 0.010814076 -0.15931632 -0.22311462 0.088650234 0.08006976 -0.061329003 -0.080681376 -0.07370596 -0.0677344 -0.10477036 -0.12301426 -0.14240618 0.11000251 -0.18246317 0.06873475 0.01564146 0.02946898 0.101275764 -0.05978199 0.26864251 0.08026364 0.044743128 0.019918144 0.12515967 0.06429361 -0.0041931947 -0.13025922 0.008979411 -0.013797329 -0.07113821 -0.10180632 -0.009139228 -0.22131188 0.064358555 -0.0052014287 -0.026565215 0.08589192 0.024873257 -0.141896 -0.12760493 -0.08920375 -0.09993001 0.045227777 -0.047152758 -0.10186477 0.09273068 0.11040106 -0.054160558 -0.006936348 0.16860305 -0.13395429 0.009757813 -0.13425912 0.0833563 0.14101526 -0.05199036 -0.014715191 -0.037945632 -0.019316161 0.02050044 -0.010077201 0.046362348 0.049661145 -0.09488512 0.030746857 0.0022740036 0.0061950474 0.0012354575 -0.0162025 -0.059286457 -0.22012052 -0.11387434 0.05559433 0.039093286 -0.09881221
49 -0.17101242 -0.26861644 0.17716865 0.0065167937 0.13621244 -0.05014588 -0.16131988 -0.018598994 0.081099994 -0.08465047 -0.08422994 0.028379528 -0.012263178 -0.1691819 -0.027415622 0.0038022618 0.15215325 0.06342628 0.0769469 -0.07900174 0.20625381 -0.021913618 0.0057252264 0.019133702 -0.18252783 -0.009845527 -0.0789635 -0.092661984 -0.041942876 -0.18866204 -0.11984043 0.07813579 -0.12370083 -0.1055781 0.06468053 0.047453515 -0.14773603 -0.074313305 -0.052012604 -0.09708468 -0.10619689 0.16524924 -0.121992625 -0.08849323 0.073396005 0.04076507 -0.16746901 -0.18908614 -0.026431074 0.084112324 -0.18222815 -0.11266683 -0.036351018 0.017844496 -0.15292533 -0.22465533 0.08608514 0.082002185 -0.06272116 -0.08366229 -0.07283814 -0.06312432 -0.101753436 -0.12227459 -0.119978555 0.10293835 -0.17199875 0.056249544 0.01976518 0.02291282 0.092281565 -0.055039033 0.2577562 0.07803018 0.055043142 0.013796843 0.11395281 0.07258996 -0.0022180828 -0.11402607 0.011240676 0.0014192534 -0.077267095 -0.10341457 -0.007484393 -0.21993594 0.04938052 -0.012970448 -0.036332224 0.10513304 0.036256697 -0.12882237 -0.103437565 -0.0864595 -0.09343429 0.027188716 -0.03930717 -0.08574155 0.08841339 0.12351812 -0.045601014 -0.008649072 0.15277813 -0.124491006 0.025129858 -0.13471873 0.07333553 0.14834166 -0.050212763 -0.009766155 -0.03604216 -0.017647186 0.0359172 -0.0069447965 0.04867333 0.04741904 -0.09992573 0.036014304 -0.0024476147 0.023924386 0.00050497474 -0.021041373 -0.072653756 -0.23785347 -0.1220375 0.05781644 0.056344092 -0.090996906
41 -0.17718713 -0.27209964 0.17768209 0.0056228917 0.15093298 -0.02954444 -0.14857641 -0.008475456 0.07629615 -0.09243171 -0.08989881 0.021803964 -0.007859202 -0.1645649 -0.028646182 0.009872565 0.15616265 0.07167609 0.088447854 -0.10379241 0.20901191 -0.026641158 -0.023097701 0.029777687 -0.17350985 -0.01644925 -0.0702988 -0.080911115 -0.034787584 -0.19592652 -0.11546552 0.08202593 -0.1374858 -0.10889222 0.049200412 0.059412133 -0.15556578 -0.07813534 -0.0623207 -0.0944841 -0.11546628 0.17475674 -0.12641916 -0.09640939 0.07028996 0.053918313 -0.16596018 -0.18876612 -0.017097523 0.07915639 -0.17955701 -0.12018631 -0.031722628 0.007959611 -0.1622133 -0.22963537 0.08903674 0.08564106 -0.063220315 -0.08553503 -0.07920671 -0.06589539 -0.101017214 -0.111176364 -0.13226774 0.104892224 -0.17971061 0.06563717 0.022887664 0.027484559 0.10478096 -0.061526284 0.26892906 0.080993004 0.04825357 0.016552044 0.12621918 0.06542852 -0.0016436317 -0.12104546 0.013861074 -0.0076363557 -0.08103429 -0.10127899 -0.00047567868 -0.2242596 0.05636498 -0.0068683913 -0.024779843 0.0923965 0.016252548 -0.13380194 -0.1216945 -0.09072177 -0.10280645 0.04831446 -0.049190175 -0.09674122 0.09770566 0.11739868 -0.06500126 -0.010090266 0.16622911 -0.12477063 0.016529486 -0.14238876 0.08978951 0.15044211 -0.05324541 -0.011384332 -0.044623803 -0.027493445 0.03102753 -0.003278602 0.04332327 0.043814432 -0.10080421 0.036750413 0.001340147 0.010589322 0.0013880848 -0.015176935 -0.061237004 -0.22783531 -0.13195223 0.058940638 0.057580687 -0.10899618
106 -0.16111979 -0.27123186 0.17609553 -0.0011853136 0.12504305 -0.04443416 -0.17061989 -0.026850607 0.07753224 -0.08271889 -0.09019872 0.037588637 -0.028054208 -0.1868949 -0.042106025 0.002853554 0.17116676 0.07268754 0.074354604 -0.06430794 0.19844872 -0.018406704 0.0135107525 0.017205091 -0.18401739 -0.0016245994 -0.09341338 -0.0925374 -0.044465512 -0.17851053 -0.1296106 0.07931018 -0.12210893 -0.10666379 0.07520755 0.042875387 -0.13530135 -0.07070484 -0.040003452 -0.086243585 -0.09969922 0.15509805 -0.12506063 -0.084622055 0.053533338 0.014075861 -0.16236375 -0.19307208 -0.027004996 0.085674055 -0.1851989 -0.10663838 -0.04813203 0.023850137 -0.16381975 -0.23711076 0.087820254 0.08225858 -0.057573024 -0.09225034 -0.06891976 -0.07804797 -0.100305766 -0.10672898 -0.10105621 0.08865453 -0.16348326 0.04868197 0.013755378 0.022648536 0.086583234 -0.042746454 0.2475479 0.060622003 0.059263326 0.024484705 0.07982959 0.07603532 -0.019147906 -0.10758919 0.03662177 0.003060427 -0.0873577 -0.10047971 -0.007298715 -0.22371936 0.04823746 -0.034579046 -0.046658996 0.1075475 0.03335253 -0.12760901 -0.08160949 -0.091943525 -0.09379458 0.029396493 -0.040100925 -0.081970245 0.09038032 0.13549097 -0.048346482 -0.010702079 0.15644816 -0.11710245 0.037248675 -0.15246357 0.048146054 0.16511467 -0.03963121 0.004538821 -0.035138555 -0.01807688 0.04191509 -0.0009070737 0.030917803 0.04177148 -0.10162431 0.04436976 -0.0005979927 0.029802259 -7.095696e-05 -0.008312054 -0.07635217 -0.24636857 -0.12953041 0.076662466 0.062637694 -0.08047512
231 -0.17809743 -0.25991353 0.16433463 -0.0012326333 0.13233514 -0.05515312 -0.1384332 -0.025099821 0.06647137 -0.057117548 -0.09881997 0.0034702192 0.013378099 -0.13061833 0.003252685 -0.0076695005 0.14214107 0.034059115 0.07423279 -0.10980061 0.18655434 -0.011694382 -0.04262489 0.02674343 -0.13793592 -0.027569162 -0.042328537 -0.09288514 -0.062209982 -0.19511886 -0.07389348 0.08796457 -0.13444692 -0.121009156 0.01997756 0.031321276 -0.16090041 -0.07621106 -0.061761245 -0.112247854 -0.10478503 0.15200849 -0.12155609 -0.082339816 0.10005008 0.07352542 -0.17886987 -0.16874345 0.02003097 0.08047414 -0.16164653 -0.10511115 0.0028789318 0.035581194 -0.1291852 -0.20842916 0.076094106 0.047108207 -0.09241821 -0.055924527 -0.09225973 -0.05831759 -0.1261261 -0.14119214 -0.12577994 0.1087491 -0.15612352 0.07728276 0.017350256 0.038408898 0.08748981 -0.07789737 0.23709229 0.09237034 0.041728538 -0.0045751915 0.15453686 0.0676678 0.01387196 -0.09823662 -0.042350337 -0.024869567 -0.08817698 -0.112396576 -0.0029342144 -0.20579204 0.0686001 0.035322 -0.0007856619 0.1243781 0.035840917 -0.13783157 -0.14341198 -0.06004317 -0.09540147 0.035645355 -0.02522496 -0.14793934 0.0944349 0.083573624 -0.06483975 0.012661676 0.1641061 -0.13258256 -0.0073476546 -0.122919425 0.130873 0.1433355 -0.0642912 -0.04651988 -0.0471041 -0.02934129 0.01876483 -0.0075105894 0.078524455 0.074408315 -0.08484084 0.02497708 -0.0172007 0.013333096 0.015885 -0.034757152 -0.04770028 -0.22779636 -0.13225842 0.008850473 0.05133183 -0.0844579
250 -0.17121384 -0.26291764 0.1760103 0.003709939 0.13722287 -0.040310234 -0.16114576 -0.01247773 0.07813402 -0.08130884 -0.08630696 0.022853082 -0.01149715 -0.165025 -0.027569905 0.00471042 0.15487713 0.06831934 0.08161916 -0.08543628 0.20897055 -0.02307354 -0.009907643 0.022257224 -0.18102236 -0.014487842 -0.07938593 -0.09581781 -0.042033836 -0.19639061 -0.119800694 0.076120116 -0.13466214 -0.10655526 0.062307272 0.05023152 -0.15190521 -0.07285334 -0.057503123 -0.09783969 -0.11278869 0.16289158 -0.1186073 -0.08889946 0.069720075 0.04082145 -0.17009205 -0.18594117 -0.022699323 0.08399785 -0.17507061 -0.11300783 -0.03417113 0.010435823 -0.15218613 -0.22776552 0.076005824 0.08103161 -0.05956699 -0.087562114 -0.07314801 -0.067484945 -0.098942205 -0.11489888 -0.12192608 0.09542772 -0.17208202 0.059654705 0.021061877 0.019060578 0.09648053 -0.04999083 0.25041932 0.07397749 0.053738363 0.014389804 0.11558996 0.068359695 -0.0056544985 -0.11243467 0.013827852 -0.009159514 -0.076288596 -0.101812884 -0.0053413194 -0.21374756 0.054977898 -0.011254963 -0.031049138 0.09950534 0.033019893 -0.12605003 -0.10303153 -0.085356206 -0.09172287 0.03669339 -0.047530062 -0.0832073 0.08424853 0.11838014 -0.047683317 -0.010578583 0.1510096 -0.1279085 0.023693293 -0.13787806 0.07568229 0.14633572 -0.051745333 -0.011264957 -0.031854674 -0.020209087 0.032014266 -0.008912733 0.046839263 0.04997263 -0.10008095 0.02502008 0.0072820163 0.021314183 0.004015997 -0.014899813 -0.06111341 -0.22647403 -0.12734027 0.053044483 0.04669687 -0.09420981
150 -0.16766492 -0.27100047 0.17813562 0.00028424672 0.1426162 -0.03592602 -0.15869412 -0.0068363375 0.07686772 -0.09195435 -0.08509435 0.022526331 -0.0051496876 -0.16725507 -0.026571276 0.004314889 0.15034203 0.068743646 0.07726718 -0.09773721 0.20417762 -0.024843888 -0.0077929534 0.025013821 -0.1816973 -0.015327987 -0.074211635 -0.09019354 -0.034485538 -0.1911787 -0.119681664 0.08521028 -0.13431819 -0.115348004 0.060259867 0.057431053 -0.16308458 -0.078497805 -0.06037869 -0.10169905 -0.12266073 0.17265606 -0.12399347 -0.0938196 0.07554581 0.0484393 -0.17063063 -0.19146815 -0.015372177 0.07841384 -0.17714071 -0.12091461 -0.032527994 0.009039917 -0.15649654 -0.22029635 0.083815336 0.08054489 -0.059979133 -0.08088707 -0.073090516 -0.06716661 -0.09869782 -0.11924686 -0.1295734 0.10355897 -0.16991338 0.059600115 0.021320486 0.031077243 0.09295504 -0.053781655 0.2554738 0.072830446 0.035689298 0.013957553 0.11629187 0.06774519 -0.0060702036 -0.12435285 0.009740451 -0.010035403 -0.07203778 -0.105829984 -0.008853247 -0.21849984 0.054493863 -0.009535912 -0.029705867 0.0921442 0.026091466 -0.13499631 -0.11970519 -0.08755488 -0.09723258 0.039848864 -0.04180197 -0.09582114 0.08958902 0.12200215 -0.055435326 -0.00997428 0.16423525 -0.12989545 0.014039013 -0.14105415 0.08730761 0.15147343 -0.053195275 -0.008266153 -0.03912082 -0.021059325 0.026292318 -0.011113543 0.046479575 0.045523774 -0.09938909 0.03127768 0.0011259044 0.010156339 0.0015579729 -0.013439757 -0.062115144 -0.22938618 -0.11955554 0.060046777 0.04372953 -0.09520349
236 -0.16922045 -0.2594841 0.1692565 0.0015867034 0.13609783 -0.04989602 -0.15687759 -0.02343093 0.08022684 -0.079556406 -0.091323584 0.020267688 -0.011231309 -0.1675309 -0.030772194 -0.0007791652 0.15547474 0.06403013 0.07350944 -0.090644136 0.1937733 -0.013459253 0.0013913021 0.02357539 -0.1732501 -0.013140067 -0.07195261 -0.08616885 -0.044881765 -0.18362354 -0.108877055 0.074022904 -0.12784074 -0.10697322 0.05775149 0.047346924 -0.14301313 -0.07307863 -0.04710542 -0.08821721 -0.10883613 0.15634666 -0.12413525 -0.08457295 0.06722891 0.0333556 -0.16496772 -0.17788486 -0.020067258 0.082489066 -0.18106405 -0.11419661 -0.031126533 0.016091924 -0.15412913 -0.22577824 0.078528374 0.07767792 -0.064638846 -0.07550132 -0.07521317 -0.07271381 -0.099507995 -0.11205699 -0.11822658 0.10380521 -0.1701805 0.05452578 0.019192884 0.03013341 0.09417833 -0.051781103 0.2599866 0.07215853 0.055724777 0.016004289 0.11406034 0.07497372 -0.004002389 -0.10854026 0.008677001 -0.0034427266 -0.08058198 -0.09705747 -0.007880062 -0.21687195 0.05305197 -0.015317996 -0.033450186 0.10530951 0.03333113 -0.13290063 -0.107308574 -0.08982482 -0.100804865 0.035273403 -0.039886452 -0.10374495 0.089636505 0.11746515 -0.05420425 -0.0022776602 0.15981944 -0.11999384 0.018498242 -0.14675438 0.08350765 0.15281203 -0.048433047 -0.012241785 -0.04287632 -0.022900091 0.035321597 0.003928787 0.041493494 0.040226735 -0.099940635 0.03249262 -0.0057365843 0.015452299 0.0071060937 -0.010447437 -0.06476715 -0.23091504 -0.124607876 0.05365419 0.054838624 -0.08462334
102 -0.1677656 -0.2696998 0.17360888 -0.011701529 0.13565414 -0.047143538 -0.16245112 -0.02334986 0.07680863 -0.07176417 -0.09531184 0.027226022 -0.020393465 -0.18491085 -0.04218565 -0.0047998577 0.17125075 0.07616394 0.08792261 -0.07675873 0.19595368 -0.017530566 0.0011005969 0.015907826 -0.17751558 -0.013711252 -0.07620571 -0.080619656 -0.044224437 -0.18824035 -0.11705577 0.07716422 -0.122802444 -0.09706281 0.058425277 0.039852712 -0.14179605 -0.07133241 -0.040527925 -0.087578975 -0.09898636 0.15636872 -0.12791994 -0.08036595 0.057544023 0.01716174 -0.16597492 -0.18133302 -0.024959674 0.0885834 -0.18131444 -0.10636365 -0.0460172 0.029217552 -0.1620369 -0.23313332 0.0909655 0.077618495 -0.066534035 -0.080841884 -0.07292027 -0.073243074 -0.10382504 -0.10522672 -0.11247951 0.096133955 -0.16796377 0.05743568 0.0134994285 0.019727372 0.09857802 -0.055041287 0.25996166 0.06736761 0.07152007 0.022880917 0.10558217 0.07865377 -0.006668896 -0.109924495 0.019275464 0.009000702 -0.09114451 -0.09601455 -0.002499497 -0.22465439 0.055107046 -0.01737666 -0.040100183 0.110584185 0.028844051 -0.124108955 -0.087174624 -0.09182352 -0.09571745 0.03018861 -0.044515174 -0.08767904 0.09220892 0.12406445 -0.054857053 -0.010631498 0.14851707 -0.11137506 0.03302874 -0.14297242 0.0619625 0.16122459 -0.039508536 -0.004758373 -0.03387193 -0.019324357 0.048195783 0.0064760153 0.04370159 0.04903772 -0.09784275 0.04308985 -0.0045384197 0.030340422 0.0063551627 -0.009496851 -0.07214106 -0.23819292 -0.13434286 0.061518285 0.068629235 -0.08446477
117 -0.16266629 -0.26095387 0.1662587 -0.005916218 0.13485432 -0.04488571 -0.15843475 -0.019065237 0.07908633 -0.0784253 -0.095570244 0.02715122 -0.01449336 -0.16955669 -0.026641693 0.0009545613 0.15204114 0.069186576 0.07703645 -0.0865071 0.20213632 -0.014429709 -0.006717845 0.024355613 -0.16972102 -0.012584937 -0.0719599 -0.082326904 -0.04803074 -0.18577228 -0.11393001 0.079757676 -0.121578954 -0.10833074 0.04959989 0.040347576 -0.14952293 -0.07016108 -0.048092067 -0.08626218 -0.102740966 0.1549754 -0.12644108 -0.07826533 0.07056534 0.037639245 -0.16533418 -0.1811922 -0.017936498 0.08185627 -0.1737333 -0.11080811 -0.030539565 0.023987327 -0.14970659 -0.22363561 0.07858789 0.077425815 -0.06693302 -0.08283561 -0.07828615 -0.071003705 -0.10510316 -0.11371335 -0.1169155 0.104488656 -0.17252585 0.062664844 0.016639 0.026763117 0.09918804 -0.055669885 0.26009336 0.07091036 0.06429225 0.019303482 0.11398311 0.069804795 -0.0054505626 -0.11882703 0.012916263 -0.0012185136 -0.08593215 -0.09931089 -0.0028493204 -0.21504574 0.053175725 -0.011841318 -0.031750288 0.1066534 0.03398139 -0.12792434 -0.09983301 -0.09098873 -0.10006847 0.03045912 -0.04012286 -0.096176915 0.09388464 0.11669086 -0.055553544 -0.0039536757 0.15049718 -0.1203362 0.024794308 -0.14246783 0.08136716 0.15301152 -0.046765603 -0.014243098 -0.036238555 -0.015760671 0.041722495 0.0030939796 0.04179033 0.050681885 -0.09847116 0.039459992 -0.0036573866 0.02034175 0.010908209 -0.017930608 -0.07523343 -0.24162138 -0.13178912 0.060460784 0.057325676 -0.09063174
71 -0.16928144 -0.26750568 0.17464125 -0.0012936469 0.14447786 -0.041599605 -0.15441398 -0.0135163795 0.07846495 -0.07626493 -0.09371812 0.0206007 0.0018751803 -0.1570861 -0.020106971 -0.0076700696 0.15129042 0.06590108 0.082712956 -0.10161203 0.20301604 -0.018852523 -0.02416148 0.028346635 -0.17490101 -0.0197474 -0.05854181 -0.08514482 -0.041303772 -0.18893762 -0.106445976 0.07608184 -0.13002591 -0.110004604 0.046656728 0.054354906 -0.16030283 -0.07703269 -0.054176494 -0.09653089 -0.1131623 0.16698936 -0.12809353 -0.09477829 0.07658938 0.05408683 -0.17014275 -0.19067922 -0.014209372 0.07852304 -0.18102257 -0.11305291 -0.029666577 0.013611957 -0.1568433 -0.22121233 0.086677946 0.067166954 -0.072944805 -0.08047561 -0.07529072 -0.06831559 -0.112025775 -0.11879039 -0.13577715 0.10737196 -0.17192964 0.06435613 0.0099516865 0.023613771 0.10207488 -0.058547445 0.25811225 0.08101847 0.05892522 0.01704321 0.12701191 0.06133365 -0.0028041978 -0.124979906 0.008320061 -0.011300683 -0.0738757 -0.10086797 -0.0024766293 -0.20787044 0.06050249 8.046437e-05 -0.027636293 0.09945523 0.023717131 -0.12969017 -0.12179652 -0.07713209 -0.09115888 0.046212807 -0.04678504 -0.1047082 0.09507751 0.1007406 -0.05750887 -0.003913566 0.15132573 -0.12232335 0.0130945835 -0.13784148 0.08935215 0.14820834 -0.043966956 -0.022183813 -0.040589914 -0.023664296 0.026018245 -0.000552079 0.049480453 0.049417548 -0.08851361 0.034980055 -0.006115641 0.01665736 0.003729505 -0.012773463 -0.060265835 -0.22465728 -0.12110785 0.04700251 0.046740282 -0.09510735
91 -0.17371684 -0.26195872 0.17538556 0.00035118486 0.13160984 -0.04337403 -0.15820314 -0.027626056 0.08379494 -0.07288693 -0.08744543 0.020105112 -0.013185058 -0.17271914 -0.041450486 0.00039370777 0.1558022 0.064613715 0.07213183 -0.08381504 0.20123127 -0.017693434 0.0034021824 0.024848578 -0.17683056 -0.01106783 -0.073808454 -0.08834479 -0.046130057 -0.1884703 -0.11163093 0.07518086 -0.1280713 -0.10867802 0.06383995 0.04305233 -0.14568532 -0.069001496 -0.04722766 -0.08770223 -0.106522135 0.16250561 -0.12471535 -0.090352885 0.06345601 0.03547243 -0.16520673 -0.18839577 -0.018063424 0.08312359 -0.17798421 -0.115561455 -0.038246524 0.019652493 -0.15631756 -0.22520414 0.08259807 0.07819182 -0.0667276 -0.08017168 -0.071001425 -0.06879594 -0.10439292 -0.11015397 -0.113968715 0.09392277 -0.16669837 0.060646757 0.017648643 0.02133007 0.09985828 -0.058486458 0.26749888 0.07644456 0.06346054 0.017381428 0.111685805 0.08017344 -0.0052244873 -0.110013746 0.02547147 0.0033350906 -0.08885782 -0.10040991 -0.0073229517 -0.21985358 0.04835198 -0.013032877 -0.037912756 0.10750675 0.033489045 -0.13237932 -0.09800511 -0.08873341 -0.090514295 0.023817535 -0.03958464 -0.09666179 0.08579651 0.12823817 -0.05644025 -0.0021788483 0.15789506 -0.11883724 0.030893287 -0.14871462 0.07383458 0.15189005 -0.04262672 -0.012883095 -0.038843285 -0.017695729 0.04468824 0.00025245346 0.04122206 0.044505954 -0.10555968 0.03883908 -0.00011888884 0.0261327 0.0021265063 -0.013923329 -0.074496016 -0.239424 -0.13098748 0.06540394 0.053994086 -0.0839074
140 -0.17122267 -0.2709878 0.17530052 0.0021458264 0.15215933 -0.04415077 -0.16081798 -0.0072798464 0.08408278 -0.09577041 -0.084697925 0.028553097 -0.0069433055 -0.17025153 -0.023021508 0.012456805 0.14868064 0.071099885 0.082158126 -0.0935665 0.21023709 -0.02614187 -0.006231303 0.029460575 -0.18781583 -0.0098535875 -0.07314808 -0.09136929 -0.031094503 -0.19423942 -0.12630786 0.07498613 -0.13556096 -0.11540203 0.059522595 0.05587154 -0.16104105 -0.07905288 -0.053062633 -0.09694934 -0.121094406 0.16673654 -0.12408018 -0.093315035 0.070955925 0.043552015 -0.16529408 -0.19918005 -0.023548033 0.083766684 -0.1850175 -0.11754214 -0.03621884 0.015211246 -0.16016214 -0.22609587 0.08555846 0.082272224 -0.063511916 -0.0904703 -0.068975575 -0.06396444 -0.10149961 -0.11972854 -0.12253016 0.1026307 -0.17258087 0.054713853 0.02184319 0.02472975 0.09367578 -0.04837926 0.25220624 0.07931047 0.045703314 0.018983666 0.10410397 0.063990876 -0.007045289 -0.11797354 0.019723313 -0.009035963 -0.075202905 -0.10614819 -0.0060431077 -0.22328046 0.055011574 -0.017216057 -0.034982324 0.096435 0.031391572 -0.13385662 -0.11351539 -0.092838675 -0.10296063 0.041581195 -0.048833344 -0.092375435 0.09366654 0.11635019 -0.057279523 -0.0076323166 0.15944873 -0.13058338 0.015774924 -0.13900676 0.07545621 0.1512582 -0.048100375 -0.009160889 -0.035682235 -0.017799951 0.02950333 -0.0050566043 0.04117449 0.03586387 -0.0935562 0.03154048 0.0010764395 0.010637851 -0.0067680203 -0.012187924 -0.05827355 -0.22781684 -0.118648924 0.06869996 0.04520486 -0.092391126
93 -0.16653238 -0.26066998 0.17008932 -0.0058267354 0.12636812 -0.045228418 -0.15565948 -0.025269354 0.07353751 -0.06666548 -0.09403066 0.020877603 -0.016815273 -0.16985309 -0.03253833 -0.0059203496 0.16705441 0.06820992 0.08017779 -0.07284213 0.1964964 -0.014917984 -0.00032434813 0.016583588 -0.1699465 -0.018993277 -0.07092651 -0.08552623 -0.05070143 -0.18872495 -0.111273274 0.07554719 -0.1257266 -0.099625565 0.056873478 0.0377187 -0.13766369 -0.06763416 -0.04390472 -0.088213205 -0.09499197 0.15752636 -0.12905502 -0.08223497 0.06737106 0.020874338 -0.16763584 -0.17455614 -0.016627906 0.08482699 -0.16276503 -0.104880735 -0.035813507 0.033097114 -0.15258375 -0.23128031 0.07860275 0.078957185 -0.06374727 -0.076914854 -0.0815677 -0.070211366 -0.098405585 -0.114192374 -0.10594928 0.09488594 -0.16288793 0.056811 0.015447981 0.01851905 0.09714531 -0.05802728 0.25122616 0.0690753 0.07091226 0.01386163 0.1117852 0.074068494 -0.0056931055 -0.1082972 0.01457489 0.0019285912 -0.084625974 -0.09842962 -0.0072277114 -0.21945554 0.055140693 -0.013972809 -0.031561773 0.10746856 0.031628624 -0.13099816 -0.08543941 -0.08184133 -0.08832305 0.02898422 -0.040943567 -0.09639187 0.09221337 0.121469125 -0.057659343 -0.015099333 0.1453005 -0.11172027 0.031307966 -0.14098227 0.06583362 0.15598387 -0.048778575 -0.013412955 -0.035752207 -0.016385743 0.043841854 0.0018377448 0.040858954 0.048527174 -0.09677378 0.04298094 0.0035667806 0.031147178 0.012228552 -0.007952863 -0.07463415 -0.24111749 -0.13633257 0.058370322 0.07226887 -0.08476675
88 -0.16717291 -0.2671297 0.17164192 -0.00031841145 0.12560427 -0.04939348 -0.16313691 -0.024056645 0.07691542 -0.07696594 -0.09065106 0.028114904 -0.019031141 -0.1729819 -0.030971598 -0.002241967 0.16622207 0.06300556 0.07576408 -0.072300866 0.19876988 -0.01202019 0.0032100973 0.02535818 -0.17850518 -0.010670087 -0.08091179 -0.09331432 -0.044337768 -0.18741822 -0.11728292 0.08332389 -0.12246038 -0.10763419 0.06315255 0.038758527 -0.14075723 -0.07019788 -0.039117068 -0.08928865 -0.10238774 0.15572275 -0.11994884 -0.08328846 0.06602071 0.026366733 -0.16574156 -0.1865089 -0.017496029 0.086757265 -0.1745667 -0.10393388 -0.036537707 0.02887234 -0.15058608 -0.22835839 0.07651481 0.07743696 -0.06161489 -0.07976885 -0.07440972 -0.07358822 -0.10208212 -0.11049313 -0.11020766 0.09981002 -0.17095916 0.055802345 0.020240324 0.026020657 0.101554945 -0.052129317 0.25619495 0.07580401 0.070412435 0.018049931 0.106578015 0.08083626 -0.013574976 -0.11347204 0.022211831 0.0024042188 -0.091208205 -0.10209224 -0.0036040563 -0.2200984 0.048651267 -0.021893252 -0.03764344 0.10993343 0.039070457 -0.13214432 -0.09291912 -0.08721498 -0.08996693 0.026325151 -0.041193534 -0.092050284 0.08834815 0.12661678 -0.053589404 -0.01268603 0.14919162 -0.11480804 0.029396266 -0.14623855 0.06186639 0.15204622 -0.049183436 -0.007097016 -0.035290815 -0.019678896 0.041977976 -0.0008955323 0.038660552 0.043373097 -0.101626046 0.043968406 -0.0014983459 0.026994094 0.0067693405 -0.015335569 -0.06928657 -0.24512458 -0.1296667 0.0655811 0.061518308 -0.08299792
121 -0.16896433 -0.27685264 0.18000798 0.006637126 0.15304865 -0.03043288 -0.15658143 0.00014111625 0.08646745 -0.09940829 -0.0838353 0.02597875 -0.013555446 -0.17676961 -0.032604694 0.011233489 0.13668093 0.070531696 0.07903843 -0.10368755 0.21317907 -0.024980666 -0.0039776377 0.03600907 -0.1823842 -0.014657241 -0.07545631 -0.08786639 -0.025650168 -0.19654112 -0.12557353 0.07879016 -0.14311858 -0.11916953 0.06718891 0.054068726 -0.1625201 -0.08402827 -0.06589478 -0.10059531 -0.12534049 0.1831418 -0.12397704 -0.095327504 0.06800319 0.05104809 -0.16724086 -0.20526959 -0.02173202 0.0794951 -0.18244685 -0.11933999 -0.038621377 0.0013998945 -0.16274367 -0.22626095 0.083473705 0.09372876 -0.05929337 -0.09145996 -0.06636164 -0.06875101 -0.10449545 -0.113389365 -0.13484329 0.100209475 -0.17521271 0.06183723 0.023075305 0.030089088 0.09806313 -0.050957557 0.26872408 0.074928135 0.035755023 0.01916808 0.1111548 0.05872801 -0.011930355 -0.12677878 0.02515398 -0.006997619 -0.07656167 -0.10323831 -0.008892191 -0.22800772 0.05671696 -0.012122743 -0.03642154 0.092350125 0.032489967 -0.13901547 -0.11747376 -0.09364153 -0.0985892 0.037054297 -0.04497433 -0.08731362 0.08602745 0.12426266 -0.056225117 -0.00567069 0.16430336 -0.13305677 0.016386228 -0.14844424 0.08072625 0.14843497 -0.047235787 -0.0006650692 -0.032892007 -0.027024612 0.0245193 -0.008295875 0.037723243 0.033497695 -0.10286753 0.028704436 0.0024579035 0.012872534 -0.0074375826 -0.011407284 -0.06653983 -0.23746566 -0.13271856 0.06965622 0.042637866 -0.10127951
51 -0.17054558 -0.25691563 0.16655062 -0.002008138 0.13623743 -0.040046643 -0.15143476 -0.02729714 0.07135986 -0.061117925 -0.09159433 0.021544807 -0.0068006995 -0.16059928 -0.022381322 -0.0066672824 0.15548453 0.0628405 0.0760237 -0.097549945 0.19159281 -0.015440442 -0.02050343 0.024528127 -0.15476547 -0.018435493 -0.05849934 -0.087284654 -0.04660421 -0.1848066 -0.09841723 0.08215832 -0.1304496 -0.10606958 0.040704716 0.037401117 -0.14346556 -0.07455234 -0.05501389 -0.087767474 -0.09940259 0.15275244 -0.12686221 -0.08494389 0.07628538 0.0454353 -0.1622607 -0.17687055 -0.0030788707 0.08111884 -0.1658977 -0.10840005 -0.022388693 0.023895998 -0.14823472 -0.22342172 0.079503246 0.05587576 -0.07414844 -0.07040032 -0.07682884 -0.06454966 -0.11134 -0.11053496 -0.1254432 0.10624422 -0.1696857 0.06723275 0.0149064725 0.024439478 0.10029024 -0.06953378 0.25466523 0.074378915 0.064539894 0.009721886 0.13133001 0.068306625 0.0013704647 -0.11592594 -0.00069817266 -0.0063757435 -0.09128631 -0.10165751 0.0007971935 -0.21441793 0.05833912 0.005541823 -0.026112821 0.112622485 0.022969294 -0.12560767 -0.11496824 -0.08065944 -0.097820014 0.03228679 -0.04395095 -0.110155866 0.091181934 0.11191695 -0.058466922 0.0022442283 0.15496184 -0.11732971 0.011038743 -0.1440709 0.09884412 0.15772682 -0.05522607 -0.024684545 -0.041635416 -0.022239372 0.032523558 0.00050755794 0.05731339 0.06191253 -0.09091887 0.037483428 -0.01202651 0.02132577 0.013569986 -0.021189198 -0.06316766 -0.2379692 -0.12880671 0.04888028 0.057459533 -0.09215292
85 -0.17463012 -0.27396375 0.17779236 -0.0037902663 0.13528168 -0.048788056 -0.16005354 -0.023733784 0.077319965 -0.07598104 -0.0975778 0.021761483 -0.012881867 -0.16977194 -0.03230546 -0.003974621 0.15634836 0.07254941 0.07779528 -0.09079589 0.2068804 -0.015087694 -0.004734966 0.018526448 -0.1784497 -0.017757546 -0.07810128 -0.08828724 -0.049430702 -0.19047599 -0.11638059 0.07689993 -0.13204144 -0.11044929 0.056374077 0.04426149 -0.15471387 -0.069027625 -0.052358933 -0.090944156 -0.109212235 0.16211489 -0.13030541 -0.08617761 0.062143248 0.03467773 -0.16731042 -0.1901602 -0.02466567 0.0865711 -0.17574783 -0.112581804 -0.03670956 0.025700385 -0.1602855 -0.22634491 0.08991022 0.07942536 -0.06785304 -0.078497894 -0.07647567 -0.07470849 -0.1094646 -0.11756784 -0.11857177 0.09838663 -0.16797327 0.060547423 0.014261307 0.024936343 0.098541394 -0.050410196 0.25858462 0.07149468 0.06658032 0.016379135 0.11576581 0.07245864 -0.011926264 -0.113420025 0.013930067 -0.004245432 -0.08140488 -0.103588775 -0.0008036414 -0.2272754 0.060449805 -0.011999653 -0.036086984 0.108592674 0.029965265 -0.13422386 -0.09761566 -0.093737975 -0.10239712 0.036594376 -0.043833148 -0.09333455 0.08857093 0.11766161 -0.055246215 -0.008831181 0.15962595 -0.12090977 0.025008375 -0.14439727 0.07618335 0.15618108 -0.049269993 -0.014368686 -0.037195265 -0.019879797 0.036662936 0.002287132 0.046542168 0.049718257 -0.100088544 0.034017116 -0.003136952 0.017695362 0.010603779 -0.011525192 -0.07280317 -0.24149877 -0.1339141 0.05805446 0.055228125 -0.09503203
5 -0.16485019 -0.26471364 0.15642008 -0.01634256 0.11242625 -0.05834786 -0.14962019 -0.05522509 0.07048457 -0.045609675 -0.1008097 0.032215443 -0.013573353 -0.17029402 -0.027808275 -0.01904101 0.17758425 0.054154955 0.07115531 -0.05890587 0.18148503 0.0019999223 -0.0059172786 0.01688564 -0.1487469 -0.012900533 -0.07485156 -0.08653048 -0.071116425 -0.1789755 -0.096364625 0.08143806 -0.11562268 -0.10095476 0.04737635 0.010634753 -0.12790045 -0.062256567 -0.032004263 -0.07841096 -0.07282469 0.1319626 -0.12217648 -0.07375051 0.06074723 0.01394608 -0.16693951 -0.16188672 -0.0021878162 0.08499343 -0.16216472 -0.09416211 -0.02779997 0.04333665 -0.14098808 -0.22633572 0.08044454 0.050116815 -0.07342651 -0.06569088 -0.08519925 -0.07469316 -0.11222627 -0.10275993 -0.09551534 0.09166638 -0.15552482 0.05587286 0.012811357 0.026178729 0.09235575 -0.064421594 0.2515247 0.061347697 0.08152485 0.0067524444 0.111045726 0.08718998 -0.004404535 -0.100296475 -0.000104831575 0.0060276706 -0.10888659 -0.09123341 -0.0017368349 -0.2221346 0.06421448 -0.0074576153 -0.03407022 0.14328033 0.039224736 -0.13158111 -0.08399985 -0.08775029 -0.09524466 0.02224793 -0.031345505 -0.116722636 0.09590409 0.12584434 -0.057214584 -0.010159539 0.14448121 -0.098489225 0.030845158 -0.1477082 0.0680415 0.16741441 -0.054044906 -0.025000215 -0.043338142 -0.014551424 0.057141628 0.0014992347 0.043742437 0.073647365 -0.098281235 0.050116714 -0.015640583 0.038529076 0.019238612 -0.020209845 -0.077279985 -0.2549572 -0.1394431 0.056434978 0.07832239 -0.0651989
258 -0.16186309 -0.2567683 0.16046529 -0.004746839 0.11795215 -0.05588273 -0.13964337 -0.04473245 0.05967176 -0.043740503 -0.097239345 0.017435746 -0.0021128072 -0.15290917 -0.019657372 -0.0128936125 0.15948485 0.042412568 0.07015517 -0.07575096 0.17876513 -0.0061677666 -0.015792876 0.02021277 -0.14631535 -0.020148672 -0.060670257 -0.08929662 -0.06773927 -0.19418143 -0.08321823 0.08443804 -0.13043965 -0.11443867 0.033560608 0.018111536 -0.1375246 -0.070605226 -0.04554884 -0.09559014 -0.08266563 0.14624442 -0.12427979 -0.07749737 0.085636206 0.03222535 -0.17252515 -0.16184075 0.004368626 0.087481946 -0.15489873 -0.09841881 -0.018663622 0.039125063 -0.1320227 -0.22336677 0.063763104 0.052923657 -0.07784259 -0.057538882 -0.088737495 -0.066993155 -0.1129788 -0.11397619 -0.10764899 0.10016216 -0.16240688 0.06116057 0.019883472 0.020376408 0.0878564 -0.076616965 0.24546625 0.0838005 0.06351928 0.0031405287 0.13131665 0.082684875 0.009807138 -0.08826895 -0.019201199 -0.005594653 -0.10473421 -0.09624937 -0.008853012 -0.21806659 0.060065728 0.012034207 -0.02360384 0.1373614 0.037908364 -0.13868493 -0.10667909 -0.07505315 -0.090349175 0.026669681 -0.023118826 -0.13055865 0.093007885 0.114107326 -0.057842873 -0.003429503 0.15053827 -0.10668321 0.022060271 -0.13399872 0.09601148 0.15960857 -0.056334794 -0.031757064 -0.048839048 -0.02325479 0.046307597 -0.0038475667 0.062736 0.073990814 -0.100742474 0.036094394 -0.0121581415 0.026852895 0.017164616 -0.028773405 -0.06709484 -0.23027755 -0.1378086 0.032260858 0.074474014 -0.08019172
116 -0.17309499 -0.26657385 0.1743555 0.00038223487 0.13805535 -0.040589813 -0.15692708 -0.024082746 0.08199642 -0.08288577 -0.09477973 0.024723584 -0.011160469 -0.17250036 -0.037976123 0.000119866105 0.16196483 0.071548656 0.080113694 -0.08837337 0.20678098 -0.015400107 -0.004170591 0.019432796 -0.1755411 -0.015837518 -0.076548524 -0.08613203 -0.04840655 -0.18983284 -0.11691321 0.08254277 -0.1239737 -0.11383125 0.061570827 0.046207767 -0.14925529 -0.06712555 -0.047989544 -0.09660307 -0.11239014 0.16173771 -0.12979601 -0.085921265 0.06693131 0.03275119 -0.16001856 -0.19008294 -0.014534517 0.083571896 -0.17429067 -0.11093135 -0.035333432 0.025065562 -0.15450303 -0.22554037 0.089245334 0.07981063 -0.06673946 -0.08206827 -0.07755419 -0.06717694 -0.106119834 -0.11547603 -0.119043685 0.099335045 -0.16753785 0.058665037 0.01129692 0.020520149 0.1009049 -0.057206865 0.26913851 0.07577785 0.06590452 0.017204858 0.11659099 0.073426574 -0.006176582 -0.11354851 0.021020265 -0.0011100473 -0.08253244 -0.09705388 -0.008297318 -0.21881005 0.055596955 -0.011114699 -0.033301577 0.10537883 0.029871749 -0.12919803 -0.09614264 -0.08616767 -0.090301394 0.035188265 -0.042874694 -0.095149726 0.08929701 0.12266732 -0.05643936 -0.0077285413 0.159443 -0.12068462 0.027689628 -0.14645308 0.07220888 0.15502949 -0.047511887 -0.011308012 -0.033049904 -0.016134813 0.03790614 0.0019482494 0.040134273 0.04301246 -0.09589455 0.041477326 -0.003451136 0.029281344 0.0063147345 -0.014646673 -0.068720505 -0.24491973 -0.13542126 0.061981462 0.054638065 -0.08939197
97 -0.17370184 -0.25716802 0.1660721 -0.016254632 0.12383702 -0.061349854 -0.15690523 -0.0459956 0.07932352 -0.047657788 -0.099881545 0.024429558 -0.009589646 -0.1736217 -0.03516181 -0.01584018 0.18244177 0.06172648 0.07134845 -0.06685004 0.18791667 -0.007547788 0.0008967593 0.008878888 -0.16317038 -0.014587909 -0.07017661 -0.08614294 -0.06648699 -0.18464018 -0.09945517 0.086191125 -0.11851439 -0.10363499 0.0472913 0.019901074 -0.13345176 -0.057583675 -0.03556898 -0.09005698 -0.082185335 0.14234194 -0.13117817 -0.0687176 0.0655904 0.015291291 -0.16549651 -0.16443072 -0.008465707 0.0846416 -0.16618852 -0.09135207 -0.036079608 0.05003111 -0.1394678 -0.2233471 0.081681795 0.052652307 -0.07647616 -0.06817054 -0.07903385 -0.07037877 -0.111284085 -0.11740452 -0.09217745 0.0964069 -0.16208209 0.056335427 0.013655705 0.021932367 0.09666659 -0.06194288 0.24691547 0.06714413 0.08879116 0.0059828795 0.11381703 0.08755666 -0.0014939466 -0.095381476 0.0017456192 0.0045227567 -0.09404199 -0.10046682 0.0003980796 -0.22145769 0.054284304 -0.004493894 -0.038974684 0.13059089 0.037785515 -0.12759118 -0.08204729 -0.08034904 -0.08919876 0.026377626 -0.03869851 -0.10742123 0.09199862 0.11569176 -0.054235473 -0.011841183 0.14325887 -0.10580197 0.035455126 -0.13853958 0.07036718 0.16523118 -0.049333908 -0.021911925 -0.037923615 -0.01501207 0.053769413 0.007419214 0.054122776 0.05892737 -0.09459248 0.041248217 -0.0064868806 0.02998429 0.015467984 -0.016860468 -0.07509121 -0.25550252 -0.14468507 0.050942376 0.08198535 -0.0780796
137 -0.1672291 -0.2665934 0.17357571 0.001702596 0.14564723 -0.03523098 -0.15891898 -0.00383542 0.08101263 -0.08239336 -0.08302446 0.027029157 -0.011479052 -0.17235978 -0.030886048 0.006818354 0.15267345 0.068018414 0.085190244 -0.08571908 0.20653439 -0.020354157 0.00497311 0.032206856 -0.18573096 -0.013049344 -0.08065859 -0.09141688 -0.039939847 -0.18362522 -0.12078396 0.07650811 -0.13269676 -0.10711132 0.06663339 0.051991135 -0.14742203 -0.07175231 -0.056433514 -0.08716781 -0.10870428 0.16444908 -0.117819674 -0.08810802 0.061881077 0.038285043 -0.1589943 -0.18269156 -0.024129562 0.088030495 -0.18227874 -0.11323026 -0.043872558 0.014495897 -0.15439484 -0.22457814 0.08793497 0.08545288 -0.05640236 -0.081109405 -0.07151852 -0.06336516 -0.096909784 -0.107440144 -0.124045886 0.10200815 -0.17553192 0.057224516 0.013727849 0.0244288 0.1015509 -0.051023304 0.2540516 0.07304181 0.05336234 0.025220321 0.11152742 0.076248564 -0.0065724454 -0.11883672 0.022050401 -0.0019102157 -0.07081544 -0.09806067 -0.008571964 -0.22192365 0.05088288 -0.015609018 -0.041092582 0.10109151 0.03305811 -0.13914026 -0.10758715 -0.10042388 -0.09907321 0.03554032 -0.04594967 -0.0870389 0.08625168 0.12380719 -0.048094958 -0.009068035 0.15880316 -0.11665294 0.022285454 -0.14203286 0.06471405 0.13988858 -0.041239697 -0.00087296724 -0.036834467 -0.014006935 0.03319285 -0.006439842 0.038863532 0.038782284 -0.0941888 0.032541208 -7.7427685e-06 0.01946637 0.0036768112 -0.014842571 -0.07413758 -0.2314371 -0.11587147 0.06360797 0.053719983 -0.08982399
282 -0.18003497 -0.25967208 0.15784872 0.0013598483 0.1277908 -0.06032656 -0.1361731 -0.03737545 0.061149392 -0.04157214 -0.10678142 0.0053739096 0.013465828 -0.12776671 0.008732371 -0.020545581 0.15800495 0.027169738 0.074919805 -0.09224625 0.17479022 -0.0057995636 -0.03769812 0.028973712 -0.13427767 -0.028750708 -0.031994335 -0.09896967 -0.07656142 -0.19988135 -0.06843319 0.08524602 -0.12659086 -0.10753197 0.016877588 0.018532258 -0.15028942 -0.07187363 -0.05043736 -0.1112733 -0.08360174 0.14043285 -0.128571 -0.082704484 0.1023082 0.059118133 -0.18604249 -0.1534375 0.023130633 0.081895836 -0.14985049 -0.09746929 -0.006813211 0.04413411 -0.120171994 -0.21456495 0.07058528 0.033464704 -0.10108751 -0.050655834 -0.09604366 -0.06566584 -0.13631053 -0.13808134 -0.10602223 0.095967494 -0.14058399 0.07214482 0.011211576 0.037944935 0.08317836 -0.07374946 0.21614417 0.08895101 0.052809875 -0.0065035485 0.14786246 0.067894734 0.017800588 -0.08360026 -0.04741808 -0.01819273 -0.095393434 -0.10857471 -0.002897607 -0.2034602 0.069175586 0.026573258 -0.0067082066 0.13753279 0.038857356 -0.12986481 -0.13507283 -0.05786292 -0.090996675 0.027975166 -0.02122462 -0.14930104 0.088374615 0.08265508 -0.061877754 0.005788514 0.15251261 -0.11698937 -0.004002696 -0.12897554 0.12653308 0.15616852 -0.0681441 -0.051092703 -0.052230023 -0.019505862 0.028946096 0.003614275 0.08068764 0.08717487 -0.08987935 0.026737818 -0.02024653 0.017019818 0.013478894 -0.027366402 -0.04909791 -0.23065336 -0.13609095 0.009749451 0.058128968 -0.075349025
264 -0.17785144 -0.2653512 0.1693309 0.0037869737 0.13939136 -0.052726828 -0.13645953 -0.01911955 0.059219524 -0.049750473 -0.10309193 0.005309159 0.021383094 -0.12966381 0.010011862 -0.01769748 0.14667393 0.034322094 0.07425007 -0.11494465 0.19114865 -0.014888057 -0.047883708 0.033485994 -0.13570008 -0.03933201 -0.033197373 -0.0942208 -0.06476838 -0.2050189 -0.07632687 0.08758336 -0.13719246 -0.11425148 0.013990244 0.037196595 -0.16378482 -0.0814439 -0.06295757 -0.116935454 -0.09746589 0.15406056 -0.13054715 -0.090651244 0.10512152 0.073515944 -0.18468109 -0.17012629 0.020007985 0.08081828 -0.15873866 -0.10731472 -0.00036040126 0.03354317 -0.12681623 -0.2127701 0.066588566 0.040084027 -0.09805625 -0.05797837 -0.09321019 -0.059549715 -0.13291796 -0.13776143 -0.13280539 0.11154806 -0.15458363 0.07508426 0.014165811 0.034754075 0.08451195 -0.08068528 0.23034792 0.090800166 0.04271727 -0.00036507874 0.15927914 0.054818925 0.022348024 -0.09999803 -0.0532851 -0.022429818 -0.087153345 -0.10446279 -0.002888759 -0.20221536 0.07095023 0.045005318 -0.0032583904 0.1234653 0.03130554 -0.12816909 -0.14941193 -0.06666136 -0.100307554 0.03966822 -0.02807226 -0.14732134 0.09173033 0.07064749 -0.067397505 0.0154351145 0.15859942 -0.1319439 -0.006497898 -0.11550981 0.13998458 0.13517155 -0.06331885 -0.0491861 -0.058374494 -0.029251136 0.018090524 -0.0023123797 0.07512336 0.08137846 -0.08233507 0.019520903 -0.013262313 0.008577477 0.012574601 -0.028511077 -0.037628382 -0.21299322 -0.121635705 0.0024671669 0.04579638 -0.083056316
3 -0.17341813 -0.26391786 0.17504713 0.0010963115 0.12938927 -0.05043532 -0.15223238 -0.031079423 0.0701114 -0.067633875 -0.09798047 0.016235948 -0.015532954 -0.1671087 -0.028779171 -0.0018103175 0.1599086 0.049824174 0.06736368 -0.08771877 0.19147335 -0.011651754 -0.01099874 0.027481208 -0.15439466 -0.018769426 -0.073173806 -0.08952495 -0.053614482 -0.18179607 -0.10184485 0.08490152 -0.13327177 -0.11507104 0.048309572 0.03088675 -0.14567493 -0.07109564 -0.04989772 -0.098159395 -0.10064004 0.14707078 -0.12373926 -0.08007161 0.07646568 0.044615913 -0.16592263 -0.178506 -0.0071638124 0.08752234 -0.16540445 -0.11115464 -0.028972372 0.027741773 -0.1479847 -0.22528267 0.07518419 0.068287864 -0.07444092 -0.06906717 -0.08416931 -0.069409534 -0.112731084 -0.11515218 -0.1107268 0.094911456 -0.15640521 0.06167308 0.01844505 0.027178165 0.093479335 -0.060355272 0.24380328 0.07656665 0.053380236 0.008697211 0.12325739 0.077897884 0.0016350746 -0.10214205 -0.0034279667 -0.0015242 -0.0887629 -0.104307175 -0.0068930364 -0.21410765 0.056492995 0.0017978181 -0.029240342 0.116340294 0.033481184 -0.13135476 -0.10994942 -0.08202329 -0.100081764 0.030448899 -0.03411973 -0.10510684 0.095353946 0.11411939 -0.062082775 0.0022325155 0.15804915 -0.11938617 0.0140762385 -0.13836473 0.086586446 0.14709035 -0.047865644 -0.020503893 -0.039581846 -0.026670018 0.029818807 -0.0032543691 0.05301023 0.058873646 -0.09892479 0.038225286 -0.0014112297 0.024024604 0.0024155064 -0.030457942 -0.063095436 -0.23482268 -0.13073292 0.049655057 0.055418234 -0.07674519
192 -0.16926502 -0.25713027 0.16659099 0.00039567583 0.1302769 -0.045066226 -0.14997508 -0.023390478 0.07277312 -0.07081286 -0.09828156 0.015299141 -0.0045861364 -0.15911438 -0.026465155 -0.0101771215 0.16076759 0.059166804 0.0751593 -0.09411334 0.19278088 -0.0174619 -0.027275624 0.025560558 -0.16168 -0.01732496 -0.056137834 -0.08986093 -0.05361875 -0.1867796 -0.09174614 0.080411606 -0.12636489 -0.10715958 0.03961966 0.040160447 -0.15017045 -0.07092208 -0.0507071 -0.0929582 -0.098928146 0.15860523 -0.123623654 -0.08394381 0.07811896 0.044094358 -0.16618603 -0.17545436 -0.00048050057 0.08453168 -0.16539562 -0.10810996 -0.01864642 0.028656296 -0.14059837 -0.2180809 0.077372566 0.06600582 -0.07849976 -0.068593964 -0.08624129 -0.07090562 -0.112368934 -0.11896576 -0.11426337 0.096013196 -0.15906821 0.067497656 0.011915746 0.028446546 0.09258592 -0.061008506 0.24160998 0.07449589 0.05690827 0.00831493 0.12523003 0.06536686 0.0028535784 -0.106670566 -0.0026713596 -0.009967476 -0.08745589 -0.09265179 -0.0026438024 -0.2021057 0.053069703 0.006456202 -0.022085024 0.112139225 0.024281558 -0.12745 -0.114960305 -0.078003086 -0.08678052 0.032236367 -0.03441006 -0.11091729 0.08385192 0.10126366 -0.06142311 -7.424106e-05 0.14974238 -0.11485286 0.013693597 -0.13388883 0.091374435 0.14382252 -0.04907389 -0.028439436 -0.044282235 -0.021475675 0.036279358 0.0012748123 0.052066058 0.05668825 -0.088977195 0.033258416 -0.00770612 0.022129076 0.009468303 -0.017358733 -0.062734626 -0.22387353 -0.12542738 0.040552285 0.06141291 -0.08921898
