281 32
225 -0.029263824 -0.2345146 -0.25285354 -0.2964114 0.1904292 -0.13850817 -0.08055746 0.13706568 -0.12589502 0.2730656 -0.09955143 0.118318476 0.08691087 -0.10759087 0.15157075 -0.47149968 0.20720662 -0.00542481 -0.18040365 -0.038896237 0.16794911 0.014895765 -0.016840136 0.24278484 -0.09671386 0.12748264 -0.11904499 -0.23383683 -0.08634149 -0.3336133 0.11796912 0.05820988
59 -0.055266008 -0.26252538 -0.2639452 -0.3044676 0.19387901 -0.13426702 -0.09206486 0.13975748 -0.13469596 0.28382006 -0.11922659 0.13747449 0.09048571 -0.08744318 0.1556148 -0.44197088 0.18136062 -0.010679871 -0.18487203 0.008227086 0.16813001 -0.023102418 0.009023938 0.21889773 -0.083578475 0.12218027 -0.14973958 -0.22429208 -0.10677462 -0.3399603 0.1268071 0.06754941
246 -0.023736952 -0.2499875 -0.25709996 -0.2895357 0.184615 -0.1671885 -0.09776072 0.14853871 -0.15267105 0.31276253 -0.11176874 0.122004904 0.090629965 -0.12142567 0.16867344 -0.48043543 0.19006428 0.009499132 -0.14200504 -0.026858112 0.12791087 -0.010402575 -0.025275256 0.22618307 -0.1012481 0.1309089 -0.102367654 -0.22076963 -0.093057066 -0.29633844 0.12764291 0.030673709
231 -0.051565427 -0.25017086 -0.27519086 -0.32025898 0.21649626 -0.16736452 -0.10351241 0.15277605 -0.106957994 0.26790765 -0.11213676 0.094041936 0.06468149 -0.10743519 0.16899349 -0.42600608 0.17305103 -0.015760364 -0.16124128 -0.040604323 0.1764727 0.00696228 -0.013048431 0.23070942 -0.10100869 0.13956974 -0.112330236 -0.20709026 -0.12086854 -0.3438738 0.15521498 0.056505222
198 -0.021415327 -0.2631448 -0.2596523 -0.32436323 0.17457393 -0.14999557 -0.10402796 0.15136631 -0.13822906 0.28065017 -0.120789185 0.094925344 0.09354775 -0.08063452 0.16340698 -0.47267994 0.18047246 0.0014817673 -0.14941095 -0.003199087 0.14071123 0.014404442 -0.021972112 0.22500992 -0.13468497 0.14913005 -0.120713845 -0.22059156 -0.10007618 -0.3158559 0.14896692 0.0427202
47 -0.022821372 -0.25585255 -0.2502769 -0.29751822 0.22073638 -0.15035817 -0.09423193 0.15583883 -0.13371834 0.30621973 -0.115392484 0.12277478 0.10928957 -0.115312725 0.18741241 -0.4423252 0.16862644 -0.0029591275 -0.15884249 0.012438277 0.14694254 0.005358234 -0.018279338 0.22481832 -0.10312052 0.1340691 -0.12720619 -0.20223255 -0.10650224 -0.31595558 0.13891342 0.041926347
54 -0.04582113 -0.27281335 -0.28601596 -0.3062424 0.19993566 -0.16768676 -0.094522946 0.1488721 -0.12464194 0.27399507 -0.11490205 0.08581235 0.086955324 -0.10043518 0.15052578 -0.4492631 0.17567751 -0.019883484 -0.15186596 -0.034730002 0.15682097 -0.009463639 0.015165691 0.2379026 -0.09774224 0.118360765 -0.12238957 -0.21576358 -0.109243065 -0.33907774 0.14309454 0.08363199
277 -0.030895997 -0.2412581 -0.28433606 -0.30581602 0.20036136 -0.15205492 -0.121733606 0.11017174 -0.13554676 0.27695706 -0.12029182 0.106451556 0.07911213 -0.08299672 0.15135203 -0.44887424 0.19227435 0.01693203 -0.15067102 -0.02607042 0.1716983 0.026363082 -0.014222478 0.24430287 -0.09717189 0.11162925 -0.1203749 -0.20502514 -0.111585245 -0.34231034 0.13896333 0.055899616
1 -0.059398495 -0.2675705 -0.23685645 -0.28956482 0.20756058 -0.16519396 -0.08434701 0.1624505 -0.12280194 0.2770208 -0.1198395 0.12578812 0.08657565 -0.10666771 0.1610719 -0.46537632 0.21396574 0.0020424996 -0.14928591 -0.021525118 0.15716724 -0.0049728258 -0.014019731 0.2173175 -0.10645419 0.11562767 -0.10076226 -0.2084426 -0.083659045 -0.3336602 0.14140025 0.052476633
119 -0.03643439 -0.25435743 -0.2911885 -0.3090065 0.21183077 -0.1569821 -0.07682467 0.14120613 -0.14757903 0.25123477 -0.12655874 0.08029713 0.0635434 -0.088696145 0.14600387 -0.46303436 0.17911035 0.0071975417 -0.18562698 -0.024576785 0.14963637 0.014172648 -0.008703237 0.22880596 -0.12547484 0.12983164 -0.12753317 -0.21635266 -0.0959226 -0.32284358 0.13877156 0.044365086
138 -0.033723783 -0.25815594 -0.27562687 -0.3151034 0.19922146 -0.16052325 -0.08861077 0.13061327 -0.1440601 0.2940495 -0.11951647 0.11566943 0.07691481 -0.10257932 0.17247835 -0.45300907 0.19087495 -0.018722035 -0.1741928 -0.0102457935 0.15500924 0.008672012 -0.017524103 0.21727145 -0.11916927 0.116202235 -0.11632687 -0.22058389 -0.07375171 -0.30520678 0.14801808 0.07192492
58 -0.016856028 -0.25160864 -0.27934587 -0.30957893 0.18662581 -0.142341 -0.08312264 0.15594774 -0.13575011 0.28949967 -0.10324869 0.10553333 0.09759698 -0.08025412 0.17802015 -0.4608133 0.17658812 0.0012001715 -0.18042767 -0.030462164 0.1316189 -0.019226795 0.011767183 0.20530044 -0.09943986 0.12065412 -0.1526869 -0.2181587 -0.09822085 -0.3149242 0.14964175 0.061124735
2 -0.014940215 -0.26383123 -0.2515156 -0.30065644 0.17432919 -0.13815323 -0.070315324 0.15201136 -0.16497111 0.27905157 -0.1235381 0.11450941 0.08717807 -0.10409324 0.17451577 -0.46487364 0.1659985 -0.00015272238 -0.18103857 -0.009744248 0.15322249 0.0035825658 0.004598003 0.22567853 -0.12576158 0.11150388 -0.13615674 -0.21419963 -0.11873565 -0.30785665 0.1549755 0.036719862
117 -0.023811972 -0.27294803 -0.26735184 -0.3131404 0.2250152 -0.16340527 -0.09032044 0.14674151 -0.11977906 0.2508585 -0.11098135 0.10934718 0.06614844 -0.10566477 0.16666181 -0.41129318 0.19456795 -0.0019044364 -0.17343426 -0.043779716 0.18512039 0.015529073 -0.010032576 0.22196059 -0.12750125 0.12883045 -0.15404046 -0.21018149 -0.12719658 -0.33511567 0.1500144 0.06918934
83 -0.03945479 -0.2522285 -0.23609363 -0.31095275 0.21806543 -0.14495829 -0.09117165 0.15260074 -0.13631321 0.30797166 -0.083817504 0.09679859 0.07923448 -0.13433462 0.15745334 -0.41957232 0.17940281 -0.02914705 -0.17184544 -0.04320828 0.147909 0.01440301 -0.0046244734 0.22147387 -0.10155168 0.11586935 -0.14278805 -0.2186227 -0.12758116 -0.3560259 0.12966019 0.06826585
52 -0.049524255 -0.2576345 -0.26814657 -0.3509088 0.19146813 -0.16283104 -0.06823753 0.15210356 -0.13524945 0.24726254 -0.113404565 0.102381386 0.07460284 -0.091634065 0.13601968 -0.45188287 0.19469121 -0.00020712131 -0.17192598 -0.028200613 0.17073856 0.0046328316 -0.0071940785 0.21552804 -0.14540261 0.13818064 -0.14071797 -0.22174835 -0.0819395 -0.31772953 0.16583946 0.07006107
150 -0.03142942 -0.24806231 -0.25028038 -0.33748248 0.21955217 -0.15551917 -0.08333854 0.14019512 -0.12026673 0.27494577 -0.102860205 0.06398657 0.09303304 -0.13246031 0.15575129 -0.45266357 0.17608646 0.020754872 -0.17771596 -0.013794995 0.1386534 -0.017680759 0.0043599126 0.2221494 -0.12830663 0.15113837 -0.13069789 -0.19847241 -0.076517135 -0.3497192 0.13654707 0.050884057
94 -0.04244845 -0.25110137 -0.2889511 -0.3014953 0.19545789 -0.16838013 -0.092021026 0.19468094 -0.14026248 0.27268183 -0.092550024 0.11234787 0.07165932 -0.10786803 0.14260045 -0.44514474 0.18164863 -0.0009051611 -0.14344579 -0.041763715 0.16049692 -0.013552272 0.02858158 0.24351384 -0.11564533 0.14111285 -0.13138905 -0.2076617 -0.09656982 -0.3292201 0.15645905 0.06687803
144 -0.0067204903 -0.27275494 -0.27387178 -0.31177822 0.22618479 -0.12856844 -0.06759406 0.16258991 -0.1418277 0.29316837 -0.096591346 0.10074733 0.095265694 -0.07391843 0.14674886 -0.41713062 0.17964372 0.018380003 -0.16867256 -0.03867671 0.15815018 0.00764919 0.0017540745 0.22324727 -0.11113505 0.12652202 -0.1624623 -0.19348538 -0.093917 -0.36837548 0.1690556 0.069743164
86 -0.047635663 -0.26499698 -0.265789 -0.2963975 0.19995052 -0.13719396 -0.08265851 0.13815835 -0.12544368 0.28742245 -0.104739346 0.11752482 0.10296537 -0.0885023 0.15441152 -0.43592024 0.20788303 -7.372573e-05 -0.18436876 -0.009600707 0.17483631 -0.0076627443 -0.008952899 0.21691155 -0.11827746 0.1472277 -0.1444182 -0.21637854 -0.11275297 -0.3334329 0.14795995 0.061370518
278 -0.033534456 -0.262193 -0.2823638 -0.31802115 0.20849183 -0.15909609 -0.06423938 0.13398907 -0.14675793 0.27197745 -0.11374653 0.08049676 0.09249946 -0.098863766 0.14870295 -0.4352161 0.18598694 0.0104220435 -0.15165235 -0.035505306 0.15579991 0.011656127 -0.007133935 0.22045702 -0.10970241 0.12577882 -0.13663657 -0.22017515 -0.09811012 -0.31776315 0.16612066 0.07221209
248 -0.034399413 -0.23471618 -0.23649307 -0.33308557 0.21789664 -0.13709545 -0.078866586 0.14753652 -0.1359862 0.27251315 -0.10473377 0.09400604 0.10207464 -0.1314509 0.157081 -0.44304442 0.19756007 -0.006485292 -0.16072114 -0.017866941 0.1517909 -0.009477484 -0.005852847 0.23827566 -0.12468883 0.13745016 -0.15546986 -0.20954233 -0.08801407 -0.35115913 0.15326217 0.05712303
142 -0.03380202 -0.25233388 -0.2857642 -0.33268568 0.20422554 -0.15404676 -0.08248971 0.15698227 -0.14150834 0.26979935 -0.12622556 0.09280755 0.08725748 -0.08941796 0.15093772 -0.43140432 0.19065322 0.0027311961 -0.16247252 -0.03703131 0.16086406 0.010448087 -0.000808453 0.2281222 -0.10780708 0.1421547 -0.12667602 -0.21179926 -0.09329522 -0.3163689 0.15309168 0.07636435
110 -0.014945612 -0.254683 -0.24612413 -0.30769375 0.20283991 -0.16870536 -0.07105565 0.15361884 -0.1333733 0.2782057 -0.10632626 0.096909024 0.085105166 -0.089522615 0.16631164 -0.44571534 0.17963147 -0.0008500776 -0.17878368 -0.044225138 0.15655759 0.0034251455 -0.012676652 0.24580681 -0.09766397 0.102293365 -0.13452575 -0.20793487 -0.09056052 -0.31708348 0.13798562 0.07278864
84 -0.053758126 -0.23252204 -0.24512811 -0.29081526 0.21830994 -0.13921383 -0.081290476 0.13706069 -0.14766142 0.3156066 -0.09229493 0.096103966 0.103272766 -0.12190296 0.16448413 -0.46652663 0.18741247 -0.002484097 -0.1606019 -0.019964848 0.13226137 -0.0056777596 0.01957609 0.2263486 -0.0894435 0.09790724 -0.14242294 -0.20276701 -0.09271009 -0.3391359 0.1485763 0.08089155
61 -0.039287463 -0.26465112 -0.28281406 -0.3132862 0.20551944 -0.16361459 -0.092661165 0.16114512 -0.12208661 0.2759849 -0.11263504 0.099169075 0.063968495 -0.099330895 0.15577832 -0.4552028 0.1877274 0.0077975406 -0.17471898 -0.04479859 0.14616865 -0.010836078 0.013915605 0.2139437 -0.102388 0.11455219 -0.13312991 -0.21283376 -0.09541364 -0.3564354 0.142162 0.04394938
9 -0.031359665 -0.25096598 -0.27348083 -0.30791536 0.18212478 -0.14150989 -0.091150254 0.16264255 -0.12447089 0.27644688 -0.11552522 0.12091643 0.092604 -0.103837736 0.1468712 -0.44035086 0.17635007 0.014499184 -0.18691614 -0.033579063 0.13929425 0.020660717 0.012227757 0.22476171 -0.13739759 0.13994159 -0.12243435 -0.22418049 -0.116708525 -0.33311608 0.16004695 0.061850242
187 -0.04452445 -0.2720599 -0.24202447 -0.32616144 0.19284615 -0.13284673 -0.0773919 0.15926628 -0.13680421 0.28814977 -0.11269978 0.109911375 0.065462925 -0.09946422 0.18625292 -0.4386555 0.17547764 0.0025800958 -0.18112575 -0.006601097 0.15456603 0.0072324136 -0.01075313 0.23868315 -0.10469276 0.10671634 -0.13855281 -0.20759276 -0.09817356 -0.32105675 0.14648123 0.033954393
57 -0.035545968 -0.25311592 -0.24716905 -0.31754 0.21368973 -0.15193173 -0.089507125 0.14096148 -0.13623664 0.27777913 -0.10015188 0.087031014 0.10185549 -0.086185455 0.14271818 -0.4699964 0.16572401 -0.011420526 -0.15521593 -0.024054341 0.14620773 -0.004498675 0.011096801 0.22737588 -0.12370585 0.13567425 -0.14592215 -0.19083211 -0.097417176 -0.34068465 0.13073795 0.079663016
258 -0.023152048 -0.25951403 -0.24908154 -0.31778005 0.19708467 -0.15316275 -0.07286332 0.14123961 -0.15082613 0.26855344 -0.115346596 0.11335807 0.077384405 -0.081609406 0.15166903 -0.45303875 0.16589814 -0.018894115 -0.17516834 -0.02477307 0.1614534 0.012034573 0.012739468 0.22881882 -0.12915818 0.13683727 -0.14447016 -0.2061238 -0.116808906 -0.32130268 0.13427322 0.07127913
254 -0.039731905 -0.27046958 -0.23238483 -0.31422684 0.19309555 -0.15616639 -0.073571555 0.15338567 -0.14874384 0.28811803 -0.09055356 0.10603428 0.086181596 -0.113133706 0.17698929 -0.43833455 0.19626084 -0.008539272 -0.154706 -0.022160307 0.15106848 -0.007658021 0.021398086 0.23216522 -0.10023386 0.103799514 -0.14656004 -0.22983302 -0.09810324 -0.33718824 0.13944355 0.06491809
48 -0.026295662 -0.25475705 -0.2413295 -0.3137391 0.16630282 -0.14503998 -0.08389957 0.1269558 -0.14991683 0.2736013 -0.12748992 0.09882085 0.086907044 -0.078354985 0.15832216 -0.48570773 0.16129121 -0.02017976 -0.16110286 -0.009251975 0.15862218 -0.0032150934 -0.0080179535 0.22866544 -0.094880104 0.13551597 -0.14169987 -0.23490356 -0.10875489 -0.34140524 0.14915271 0.064299785
71 -0.02760792 -0.2443518 -0.2802858 -0.3139467 0.20087463 -0.15515307 -0.08802939 0.14892519 -0.1172003 0.2903293 -0.107571304 0.10155397 0.09809115 -0.08125672 0.16456693 -0.45161718 0.18920691 0.00086560403 -0.16524735 -0.013819929 0.12854739 0.002729786 -0.002078642 0.24276316 -0.12384624 0.112961926 -0.12944217 -0.20498219 -0.082257904 -0.32950413 0.13403738 0.07139748
96 -0.047579784 -0.25178948 -0.2568586 -0.31165522 0.19667032 -0.15475942 -0.09414321 0.14313643 -0.13723445 0.27829942 -0.11294561 0.1013543 0.08933283 -0.110394284 0.16548611 -0.4268244 0.19431649 0.0069931713 -0.20110035 -0.015336661 0.16724011 0.0040277415 0.009563616 0.23028465 -0.12127207 0.13085285 -0.15040538 -0.22779085 -0.11195277 -0.33388776 0.15058373 0.05251437
106 -0.011783198 -0.27267772 -0.2588674 -0.30957815 0.20213063 -0.1536268 -0.081939146 0.17263272 -0.14227745 0.26172975 -0.09725098 0.11232561 0.067247175 -0.11594848 0.13257837 -0.42342213 0.20784266 0.010978483 -0.14624631 -0.00926603 0.13203809 -0.00017804407 0.013688542 0.23211874 -0.13181718 0.13755815 -0.14604507 -0.23420112 -0.12487852 -0.34174225 0.15335906 0.07907695
257 -0.017785057 -0.24222971 -0.24320284 -0.3019333 0.210434 -0.15037382 -0.057986274 0.14248826 -0.15806173 0.2798261 -0.11082362 0.11161931 0.07499747 -0.10288808 0.14920828 -0.46557882 0.1803073 -0.022019116 -0.18225153 -0.02734402 0.15838975 -0.015611257 0.005033535 0.24542198 -0.11432217 0.14052537 -0.13262136 -0.2305303 -0.09257541 -0.29578355 0.14384736 0.05534409
5 -0.026715338 -0.26341406 -0.2661862 -0.3102994 0.20347154 -0.15241398 -0.0649226 0.14331907 -0.13747655 0.28296745 -0.0987888 0.10158632 0.05564568 -0.09329335 0.17793208 -0.4629678 0.16851531 -0.022020513 -0.15400401 -0.0072564827 0.15467146 0.008793835 -0.007362834 0.23546952 -0.11190396 0.10843812 -0.14464149 -0.23048025 -0.107878566 -0.31471506 0.14325081 0.0723849
105 -0.037841957 -0.2550982 -0.24137264 -0.2872454 0.19919051 -0.14021209 -0.07726409 0.16720465 -0.1350029 0.30448988 -0.10147884 0.1350975 0.10162013 -0.10943332 0.16529576 -0.46215314 0.18788312 -0.01241011 -0.15167463 -0.015483807 0.14893489 -0.011229108 0.031934477 0.24236606 -0.12628664 0.14354631 -0.121397026 -0.18618509 -0.11299453 -0.34002075 0.13554755 0.039559405
282 -0.027250923 -0.2428434 -0.26966247 -0.29902402 0.19123809 -0.13931943 -0.080374256 0.13554163 -0.1536279 0.3188207 -0.10856372 0.11281046 0.09379551 -0.0965716 0.19336784 -0.45885858 0.18511295 -0.026481828 -0.16385533 -0.019440621 0.1510543 0.00092124974 0.021886518 0.23827736 -0.11762671 0.1112711 -0.116731666 -0.19551547 -0.10834916 -0.33505666 0.15074141 0.058809724
121 -0.027600402 -0.2371688 -0.27716708 -0.2924842 0.20281753 -0.16159151 -0.058497038 0.14068131 -0.11642872 0.27548072 -0.10175216 0.09461581 0.0664815 -0.10749111 0.1588514 -0.46099076 0.17479585 0.0019006265 -0.17002013 -0.020185286 0.1584823 -0.00037180525 0.024252575 0.23709503 -0.084196575 0.118822366 -0.13413943 -0.21030436 -0.088472396 -0.35460946 0.14911906 0.0853855
50 -0.042341102 -0.25042796 -0.27892146 -0.28712344 0.17548627 -0.15464208 -0.07206542 0.16610666 -0.13041405 0.28818232 -0.11188042 0.10627922 0.099920556 -0.10519411 0.14757635 -0.44375792 0.20496456 0.0054783877 -0.16222058 -0.02789811 0.13026856 -0.004666871 0.0043636733 0.22248028 -0.1045327 0.13826878 -0.12959728 -0.20776846 -0.099156514 -0.33879456 0.13613044 0.053365815
3 -0.053665724 -0.2455409 -0.25158313 -0.30652937 0.20577683 -0.15902212 -0.074574225 0.17157504 -0.14507167 0.27225515 -0.094909936 0.08544122 0.070359886 -0.12628652 0.15138288 -0.44529673 0.19306056 -0.0015700904 -0.15921319 -0.025182145 0.14416848 0.0079929 -0.0026397929 0.26496905 -0.10433868 0.11291582 -0.14474438 -0.20437485 -0.09164319 -0.3488003 0.13976641 0.059447266
192 -0.054761406 -0.24558781 -0.2764475 -0.3074479 0.20075475 -0.15787448 -0.08226182 0.16241229 -0.13857637 0.27180818 -0.11256072 0.08440654 0.08645063 -0.09920109 0.12551035 -0.4384457 0.20800725 0.0026838928 -0.16207768 -0.028947642 0.1723677 -0.02021811 0.0014482951 0.22259781 -0.13080077 0.14291355 -0.14877403 -0.21308744 -0.115939476 -0.3224684 0.16031177 0.0791361
140 -0.026439548 -0.25289038 -0.26334798 -0.31234565 0.20761164 -0.15074565 -0.093260475 0.14877118 -0.12822627 0.28052622 -0.104366414 0.11079124 0.103535786 -0.11168631 0.16387917 -0.43896094 0.17882387 0.014959615 -0.15562129 -0.033650354 0.15486965 -0.0099032 0.006448853 0.23431979 -0.11976519 0.15555431 -0.13015231 -0.19864318 -0.09511437 -0.3379236 0.1410396 0.04960445
115 -0.012818058 -0.26767898 -0.24621703 -0.33412752 0.20316114 -0.15012743 -0.08783825 0.15173455 -0.14233458 0.26963338 -0.11086119 0.083818115 0.087361075 -0.12130521 0.15859552 -0.4450806 0.16425881 -0.019628469 -0.16146785 -0.051429372 0.14466223 0.013928175 0.014420277 0.23529336 -0.13662091 0.1298372 -0.16035207 -0.20299353 -0.0957857 -0.3157614 0.14668657 0.07069642
224 -0.055434197 -0.24011883 -0.26186243 -0.29569265 0.22660542 -0.16236477 -0.09070514 0.17872763 -0.1510906 0.27252308 -0.10159138 0.1236466 0.08035832 -0.11523433 0.17538844 -0.44846597 0.1985395 -0.00953317 -0.17129868 -0.017792156 0.13795832 -0.0251689 0.017940642 0.22717482 -0.12714656 0.1276 -0.12845463 -0.22788008 -0.091822565 -0.31229758 0.13637151 0.07284578
260 -0.048948936 -0.23625582 -0.2653698 -0.28005332 0.18930613 -0.1640106 -0.108755 0.16548558 -0.11736428 0.29612267 -0.12042648 0.120378345 0.07128732 -0.09299703 0.17351294 -0.46696067 0.19350183 0.023826156 -0.16205923 -0.021390611 0.17439677 0.00037337415 0.020147994 0.24104524 -0.13023755 0.13838194 -0.119702026 -0.21747692 -0.087609135 -0.3247573 0.13636969 0.059155785
62 -0.018061277 -0.26513442 -0.2881789 -0.3388455 0.20262955 -0.14548802 -0.10536652 0.16147643 -0.11498584 0.25647092 -0.10090769 0.1027712 0.07428686 -0.0869413 0.13360456 -0.42245024 0.18581018 0.0057467 -0.16018195 -0.02359544 0.15698594 0.012605179 -0.0024565887 0.23136821 -0.117533505 0.13891283 -0.14320047 -0.21624333 -0.1244074 -0.339482 0.15323421 0.065404594
93 -0.038767908 -0.26050937 -0.2553995 -0.30824256 0.16982688 -0.12870102 -0.100417905 0.16582336 -0.14248884 0.29588765 -0.11989739 0.10938192 0.06453354 -0.089020215 0.18084417 -0.46281862 0.19205995 -0.005480295 -0.17622228 -0.013673919 0.16100602 0.009902699 0.012427837 0.22888 -0.09945528 0.10711104 -0.12955499 -0.20475952 -0.09639979 -0.32065418 0.1583115 0.038239878
49 -0.028434467 -0.25321457 -0.22179651 -0.2808646 0.22708818 -0.15093608 -0.05046068 0.16239758 -0.14113899 0.2959683 -0.0937929 0.1225091 0.08803531 -0.12154472 0.1819237 -0.47510666 0.16485283 -0.00015980957 -0.16148451 -0.0050035827 0.14751449 -0.028529158 0.02676352 0.21142954 -0.12026368 0.121342964 -0.1511915 -0.2275622 -0.08223216 -0.34022486 0.13391712 0.060622253
85 -0.0364943 -0.28086498 -0.25469968 -0.31631327 0.19443865 -0.16396603 -0.10258675 0.15524088 -0.13040328 0.28047276 -0.11594868 0.09684032 0.065012656 -0.06929714 0.18790169 -0.41744253 0.16489054 0.008199836 -0.18954007 -0.023889733 0.17347062 0.0059966054 -0.017338555 0.22880378 -0.1252448 0.10907423 -0.14002827 -0.22841647 -0.12489742 -0.32846636 0.15093313 0.022223825
87 -0.040416453 -0.25564304 -0.25597128 -0.296905 0.2048503 -0.14000061 -0.089801 0.14989796 -0.12255506 0.2646249 -0.10234511 0.09669549 0.09546028 -0.09496382 0.15039822 -0.43967995 0.1883756 -0.016509566 -0.1481157 -0.029869363 0.1671961 -0.0022524903 -0.0025324195 0.23641212 -0.13655911 0.14202629 -0.14067777 -0.21080679 -0.10814764 -0.35983998 0.16982754 0.080387294
91 -0.027094603 -0.2525515 -0.22555292 -0.3114936 0.18928349 -0.12266379 -0.093848705 0.123443596 -0.14100784 0.30524436 -0.11459648 0.09445675 0.10969331 -0.101204276 0.14921997 -0.46895093 0.18626349 -0.017343191 -0.17274655 -0.036752805 0.17458287 0.027602708 -0.0089663435 0.24557896 -0.12095088 0.122051544 -0.11516984 -0.20955499 -0.11805658 -0.3320046 0.15640265 0.040044334
128 -0.025358738 -0.2546213 -0.27210814 -0.31112668 0.19170454 -0.17413892 -0.07549069 0.17535916 -0.1365313 0.2724342 -0.1270893 0.09556247 0.09080639 -0.11605963 0.14727816 -0.45752028 0.18308114 0.023031756 -0.15027642 -0.040849987 0.13576119 0.00052599446 -0.007923132 0.22180584 -0.12046334 0.13555609 -0.123304814 -0.22613907 -0.098946765 -0.329137 0.13569747 0.027124817
184 -0.0125978 -0.25360554 -0.2686007 -0.33209172 0.19713019 -0.17954293 -0.08416958 0.16195123 -0.13179412 0.26814914 -0.089493066 0.08622088 0.07885932 -0.104370266 0.13792147 -0.43216136 0.1811132 -0.01653567 -0.19350238 -0.018414794 0.14501192 0.002626328 0.01837281 0.25073126 -0.14091675 0.1363601 -0.15267189 -0.21072827 -0.09349694 -0.33240956 0.12882671 0.05365705
73 -0.05212531 -0.23837829 -0.2721598 -0.32207447 0.19571073 -0.15308471 -0.07573794 0.16012096 -0.1424765 0.2493897 -0.1123805 0.092086606 0.06908285 -0.073531576 0.15016961 -0.4380879 0.18537654 0.0027749015 -0.17997786 -0.01809686 0.16480844 0.0016719655 -0.0073987455 0.21631 -0.12119843 0.13929074 -0.12459738 -0.1985718 -0.09751435 -0.36271444 0.13157596 0.057082273
97 -0.035835978 -0.22172856 -0.2628349 -0.30760497 0.20122616 -0.16367264 -0.07895095 0.14581326 -0.12794214 0.30537292 -0.09693801 0.08769108 0.09511721 -0.107530266 0.1587941 -0.44059893 0.19532713 -0.019315396 -0.17522064 -0.02460742 0.14571984 -0.02342351 -0.006682752 0.21832426 -0.12402239 0.11017213 -0.12757747 -0.24293064 -0.112664714 -0.32983175 0.15087852 0.07482192
236 -0.03162732 -0.23866999 -0.26023242 -0.28038678 0.22708882 -0.17454791 -0.08648361 0.15161966 -0.11424576 0.25603318 -0.120833695 0.093791716 0.071830355 -0.11564194 0.14665946 -0.4666782 0.21125191 -0.0014513017 -0.1906853 -0.039089754 0.14627513 -0.0020610113 0.011679381 0.22624986 -0.11185601 0.13425511 -0.14234367 -0.21063775 -0.09858971 -0.3365275 0.16597913 0.05497189
102 -0.03328832 -0.25558722 -0.23978205 -0.30486286 0.19081084 -0.17305252 -0.07973846 0.16250771 -0.121733986 0.29366308 -0.12396568 0.08500559 0.08488481 -0.11406039 0.16241819 -0.46796978 0.1752339 4.3877495e-05 -0.14413926 -0.029127764 0.13852748 -0.015243615 0.009778111 0.21810013 -0.12402214 0.11670039 -0.12296842 -0.20574862 -0.09383561 -0.33549988 0.16098143 0.07576361
89 -0.036142223 -0.2299565 -0.23416653 -0.34096122 0.19792087 -0.13518718 -0.06996733 0.15387483 -0.14591181 0.2842478 -0.09403589 0.073443696 0.06851884 -0.11725163 0.16086765 -0.45524678 0.15532951 -0.036772672 -0.17731772 -0.04616333 0.17757396 -0.030550787 0.026709212 0.2494393 -0.13096096 0.14239125 -0.14609487 -0.2268281 -0.11431742 -0.33166724 0.13612555 0.072710246
116 -0.0525468 -0.2619469 -0.259325 -0.30044872 0.20062439 -0.13723636 -0.0876246 0.1420503 -0.14699863 0.28271613 -0.11034582 0.12739305 0.09041487 -0.075397745 0.15555516 -0.45051414 0.2050783 0.015292254 -0.16194054 -0.0221133 0.15669449 0.024398113 0.0011254271 0.23467684 -0.10688057 0.124784864 -0.14893629 -0.21301419 -0.12639242 -0.32948336 0.14726043 0.07181889
146 -0.06819289 -0.27362552 -0.2615439 -0.31682277 0.19750002 -0.16033407 -0.117737524 0.16580178 -0.12806626 0.25858328 -0.107762575 0.11857045 0.071701564 -0.08523557 0.15432402 -0.41922858 0.17489626 0.010356624 -0.16654451 -0.032316566 0.15487477 -0.0034001847 -0.0010978464 0.24568532 -0.12344465 0.12242355 -0.13692142 -0.24185032 -0.0920135 -0.3148407 0.15547752 0.06873462
122 -0.033135273 -0.24511506 -0.25291502 -0.31409457 0.20244208 -0.16164877 -0.08668971 0.15451422 -0.1380744 0.27789673 -0.10107958 0.079609424 0.10697825 -0.117434576 0.14512943 -0.45641807 0.16381663 -0.00609715 -0.17709528 -0.019255577 0.134621 -0.011456707 -0.019697694 0.23606507 -0.12139098 0.1428407 -0.12719041 -0.22973192 -0.078471564 -0.32675403 0.12013519 0.0603097
244 -0.06413582 -0.24663287 -0.28634053 -0.29512984 0.20937788 -0.16688253 -0.090450145 0.14112777 -0.12854593 0.29265177 -0.115472235 0.1120608 0.081487685 -0.09779457 0.15679108 -0.45954195 0.18484758 -0.005935128 -0.15366107 -0.019966705 0.15561198 0.015809154 0.025395501 0.21936947 -0.10902947 0.119468585 -0.13903074 -0.20855102 -0.07786461 -0.3283984 0.14911275 0.06597318
133 -0.07044041 -0.2644523 -0.25378132 -0.28693482 0.1969307 -0.14249535 -0.098318614 0.14743783 -0.12996608 0.2998449 -0.09549513 0.088478655 0.079556376 -0.12351963 0.1769096 -0.4828833 0.1529296 -0.011496485 -0.1445134 -0.03345357 0.17249957 -0.013511703 -0.01456808 0.20705472 -0.12624116 0.14368002 -0.121863864 -0.19878355 -0.10377742 -0.3249574 0.1281073 0.052246027
264 -0.024773626 -0.25511053 -0.23073433 -0.3109806 0.19947283 -0.15973258 -0.08272619 0.16936563 -0.117769375 0.26855794 -0.09545003 0.11221122 0.10375342 -0.102552444 0.1649784 -0.43668762 0.17264299 -0.019842908 -0.17885746 -0.038542766 0.14888573 -0.0069856164 0.012008105 0.2614047 -0.10793973 0.11600646 -0.13992092 -0.23470823 -0.112949446 -0.3458369 0.14535949 0.056388747
75 -0.022525134 -0.25922826 -0.25477558 -0.3302774 0.23310241 -0.13323042 -0.060661033 0.14747696 -0.14497131 0.26745877 -0.07491718 0.0737715 0.079784214 -0.10181885 0.15717179 -0.43550357 0.17798318 -0.02830151 -0.16229863 -0.008295367 0.16596161 -0.015220804 -0.0070383633 0.2220522 -0.11198312 0.09625355 -0.15127894 -0.1949559 -0.113994606 -0.3514643 0.15472676 0.08322252
191 -0.03840992 -0.22532883 -0.25460416 -0.31125754 0.21518597 -0.1556635 -0.064527564 0.16206613 -0.15051089 0.28379756 -0.10682261 0.09104584 0.1094697 -0.13019615 0.17185591 -0.44186065 0.18528096 0.014866791 -0.1715945 -0.033728685 0.12953967 -0.016635524 0.024942068 0.24395129 -0.10849835 0.13416608 -0.13585486 -0.21989125 -0.088331155 -0.312631 0.16690092 0.053835966
69 -0.05034744 -0.25144398 -0.2675317 -0.32837072 0.19234857 -0.15113333 -0.06918465 0.17590885 -0.1398698 0.2724261 -0.10035063 0.10815185 0.065947145 -0.10185656 0.16492146 -0.42216238 0.1942411 0.009488666 -0.1558291 -0.032628097 0.15869713 0.015860392 0.013849337 0.23198357 -0.13189684 0.13089511 -0.15899473 -0.24164952 -0.11173847 -0.33333138 0.14258367 0.072309695
79 -0.028014988 -0.25663608 -0.24805488 -0.31278256 0.19794744 -0.15664014 -0.089036256 0.15853581 -0.17511128 0.29313725 -0.10782303 0.10277074 0.10403447 -0.11394641 0.15044619 -0.46162158 0.20711389 -0.009310367 -0.16029112 -0.0027387778 0.14831397 -0.019829415 0.014425616 0.22538349 -0.12315898 0.11771134 -0.113287844 -0.21824652 -0.097175546 -0.3116364 0.12996452 0.080728315
137 -0.036852334 -0.2583561 -0.25089368 -0.30912015 0.21818379 -0.12825501 -0.089780696 0.16021527 -0.11725275 0.28833616 -0.105546154 0.09296092 0.09861744 -0.10949867 0.14269684 -0.4510194 0.19431189 0.005062793 -0.13456844 -0.025852254 0.17662965 0.00666303 0.015953403 0.2421073 -0.11701352 0.11009392 -0.13923074 -0.21356775 -0.13820112 -0.33242562 0.16046198 0.0653163
186 -0.032272965 -0.25982666 -0.27804598 -0.3095345 0.20686202 -0.15969032 -0.07351171 0.14237265 -0.15336408 0.27003482 -0.11860848 0.07749421 0.10027875 -0.09848301 0.15904701 -0.45472786 0.20062196 0.007547452 -0.15934917 -0.033093147 0.16087793 -0.018258581 -0.00977899 0.21660502 -0.12236393 0.14771876 -0.11831672 -0.20995598 -0.09285181 -0.315427 0.15464173 0.09150867
233 -0.0476074 -0.26899326 -0.23902127 -0.31832728 0.21923031 -0.16455449 -0.05985512 0.15276866 -0.15874755 0.256433 -0.09677003 0.10171766 0.06395976 -0.10644098 0.1640321 -0.42477363 0.20908047 0.0012870203 -0.15883526 -0.03319113 0.16495 -0.01612958 -0.01255698 0.246917 -0.11401861 0.15745941 -0.15787004 -0.220989 -0.088205405 -0.31891167 0.15104194 0.07608812
220 -0.035236835 -0.24357504 -0.24406354 -0.30156666 0.19711055 -0.13742854 -0.06407434 0.14459045 -0.13789663 0.33052415 -0.120093524 0.09209626 0.09397924 -0.12528938 0.18556595 -0.4842694 0.17547587 -0.0066253333 -0.13715203 -0.0021141733 0.15622742 -0.029288843 0.0019187755 0.20238487 -0.097035885 0.12152068 -0.13234927 -0.21589802 -0.089306906 -0.31820616 0.13694711 0.058653068
41 -0.04188838 -0.27685466 -0.2402967 -0.31425872 0.23050058 -0.14842704 -0.06381245 0.1526824 -0.14179572 0.25682372 -0.07408422 0.09398796 0.08128009 -0.08855646 0.15276536 -0.41001794 0.19287957 -0.012989533 -0.18921502 0.0015986201 0.14830428 -0.02837836 0.009521259 0.23667632 -0.124229126 0.1399958 -0.16599457 -0.22248955 -0.10439807 -0.34979135 0.15039626 0.08076674
118 -0.02104394 -0.25156203 -0.24953909 -0.31129947 0.18129897 -0.14300963 -0.06799027 0.16289361 -0.15079077 0.30122203 -0.1308662 0.11903695 0.103363596 -0.10152853 0.14161712 -0.47906452 0.1621495 -0.009951282 -0.17685315 -0.020041283 0.16877276 -0.014633414 -0.020461036 0.23154165 -0.10825045 0.14838809 -0.123196326 -0.22895518 -0.079800665 -0.3214175 0.12098681 0.060398042
51 -0.013252477 -0.23813954 -0.2899092 -0.3090755 0.22854587 -0.1510374 -0.07402094 0.15049545 -0.14087766 0.27977946 -0.09578643 0.06706652 0.079832055 -0.10913989 0.15025741 -0.43967643 0.18375045 -0.0030224666 -0.18400824 -0.0462284 0.14460137 -0.014127503 0.006116327 0.21709615 -0.13508385 0.14411123 -0.13388015 -0.2174926 -0.07535201 -0.33260825 0.13864236 0.069959275
123 -0.047492895 -0.24423894 -0.2664685 -0.30501598 0.21749957 -0.1507895 -0.086472385 0.15650909 -0.11426702 0.26403722 -0.100551955 0.1126975 0.08077478 -0.08648238 0.14926079 -0.4539386 0.18100482 0.018375963 -0.1782359 -0.019165458 0.15400125 0.0022587134 0.023402555 0.218549 -0.12578681 0.13815223 -0.13931805 -0.21711203 -0.08313963 -0.3289233 0.15128848 0.058951702
95 -0.03736084 -0.23756307 -0.26848158 -0.3060301 0.20060383 -0.15520875 -0.057436895 0.17151316 -0.14364325 0.29786462 -0.09960588 0.09448082 0.07626846 -0.102561325 0.13201152 -0.44147485 0.20469311 0.0106164245 -0.1419333 -0.030009855 0.14326355 0.0055106385 0.0153739955 0.24381568 -0.114148326 0.13478392 -0.14485198 -0.1955234 -0.091376476 -0.3506721 0.14174163 0.072793484
145 -0.040318053 -0.26717335 -0.2513846 -0.33491132 0.22065847 -0.13230123 -0.097117096 0.16514423 -0.13873658 0.27035946 -0.107337244 0.08317335 0.078375846 -0.120751195 0.13488217 -0.44686443 0.16694759 -0.018894231 -0.15931447 -0.03287361 0.14688194 -0.00013002314 0.013795136 0.22943999 -0.12428869 0.14056683 -0.14303982 -0.20863304 -0.09794391 -0.32900828 0.15251279 0.06584869
148 -0.055139527 -0.2556391 -0.2440593 -0.3207453 0.18730891 -0.16144931 -0.1009803 0.16344602 -0.15458329 0.29143456 -0.11003365 0.103790715 0.08023696 -0.11843822 0.14398398 -0.4341151 0.19345419 0.0023667682 -0.16800621 -0.020521179 0.14193758 0.00081905973 1.2208247e-05 0.23600703 -0.13442302 0.123692155 -0.1257111 -0.21744278 -0.09331301 -0.31973585 0.13364182 0.0705997
139 -0.023536514 -0.27364492 -0.2797752 -0.31759804 0.19873187 -0.14001039 -0.10148764 0.154363 -0.1397629 0.28417575 -0.10493494 0.097805895 0.060831096 -0.08808792 0.15541136 -0.45826176 0.20083383 -0.014312103 -0.16766044 0.0036005287 0.17389266 0.0071609984 -0.028901655 0.21019779 -0.09634263 0.12410055 -0.13006635 -0.20729104 -0.10313407 -0.3121932 0.1370564 0.08132359
240 -0.03545196 -0.25490898 -0.26715437 -0.2907959 0.23180614 -0.15365715 -0.09608073 0.16199315 -0.14330852 0.26385325 -0.10594006 0.07228576 0.07042217 -0.09248975 0.1672695 -0.42811432 0.19179727 -0.013958344 -0.16072874 -0.009171555 0.1801262 -0.014896901 -0.018931773 0.23476885 -0.10432745 0.11558078 -0.1264395 -0.22969303 -0.09752601 -0.3444048 0.16300675 0.062945254
109 -0.03324443 -0.24144807 -0.2634981 -0.2846794 0.22329134 -0.16257434 -0.078457296 0.14949785 -0.12828307 0.28785074 -0.08652909 0.089256495 0.08568211 -0.1024971 0.14603403 -0.4280139 0.17876606 -0.015023618 -0.18774414 -0.01601628 0.13147885 0.0038008506 0.040623292 0.24895291 -0.12724988 0.13143116 -0.1453744 -0.23631476 -0.09561032 -0.31803426 0.15085085 0.069085166
103 -0.0529035 -0.2638621 -0.24773946 -0.31116968 0.21230727 -0.14998464 -0.09404567 0.16016676 -0.13753326 0.27606153 -0.073273204 0.08429362 0.07025959 -0.10916232 0.15825324 -0.40938097 0.1941823 -0.0024849456 -0.18102793 -0.021763202 0.17378007 0.00013963084 -0.011538592 0.2431761 -0.11891959 0.11806555 -0.11817777 -0.19974618 -0.13101584 -0.36465266 0.15643467 0.04210808
46 -0.047905516 -0.26641655 -0.24547604 -0.28092536 0.20468488 -0.14475939 -0.07373892 0.15972777 -0.15872528 0.28699073 -0.10690453 0.12663947 0.06936554 -0.09549949 0.16947243 -0.45892134 0.19474879 0.0061119655 -0.19076912 -0.0065670735 0.14673752 0.0010617062 -0.0051801847 0.2265583 -0.11294808 0.12013394 -0.1468762 -0.2096431 -0.09363566 -0.32226175 0.14194109 0.05803736
199 -0.027951373 -0.24955043 -0.2711554 -0.28933865 0.18559523 -0.15685722 -0.07021366 0.14843456 -0.12798125 0.293528 -0.107486114 0.09556941 0.07195602 -0.09035341 0.1690904 -0.4505178 0.19398287 -0.010806206 -0.16878884 -0.027916538 0.15008524 -0.0064558117 0.0026832987 0.24096124 -0.12178254 0.12637228 -0.12704489 -0.20688792 -0.11273297 -0.33065706 0.15046357 0.056200523
193 -0.020497095 -0.24690437 -0.25426498 -0.29118973 0.19410965 -0.14562505 -0.05729723 0.17706376 -0.12577963 0.29103488 -0.10899446 0.11288227 0.10386776 -0.1210642 0.1570976 -0.43732095 0.18772897 -0.010781681 -0.17506245 -0.057599228 0.14853096 -0.022290321 0.027352974 0.23296222 -0.113551006 0.1377069 -0.145984 -0.20745885 -0.090378754 -0.33443296 0.1551064 0.08331072
72 -0.030470977 -0.23431702 -0.27611166 -0.3139836 0.1886784 -0.14249687 -0.107560076 0.1534463 -0.13515404 0.27850375 -0.09549016 0.10637072 0.09014498 -0.12700522 0.1569139 -0.43048015 0.1926413 0.016325988 -0.16655178 -0.03032327 0.13755217 -0.007318482 -0.0055722534 0.21919489 -0.11701701 0.13808298 -0.122549914 -0.21258533 -0.1070732 -0.33310112 0.14168166 0.066135705
23 -0.018398162 -0.23902893 -0.27615386 -0.31791845 0.21965976 -0.14001882 -0.08562796 0.1878682 -0.13350357 0.26458484 -0.101249374 0.10191348 0.09260394 -0.11903889 0.13585502 -0.42700756 0.18069915 0.026876196 -0.15418641 -0.015945125 0.1484636 -0.00915238 0.008549699 0.25717956 -0.12854643 0.13472693 -0.16257869 -0.2290983 -0.107823305 -0.3251653 0.15578113 0.07585898
221 -0.049666457 -0.22411318 -0.2792593 -0.3183375 0.1962953 -0.15361926 -0.07724007 0.15640183 -0.14367056 0.2698896 -0.122139424 0.09244958 0.08495159 -0.107500084 0.18150376 -0.45827577 0.18810132 -0.013874691 -0.16369078 -0.010262897 0.17748691 -0.014243579 0.007124557 0.22634123 -0.11656035 0.11117793 -0.11279005 -0.21323398 -0.079323165 -0.33116722 0.13807589 0.072304025
92 -0.025813745 -0.24631913 -0.28476232 -0.32099208 0.21270789 -0.1259928 -0.07096668 0.15794615 -0.12712029 0.31445408 -0.10077266 0.11129685 0.11455619 -0.10012962 0.15935422 -0.4537705 0.19764373 -0.010709596 -0.17095256 -0.026311304 0.13052909 -0.00904152 -0.0008510759 0.21644644 -0.11128747 0.13758613 -0.14902341 -0.20989752 -0.08182098 -0.3133639 0.14013869 0.061878905
134 -0.026272291 -0.2593963 -0.2552679 -0.3031647 0.21483542 -0.14801936 -0.06845602 0.15587276 -0.121891364 0.28021654 -0.10359566 0.07415233 0.08249633 -0.12525587 0.14126344 -0.42404357 0.20026283 0.0048515764 -0.15751997 -0.043345746 0.1721189 -0.004750248 0.00036604045 0.2352275 -0.14354919 0.12431314 -0.15530089 -0.19299303 -0.108134866 -0.3521016 0.1632021 0.054374497
126 -0.051073406 -0.26311833 -0.25714293 -0.28485164 0.1914563 -0.14788304 -0.080072604 0.17707056 -0.13557893 0.26253003 -0.10301983 0.09391362 0.08758856 -0.103977695 0.16808079 -0.45564017 0.19280067 -0.009329049 -0.15937658 -0.035489082 0.15898146 -0.0063453293 0.038510956 0.22155371 -0.12344585 0.11393396 -0.13199756 -0.22107752 -0.119501926 -0.3622172 0.1506024 0.061119545
82 -0.023566663 -0.26299593 -0.2507773 -0.33042112 0.17789814 -0.15393485 -0.056503456 0.15627228 -0.1556732 0.27465692 -0.11890839 0.080884896 0.08648705 -0.10937155 0.15087911 -0.4186625 0.1609797 0.00795207 -0.1672082 -0.017967943 0.15262799 -0.012262201 0.023018064 0.23353836 -0.12862061 0.1200613 -0.13613549 -0.21214099 -0.10565818 -0.3349244 0.1611038 0.06590765
129 -0.056819674 -0.26181534 -0.24194813 -0.29853928 0.21706827 -0.16902366 -0.09124518 0.14362472 -0.12259039 0.27723417 -0.10195332 0.08458274 0.080878526 -0.1120687 0.17537785 -0.45083857 0.18198404 -0.015875457 -0.17412975 -0.037344143 0.15558924 0.0013885647 -0.009217657 0.20935917 -0.09912786 0.1259439 -0.1301528 -0.22329031 -0.10791152 -0.33231434 0.16322252 0.065543324
185 -0.04323167 -0.22561401 -0.2903377 -0.28479156 0.19101354 -0.14883263 -0.08355306 0.1582102 -0.13349056 0.30663458 -0.090835914 0.0886507 0.09729603 -0.11816821 0.14798103 -0.4534107 0.19017373 0.009936643 -0.17460565 0.008472297 0.15159823 -0.026529929 0.008120204 0.24459362 -0.0940666 0.14236234 -0.13425823 -0.21626398 -0.09917138 -0.35580522 0.1302522 0.060637847
132 -0.040209785 -0.23493639 -0.26617128 -0.33539575 0.1953607 -0.14277592 -0.10161395 0.1315498 -0.13211586 0.26375675 -0.12360031 0.09611898 0.094089195 -0.08753919 0.16009618 -0.43326202 0.20369534 -0.0040472928 -0.15918136 -0.029941885 0.1447454 0.0049154996 -0.028188055 0.24554387 -0.115433455 0.1633229 -0.116481856 -0.2309533 -0.09374891 -0.3175691 0.16125922 0.060263425
88 -0.04796535 -0.25643823 -0.2569525 -0.2988583 0.18522623 -0.15251976 -0.09714603 0.17055278 -0.1448487 0.27000734 -0.07774155 0.10603288 0.056175992 -0.09339599 0.16342531 -0.43104726 0.20737028 -0.021400796 -0.15136312 -0.027623432 0.16831508 -0.0023415464 -0.015243521 0.24363859 -0.12142986 0.12734942 -0.13766715 -0.21545808 -0.087339886 -0.34623924 0.13107425 0.07398228
256 -0.034539476 -0.25649476 -0.27229095 -0.30130512 0.20022902 -0.15021375 -0.06523472 0.17718247 -0.16367218 0.2922693 -0.10008093 0.08895692 0.07949983 -0.09927681 0.15771168 -0.45156193 0.18683183 -0.007583769 -0.15558521 -0.017689278 0.15815876 -0.008194403 0.013475952 0.21591812 -0.13658255 0.123456895 -0.13737957 -0.2019035 -0.09059726 -0.33881667 0.12497532 0.056541447
43 -0.044248443 -0.24572094 -0.2523285 -0.31564116 0.21355006 -0.16462322 -0.050534643 0.16424695 -0.13668416 0.28430128 -0.098242134 0.10366927 0.09337342 -0.122704774 0.1721015 -0.44549567 0.16208671 0.003691851 -0.15559496 -0.02399279 0.15341029 -0.0119012045 0.016870547 0.22128151 -0.1226859 0.13681068 -0.1432804 -0.18971181 -0.09675425 -0.33408326 0.16176224 0.08542227
131 -0.039308965 -0.25621367 -0.25820962 -0.32535782 0.21633035 -0.14626552 -0.061684165 0.1606417 -0.14964747 0.2866318 -0.11881966 0.08392271 0.095313594 -0.098086774 0.14698534 -0.42165953 0.1857901 -0.011674199 -0.1509906 -0.016456103 0.15995522 -0.007590715 -0.0064163166 0.23637088 -0.10066404 0.12919901 -0.13518292 -0.21220158 -0.10119878 -0.33870783 0.15283635 0.0843234
200 -0.029547855 -0.27318388 -0.27573776 -0.32892647 0.21031891 -0.16312726 -0.10090766 0.17324884 -0.11867266 0.26558974 -0.09091784 0.07739933 0.090896554 -0.10119013 0.1812254 -0.40401378 0.18830897 0.0056080073 -0.15317956 -0.03591353 0.16339296 -0.01709367 0.019571112 0.23968221 -0.107938096 0.10950498 -0.15983845 -0.23142928 -0.10976957 -0.31450823 0.15795325 0.06438739
76 -0.05368819 -0.23864886 -0.2513087 -0.29608127 0.22434896 -0.17539659 -0.06063913 0.17161255 -0.12343396 0.28296068 -0.10406162 0.10265395 0.08352497 -0.12657414 0.16610336 -0.43765393 0.20888947 -0.00674576 -0.17180435 0.017421642 0.130617 -0.021495402 0.010300464 0.2130247 -0.10324673 0.12248792 -0.15509816 -0.20758083 -0.09816912 -0.34285247 0.15573016 0.06326983
250 -0.05711518 -0.2389035 -0.24634707 -0.3215716 0.21173322 -0.12910591 -0.085497454 0.15855293 -0.14362259 0.29454824 -0.095824294 0.09742614 0.08052397 -0.103889 0.16428082 -0.4380263 0.19835688 0.00036879754 -0.16151105 -0.009390231 0.16743018 -0.00509721 -0.013662993 0.23076679 -0.12771946 0.13252185 -0.15331492 -0.21264958 -0.123690575 -0.34684387 0.12714879 0.046705235
218 -0.041323066 -0.25911865 -0.25265008 -0.2903407 0.19676171 -0.15214579 -0.08319917 0.16660248 -0.15066138 0.28853363 -0.08232715 0.1125966 0.079886824 -0.10147833 0.15395097 -0.4414765 0.1664342 -0.0063147084 -0.18207426 -0.024782674 0.14881319 -0.011748809 0.010981877 0.24895723 -0.10818085 0.13372666 -0.1290661 -0.2208669 -0.08953373 -0.34269556 0.15380552 0.062490977
77 -0.01360959 -0.2545006 -0.24933577 -0.32320106 0.17832388 -0.15155348 -0.08552136 0.16036321 -0.15295221 0.2956301 -0.11786159 0.09349944 0.07268991 -0.10174844 0.17777488 -0.4518892 0.2008702 -0.0015226939 -0.15215236 -0.0142427385 0.14680083 0.0014767919 -0.008345038 0.22763687 -0.10891346 0.1355657 -0.14511168 -0.20462723 -0.10752874 -0.33126163 0.14048903 0.04395156
6 -0.02701715 -0.25498003 -0.25216582 -0.31543037 0.2098546 -0.13888662 -0.078673415 0.14505023 -0.1640575 0.28603864 -0.11088872 0.079972334 0.07749722 -0.09418508 0.17935136 -0.46802083 0.16371316 -0.02940632 -0.17406449 -0.042800684 0.15361302 -0.011049417 -0.017578984 0.21729143 -0.1096426 0.10742069 -0.13339888 -0.23843946 -0.10420179 -0.32295445 0.15704885 0.056544714
189 -0.047012217 -0.23801936 -0.25740805 -0.3017765 0.20703134 -0.13586064 -0.07422919 0.15644972 -0.15689343 0.296165 -0.098607466 0.113885425 0.10435522 -0.1123786 0.17367662 -0.44096303 0.17101341 -0.007322304 -0.15829265 -0.031582244 0.14596064 -0.0013182178 0.027260562 0.23867232 -0.10818667 0.14206034 -0.13696398 -0.21000862 -0.118271574 -0.31594837 0.15969488 0.06048079
53 -0.02245048 -0.27524665 -0.26444763 -0.3151764 0.2180626 -0.12956892 -0.08268305 0.1647917 -0.16157374 0.27177906 -0.104747 0.11685411 0.07944018 -0.115118906 0.14280804 -0.4134839 0.17739415 0.01647505 -0.16475366 -0.023906147 0.16548057 0.0040661325 -0.02228636 0.22797273 -0.1265583 0.095541686 -0.12531294 -0.21809082 -0.10439802 -0.35042384 0.15286437 0.05943721
37 -0.056416135 -0.25824544 -0.236186 -0.30333018 0.22152632 -0.14789833 -0.09486059 0.15925947 -0.12965879 0.29834694 -0.10753972 0.11646488 0.11086451 -0.12834366 0.1657927 -0.44953683 0.16160439 -0.011878724 -0.15225776 -0.04071171 0.14849514 0.013455337 0.024455635 0.2442902 -0.12685078 0.13427149 -0.13196307 -0.20488365 -0.10504322 -0.33963773 0.15657042 0.057185493
229 -0.02080727 -0.272961 -0.26382753 -0.3154055 0.20942967 -0.15115216 -0.08652547 0.1252718 -0.15128055 0.27199757 -0.09562797 0.08424602 0.07760234 -0.07618204 0.1430845 -0.43618256 0.19681859 -0.0044901753 -0.18114685 -0.010140893 0.18353803 0.005921999 -0.025791947 0.24531667 -0.12531559 0.13407692 -0.11665954 -0.21620098 -0.10119899 -0.32456604 0.16230132 0.057271417
63 -0.025945816 -0.23004393 -0.22649243 -0.3163591 0.20706828 -0.12494266 -0.058986958 0.1499009 -0.14254265 0.2989931 -0.10073436 0.077730045 0.0913559 -0.11714603 0.1566299 -0.4528401 0.17853682 -0.026969256 -0.17626159 -0.028520359 0.15473206 -0.0052703926 -0.0114842495 0.24200365 -0.11502461 0.13278942 -0.14503698 -0.19773135 -0.110579826 -0.35080346 0.14807847 0.047768615
70 -0.023779986 -0.2683096 -0.25422046 -0.3101076 0.2088269 -0.1669137 -0.10647705 0.17412804 -0.12063432 0.29880086 -0.12280062 0.11474739 0.07551168 -0.098196186 0.14994247 -0.44433424 0.1892135 -0.008315632 -0.14182898 -0.00734463 0.17041282 0.013839954 -0.0019767005 0.21127401 -0.11049709 0.13029921 -0.14239971 -0.23693116 -0.097733125 -0.31259307 0.14942014 0.076478966
188 -0.004809052 -0.24738573 -0.23063108 -0.33674714 0.21737698 -0.1484489 -0.050955787 0.17962798 -0.1365587 0.30063063 -0.091747575 0.06413355 0.1150881 -0.11208065 0.1610394 -0.4348121 0.16197328 -0.012625368 -0.16003208 -0.030813767 0.13968077 -0.037166968 0.029086512 0.22552511 -0.1364643 0.1333773 -0.15605773 -0.21932463 -0.10009058 -0.32986593 0.14934 0.07621007
281 -0.058598064 -0.24314018 -0.24941617 -0.31484115 0.19173473 -0.16269355 -0.08082169 0.14728582 -0.13859947 0.25387204 -0.10370932 0.10577973 0.0802334 -0.121362165 0.16384171 -0.4149335 0.20691113 0.014568024 -0.17287047 -0.022413999 0.16826822 0.0067936685 0.004511874 0.22727449 -0.13714871 0.12953241 -0.13406134 -0.22228666 -0.111160174 -0.35359478 0.15291719 0.04930043
237 -0.03045105 -0.2428252 -0.24852714 -0.3205607 0.20482416 -0.14088675 -0.052673906 0.16247071 -0.175824 0.3179751 -0.10664263 0.09952235 0.061208125 -0.12392721 0.15776049 -0.4506235 0.19271159 -0.010845106 -0.17547332 -0.06410423 0.15076675 -0.018163858 -0.016928382 0.21592061 -0.102958865 0.124742754 -0.124451496 -0.19560882 -0.12097562 -0.32536748 0.15176079 0.07545471
190 -0.037836503 -0.23436564 -0.27216765 -0.31731248 0.21709847 -0.13244918 -0.06353599 0.15481414 -0.14889021 0.28579623 -0.10442897 0.0843298 0.09300483 -0.09724852 0.14209722 -0.47414017 0.15592222 -0.0013983947 -0.18488128 -0.035959933 0.12998071 -0.024120532 0.016210146 0.24405843 -0.1053397 0.1336475 -0.1476955 -0.19443004 -0.09179096 -0.3211127 0.13611126 0.06826094
147 -0.018662224 -0.2430569 -0.24264735 -0.30791384 0.17835036 -0.15529081 -0.07053183 0.17878139 -0.12709 0.27024177 -0.12538736 0.076355346 0.08144506 -0.10162261 0.15043013 -0.45125818 0.18604806 -0.003012555 -0.1798011 -0.004191086 0.144182 -0.016477583 0.028169904 0.22796467 -0.14243998 0.13290945 -0.13662156 -0.22742996 -0.10176003 -0.3396579 0.13972537 0.070921876
242 -0.039208956 -0.26052907 -0.26175654 -0.29826003 0.16602023 -0.13154347 -0.11158376 0.16445373 -0.13202696 0.29115006 -0.119565524 0.09447389 0.08758708 -0.05651749 0.17087126 -0.43394834 0.20200668 0.0053896825 -0.18607527 -0.0100639155 0.1716838 0.03034907 0.011660793 0.23429824 -0.10819683 0.10903 -0.09745315 -0.21192613 -0.13915735 -0.3449706 0.16583876 0.066459745
261 -0.03749325 -0.22869562 -0.28298467 -0.31198573 0.2000731 -0.15487137 -0.07644077 0.14886959 -0.13489288 0.28767547 -0.10660058 0.082382694 0.08927023 -0.10136407 0.17178845 -0.45212063 0.1713268 0.0012309925 -0.19094002 -0.029180892 0.14712201 -0.012863515 -0.0145650515 0.2222911 -0.12529838 0.11178059 -0.12558793 -0.20812126 -0.08318284 -0.3239513 0.14931609 0.04053013
99 -0.01167858 -0.24581681 -0.24124822 -0.30690894 0.21033697 -0.14938372 -0.064708956 0.14707747 -0.12656282 0.27339712 -0.121022776 0.07095369 0.11126272 -0.09437475 0.17570572 -0.4298763 0.1801137 -0.006161703 -0.18843262 -0.037607428 0.1605528 -0.004094816 -0.0031615314 0.24692379 -0.13057785 0.14265388 -0.121500194 -0.20263354 -0.07277863 -0.34856284 0.16505016 0.06591325
90 -0.033839803 -0.23418158 -0.24032925 -0.31441626 0.21675782 -0.1553482 -0.051576197 0.15716058 -0.13713484 0.2874204 -0.106962584 0.07508697 0.09891451 -0.1248842 0.1556882 -0.44064394 0.18874875 -0.018738458 -0.14861338 -0.035142884 0.16289571 -0.023818564 0.01471872 0.22461274 -0.12821332 0.1265399 -0.14538997 -0.19390377 -0.11217139 -0.34045506 0.1648998 0.06853197
101 -0.048602592 -0.26254714 -0.26785332 -0.27965352 0.20691487 -0.15609051 -0.091503724 0.14779042 -0.12933837 0.25243926 -0.09788238 0.11393981 0.09986715 -0.096629135 0.14645232 -0.43915942 0.2002781 0.016551878 -0.15627573 -0.030603023 0.18365715 0.008515517 0.011976069 0.23899595 -0.12821032 0.13589105 -0.13502644 -0.20425338 -0.10598475 -0.34318748 0.15822136 0.059324615
217 -0.039162356 -0.21761063 -0.27792588 -0.3067766 0.16650921 -0.1569499 -0.0811995 0.13928822 -0.14678414 0.2970505 -0.13624309 0.08521136 0.10577402 -0.109200135 0.16524878 -0.4653541 0.1733683 -0.0002918623 -0.18111664 -0.03590612 0.1362696 -0.013437966 -0.019779786 0.22077988 -0.1071316 0.12833242 -0.14133807 -0.22034998 -0.082632154 -0.31290218 0.13607316 0.07100401
114 -0.033133123 -0.2579412 -0.2553351 -0.32327956 0.18779117 -0.15954763 -0.092248574 0.16729169 -0.12032505 0.27459407 -0.10405195 0.09470205 0.07419143 -0.084765926 0.17148197 -0.42438665 0.19980009 0.01793168 -0.16225123 -0.04045596 0.15220924 0.009124204 -6.5320814e-06 0.2581051 -0.1073543 0.13793173 -0.13040932 -0.21209122 -0.120300494 -0.34375963 0.16579907 0.045030702
216 -0.020338055 -0.2632936 -0.26236078 -0.32304293 0.18899724 -0.16274086 -0.07457872 0.18104945 -0.14101663 0.28076592 -0.11244383 0.05623845 0.092868865 -0.105765134 0.17787313 -0.42605704 0.1637633 0.007636183 -0.1668873 -0.02930692 0.15055448 -0.0041435123 0.009828962 0.2310457 -0.13320178 0.11578277 -0.13475458 -0.23281763 -0.10143879 -0.3262554 0.15021345 0.0675931
204 -0.036340803 -0.25252688 -0.2621745 -0.31423414 0.19079971 -0.14726721 -0.08517163 0.16243044 -0.11062818 0.29710448 -0.10595801 0.11293107 0.06452821 -0.09904343 0.14978889 -0.415888 0.18028654 0.010137939 -0.17383522 -0.00394398 0.15945692 0.012320261 0.0085216025 0.23311955 -0.12858324 0.1296118 -0.142108 -0.22591542 -0.08944284 -0.3650018 0.1519738 0.0646509
151 -0.023077397 -0.25117916 -0.2698801 -0.33008787 0.2205759 -0.14032638 -0.07466143 0.14760411 -0.121867515 0.29777133 -0.09933045 0.10161539 0.07699375 -0.088249795 0.136705 -0.45447546 0.17433552 -0.0015479024 -0.15712878 -0.029932003 0.1356051 -0.008769477 -0.0114982175 0.23564906 -0.12407284 0.14518411 -0.1393724 -0.20981337 -0.06371092 -0.33032528 0.14621732 0.065220736
4 -0.022952208 -0.22124776 -0.26674291 -0.31345302 0.21517248 -0.14499213 -0.087802954 0.1619418 -0.14248724 0.29538724 -0.08930065 0.111170836 0.095563404 -0.10794599 0.14867875 -0.46368197 0.18823244 -0.015500614 -0.18440196 -0.0060682255 0.14800656 -0.010805414 -0.022356901 0.21287192 -0.1015955 0.14289336 -0.1377913 -0.20219998 -0.072429486 -0.32662243 0.13737987 0.04407008
149 -0.055838335 -0.2605068 -0.2616731 -0.2917758 0.20939763 -0.14774702 -0.09259462 0.16778849 -0.13522753 0.28751856 -0.116433635 0.11928387 0.09698153 -0.091967806 0.17874055 -0.46441817 0.17007682 -0.005456197 -0.15486543 -0.0046072467 0.1610489 -0.018617522 0.015322662 0.20929495 -0.113453686 0.13123356 -0.12476544 -0.2034511 -0.10435468 -0.3191864 0.15665054 0.05891753
18 -0.023001818 -0.22726521 -0.25226963 -0.29512438 0.2116537 -0.12456088 -0.07904663 0.16170713 -0.1426559 0.3006409 -0.100172915 0.11268394 0.11325104 -0.092783 0.1515001 -0.45151615 0.17302302 -0.01536802 -0.17995875 -0.022387862 0.16437262 -0.011019788 0.02688565 0.2356053 -0.11763557 0.15746114 -0.1379089 -0.20518106 -0.09549952 -0.32916588 0.14021093 0.072611585
222 -0.044541176 -0.28439972 -0.26385418 -0.3061922 0.20247014 -0.1572364 -0.067653134 0.15367585 -0.15544638 0.27606386 -0.103117645 0.082843095 0.08646793 -0.09530243 0.18236256 -0.4353254 0.19251242 -0.016217317 -0.16631937 -0.01066283 0.14223799 0.0050694384 0.012030412 0.20436646 -0.115883134 0.10123066 -0.13031088 -0.22173068 -0.10169055 -0.34437266 0.15158822 0.08133631
226 -0.023876231 -0.23927085 -0.25840497 -0.32288033 0.2052823 -0.1686334 -0.07905517 0.16692887 -0.15407364 0.28478503 -0.10741966 0.07822394 0.09109283 -0.11117969 0.16312048 -0.4392328 0.16277163 0.008315225 -0.16966349 -0.029314473 0.13802013 -0.01910514 0.016775329 0.21985404 -0.11595024 0.1442719 -0.15757518 -0.19959603 -0.10055987 -0.3273289 0.13519959 0.07887304
143 -0.007177319 -0.27075425 -0.25455353 -0.30483288 0.2419501 -0.13220446 -0.07374642 0.16141877 -0.12969013 0.26446486 -0.120154366 0.10532833 0.11127439 -0.115040705 0.13295661 -0.43567643 0.15687384 0.0145368315 -0.15861966 -0.03788931 0.15452282 -0.037810296 0.023764629 0.25202513 -0.12793925 0.1521002 -0.14670365 -0.2031344 -0.09996601 -0.34785503 0.16321523 0.052257907
197 -0.050278477 -0.2515657 -0.24261318 -0.29934525 0.18604727 -0.15973887 -0.07604349 0.16092938 -0.13814813 0.30459768 -0.08571442 0.094104946 0.09153589 -0.10774681 0.15881196 -0.44357955 0.18457988 -0.03939958 -0.16193151 -0.026127113 0.14893983 -0.023629555 -0.00072153594 0.2432124 -0.09841457 0.12704794 -0.12880684 -0.22524944 -0.097812414 -0.33539042 0.13073373 0.08112094
279 -0.032360326 -0.27042776 -0.23940404 -0.30844635 0.21523018 -0.14641818 -0.07810913 0.15200402 -0.12640688 0.28507787 -0.103336185 0.08715847 0.09111015 -0.082947165 0.16585708 -0.44108278 0.18343273 -0.045219373 -0.18706855 -0.0065180263 0.15845041 -0.019301375 0.016399082 0.24197972 -0.10988744 0.12317068 -0.1661826 -0.21470794 -0.11605873 -0.34356087 0.14609674 0.07013064
32 -0.02153841 -0.25397456 -0.28102207 -0.320276 0.19387318 -0.13725589 -0.0789101 0.14977671 -0.1445653 0.28777793 -0.116743445 0.11731616 0.08855106 -0.093094364 0.14468905 -0.43112698 0.19089572 -0.0029340216 -0.18537916 -0.017391576 0.13332863 -0.0050536743 -0.010336845 0.22131246 -0.12670167 0.12742537 -0.14794916 -0.20073248 -0.08683324 -0.35352397 0.1319399 0.058230974
22 -0.017947368 -0.24230312 -0.2536858 -0.315253 0.22137667 -0.15207133 -0.06180187 0.15051252 -0.15244272 0.28409922 -0.10989939 0.092990115 0.10528704 -0.10792207 0.16128275 -0.44799256 0.17197901 -0.015349287 -0.1514439 -0.022546362 0.15175307 -0.022486588 0.010418935 0.2214357 -0.12412643 0.1396456 -0.16677167 -0.21776514 -0.08229648 -0.32697242 0.14898026 0.06787993
98 -0.016323486 -0.24291219 -0.2443175 -0.3086032 0.20632346 -0.15818448 -0.06622701 0.16548412 -0.14195362 0.2915135 -0.093698 0.07609502 0.11110496 -0.121665955 0.1775774 -0.4582468 0.18234733 -0.012770118 -0.15138058 -0.03171909 0.124586776 -0.017976332 0.016756741 0.22663134 -0.12214605 0.12477355 -0.13876764 -0.19656949 -0.107034646 -0.3476315 0.15695459 0.07028399
274 -0.017027384 -0.22591035 -0.24779242 -0.2897438 0.21973288 -0.1576812 -0.07663075 0.16024691 -0.129224 0.28453338 -0.10777283 0.10081227 0.08176274 -0.107121035 0.18226431 -0.4348419 0.19565746 -0.015241551 -0.18520357 -0.029431457 0.15283942 -0.008859559 -0.0011114692 0.24097088 -0.12577993 0.13380335 -0.14690423 -0.22489735 -0.074200414 -0.3523891 0.14533496 0.04711093
251 -0.03483186 -0.25084168 -0.24049999 -0.298681 0.19751577 -0.13690354 -0.07594372 0.12753958 -0.15341327 0.32084844 -0.0978403 0.11876454 0.120422915 -0.108857274 0.17726408 -0.47413418 0.1805157 -0.007814805 -0.14578396 -0.02780694 0.1494668 -0.013821914 -0.00896897 0.21375898 -0.115041174 0.117300875 -0.119279385 -0.21074069 -0.10055235 -0.2935627 0.15331729 0.07273096
136 -0.030929662 -0.27300957 -0.25860894 -0.332185 0.2182118 -0.1414645 -0.068260685 0.15674599 -0.1378473 0.27715746 -0.111892305 0.110211514 0.072289765 -0.11176209 0.14808421 -0.43809307 0.19061981 -0.023424411 -0.1746554 -0.034880713 0.14747088 -0.0122372545 0.006818415 0.22481139 -0.11302542 0.11967347 -0.15445302 -0.21936908 -0.11635468 -0.31360242 0.13684028 0.08656861
78 -0.04428761 -0.24576288 -0.24488918 -0.30426213 0.21169667 -0.16268076 -0.0652604 0.15060282 -0.1376934 0.26174358 -0.10137292 0.08488342 0.102160566 -0.121772364 0.17818922 -0.44812083 0.18854462 -0.02077766 -0.16339919 -0.02401993 0.14540452 -0.0020893905 0.019657608 0.24401811 -0.114849605 0.11978427 -0.12808864 -0.21866575 -0.101469554 -0.34094074 0.15680756 0.09662221
124 -0.029859731 -0.26256528 -0.27523538 -0.29721457 0.2092898 -0.15866075 -0.054705523 0.15808685 -0.11582728 0.2343475 -0.10388789 0.09246075 0.10835444 -0.09003775 0.13520981 -0.4181975 0.20133229 -0.004079187 -0.1702234 -0.028874954 0.1540431 0.014925173 -6.7165594e-05 0.2495665 -0.143732 0.123477526 -0.14438933 -0.22860321 -0.09909082 -0.3659791 0.14688098 0.061434843
13 0.0053804945 -0.2326748 -0.2638068 -0.31886852 0.19754359 -0.1601334 -0.055053648 0.15949824 -0.14125827 0.29431245 -0.11606132 0.10101373 0.08753066 -0.118449114 0.16334979 -0.4437323 0.16263957 -0.000119770164 -0.17609234 -0.052977487 0.1472419 -0.012608283 0.005788439 0.2536973 -0.15096012 0.14603229 -0.12324097 -0.18477201 -0.08343782 -0.31550112 0.15243055 0.074771486
104 -0.0033328289 -0.27872992 -0.23629113 -0.34321323 0.19180356 -0.16173978 -0.06965382 0.16632864 -0.13530715 0.2704469 -0.0969643 0.07594999 0.089545645 -0.09337504 0.15197167 -0.4426957 0.16085662 -0.031727657 -0.18208908 -0.022305515 0.14656667 -0.0017190117 0.005054284 0.2591301 -0.11105635 0.13483515 -0.14301345 -0.22278212 -0.079363644 -0.31006235 0.16285819 0.07067383
243 -0.02930398 -0.2801348 -0.24614073 -0.33177185 0.20310384 -0.14651418 -0.091652125 0.131565 -0.16149305 0.26693 -0.10134457 0.080723286 0.0850115 -0.079656444 0.17541623 -0.45240077 0.18509595 -0.031868067 -0.16578484 -0.023483945 0.15254323 -0.012387093 0.009298338 0.24146889 -0.12182196 0.119475774 -0.13251457 -0.2119437 -0.11907479 -0.31178358 0.13332513 0.07912913
7 -0.03812658 -0.25179827 -0.27361023 -0.3090632 0.20355403 -0.14393857 -0.060388234 0.16663244 -0.12456525 0.2802637 -0.103029154 0.108743764 0.08017452 -0.12062833 0.16974258 -0.41346353 0.18879834 0.015972247 -0.17358287 -0.03321284 0.15149516 -0.01439898 -0.0068381038 0.22974521 -0.09521873 0.113861375 -0.14629155 -0.21655715 -0.09336545 -0.34724322 0.17596625 0.07935455
153 -0.038746018 -0.24487704 -0.25204107 -0.3132511 0.20447461 -0.154196 -0.09383598 0.14301361 -0.12569553 0.2558843 -0.11340184 0.099018 0.08698656 -0.10391814 0.15979137 -0.4490015 0.16865577 0.006119619 -0.15855676 -0.008713682 0.16744179 -0.0053302795 0.013349095 0.24400674 -0.1171507 0.11103842 -0.13094714 -0.21071248 -0.096214525 -0.36438403 0.1471019 0.053741027
67 -0.044120073 -0.26235104 -0.24734508 -0.32602945 0.22629413 -0.15476274 -0.07491585 0.15829645 -0.12986672 0.27180764 -0.0775243 0.08696449 0.06558939 -0.12476403 0.17205384 -0.4227442 0.19864562 -0.015572133 -0.17184447 -0.031008078 0.14219423 -0.03088801 0.012874556 0.22058384 -0.110964894 0.13514943 -0.13938151 -0.23619814 -0.08834062 -0.36338505 0.14646105 0.053014096
38 -0.01877386 -0.25869197 -0.27482662 -0.31181508 0.19967201 -0.16873531 -0.093511805 0.15566361 -0.12246486 0.26860583 -0.11331509 0.08514514 0.117314875 -0.10460602 0.1432284 -0.4500071 0.17428897 -0.001977321 -0.16179952 -0.020787645 0.14333163 -0.004191239 0.0055810777 0.24674128 -0.1287563 0.1295962 -0.12958962 -0.22356167 -0.08575787 -0.34158835 0.13535477 0.0488188
108 -0.039222155 -0.22898102 -0.25697374 -0.31858113 0.21469852 -0.14861485 -0.05866703 0.15345092 -0.14772972 0.29029602 -0.10815784 0.076948956 0.10545427 -0.10698342 0.15746441 -0.44810277 0.15674223 -0.018061578 -0.17842019 -0.017186059 0.15581672 2.4711517e-05 0.0061985203 0.22884828 -0.10843027 0.13691188 -0.14885184 -0.20155261 -0.09356301 -0.34017947 0.15030368 0.08556053
238 -0.05264918 -0.24870309 -0.28226244 -0.308274 0.20049052 -0.14763847 -0.07952441 0.14752774 -0.12944515 0.2903031 -0.114715405 0.1307372 0.10198105 -0.09328091 0.14685202 -0.46936277 0.17798813 0.019206593 -0.15591292 -0.012603401 0.14038202 -0.00019888936 -0.002643324 0.22840923 -0.10777411 0.13325919 -0.14349778 -0.219175 -0.07313349 -0.33728898 0.12542279 0.08973342
202 -0.036824893 -0.24328022 -0.28125125 -0.30560136 0.21459052 -0.15129347 -0.0808836 0.16551565 -0.123701334 0.28598616 -0.09332086 0.09019257 0.10864502 -0.12731037 0.15213646 -0.4366212 0.18839267 0.012469656 -0.16262257 -0.011347081 0.13884704 0.009890255 0.013519944 0.2395275 -0.13387693 0.14990892 -0.13575761 -0.19395483 -0.08194167 -0.34930786 0.14922352 0.072679795
235 -0.030522434 -0.24018416 -0.2724792 -0.302662 0.20272492 -0.15923809 -0.06645896 0.13487148 -0.14956452 0.27876124 -0.12661125 0.09525179 0.09329601 -0.0797173 0.15897499 -0.46425307 0.1704994 -0.0039405366 -0.15133451 -0.017231563 0.1495198 0.003675121 -0.011372536 0.2433249 -0.11225081 0.15104511 -0.13006815 -0.19558755 -0.090738826 -0.32387722 0.124292165 0.099574
127 -0.03778757 -0.26539454 -0.2514997 -0.29926556 0.2218577 -0.13064419 -0.074313 0.14950448 -0.1537976 0.27494246 -0.09468222 0.09574743 0.085287884 -0.1216911 0.16918229 -0.42098475 0.18241161 -0.0075265584 -0.1778008 -0.013954584 0.15610008 0.012190561 0.005346672 0.24064115 -0.12526095 0.1246161 -0.13443825 -0.22267586 -0.112246126 -0.34725314 0.1507914 0.04627457
28 -0.023135856 -0.26148298 -0.23100753 -0.31380266 0.21827891 -0.13786294 -0.056880213 0.16363193 -0.16230814 0.27854583 -0.08697287 0.106162034 0.09667893 -0.096850865 0.16889173 -0.4398873 0.17477356 -0.012638529 -0.174025 -0.028882157 0.12620375 -0.016201718 0.0004883726 0.24131227 -0.12971723 0.14050135 -0.14524652 -0.21643858 -0.086170435 -0.33138993 0.15220277 0.06313212
268 -0.031600762 -0.2569892 -0.26144263 -0.30629957 0.19672108 -0.15557404 -0.093641445 0.1444939 -0.14641131 0.26029256 -0.109758146 0.12564923 0.084840976 -0.064840004 0.16654429 -0.42543936 0.18600638 -0.016785681 -0.19640721 0.0068750675 0.15971354 -0.012339482 -0.0159257 0.2231954 -0.14483525 0.14932327 -0.13732433 -0.2322447 -0.106400356 -0.32663167 0.15814497 0.060842745
276 -0.039201204 -0.25080025 -0.2787032 -0.34931782 0.20226403 -0.16580161 -0.0782128 0.18749818 -0.14536375 0.2688999 -0.10242428 0.07922995 0.06823089 -0.09326127 0.1291731 -0.43461955 0.17288242 -0.013416722 -0.151257 -0.034948375 0.120153464 -0.0042697527 0.0014732998 0.21866417 -0.1452379 0.14590915 -0.1399404 -0.21507505 -0.103380196 -0.3319707 0.1488618 0.09283304
125 -0.029916057 -0.26393056 -0.24865603 -0.31728917 0.2091026 -0.15307808 -0.09237989 0.158019 -0.16669974 0.27570307 -0.070798464 0.06587437 0.070574224 -0.08962852 0.14349301 -0.42312783 0.19068757 -0.02957599 -0.15773141 -0.033462774 0.15755612 -0.013161935 0.012456025 0.23319711 -0.13081793 0.1290298 -0.15299651 -0.21565898 -0.12580492 -0.34434828 0.15563317 0.066718236
31 -0.015436947 -0.24009262 -0.26421377 -0.29627547 0.18839103 -0.15218855 -0.07159457 0.14023453 -0.16067858 0.28387368 -0.10011355 0.117061384 0.11681299 -0.103187054 0.16087861 -0.47879842 0.16034698 0.0033154855 -0.1643963 -0.046844184 0.14646031 0.0043590176 0.0030409056 0.24562931 -0.108465314 0.1364025 -0.13702874 -0.19033787 -0.09549141 -0.3183812 0.14095622 0.098677635
155 -0.035132084 -0.26558194 -0.27384442 -0.31953105 0.1995784 -0.14607574 -0.09562535 0.14433841 -0.13193396 0.28136024 -0.11448685 0.09640873 0.08761472 -0.09716891 0.16110837 -0.4323378 0.16775839 0.006337571 -0.17183402 -0.02532615 0.1347623 0.03756234 0.011483182 0.24236156 -0.103497915 0.11353758 -0.15082237 -0.21044235 -0.110362284 -0.32795104 0.16954152 0.07528591
213 -0.021228276 -0.2506109 -0.26346487 -0.31469604 0.21278585 -0.15161197 -0.053733613 0.14940384 -0.114701964 0.26979497 -0.10202666 0.082913786 0.10448411 -0.08435466 0.1685485 -0.44198656 0.17373098 -0.002893752 -0.18896493 -0.02535503 0.16048834 -0.008242551 -0.0048324377 0.24623701 -0.095867 0.14253542 -0.14572322 -0.2113015 -0.09872319 -0.32086706 0.15127958 0.04461193
68 -0.04933736 -0.23525046 -0.25471532 -0.2803093 0.2110444 -0.148911 -0.07624129 0.14397548 -0.15432373 0.28907332 -0.12083116 0.12716597 0.100290716 -0.13456863 0.18114243 -0.46565756 0.16119245 -0.009135815 -0.15622877 -0.015838357 0.15083691 -0.0139769465 -0.007214677 0.23304558 -0.120352484 0.12088602 -0.12960078 -0.22027224 -0.081049226 -0.31871536 0.15337971 0.07051393
162 -0.037957456 -0.24490373 -0.25866753 -0.29064107 0.22376046 -0.16057079 -0.06554453 0.1489318 -0.12848881 0.2916599 -0.09774089 0.09010526 0.081253774 -0.12062377 0.1610324 -0.4362134 0.17347245 -0.01764246 -0.1591783 -0.0042445078 0.16177185 -0.01603323 0.0103142075 0.23799591 -0.117830925 0.12432676 -0.1471435 -0.21314798 -0.09406315 -0.3381641 0.15237164 0.07922421
232 -0.02327911 -0.23559953 -0.24206895 -0.30429605 0.20918225 -0.16498724 -0.060764402 0.17180867 -0.15144692 0.30993676 -0.071769774 0.09770394 0.07710852 -0.1022488 0.19077738 -0.43791187 0.17429766 -0.030774519 -0.17153558 -0.025998613 0.1487461 -0.029388908 -0.0037047258 0.21972685 -0.10985192 0.10831453 -0.14749198 -0.23036374 -0.107613504 -0.333339 0.14421214 0.056302723
234 -0.006452394 -0.22923057 -0.23754644 -0.32090744 0.19323756 -0.15706533 -0.07335795 0.15014221 -0.14239179 0.28658786 -0.09902459 0.106593914 0.10019832 -0.121671304 0.15705101 -0.44129694 0.16948892 -0.019044658 -0.13816738 -0.037594147 0.1620397 -0.013057043 0.027745353 0.23223142 -0.12737054 0.1489344 -0.14504033 -0.18580852 -0.109472625 -0.35151166 0.14968061 0.057890184
21 -0.04115729 -0.22764 -0.24244316 -0.32387745 0.19475745 -0.15707558 -0.05959942 0.15156476 -0.14671531 0.30041465 -0.114029296 0.08459812 0.116923444 -0.12583251 0.15407525 -0.44355246 0.18181339 -0.014146648 -0.16874301 -0.022822674 0.1501824 -0.020671526 -0.0071034273 0.24360031 -0.10695297 0.12469356 -0.12972777 -0.20653917 -0.09236729 -0.3249603 0.16013661 0.053550743
66 -0.0035083992 -0.26771158 -0.24343333 -0.3217418 0.17614475 -0.16403475 -0.07610273 0.16506998 -0.1351893 0.27917573 -0.11992146 0.11666516 0.100286655 -0.09371647 0.18677655 -0.43628561 0.17134234 0.0028010467 -0.15036535 -0.0021538325 0.15127836 -0.0024233945 0.00192094 0.23684014 -0.11461231 0.10837033 -0.13598572 -0.21513 -0.10217422 -0.3396897 0.16117793 0.06278011
194 -0.019719629 -0.25546005 -0.277298 -0.33901396 0.1837614 -0.14585507 -0.07122776 0.17503217 -0.120181605 0.26806572 -0.10863147 0.09301306 0.07921608 -0.11535821 0.16020073 -0.43360013 0.18600705 -0.008001901 -0.16674773 -0.029890265 0.15733394 -0.020104172 0.00033832167 0.22837302 -0.12159654 0.13209388 -0.15076667 -0.2293942 -0.091543764 -0.3250143 0.15273204 0.05353055
259 -0.02786187 -0.22652048 -0.26284382 -0.31387144 0.1976535 -0.17108382 -0.055236645 0.14350061 -0.13465036 0.27583027 -0.11341376 0.07833007 0.08470581 -0.12291038 0.1616592 -0.467517 0.19529234 -0.017721497 -0.14985193 -0.031456962 0.14633818 -0.021765677 0.018514715 0.23295398 -0.09831259 0.13332596 -0.14798991 -0.20283239 -0.112063095 -0.33175266 0.14490405 0.100393206
15 -0.02400186 -0.28043565 -0.24159858 -0.3373022 0.21299982 -0.15079048 -0.050086245 0.15732688 -0.13884896 0.25144035 -0.09650879 0.08975617 0.07944678 -0.081453905 0.1532433 -0.4276515 0.16423085 -0.005747974 -0.184819 -0.043239545 0.17181095 0.0046059303 0.014484397 0.23733263 -0.14070648 0.10988329 -0.16791117 -0.22204107 -0.08010003 -0.34044507 0.14385115 0.0729746
196 -0.03666438 -0.25043547 -0.26605952 -0.3117307 0.1980141 -0.15531604 -0.059603203 0.13816348 -0.15837346 0.2848727 -0.08342558 0.093922965 0.062416483 -0.091673456 0.16755089 -0.42426914 0.19731478 -0.021531925 -0.19752264 -0.036431585 0.14923075 -0.02535926 -0.0070093675 0.23108442 -0.12237772 0.14791481 -0.12132887 -0.23594722 -0.10524777 -0.3167693 0.15190716 0.070377484
247 -0.017370949 -0.24141411 -0.26954508 -0.30724704 0.17798407 -0.15666333 -0.07774226 0.14874837 -0.1360286 0.31668922 -0.1142924 0.11103483 0.09983962 -0.10231166 0.1536049 -0.4574997 0.17993473 0.011897134 -0.16139199 -0.047545534 0.14573058 -0.031993426 0.0099794855 0.22417162 -0.12265249 0.14146689 -0.14442313 -0.20947915 -0.105350204 -0.3490498 0.13239656 0.06813049
135 -0.028545495 -0.24415867 -0.25166517 -0.31833422 0.20087953 -0.16264807 -0.04919921 0.18677765 -0.13366316 0.29775748 -0.08662246 0.10322603 0.08134745 -0.090711534 0.17210205 -0.45612386 0.16011497 -0.020415409 -0.17337394 -0.04566033 0.12874286 -0.029291777 0.032805584 0.22403342 -0.101386175 0.101750985 -0.16164269 -0.22088759 -0.108805336 -0.3199655 0.15964137 0.074506015
24 -0.020557238 -0.2284548 -0.26161647 -0.29790354 0.20479508 -0.15442114 -0.070793316 0.15942515 -0.13695124 0.28311917 -0.08066144 0.08906483 0.103577584 -0.123443 0.1508373 -0.44184417 0.17519064 -0.016440239 -0.16595842 -0.037394784 0.13648686 0.0002695599 -0.0015302653 0.25298983 -0.123571135 0.15041132 -0.14272922 -0.22523753 -0.07749539 -0.32317537 0.1446995 0.07617676
120 -0.03759408 -0.27189153 -0.28033164 -0.30013427 0.19559465 -0.17482357 -0.06698388 0.18035881 -0.112731524 0.26843312 -0.09212782 0.08928518 0.07484392 -0.089716546 0.14167245 -0.43707955 0.19585058 -0.02010235 -0.16565385 -0.01614619 0.1561441 -0.024416657 0.00036618664 0.23907502 -0.13750505 0.14099522 -0.14467908 -0.23923153 -0.094205216 -0.31740186 0.15753749 0.059971564
214 -0.042905893 -0.23490119 -0.24186422 -0.3046829 0.18938796 -0.15437198 -0.068500064 0.15972362 -0.13566343 0.27019456 -0.12146479 0.09754921 0.08658898 -0.10524446 0.148834 -0.45649007 0.18743075 8.041943e-05 -0.17791846 -0.025894322 0.13723601 0.008463975 0.017000385 0.25161734 -0.13540576 0.14299305 -0.12948816 -0.21681023 -0.096560076 -0.33767742 0.1559026 0.0611453
64 -0.0420432 -0.26574683 -0.24017769 -0.31499794 0.19560233 -0.13233964 -0.06864333 0.17214745 -0.14882742 0.30717966 -0.10602787 0.113969535 0.09270095 -0.12401962 0.20259994 -0.4320516 0.1877726 -0.009404271 -0.17249285 -0.013709434 0.14442375 0.00628882 -0.002073616 0.22871627 -0.11719217 0.11719161 -0.119010985 -0.21769246 -0.108772136 -0.31927884 0.16609134 0.041126654
17 -0.04121057 -0.26235393 -0.24420552 -0.32298142 0.21119592 -0.17186612 -0.07159647 0.16517659 -0.12136018 0.3008148 -0.0816257 0.09823077 0.09896812 -0.097942606 0.15486327 -0.4254129 0.19337247 -0.036443643 -0.1656727 -0.026823241 0.15990426 -0.037433393 0.021192063 0.21947603 -0.103134364 0.13897838 -0.16996475 -0.23182668 -0.10331166 -0.33091378 0.15874998 0.076415494
215 -0.01952624 -0.2567321 -0.2683604 -0.33121938 0.18783903 -0.14923644 -0.067696765 0.15162244 -0.122976124 0.28014377 -0.10992341 0.08617301 0.07234681 -0.08460022 0.14904009 -0.43315867 0.19989982 -0.0258423 -0.16721798 -0.018892463 0.14384212 -0.021993695 -0.017822597 0.22412607 -0.10332974 0.13293338 -0.12730598 -0.22800958 -0.103279166 -0.33048186 0.1725379 0.08288747
223 -0.019568909 -0.22905546 -0.25885227 -0.29373875 0.20517386 -0.13311265 -0.08405802 0.13830516 -0.15964466 0.28431827 -0.10252834 0.09547264 0.093636274 -0.11449764 0.19400057 -0.4702944 0.17409185 -0.034447897 -0.18736167 -0.027781669 0.16750014 -0.020797718 -0.013040218 0.2500603 -0.1008068 0.13182719 -0.12141653 -0.21412568 -0.098785676 -0.3080777 0.13240954 0.06804014
34 -0.04295496 -0.251761 -0.23442985 -0.30654114 0.22454603 -0.16556542 -0.041625746 0.15088876 -0.16393942 0.29129907 -0.12448908 0.089341566 0.10719222 -0.10509681 0.16313931 -0.46772823 0.18980661 0.0032615047 -0.13607168 -0.00834016 0.1547067 -0.009841289 0.026619272 0.22743915 -0.11810957 0.09117397 -0.14689139 -0.2136261 -0.1005457 -0.3222255 0.16740203 0.07260403
10 -0.027951349 -0.25568005 -0.25437975 -0.30837026 0.21056445 -0.13211277 -0.06005289 0.14646037 -0.1257168 0.25944626 -0.08797368 0.11024459 0.0817765 -0.0993273 0.17349118 -0.43959397 0.18350759 -0.0103389835 -0.16753545 -0.043009438 0.17154883 -0.01890369 0.016878583 0.24395052 -0.12276537 0.117204055 -0.14348109 -0.22152625 -0.11170497 -0.34160674 0.14061384 0.05249835
74 -0.038447753 -0.24217863 -0.25758293 -0.3120719 0.21984631 -0.12881584 -0.074616395 0.15832485 -0.15257363 0.27868035 -0.10108923 0.12129389 0.07496521 -0.09731206 0.16130309 -0.4468492 0.1998405 -0.0061073927 -0.14211698 -0.018866265 0.13965598 -0.015245154 0.017007342 0.24383362 -0.12789889 0.15789264 -0.1464516 -0.20226428 -0.0958641 -0.31184804 0.1562384 0.10121963
14 -0.033912133 -0.275114 -0.2292007 -0.31566197 0.22219178 -0.13828617 -0.082064636 0.1551967 -0.1625655 0.29638 -0.1163839 0.10414906 0.097083926 -0.096305996 0.15085772 -0.43154505 0.17680724 -0.005807114 -0.16426794 -0.04263807 0.1525251 0.0040616603 0.01917821 0.25087944 -0.12593223 0.12652501 -0.13439159 -0.21802852 -0.113752134 -0.30525598 0.17300923 0.06877135
65 -0.038269665 -0.25752333 -0.26510495 -0.32004392 0.20506887 -0.14197248 -0.055360183 0.17100583 -0.1548841 0.2767188 -0.09814764 0.086328976 0.1195592 -0.09435171 0.13368866 -0.43672466 0.18862718 0.0061449967 -0.1532373 -0.01924171 0.13492028 -0.033405967 0.017998274 0.25297853 -0.09782716 0.15254936 -0.15281278 -0.1994245 -0.109364316 -0.32403398 0.1689061 0.08863256
35 -0.046897985 -0.25161675 -0.2735312 -0.3153442 0.2034517 -0.13697791 -0.08388099 0.13648339 -0.14461039 0.2997729 -0.093497425 0.12067546 0.07594754 -0.09820586 0.15878531 -0.44056842 0.18629602 0.005582541 -0.1584035 -0.013350811 0.16456552 -0.015287466 0.0011172682 0.24658586 -0.0942711 0.13180147 -0.13566393 -0.19870536 -0.10898231 -0.33144766 0.15088981 0.07762242
81 -0.021874068 -0.26740342 -0.24256548 -0.3460402 0.2247107 -0.15214157 -0.08110245 0.16203451 -0.16049382 0.26308802 -0.09498068 0.07385095 0.11575405 -0.10559609 0.16705072 -0.425214 0.16929103 -0.0148537895 -0.16987894 -0.0147512145 0.16440354 -0.03250155 -0.018550888 0.21417664 -0.12050224 0.14130335 -0.13842523 -0.21384501 -0.12275638 -0.33338493 0.14096746 0.055848394
195 -0.015141048 -0.25215134 -0.24944733 -0.31449816 0.20999317 -0.1286499 -0.09426422 0.1824849 -0.13297519 0.2834643 -0.0970781 0.120156266 0.089143105 -0.11076984 0.15829498 -0.41241592 0.16319577 0.008409592 -0.1557788 -0.044257175 0.15298039 0.007597105 -0.005940673 0.25941068 -0.15273242 0.15173936 -0.14662105 -0.2141764 -0.09958674 -0.31626195 0.15488248 0.058307655
255 -0.012438983 -0.26629448 -0.2344828 -0.3092296 0.20636061 -0.17044495 -0.06753062 0.15861471 -0.14546894 0.29446083 -0.107166804 0.0851318 0.08204294 -0.1169239 0.15647784 -0.45193696 0.17875342 -0.035804994 -0.15543021 -0.027356487 0.14191326 -0.012659794 0.0061747585 0.22861688 -0.12605157 0.13187476 -0.15987869 -0.21332672 -0.094765216 -0.30956885 0.14248168 0.049318306
239 -0.012327827 -0.2287398 -0.23992567 -0.3396056 0.22111273 -0.13645299 -0.04650196 0.13685092 -0.15825006 0.26156834 -0.10505153 0.0361104 0.10628687 -0.119304605 0.16185746 -0.43793035 0.16822828 -0.013655215 -0.15646954 -0.06051853 0.14808552 -0.017714784 -0.01190002 0.27344763 -0.13870837 0.11945146 -0.15299651 -0.1924668 -0.09664302 -0.34748584 0.13887946 0.06983599
11 -0.044070676 -0.27523196 -0.2357711 -0.3147905 0.22368233 -0.16046613 -0.06957104 0.1690848 -0.12033998 0.25317588 -0.09839888 0.079582535 0.081045486 -0.08654632 0.16746521 -0.4229486 0.18082456 -0.007532 -0.16293941 -0.043732274 0.15929404 -0.022646323 0.025212321 0.23971276 -0.12555069 0.11420749 -0.15516073 -0.23834908 -0.10663299 -0.3452059 0.1579021 0.06586955
113 -0.031027284 -0.25803304 -0.24916136 -0.31132123 0.17035441 -0.12918943 -0.06685012 0.17438644 -0.15421315 0.2838666 -0.1186292 0.09850952 0.07241203 -0.08993409 0.16318 -0.4536031 0.19523858 0.0032787 -0.1735663 -0.025170919 0.14579044 0.0068604904 -0.016202668 0.24692135 -0.124955036 0.12582631 -0.1374685 -0.21212937 -0.11938739 -0.33261326 0.15433809 0.054860666
40 -0.048973545 -0.25365984 -0.24774927 -0.33464298 0.21111807 -0.14136474 -0.07114519 0.1685283 -0.15030757 0.25853577 -0.09997642 0.058083434 0.06794115 -0.090127215 0.14376839 -0.43257594 0.16193084 -0.02659493 -0.19045652 -0.04046441 0.17179886 -0.015713833 0.02516005 0.24405597 -0.13686596 0.112919845 -0.1571296 -0.22926788 -0.10470986 -0.3385381 0.145285 0.07583152
141 -0.026124392 -0.27256003 -0.23949122 -0.32692504 0.21470915 -0.1568779 -0.06319826 0.16719098 -0.12251686 0.26625493 -0.08037813 0.09710819 0.07952001 -0.08927481 0.16455244 -0.4231707 0.16820131 0.010156008 -0.17938511 -0.014501529 0.13403681 0.016558781 -0.00911126 0.23950872 -0.14133948 0.116780326 -0.15566292 -0.23911159 -0.10902661 -0.33362076 0.15995145 0.06555051
16 -0.016545635 -0.24582425 -0.2660917 -0.31714752 0.21133563 -0.13484564 -0.07898982 0.14534062 -0.13193339 0.27450907 -0.10810706 0.10027722 0.09313903 -0.07974408 0.16912305 -0.4572973 0.14488958 -0.016385611 -0.17588234 -0.034022857 0.15796176 -0.0041822675 0.010399115 0.23412643 -0.1125573 0.13124222 -0.14028652 -0.20595524 -0.09247269 -0.36314407 0.12896146 0.08714023
45 -0.0077540097 -0.24911618 -0.2846887 -0.31283304 0.20948768 -0.15772054 -0.058773004 0.16723076 -0.12638654 0.27558556 -0.12437391 0.10110791 0.106475905 -0.08102539 0.12592928 -0.43419543 0.18562752 0.026682368 -0.18077576 0.0068942797 0.1322963 0.004716225 -0.000344243 0.2099392 -0.1325832 0.14646018 -0.15100977 -0.23538153 -0.08344243 -0.30432358 0.16139369 0.07459406
212 -0.05598314 -0.24118614 -0.2723757 -0.33255836 0.19147547 -0.15797514 -0.06180539 0.1349085 -0.13720909 0.28371322 -0.0868656 0.079270765 0.053160496 -0.09772951 0.15748908 -0.4415797 0.17845115 -0.007501773 -0.16310814 -0.040867172 0.155089 -0.0030287285 -0.006253895 0.21920632 -0.107073374 0.11585794 -0.117592305 -0.22444534 -0.09415743 -0.34157315 0.13284226 0.086119644
0 -0.04501376 -0.23786807 -0.26690534 -0.3145373 0.17496173 -0.14148623 -0.06128735 0.14718866 -0.15238327 0.26940295 -0.07512963 0.10067833 0.10118863 -0.09930649 0.17133705 -0.44622535 0.19178092 5.0691215e-05 -0.17127544 -0.0348952 0.13328049 -0.017859662 0.01244452 0.24490055 -0.12855172 0.12164418 -0.13435088 -0.2194071 -0.107423894 -0.34290063 0.1556746 0.098157726
249 -0.04235247 -0.24401921 -0.25097057 -0.31315073 0.17597966 -0.14189582 -0.09735432 0.1592583 -0.15997201 0.2896921 -0.111096375 0.0826765 0.073898815 -0.1247663 0.14310803 -0.4413092 0.16875699 -0.0040351767 -0.17658105 -0.016742997 0.16891359 -0.007087488 -0.0043931706 0.23479559 -0.108190745 0.12395434 -0.15148905 -0.23900786 -0.09520828 -0.33308363 0.13888055 0.058521852
39 -0.02980176 -0.24713598 -0.23959923 -0.31506813 0.21475479 -0.1425539 -0.06523299 0.17940521 -0.14995685 0.27605543 -0.09455007 0.08880998 0.09767013 -0.09588442 0.1480184 -0.42802426 0.16340181 -0.0045460695 -0.17228918 -0.0141070755 0.15768905 -0.001672062 0.00486861 0.26182276 -0.1368057 0.14642438 -0.1451169 -0.19112627 -0.118532196 -0.33589688 0.14970948 0.055304427
26 -0.012115018 -0.22337298 -0.26751637 -0.3208513 0.20427902 -0.15185072 -0.06806593 0.13032186 -0.1619722 0.2920733 -0.114603736 0.077915 0.10297163 -0.105604604 0.14773361 -0.44987968 0.18541159 -0.0057559316 -0.17840125 -0.012805456 0.14780548 0.008289449 0.028230155 0.24435875 -0.11508183 0.12811564 -0.15103894 -0.20432521 -0.09221197 -0.30202684 0.15717569 0.086506374
56 -0.037718583 -0.24976297 -0.26168892 -0.29804176 0.2141455 -0.13906823 -0.066007584 0.15846325 -0.16591325 0.28240418 -0.100421324 0.1233746 0.09325096 -0.081159055 0.14849636 -0.45792744 0.15539664 -0.0042799837 -0.16722366 -0.05519869 0.15612832 -0.026627047 0.017414108 0.25082257 -0.11252883 0.12712432 -0.14125213 -0.22929129 -0.104598805 -0.33103466 0.15050738 0.0872204
42 -0.04413551 -0.24388738 -0.26344138 -0.345033 0.22152112 -0.15085876 -0.0873674 0.17413138 -0.12995003 0.2772876 -0.108274415 0.093102 0.07530657 -0.07225416 0.16710038 -0.4248452 0.16758469 -0.010182321 -0.15861897 -0.012232044 0.14798875 -0.0029990228 0.011287166 0.2535325 -0.113822736 0.11633651 -0.16036345 -0.20991604 -0.11339701 -0.31148174 0.16988255 0.073939584
219 0.0017548484 -0.26664296 -0.27902886 -0.31135678 0.17433408 -0.12770978 -0.07025186 0.15773846 -0.13498585 0.27158073 -0.11012648 0.11929635 0.0930064 -0.089830995 0.15830557 -0.46203706 0.1812605 -0.0030557448 -0.1937032 -0.006689361 0.15426 -0.02396087 -0.012569911 0.2295625 -0.11071599 0.13598946 -0.105675004 -0.23581135 -0.07376975 -0.3440954 0.13374825 0.050967023
25 -0.0624532 -0.25427476 -0.24936949 -0.32231548 0.21025316 -0.15289757 -0.0868811 0.13601558 -0.13782743 0.29938462 -0.10329569 0.06776904 0.08969739 -0.10764363 0.17190672 -0.46109203 0.18603948 -0.034710977 -0.14416677 0.0004573975 0.14948688 -0.036886614 0.01863913 0.22359823 -0.10052425 0.09877265 -0.14575888 -0.23743047 -0.113816455 -0.29606748 0.1542168 0.082416214
280 -0.044509184 -0.28558192 -0.25252357 -0.33628204 0.19673938 -0.15461148 -0.0806527 0.16554764 -0.1344552 0.25630376 -0.10030298 0.085471325 0.071112275 -0.079797074 0.16744441 -0.4289676 0.1738018 -0.0034128365 -0.17256843 0.00077999406 0.15967642 -0.0073795887 -0.0003970212 0.25149456 -0.11177812 0.1084257 -0.14231125 -0.22578819 -0.106014796 -0.3459845 0.15932725 0.06030613
228 -0.021794476 -0.22925487 -0.278616 -0.34222686 0.20976207 -0.16272588 -0.07657494 0.15393996 -0.12841706 0.24551661 -0.10919754 0.06129316 0.076562345 -0.10076838 0.15217052 -0.3986565 0.17910309 -0.01052536 -0.19853334 -0.039240614 0.14081542 -0.008540527 0.015930714 0.25885358 -0.12502933 0.10768581 -0.15463369 -0.23899503 -0.07791595 -0.3448869 0.15720506 0.10468061
154 -0.011253502 -0.23919223 -0.24865125 -0.3417659 0.19224484 -0.16393536 -0.068550855 0.17129204 -0.1455068 0.28491947 -0.098313466 0.06895208 0.09239992 -0.08787618 0.14662842 -0.41467598 0.16579768 -0.033999488 -0.19115634 -0.05894987 0.14975053 -0.020273756 0.0016040499 0.2490207 -0.1271032 0.11380328 -0.1742108 -0.24263349 -0.11796433 -0.32306466 0.1158924 0.060072545
12 -0.02755761 -0.26729158 -0.25011128 -0.32884037 0.20667748 -0.1405747 -0.07992006 0.14259173 -0.15336072 0.2866061 -0.080265135 0.1304008 0.084935516 -0.07700571 0.14518476 -0.4158542 0.16257748 -0.012964109 -0.16306722 -0.06706174 0.16234623 0.008155193 0.020747412 0.23033231 -0.14606702 0.13787274 -0.13887931 -0.22125946 -0.10556496 -0.33666787 0.14623038 0.09157245
111 -0.0052088103 -0.23602876 -0.26088354 -0.33695307 0.20992766 -0.14119804 -0.089149125 0.16164659 -0.14931095 0.28050303 -0.10534853 0.076626025 0.08619052 -0.08815845 0.13793904 -0.45412987 0.16794318 -0.015454218 -0.16921164 -0.049135923 0.14170215 0.00090504717 -0.015004991 0.24901699 -0.11548779 0.11534295 -0.13205935 -0.21920994 -0.08629339 -0.32223815 0.17087243 0.052271828
275 -0.036093637 -0.2571818 -0.28568476 -0.302453 0.20205556 -0.1557601 -0.09162488 0.13777347 -0.13528992 0.28403124 -0.10304892 0.106251486 0.065274805 -0.06338526 0.15976347 -0.4365612 0.20300163 -0.001348076 -0.1751636 -0.031562652 0.16381866 -0.01872759 -0.0023868058 0.21568458 -0.11070327 0.14276777 -0.13112459 -0.2246132 -0.10835182 -0.32931167 0.15671384 0.08759188
36 -0.0021854932 -0.2670596 -0.23579086 -0.34595793 0.21352272 -0.16441323 -0.04658014 0.16717938 -0.14257225 0.28856975 -0.09554507 0.08359527 0.064954504 -0.077617325 0.16356419 -0.3985698 0.16953836 -0.028918663 -0.17042993 -0.063534126 0.15149066 0.007191769 0.009928627 0.2511686 -0.12571128 0.10975228 -0.1516213 -0.23277375 -0.11434355 -0.33119777 0.17144293 0.05482036
60 -0.010559354 -0.2520528 -0.2760802 -0.32219392 0.18016015 -0.12858303 -0.0797343 0.16125493 -0.13611999 0.2877846 -0.14354634 0.10074947 0.08203139 -0.088993244 0.15485549 -0.431634 0.18087427 -0.01783747 -0.18780135 -0.045390896 0.15453903 -0.0037669907 -0.011416359 0.2335217 -0.118412115 0.113844655 -0.12048709 -0.20321235 -0.095548704 -0.32122198 0.16008158 0.0712484
100 -0.022874907 -0.24107783 -0.25566792 -0.3124153 0.22426991 -0.16441336 -0.090363376 0.17641586 -0.10600698 0.28033096 -0.1001407 0.102041185 0.076150805 -0.11122143 0.1493984 -0.40791887 0.20041598 -0.012493101 -0.20010605 -0.015769664 0.15195318 -0.012265382 0.011876717 0.23846865 -0.12320699 0.10519358 -0.16569601 -0.22201811 -0.08729274 -0.32679364 0.15574019 0.041785426
159 -0.017865928 -0.24960966 -0.26110253 -0.30094698 0.21226645 -0.1530965 -0.07503326 0.14391835 -0.13249402 0.24551506 -0.097645715 0.08643485 0.09611703 -0.08048649 0.14405848 -0.44127756 0.19705737 0.010575067 -0.16510755 -0.034761626 0.14456818 -0.0072393394 0.017738268 0.23575053 -0.122340865 0.15178673 -0.13950014 -0.22518215 -0.106370084 -0.34494227 0.16995381 0.08763595
271 -0.005895475 -0.23402128 -0.2781614 -0.3254769 0.19401316 -0.14740923 -0.076749235 0.14128426 -0.1345795 0.2801844 -0.10520314 0.07661983 0.09483408 -0.10890794 0.14308651 -0.45326957 0.1829102 -0.015416907 -0.14781073 -0.041451026 0.15777774 0.0017024665 -0.02100216 0.2230461 -0.113573566 0.12553555 -0.13044728 -0.21187279 -0.09907932 -0.31556624 0.14597733 0.07905734
201 -0.020008527 -0.28515288 -0.2692739 -0.31030405 0.20651765 -0.16365755 -0.0981022 0.17376363 -0.12760407 0.2881063 -0.1004533 0.09504563 0.072717965 -0.087677665 0.16830361 -0.43909556 0.16110511 -0.009029598 -0.15699852 -0.009209186 0.15400937 0.00910772 0.0016371108 0.21561119 -0.123747975 0.11772392 -0.14489493 -0.22455657 -0.080054626 -0.3196564 0.1484152 0.06012489
80 -0.03943809 -0.25730154 -0.245718 -0.27980635 0.2213672 -0.12682986 -0.0676233 0.16786243 -0.15368815 0.27767915 -0.11274495 0.08339747 0.10361337 -0.086563714 0.15966524 -0.45493525 0.17989387 -0.0042919912 -0.1664769 -0.009394577 0.16040708 -0.008439299 -0.00073045306 0.24497242 -0.10892635 0.10853044 -0.14768505 -0.21681362 -0.09323964 -0.32943106 0.16888842 0.07973335
160 -0.039956506 -0.2563409 -0.2526533 -0.29436684 0.22112575 -0.15744326 -0.072045974 0.16261576 -0.14709523 0.2882505 -0.08776744 0.09451047 0.10980118 -0.0810099 0.15975554 -0.4477816 0.19555266 -0.006981109 -0.17513222 -0.0147917075 0.13617812 -0.008121355 0.031471267 0.21388939 -0.12680809 0.14639786 -0.11517128 -0.21579671 -0.11700583 -0.3006629 0.14397478 0.0741488
152 -0.05422702 -0.27354032 -0.24714626 -0.3365494 0.1969093 -0.13474302 -0.09695583 0.17181496 -0.13850826 0.27063644 -0.12064057 0.10547305 0.08607671 -0.113338254 0.14879994 -0.43019706 0.20802386 0.0026309092 -0.17593643 -0.003202023 0.15456297 -0.010305747 -0.017168686 0.22572476 -0.10479897 0.121543206 -0.13262722 -0.20061928 -0.100146644 -0.33376455 0.15898284 0.059425388
227 -0.026178204 -0.26579857 -0.26603374 -0.29745805 0.18581215 -0.17492025 -0.0869397 0.15833645 -0.13490856 0.26755276 -0.10788119 0.097512946 0.08434178 -0.0925148 0.15985534 -0.44194207 0.18659921 -0.009397852 -0.15649354 -0.007921887 0.124429464 -0.032170214 0.026639808 0.22882688 -0.116909176 0.11061371 -0.13585387 -0.24431738 -0.076072514 -0.3232049 0.12961313 0.07601735
130 -0.038468458 -0.2681913 -0.252262 -0.3178611 0.22656417 -0.14448707 -0.069468714 0.14158027 -0.13949029 0.28962854 -0.10339496 0.10019279 0.09039822 -0.08178532 0.16552158 -0.44363606 0.1902955 0.0009809413 -0.1519134 -0.023946086 0.124571316 -0.0020355147 -0.0066985227 0.22972153 -0.1290805 0.12501913 -0.15399362 -0.19993547 -0.08610482 -0.3259928 0.14715782 0.045515552
168 -0.032576576 -0.26594976 -0.28802693 -0.28493628 0.1734163 -0.13205351 -0.112335734 0.12104883 -0.12260984 0.28153554 -0.123272814 0.13772231 0.083467394 -0.04540292 0.15819487 -0.4540123 0.21570669 0.032927945 -0.1793054 -0.0012866448 0.15697451 0.027568156 -0.026816927 0.21188028 -0.08245966 0.124355674 -0.111443006 -0.2261953 -0.13204245 -0.32489932 0.17077193 0.051732726
29 -0.028053258 -0.24382976 -0.26896042 -0.32009444 0.20752265 -0.14586169 -0.059894618 0.12435205 -0.14301366 0.28410646 -0.09722674 0.10744651 0.08111602 -0.082433246 0.16899425 -0.46082044 0.1825329 -0.024326902 -0.16528974 -0.036747534 0.1545882 -0.020239346 -0.018326206 0.23022392 -0.11957219 0.114610635 -0.13702853 -0.23070997 -0.079635896 -0.31905562 0.17510489 0.065639324
44 -0.024493175 -0.24426572 -0.2854736 -0.3127689 0.20813632 -0.144377 -0.079731755 0.14546767 -0.12826975 0.30069232 -0.10204254 0.11299563 0.070103414 -0.095405 0.1718161 -0.43632564 0.17133386 -0.01733435 -0.17261799 -0.006611754 0.14394951 0.006289056 0.011116228 0.23433965 -0.09888261 0.11787774 -0.14685887 -0.19634952 -0.07193481 -0.330179 0.1586623 0.05184253
203 -0.030005781 -0.25445113 -0.23470913 -0.3349402 0.21778546 -0.1447166 -0.08233625 0.14718013 -0.11697018 0.25651044 -0.13628326 0.060260214 0.1040259 -0.10396204 0.13578358 -0.4410637 0.16867596 -0.0057215756 -0.15716954 -0.019014262 0.15571882 0.0027688958 0.018337956 0.2482869 -0.1371255 0.12603244 -0.15289527 -0.23475601 -0.08985999 -0.32801425 0.15307161 0.08244444
27 -0.008272544 -0.27474588 -0.27997565 -0.33730477 0.21938784 -0.13362496 -0.07378194 0.16538118 -0.13661095 0.27999312 -0.1022338 0.09231669 0.07119263 -0.0685653 0.14890157 -0.4163026 0.18294951 -0.013857178 -0.18082087 -0.042600747 0.16409048 0.011679219 0.027413765 0.24793655 -0.09679993 0.11372561 -0.17879333 -0.18250366 -0.097454146 -0.33631843 0.15964913 0.049193375
272 -0.0036138443 -0.25080854 -0.27382907 -0.32314092 0.2095089 -0.15078267 -0.05766781 0.1499553 -0.14043622 0.27272543 -0.11350269 0.071181744 0.09051293 -0.0918776 0.15650065 -0.45026416 0.17557961 -0.017425606 -0.18324599 -0.03929399 0.1468095 -0.015343215 -0.0065533756 0.25791863 -0.12952906 0.14763811 -0.13605857 -0.20553769 -0.08968564 -0.3249832 0.14848201 0.046076775
262 -0.008508025 -0.23049942 -0.27855575 -0.29391107 0.19104332 -0.13936335 -0.0663664 0.14800924 -0.13607386 0.28255233 -0.11363656 0.07872068 0.0990413 -0.10416405 0.1345331 -0.4691801 0.20267756 -0.00798883 -0.1666883 -0.033361573 0.17960285 0.002218611 -0.028079612 0.24545391 -0.119364806 0.14716601 -0.11053969 -0.21077722 -0.10331485 -0.32555458 0.12835637 0.039822843
8 -0.030349955 -0.29344368 -0.26478782 -0.3166453 0.1890485 -0.15642025 -0.078475006 0.1503514 -0.12957934 0.2717145 -0.12174966 0.099854305 0.070281796 -0.08568661 0.15883324 -0.4343305 0.18837821 -0.004512187 -0.16509427 -0.0143468 0.15203397 -0.007710414 0.0123159 0.2191455 -0.11609293 0.15184383 -0.13926306 -0.20827301 -0.09362048 -0.30765682 0.15329854 0.07036639
158 -0.028306456 -0.24265106 -0.2773749 -0.29940253 0.19457103 -0.14374352 -0.05535209 0.15879363 -0.15160015 0.29850376 -0.10598507 0.08942461 0.10278226 -0.115785666 0.16850512 -0.46315014 0.16314693 0.0070920587 -0.16804986 -0.03154789 0.12037281 -0.018402793 0.038684066 0.22643252 -0.12372486 0.11787185 -0.14415282 -0.22087549 -0.08872704 -0.300103 0.13617666 0.053945817
182 -0.024664212 -0.2505602 -0.29301098 -0.32514188 0.17378572 -0.15372111 -0.076914296 0.10729688 -0.12898554 0.28336915 -0.13367063 0.10714381 0.07844705 -0.0767968 0.14913462 -0.4675852 0.19761886 0.0064546205 -0.16841993 0.004680058 0.14109652 0.0096599925 -0.022731496 0.22067533 -0.082727216 0.11542362 -0.10723694 -0.2187262 -0.09147908 -0.33638084 0.16637567 0.06777344
211 -0.013416462 -0.23560895 -0.27130342 -0.30972618 0.19026443 -0.17733642 -0.058757197 0.14624846 -0.12509076 0.2616382 -0.11521547 0.080850475 0.07282945 -0.091197 0.13845012 -0.4410056 0.17279874 -0.019235352 -0.1917492 -0.02712862 0.13956806 -0.016002923 0.034120943 0.25197893 -0.11499588 0.13235268 -0.14101394 -0.22246373 -0.08896381 -0.32512364 0.1347552 0.06331821
265 -0.022374108 -0.25844452 -0.2993877 -0.31852546 0.19786757 -0.16364324 -0.08232841 0.14133163 -0.1299092 0.2637295 -0.09629671 0.10211881 0.07692768 -0.076383546 0.15999031 -0.43499568 0.1940231 0.007137578 -0.16996755 -0.011964283 0.15065755 -0.007077435 0.0023018767 0.23824623 -0.09636053 0.1256282 -0.13743737 -0.23622091 -0.09517365 -0.31763822 0.15102586 0.09086045
107 -0.016391033 -0.2446196 -0.25937492 -0.33160967 0.18349859 -0.16030763 -0.07748078 0.17550328 -0.14858358 0.2839896 -0.12447312 0.09902057 0.07366174 -0.11768968 0.16362679 -0.451736 0.17608345 0.0074891956 -0.14310752 -0.0037259941 0.13618112 -0.0010980332 -0.0032636146 0.21677926 -0.114918284 0.121109456 -0.1505758 -0.2189334 -0.10411997 -0.31938076 0.1728524 0.0784877
163 -0.02136348 -0.2542511 -0.27345917 -0.3111706 0.1926289 -0.16161934 -0.08535263 0.14761262 -0.1460356 0.25500298 -0.12148573 0.11744828 0.07838306 -0.0864901 0.14527072 -0.4558747 0.20270053 0.018763267 -0.18417168 0.0031158885 0.16027199 0.0061939177 0.016509514 0.23605439 -0.095991574 0.120651536 -0.15377034 -0.2028686 -0.10266058 -0.33873856 0.15154846 0.05864663
205 -0.011267961 -0.25243366 -0.26191464 -0.3069591 0.1811443 -0.17364976 -0.08940005 0.14618593 -0.14059421 0.28668115 -0.103083596 0.08948854 0.053551458 -0.08167989 0.14090064 -0.44991663 0.20585337 -0.0042728074 -0.17908016 -0.016115418 0.1683022 0.010914899 -0.008275483 0.21784817 -0.11831146 0.13337898 -0.1417838 -0.22720969 -0.09307642 -0.32304126 0.13773715 0.061940826
20 -0.017391134 -0.26026282 -0.26211432 -0.3097504 0.17408833 -0.15511154 -0.063075766 0.16406806 -0.14848961 0.27426994 -0.119698785 0.09442136 0.09640184 -0.06723363 0.14542669 -0.43056333 0.17907089 0.0002621789 -0.17696175 -0.034940176 0.16880088 -0.016672611 0.023702916 0.22613536 -0.11934297 0.13165876 -0.13133578 -0.23634678 -0.07911528 -0.34170637 0.14700486 0.070071734
157 -0.032308213 -0.2327311 -0.28544322 -0.3215877 0.21836822 -0.12943207 -0.089832924 0.17021741 -0.14592099 0.27788138 -0.100384645 0.10308641 0.08304915 -0.110264994 0.14239267 -0.43596953 0.15451351 0.011556905 -0.1949564 -0.012719245 0.13379739 -0.01947393 0.0140853515 0.23723179 -0.13946544 0.15233734 -0.13881789 -0.2097634 -0.09236611 -0.32238635 0.15794285 0.061609697
252 -0.019316558 -0.27380267 -0.26935554 -0.32094598 0.20797674 -0.16670269 -0.08298053 0.16487427 -0.12800209 0.2812914 -0.11236386 0.107488245 0.07766253 -0.08718347 0.16899051 -0.44433606 0.20333982 0.010339544 -0.17885272 -0.019428665 0.1503865 0.002669285 0.011623069 0.21611431 -0.10066172 0.1079732 -0.14980793 -0.20998763 -0.0959515 -0.3096503 0.13383824 0.038953867
183 -0.030937413 -0.25792488 -0.31103632 -0.30318227 0.18619512 -0.1594001 -0.095259115 0.14716008 -0.12159779 0.26283166 -0.11614508 0.119117096 0.060582895 -0.06835635 0.15410055 -0.44489083 0.1738205 0.027805757 -0.18268833 -0.024285527 0.13463056 0.021540921 0.0071946452 0.22683851 -0.11481426 0.12852927 -0.13335808 -0.20771778 -0.09409731 -0.32943347 0.16702601 0.056979775
230 -0.037657894 -0.27125758 -0.28731203 -0.31706384 0.1952111 -0.13018027 -0.09553614 0.15822834 -0.117620386 0.2480485 -0.12510431 0.08857227 0.06591647 -0.07248231 0.14272764 -0.43336517 0.18776295 -0.024041023 -0.16541116 -0.03404904 0.16780947 0.0037776618 0.00092841877 0.25327826 -0.12999003 0.10915255 -0.13694665 -0.2308811 -0.112822644 -0.32166797 0.14811802 0.07461206
156 -0.008819576 -0.24707332 -0.27036622 -0.28441298 0.20464319 -0.14395432 -0.09183707 0.1553681 -0.13043965 0.27732897 -0.12204685 0.124844134 0.052168258 -0.060184777 0.15861535 -0.45280817 0.20675603 -0.013206896 -0.18715961 0.008028857 0.13240202 0.00872572 0.02076369 0.2379209 -0.12085504 0.11768937 -0.146372 -0.24283305 -0.06950897 -0.32082766 0.12317774 0.07401326
209 -0.047530834 -0.25106093 -0.288658 -0.31115413 0.17395869 -0.14979748 -0.07603794 0.14640138 -0.11981086 0.27970764 -0.14249767 0.10329563 0.056302235 -0.08584192 0.16279314 -0.43930846 0.1874971 0.010778439 -0.1810189 -0.010927595 0.15481034 0.008857754 0.016556831 0.23020945 -0.12410756 0.13764453 -0.14107606 -0.22130693 -0.09029807 -0.32642454 0.14938293 0.07209514
206 -0.010904161 -0.2591081 -0.2599583 -0.3173815 0.17070834 -0.14771204 -0.1035799 0.15121984 -0.121027365 0.27408832 -0.10624103 0.11493874 0.05323036 -0.10022619 0.15647374 -0.437367 0.19093794 -0.020045126 -0.19338459 -0.038729474 0.1546662 0.01795154 0.0052529075 0.2308664 -0.115687564 0.15052137 -0.15802048 -0.21806143 -0.10431494 -0.3144903 0.14649057 0.03978112
269 -0.0147084035 -0.25268587 -0.26493493 -0.3245122 0.20204033 -0.16440605 -0.08210726 0.16437559 -0.14678861 0.2661032 -0.103235185 0.08319208 0.074427575 -0.089285195 0.13393612 -0.42331585 0.19963087 -0.030741856 -0.18753116 -0.023149123 0.15091775 -0.018425802 -0.0026379174 0.24651504 -0.11183492 0.13819438 -0.14848961 -0.23182987 -0.099554576 -0.32527772 0.15254419 0.059378654
273 -0.024401098 -0.23653364 -0.27318475 -0.31571096 0.19189027 -0.13805918 -0.06997954 0.15253986 -0.15500058 0.2892363 -0.1312433 0.09278547 0.10937821 -0.10846705 0.16302574 -0.45292282 0.16522622 -0.0015258414 -0.17230052 -0.051196594 0.13679059 -0.021829419 0.011407841 0.21629325 -0.1226548 0.11305738 -0.14406124 -0.21352154 -0.08656871 -0.31114134 0.1494555 0.09484466
208 -0.008954481 -0.24421494 -0.2550445 -0.3083202 0.19461839 -0.16419049 -0.078747906 0.14160144 -0.13441597 0.2891232 -0.115655236 0.083279066 0.07319455 -0.11920718 0.14522253 -0.4622988 0.17790763 -0.020326277 -0.17382288 -0.012474066 0.15702128 -0.0073640537 0.025902828 0.23584934 -0.11159367 0.14770955 -0.14831486 -0.22701982 -0.079281166 -0.30588606 0.1555572 0.037958458
170 -0.018022176 -0.24875334 -0.302984 -0.3023565 0.17272522 -0.13923652 -0.10779705 0.120255604 -0.12175036 0.25992382 -0.13285069 0.119536236 0.10751174 -0.0906881 0.15698157 -0.47232836 0.20824704 0.032999508 -0.1617318 -0.008614028 0.15459186 0.014097407 -0.0060620937 0.23104967 -0.10773822 0.12610313 -0.104740895 -0.20924704 -0.109808676 -0.3299633 0.17564006 0.05235223
171 -0.030563464 -0.24261004 -0.31769788 -0.26972726 0.16673754 -0.14301907 -0.09585321 0.14488849 -0.113573834 0.26947796 -0.11653945 0.119525924 0.07326214 -0.06703821 0.15678085 -0.451638 0.20313059 0.01954552 -0.17828853 -0.020912537 0.17039232 0.02178712 0.006028631 0.2510119 -0.10087664 0.12998937 -0.109858245 -0.22352222 -0.07503633 -0.3129672 0.16721328 0.07562433
19 -0.013776252 -0.26365417 -0.24988183 -0.31287965 0.1850392 -0.13903807 -0.07760828 0.14047363 -0.12254037 0.28124928 -0.12210365 0.11348375 0.08218048 -0.085963115 0.1493741 -0.43406525 0.1767409 -0.025506577 -0.16211683 -0.008457939 0.16123505 -0.018746821 0.008449051 0.23675492 -0.10856416 0.13786665 -0.15041853 -0.21680877 -0.11344647 -0.3372585 0.14621612 0.07749488
266 -0.046467047 -0.24119285 -0.27433905 -0.32536414 0.18757734 -0.15893655 -0.09014281 0.14385696 -0.14496312 0.31307924 -0.121690296 0.09199795 0.10419774 -0.106880955 0.17991908 -0.46780846 0.18924133 -0.00664814 -0.1637671 -0.026177634 0.16336392 -0.0054204566 0.0021951587 0.21633746 -0.13062032 0.13011013 -0.11921803 -0.21042582 -0.100428 -0.3154449 0.13823771 0.06814183
253 -0.01932819 -0.24232012 -0.26721627 -0.2940364 0.20174062 -0.1479277 -0.046023346 0.16300453 -0.13338248 0.29841444 -0.115199745 0.091194 0.07780316 -0.104126275 0.15260245 -0.44721133 0.17075144 0.005797468 -0.17200626 -0.025589721 0.14864005 -0.0010734006 0.01965756 0.22595784 -0.110853545 0.130833 -0.11615485 -0.22448325 -0.07333382 -0.3354609 0.17662139 0.06520899
112 -0.016258942 -0.27903965 -0.25062403 -0.30895895 0.17494729 -0.16471186 -0.062367834 0.16243592 -0.13259749 0.24848223 -0.11069846 0.100348875 0.07085411 -0.09000791 0.1719165 -0.44054773 0.18356733 0.006205619 -0.17400648 -0.0030641041 0.15559928 -0.01267537 0.014882222 0.22132663 -0.11613408 0.12637939 -0.12861124 -0.22566564 -0.0983436 -0.33678392 0.15184559 0.057073537
30 -0.013176626 -0.26973763 -0.27316877 -0.29313335 0.18091097 -0.1325972 -0.08133855 0.13682932 -0.13146766 0.28888997 -0.12825802 0.10547911 0.08109576 -0.102229446 0.1662059 -0.4565852 0.1756543 -0.0061301044 -0.18240409 -0.009284968 0.15955886 -0.012345446 0.026225567 0.21018507 -0.100884505 0.10338912 -0.12656839 -0.22093982 -0.11072863 -0.3198117 0.14687121 0.05166017
173 -0.01277039 -0.24604961 -0.266366 -0.3026768 0.18197426 -0.14961496 -0.08485368 0.15313718 -0.11524991 0.2779337 -0.12087572 0.095602155 0.06437965 -0.07838148 0.1586473 -0.45554307 0.18571968 0.023294754 -0.16784364 -0.018223617 0.1716851 0.0033846828 0.012170257 0.22421063 -0.091252185 0.124117784 -0.13370146 -0.19623232 -0.084222816 -0.32597294 0.1687376 0.06529702
270 -0.04674196 -0.2548965 -0.28784645 -0.3246587 0.20474282 -0.165188 -0.08125129 0.13687941 -0.12555146 0.27701157 -0.108881004 0.09633719 0.08650116 -0.11731735 0.15084846 -0.43271703 0.15799049 -0.0010616091 -0.1819697 -0.013525814 0.14147836 -0.0031434954 -0.0059796874 0.22515638 -0.105704695 0.12902771 -0.14366396 -0.23050787 -0.07398798 -0.31690422 0.13793434 0.0711222
33 -0.0294787 -0.25743082 -0.27307785 -0.30354163 0.22311945 -0.15172704 -0.084833786 0.17820378 -0.13342108 0.27813485 -0.097932875 0.1087659 0.08194685 -0.10593064 0.1688618 -0.4241625 0.17516547 0.020645952 -0.18560693 -0.029759532 0.16226414 -0.0049856943 0.028261425 0.23405027 -0.12508579 0.111594506 -0.1655694 -0.20912686 -0.07695978 -0.3372083 0.14599743 0.07468996
263 -0.016027587 -0.2663875 -0.28150773 -0.3192127 0.19217172 -0.14320208 -0.079807796 0.17182124 -0.14898519 0.28533074 -0.09996551 0.1088795 0.07228969 -0.10053787 0.17387415 -0.43702236 0.17729293 -0.0011742839 -0.17443763 -0.01775126 0.14348446 -0.011895699 -0.007280759 0.22152117 -0.12349333 0.11956047 -0.107170984 -0.22210316 -0.08583664 -0.33362356 0.14430818 0.040181797
176 -0.025646996 -0.2618861 -0.2967678 -0.3045648 0.18223791 -0.13970992 -0.10040017 0.123249255 -0.1163154 0.27069986 -0.12812395 0.10407145 0.06309579 -0.0687921 0.16971277 -0.46232513 0.1930747 0.015576102 -0.18133621 -0.023802875 0.14502224 0.025176562 0.00016310312 0.22828673 -0.089560814 0.13317695 -0.12657616 -0.22660303 -0.11702972 -0.33226767 0.16874394 0.038698297
245 -0.014759038 -0.24564706 -0.2763515 -0.31613117 0.2085897 -0.15042898 -0.10120285 0.13747539 -0.1252513 0.2827732 -0.11389272 0.08929118 0.08622074 -0.08091344 0.15433824 -0.42956495 0.15615425 0.0115511725 -0.17642927 -0.039401155 0.15413673 0.016223451 0.010160689 0.24647559 -0.10722084 0.14155424 -0.1541511 -0.23328657 -0.091019645 -0.3124508 0.16414177 0.058868177
267 -0.036261104 -0.23479563 -0.28659216 -0.3071174 0.1929968 -0.17022224 -0.078100845 0.1480593 -0.13057081 0.28817844 -0.10186403 0.09844445 0.07770535 -0.09705411 0.1780607 -0.43256986 0.20180231 -0.0059255473 -0.1705187 -0.036352117 0.16900676 -0.028736852 -0.0023336783 0.24635501 -0.10562112 0.118177906 -0.12409243 -0.21490572 -0.080008216 -0.3378742 0.1568499 0.041915912
