281 64
119 -0.14308438 -0.27795246 -0.0063950033 -0.15125301 0.017146956 -0.034151066 -0.10747908 0.03565581 0.09166255 0.0431133 -0.12022376 0.03529535 -0.05510993 -0.13236773 0.020262036 -0.2974666 0.13709354 0.06683618 -0.11297807 -0.043891136 0.0446028 0.03762914 -0.0058048717 0.10844028 -0.11690782 0.15173963 -0.011098876 -0.16316825 -0.1409347 -0.07986566 0.063990936 -0.029430492 -0.08843858 -0.20272581 -0.020752555 0.007096672 -0.03130444 -0.22367628 0.1690335 0.10466031 -0.018427372 0.22455886 0.007539271 -0.11728231 -0.10360016 0.028680805 -0.07186334 -0.2766465 -0.041415818 0.09358194 -0.19502102 0.13945697 0.0865395 0.19552124 -0.2224288 -0.13118544 -0.15551673 0.052193996 -0.23459204 -0.06987997 -0.24428606 -0.14976001 -0.079341285 0.11599142
225 -0.14175604 -0.2789633 0.0015480015 -0.14172195 0.0051941173 -0.034612954 -0.106149375 0.033641934 0.09424142 0.04754318 -0.10675662 0.05558533 -0.037367016 -0.131263 0.01927885 -0.29263103 0.15086316 0.060371503 -0.116332285 -0.04636001 0.044180263 0.036726486 -0.021686519 0.11340782 -0.10730445 0.16035482 -0.008551972 -0.17506576 -0.13733223 -0.093747154 0.06365713 -0.02855175 -0.08074527 -0.19876039 -0.024395956 0.001230836 -0.031915016 -0.22457615 0.17079325 0.11678044 -0.01411088 0.22963138 0.028967995 -0.12061927 -0.105401665 0.015041493 -0.07396794 -0.27078003 -0.03337579 0.08735292 -0.19132218 0.14144973 0.09513732 0.2000521 -0.22461057 -0.12705968 -0.16019592 0.052530944 -0.22268519 -0.06825025 -0.23611975 -0.14206755 -0.07485538 0.11420279
61 -0.14051433 -0.29163775 -0.009484227 -0.15373838 0.0050147497 -0.0420434 -0.11024725 0.038834058 0.10441166 0.051952805 -0.11997521 0.032016937 -0.04858283 -0.12774651 0.017217819 -0.2848982 0.12963152 0.0658321 -0.1130682 -0.034980074 0.03750187 0.033628605 -0.015084575 0.11434145 -0.10227556 0.14876172 -0.02252002 -0.1679397 -0.1426852 -0.096454605 0.06523408 -0.022647815 -0.09037045 -0.22308265 -0.031211348 -0.0020840014 -0.02677007 -0.21510321 0.16794528 0.094946 -0.0058421413 0.20870224 0.023728581 -0.1061234 -0.114049494 0.022875344 -0.07031085 -0.2612022 -0.029694889 0.096854165 -0.20000385 0.14937419 0.09993595 0.19207874 -0.2090012 -0.12324923 -0.15551122 0.04249637 -0.2272044 -0.087633096 -0.2385547 -0.1641389 -0.058580384 0.11070652
277 -0.13828413 -0.26894814 -0.0072261672 -0.15191409 0.016351067 -0.04223195 -0.11937704 0.036164068 0.089452215 0.064807326 -0.11906249 0.04340442 -0.06075296 -0.12906103 0.0076920926 -0.29159778 0.13716584 0.054147698 -0.10693768 -0.04627492 0.04283754 0.031757303 -0.00041626795 0.11397465 -0.10696296 0.16228329 -0.02008488 -0.1564925 -0.12367556 -0.08579772 0.052024346 -0.009923952 -0.093098015 -0.21099335 -0.031006016 -0.008683769 -0.02857534 -0.23039433 0.16833383 0.097240604 -0.002707025 0.23592228 0.016796077 -0.11380594 -0.12050746 0.0190755 -0.072666004 -0.2780092 -0.03764176 0.09210561 -0.19652784 0.14240834 0.088208325 0.18945718 -0.22683349 -0.12657209 -0.15934405 0.06043825 -0.23461728 -0.07414945 -0.2347171 -0.16659583 -0.07511126 0.11562092
58 -0.12985043 -0.28791058 -0.010527901 -0.15231487 0.010882899 -0.031159757 -0.11574745 0.040229417 0.10238139 0.0597839 -0.11309575 0.03812598 -0.045420185 -0.12623847 0.018422263 -0.29058862 0.12967935 0.07092661 -0.11872957 -0.044003036 0.03425952 0.025083784 -0.0054614143 0.104012094 -0.107653946 0.15850785 -0.020587685 -0.17895018 -0.1495991 -0.0794344 0.08249963 -0.029783461 -0.08476431 -0.20535338 -0.031104555 -0.00066663546 -0.03146649 -0.20406795 0.16895473 0.11937888 -0.008914608 0.21969216 0.010988973 -0.115120195 -0.11343996 0.018980205 -0.06541225 -0.26099926 -0.03447017 0.10023933 -0.20423818 0.13698031 0.10488497 0.19609955 -0.21871229 -0.118962675 -0.15844692 0.0485226 -0.2108738 -0.070035264 -0.22452497 -0.16582167 -0.0615265 0.11165057
246 -0.14393783 -0.27381268 -0.0016562673 -0.14720047 0.0018615304 -0.047401458 -0.110405624 0.03634135 0.084180176 0.054800395 -0.09891812 0.046888717 -0.04765455 -0.14293103 0.021854773 -0.28896856 0.14173873 0.0658098 -0.09551553 -0.04215584 0.033551604 0.026999118 -0.013141769 0.10793194 -0.11195211 0.1712087 -0.0070686247 -0.17743023 -0.14294127 -0.07676018 0.057303987 -0.025355732 -0.082871914 -0.2068095 -0.031953417 -0.003605987 -0.028730985 -0.22431828 0.16489433 0.10536946 -0.012897632 0.22386165 0.03342166 -0.10872934 -0.10605679 0.00411269 -0.06397671 -0.2557528 -0.04580711 0.09721056 -0.2041409 0.14317386 0.08226151 0.19715524 -0.2140703 -0.13946551 -0.15559879 0.04828334 -0.23543094 -0.072639294 -0.24131383 -0.16006114 -0.06408461 0.110365674
2 -0.1325369 -0.27597278 -0.0073649785 -0.14691266 0.010062985 -0.04880888 -0.10744343 0.044847813 0.089163765 0.047445644 -0.11168626 0.045423783 -0.041165512 -0.14367446 0.009579591 -0.287101 0.12932529 0.06518997 -0.10435211 -0.039190155 0.0337478 0.029859575 0.00071948924 0.0964692 -0.11012088 0.16415241 -0.021254888 -0.17068166 -0.12796646 -0.073527835 0.064341076 -0.009479802 -0.093077295 -0.20379926 -0.035815734 -0.009633538 -0.024082312 -0.22616713 0.17080352 0.10928336 -0.0039683515 0.22909874 0.029871322 -0.10872193 -0.12313841 0.013341299 -0.06471008 -0.27539852 -0.034046885 0.08868958 -0.20416811 0.13851146 0.09882592 0.20995882 -0.22897556 -0.13105243 -0.14752994 0.06566314 -0.23528312 -0.07011433 -0.24272676 -0.14840078 -0.07726042 0.10863927
52 -0.1298665 -0.28909636 0.011979115 -0.1543323 -0.0055521587 -0.038356997 -0.10363523 0.03860859 0.09959716 0.042676274 -0.12134832 0.044844944 -0.05266707 -0.12593576 0.012575356 -0.2892223 0.13063975 0.06232027 -0.10922083 -0.040200654 0.041340813 0.027242988 -0.01985758 0.101979695 -0.119847745 0.17343847 -0.004263777 -0.15589483 -0.12586622 -0.08389621 0.06748039 -0.023921996 -0.08263875 -0.20841849 -0.01977509 -0.006038144 -0.029383598 -0.2085297 0.17413239 0.11273184 -0.015578581 0.23380809 0.005479587 -0.1023892 -0.10163942 0.023007113 -0.07191688 -0.27016515 -0.04765026 0.093537316 -0.20569561 0.13656344 0.09680035 0.1856019 -0.2116962 -0.12564047 -0.15305188 0.030876944 -0.22346121 -0.085263595 -0.2299425 -0.16357347 -0.07696397 0.09930881
59 -0.13059375 -0.2717299 -0.006410586 -0.1526643 0.017780712 -0.028641485 -0.117708616 0.030235296 0.1015651 0.05503705 -0.123023465 0.056708287 -0.043758832 -0.121179104 0.014013545 -0.29805997 0.138666 0.05710633 -0.11001505 -0.03130527 0.042751204 0.032336537 -0.015145774 0.10385191 -0.10003772 0.14973964 -0.011385949 -0.16976842 -0.12708777 -0.087899216 0.06216888 -0.020952744 -0.108883 -0.21651115 -0.026342783 0.0019327721 -0.016133972 -0.22100534 0.16278827 0.10243966 0.0024454128 0.22917894 0.010220251 -0.1144635 -0.09215537 0.01661012 -0.07374085 -0.27481824 -0.03194358 0.09534069 -0.18653218 0.13568464 0.08528848 0.18985091 -0.21135555 -0.11657193 -0.13783747 0.048444405 -0.22212191 -0.07047049 -0.23576702 -0.15341762 -0.069372915 0.10360498
117 -0.12733643 -0.28444517 0.0021330633 -0.15536062 0.018932963 -0.03936954 -0.11075604 0.037385195 0.09152285 0.04417641 -0.117455706 0.041663803 -0.052002262 -0.13995375 0.02543468 -0.27243862 0.12279299 0.066701084 -0.103934914 -0.051757578 0.044412754 0.029159643 -0.0031078297 0.10467346 -0.11128771 0.15741113 -0.020553036 -0.15561655 -0.14457141 -0.08657156 0.05986531 -0.010531776 -0.0851971 -0.2222215 -0.026466046 -0.0114667155 -0.035413958 -0.20112123 0.1830968 0.11679514 -0.024264863 0.23103109 0.0046275593 -0.10257447 -0.10200812 0.0243658 -0.070651166 -0.28024843 -0.041810077 0.09485221 -0.20957074 0.14198047 0.09088118 0.19487216 -0.21650355 -0.13551591 -0.15727302 0.051473215 -0.23468262 -0.081646636 -0.2304574 -0.15874362 -0.08232789 0.10405419
84 -0.1437474 -0.28677243 0.0026397265 -0.14349622 0.02091674 -0.03494267 -0.11058734 0.034368064 0.09221021 0.050048325 -0.109880894 0.0461946 -0.04255509 -0.14009556 0.010674911 -0.27059588 0.12535667 0.06532286 -0.110960424 -0.035977386 0.026685232 0.031713106 -0.006376007 0.10849357 -0.10386282 0.16149361 -0.023518605 -0.16054921 -0.13449612 -0.09833165 0.0713443 -0.00770636 -0.09611676 -0.21401969 -0.022021754 -0.0051919306 -0.02416618 -0.2085423 0.17097005 0.104775846 -0.012267716 0.23309927 0.02074333 -0.11218808 -0.11763214 0.020187154 -0.06877386 -0.27108943 -0.04158681 0.09669426 -0.19807279 0.15205058 0.09570311 0.19061556 -0.2251922 -0.13213031 -0.15811977 0.06021756 -0.22801651 -0.070471786 -0.23252517 -0.1607616 -0.07205243 0.119878486
244 -0.13413715 -0.2758771 -0.005280934 -0.1436216 0.011014354 -0.041208897 -0.10535844 0.027205573 0.10056059 0.054489475 -0.11541707 0.040345788 -0.047504734 -0.13365582 0.017871859 -0.27152607 0.13641672 0.06534436 -0.10996311 -0.039692767 0.03998134 0.040549543 -0.0027209697 0.109586015 -0.107130684 0.15712115 -0.021286963 -0.16573934 -0.14317535 -0.09249603 0.07400229 -0.032341722 -0.092087135 -0.20662685 -0.02626055 -0.0023784726 -0.017264074 -0.20689078 0.16619577 0.10552037 -0.008023952 0.22930981 0.015632521 -0.10923909 -0.11024792 0.019798351 -0.07183633 -0.27549353 -0.040330123 0.10589522 -0.2042073 0.14492063 0.07824538 0.19373234 -0.21684411 -0.13028999 -0.15241341 0.05710084 -0.22436455 -0.06944036 -0.24810776 -0.1738685 -0.075481944 0.11744992
57 -0.13028008 -0.27819258 -0.012548706 -0.14601171 0.01806103 -0.0349611 -0.11406668 0.03756612 0.09490974 0.05606106 -0.107250325 0.04519416 -0.043926608 -0.1336982 0.01862328 -0.28787875 0.1369091 0.057015404 -0.10778842 -0.032626994 0.034446042 0.03254617 -0.0018318222 0.102866285 -0.11367821 0.16262607 -0.020365398 -0.15701139 -0.14294472 -0.086017564 0.058051545 -0.0005536072 -0.09274607 -0.21435493 -0.02358388 0.0020574434 -0.035729367 -0.22864401 0.16582814 0.10515769 0.0004484395 0.22540316 0.019389547 -0.12369903 -0.11285736 0.024711607 -0.055989496 -0.26523364 -0.03139082 0.103411034 -0.20637742 0.14575858 0.08768788 0.18719316 -0.21173063 -0.13726804 -0.14643663 0.06054501 -0.22044566 -0.07448595 -0.23758066 -0.14959234 -0.076698914 0.11839739
83 -0.14069887 -0.28041667 -0.007275911 -0.14270312 0.024018351 -0.02484224 -0.10994609 0.035900872 0.09949803 0.052341226 -0.102045976 0.0563093 -0.04832606 -0.13911685 0.019176325 -0.2949813 0.12177717 0.045676753 -0.09822719 -0.047487125 0.042428944 0.03784504 -0.021614248 0.10541525 -0.10534909 0.15415119 -0.010361195 -0.17123081 -0.13376464 -0.09706142 0.064094745 -0.010358411 -0.09742901 -0.21271867 -0.027201742 -0.0008415633 -0.046217706 -0.21668874 0.16662784 0.09757353 -0.0038336876 0.22031742 0.0048822975 -0.109900326 -0.11469424 0.017983785 -0.06166 -0.2718198 -0.035273325 0.11018648 -0.19512522 0.13000199 0.07385521 0.19464655 -0.22090842 -0.13451199 -0.15454337 0.055755116 -0.23021302 -0.07297492 -0.23615673 -0.16364253 -0.074372664 0.116084516
54 -0.14654732 -0.2823663 0.0007978785 -0.14847218 0.008528127 -0.03877995 -0.11796375 0.024712296 0.102260925 0.038094915 -0.12176811 0.047717392 -0.044428524 -0.12884165 0.013101807 -0.2819796 0.13357288 0.056986794 -0.11042053 -0.049652494 0.043582395 0.037793428 -0.006742318 0.11116586 -0.11770732 0.17036435 -0.009659624 -0.17538576 -0.14728564 -0.09600619 0.07189331 -0.012026876 -0.08128592 -0.21181066 -0.020321673 -0.0006476349 -0.044414937 -0.2116071 0.19038542 0.10494533 -0.010921468 0.22489008 0.009999001 -0.11068009 -0.10627852 0.027610915 -0.0747776 -0.26830944 -0.03464586 0.101171896 -0.21414904 0.13836485 0.08659753 0.18878756 -0.20623635 -0.13218403 -0.14999948 0.053769182 -0.22052827 -0.076219045 -0.2309455 -0.14947434 -0.06792205 0.104384065
144 -0.13102224 -0.27321535 -0.013376659 -0.14204866 0.020725653 -0.03653532 -0.111208096 0.038834117 0.09640814 0.055505995 -0.1125725 0.055473104 -0.06338639 -0.13717769 0.032282226 -0.28188685 0.14346774 0.06688583 -0.120108925 -0.03631262 0.042968005 0.037666146 -0.011554327 0.0872751 -0.10608392 0.15485649 -0.011808929 -0.16073085 -0.13512965 -0.09024108 0.07373648 -0.01087816 -0.08933707 -0.21655266 -0.015179345 -0.009374802 -0.033043995 -0.22626416 0.17377293 0.10065673 -0.0032003545 0.23806751 0.009471611 -0.11293056 -0.10932778 0.014335917 -0.06975369 -0.27535158 -0.03050843 0.11046416 -0.19711374 0.13787417 0.09414342 0.20184153 -0.22755249 -0.12202545 -0.15331022 0.057296194 -0.22675315 -0.090639174 -0.2316821 -0.15553905 -0.07248477 0.11350163
138 -0.14906149 -0.27412698 -0.014893758 -0.14510427 0.0018362076 -0.04035624 -0.116047524 0.0337304 0.09657006 0.047914974 -0.11489861 0.05029592 -0.054766323 -0.13257289 0.009972334 -0.2740779 0.13522303 0.05451471 -0.112088405 -0.036823835 0.041741636 0.030481745 -0.014904407 0.102127895 -0.11563557 0.17374551 -0.0099095935 -0.17188616 -0.13138741 -0.0806362 0.06798452 -0.018577816 -0.0833235 -0.20374967 -0.02835036 -0.0061113904 -0.042415746 -0.22116785 0.17557764 0.11023438 -0.009143956 0.2212841 0.014013319 -0.11255547 -0.114676036 0.021188581 -0.064561866 -0.2699431 -0.04428286 0.09479352 -0.20691103 0.1480286 0.089786954 0.19928472 -0.21265109 -0.1306847 -0.16355225 0.05661228 -0.23456596 -0.06872168 -0.23353809 -0.16259664 -0.062514536 0.11117209
133 -0.14295451 -0.2929349 -0.007777577 -0.1556398 0.006898843 -0.035185307 -0.11472071 0.03481056 0.105011806 0.053078286 -0.106607705 0.048665673 -0.059979692 -0.123975 0.016243873 -0.29710934 0.13259286 0.05708427 -0.10602071 -0.04015918 0.056299835 0.030380934 -0.026611783 0.10757192 -0.11105187 0.16965306 -0.015614943 -0.17112881 -0.13962595 -0.08940738 0.068915255 -0.02125329 -0.08868508 -0.20187157 -0.026365528 0.006348923 -0.035885744 -0.2031167 0.16475727 0.10474406 -0.0031339207 0.22712582 0.029539363 -0.10690249 -0.10805556 0.022515794 -0.07228485 -0.2711853 -0.04224938 0.09019366 -0.1942867 0.141547 0.09554158 0.20479076 -0.21739861 -0.11322276 -0.15670486 0.049303543 -0.20821023 -0.07417422 -0.22878738 -0.1580647 -0.06471688 0.11317386
224 -0.13251491 -0.28024814 -0.008650005 -0.14070782 0.019388365 -0.043247074 -0.106160104 0.039801985 0.08576712 0.04378047 -0.115703635 0.049391218 -0.052527506 -0.13363254 0.020930247 -0.28052256 0.14170535 0.066944845 -0.11047684 -0.041797463 0.05454109 0.031599365 0.0035188259 0.119671255 -0.12854116 0.16672494 -0.013828462 -0.1793081 -0.1504004 -0.09103268 0.06491802 -0.02126128 -0.082791284 -0.22275278 -0.036023222 -0.010364395 -0.032674797 -0.21306702 0.18087897 0.10049069 -0.015561177 0.23023506 0.015938902 -0.1006262 -0.106807284 0.016057674 -0.06627041 -0.26912758 -0.042804558 0.09790333 -0.20471747 0.13990393 0.08093335 0.18228811 -0.21249251 -0.13137496 -0.14986517 0.047311366 -0.22147124 -0.061177224 -0.22650668 -0.15153116 -0.06320934 0.11445152
85 -0.13584036 -0.28851858 -0.0017614312 -0.15315455 0.009859353 -0.042906366 -0.119509466 0.0326496 0.09032891 0.058045056 -0.12193254 0.039288823 -0.06457794 -0.13131134 0.018483559 -0.27970877 0.119585656 0.07416533 -0.11385621 -0.045146726 0.046202134 0.04024537 -0.008141203 0.10389555 -0.12133336 0.15252098 -0.017999753 -0.17202148 -0.14837827 -0.08057458 0.077987425 -0.02447025 -0.08391195 -0.21539004 -0.030219242 0.0025995325 -0.04118324 -0.2034702 0.17731938 0.10854941 0.0045776726 0.22941895 0.008015978 -0.10940658 -0.10929012 0.015145769 -0.06820919 -0.26644763 -0.052985135 0.10486967 -0.19631149 0.14527667 0.07653406 0.20320173 -0.22356164 -0.12794974 -0.14838558 0.055213846 -0.2154647 -0.071832314 -0.22985712 -0.16466452 -0.0680501 0.11555327
3 -0.13926043 -0.28715655 0.0027778677 -0.14830835 0.017584097 -0.034519035 -0.10960243 0.037931774 0.086075835 0.047885038 -0.10700093 0.03704231 -0.05779233 -0.13853437 0.015660742 -0.2934178 0.14125912 0.059702244 -0.10815715 -0.03856044 0.03301902 0.030205132 -0.011081986 0.114736624 -0.09991373 0.16500963 -0.011658054 -0.16292275 -0.13181713 -0.073920794 0.06508049 -0.013721964 -0.09529608 -0.20583811 -0.028876403 -0.008561006 -0.022522418 -0.212239 0.17230178 0.109073296 -0.0033775556 0.21351615 0.0080030095 -0.10441627 -0.10890483 0.019537551 -0.06611074 -0.2654504 -0.045454033 0.10117925 -0.19477268 0.13609874 0.08869174 0.2026001 -0.21176189 -0.13162167 -0.15497074 0.04985807 -0.22733803 -0.07097786 -0.2459879 -0.16374929 -0.07086701 0.11852816
94 -0.13549969 -0.27881035 -0.015203234 -0.14962049 0.01602233 -0.040770344 -0.11720758 0.036957942 0.09638024 0.056482174 -0.10369051 0.04951772 -0.06333798 -0.13930699 0.017472342 -0.27828318 0.13116604 0.065140136 -0.10850331 -0.044187855 0.042093966 0.038474068 0.0044690883 0.10785755 -0.11005426 0.16721235 -0.012527715 -0.1716209 -0.14689177 -0.08274101 0.07382467 -0.011003962 -0.08729247 -0.22762707 -0.018567922 -0.00028088328 -0.03139702 -0.19893637 0.16983706 0.1143028 -0.012577593 0.2297374 0.0044003036 -0.10418965 -0.103996925 0.014453912 -0.06749496 -0.25754339 -0.04045099 0.1032894 -0.21072552 0.1505763 0.07640684 0.19522369 -0.21380962 -0.13350858 -0.14079651 0.038508452 -0.23565897 -0.0830909 -0.24345273 -0.15608989 -0.08580397 0.11344825
48 -0.14853694 -0.26985094 -0.0040592873 -0.14633495 0.012430062 -0.040720295 -0.113620624 0.03122542 0.09784183 0.042020593 -0.111511745 0.0476043 -0.048362155 -0.12988804 0.024829017 -0.29577237 0.12395072 0.055414896 -0.09953768 -0.030312179 0.046380274 0.026288485 -0.021407943 0.103459306 -0.107455455 0.16673794 -0.031556774 -0.17110282 -0.14542924 -0.09152278 0.07351075 -0.01615931 -0.08030791 -0.19882388 -0.025716351 -0.008120392 -0.028536346 -0.22044526 0.16944501 0.10839838 -0.018352756 0.2206891 0.026709465 -0.112989776 -0.10651783 0.0145140635 -0.06729546 -0.26900065 -0.05304593 0.0851225 -0.19264008 0.14748569 0.0924279 0.20777993 -0.22589226 -0.1238097 -0.15998976 0.060083468 -0.23173147 -0.08334489 -0.24122451 -0.15126656 -0.06718542 0.119837485
198 -0.12389512 -0.27691832 -0.005544045 -0.14602594 0.007606741 -0.041120388 -0.11529077 0.038441584 0.10377113 0.052955158 -0.10996125 0.046799242 -0.034459718 -0.12274189 0.02228409 -0.28991562 0.1308411 0.05681253 -0.10535632 -0.028280037 0.03189359 0.026447326 -0.012039501 0.10374721 -0.1055766 0.17119586 -0.008692232 -0.17155161 -0.14678602 -0.087572254 0.067977585 -0.021142311 -0.08684207 -0.20088 -0.024401631 -0.0037168823 -0.019871611 -0.21113215 0.16639881 0.10972316 -0.011273962 0.21867475 0.015744248 -0.11564614 -0.107755534 0.0130515145 -0.059337027 -0.2723191 -0.033670843 0.106372036 -0.20203201 0.15015654 0.0891267 0.19503081 -0.21074018 -0.12827058 -0.14239262 0.060585625 -0.22720791 -0.07552246 -0.24053775 -0.15766425 -0.070392296 0.11409888
105 -0.12798455 -0.28693196 0.0046324264 -0.14153324 0.018864224 -0.03249512 -0.10534299 0.04380468 0.09995129 0.05405967 -0.108528875 0.051637646 -0.045619547 -0.13165513 0.015447851 -0.2738103 0.13622041 0.062758185 -0.108680695 -0.029811135 0.04860759 0.021912834 -0.0065903454 0.112158366 -0.11102846 0.17695439 -0.01428149 -0.16367368 -0.15153831 -0.0898627 0.069982864 -0.02122974 -0.0964065 -0.20941797 -0.02110772 -0.006714256 -0.02526338 -0.2027352 0.16401279 0.11435833 -0.009558725 0.23601168 0.014469897 -0.10656565 -0.11242045 0.018331632 -0.05919875 -0.27818206 -0.043629624 0.09622307 -0.20070574 0.14588322 0.09181625 0.18135822 -0.21219528 -0.12865904 -0.14611961 0.051575508 -0.2325602 -0.0733117 -0.23079935 -0.15974313 -0.07732034 0.1051401
282 -0.13214341 -0.29484832 -0.004595962 -0.14733832 0.014753707 -0.036594898 -0.11918125 0.04299669 0.10124975 0.048022173 -0.110541224 0.05487478 -0.04902246 -0.12674166 0.038726255 -0.29705438 0.12570785 0.057135284 -0.104158685 -0.043311473 0.038358774 0.031619076 -0.009429825 0.12005578 -0.107021235 0.16145922 -0.003446644 -0.17158948 -0.14439291 -0.091179945 0.06760702 -0.025345622 -0.08113054 -0.21022765 -0.028234592 -0.013936085 -0.022705404 -0.21857686 0.17145678 0.09852378 -0.011145003 0.22991103 0.014426697 -0.11672097 -0.10452301 0.010784642 -0.073174074 -0.27264228 -0.04587244 0.10685752 -0.19745307 0.13970579 0.08918186 0.1966605 -0.22312026 -0.1310097 -0.1568098 0.048407562 -0.22589673 -0.08109689 -0.23366702 -0.16074042 -0.07801962 0.10591857
121 -0.12198443 -0.2855878 -0.005488703 -0.14094463 0.016567027 -0.033614352 -0.10171905 0.043611184 0.101523794 0.054474264 -0.11577442 0.04536442 -0.055627026 -0.1437766 0.013485343 -0.28861448 0.123882435 0.06844992 -0.108328395 -0.053252544 0.048794977 0.032196667 -0.004040248 0.10856233 -0.109570146 0.16393282 -0.019871736 -0.16508873 -0.13826716 -0.089054294 0.079011515 -0.013266034 -0.10413386 -0.21215354 -0.027010014 -0.017474478 -0.03533899 -0.21504259 0.16986552 0.10880065 -0.016171716 0.24353315 0.018789224 -0.09735823 -0.12031717 0.023090292 -0.063605264 -0.28330106 -0.036841083 0.09746678 -0.19897348 0.13984945 0.08969954 0.19504014 -0.21714155 -0.12703389 -0.16314249 0.057611883 -0.23889412 -0.076372996 -0.23574223 -0.16286145 -0.077316806 0.11737772
254 -0.13505255 -0.29451498 0.0070888135 -0.15310767 0.014331081 -0.03925981 -0.109503075 0.045035683 0.09682842 0.056284096 -0.10796915 0.048067797 -0.050834388 -0.12782174 0.019480195 -0.27972662 0.13166146 0.06774089 -0.10169539 -0.034866348 0.03072391 0.024033958 -0.010021963 0.10498018 -0.11148914 0.16379125 -0.024002096 -0.17307399 -0.1357302 -0.0988966 0.071357 -0.015095085 -0.08444481 -0.21576537 -0.03054108 0.0029605508 -0.04465145 -0.2048233 0.17819962 0.10460433 -0.011374165 0.22569194 0.011535498 -0.11121017 -0.10694129 0.019551314 -0.07415571 -0.26961157 -0.037365593 0.10130686 -0.20284359 0.14315912 0.09008045 0.18995707 -0.21094753 -0.13541275 -0.15727764 0.052293938 -0.2264593 -0.07603998 -0.24415481 -0.15924928 -0.066125095 0.10736876
96 -0.1333587 -0.28480953 -0.004676729 -0.1604125 0.0117939105 -0.052162576 -0.1208176 0.036343798 0.097846486 0.05130414 -0.117488004 0.03809679 -0.0523424 -0.13023323 0.027051192 -0.2814449 0.122725084 0.0619188 -0.111722946 -0.022408212 0.040585395 0.03258484 -0.0033963649 0.09686748 -0.10187599 0.17285095 -0.015837815 -0.16077574 -0.14108497 -0.08518348 0.06785854 -0.016626742 -0.086541705 -0.21183856 -0.032726966 -0.008523309 -0.032623746 -0.20952176 0.17830126 0.09900038 -0.015293916 0.22637783 0.019582624 -0.11808553 -0.10113766 0.015155465 -0.0662036 -0.26537433 -0.029674578 0.11405215 -0.21274106 0.1527203 0.09191627 0.20426337 -0.1958581 -0.12833501 -0.14941174 0.054398213 -0.22515795 -0.077114314 -0.23022819 -0.16477212 -0.064945 0.102880895
110 -0.12440261 -0.29008758 0.00016884311 -0.15255487 0.017181959 -0.041022666 -0.104296595 0.040803835 0.09039371 0.05153386 -0.11710337 0.04318747 -0.046484683 -0.1303638 0.013573084 -0.28984421 0.13340192 0.062590025 -0.10552239 -0.039676785 0.04419108 0.031624 -0.015527499 0.120407484 -0.117633976 0.16171372 -0.0130222365 -0.16457924 -0.13622339 -0.09123939 0.06882274 -0.021230003 -0.09595358 -0.21332921 -0.033262342 0.0010022894 -0.04195616 -0.2124013 0.18230706 0.09384671 0.0065513686 0.23405585 0.018095609 -0.10895011 -0.10041672 0.01259165 -0.06609029 -0.26745996 -0.03996322 0.08932046 -0.2058949 0.14174655 0.08454623 0.19701277 -0.21425438 -0.12506607 -0.1488311 0.047757648 -0.22155224 -0.066997275 -0.23846985 -0.16771667 -0.076914415 0.11674237
233 -0.14356904 -0.28937313 0.0009740617 -0.14292805 0.0254898 -0.038446758 -0.10793594 0.033455923 0.087883145 0.04656608 -0.11039104 0.047964264 -0.060516775 -0.1347391 0.02928597 -0.28252003 0.14588675 0.075579084 -0.11002476 -0.041912224 0.038998522 0.028253568 -0.015871895 0.10915676 -0.107576445 0.17226951 -0.009058671 -0.1721617 -0.13048087 -0.08962145 0.06503209 -0.019557023 -0.074573256 -0.21080267 -0.033244185 0.0038925924 -0.031119093 -0.22125317 0.18409573 0.11115871 0.0016827066 0.2225847 0.026725179 -0.1029137 -0.11116495 0.01796684 -0.07058868 -0.26469085 -0.026812285 0.10446496 -0.2016147 0.14182708 0.10561368 0.20634663 -0.20647553 -0.12996618 -0.1477486 0.06370492 -0.21300288 -0.076476775 -0.24747184 -0.15620299 -0.07949365 0.12274612
231 -0.13951561 -0.28167892 -0.0025000558 -0.15246354 0.013474056 -0.045945752 -0.109270856 0.03881722 0.10058224 0.04233585 -0.112726256 0.046824697 -0.05637496 -0.13434933 0.019363508 -0.28065085 0.13526562 0.06245543 -0.118203 -0.044692177 0.04484863 0.043414637 -0.01311514 0.11212558 -0.10508849 0.17092216 -0.009851873 -0.16677989 -0.14274137 -0.09363847 0.077683344 -0.023561759 -0.091806605 -0.20240788 -0.03006824 -0.009725976 -0.03380239 -0.20565754 0.18024568 0.11034362 -0.014783486 0.22380224 0.025171747 -0.101090245 -0.11150448 0.017715259 -0.0720538 -0.2660972 -0.037558712 0.102231435 -0.20064719 0.14474636 0.09353624 0.1978062 -0.21716304 -0.12517217 -0.15093425 0.059506916 -0.22287872 -0.070238456 -0.23715423 -0.15323721 -0.063342035 0.102210805
150 -0.137632 -0.28270417 0.001745344 -0.15147977 0.013346494 -0.03542749 -0.10537509 0.035943538 0.09608428 0.03795905 -0.10458447 0.039882723 -0.052250408 -0.14281209 0.011049347 -0.29218835 0.1340657 0.069399334 -0.10676595 -0.03239691 0.032817267 0.025533698 -0.014485704 0.10923953 -0.12327427 0.17321035 -0.017340003 -0.17375676 -0.13934198 -0.087814115 0.055472698 -0.013822285 -0.06827202 -0.21168008 -0.022845406 0.0025260355 -0.04091787 -0.2089345 0.17265937 0.106191516 -0.017341783 0.22425503 0.020617519 -0.104333274 -0.103674844 0.01623756 -0.06533102 -0.27124813 -0.04237601 0.09263353 -0.19931516 0.14694932 0.08527004 0.19618696 -0.20632812 -0.13752668 -0.15329526 0.037415013 -0.22196005 -0.07995596 -0.24381809 -0.15137105 -0.069126725 0.10592112
1 -0.13869634 -0.28378162 0.0057934565 -0.14693351 0.011877435 -0.047082566 -0.11492865 0.03978056 0.09815859 0.05547093 -0.11644403 0.043939356 -0.046985216 -0.13543001 0.0019309724 -0.28377303 0.13277233 0.06011924 -0.09550231 -0.042684555 0.032901682 0.028573845 -0.007121009 0.106248125 -0.108032875 0.1639404 -0.01085777 -0.15002488 -0.12544636 -0.09258931 0.052039154 -0.009845975 -0.078772895 -0.20977278 -0.033451058 -0.007409595 -0.043461066 -0.21372719 0.17826907 0.0886135 -0.005352083 0.21814921 0.016771793 -0.1001371 -0.11011031 0.009975702 -0.075201765 -0.26898816 -0.031263657 0.09494406 -0.20911984 0.14924255 0.087663196 0.20561461 -0.22528353 -0.12853326 -0.15548308 0.055359907 -0.23293075 -0.07229529 -0.2263827 -0.16685534 -0.07718279 0.11347987
260 -0.15244228 -0.2752187 -0.013952351 -0.1490685 0.010863418 -0.043295592 -0.12366673 0.042346567 0.10675555 0.052725352 -0.11702423 0.053791095 -0.050899263 -0.13489321 0.019759126 -0.28795743 0.12975293 0.06290275 -0.10870862 -0.038677156 0.049653925 0.03415932 -0.0077298777 0.121711075 -0.1185205 0.17180875 -0.007958123 -0.17095245 -0.13251026 -0.08720273 0.057824127 -0.011292776 -0.093900785 -0.21750057 -0.03347416 -0.007121993 -0.030228619 -0.20291401 0.16564673 0.1062201 -0.002703457 0.22648025 0.017938297 -0.107408956 -0.10482599 0.026990557 -0.067607924 -0.2761703 -0.032403957 0.085495956 -0.19779731 0.15362562 0.080575906 0.19576474 -0.20468876 -0.1400945 -0.15778503 0.04467817 -0.2394613 -0.073954165 -0.23451214 -0.15687495 -0.071849644 0.11349506
145 -0.129534 -0.29396442 -0.010175991 -0.15325338 0.013422541 -0.024779731 -0.12134029 0.040426556 0.11558073 0.04384614 -0.119500495 0.03292724 -0.055088222 -0.13205357 0.011328182 -0.29185796 0.119102634 0.06334506 -0.109707944 -0.04827653 0.035917833 0.03587427 -0.013054358 0.11556412 -0.10321213 0.16586284 -0.0047641187 -0.17073429 -0.13630478 -0.08495098 0.075604364 -0.016263517 -0.09009975 -0.21629335 -0.03345389 0.0061916877 -0.03502197 -0.20236848 0.17335719 0.114702635 0.0019762153 0.21982667 0.011573572 -0.1051182 -0.09882453 0.028128577 -0.07599217 -0.26767504 -0.0426029 0.09436345 -0.21041031 0.13574256 0.07810721 0.18624607 -0.2117431 -0.12863553 -0.15765637 0.04287047 -0.21017775 -0.08618933 -0.22213842 -0.16359726 -0.056703098 0.12589048
240 -0.12532358 -0.2721056 -0.009982266 -0.14286448 0.020971354 -0.03495309 -0.11087999 0.04095924 0.09521747 0.05492785 -0.11849902 0.03573293 -0.051629473 -0.12973885 0.01779048 -0.28007856 0.12776586 0.055317767 -0.10852174 -0.042563677 0.033215646 0.022148408 -0.017719269 0.106334224 -0.11475859 0.16736834 -0.014256431 -0.1621441 -0.13400376 -0.08249793 0.07327234 -0.013464039 -0.08489309 -0.20801286 -0.025075912 -0.006598918 -0.032938246 -0.21696205 0.17058389 0.118287675 -0.0050259987 0.23192267 0.013277296 -0.109941036 -0.11374596 0.017582525 -0.06485991 -0.27544263 -0.04354821 0.10473138 -0.19956066 0.14901267 0.097370856 0.19626662 -0.20966448 -0.12294959 -0.16366123 0.054021213 -0.22666284 -0.079249695 -0.22595792 -0.17149767 -0.07267492 0.11884463
278 -0.13498569 -0.280124 -0.005451865 -0.1479137 0.022527536 -0.040219642 -0.10727795 0.038456786 0.08775008 0.045407362 -0.11024596 0.04141144 -0.056180485 -0.14207551 0.020193394 -0.29160154 0.13899499 0.0791637 -0.11430179 -0.03725299 0.041889533 0.03448757 -0.009471379 0.109955974 -0.107181534 0.17051199 -0.013840679 -0.17954242 -0.1384664 -0.08409424 0.072937086 -0.01114304 -0.078281045 -0.2116201 -0.014783639 -0.003005984 -0.023837244 -0.2194559 0.17392395 0.10793379 -0.0047633164 0.24177681 0.01528625 -0.10855398 -0.116583824 0.004107042 -0.06600509 -0.26806772 -0.03506879 0.08983178 -0.20320447 0.13780242 0.08638763 0.19721195 -0.21053283 -0.12711588 -0.1460751 0.04565927 -0.22313547 -0.07644497 -0.2365424 -0.14271745 -0.07610868 0.109343454
140 -0.1421759 -0.27634493 -0.0107931085 -0.15842496 0.015095202 -0.040273797 -0.109382555 0.036642544 0.10554689 0.039683856 -0.112279095 0.0499876 -0.044011045 -0.14099139 0.010955054 -0.27709675 0.12398566 0.0775368 -0.110899925 -0.03631373 0.03294527 0.036567915 -0.011677259 0.09279248 -0.11550566 0.16519307 0.0015679373 -0.16606835 -0.13601081 -0.087506644 0.064604245 -0.030978812 -0.0915987 -0.21639492 -0.030166695 0.0010833426 -0.03778037 -0.21851715 0.17950593 0.118581004 -0.01372061 0.22337748 0.023161823 -0.11079804 -0.100659646 0.008631795 -0.061969224 -0.2747684 -0.043460775 0.08584847 -0.19704147 0.14563322 0.09236101 0.20427562 -0.20741534 -0.1261502 -0.15983054 0.053015888 -0.22659184 -0.06708927 -0.23139237 -0.14723553 -0.05917067 0.11704954
192 -0.13498165 -0.27704751 -0.014266682 -0.13703889 0.014850423 -0.0401485 -0.11177261 0.039516587 0.09027765 0.043274943 -0.10738398 0.03699918 -0.053831887 -0.13995641 0.013103944 -0.28436378 0.13796921 0.057069235 -0.10823475 -0.0422214 0.044465728 0.021928508 -0.013442596 0.11696361 -0.12654875 0.17715381 -0.016136397 -0.17183727 -0.1477113 -0.08183401 0.07937998 -0.011134534 -0.085429884 -0.20749049 -0.023034949 -0.0061898897 -0.03181816 -0.2094589 0.16847534 0.09819363 -0.006282096 0.2294741 0.02487211 -0.116143234 -0.11384168 0.020982824 -0.05791724 -0.27299058 -0.029951101 0.10248832 -0.21294236 0.14102182 0.086828485 0.18502586 -0.20274132 -0.13718468 -0.141896 0.058541115 -0.22545217 -0.07744959 -0.2342019 -0.1686975 -0.07945184 0.10954549
142 -0.14030339 -0.27997372 -0.008153577 -0.15638322 0.006881451 -0.03158037 -0.10258092 0.038884774 0.08176137 0.04970748 -0.11549986 0.048514366 -0.0608482 -0.12751897 0.007190111 -0.28205174 0.13849773 0.07108249 -0.109368704 -0.031296138 0.03793355 0.03182642 -0.012927659 0.090528175 -0.113271125 0.17162931 -0.015653718 -0.16440062 -0.14039376 -0.08444337 0.06374276 -0.010628856 -0.07996437 -0.20570695 -0.026580464 0.003702398 -0.032352287 -0.22571118 0.17114125 0.102662414 -0.012052829 0.22659718 0.027632082 -0.10917025 -0.11450987 0.02222078 -0.06500075 -0.2625767 -0.036698725 0.09843067 -0.20972073 0.1512732 0.09322348 0.20575003 -0.21863936 -0.11830857 -0.1536201 0.055017173 -0.22771668 -0.076359324 -0.23819168 -0.15085593 -0.07129649 0.109490454
184 -0.132294 -0.2800693 -0.00039343242 -0.14537984 0.0030781575 -0.03994121 -0.11093752 0.04428481 0.1011421 0.0525318 -0.112731725 0.047266226 -0.058656592 -0.13897972 0.0091619 -0.2961984 0.13866492 0.06415023 -0.120089404 -0.03864984 0.040127877 0.037048414 -0.006558439 0.11563084 -0.116959654 0.17576535 -0.02347236 -0.16682415 -0.15067597 -0.09500152 0.06583275 -0.023121735 -0.08860224 -0.20829886 -0.030258099 -0.009445017 -0.027053636 -0.21765989 0.17272525 0.09937273 -0.009140472 0.22278908 0.013510176 -0.11250013 -0.11034381 0.016805107 -0.06330003 -0.26527438 -0.041334916 0.10330223 -0.19298092 0.13876337 0.09116023 0.18836075 -0.2090614 -0.13166292 -0.16315868 0.05637811 -0.22193754 -0.08416571 -0.22932924 -0.1639893 -0.05429229 0.11299656
148 -0.1383752 -0.2851257 -0.001147893 -0.15564226 0.0055024247 -0.03498187 -0.109193586 0.035833072 0.08796588 0.053528167 -0.114195004 0.05256403 -0.054845624 -0.14235485 0.012471979 -0.2733465 0.13075349 0.05327118 -0.11252734 -0.048968624 0.040279545 0.038505953 -0.0043129474 0.111071445 -0.1195207 0.16778396 -0.009108851 -0.17455566 -0.14214228 -0.08752031 0.06505821 -0.00800248 -0.08228122 -0.21540673 -0.028532768 -0.0030158798 -0.029904157 -0.21649225 0.1826953 0.102455884 -0.009349547 0.22711691 0.013027438 -0.12203271 -0.11277344 0.023893975 -0.055626843 -0.27796045 -0.050438937 0.096185654 -0.20311628 0.13656023 0.08012397 0.18659022 -0.21363525 -0.1497132 -0.14465044 0.044779964 -0.2293699 -0.073072456 -0.2328108 -0.16152446 -0.06996095 0.105554506
47 -0.13787349 -0.27623487 -0.010249847 -0.1463354 0.0031857342 -0.03541725 -0.109573565 0.04650691 0.098643675 0.043163173 -0.116928235 0.04492852 -0.0451397 -0.13255535 0.020019164 -0.27365127 0.12650922 0.06083334 -0.1082319 -0.030076418 0.042346373 0.031634405 -0.019721184 0.10748086 -0.099162616 0.1588431 -0.014702002 -0.16093105 -0.14490522 -0.09244791 0.06884313 -0.021169776 -0.0711215 -0.21722475 -0.01957515 -0.0049705133 -0.0326692 -0.21380891 0.16937663 0.11012332 -0.01850885 0.22975232 0.012951985 -0.1028868 -0.09830073 0.017217254 -0.064991914 -0.28171447 -0.051174324 0.09887128 -0.18904561 0.15300556 0.09071289 0.18636131 -0.20948465 -0.1331135 -0.16603024 0.051005192 -0.22808458 -0.080580324 -0.23266767 -0.16400489 -0.066687465 0.10806505
91 -0.13610809 -0.29509655 0.0032960009 -0.15095179 0.011620397 -0.038002215 -0.103432335 0.028405644 0.10064061 0.060987502 -0.10839734 0.03507271 -0.045386408 -0.12984537 0.015261637 -0.28778902 0.13392115 0.060852338 -0.108983696 -0.041478373 0.0377784 0.029838698 -0.0016908995 0.11133938 -0.11579008 0.17016938 -0.01684207 -0.17205487 -0.15698011 -0.0829784 0.07620348 -0.030114096 -0.08780131 -0.2123209 -0.02901145 0.001500045 -0.02747682 -0.20504832 0.17618158 0.113652885 -0.026473243 0.23831616 0.022102239 -0.1069712 -0.11621084 0.025740603 -0.0766256 -0.28027874 -0.038260803 0.094267786 -0.21483275 0.13837093 0.09288629 0.19650905 -0.22412968 -0.13142504 -0.15429088 0.05213197 -0.22816123 -0.07159471 -0.22488217 -0.15763411 -0.07216863 0.11591098
146 -0.12844177 -0.27869552 -0.0010569204 -0.13924599 0.013289794 -0.044630166 -0.11481534 0.04345281 0.09646063 0.052245133 -0.11589662 0.051852882 -0.05326522 -0.12708852 0.025395827 -0.28054243 0.12324904 0.04937682 -0.107503355 -0.04225809 0.028909156 0.025860293 -0.005777837 0.102381736 -0.10330666 0.15779305 -0.015974715 -0.15611775 -0.13020359 -0.074719355 0.069748156 -0.014476882 -0.09720865 -0.21830055 -0.026894271 -0.015408066 -0.035458356 -0.21517815 0.16522059 0.10383517 -0.012933974 0.23992965 0.019020028 -0.110669225 -0.10713234 0.0127113 -0.072089374 -0.28118888 -0.036627006 0.102753915 -0.21102627 0.13989067 0.09594935 0.20650876 -0.21558422 -0.13664782 -0.14484267 0.05455354 -0.23222655 -0.077054 -0.23146877 -0.15538296 -0.082028136 0.10924273
95 -0.13171385 -0.28994673 0.0024095452 -0.15185171 0.023060918 -0.03118354 -0.09846559 0.044434685 0.09363498 0.05546802 -0.10327952 0.03286821 -0.058335274 -0.13740882 0.0061237058 -0.2841132 0.14172265 0.06712342 -0.09342966 -0.047669698 0.031018144 0.033295833 -0.008019964 0.118727684 -0.11813815 0.16020538 -0.027236851 -0.16329698 -0.13952367 -0.09746554 0.066709265 -0.008632219 -0.094332024 -0.22174749 -0.030660309 -0.0039308304 -0.026936674 -0.22039784 0.17304248 0.09989235 -0.008176818 0.2241306 0.008581201 -0.105087504 -0.10148257 0.018213684 -0.064055786 -0.2598073 -0.03271973 0.09692173 -0.19890356 0.14560731 0.08296681 0.18783298 -0.21930338 -0.13443524 -0.16148591 0.042857707 -0.23196878 -0.07130983 -0.23944914 -0.17127103 -0.060772546 0.11957388
89 -0.1433079 -0.27626786 -0.0010162925 -0.14912312 0.01696695 -0.035047516 -0.10450235 0.036449954 0.09242035 0.057035774 -0.11044009 0.042556155 -0.041931283 -0.13542584 0.023051294 -0.28853717 0.12540449 0.056470606 -0.10019448 -0.048636958 0.038272187 0.017769963 -0.009384548 0.11212223 -0.11317612 0.1665933 -0.017483948 -0.1731944 -0.13948236 -0.08597927 0.0594294 -0.013686899 -0.10124592 -0.21775813 -0.029476121 -0.011476103 -0.02238938 -0.21938197 0.17225398 0.10485943 0.0023854733 0.23258463 0.017340051 -0.11728246 -0.105604224 0.0072568483 -0.075354874 -0.27393562 -0.032053575 0.092578545 -0.19716182 0.13137773 0.08374038 0.18668503 -0.20634896 -0.13768554 -0.14374995 0.043651823 -0.23596266 -0.074528985 -0.24057223 -0.15583725 -0.06944912 0.1153885
126 -0.14213964 -0.28126264 -0.0066314945 -0.14682019 0.007833518 -0.03485629 -0.11322642 0.046778325 0.09917601 0.04124315 -0.11428568 0.047840822 -0.045249853 -0.13731073 0.02179479 -0.28534982 0.13852371 0.06021962 -0.114573345 -0.046381198 0.041167676 0.03409016 0.006438322 0.10376232 -0.11901699 0.16060802 -0.0125227 -0.17214358 -0.14683998 -0.09415394 0.060340784 -0.02041458 -0.08589337 -0.21578725 -0.028320916 -0.011007143 -0.033278883 -0.21290869 0.17219163 0.09414887 -0.015993292 0.2299452 0.013564076 -0.111863844 -0.11128435 0.025486635 -0.057537254 -0.2615082 -0.029566003 0.101267606 -0.21275316 0.14728042 0.087970935 0.19536172 -0.22715811 -0.13709123 -0.15240219 0.056847043 -0.21921967 -0.080968395 -0.23475473 -0.15434973 -0.060834143 0.11478501
137 -0.13772975 -0.280635 -0.006316576 -0.15132977 0.021372681 -0.025413567 -0.11511055 0.039838597 0.10229704 0.059509892 -0.117039815 0.050110925 -0.039572425 -0.13085361 0.019177858 -0.29676074 0.12794395 0.06463141 -0.099826254 -0.04171225 0.045086402 0.026079018 -0.008705601 0.1077032 -0.11235043 0.15603524 -0.015093167 -0.1675996 -0.14220376 -0.07570268 0.06750519 -0.0092732515 -0.097146906 -0.21442984 -0.017345168 0.003314283 -0.026210671 -0.20475309 0.16267948 0.12300722 -0.008693868 0.23350577 0.006780215 -0.10645439 -0.11106139 0.020991566 -0.06450504 -0.26794237 -0.04452938 0.10136667 -0.20237848 0.14159949 0.08525129 0.19594978 -0.21191934 -0.10879174 -0.16052243 0.04569182 -0.22843474 -0.07833216 -0.23603383 -0.15905993 -0.06882194 0.11512403
62 -0.11766217 -0.27949947 -0.010929669 -0.14738835 0.007349507 -0.03690686 -0.11650863 0.048890736 0.1060327 0.04547898 -0.11834594 0.04127633 -0.050663326 -0.1250249 0.010221271 -0.27847615 0.129016 0.06834251 -0.103543244 -0.0441998 0.03979007 0.024314031 -0.015272937 0.11333058 -0.10843191 0.17140871 -0.0139019955 -0.16175742 -0.14330049 -0.08081511 0.078682736 -0.032015186 -0.09172473 -0.20516898 -0.022498356 0.0060977563 -0.040062714 -0.21241711 0.17940934 0.11995225 -0.01173712 0.22022645 0.0062635494 -0.10367771 -0.10883717 0.01902102 -0.07815589 -0.26201499 -0.040466066 0.09510074 -0.20703502 0.14509928 0.08841433 0.20904912 -0.22196837 -0.13133393 -0.16971831 0.04697746 -0.22381388 -0.07376297 -0.23312241 -0.17846633 -0.07129142 0.11896499
257 -0.12831 -0.2805305 -0.0113560315 -0.14059243 0.012807975 -0.04305482 -0.10359869 0.046557046 0.08524496 0.043542452 -0.11287844 0.04950956 -0.05758589 -0.124845184 0.022350052 -0.28920227 0.13509646 0.062836 -0.115030356 -0.0449786 0.045508757 0.022982867 -0.003189015 0.10642894 -0.104653515 0.16507465 -0.023305187 -0.17088713 -0.14307348 -0.0838599 0.06931054 -0.013268673 -0.08520492 -0.20171365 -0.033069346 0.00069925585 -0.031170534 -0.21409103 0.17368515 0.10798485 -3.9706552e-05 0.22705737 0.022282867 -0.11735106 -0.11989989 0.026905548 -0.0655979 -0.26635218 -0.047031533 0.09737956 -0.19781125 0.1410274 0.08619692 0.19922653 -0.2210159 -0.13578293 -0.14509335 0.047895234 -0.22552165 -0.076792866 -0.23704353 -0.15689586 -0.07105889 0.12067186
118 -0.12573978 -0.29003268 0.0030077863 -0.1500719 0.008249859 -0.039483543 -0.107928336 0.037156403 0.08536345 0.055196278 -0.11673049 0.038393945 -0.049648233 -0.13461657 0.011321352 -0.2815055 0.12935917 0.06909895 -0.11661677 -0.030086998 0.03637294 0.026591487 -0.007456424 0.10849919 -0.10931268 0.17113146 -0.01290314 -0.17486835 -0.14075594 -0.076613285 0.08018565 -0.025316205 -0.081508026 -0.20965932 -0.036463916 -0.0044808844 -0.025126394 -0.20416348 0.18770333 0.10252697 -0.014651248 0.21955477 0.005620593 -0.10632388 -0.11163497 0.015748989 -0.07568191 -0.26777196 -0.034783646 0.1030297 -0.20422757 0.14268035 0.09083895 0.19306664 -0.20549317 -0.14016286 -0.14982054 0.043093964 -0.22061816 -0.07949254 -0.22848399 -0.16830726 -0.06840924 0.10881761
93 -0.1349353 -0.28934804 0.006192983 -0.15204649 0.0050043324 -0.033255447 -0.120441705 0.043869942 0.09337351 0.05891353 -0.107576825 0.049855296 -0.05726495 -0.13789149 0.026927624 -0.28435284 0.12921442 0.057261858 -0.10958851 -0.04060998 0.04766969 0.026246473 -0.009680298 0.11089217 -0.11021416 0.1614008 -0.009101044 -0.16978256 -0.14177538 -0.08790363 0.07384613 -0.024086086 -0.091562405 -0.20584491 -0.026518747 -0.006780943 -0.01977582 -0.20989293 0.17103118 0.101294175 0.001292014 0.23029758 0.0018669042 -0.11315494 -0.10278748 0.016200883 -0.070106365 -0.26110366 -0.03950221 0.09858858 -0.2041456 0.14212504 0.084226415 0.19057962 -0.2179685 -0.13938099 -0.15107875 0.055008613 -0.22093979 -0.07350916 -0.23140909 -0.16952659 -0.060316093 0.10287782
200 -0.13543165 -0.2891633 -0.010104215 -0.15002768 0.0119989365 -0.04911198 -0.11609505 0.039917022 0.08821091 0.045228325 -0.11321813 0.04056795 -0.045084942 -0.13842465 0.019800967 -0.28036705 0.12959775 0.06449753 -0.10967152 -0.037875786 0.042272866 0.024081042 -0.008444605 0.11291717 -0.10006276 0.15270254 -0.024573445 -0.17105918 -0.14783815 -0.084870055 0.06386603 -0.014553783 -0.085028164 -0.21535094 -0.033068426 -0.0075633842 -0.02152412 -0.20754486 0.1783293 0.102122255 -0.0014328924 0.22101682 0.010833154 -0.110794514 -0.12047856 0.013779599 -0.077579126 -0.26896808 -0.03983704 0.10607462 -0.1929907 0.1459441 0.09916121 0.20043415 -0.22665283 -0.13910276 -0.15885136 0.039069947 -0.22330822 -0.080088966 -0.22678627 -0.15217037 -0.065528706 0.11509407
5 -0.1325115 -0.2954572 -0.015197586 -0.15698227 0.015128973 -0.035277802 -0.09752833 0.034594316 0.10041372 0.044553686 -0.106407784 0.05134056 -0.054081462 -0.12927966 0.021666158 -0.29512852 0.12504438 0.05269799 -0.11117738 -0.03871473 0.04629646 0.031399228 -0.02556702 0.12373547 -0.11016135 0.16845526 -0.0112901395 -0.18025523 -0.13842693 -0.09309071 0.06504022 -0.023430593 -0.10367951 -0.21635821 -0.023963204 -0.008541834 -0.02772359 -0.20250925 0.16813126 0.11319371 0.0018485875 0.22850206 0.006358153 -0.10437733 -0.113747224 0.024422765 -0.07233629 -0.27588174 -0.042109434 0.08254752 -0.19244964 0.15158105 0.09416227 0.18871441 -0.20998491 -0.14515705 -0.15060993 0.034006238 -0.2187901 -0.079516724 -0.23481165 -0.166644 -0.061603036 0.1233122
264 -0.1327044 -0.28512284 -0.00012564292 -0.15169755 0.015916629 -0.04552133 -0.11064849 0.034434374 0.09600825 0.045593597 -0.09898292 0.0497368 -0.047410507 -0.13654824 0.023652703 -0.29920363 0.12775357 0.04994838 -0.10874289 -0.04282114 0.038838975 0.027920531 -0.004937438 0.10577985 -0.09864843 0.15625845 -0.01518376 -0.16125222 -0.14230837 -0.08825462 0.061756343 -0.017093271 -0.086483605 -0.2144914 -0.022607788 -0.003697657 -0.021580063 -0.20782873 0.1767561 0.10404951 -0.012187823 0.21433467 0.013382274 -0.115414865 -0.10945036 0.004906101 -0.070185676 -0.27145094 -0.038339954 0.10360006 -0.21246593 0.146833 0.08794526 0.20029812 -0.21054283 -0.13122836 -0.15004297 0.04604837 -0.21984969 -0.08257133 -0.24122123 -0.16301095 -0.0780854 0.10497485
116 -0.13392805 -0.2769517 -0.010763545 -0.14206213 0.019056665 -0.03217474 -0.10369756 0.033707142 0.095699586 0.042269126 -0.11209099 0.05044648 -0.051138386 -0.12190535 0.006502796 -0.2885706 0.14231254 0.062212344 -0.11077524 -0.04114953 0.04737753 0.04005616 -0.007169404 0.097017795 -0.103509694 0.16393006 -0.017944358 -0.15658802 -0.14931522 -0.08792016 0.06386705 -0.020557815 -0.08836075 -0.21023713 -0.028566951 -0.0027199679 -0.026637184 -0.20952512 0.17893142 0.099675715 -0.019565344 0.21904895 0.009472499 -0.10199402 -0.11215939 0.009356322 -0.05765758 -0.26610592 -0.029233657 0.09282339 -0.19717714 0.14531784 0.098803386 0.20247392 -0.2116221 -0.1284578 -0.15238447 0.055871047 -0.22534087 -0.078329206 -0.2440248 -0.15315679 -0.0727976 0.108398825
72 -0.13628937 -0.28180802 -0.008004204 -0.15545253 0.012814584 -0.03318231 -0.1173491 0.035181668 0.1025167 0.041134752 -0.10418003 0.056311887 -0.051006746 -0.14209151 0.028199187 -0.287228 0.14634871 0.06680391 -0.10886996 -0.04533002 0.038735036 0.03498289 -0.01983586 0.111100405 -0.11183954 0.16848853 -0.007520637 -0.17037104 -0.14907469 -0.10425709 0.05273618 -0.015610218 -0.08361161 -0.21418661 -0.029130952 -0.0075581954 -0.033583723 -0.21562599 0.17310762 0.093584284 -0.0026055444 0.23088755 0.0062712133 -0.12209038 -0.10185947 0.0065620774 -0.06423749 -0.26469788 -0.039202046 0.08572886 -0.20698555 0.14477599 0.08691133 0.19089335 -0.2159597 -0.13947389 -0.1497335 0.05017382 -0.21525082 -0.077348284 -0.23992796 -0.15714099 -0.0689981 0.110557735
191 -0.13277678 -0.27664018 -0.0057559735 -0.14634211 0.022511736 -0.035100624 -0.101859696 0.039889425 0.09205409 0.030349301 -0.10280296 0.035868462 -0.05185558 -0.13750306 0.02621268 -0.2873799 0.13379507 0.067878306 -0.11465344 -0.054362435 0.032062486 0.02137117 -0.004387482 0.102004215 -0.10362784 0.16993207 -0.012722736 -0.17876673 -0.13356352 -0.08015679 0.07119641 -0.019826591 -0.088390276 -0.20890997 -0.017764965 -0.005821304 -0.039079234 -0.22778764 0.17829308 0.111106284 -0.020881822 0.2257561 0.010536734 -0.09768637 -0.104402654 0.0052536833 -0.065011546 -0.2709112 -0.035755124 0.09534719 -0.19621986 0.13338783 0.09733674 0.19513464 -0.21705689 -0.1388009 -0.14651915 0.05625394 -0.2149133 -0.07019145 -0.24134082 -0.15345877 -0.07947965 0.11203516
258 -0.12845452 -0.28644797 -0.004861753 -0.14839385 0.007539288 -0.04096156 -0.11153016 0.037898574 0.09138698 0.050957445 -0.109175436 0.052918643 -0.061067708 -0.12990671 0.017786562 -0.28742614 0.13866976 0.062721975 -0.11084739 -0.03795358 0.03837903 0.039852638 -0.003924156 0.10109941 -0.12016691 0.16854668 -0.012502161 -0.17158312 -0.1517588 -0.096096 0.06589797 -0.009371036 -0.090566546 -0.20873006 -0.031126278 -0.0026144448 -0.026233708 -0.21681501 0.1754455 0.10179935 -0.012338197 0.22770166 0.018153362 -0.10833553 -0.10450638 0.006948984 -0.06726194 -0.26829186 -0.040137142 0.11523398 -0.20369488 0.14728943 0.09364423 0.19497766 -0.21808729 -0.129371 -0.16883689 0.06232618 -0.21951053 -0.08009807 -0.2360653 -0.16849719 -0.060567148 0.11662111
97 -0.1433236 -0.2773824 -0.0085366145 -0.15032427 0.01992837 -0.050338168 -0.10603481 0.035922416 0.107717924 0.06425496 -0.113621704 0.042569418 -0.043299727 -0.12962845 0.015696809 -0.2802651 0.121559165 0.06034133 -0.11817986 -0.032977223 0.030718744 0.026247948 -0.013664709 0.10022556 -0.10272882 0.14938955 -0.015285585 -0.16241984 -0.14569183 -0.092899315 0.07229502 -0.013679363 -0.09753676 -0.21844679 -0.038492694 -0.0016930612 -0.030583728 -0.20877893 0.16974777 0.10692429 -0.0068093096 0.22162013 0.016945329 -0.10389502 -0.11825623 0.018607775 -0.058014903 -0.26609063 -0.044382114 0.10123311 -0.19764565 0.15362984 0.08872412 0.20453636 -0.20108657 -0.12205719 -0.15652095 0.050150033 -0.2270232 -0.08090271 -0.23760225 -0.16624221 -0.069300555 0.101922974
9 -0.13168173 -0.2864517 -0.011950286 -0.15032353 0.008612995 -0.03941818 -0.102662764 0.041985407 0.114010036 0.048828974 -0.10403534 0.052159064 -0.04691037 -0.13255377 0.028590161 -0.29214036 0.13203733 0.06521161 -0.11241536 -0.03202272 0.03515285 0.04121881 -0.0023736046 0.098395824 -0.10443109 0.16670996 -0.023720888 -0.17796567 -0.15770225 -0.07774652 0.07466401 -0.013232535 -0.09158791 -0.20993032 -0.018454175 -0.0039080195 -0.022789229 -0.19780111 0.16141966 0.11395726 -0.023905301 0.21563156 0.021320838 -0.112949856 -0.116651155 0.012443598 -0.06462712 -0.26861903 -0.034360494 0.09892119 -0.21030405 0.14505328 0.08205526 0.19923908 -0.19617029 -0.13156861 -0.15183622 0.046799634 -0.22343534 -0.086467884 -0.2433304 -0.16621462 -0.07583406 0.10638452
102 -0.13120544 -0.29478014 0.004139506 -0.15315194 0.019500174 -0.04241239 -0.10878108 0.03903632 0.092921935 0.048372146 -0.1122014 0.038897153 -0.057336383 -0.13831848 0.010386829 -0.28255132 0.12927265 0.060906038 -0.09731362 -0.04467988 0.034967452 0.023771584 -0.018395707 0.100997806 -0.116864935 0.16004613 -0.0029622915 -0.17104885 -0.12994933 -0.09370299 0.08173472 -0.009004846 -0.080398135 -0.2018267 -0.029484915 0.00347791 -0.035389412 -0.21080571 0.18317625 0.10032353 -0.013788501 0.21692881 0.008389042 -0.09766073 -0.10040171 0.006752504 -0.07738098 -0.27601606 -0.04736296 0.09945565 -0.20575686 0.13383181 0.095340066 0.19324629 -0.21785524 -0.13342898 -0.14360525 0.053842187 -0.2345491 -0.0696167 -0.2310004 -0.17293431 -0.0692582 0.11841138
86 -0.12760204 -0.28301507 -0.004883849 -0.14173646 0.01736725 -0.04154689 -0.108157925 0.034336947 0.09958104 0.055840824 -0.10977232 0.049324024 -0.04138621 -0.13166794 0.01942538 -0.26565742 0.13598894 0.069661714 -0.1098433 -0.04039114 0.037918974 0.033812817 -0.011984602 0.100018054 -0.121052526 0.17917788 -0.02103361 -0.16160958 -0.14370677 -0.085201606 0.06773562 -0.013275423 -0.087349445 -0.21429412 -0.03106011 -0.0027293365 -0.028528426 -0.21524009 0.17841522 0.10918388 -0.006532356 0.22411929 0.026184473 -0.104735784 -0.11177951 0.022594877 -0.06944113 -0.27442724 -0.03772843 0.08641167 -0.20429035 0.14570063 0.0905191 0.19296068 -0.21071753 -0.13614656 -0.15164696 0.05277296 -0.2206567 -0.077195406 -0.23162334 -0.16224341 -0.067934446 0.111966886
193 -0.13677807 -0.28759146 0.0022318736 -0.15232448 0.0087544015 -0.02991386 -0.103395395 0.04460636 0.09652609 0.040271565 -0.112146206 0.048958454 -0.044422794 -0.14056902 0.013818583 -0.29463094 0.12479851 0.054671124 -0.10894222 -0.048608195 0.04327558 0.01800837 -0.0145083815 0.10750487 -0.11572084 0.16732499 -0.012329907 -0.16945574 -0.13663101 -0.088353485 0.07172928 -0.0119347405 -0.09342922 -0.21989109 -0.03686496 -0.003545369 -0.030100841 -0.21434529 0.16642703 0.11002986 -0.0174005 0.23625663 0.011048329 -0.110874176 -0.10907434 0.020066004 -0.06662336 -0.26890144 -0.03039118 0.094458416 -0.19526795 0.14288838 0.08734985 0.19435637 -0.22241807 -0.12273086 -0.15509224 0.047439124 -0.2195469 -0.080810025 -0.2259052 -0.15927894 -0.060696576 0.12139661
139 -0.12306746 -0.2937519 -0.006930659 -0.14694768 0.0029476054 -0.03255412 -0.12052152 0.03411698 0.09796257 0.051402953 -0.113715254 0.04324456 -0.058352496 -0.1250122 0.018161742 -0.2927319 0.12136225 0.04904522 -0.11333298 -0.0355541 0.04108188 0.031065129 -0.015547066 0.10014684 -0.11124094 0.15193975 -0.02041409 -0.16807172 -0.14623176 -0.07713044 0.06831604 -0.013558261 -0.08209284 -0.21386935 -0.023291927 -0.005465051 -0.03990597 -0.21690565 0.16612628 0.11049149 -0.00689885 0.23591614 0.01672324 -0.11652562 -0.11643669 0.017917192 -0.07340145 -0.26725814 -0.035336457 0.098118 -0.20034966 0.1388346 0.09003286 0.18919195 -0.21764258 -0.12837477 -0.15929633 0.05684546 -0.21958137 -0.06997943 -0.23238039 -0.1555061 -0.07047091 0.11348166
87 -0.13259156 -0.28970045 0.00809412 -0.1541945 0.007009151 -0.029284483 -0.11575156 0.03357816 0.102184124 0.04811681 -0.113920555 0.051782463 -0.051074423 -0.12901378 0.02350042 -0.27410138 0.12528633 0.06378114 -0.10999393 -0.037953887 0.047942612 0.02431272 -0.015206163 0.09968478 -0.115794115 0.17837663 -0.025728524 -0.17182009 -0.13896516 -0.08789909 0.075882874 -0.027957935 -0.0912197 -0.21932523 -0.018753916 0.003821159 -0.023515737 -0.20360892 0.16937484 0.11384567 -0.015465981 0.22623038 0.0076253596 -0.10398802 -0.089066826 0.022047708 -0.08048571 -0.27440703 -0.031847283 0.10464388 -0.21053232 0.13951771 0.08638669 0.1861316 -0.2215702 -0.13570412 -0.1514691 0.043607272 -0.21819185 -0.07195272 -0.22614764 -0.1687962 -0.061163615 0.104771815
49 -0.12766305 -0.27709737 -0.0017883868 -0.14502242 0.01731185 -0.04336711 -0.10384898 0.033796076 0.0992877 0.044776045 -0.10008401 0.05157721 -0.05010848 -0.14117932 0.020193323 -0.29469538 0.11236376 0.060455315 -0.10192494 -0.03302173 0.04071102 0.03205704 0.0013048053 0.0922909 -0.10620775 0.17614192 -0.015120857 -0.16931935 -0.13460472 -0.08257553 0.0654133 -0.012746521 -0.09001082 -0.21014737 -0.010951264 -0.002333231 -0.031118387 -0.21796203 0.17198126 0.11344869 -0.016677413 0.23296021 0.019039152 -0.09921145 -0.10573031 0.013328071 -0.069853865 -0.2726812 -0.045625437 0.10600015 -0.21211717 0.13889718 0.096040614 0.20522888 -0.21443416 -0.12968692 -0.15027693 0.0562094 -0.22797161 -0.07510496 -0.24308991 -0.15713303 -0.072998635 0.103772216
186 -0.13679649 -0.28489125 -0.01333981 -0.14257784 0.013596297 -0.04488556 -0.10384208 0.028293446 0.09273223 0.041538034 -0.094381444 0.047659434 -0.037796628 -0.1302231 0.02594502 -0.28503343 0.14277178 0.06344412 -0.10731534 -0.04247687 0.047940865 0.023039619 -0.014469154 0.10125305 -0.11132715 0.17171012 -0.012198897 -0.18215255 -0.15194453 -0.09201187 0.07757232 -0.015269933 -0.086108685 -0.20572665 -0.03126241 0.0033546053 -0.019890497 -0.20712492 0.17637761 0.110376865 -0.023271702 0.22671686 0.01743039 -0.104793265 -0.121345185 0.016018625 -0.068633854 -0.26845527 -0.031109752 0.09437726 -0.20322399 0.12943512 0.0985185 0.19801602 -0.22167166 -0.13676758 -0.1541157 0.04599717 -0.21908963 -0.07875926 -0.23936172 -0.16081364 -0.06929539 0.10923034
106 -0.124852985 -0.27657163 -0.010711751 -0.14086841 0.005978871 -0.037088383 -0.11173885 0.029819217 0.10025801 0.0474923 -0.102588624 0.0464639 -0.06093132 -0.13440281 0.011522907 -0.28337348 0.13813178 0.052357577 -0.10952583 -0.027426569 0.03159487 0.025078008 -0.009123366 0.091852725 -0.111204915 0.16949257 -0.01980635 -0.1733758 -0.14297943 -0.08746062 0.0572999 -0.0016279058 -0.089175165 -0.20581937 -0.032709718 0.0034621647 -0.016136957 -0.21383813 0.16778015 0.10361701 0.002818723 0.22804885 0.006528415 -0.11134731 -0.122652136 0.024533479 -0.059378345 -0.2687331 -0.037080828 0.098435014 -0.21216801 0.15457065 0.09432359 0.19603334 -0.23092209 -0.12879099 -0.14623244 0.041961018 -0.23086001 -0.088211805 -0.23664765 -0.16732785 -0.0676873 0.10568946
185 -0.14322911 -0.27329013 -0.018941425 -0.14374827 0.005917462 -0.039180472 -0.10323242 0.036465228 0.09571947 0.049741417 -0.10399765 0.033326667 -0.043809418 -0.14079411 0.016776232 -0.2842683 0.14073381 0.0661563 -0.11472122 -0.03244773 0.048960567 0.031627685 -0.014324102 0.1265048 -0.10840143 0.17562748 -0.01747575 -0.17210373 -0.1428201 -0.09055808 0.057570003 -0.025334397 -0.085695595 -0.22711124 -0.03091337 -0.01458475 -0.015198344 -0.20993176 0.17042337 0.10635696 -0.0026268933 0.23623593 0.027720766 -0.100983776 -0.113023795 0.02724326 -0.07320669 -0.27212888 -0.04275379 0.09343576 -0.18891035 0.14906532 0.095137216 0.18733087 -0.21283934 -0.1383449 -0.15191342 0.039169364 -0.21961081 -0.063899055 -0.22303425 -0.15833855 -0.070066676 0.11609714
122 -0.13469526 -0.2814971 -0.00508533 -0.14967358 0.020300776 -0.03920067 -0.11686659 0.046286233 0.08812988 0.04225527 -0.10723304 0.03723021 -0.04651679 -0.14023517 0.012790559 -0.29631466 0.12134405 0.06459295 -0.10912222 -0.038672253 0.03256489 0.02093998 -0.010120334 0.11345917 -0.10961252 0.16286705 -0.009785971 -0.1684753 -0.13593201 -0.08297866 0.05931541 -0.01247463 -0.09220938 -0.20411314 -0.021926051 0.002979637 -0.028370364 -0.21123257 0.18334517 0.115143314 -0.022891203 0.2396422 0.013456166 -0.10333929 -0.117782116 0.010671443 -0.08150812 -0.26776087 -0.041630052 0.100184634 -0.19627325 0.13286467 0.09379715 0.19948134 -0.21395348 -0.14335684 -0.15480393 0.049390163 -0.22043903 -0.08526904 -0.22641192 -0.16093346 -0.07306327 0.1171174
71 -0.12378388 -0.28237522 -0.0072144605 -0.15838721 0.012818142 -0.042186104 -0.11707796 0.033174034 0.111089446 0.055531386 -0.11445669 0.057927966 -0.041947354 -0.13245377 0.020458337 -0.2856619 0.12599817 0.05441565 -0.102379024 -0.042959604 0.03632685 0.03668126 -0.01687691 0.11148714 -0.12287619 0.15742625 -0.00817076 -0.16224682 -0.122140735 -0.08567279 0.061732575 -0.012442986 -0.09190272 -0.21967025 -0.031109123 -0.005800536 -0.039084088 -0.22075129 0.17914262 0.102680676 -0.0046485034 0.22219504 0.013283626 -0.11367164 -0.10042402 0.025540194 -0.07130273 -0.2753782 -0.03593122 0.0949184 -0.20330937 0.14529091 0.079831354 0.19040711 -0.22135343 -0.1318421 -0.14859165 0.046027843 -0.22169541 -0.08161732 -0.2130927 -0.16384092 -0.0733491 0.11474559
88 -0.13910556 -0.27514392 -0.010089722 -0.14533798 -0.004187057 -0.039907888 -0.115255356 0.041917045 0.084505 0.04154984 -0.10114996 0.04709839 -0.05438373 -0.12364873 0.026762946 -0.2903711 0.14604719 0.057484478 -0.097383924 -0.04602564 0.042350274 0.025354164 -0.009143471 0.12245933 -0.11764047 0.16947445 -0.020909587 -0.17904602 -0.13847204 -0.09164626 0.06190433 -0.0056454353 -0.079501815 -0.20420215 -0.026863834 -0.003395056 -0.03459879 -0.21901251 0.17860425 0.10662359 -0.016288094 0.2268921 0.023856468 -0.10806125 -0.11434344 0.018368037 -0.06642845 -0.27455842 -0.050417952 0.0876369 -0.19592744 0.14074661 0.092155784 0.20290682 -0.2127386 -0.12343691 -0.14862221 0.044484098 -0.22031562 -0.07749468 -0.23047702 -0.15246688 -0.06082458 0.11674224
41 -0.14910182 -0.2881879 0.005481315 -0.13992105 0.016810756 -0.046080146 -0.108792596 0.039770734 0.0965614 0.046039894 -0.11220856 0.051506493 -0.048458416 -0.14250375 0.016113216 -0.27848232 0.13642675 0.06510523 -0.10353116 -0.036671627 0.03673499 0.023420678 -0.010791408 0.11167225 -0.10459293 0.16043149 -0.029609436 -0.16488518 -0.1439168 -0.10112165 0.060831107 -0.014387087 -0.100321256 -0.2160079 -0.032151237 0.0007670209 -0.01819985 -0.2128551 0.1609457 0.089430384 -0.0059859776 0.23384477 0.022128817 -0.12366868 -0.11032031 0.016063321 -0.0621921 -0.2637345 -0.038749583 0.08952175 -0.1974479 0.14214803 0.089535885 0.18403709 -0.21015483 -0.13456742 -0.14328694 0.06458612 -0.22858475 -0.0851996 -0.22863291 -0.15409765 -0.06273304 0.116117015
109 -0.14735693 -0.28194466 -0.0020132263 -0.15049115 0.02747128 -0.037474472 -0.10044142 0.038062133 0.09137621 0.05337979 -0.11398509 0.048993215 -0.04735799 -0.12717845 0.021416068 -0.2725948 0.12508795 0.062125903 -0.119135946 -0.032673262 0.034528825 0.03501708 0.0001087087 0.10793961 -0.12282372 0.17190321 -0.016161112 -0.16967343 -0.14713216 -0.088965684 0.07565622 -0.015774837 -0.08573041 -0.21911846 -0.016355356 0.0022494157 -0.02847545 -0.21939859 0.18018954 0.10753748 -0.019474402 0.22612512 0.026952308 -0.11223635 -0.11227687 0.02665322 -0.061605327 -0.2666204 -0.03300164 0.10664187 -0.19114698 0.14355902 0.08464502 0.19285104 -0.21078855 -0.1422296 -0.15431502 0.06260082 -0.22310221 -0.07644321 -0.23080103 -0.15895437 -0.0632061 0.110437736
69 -0.1354375 -0.28046072 -0.005185536 -0.15062068 0.011043965 -0.036019105 -0.10496094 0.032532915 0.08994725 0.051150538 -0.11512133 0.048796266 -0.05664489 -0.12567057 0.012724484 -0.28362074 0.13012454 0.045312352 -0.09908518 -0.047741015 0.036560494 0.032051325 0.0084214015 0.104932204 -0.12071759 0.16869591 -0.02060292 -0.1644486 -0.13992253 -0.0785517 0.052761763 -0.0048419763 -0.09408232 -0.2102207 -0.021408962 -0.0042913053 -0.02120934 -0.21110147 0.16564462 0.10764386 -0.003383979 0.2304012 0.02087944 -0.110520184 -0.10701395 0.025193732 -0.059051517 -0.27315018 -0.033391975 0.09976301 -0.21363041 0.13722327 0.08788804 0.1986943 -0.22791481 -0.12704541 -0.13972239 0.042566378 -0.2277715 -0.074676335 -0.22545022 -0.15549399 -0.06957248 0.10782906
236 -0.1385984 -0.27563334 -0.006943365 -0.14031708 0.01586682 -0.040095765 -0.111811996 0.031212673 0.10248108 0.040813375 -0.110842764 0.048110936 -0.049128834 -0.12926835 0.019018311 -0.28464726 0.14007072 0.06464811 -0.11081899 -0.044316176 0.0448941 0.03325444 -0.0006113719 0.10310174 -0.10581129 0.16691287 -0.015104075 -0.165688 -0.15552697 -0.08681094 0.07490008 -0.0211304 -0.091510795 -0.20848195 -0.023633426 0.0018856532 -0.021521587 -0.21683294 0.18050313 0.117110886 -0.0157152 0.22612028 0.021845037 -0.11356968 -0.11264333 0.01338623 -0.06348835 -0.26396558 -0.040196013 0.106427856 -0.20707637 0.13704135 0.09242242 0.18651217 -0.22068416 -0.13262928 -0.14705668 0.061953697 -0.22645791 -0.07638545 -0.24408588 -0.16211377 -0.0572018 0.10862317
51 -0.13891764 -0.2786095 -0.0054918635 -0.14909284 0.010300152 -0.035208907 -0.10900629 0.033599034 0.09947414 0.050420344 -0.105327725 0.04697426 -0.055845052 -0.14144114 0.017137669 -0.28907132 0.13812327 0.06977102 -0.11011673 -0.05207113 0.033803925 0.03794344 -0.0049437243 0.10380261 -0.11181044 0.16532086 -0.011330352 -0.1769155 -0.14260331 -0.082461394 0.06515985 -0.011222156 -0.09172693 -0.21495217 -0.026605573 -0.004682522 -0.017212959 -0.22037464 0.16675739 0.10205587 -0.016352817 0.23881762 0.015577484 -0.11711567 -0.103918634 0.018438686 -0.060875207 -0.26563534 -0.03403295 0.10143823 -0.1941512 0.12717573 0.0913352 0.18611237 -0.21379146 -0.13498282 -0.1476457 0.047459457 -0.22164881 -0.075637154 -0.22093064 -0.15784612 -0.079622336 0.1269993
50 -0.13967445 -0.28570735 -0.017776923 -0.14406183 0.005606753 -0.03970943 -0.105670474 0.04219848 0.09090637 0.059453737 -0.106838666 0.0431551 -0.05010383 -0.13786177 0.0069329813 -0.27617732 0.14281584 0.0729463 -0.09653783 -0.02965723 0.033836108 0.029162122 -0.0100674005 0.112874284 -0.099969774 0.16226946 -0.024421975 -0.16330391 -0.14934017 -0.08607075 0.06581822 -0.017141176 -0.091864474 -0.21000418 -0.022125332 -0.0022541415 -0.029523822 -0.20200777 0.17250454 0.107691884 -8.054775e-05 0.22613055 0.018669944 -0.11298905 -0.11020599 0.0147911655 -0.065616794 -0.2688775 -0.04060229 0.09608126 -0.19887829 0.14795165 0.0915873 0.18681824 -0.22293282 -0.1383275 -0.15343486 0.047821883 -0.22580563 -0.077894606 -0.21827675 -0.16928402 -0.06752292 0.112496465
115 -0.11336315 -0.28148055 -0.00040957052 -0.14350586 0.0116788605 -0.03816183 -0.10060674 0.038131777 0.09327739 0.042854257 -0.11317423 0.043148875 -0.050379664 -0.1487794 0.01854786 -0.28437108 0.13075982 0.05057095 -0.10125127 -0.049726445 0.035581823 0.031965982 0.0075613293 0.11032541 -0.10673192 0.16678907 -0.030777154 -0.16705981 -0.1352567 -0.08215394 0.05047806 -0.00059329596 -0.09351697 -0.22705151 -0.02626392 -0.01161544 -0.019958489 -0.22005308 0.16665468 0.09672662 -0.013744788 0.22887369 0.009918854 -0.09564232 -0.11501503 0.020623663 -0.05562518 -0.26950446 -0.045430005 0.090431884 -0.21041441 0.13540514 0.10115732 0.2011464 -0.21671578 -0.14242531 -0.15416712 0.056831934 -0.22152857 -0.06694716 -0.21921895 -0.16656104 -0.06472665 0.11433511
250 -0.14758073 -0.27234322 -0.002980562 -0.14370368 0.010787386 -0.03359337 -0.10912431 0.04545102 0.10086692 0.058831368 -0.10961064 0.045747183 -0.061227627 -0.12460896 0.012807019 -0.28191334 0.14200859 0.0661381 -0.1014069 -0.026061777 0.046718195 0.034702387 -0.011327941 0.10187468 -0.12212716 0.16583866 -0.016894486 -0.17243975 -0.14370662 -0.10210174 0.061248813 -0.011838946 -0.090264216 -0.20815374 -0.028523136 -0.0020163718 -0.031503648 -0.21665622 0.16591977 0.10161063 -0.017600056 0.23552202 0.023271913 -0.1079538 -0.1122513 0.019613134 -0.06389713 -0.25870878 -0.033470627 0.10470802 -0.2027003 0.15100344 0.09137639 0.18905357 -0.21254762 -0.14416966 -0.15070875 0.058561184 -0.23611215 -0.08088669 -0.23949206 -0.16043426 -0.0669581 0.10856268
128 -0.13908644 -0.27543753 -0.010011492 -0.15473045 0.013312654 -0.048525132 -0.09885898 0.04254719 0.101815656 0.043445576 -0.11798818 0.04194037 -0.04948831 -0.14465646 0.007827646 -0.28300864 0.12796593 0.07252908 -0.10096954 -0.03986056 0.028998846 0.023746734 -0.013365622 0.10220344 -0.109866455 0.1753857 -0.010511145 -0.17508984 -0.14279592 -0.09221855 0.06644382 -0.020026715 -0.084157966 -0.2201969 -0.04005533 -0.011614372 -0.021312533 -0.21085544 0.17906356 0.1106229 -0.009632525 0.22243017 0.022773197 -0.110372536 -0.11008018 0.016664792 -0.06241409 -0.26885515 -0.045022715 0.08494886 -0.20730154 0.14017072 0.08834566 0.19550604 -0.22090201 -0.12042672 -0.14761412 0.053407453 -0.23518503 -0.07972592 -0.23550883 -0.15809697 -0.062091753 0.110999726
6 -0.14206974 -0.27963108 -0.00660338 -0.14791195 0.012933168 -0.036194704 -0.095531955 0.0442323 0.098511465 0.04696485 -0.10929239 0.036368206 -0.04795682 -0.1340019 0.026666213 -0.29670918 0.13369021 0.053843986 -0.106110394 -0.040640064 0.041572507 0.02624847 -0.011953449 0.10601423 -0.11111653 0.15858732 -0.016518809 -0.18122931 -0.14173032 -0.07165474 0.06653114 -0.022986954 -0.07976662 -0.21837795 -0.018150816 0.00037861225 -0.02956758 -0.21463536 0.16735125 0.09893471 -0.027843865 0.23533197 0.028487252 -0.112146206 -0.11890545 0.022221759 -0.06489904 -0.27761298 -0.038117226 0.10157356 -0.19819225 0.14785175 0.0820621 0.19860882 -0.21181542 -0.14322661 -0.14938143 0.040668245 -0.21622454 -0.08166402 -0.22757737 -0.14667514 -0.06703537 0.11234756
218 -0.13543178 -0.28113103 -0.0021427039 -0.13731188 0.009307513 -0.034303997 -0.12082357 0.040905923 0.08938524 0.05202993 -0.10627707 0.043051306 -0.05498672 -0.12796286 0.014385047 -0.27703506 0.119622804 0.059345018 -0.1076355 -0.038591806 0.046396963 0.04019853 -0.01361539 0.117115736 -0.10847442 0.17284395 -0.011838546 -0.17385809 -0.13676436 -0.09176608 0.06643435 -0.008018229 -0.0930328 -0.22300816 -0.018889805 -0.007672852 -0.03757755 -0.22130667 0.1650772 0.10520058 -0.009916565 0.23506571 0.0116490405 -0.099332675 -0.10957031 0.022056835 -0.06831984 -0.2749205 -0.036634725 0.0980927 -0.190706 0.1485613 0.09509033 0.20118558 -0.22000705 -0.13088179 -0.1657878 0.04343259 -0.23237719 -0.08286579 -0.2190911 -0.1498016 -0.068213806 0.11775496
132 -0.13059501 -0.27035257 0.00060606434 -0.15914577 0.0060360497 -0.026836079 -0.11304974 0.032312963 0.08681504 0.05151386 -0.11245912 0.03715282 -0.051066592 -0.13513392 0.02097999 -0.2799175 0.12960225 0.067672364 -0.105992205 -0.04333806 0.03128011 0.027886963 -0.013611028 0.116588265 -0.116483964 0.18114601 -0.013638872 -0.18093352 -0.13998574 -0.08535114 0.07759445 -0.018544236 -0.09459227 -0.21504506 -0.023501989 -0.0025450622 -0.032190107 -0.2125768 0.17024314 0.10788041 -0.014561724 0.21942626 0.024539249 -0.10451714 -0.100561745 0.017973829 -0.06671633 -0.26110312 -0.037441555 0.08527925 -0.194006 0.14280413 0.09051796 0.20309007 -0.20211741 -0.14289409 -0.15973091 0.04723544 -0.22606872 -0.06877321 -0.22561593 -0.16638435 -0.06450842 0.11718192
53 -0.13389422 -0.2863328 -0.01259325 -0.15264861 0.026474526 -0.03589332 -0.10523844 0.042571887 0.086849466 0.045257207 -0.119579315 0.056817986 -0.05168133 -0.13858387 0.023694472 -0.28330758 0.14205395 0.068041556 -0.1078252 -0.028638136 0.049647085 0.024882715 -0.011519254 0.103667185 -0.11661973 0.1648396 -0.0020185162 -0.16782662 -0.14120042 -0.09449723 0.07650014 -0.024426807 -0.09329734 -0.22314513 -0.031046018 0.0027498729 -0.022543252 -0.21235994 0.17726353 0.10414344 -0.017491257 0.23380351 0.013301986 -0.10584644 -0.11207695 0.0097229 -0.06503305 -0.2578208 -0.030814718 0.09550534 -0.20201573 0.14074984 0.09558747 0.20618843 -0.20248868 -0.14560299 -0.1452001 0.039458595 -0.2193943 -0.06694116 -0.23848788 -0.16446091 -0.057916403 0.11825718
101 -0.14347547 -0.28082517 -0.018525274 -0.15052946 0.020288518 -0.04193306 -0.10163435 0.04398019 0.09734705 0.037228663 -0.114715554 0.04309448 -0.036961716 -0.12595673 0.018099308 -0.29160756 0.13780159 0.06958493 -0.11075529 -0.040779226 0.05165996 0.028849905 -0.009015934 0.121904895 -0.11817455 0.16995122 -0.02323444 -0.17189623 -0.15020652 -0.09219219 0.0661163 -0.019655814 -0.089207925 -0.22360298 -0.03669059 -0.0037140269 -0.029711748 -0.20253828 0.18170357 0.10052918 -0.010448082 0.2362091 0.01554153 -0.10004465 -0.11049406 0.026520949 -0.07168381 -0.2750017 -0.043831654 0.09668914 -0.19736573 0.14683664 0.10092978 0.18728352 -0.20505452 -0.14597203 -0.14854866 0.052339904 -0.2231791 -0.07624321 -0.2305642 -0.15184718 -0.06747763 0.116326
123 -0.13568719 -0.26464736 -0.0022968296 -0.1582764 0.023429595 -0.029650616 -0.10483636 0.040395968 0.09075284 0.045388654 -0.1133112 0.04627381 -0.049432527 -0.13266082 0.008612391 -0.28574526 0.12227065 0.066862844 -0.10975145 -0.0437244 0.048413645 0.032802723 -0.0061194818 0.10415705 -0.12672393 0.17068721 -0.009347306 -0.16326354 -0.13170594 -0.08979368 0.07681289 -0.023377916 -0.08756901 -0.21395299 -0.03176003 -0.0040838597 -0.034797445 -0.21874095 0.17175816 0.107383005 -0.013296672 0.22784966 0.019584673 -0.10390173 -0.10517518 0.014538566 -0.06384099 -0.25885877 -0.043384712 0.0921474 -0.20255817 0.14253572 0.08400061 0.20502175 -0.23207869 -0.14186132 -0.15770093 0.04905599 -0.23150556 -0.066849336 -0.23736185 -0.15148379 -0.069471724 0.12707886
75 -0.12539965 -0.28438333 -0.010371168 -0.15588237 0.018982327 -0.03342415 -0.09791574 0.03745609 0.09634197 0.041374315 -0.10684472 0.036612783 -0.054338213 -0.13327998 0.017613063 -0.29204595 0.1347906 0.05685005 -0.10484328 -0.03154043 0.044187665 0.025977343 -0.011285654 0.10375628 -0.11490862 0.16115111 -0.031210456 -0.16651668 -0.14664309 -0.096630685 0.07187846 -0.009404254 -0.08756784 -0.21534723 -0.024219293 -0.006004807 -0.027730934 -0.21317619 0.16702034 0.1054207 -0.0076501123 0.22138949 0.028464986 -0.10952347 -0.10751255 0.021218017 -0.058770504 -0.26887214 -0.029782467 0.10336522 -0.20218742 0.14621446 0.08924015 0.18623202 -0.20785101 -0.12938216 -0.14622371 0.0539399 -0.21699716 -0.074439704 -0.23771463 -0.15724812 -0.063174345 0.11198792
73 -0.14087984 -0.2747238 -0.011698368 -0.14968523 0.021670561 -0.042589538 -0.099653676 0.039444532 0.08486811 0.042174093 -0.11237078 0.045841973 -0.042055275 -0.1277601 0.01934416 -0.28712413 0.12851553 0.046881407 -0.10669136 -0.04309284 0.03877799 0.024665102 -0.014269252 0.10446546 -0.10947865 0.1597461 -0.016513655 -0.15729202 -0.12303615 -0.08609886 0.05766029 -0.015191501 -0.08097741 -0.22655207 -0.03560068 -0.015930813 -0.033977445 -0.22761059 0.16621992 0.09373059 -0.019199986 0.22379379 0.024687922 -0.11133287 -0.11828101 0.022128804 -0.06355421 -0.27513382 -0.039525397 0.09760305 -0.20796314 0.14549552 0.0939737 0.20646036 -0.21580997 -0.1402667 -0.15271924 0.046575364 -0.2225154 -0.075568534 -0.244515 -0.16153038 -0.069274954 0.10891004
199 -0.1330078 -0.28896177 -0.014142684 -0.14819898 0.01349186 -0.040190246 -0.10247433 0.043882 0.093248926 0.047379244 -0.10617566 0.046486955 -0.05946859 -0.124903865 0.011607202 -0.27877334 0.1330483 0.05906091 -0.09902442 -0.037771534 0.03857583 0.023233134 -0.0120452335 0.1040689 -0.11734468 0.16913098 -0.016764723 -0.16340347 -0.14514145 -0.098766364 0.07049326 -0.016998563 -0.09183049 -0.21362303 -0.029161671 0.002060771 -0.033111647 -0.21073122 0.17684422 0.11176134 -0.0045362613 0.24068332 0.008857163 -0.108739726 -0.10955365 0.017144041 -0.06787605 -0.26942128 -0.047201987 0.09882967 -0.20635408 0.15080439 0.0812098 0.19387689 -0.21006162 -0.14140075 -0.15674119 0.044980027 -0.2292101 -0.083728336 -0.23555808 -0.16360152 -0.06344139 0.12193947
248 -0.13678402 -0.28766263 -0.0071322736 -0.16070786 0.015706057 -0.03626026 -0.109286085 0.043733142 0.10187766 0.0569638 -0.116037734 0.037626382 -0.044148184 -0.14046979 0.017641684 -0.2769071 0.14113782 0.060931817 -0.11685071 -0.034307014 0.035020612 0.02879738 -0.007675366 0.11437755 -0.11390143 0.1660172 -0.01964804 -0.16487598 -0.13959771 -0.089905426 0.074564956 -0.026374498 -0.09660217 -0.22601064 -0.02289351 -0.005767627 -0.023762133 -0.20996435 0.17271653 0.10825809 -0.0087892115 0.236814 0.020309879 -0.11742045 -0.10975383 0.022171538 -0.07618013 -0.25668833 -0.022774216 0.09917732 -0.205834 0.14299126 0.09978035 0.17813438 -0.2233453 -0.13850912 -0.16468869 0.04945342 -0.21312374 -0.07268903 -0.22478916 -0.17330012 -0.07140501 0.11716465
46 -0.13390622 -0.27985266 -0.0020347296 -0.13925748 0.018349426 -0.03529196 -0.10430448 0.03759739 0.077118926 0.059985805 -0.10542316 0.040199433 -0.06028415 -0.1324035 0.020438509 -0.281483 0.1348184 0.061784837 -0.10786568 -0.032355998 0.03006402 0.025363758 -0.0057603344 0.11408753 -0.10232234 0.15506755 -0.03156361 -0.16790484 -0.1473576 -0.086409695 0.06313241 -0.017057078 -0.09589673 -0.21130522 -0.028379707 -0.0070380024 -0.029170698 -0.2068462 0.17879698 0.10975835 -0.010982663 0.21902093 0.014394769 -0.11570491 -0.115387596 0.02550918 -0.069487505 -0.26566738 -0.048011865 0.099277854 -0.19762859 0.1508651 0.0928895 0.19564888 -0.21904998 -0.13532391 -0.15711378 0.048068557 -0.23623139 -0.08188084 -0.2318057 -0.182251 -0.07399034 0.11383345
77 -0.1325723 -0.29459798 -0.010136968 -0.15725268 0.018122567 -0.036651168 -0.11811701 0.048478827 0.09309267 0.06129735 -0.10844925 0.042725515 -0.06855031 -0.12784171 0.021559352 -0.28743473 0.14166363 0.06845911 -0.111801244 -0.031821758 0.03801335 0.036576107 -0.0051438436 0.10390181 -0.110231094 0.16321398 -0.009311756 -0.16890717 -0.14206599 -0.09177162 0.069608025 -0.018242322 -0.086617574 -0.2039869 -0.04135475 -0.0029418182 -0.02161832 -0.21132635 0.16294184 0.09871621 0.0010328563 0.2324131 0.023736607 -0.1136261 -0.1135704 0.013837845 -0.06735739 -0.25747564 -0.028838169 0.092781425 -0.2158283 0.14537022 0.09014709 0.19387738 -0.22066839 -0.1336709 -0.1403387 0.05390732 -0.22214743 -0.071302146 -0.23663047 -0.15174262 -0.06833217 0.12691844
187 -0.12728058 -0.28513548 0.00036340463 -0.15516613 0.009430346 -0.039646264 -0.11515809 0.031975213 0.10153515 0.05377341 -0.10711163 0.043984268 -0.054952443 -0.13726589 0.023546414 -0.27749994 0.12266857 0.060216177 -0.09995167 -0.0405123 0.042457983 0.03427919 -0.003265928 0.11388647 -0.11564449 0.15547949 -0.013552121 -0.15402909 -0.13822342 -0.08453036 0.07145569 -0.025566436 -0.10244469 -0.21558036 -0.022002127 -0.003154652 -0.03296615 -0.21353447 0.1722185 0.10158894 -0.010323387 0.22755772 0.021502271 -0.114200264 -0.09820221 0.01801294 -0.06139167 -0.2617266 -0.028142773 0.10003054 -0.20532236 0.15581943 0.10089193 0.19813623 -0.20847528 -0.12948298 -0.1523383 0.040867154 -0.2161417 -0.07145762 -0.2170352 -0.16013922 -0.062071178 0.114236444
43 -0.13433145 -0.26107955 -0.0056831194 -0.14867003 0.02181011 -0.04137758 -0.096887104 0.035299305 0.09085506 0.050752398 -0.09791797 0.040117525 -0.0538796 -0.13633718 0.018735396 -0.28053868 0.1201006 0.058131713 -0.11420295 -0.040303633 0.033300325 0.028706426 -0.0017208376 0.09603788 -0.11951085 0.1766546 -0.014068084 -0.16885652 -0.14360698 -0.07632816 0.06743865 -0.006649955 -0.08049616 -0.2058164 -0.016792258 -0.0056345803 -0.030138612 -0.2123281 0.17985018 0.10954268 -0.008477286 0.22844025 0.02136228 -0.10702522 -0.11906656 0.010891691 -0.057115868 -0.26444978 -0.04512003 0.09495137 -0.20233436 0.14656875 0.09490317 0.19959454 -0.2144988 -0.14124578 -0.14639586 0.053199835 -0.23115216 -0.085078135 -0.23623435 -0.15267967 -0.07807845 0.118936285
4 -0.13740052 -0.26842427 -0.0043666176 -0.15014072 0.020876164 -0.041729435 -0.11886278 0.042673398 0.10018625 0.049389087 -0.101501405 0.05275742 -0.046027597 -0.1319239 0.0078355195 -0.28932554 0.1374247 0.054119606 -0.11549821 -0.025285399 0.047616273 0.027118 -0.019134747 0.11256541 -0.11959974 0.18163496 -0.027072756 -0.16732481 -0.14048982 -0.097400635 0.06293437 -0.020733198 -0.09265379 -0.21100129 -0.030507114 -0.010584136 -0.01889976 -0.20873915 0.17203097 0.10329913 -0.00591363 0.22593206 0.023438651 -0.107874185 -0.108210735 0.012808828 -0.06948579 -0.27145433 -0.044794038 0.08816173 -0.1997632 0.14769487 0.09632903 0.19609557 -0.22480024 -0.12954834 -0.1418749 0.050929535 -0.23042284 -0.08194034 -0.22546087 -0.16228634 -0.065074965 0.113474555
79 -0.12867652 -0.28404033 -0.003662349 -0.1555354 0.025511796 -0.037035387 -0.106122926 0.04189464 0.08675002 0.06208329 -0.10691992 0.037284378 -0.056705084 -0.13951655 0.0028985222 -0.2909421 0.15110518 0.059228495 -0.09857812 -0.036044724 0.041966952 0.026605796 -0.0037743198 0.10743899 -0.122697935 0.17391428 -0.010712025 -0.15944773 -0.13219571 -0.08279775 0.06056157 -0.010503616 -0.080927104 -0.21695031 -0.03223934 0.0047080764 -0.029444162 -0.20789808 0.17345789 0.0976778 -0.0010611439 0.23321663 0.01827225 -0.10813889 -0.118985735 0.01719646 -0.066845894 -0.2533063 -0.027845385 0.08212354 -0.2128241 0.13528608 0.087899685 0.2056819 -0.22920582 -0.13955271 -0.14765896 0.03849929 -0.22075072 -0.07040159 -0.23265414 -0.1686762 -0.080687754 0.11118634
189 -0.14466563 -0.2757294 -0.008215358 -0.15228465 0.019193713 -0.03455422 -0.107744925 0.03912689 0.10066481 0.04800624 -0.110431634 0.052247673 -0.05146289 -0.1323682 0.02157574 -0.27221343 0.1390997 0.05282268 -0.115800016 -0.055265266 0.032613907 0.03598422 -0.0016950006 0.108712755 -0.11732802 0.16851687 -0.017166303 -0.15865044 -0.13995676 -0.09180272 0.06975823 -0.012455587 -0.089676365 -0.220522 -0.025845323 0.0023975756 -0.03248133 -0.21421953 0.1786777 0.09927886 -0.017716564 0.22117503 0.021165539 -0.109475285 -0.11512266 0.028377196 -0.05446033 -0.25755683 -0.041451715 0.08892902 -0.19757374 0.14031026 0.0946981 0.18880269 -0.21692975 -0.13699841 -0.14734823 0.042614643 -0.23266216 -0.07424311 -0.22756575 -0.15779167 -0.0744389 0.122051604
149 -0.13981411 -0.28558844 -0.011928481 -0.15289015 0.022272078 -0.030964462 -0.115422934 0.048564672 0.092633404 0.050050102 -0.12300316 0.048299573 -0.052516203 -0.12601924 0.020665081 -0.28258848 0.120801486 0.05894473 -0.10677767 -0.042142686 0.052974276 0.027207077 -0.0064458554 0.109878495 -0.10179698 0.15284699 -0.008483537 -0.14743194 -0.14367184 -0.075044796 0.078345194 -0.018569337 -0.09392196 -0.20527603 -0.017660018 -0.0068777115 -0.03109188 -0.2028792 0.17532131 0.11048969 -0.005221942 0.22781178 0.007646172 -0.09985963 -0.11165262 0.023598269 -0.078419976 -0.2659049 -0.04745434 0.10524367 -0.20754254 0.14697978 0.08775252 0.19204593 -0.22925155 -0.13289349 -0.16244517 0.05036805 -0.22204347 -0.07372874 -0.23574704 -0.16698769 -0.064725265 0.121656485
237 -0.12793386 -0.28328815 -0.0005672428 -0.14458048 0.00482564 -0.028320786 -0.10619225 0.049762204 0.08719839 0.05132534 -0.10888088 0.055665106 -0.051091388 -0.13441442 0.015090812 -0.27961183 0.1353394 0.06217557 -0.11885249 -0.03432698 0.032052986 0.030249707 -0.015326188 0.09741917 -0.10384738 0.16373692 -0.0042973235 -0.17828017 -0.15423456 -0.08960087 0.07190119 -0.01533469 -0.08344177 -0.20709866 -0.029704485 -0.0102561815 -0.034481175 -0.20176736 0.17327291 0.116378576 -0.011966243 0.22668262 0.0056830393 -0.1095184 -0.11487662 0.014592743 -0.055605087 -0.2761693 -0.04157264 0.10931855 -0.20365484 0.14705847 0.08905365 0.1930587 -0.2176483 -0.13035925 -0.15530223 0.045506813 -0.23701376 -0.08649699 -0.22851872 -0.15381639 -0.07675426 0.11465057
127 -0.13453089 -0.29191163 0.0036575613 -0.15097158 0.016685642 -0.027937762 -0.107679754 0.035616845 0.09291194 0.049406637 -0.11434313 0.042152718 -0.057496425 -0.1376825 0.030238593 -0.2762856 0.13322993 0.06491286 -0.103755824 -0.031640645 0.04137994 0.037696235 -0.0049768533 0.10255209 -0.10838499 0.16774748 -0.00519403 -0.15990853 -0.15120113 -0.078494176 0.077505805 -0.013936068 -0.08774249 -0.21150832 -0.023583135 -0.0068668695 -0.021128992 -0.20923626 0.16991527 0.110697515 -0.016957613 0.2319499 0.0078163305 -0.10722555 -0.10688201 0.027438713 -0.06445437 -0.27008736 -0.034919158 0.10082629 -0.20931903 0.13744897 0.09278346 0.19437425 -0.207716 -0.1332655 -0.14858872 0.047715098 -0.22875309 -0.08332422 -0.22952282 -0.16634662 -0.07584975 0.11086691
151 -0.124822035 -0.2949092 -0.010133878 -0.156936 0.017388973 -0.02728243 -0.114475444 0.037923045 0.08593163 0.06585821 -0.103852615 0.05049972 -0.05601211 -0.124825634 0.014258632 -0.27750918 0.119633846 0.05246787 -0.0937231 -0.033173885 0.0398605 0.03195813 -0.0059024445 0.121481106 -0.12604113 0.16845652 -0.008097624 -0.1677742 -0.13282862 -0.09663346 0.06611098 -0.01892956 -0.099168 -0.21797137 -0.037906565 -0.011667267 -0.032835897 -0.19396403 0.17912655 0.10421615 -0.0068071107 0.24373159 0.0066297445 -0.10865056 -0.101384856 0.029396812 -0.0683592 -0.2697887 -0.046081908 0.10313056 -0.20771642 0.15415512 0.0907785 0.18313923 -0.22152478 -0.14596847 -0.1505057 0.037967592 -0.23605524 -0.071766056 -0.2149476 -0.1682989 -0.07216368 0.108026594
23 -0.12648907 -0.28093463 -0.00976306 -0.15066658 0.010351107 -0.024935856 -0.107332006 0.03943557 0.09569534 0.05040905 -0.116954826 0.04259612 -0.045721456 -0.13832745 0.01774321 -0.2832002 0.13239133 0.05813669 -0.09785899 -0.040205717 0.03756398 0.025600413 -0.008663229 0.11353046 -0.10545975 0.16219355 -0.02162955 -0.1723391 -0.14806996 -0.076395 0.065629296 -0.0135348905 -0.08205058 -0.2247207 -0.0358726 -0.009882847 -0.025094548 -0.21788374 0.16559964 0.09896339 -0.018516764 0.22720666 0.0077427607 -0.10938856 -0.100415856 0.023464782 -0.06650748 -0.25813818 -0.042508442 0.10264923 -0.2070371 0.13584925 0.09288731 0.1878325 -0.21852396 -0.14298533 -0.15527189 0.041373592 -0.2274331 -0.0886405 -0.22264756 -0.1654649 -0.066961184 0.11764509
103 -0.1390662 -0.2895108 -0.0026235925 -0.15029737 0.012655074 -0.035669852 -0.110573635 0.038298696 0.08810131 0.048850216 -0.113536514 0.03348364 -0.055462245 -0.13678849 0.01406658 -0.29500926 0.1252805 0.059102573 -0.108157545 -0.04268076 0.050680697 0.039805617 -0.011652181 0.11470812 -0.113563225 0.17115133 -0.008474286 -0.16420493 -0.14161217 -0.0877529 0.069628365 -0.014200991 -0.08858892 -0.2200288 -0.02149451 -0.0013821283 -0.034122087 -0.21745801 0.16823635 0.10752066 -0.010548737 0.23676012 0.016523397 -0.111099385 -0.10228834 0.023984209 -0.05919058 -0.2661151 -0.048233878 0.093969926 -0.19966872 0.14396875 0.088069804 0.19796129 -0.20941879 -0.14200394 -0.15354374 0.046409138 -0.22001201 -0.06251729 -0.2163044 -0.15214145 -0.07237316 0.11641813
131 -0.13262546 -0.2873364 -0.009412636 -0.15402593 0.022266865 -0.037031498 -0.10393245 0.035078816 0.08372039 0.055759445 -0.11541396 0.054641917 -0.05790231 -0.13914755 0.013596109 -0.29026407 0.14072487 0.061627828 -0.106121376 -0.037614178 0.050349828 0.03382312 -0.018269122 0.10328768 -0.11132169 0.16869222 -0.014423196 -0.17221944 -0.14593673 -0.09268957 0.07724604 -0.015014763 -0.100283526 -0.21948154 -0.0341377 -0.0014272825 -0.02973326 -0.21685685 0.17320873 0.097187966 -0.0030210193 0.2219954 0.02109683 -0.101586275 -0.10930947 0.015046777 -0.06920111 -0.2672316 -0.041768666 0.10267365 -0.20369782 0.13745788 0.08428633 0.18754317 -0.20573665 -0.14089394 -0.14092699 0.059023786 -0.21338002 -0.07002051 -0.2383974 -0.16452476 -0.06872606 0.12216574
82 -0.13067585 -0.28743765 -0.003441027 -0.16424741 0.007845597 -0.035239637 -0.10382359 0.036933262 0.08682853 0.058626696 -0.1222812 0.049737047 -0.05017655 -0.12881733 0.0134323295 -0.28363118 0.12489208 0.06472859 -0.12153005 -0.03342866 0.050173614 0.026308123 0.0010696332 0.10132489 -0.12564643 0.16842878 -0.012986083 -0.17773642 -0.15066527 -0.0904944 0.06651412 -0.02446824 -0.08522617 -0.22804871 -0.029870579 -0.0049290466 -0.026316652 -0.2075992 0.1864741 0.10024542 -0.003611288 0.22600737 0.025789678 -0.10754074 -0.104764245 0.016008275 -0.055874612 -0.26298663 -0.05486277 0.09069271 -0.19470674 0.15395164 0.086566545 0.19604173 -0.2062174 -0.13436985 -0.14422452 0.046419263 -0.22589889 -0.06906197 -0.21996765 -0.15868281 -0.060898546 0.117492735
38 -0.13199756 -0.28755832 -0.0028256946 -0.15017751 0.0065506157 -0.04548765 -0.10746302 0.037183505 0.09922456 0.043145515 -0.11793608 0.041290894 -0.04577274 -0.14090234 0.0041225115 -0.28548127 0.120969184 0.063827686 -0.09050028 -0.039110087 0.030593311 0.02981168 0.0016890969 0.10433072 -0.118472554 0.16185196 -0.0114576025 -0.16473024 -0.13073096 -0.090434715 0.065848075 -0.018436113 -0.09526751 -0.22832412 -0.03424498 -0.012409585 -0.037311412 -0.22494428 0.16950785 0.1069702 -0.014624275 0.22800677 0.028841058 -0.101888284 -0.11892436 0.027458398 -0.0660185 -0.270966 -0.030220192 0.08780357 -0.2016205 0.1357692 0.08549715 0.19540067 -0.220869 -0.13284259 -0.14603443 0.049390823 -0.2219839 -0.07196333 -0.23441936 -0.15933941 -0.060237437 0.11252671
188 -0.121904254 -0.2854758 0.0028811141 -0.16500634 0.017962424 -0.03614317 -0.102050476 0.04102856 0.095741816 0.05024702 -0.10466485 0.03551529 -0.046758123 -0.1382436 0.024794254 -0.2752855 0.12509683 0.059142362 -0.103290424 -0.038931463 0.0366375 0.023513293 -0.006123325 0.1063988 -0.11752237 0.17810725 -0.020386903 -0.17236562 -0.14114508 -0.085193664 0.07136906 -0.020801535 -0.095303774 -0.21464995 -0.02925062 -0.015876988 -0.037582066 -0.20886292 0.17703919 0.1141283 -0.013126132 0.23880592 0.019242978 -0.103452034 -0.099596106 0.013129788 -0.08263391 -0.2663611 -0.033938926 0.108324744 -0.19572908 0.14157178 0.095713906 0.19560415 -0.20844461 -0.13504456 -0.13996376 0.05474416 -0.22202535 -0.086973846 -0.22944906 -0.16312289 -0.07942065 0.104942225
28 -0.1443181 -0.29291552 -0.0047974647 -0.15152013 0.017742226 -0.03307373 -0.09963608 0.042067464 0.082078785 0.04959193 -0.105805315 0.046308964 -0.04335039 -0.12322676 0.016236546 -0.2948488 0.12967622 0.05700061 -0.09678913 -0.03558222 0.039805386 0.02974933 -0.01524255 0.11797302 -0.11767388 0.17484657 -0.017836371 -0.16956356 -0.13655882 -0.09092174 0.064128205 -0.012373373 -0.085530445 -0.21194057 -0.035442106 -0.017392794 -0.02662771 -0.20348878 0.17126131 0.107147396 -0.012799479 0.21678649 0.023029912 -0.100191765 -0.11715129 0.010245402 -0.073712684 -0.26723176 -0.0457068 0.08165387 -0.20466469 0.14012228 0.0932951 0.19108877 -0.1987878 -0.13033335 -0.1511395 0.035742674 -0.23345335 -0.07746312 -0.23184864 -0.1544069 -0.06678685 0.115590215
129 -0.13105185 -0.28331256 -0.001285427 -0.14734 0.02065906 -0.045584254 -0.11043488 0.043980274 0.0957531 0.052748054 -0.10353088 0.03582828 -0.04619291 -0.13975751 0.016850626 -0.27742898 0.1238518 0.06537751 -0.10402186 -0.028934846 0.03879624 0.03610792 -0.010858003 0.10608622 -0.10598342 0.17024954 -0.020469856 -0.16528255 -0.14661826 -0.09725026 0.08792112 -0.020783393 -0.08539396 -0.2058361 -0.030758722 -0.013952405 -0.021552343 -0.1985484 0.17168556 0.113915704 -0.009811138 0.23397027 0.009657176 -0.11040964 -0.10325929 0.01319962 -0.060491785 -0.25750306 -0.03957367 0.10734831 -0.2122612 0.15702072 0.095707074 0.1858674 -0.20515348 -0.13971949 -0.14248627 0.044452988 -0.22718796 -0.08379607 -0.22292164 -0.15629067 -0.06298652 0.10839787
136 -0.12503554 -0.29201338 0.0045699873 -0.1502897 0.01637866 -0.02352837 -0.09891541 0.041018244 0.09468584 0.045103926 -0.119275 0.047302984 -0.04661965 -0.13650668 0.018757423 -0.28347978 0.13165498 0.0618539 -0.11187817 -0.050752025 0.03342149 0.034362514 -0.011994139 0.10567432 -0.10427513 0.16486421 -0.016652053 -0.16909449 -0.14322941 -0.08255128 0.06664338 -0.020389011 -0.082725756 -0.21697758 -0.0250551 0.0002180113 -0.030477734 -0.211866 0.16672607 0.115361616 -0.031118456 0.22272986 0.010362182 -0.10660613 -0.11702059 0.019358447 -0.063200705 -0.27150872 -0.03361751 0.10353862 -0.20362541 0.14263281 0.080781996 0.19696249 -0.21794932 -0.13155496 -0.15881751 0.052000765 -0.21644904 -0.07689252 -0.22758688 -0.1570694 -0.06915159 0.112912126
221 -0.15133908 -0.27628163 -0.013539773 -0.14904307 0.025110716 -0.029468317 -0.09133233 0.04983843 0.0954867 0.041370172 -0.11910886 0.046404835 -0.034125548 -0.13041872 0.018101804 -0.2838534 0.12974359 0.06713948 -0.1095671 -0.041466106 0.048985202 0.032882825 -0.0066246293 0.10985795 -0.13012573 0.17148915 -0.0124563165 -0.1759138 -0.13243395 -0.0955697 0.060951497 -0.016678397 -0.096894145 -0.22028944 -0.022898829 -0.0036267827 -0.020890743 -0.2049046 0.17701544 0.1032851 -0.01832636 0.23852623 0.011878879 -0.09505626 -0.10761139 0.026865344 -0.068905994 -0.26853958 -0.03779817 0.09259405 -0.1949169 0.14035964 0.09459411 0.18053491 -0.21570846 -0.13658075 -0.15521668 0.050429847 -0.22327338 -0.068777114 -0.2210242 -0.1555128 -0.06731816 0.10960364
90 -0.13029931 -0.2866027 -0.010030368 -0.15795718 0.019305531 -0.04141025 -0.10068677 0.035631888 0.101407476 0.04955593 -0.1259173 0.039388046 -0.04679448 -0.13415661 0.012622975 -0.2819964 0.1249577 0.051758427 -0.10251176 -0.04558472 0.042170506 0.01940975 -0.0023293693 0.10311804 -0.11451976 0.17371482 -0.021691468 -0.16075279 -0.13732164 -0.08258383 0.07091489 -0.016860742 -0.09546628 -0.22120944 -0.02597174 0.0012458258 -0.0222565 -0.2074311 0.16520704 0.11579956 -0.0038264508 0.22426766 0.020419037 -0.091627575 -0.11013861 0.024733316 -0.065197855 -0.27045256 -0.034272786 0.10606723 -0.20938498 0.14843702 0.093188904 0.18989109 -0.2213075 -0.13127275 -0.14179848 0.047591314 -0.22489677 -0.06980283 -0.23290743 -0.16285901 -0.0784767 0.11716981
229 -0.121089526 -0.29133528 -0.0014336447 -0.140731 0.013762498 -0.044150617 -0.10584738 0.0357636 0.08438578 0.057354398 -0.11330432 0.03329811 -0.06308702 -0.12189281 0.007826714 -0.29138282 0.13363026 0.063665554 -0.108663164 -0.039007407 0.047034994 0.03160117 -0.013590047 0.11030166 -0.112055555 0.16999629 -0.012981751 -0.16527355 -0.13565187 -0.07897237 0.07373154 -0.02271185 -0.09141231 -0.21121372 -0.032904245 0.0050827563 -0.018936053 -0.21972138 0.17724605 0.09809598 -0.009983414 0.22723745 0.02353647 -0.102051504 -0.117428154 0.014772682 -0.05730326 -0.27721256 -0.033919167 0.09863248 -0.19658728 0.14610052 0.09608669 0.18734041 -0.23082408 -0.12556756 -0.15551716 0.049046688 -0.22357367 -0.07084034 -0.23257658 -0.1577408 -0.06574281 0.122016445
143 -0.13170885 -0.2804416 -0.0015213222 -0.14884257 0.02186742 -0.029655213 -0.10155633 0.03801607 0.09463293 0.05363375 -0.11933476 0.048597813 -0.048155017 -0.14344616 0.013692853 -0.2765943 0.11666893 0.06274287 -0.09456291 -0.057728555 0.045472685 0.014386944 1.0418298e-05 0.116374 -0.11486744 0.17488928 -0.013138186 -0.15558921 -0.13307466 -0.08451804 0.07473718 -0.013709342 -0.08970568 -0.21314888 -0.029933112 -0.0018454457 -0.030298471 -0.19975668 0.18335167 0.1122138 -0.023450645 0.23693617 0.0064948034 -0.10122716 -0.10707566 0.034243006 -0.0730809 -0.2723021 -0.048637096 0.09923439 -0.19301674 0.13663797 0.083885506 0.21058507 -0.22145605 -0.13522044 -0.1475744 0.03565396 -0.23100871 -0.079814844 -0.22729386 -0.1673 -0.07555069 0.11263451
281 -0.14099048 -0.27888805 -0.008093875 -0.14364946 0.012903665 -0.040804517 -0.10338022 0.033424683 0.0909115 0.028389845 -0.10835723 0.052387543 -0.04931676 -0.13724813 0.017882265 -0.28721824 0.13875572 0.059985712 -0.10572033 -0.03566281 0.04563746 0.03623963 -0.013941708 0.106986746 -0.11295294 0.17788082 -0.01969909 -0.16714811 -0.13699493 -0.09310393 0.07052183 -0.026237963 -0.09811719 -0.21608771 -0.019100718 -0.00016759835 -0.024512993 -0.22279505 0.17555788 0.10361439 -0.022263223 0.22962074 0.0152289355 -0.1117708 -0.1079481 0.016360654 -0.07110485 -0.27537295 -0.04187935 0.084317975 -0.20296805 0.14807838 0.08912477 0.19117627 -0.20693691 -0.14010385 -0.15749247 0.06393866 -0.22450317 -0.07397564 -0.22427724 -0.15266427 -0.06597305 0.12521747
204 -0.14079729 -0.27060533 -0.007865194 -0.15640986 0.011702064 -0.042028103 -0.105066136 0.03108055 0.0996986 0.05700149 -0.10761213 0.051019 -0.06229389 -0.13783668 0.014397779 -0.28187227 0.12380763 0.06711034 -0.09734959 -0.028045956 0.034235667 0.032873753 0.00011430646 0.104837045 -0.1173983 0.16985063 -0.0083532855 -0.17125857 -0.1326199 -0.09357577 0.07632996 -0.0116213355 -0.089354046 -0.21292871 -0.026482401 0.0060985438 -0.031782605 -0.20777787 0.18577532 0.11257379 -0.010124725 0.22489305 0.015139065 -0.099192426 -0.100190885 0.010187019 -0.07056977 -0.26998103 -0.040185437 0.094146095 -0.19705375 0.14084016 0.096994944 0.20971833 -0.20918779 -0.1395158 -0.14631793 0.054346375 -0.21802923 -0.0687966 -0.23179264 -0.15613922 -0.072371006 0.10831063
114 -0.13087586 -0.27995273 -0.012110071 -0.15385178 0.007984184 -0.035600517 -0.1108271 0.045764726 0.09673552 0.04031658 -0.11445301 0.0346524 -0.043793768 -0.12308347 0.03269764 -0.2894953 0.13840774 0.07469666 -0.10563436 -0.0447669 0.040115416 0.033359155 -0.018755853 0.120585866 -0.10218402 0.15761888 -0.024844095 -0.17003079 -0.15162078 -0.09712536 0.06592083 -0.026913987 -0.08305724 -0.2165803 -0.028948085 -0.006088267 -0.024157653 -0.20259695 0.1782199 0.10905435 -0.013805474 0.21544726 0.018952446 -0.10940546 -0.105001554 0.019611489 -0.06847179 -0.27316722 -0.049855623 0.09526541 -0.19656838 0.14764616 0.08787584 0.19013706 -0.20430791 -0.12931041 -0.15948859 0.048428662 -0.22792973 -0.07444695 -0.24001132 -0.16048494 -0.06434688 0.11721729
70 -0.12981728 -0.29592222 -0.007880439 -0.15244439 0.02013259 -0.036201596 -0.11188824 0.04725546 0.09622026 0.059287988 -0.12182241 0.059430152 -0.055518217 -0.1314597 0.008777966 -0.28601396 0.12295591 0.056436654 -0.10087878 -0.037398417 0.045599036 0.030730393 -0.010555711 0.099804685 -0.106500864 0.16702262 -0.022639489 -0.16913366 -0.13777086 -0.08048536 0.06976059 -0.013676516 -0.09571829 -0.22337557 -0.025925487 -0.0041300794 -0.024030618 -0.21093996 0.17047401 0.108292244 -0.0037249245 0.22944927 0.0027605135 -0.11046081 -0.1228285 0.023793984 -0.0684954 -0.26525557 -0.052897938 0.0998316 -0.1926112 0.14031778 0.08387395 0.1893471 -0.21676077 -0.12703334 -0.15220869 0.060316253 -0.23718321 -0.077133976 -0.22668564 -0.15673399 -0.07275325 0.12217391
242 -0.14097895 -0.27600247 0.003372275 -0.14830263 0.0004404242 -0.029708156 -0.11016384 0.049457654 0.10343625 0.05741538 -0.1173682 0.03873643 -0.05629282 -0.12802283 0.019776996 -0.28382647 0.13753542 0.068431474 -0.1272493 -0.035212833 0.050425302 0.03434434 -0.01039809 0.11020273 -0.10278462 0.15895203 -0.011225697 -0.16511852 -0.15755539 -0.10291679 0.073179625 -0.035036776 -0.08293997 -0.20123817 -0.017119084 -0.0039056703 -0.017607946 -0.21182778 0.16654445 0.112851314 -0.01774562 0.23269016 0.020728748 -0.10889562 -0.101757675 0.016487869 -0.064614825 -0.26633692 -0.039429314 0.104238346 -0.195733 0.14229064 0.093170784 0.18859953 -0.20183519 -0.12790689 -0.15802298 0.05210894 -0.22444159 -0.07558786 -0.23366669 -0.15235573 -0.068218246 0.11045672
147 -0.13315895 -0.27599606 -0.009386167 -0.15235238 0.011048818 -0.044534437 -0.10474949 0.047573403 0.10877952 0.05301913 -0.10716276 0.031997874 -0.048104547 -0.14200291 0.02570924 -0.3053922 0.12605175 0.055403143 -0.110418834 -0.04128876 0.03241687 0.023033893 -0.011179474 0.12467882 -0.10745314 0.17188625 -0.021983663 -0.16472702 -0.14436536 -0.091182776 0.059356906 -0.0087307785 -0.0947568 -0.21392275 -0.033000544 -0.007202103 -0.028298492 -0.19858369 0.16575314 0.10427393 -0.008867334 0.23115693 0.011289949 -0.098650314 -0.10882024 0.01882326 -0.07108506 -0.26665512 -0.034085028 0.09394685 -0.19952893 0.13457634 0.09950029 0.20186554 -0.20514908 -0.13440648 -0.14428674 0.03660688 -0.2235285 -0.08396935 -0.23447096 -0.15769199 -0.07705946 0.11103581
261 -0.14475892 -0.29455933 -0.009484684 -0.15405042 0.015263636 -0.041591983 -0.1038448 0.042045143 0.097177155 0.055968605 -0.11017513 0.038137868 -0.058163587 -0.12664782 0.015175051 -0.29364777 0.1377646 0.06987849 -0.114475235 -0.03628943 0.035873346 0.030015912 -0.019607315 0.10363174 -0.10470336 0.16084164 -0.024671672 -0.16404389 -0.14166012 -0.095818594 0.07109793 -0.019643469 -0.080926344 -0.21992105 -0.026477357 -0.0067522754 -0.036521718 -0.21258247 0.16251707 0.097863786 -0.011683308 0.2233398 0.020955933 -0.108773634 -0.11836476 0.0131217055 -0.06049737 -0.26378372 -0.036457375 0.0985361 -0.19878495 0.14782695 0.10390917 0.20336537 -0.21410446 -0.1320936 -0.15564075 0.05328066 -0.22193086 -0.084345 -0.22569166 -0.1559597 -0.060990706 0.10960848
32 -0.1392068 -0.28419623 -0.011451198 -0.15671653 0.017534275 -0.04072828 -0.10565592 0.038744003 0.09320921 0.05703363 -0.11123634 0.049638864 -0.05355302 -0.13067271 0.017854346 -0.27910352 0.12142195 0.05122758 -0.10707893 -0.042086434 0.033340745 0.024572805 -0.0051352074 0.113278024 -0.11756762 0.17172965 -0.015988732 -0.16063087 -0.13970357 -0.08846173 0.07116324 -0.016689619 -0.089145705 -0.21328747 -0.03653323 -0.005902396 -0.020465659 -0.1971291 0.17286815 0.09382169 -0.026303183 0.22941807 0.010171046 -0.10029888 -0.106632784 0.016460817 -0.06280972 -0.25379288 -0.036621436 0.09632598 -0.20528431 0.14437944 0.090126835 0.2038527 -0.21787184 -0.14288042 -0.15021607 0.041573398 -0.22890879 -0.07322907 -0.22589806 -0.16461767 -0.07421662 0.12055765
108 -0.15129669 -0.27471918 -0.006766011 -0.16195084 0.026610829 -0.03636207 -0.09856483 0.04154233 0.090523906 0.05732802 -0.09963264 0.038996834 -0.04506915 -0.136866 0.022749651 -0.2934886 0.123808905 0.052527413 -0.10336674 -0.032017108 0.043015946 0.028218044 -0.0061734677 0.11283052 -0.10936624 0.16750184 -0.023398878 -0.16534035 -0.14059655 -0.09914759 0.070916 -0.0056024296 -0.09666636 -0.22238506 -0.024352655 -0.0021674566 -0.029677304 -0.20576216 0.17432639 0.10768654 -0.0047245873 0.23007521 0.016479542 -0.10450519 -0.10858359 0.020859836 -0.06765367 -0.26337728 -0.041544437 0.09507182 -0.20307417 0.13206963 0.10021547 0.19557796 -0.2075985 -0.1330522 -0.14504234 0.04306857 -0.22025533 -0.07513122 -0.23541313 -0.15731855 -0.06763306 0.11139544
63 -0.13553946 -0.28446487 -0.0056657265 -0.15454435 0.020100469 -0.036499772 -0.10183335 0.045562766 0.08242201 0.061574277 -0.10776624 0.03054119 -0.04408148 -0.12902156 0.025567038 -0.29143983 0.1342633 0.064681135 -0.09929998 -0.041855264 0.039846342 0.03547637 -0.0091334665 0.12218657 -0.11747235 0.17580271 -0.025209734 -0.17045593 -0.13610725 -0.08901822 0.06831926 -0.01604164 -0.08326582 -0.22292387 -0.038417947 -0.0023965577 -0.017597685 -0.20188099 0.1767356 0.115221165 -0.008380417 0.23183891 0.021061068 -0.10993362 -0.107458465 0.022306446 -0.06977564 -0.2748033 -0.034629393 0.09473955 -0.1945955 0.1422213 0.09653082 0.18859886 -0.20307049 -0.13217065 -0.14403003 0.04541638 -0.22941951 -0.06266137 -0.2231853 -0.16509779 -0.0789833 0.103920184
98 -0.13486098 -0.28848544 -0.010752105 -0.14891794 0.03172435 -0.051460143 -0.103231005 0.053253323 0.09977853 0.04771429 -0.10321585 0.04344687 -0.03212206 -0.13253629 0.031956527 -0.30251324 0.1365192 0.061043885 -0.10578441 -0.036407106 0.041749064 0.026576463 -0.0072273496 0.11095852 -0.11714113 0.18285789 -0.0078164665 -0.16627905 -0.13863917 -0.10102903 0.069883205 -0.015061474 -0.0952816 -0.21070933 -0.03128889 -0.01415339 -0.020327464 -0.20611951 0.18163975 0.11731604 -0.008007201 0.22859563 0.008829101 -0.10254924 -0.10809375 0.011036376 -0.063564256 -0.266365 -0.044767186 0.09763773 -0.20480771 0.13569462 0.0975991 0.19503146 -0.21006575 -0.1341326 -0.1446096 0.04850648 -0.22905414 -0.06956375 -0.23375285 -0.14545757 -0.08391529 0.096371725
217 -0.13590927 -0.27244192 -0.01683708 -0.15184678 0.0105931945 -0.0382686 -0.10707539 0.038996927 0.08333949 0.057718698 -0.1186602 0.033484753 -0.043328464 -0.1472768 0.016502341 -0.2866677 0.13081932 0.06644561 -0.10548882 -0.048065983 0.035467524 0.02426875 -0.012958316 0.10967577 -0.11959917 0.15626138 -0.02857677 -0.16878138 -0.1333306 -0.08858905 0.063387685 -0.0052048517 -0.08768796 -0.21311274 -0.032286156 -0.006099679 -0.028916681 -0.21416919 0.16926734 0.10258005 3.2371732e-05 0.22696896 0.0029749076 -0.11678182 -0.105350286 0.030014224 -0.05756626 -0.26475766 -0.04660776 0.099435136 -0.20279926 0.13926098 0.10479547 0.18388532 -0.21568398 -0.1311781 -0.15362804 0.046092656 -0.22506206 -0.079803005 -0.22892562 -0.17614734 -0.062801555 0.11245045
