195 64
54 -0.4447477 -0.25072074 0.14762822 0.0531455 0.09298984 -0.025835842 -0.15345587 -0.12818614 0.055549886 -0.0651223 -0.12414993 0.079588346 -0.073400095 -0.12729901 -0.13720265 -0.10318379 0.2947726 0.022987973 0.1288487 -0.1673863 0.14317657 0.042162113 -0.13182068 0.08107967 -0.1446454 0.061239995 0.11859594 -0.1452994 0.014283885 -0.15627292 -0.12006657 0.1051566 -0.1534362 0.03593877 -0.084396124 0.036154345 -0.12254319 -0.24043588 0.10320959 -0.02874615 0.0726017 0.088144116 0.010341504 -0.09192737 -0.034327284 0.042285357 -0.10623342 -0.30006346 0.06510068 0.037444446 -0.10914461 -0.053915888 0.014261836 0.10094996 -0.17923695 -0.2528262 0.017225407 0.0932694 -0.30410367 -0.087010145 -0.22069423 -0.07060369 -0.121817425 -0.08294538
96 -0.41528028 -0.23669703 0.13170528 0.02666987 0.093950726 -0.0347146 -0.18191162 -0.122255914 0.12137252 -0.019431245 -0.12515223 0.12476705 -0.11888375 -0.21156979 -0.21096875 -0.09053798 0.3088404 -0.004997954 0.08164435 -0.07023632 0.12908703 0.05992795 -0.014308667 0.0076742726 -0.17675404 0.09642822 0.042335704 -0.1285306 -0.002423697 -0.14529575 -0.123805225 0.103028536 -0.14777723 -0.011223205 -0.038758695 -0.02551745 -0.08402154 -0.23507991 0.09931182 -0.01200606 0.12721863 0.1088994 0.0031009524 -0.08168236 -0.107628495 -0.025207711 -0.05375724 -0.28524202 -0.0050503695 0.07191898 -0.12168124 -0.06020871 0.010526451 0.18336827 -0.21408255 -0.26902267 0.03154757 0.11304607 -0.25558108 -0.13139763 -0.21130604 -0.085746676 -0.10090633 -0.083166786
94 -0.43210635 -0.2565587 0.14596781 0.032120634 0.10213582 -0.02286555 -0.17030537 -0.087504886 0.09645851 -0.05797507 -0.10282556 0.11475137 -0.11017358 -0.18676011 -0.18024729 -0.07399631 0.3004638 0.001650834 0.108238146 -0.13914408 0.1622813 0.036498345 -0.04611972 0.064099655 -0.1681561 0.095576055 0.060904443 -0.122558914 0.026887005 -0.14140116 -0.13399237 0.090845585 -0.14839509 0.0020435366 -0.048218716 0.010969956 -0.099131614 -0.25151592 0.086047545 -0.026472941 0.08753781 0.12829167 0.015509427 -0.095437534 -0.08098898 0.0043417644 -0.07202998 -0.2972906 0.0040909247 0.045723606 -0.14050362 -0.06600747 -0.0031954483 0.1262636 -0.21962677 -0.25759593 0.042542078 0.11275699 -0.24818547 -0.12092045 -0.20099665 -0.08139539 -0.10866869 -0.080441326
225 -0.4144343 -0.23552838 0.14495878 0.055507697 0.08086006 -0.016846891 -0.15997949 -0.13011612 0.091542944 -0.040999886 -0.12571804 0.11699782 -0.08723775 -0.1773948 -0.1769599 -0.10089289 0.30682796 -0.005180697 0.084748365 -0.112559624 0.14810725 0.05007463 -0.058237538 0.033940878 -0.15905198 0.070547745 0.07512939 -0.1475694 0.01333907 -0.13973956 -0.13567257 0.10169734 -0.14875937 0.007618693 -0.060746294 0.0028934283 -0.0927893 -0.25683743 0.087415144 -0.03175712 0.10422682 0.10356957 0.00741408 -0.08869887 -0.067942016 0.0019913309 -0.07438111 -0.30171648 0.018068427 0.04404749 -0.112704396 -0.0671462 0.0085384855 0.14395669 -0.20933455 -0.24174334 0.030463694 0.10873593 -0.26089102 -0.106962256 -0.20453812 -0.060443237 -0.1206114 -0.07901146
86 -0.42566612 -0.2626639 0.13500677 0.06780388 0.085029274 -0.036963448 -0.1825657 -0.12254449 0.11105838 -0.02626722 -0.13996187 0.13539022 -0.106817715 -0.19772214 -0.17296928 -0.08359234 0.3147486 -0.0068097543 0.076586835 -0.0783766 0.14656892 0.044713244 -0.028659573 0.016575417 -0.19428375 0.10394789 0.049482953 -0.15941039 -0.0019420794 -0.14343216 -0.13425775 0.12249103 -0.1705354 -0.018317372 -0.030287948 -0.021623757 -0.085752845 -0.27159494 0.10029127 -0.04295428 0.13642384 0.09293031 0.008737294 -0.08435611 -0.08980559 -0.00072174205 -0.071668625 -0.31708348 -0.0019521902 0.057031594 -0.12123541 -0.057256524 0.008750922 0.14441903 -0.21359214 -0.28245378 0.050802644 0.12357046 -0.24995616 -0.14277431 -0.2010007 -0.08673714 -0.12427386 -0.09036517
246 -0.41863403 -0.23380929 0.13540906 0.0289312 0.0709464 -0.03368484 -0.18528351 -0.12858173 0.09960793 -0.010359303 -0.11305282 0.13224338 -0.11944931 -0.21659864 -0.19857003 -0.10775757 0.3292916 -0.0010762466 0.10234131 -0.085539915 0.110132635 0.051441837 -0.047263194 0.02259009 -0.16782787 0.090664715 0.06841669 -0.14264643 0.02069979 -0.13600856 -0.12387983 0.08719547 -0.13961221 0.0008096305 -0.05960963 -0.02434119 -0.07131785 -0.25959533 0.09655601 -0.0066026635 0.1412018 0.093512505 0.0147076305 -0.071124926 -0.09460407 -0.027270844 -0.07385272 -0.26824546 0.00020817036 0.05338652 -0.11241346 -0.07145588 0.0156887 0.16078492 -0.20936303 -0.25246263 0.021223033 0.08309202 -0.2586427 -0.12945612 -0.21264789 -0.083903566 -0.100203946 -0.07719799
89 -0.4306628 -0.23825157 0.14273676 0.029192971 0.112007424 -0.01064469 -0.15019342 -0.10350722 0.08833308 -0.054901112 -0.11465633 0.114630036 -0.105376996 -0.17997025 -0.16171683 -0.09785591 0.2859594 0.0020058884 0.11291008 -0.13704418 0.15735361 0.029241065 -0.059601925 0.0468662 -0.17618692 0.08112678 0.07843018 -0.1256375 0.019874763 -0.13898236 -0.13336605 0.08732062 -0.15946992 0.0066105314 -0.066998415 0.013486608 -0.09966079 -0.25536388 0.08681212 -0.039807443 0.099468336 0.11966574 0.0059755547 -0.09465595 -0.06413262 0.008133717 -0.084889665 -0.2985198 0.018921917 0.045759566 -0.13121673 -0.084453404 0.0007318847 0.1307272 -0.2161983 -0.2722461 0.031583905 0.120410934 -0.27371398 -0.120377615 -0.21531598 -0.07487112 -0.10322525 -0.07471253
1 -0.40946135 -0.22913076 0.12047953 0.019958034 0.064175196 -0.049596522 -0.17975374 -0.13723746 0.14034523 0.004886926 -0.13229248 0.14130545 -0.12990344 -0.24297777 -0.22568901 -0.10587292 0.31855115 -0.034010362 0.05938252 -0.0431009 0.108146206 0.05560941 0.01543444 -0.02120663 -0.1757823 0.09641391 0.0305934 -0.1342122 -0.011693569 -0.14010116 -0.11334251 0.10189682 -0.12718396 -0.033966985 -0.027383776 -0.07124003 -0.058289163 -0.24298936 0.11638804 -0.016433636 0.15415983 0.07693246 0.011267047 -0.05828624 -0.12887144 -0.062419914 -0.04901812 -0.268555 -0.012971185 0.094807826 -0.126253 -0.05439072 0.013945689 0.22034042 -0.22508664 -0.27495977 0.025980743 0.099772476 -0.23687197 -0.12995203 -0.20670025 -0.08077293 -0.11209674 -0.08981179
58 -0.4337176 -0.26831302 0.1388169 0.03387196 0.0966341 -0.022017403 -0.17481062 -0.07905077 0.10376134 -0.06317821 -0.12655635 0.11381608 -0.10640661 -0.17395413 -0.17139079 -0.080106996 0.29455978 0.005645857 0.09575373 -0.12846631 0.16500697 0.028273094 -0.036826536 0.05918394 -0.18552545 0.09873541 0.046603166 -0.14862365 0.03437751 -0.13284639 -0.14610308 0.116675355 -0.16065162 -0.00540837 -0.032132097 0.014200728 -0.11125292 -0.24753818 0.07834662 -0.041593086 0.085534506 0.11950433 0.002697722 -0.10522762 -0.069685556 0.011658804 -0.0724362 -0.31789267 -0.0048485827 0.037359912 -0.13860457 -0.085713066 0.0010259971 0.13025919 -0.22141735 -0.26973727 0.039535154 0.13705283 -0.23822218 -0.13154528 -0.18039945 -0.088392906 -0.11420004 -0.09064241
83 -0.41114196 -0.22297855 0.10942165 0.06103125 0.05717841 -0.045369662 -0.18164207 -0.17281999 0.10452222 0.02421766 -0.12672159 0.1425554 -0.10712393 -0.1902488 -0.1836305 -0.10978503 0.31784835 -0.038531765 0.0634658 -0.047060262 0.112843774 0.06871679 -0.03202501 -0.021838116 -0.14393103 0.06761159 0.07344092 -0.16421764 -0.03712776 -0.13951434 -0.115915276 0.12439801 -0.15472142 -0.02104777 -0.040470906 -0.052916653 -0.08010014 -0.25204018 0.095111616 -0.039165363 0.15865442 0.047900394 -0.010897441 -0.075634375 -0.090422355 -0.03455046 -0.04048082 -0.27474654 0.022171939 0.09007423 -0.08554825 -0.046070285 -0.0005123147 0.18402669 -0.19440679 -0.26062715 0.026548315 0.08553807 -0.27907473 -0.10825847 -0.21523185 -0.077993274 -0.14435685 -0.096482694
119 -0.42112917 -0.25204197 0.1344767 0.057946876 0.100730695 -0.025288828 -0.16166835 -0.12303753 0.074262686 -0.055842567 -0.13411172 0.0954823 -0.09622582 -0.15989903 -0.17146873 -0.083925374 0.28402957 0.0040986603 0.086131506 -0.100871235 0.14374548 0.041055076 -0.05459528 0.047520988 -0.16145125 0.06614626 0.06765753 -0.13931616 0.008823157 -0.13539705 -0.1341467 0.100127175 -0.16322088 0.0023582752 -0.046114367 0.015090918 -0.09907645 -0.2578924 0.096873604 -0.046014216 0.09794773 0.09553732 -0.0006019853 -0.103319466 -0.06361604 0.021051532 -0.07944213 -0.30366847 0.0058825836 0.053053018 -0.111113615 -0.055973724 -0.0018765427 0.10962089 -0.20568113 -0.25449684 0.024266522 0.12427099 -0.26373026 -0.111312546 -0.20435177 -0.07962476 -0.1173243 -0.082193136
52 -0.4531098 -0.28798828 0.17061757 0.049494896 0.13832459 -0.002455708 -0.15909956 -0.037446756 0.08965736 -0.12904683 -0.11935008 0.09373482 -0.10151457 -0.16120115 -0.16997954 -0.053381294 0.27299953 0.034199066 0.11646182 -0.19284302 0.21907786 0.005986406 -0.06074692 0.098015346 -0.22417544 0.10028955 0.04911088 -0.10019629 0.076557904 -0.15000871 -0.16213441 0.11452423 -0.1630416 0.014372177 -0.03802373 0.071743876 -0.14936166 -0.26634234 0.072847694 -0.07764455 0.0379097 0.18509887 0.00450148 -0.121107206 -0.044607647 0.05503117 -0.09124344 -0.33756962 -0.0132312095 0.018089905 -0.17383634 -0.117471434 -0.016866706 0.060470566 -0.23250166 -0.2818522 0.054475665 0.17520496 -0.22838153 -0.15433301 -0.17022309 -0.084129974 -0.10554943 -0.07517719
144 -0.42755282 -0.25945213 0.13780382 0.053679667 0.12011359 -0.01335287 -0.17959982 -0.060056716 0.12242709 -0.06507721 -0.1103362 0.12969235 -0.130913 -0.21065208 -0.20173122 -0.054323755 0.30327013 0.004136925 0.08906116 -0.11045104 0.16903906 0.029756602 -0.003489727 0.05130999 -0.21061924 0.10019416 0.013012419 -0.11860669 0.0462773 -0.14765821 -0.14817691 0.10661648 -0.16427106 -0.02370946 -0.017459672 0.0020377424 -0.089263394 -0.2648996 0.08982528 -0.045208 0.105990276 0.15590349 0.008591994 -0.09757963 -0.09765971 -0.010850829 -0.07093985 -0.31972212 -0.03312477 0.055104703 -0.14613785 -0.09849006 0.0035864194 0.1381702 -0.24997996 -0.28093207 0.04326669 0.15705656 -0.21366757 -0.16965415 -0.17738517 -0.08760018 -0.09089144 -0.07230041
244 -0.4388263 -0.26786947 0.15105696 0.044874214 0.12288771 -0.0077387476 -0.17275736 -0.061924156 0.11643166 -0.083406314 -0.11776648 0.10855455 -0.11543756 -0.19336809 -0.20203452 -0.061318025 0.28889388 0.010714999 0.112577714 -0.12929924 0.18713039 0.034160662 -0.028279174 0.07140902 -0.21873769 0.091559306 0.045393 -0.11681618 0.056996536 -0.14843291 -0.15467739 0.09483199 -0.15949008 0.0009411683 -0.024869062 0.043994907 -0.11346421 -0.2590272 0.078644566 -0.05853497 0.07187295 0.17205097 0.00017997833 -0.10623254 -0.0616208 0.0128043955 -0.08234184 -0.3197118 -0.028270373 0.046378527 -0.15810914 -0.09927427 -0.007868899 0.10940024 -0.2368821 -0.2728112 0.05044826 0.1542383 -0.20773427 -0.1399575 -0.18478326 -0.1003519 -0.08819403 -0.07478308
142 -0.4338615 -0.2630943 0.14042889 0.02088146 0.114897415 -0.0058029876 -0.17585123 -0.07398436 0.11204782 -0.052094307 -0.12222687 0.11188949 -0.12569655 -0.19920129 -0.20312181 -0.07648696 0.3058568 0.012461101 0.09873806 -0.10662762 0.1472037 0.029871915 -0.030687707 0.04964403 -0.18970127 0.106959336 0.043329716 -0.114123315 0.043329537 -0.13925128 -0.14242482 0.106087394 -0.14175913 -0.006990153 -0.030475618 0.012083043 -0.09700476 -0.26427865 0.09134883 -0.022854146 0.10085539 0.14508311 0.014221805 -0.10284644 -0.098043315 0.0002393748 -0.07708973 -0.2953854 -0.015169144 0.047801986 -0.13279177 -0.076081626 0.0068851705 0.12917648 -0.24157631 -0.26451403 0.037616488 0.13119212 -0.22605553 -0.14828537 -0.18725993 -0.08018089 -0.10187602 -0.083383836
126 -0.43150574 -0.27848846 0.14010903 0.04851094 0.14055422 -0.0015708241 -0.18151346 -0.027043113 0.13910298 -0.10533323 -0.10628612 0.123019174 -0.13345428 -0.2254681 -0.21674009 -0.039080076 0.27685148 0.008749888 0.09890265 -0.13534504 0.19211277 0.024850978 0.010217335 0.06250295 -0.23941523 0.10697161 0.02064107 -0.09928413 0.06618951 -0.15030786 -0.17346966 0.095162645 -0.16205196 -0.028564556 -0.009611175 0.040520474 -0.113011666 -0.25724745 0.07439069 -0.052353263 0.074444994 0.1849745 0.004174646 -0.10313756 -0.09320773 0.007741951 -0.06557877 -0.33026397 -0.04870259 0.0380225 -0.17533201 -0.115242474 -0.008478415 0.11096263 -0.26776445 -0.2913717 0.055520985 0.20014913 -0.18066747 -0.17753999 -0.1629869 -0.09512919 -0.078769 -0.06941221
2 -0.41752127 -0.2582242 0.1349223 0.03664983 0.10020801 -0.024754353 -0.17590936 -0.06900282 0.118394636 -0.061780874 -0.123121865 0.1313603 -0.119370095 -0.2168401 -0.19857912 -0.07109808 0.2887705 -0.0036687292 0.08313237 -0.114459775 0.16528523 0.028430894 -0.0022885667 0.040099494 -0.21008585 0.10569225 0.026235124 -0.120639555 0.03890723 -0.14054225 -0.1425041 0.100995235 -0.16443026 -0.01682016 -0.028527973 0.00310123 -0.08700888 -0.2599812 0.08180933 -0.049461413 0.10436905 0.13886744 0.01603802 -0.09748528 -0.09682082 -0.0074152714 -0.06629837 -0.31832498 -0.027416 0.0408357 -0.14539295 -0.09536357 0.0030754593 0.14353731 -0.24836181 -0.2859661 0.050508343 0.15985544 -0.22597669 -0.1444822 -0.18641344 -0.08508564 -0.109197035 -0.08865565
145 -0.4462098 -0.28302115 0.15216936 0.034014158 0.15195769 0.009705021 -0.17007431 -0.035717703 0.11491091 -0.10875634 -0.10688993 0.09502232 -0.11580582 -0.19587472 -0.19911043 -0.061440967 0.27448595 0.015160347 0.12094025 -0.176891 0.18030825 0.029701326 -0.044045523 0.106179096 -0.2108455 0.09947309 0.05146078 -0.093628004 0.080172844 -0.14293139 -0.15697317 0.091497764 -0.17218213 -0.0033069302 -0.046469923 0.053641904 -0.1102516 -0.26104623 0.07630994 -0.038400177 0.06467217 0.1640133 0.021243256 -0.1013456 -0.06270153 0.035006594 -0.09247878 -0.330253 -0.020564802 0.0151433265 -0.17246492 -0.102142476 -0.015934322 0.08144076 -0.2582229 -0.28445944 0.03885354 0.1725391 -0.2079126 -0.15385415 -0.1687911 -0.09591254 -0.084291756 -0.052408043
110 -0.41820726 -0.28804016 0.15486963 0.04892467 0.14851071 -0.0017771907 -0.15684702 -0.017061772 0.105324395 -0.114885874 -0.10926986 0.08748932 -0.10971781 -0.16150653 -0.1742799 -0.04410615 0.27007568 0.020087147 0.11793175 -0.17705521 0.22377661 0.012632033 -0.050471086 0.10368021 -0.2185786 0.09489299 0.04580682 -0.10214991 0.07476011 -0.1349673 -0.17183115 0.11438721 -0.17516875 0.0019623386 -0.037139244 0.07115187 -0.15039404 -0.26656982 0.06114336 -0.06464968 0.048806302 0.19160816 0.00177334 -0.11788385 -0.034038525 0.04189709 -0.08212103 -0.34165257 -0.01019232 0.024477186 -0.17335522 -0.116841525 -0.026047159 0.06879998 -0.24246716 -0.2720023 0.053465936 0.19252133 -0.21385226 -0.14761835 -0.17441423 -0.106040925 -0.10859049 -0.081023306
277 -0.44256723 -0.2639291 0.15047255 0.03764574 0.14164163 -0.011751891 -0.18245791 -0.036717765 0.11827839 -0.089405514 -0.105996914 0.095561445 -0.13160104 -0.2015076 -0.20905554 -0.042490907 0.27903077 0.019122934 0.11575846 -0.15262492 0.19159429 0.015982151 -0.011328152 0.07965544 -0.21895868 0.10684716 0.021529185 -0.09262199 0.071066886 -0.15943019 -0.16801837 0.10156889 -0.16277044 -0.010587021 -0.031051595 0.033152413 -0.11994195 -0.2572678 0.072042644 -0.04916926 0.061891302 0.1853459 0.01602505 -0.10928435 -0.08191807 0.01865754 -0.085651025 -0.32418206 -0.028243091 0.03663303 -0.16016428 -0.10010204 -0.007911546 0.09469124 -0.25072235 -0.28317875 0.040329717 0.18350208 -0.21076828 -0.1654773 -0.16604108 -0.09601122 -0.091479056 -0.07534855
138 -0.44483957 -0.28094104 0.13924295 0.049604774 0.13092987 -0.013020823 -0.17096582 -0.043274257 0.10617208 -0.106098704 -0.116578884 0.11257418 -0.11624 -0.18204124 -0.18266942 -0.039678145 0.2873863 0.012457659 0.09925146 -0.15206507 0.19289823 0.018658964 -0.037869386 0.080209486 -0.20304865 0.105706535 0.04299691 -0.120429136 0.06670464 -0.13372664 -0.15877447 0.11005329 -0.16844727 -0.009447156 -0.03017722 0.036992557 -0.12501019 -0.2618618 0.07965492 -0.04735927 0.061816815 0.15823464 0.007911583 -0.1103844 -0.063408844 0.026381789 -0.081107825 -0.32988718 -0.022253029 0.039724614 -0.15507218 -0.094505996 -0.012308789 0.09677827 -0.23707522 -0.27500173 0.04143945 0.16754767 -0.22229593 -0.1440975 -0.17501746 -0.09378011 -0.092177264 -0.08041767
48 -0.41721055 -0.26413277 0.13769223 0.03805958 0.120755196 -0.015709987 -0.17472613 -0.06260126 0.13238193 -0.08629566 -0.11930445 0.12592906 -0.12834813 -0.2046353 -0.21559738 -0.06268055 0.2915264 -0.0004147181 0.09881071 -0.11006003 0.17443116 0.03312138 -0.0177178 0.054063067 -0.2092658 0.10129251 0.021170974 -0.11456519 0.050260607 -0.14824839 -0.15323998 0.09480669 -0.15444575 -0.017602663 -0.0315272 0.022706384 -0.09180704 -0.26447287 0.0762521 -0.025088629 0.08520348 0.14880495 0.0084375655 -0.09775298 -0.087136626 0.008699135 -0.06252703 -0.32214233 -0.04811707 0.03258666 -0.14515275 -0.10124045 -0.0035863437 0.12767228 -0.25357607 -0.2813514 0.030882135 0.1735724 -0.20618574 -0.1638517 -0.17810425 -0.08930165 -0.087510616 -0.069298565
57 -0.42938292 -0.2940987 0.14572951 0.055987764 0.1723947 0.01429274 -0.16404955 0.010288924 0.11825813 -0.14128803 -0.09824977 0.09887579 -0.12118893 -0.1710187 -0.18601969 -0.02451349 0.24214059 0.024440087 0.11218559 -0.18258926 0.2263643 0.0019194903 -0.027611157 0.11227211 -0.24147455 0.11479747 0.022158956 -0.081365675 0.08105643 -0.15637909 -0.18463859 0.10069765 -0.17938107 -0.013933085 -0.01828565 0.084517285 -0.14760251 -0.2686702 0.0470989 -0.066997275 0.03672379 0.20737924 0.016768875 -0.12929884 -0.04810893 0.06017811 -0.07739303 -0.35237232 -0.03680117 0.028748961 -0.18809609 -0.12351168 -0.023964101 0.048526015 -0.26719046 -0.3134162 0.05499666 0.23186293 -0.1952802 -0.17557392 -0.15747856 -0.08967812 -0.10381063 -0.06694298
61 -0.4284244 -0.29418734 0.14989406 0.05288793 0.12905744 -0.016971774 -0.15723161 -0.036083516 0.1044302 -0.10715086 -0.11422497 0.102028824 -0.11712846 -0.16693772 -0.16416958 -0.041214306 0.2677542 0.015095627 0.099620126 -0.16221698 0.19568725 0.013046354 -0.040164478 0.082960814 -0.20892148 0.08962217 0.03728638 -0.124583974 0.07153697 -0.14997455 -0.16481808 0.09775392 -0.18148002 -0.017791195 -0.025562573 0.056108024 -0.128748 -0.27259734 0.06885276 -0.067849725 0.052740995 0.16080727 0.022930406 -0.115640126 -0.050001428 0.04809016 -0.095469676 -0.33692986 -0.013457932 0.03433921 -0.15322728 -0.10330455 -0.0003965727 0.07385924 -0.23086154 -0.26507536 0.045550648 0.17983404 -0.2102659 -0.15613028 -0.1702312 -0.10089094 -0.0859109 -0.06669905
278 -0.44791692 -0.30261874 0.16949846 0.045173008 0.17897004 0.016882313 -0.14969563 0.012698375 0.10875376 -0.1519832 -0.09238511 0.08898112 -0.11055367 -0.1884035 -0.18395908 -0.026548339 0.26410633 0.03765929 0.13023053 -0.200338 0.2227398 -0.0025551424 -0.040460307 0.120794155 -0.23351504 0.11217146 0.019438261 -0.087421164 0.092554286 -0.13875464 -0.1846676 0.10019493 -0.16623804 -0.005279031 -0.020543842 0.08741994 -0.14249772 -0.27224597 0.049981896 -0.06746008 0.02184563 0.22715984 0.018349672 -0.13054684 -0.058399595 0.05210246 -0.08631011 -0.34966722 -0.02973102 0.007730465 -0.19378132 -0.1139183 -0.02263966 0.053350218 -0.2629267 -0.29300374 0.06529911 0.20988567 -0.1937392 -0.16827987 -0.16069184 -0.08679185 -0.087285556 -0.061937433
84 -0.42974818 -0.2608059 0.14476055 0.053728048 0.14393313 0.0030246759 -0.18049033 -0.039877366 0.13235766 -0.09139709 -0.097468644 0.110842116 -0.11732714 -0.19961964 -0.21166281 -0.041985553 0.2734045 0.012143828 0.102719 -0.12985913 0.17429757 0.019992534 -0.014160037 0.0727414 -0.21795328 0.09735883 0.023093194 -0.10055796 0.06619177 -0.1507426 -0.16707815 0.109305084 -0.17131627 -0.01950727 -0.017537253 0.0389864 -0.11305603 -0.24383098 0.0673293 -0.044810355 0.06012449 0.17710996 0.005668701 -0.10640262 -0.08147657 0.018990537 -0.07140412 -0.32344773 -0.03648616 0.027653811 -0.14990062 -0.10564711 -0.015073793 0.112440445 -0.24879791 -0.2789676 0.04937955 0.18665631 -0.20821694 -0.1583671 -0.16688912 -0.090371914 -0.09518412 -0.07190678
260 -0.43794388 -0.26546085 0.14289944 0.050826862 0.13323216 -0.0016012803 -0.18172616 -0.028954593 0.12603568 -0.09518278 -0.1178862 0.10990939 -0.12568243 -0.18647207 -0.19806163 -0.051520787 0.2798385 0.016748382 0.10420816 -0.14805107 0.20778407 0.02917062 -0.009862586 0.07894145 -0.22950779 0.10908134 0.034739923 -0.109449305 0.058149286 -0.13346678 -0.16475396 0.11276172 -0.16953216 -0.016349947 -0.02754458 0.039495382 -0.11403565 -0.24269782 0.05192565 -0.048514422 0.06250244 0.16651669 0.0063129356 -0.10544749 -0.06228275 0.029007595 -0.07429779 -0.33553442 -0.021411631 0.026016338 -0.15157022 -0.11119603 -0.020400887 0.10292927 -0.23905094 -0.29813722 0.040407404 0.18001856 -0.21501258 -0.15056565 -0.16481052 -0.08329102 -0.09782091 -0.08141933
146 -0.45072636 -0.30585685 0.16690974 0.046956282 0.14994103 -0.0011171805 -0.17340195 -0.0025915427 0.11217042 -0.12568028 -0.107385434 0.11024946 -0.13132082 -0.18298851 -0.16833204 -0.018156447 0.25858912 0.016718091 0.116453014 -0.18802913 0.21028292 0.0076184524 -0.025255803 0.1188388 -0.23964977 0.11300459 0.019369584 -0.09903779 0.096646264 -0.13751207 -0.17423831 0.10199356 -0.17109789 -0.013920267 -0.010560701 0.053010803 -0.13443747 -0.27612066 0.050184328 -0.058763422 0.04379431 0.20685074 0.026970787 -0.12714665 -0.04689064 0.044346005 -0.09320561 -0.3527064 -0.043724183 0.01912445 -0.17943946 -0.11971429 -0.014504588 0.0650108 -0.24968009 -0.29138651 0.0687273 0.19538516 -0.19772272 -0.17141663 -0.15008143 -0.089964464 -0.08616584 -0.07546182
257 -0.4331938 -0.31122798 0.15841962 0.09199143 0.1393258 -5.726336e-05 -0.16206898 -0.037460014 0.073708996 -0.13126133 -0.13112602 0.0926761 -0.09999897 -0.1281248 -0.14265211 -0.042700265 0.26544312 0.025209665 0.109051295 -0.19064698 0.22729409 0.015306975 -0.08698144 0.104591005 -0.20678662 0.100643784 0.065909 -0.13409936 0.06306313 -0.13159928 -0.16471505 0.12174423 -0.18011066 0.013710499 -0.037973642 0.08836336 -0.15294328 -0.27531543 0.05956467 -0.09010472 0.029764289 0.17313299 0.0031429504 -0.13692679 -0.011975557 0.08150289 -0.09947008 -0.37104502 0.0010159705 0.034272425 -0.15546976 -0.10439776 -0.014675412 0.040227123 -0.22253813 -0.29227602 0.05891395 0.19801909 -0.22171912 -0.13711554 -0.15209556 -0.09890094 -0.12289722 -0.08053813
87 -0.44786444 -0.28272986 0.15444855 0.058716882 0.15092953 0.0105720945 -0.1713331 -0.02878712 0.11307608 -0.11623748 -0.10969577 0.10157491 -0.10855193 -0.17729881 -0.18206236 -0.03760624 0.2638385 0.022930494 0.11855607 -0.17872262 0.21131329 0.010895556 -0.059381753 0.10350293 -0.22331914 0.100204386 0.041992035 -0.09644515 0.07191947 -0.15318103 -0.1559984 0.09071476 -0.17607439 -0.006204659 -0.032827817 0.06758112 -0.12793282 -0.25874755 0.05359453 -0.05134887 0.0421311 0.17127535 0.0066394866 -0.11477714 -0.044444617 0.047952197 -0.09598242 -0.34561217 -0.016206646 0.01684645 -0.17236248 -0.11684589 -0.017847007 0.07199005 -0.24846731 -0.28948274 0.046873994 0.1803985 -0.20971672 -0.15175368 -0.15647773 -0.0866102 -0.08758051 -0.06491004
254 -0.4265907 -0.3100278 0.16689557 0.05493362 0.16400373 0.009159489 -0.16098602 0.019896446 0.11942203 -0.13979922 -0.096749894 0.09962968 -0.12394299 -0.16451168 -0.17228326 -0.014408436 0.24944423 0.031703454 0.121130794 -0.19553441 0.24023968 -0.0069010924 -0.036744725 0.12554716 -0.25144842 0.11605197 0.015899127 -0.102735594 0.10220888 -0.16401316 -0.1870451 0.116185926 -0.18059377 -0.017187733 -0.021312065 0.100724414 -0.16968751 -0.2631514 0.049858466 -0.07628344 0.012995367 0.21875817 0.008788517 -0.13727792 -0.03236736 0.073282376 -0.094995186 -0.3593954 -0.035930187 0.023896141 -0.1866785 -0.13097756 -0.01923486 0.03365104 -0.24949345 -0.30813727 0.056686535 0.21431126 -0.18337823 -0.17267261 -0.1504726 -0.10208217 -0.08804234 -0.06993992
105 -0.43669787 -0.28245023 0.15316547 0.052174482 0.15900242 0.0015714471 -0.15418197 -0.040625326 0.09374335 -0.098730676 -0.10126718 0.09530954 -0.10319702 -0.14573333 -0.1851642 -0.06211593 0.27758056 0.014750397 0.1295442 -0.1655435 0.19181186 0.028542066 -0.0736092 0.10345066 -0.20032308 0.08408322 0.07143964 -0.09092348 0.058450982 -0.1492431 -0.15488693 0.09109823 -0.17738259 0.008169439 -0.05291408 0.054595146 -0.1289665 -0.26382092 0.06765912 -0.05658556 0.05606444 0.16657749 0.011969266 -0.11213626 -0.052928142 0.04410445 -0.08486759 -0.3304911 0.0016480152 0.01796752 -0.14436606 -0.08885859 -0.0019542614 0.06864647 -0.23085053 -0.27993143 0.027437968 0.16786616 -0.23371398 -0.119278565 -0.17053685 -0.09355292 -0.11041665 -0.069953665
59 -0.4383682 -0.28683317 0.15442085 0.071292296 0.1460845 0.014047682 -0.15446465 -0.048126794 0.08671488 -0.10425394 -0.119375356 0.0984072 -0.09505629 -0.14051434 -0.17612664 -0.049050912 0.28587186 0.029990204 0.12102284 -0.15598273 0.20602348 0.016842835 -0.07500648 0.09679176 -0.19798313 0.07967828 0.055887245 -0.12864254 0.058383137 -0.14801875 -0.16804986 0.1198148 -0.18288842 -0.00629842 -0.041780267 0.07374593 -0.13769247 -0.2774443 0.05819625 -0.07031083 0.03972874 0.17141487 0.0017158227 -0.11770393 -0.016368631 0.065589264 -0.08877639 -0.35013714 0.011376743 0.023059018 -0.124921076 -0.098086566 -0.009339676 0.04910715 -0.21464375 -0.26117957 0.04029152 0.18451628 -0.22918226 -0.14285062 -0.17573406 -0.081280835 -0.10380896 -0.0746045
198 -0.43955833 -0.30170277 0.15854695 0.050045148 0.17186111 0.008178792 -0.16829152 0.009788894 0.12831399 -0.13028964 -0.0943441 0.09807776 -0.11407494 -0.17563337 -0.19180422 -0.027358133 0.26050356 0.029002706 0.13738115 -0.1785349 0.2189944 0.008461133 -0.03951466 0.11791018 -0.23487954 0.12537622 0.031443 -0.09627351 0.0835802 -0.14768544 -0.18355535 0.10511806 -0.18250678 -0.006866044 -0.027133245 0.079970114 -0.13344145 -0.26858392 0.05143887 -0.05645657 0.045147717 0.2126186 0.006121092 -0.1282625 -0.04178502 0.049240433 -0.085108876 -0.36077312 -0.033488177 0.025842601 -0.17384839 -0.114742994 -0.010585164 0.061572466 -0.2544045 -0.30091935 0.063669264 0.22296296 -0.19729817 -0.16754167 -0.1554147 -0.10339611 -0.09055195 -0.07159584
118 -0.44999206 -0.32566226 0.1824156 0.048039917 0.17075227 0.02643184 -0.17055981 0.0018943372 0.099825345 -0.13684084 -0.11252384 0.08844913 -0.10269024 -0.15239197 -0.17999814 -0.024931872 0.26637855 0.033814166 0.13088834 -0.19852257 0.2340677 0.008061296 -0.064754985 0.11590539 -0.22322299 0.111955725 0.042925328 -0.09411963 0.09453675 -0.14099017 -0.17701708 0.10525078 -0.16569704 0.014744701 -0.041370735 0.09360925 -0.14671227 -0.2562015 0.056903824 -0.07419876 0.005974519 0.21700591 0.007194978 -0.13147415 -0.044866454 0.06732847 -0.102694735 -0.35425666 -0.012447518 0.02253988 -0.1753587 -0.11926728 -0.017205656 0.045362152 -0.24005479 -0.30520475 0.06902919 0.20523106 -0.1966283 -0.15359546 -0.14811659 -0.10401912 -0.085477225 -0.08051024
224 -0.43162328 -0.27318978 0.15094672 0.061893072 0.12729843 -0.0185343 -0.1736894 -0.050128177 0.09829429 -0.09501988 -0.11561926 0.11305649 -0.12464345 -0.17962086 -0.17370816 -0.048822228 0.28901723 0.0026073959 0.105537914 -0.13626751 0.19274305 0.018286763 -0.03001789 0.08102225 -0.21541025 0.09337208 0.042374607 -0.120984614 0.046765905 -0.14501204 -0.16124555 0.115293704 -0.15831713 -0.017204722 -0.031160725 0.029044185 -0.124929935 -0.26519284 0.078794554 -0.05507739 0.067735165 0.15446691 0.000496554 -0.0996065 -0.050045054 0.015900666 -0.06903546 -0.32533008 -0.02732577 0.05195721 -0.15667604 -0.100099206 -0.010256526 0.09659908 -0.22667593 -0.27665246 0.04360674 0.16101606 -0.22327414 -0.1364659 -0.17278671 -0.087366015 -0.10016062 -0.081592634
47 -0.43481356 -0.29459816 0.15665774 0.04490348 0.15485382 0.00013858022 -0.17640221 -0.00093620806 0.116083905 -0.12742865 -0.10307771 0.10584492 -0.11194243 -0.19867603 -0.18850696 -0.029187134 0.27384663 0.02328349 0.1227629 -0.16140632 0.22217713 0.012150445 -0.0336375 0.10709312 -0.22613703 0.113091305 0.03379159 -0.09829571 0.0800295 -0.14955133 -0.1786576 0.104539454 -0.1728319 -0.009277566 -0.021374848 0.0756724 -0.13216765 -0.2659973 0.05939716 -0.052028354 0.041670986 0.20928147 0.0072045517 -0.11718588 -0.052650627 0.029920325 -0.08668144 -0.34622163 -0.043611407 0.022957131 -0.17292453 -0.116162166 -0.015171124 0.07156424 -0.25600615 -0.2918633 0.05546271 0.20571627 -0.18672891 -0.17134963 -0.16131194 -0.10731726 -0.087171026 -0.06766038
41 -0.4397223 -0.27993003 0.17162639 0.025631325 0.16695812 0.021989206 -0.17008719 -0.019023063 0.12277652 -0.1179822 -0.1006845 0.09104487 -0.12801017 -0.19171734 -0.21391205 -0.04265571 0.28109765 0.03943112 0.13536194 -0.1750078 0.1918215 0.008700672 -0.050641976 0.09845069 -0.21441542 0.11129581 0.032366045 -0.07088936 0.09191586 -0.14927804 -0.1676444 0.09028157 -0.15587193 0.009564115 -0.05543959 0.08096457 -0.11778629 -0.25341508 0.05230333 -0.028752543 0.04629584 0.1997384 0.01869633 -0.118301846 -0.073926315 0.042431727 -0.08637862 -0.30792463 -0.008260649 0.006867626 -0.16084386 -0.11282968 -0.0164782 0.07735484 -0.24981274 -0.28875655 0.042395506 0.18603827 -0.21397108 -0.16527002 -0.17203283 -0.09263132 -0.07333517 -0.05290087
49 -0.43745285 -0.29230395 0.16530085 0.06941739 0.16168454 0.0042600846 -0.15513557 -0.022442019 0.114773676 -0.12811483 -0.09474556 0.10404074 -0.111909255 -0.18196294 -0.18215212 -0.04504855 0.26252064 0.020826159 0.124023706 -0.16660169 0.20305118 0.0018291799 -0.045588583 0.09527198 -0.21935588 0.104426816 0.038205806 -0.104701936 0.07319098 -0.1559374 -0.1767761 0.09130887 -0.17368199 0.0015281277 -0.029555894 0.07927615 -0.13121377 -0.27275118 0.060647372 -0.054908913 0.041839723 0.20183124 0.017425071 -0.11151539 -0.050346874 0.04878107 -0.09532668 -0.34497747 -0.031384 0.030925864 -0.17404202 -0.11330319 -0.011152656 0.07001261 -0.25168586 -0.27729633 0.05641608 0.19754358 -0.2138888 -0.16424659 -0.17799765 -0.08964888 -0.08317485 -0.06981161
115 -0.4293365 -0.3149374 0.17377277 0.056452975 0.14671028 0.0023145555 -0.18032704 -0.010657151 0.102134965 -0.137434 -0.12103957 0.08907241 -0.121444464 -0.19324037 -0.19246116 -0.018768987 0.2534578 0.026418166 0.11593757 -0.18739295 0.21189706 0.014214632 -0.02706011 0.10414523 -0.23841545 0.110883795 0.017056894 -0.09523753 0.0902086 -0.13390365 -0.18697697 0.11456915 -0.16689141 -0.015446003 -0.019616177 0.08364012 -0.14265649 -0.2698055 0.05181375 -0.07861833 0.029427843 0.21655448 0.00041397163 -0.1259306 -0.038756877 0.05289621 -0.088373646 -0.3638962 -0.040307693 0.02704276 -0.18628697 -0.12810136 -0.0072149225 0.065489106 -0.24609946 -0.30240786 0.053459734 0.2198508 -0.18190016 -0.16366945 -0.14631332 -0.104020245 -0.08727198 -0.08122591
186 -0.43135694 -0.296163 0.1427809 0.057208728 0.1380998 -0.017216116 -0.18531646 -0.02710031 0.117088914 -0.116353296 -0.10532667 0.10573613 -0.12676564 -0.20137097 -0.1906716 -0.030768111 0.28229207 0.013507317 0.10776204 -0.14864235 0.21272749 0.011110052 -0.014038358 0.08410883 -0.23119669 0.120654374 0.017433584 -0.11208038 0.05863127 -0.1460134 -0.1706531 0.11320504 -0.17295177 -0.015864324 -0.023509432 0.04728234 -0.12410786 -0.25222963 0.07150043 -0.06832857 0.053142063 0.18014722 0.0027501576 -0.10697407 -0.06366231 0.025092503 -0.07865291 -0.34195846 -0.037434597 0.04196701 -0.17513782 -0.122628324 -0.013285481 0.094615765 -0.24015033 -0.30494887 0.04885775 0.19616038 -0.18992795 -0.17028195 -0.15225658 -0.10559151 -0.09773383 -0.08406989
106 -0.42235398 -0.30440837 0.1705492 0.058696274 0.15254931 0.019519502 -0.1617094 -0.019617338 0.09123972 -0.13122438 -0.104332656 0.08737326 -0.12367113 -0.1692442 -0.18206581 -0.040910292 0.27296737 0.027196694 0.13096759 -0.17839149 0.20680219 0.002616133 -0.08016753 0.09444676 -0.22890581 0.10085896 0.05795981 -0.10418288 0.078873895 -0.14042558 -0.17580582 0.105129056 -0.16366915 0.0009884781 -0.042605773 0.09324217 -0.14101848 -0.27051467 0.049634818 -0.07069121 0.03223659 0.2013523 -0.0012308724 -0.12241464 -0.02854448 0.060210932 -0.09517269 -0.34393248 -0.0005970681 0.023953006 -0.17924745 -0.110628895 -0.014031652 0.045460127 -0.24036664 -0.28494886 0.048358697 0.19810708 -0.20557982 -0.15522555 -0.15818016 -0.1002561 -0.08662856 -0.072479196
250 -0.428116 -0.28069186 0.1629092 0.054118037 0.12903383 0.00081430614 -0.17830706 -0.037171923 0.10173714 -0.086515285 -0.12061139 0.09140379 -0.122746155 -0.16893755 -0.18171076 -0.04570857 0.28582677 0.027669948 0.11515009 -0.1437149 0.20223224 0.020659057 -0.05816271 0.06622214 -0.22058411 0.099108286 0.041567434 -0.12884097 0.04611892 -0.15013859 -0.15714855 0.10908445 -0.16461919 0.00061021774 -0.027544353 0.0649606 -0.12697387 -0.26399878 0.05664522 -0.063468136 0.041054793 0.17915529 0.004037698 -0.11714043 -0.03964545 0.0300963 -0.09176584 -0.32980296 -0.016001645 0.04808892 -0.14639679 -0.09039235 -0.007629873 0.08243009 -0.2312752 -0.2859222 0.046187714 0.18030289 -0.20700607 -0.15241748 -0.16256766 -0.09900916 -0.09382376 -0.08127894
231 -0.4455757 -0.31315774 0.17520365 0.073203236 0.14498276 0.0058794175 -0.15882048 -0.05685371 0.06083909 -0.103854865 -0.12753583 0.069350906 -0.08241714 -0.09344503 -0.11575512 -0.04611532 0.26938188 0.028981311 0.13765974 -0.20923439 0.2221279 0.032294232 -0.14721207 0.100174636 -0.1813019 0.079712264 0.1038739 -0.13768926 0.05376227 -0.13978551 -0.14425701 0.123491004 -0.18126084 0.02387047 -0.070037924 0.094627224 -0.15782562 -0.26131168 0.05676775 -0.08922894 -0.004867677 0.16187279 0.001055749 -0.12087991 0.022381576 0.10137818 -0.11925462 -0.35008886 0.05934983 0.029716514 -0.1376527 -0.080543354 0.000683443 0.027781086 -0.18891363 -0.26799038 0.059514027 0.16944544 -0.2371409 -0.106104426 -0.15151264 -0.086714014 -0.1102142 -0.08863481
150 -0.42794335 -0.29616666 0.1626594 0.045574557 0.14259622 0.003335344 -0.18139806 -0.040792257 0.120852664 -0.105503514 -0.11821857 0.09668861 -0.12615748 -0.1873282 -0.20303565 -0.04089806 0.281393 0.028586628 0.10678366 -0.13489084 0.19568156 0.0117089255 -0.029828085 0.078814425 -0.22988449 0.112796836 0.02649049 -0.12266476 0.05736045 -0.14799711 -0.17062691 0.11881498 -0.16489501 -0.022746263 -0.017505236 0.057367183 -0.12739567 -0.25736243 0.067944326 -0.061005924 0.047536798 0.17997755 0.005001814 -0.10680583 -0.039343577 0.030932017 -0.0860647 -0.33140227 -0.022636848 0.0339389 -0.14153653 -0.099196486 -0.009545641 0.08145731 -0.23187312 -0.28402033 0.055654865 0.18190323 -0.20157935 -0.15834041 -0.16965595 -0.09462093 -0.08685807 -0.08464561
140 -0.44281876 -0.2767779 0.1535199 0.04769482 0.16184653 -0.0005427053 -0.16041073 -0.0452499 0.10398674 -0.106177345 -0.10023523 0.080188125 -0.090510175 -0.16236101 -0.18182053 -0.045021176 0.27395254 0.036285464 0.1262918 -0.17050059 0.1890783 0.0069953534 -0.08780995 0.091137856 -0.2040244 0.0952561 0.07058081 -0.09937471 0.07386762 -0.15229832 -0.15741296 0.09220188 -0.17379445 0.008150821 -0.05624037 0.07703328 -0.13777216 -0.2570139 0.07151341 -0.04309692 0.04581745 0.16754122 0.0054945964 -0.11578015 -0.04766357 0.043908145 -0.09745073 -0.33489674 0.011192342 0.017692547 -0.14042592 -0.08918224 0.0022247354 0.071227334 -0.22116429 -0.26868755 0.038859006 0.1671842 -0.23335332 -0.13508661 -0.17103073 -0.08669291 -0.09102728 -0.07520509
236 -0.43193555 -0.29551095 0.17207457 0.059809063 0.16649382 0.0059580216 -0.17588817 0.0032406766 0.12798722 -0.14813668 -0.10071839 0.0909288 -0.13835329 -0.19798732 -0.19513582 -0.016038947 0.26094055 0.022835527 0.1131063 -0.1990478 0.22006446 -0.0018985965 -0.02147915 0.1083034 -0.24562132 0.11757297 0.014446181 -0.082625926 0.086554416 -0.14724101 -0.17901538 0.0961587 -0.17039338 -0.005823887 -0.02016998 0.09048222 -0.13224073 -0.2610102 0.056592677 -0.061418016 0.01538752 0.21492973 0.012520887 -0.120912455 -0.04858336 0.039991677 -0.090571046 -0.35431403 -0.05302269 0.019570598 -0.19464076 -0.13910161 -0.0232323 0.057137728 -0.26527655 -0.29878932 0.063873194 0.2259842 -0.1821017 -0.1761644 -0.15439616 -0.10034485 -0.07458521 -0.07128458
71 -0.42460105 -0.28597724 0.14921515 0.05919032 0.16422711 0.0074158492 -0.1657064 -0.014425486 0.11219047 -0.124987796 -0.10110684 0.10869162 -0.11231274 -0.15419838 -0.16953917 -0.042453792 0.26005903 0.028184427 0.12509242 -0.17633171 0.20721065 0.012372593 -0.063124724 0.117581084 -0.23288415 0.090892784 0.05462382 -0.09613744 0.08481933 -0.14744292 -0.18204622 0.095745645 -0.1731661 -0.0049264515 -0.037213836 0.09025254 -0.15825142 -0.2757096 0.065022744 -0.06064185 0.03653748 0.18996143 0.009546262 -0.122527815 -0.038732544 0.0623942 -0.092972994 -0.34697118 -0.024051717 0.016680136 -0.16213386 -0.11767221 -0.019710746 0.046139378 -0.24846326 -0.2795063 0.049892593 0.19792734 -0.19957153 -0.16672046 -0.1462305 -0.09502041 -0.096208185 -0.051225364
91 -0.4345259 -0.30509236 0.17218816 0.060773157 0.14897865 0.009720737 -0.17715491 -0.027179351 0.11375906 -0.121739075 -0.107179105 0.09396151 -0.108903416 -0.17587835 -0.19355652 -0.044783734 0.27036104 0.0191547 0.1149856 -0.17068687 0.21449114 0.013471068 -0.051763523 0.0983833 -0.23620413 0.106782556 0.04367118 -0.114136845 0.08015241 -0.15178658 -0.17893429 0.10298425 -0.16317588 -0.007680297 -0.028481778 0.07843911 -0.13936198 -0.25361243 0.06058154 -0.060069524 0.022440845 0.19884916 0.006175295 -0.11482688 -0.04476091 0.051853463 -0.09965312 -0.3466911 -0.021844985 0.025001222 -0.17723112 -0.11971758 -0.0065557538 0.062486336 -0.23890564 -0.27348244 0.050934263 0.19877483 -0.19551629 -0.15339689 -0.14954178 -0.09367548 -0.08758028 -0.06967848
117 -0.44158015 -0.32393613 0.17165837 0.05322397 0.18044558 0.016145924 -0.17366378 0.0067274896 0.10045264 -0.14893726 -0.104320675 0.08532203 -0.118318506 -0.1596891 -0.15454988 -0.011830812 0.24073638 0.03200362 0.13800514 -0.22077796 0.23910561 0.008404245 -0.064617574 0.13409773 -0.23672813 0.105314344 0.042382102 -0.08681855 0.09514556 -0.14904484 -0.18626523 0.112714395 -0.17406555 -0.0036379304 -0.04021224 0.0871924 -0.16776559 -0.26721245 0.05881568 -0.070510134 0.007550245 0.21136941 0.0050241468 -0.12678105 -0.02327507 0.089729436 -0.10801098 -0.36345068 -0.009875392 0.011373089 -0.18935765 -0.1242463 -0.015191815 0.033030383 -0.24589224 -0.29537526 0.052351918 0.21563117 -0.20945843 -0.16692051 -0.14633974 -0.10466426 -0.093082644 -0.07431354
102 -0.43346953 -0.30875367 0.1677707 0.0564319 0.15043321 0.006297386 -0.17257136 -0.0061371936 0.113877945 -0.1328455 -0.111357 0.09350377 -0.1320014 -0.19569035 -0.196758 -0.030385835 0.26503193 0.021323485 0.12017681 -0.17461473 0.20695905 0.0034807744 -0.04813156 0.09374908 -0.24117745 0.10386252 0.036942217 -0.10629506 0.0847499 -0.14660127 -0.17452735 0.10893161 -0.16684686 -0.009073924 -0.027630443 0.07248052 -0.13958706 -0.26975983 0.056218714 -0.072936594 0.03430347 0.19789113 0.0018029313 -0.1131795 -0.034613665 0.04084889 -0.09713602 -0.35020483 -0.033796445 0.035985593 -0.18632184 -0.114993125 -0.018772783 0.06390204 -0.25256824 -0.3014 0.065178424 0.20995411 -0.20615256 -0.16570337 -0.1536333 -0.10851087 -0.08935763 -0.07231701
88 -0.4273728 -0.27148095 0.14611214 0.051248077 0.12900111 0.00139872 -0.17616326 -0.033668276 0.103781514 -0.1017914 -0.095453806 0.10150481 -0.11375504 -0.16447853 -0.17676488 -0.055075392 0.27516595 0.004104876 0.118259445 -0.15492113 0.19075668 0.026629038 -0.05108986 0.09423901 -0.21354334 0.09753036 0.052707992 -0.11586258 0.07385817 -0.14313357 -0.1628701 0.114538215 -0.16390404 -0.0048808097 -0.03299528 0.061141875 -0.12679967 -0.24972971 0.08152565 -0.04446047 0.046998072 0.17108397 0.012183977 -0.110146224 -0.057947148 0.033175156 -0.07998929 -0.3334176 -0.021032406 0.024129419 -0.15129279 -0.092363164 -0.0104145175 0.09078081 -0.23218073 -0.28286853 0.037708335 0.16441482 -0.22814062 -0.12955044 -0.17425609 -0.092005424 -0.09621316 -0.065069504
121 -0.4156946 -0.2783892 0.1456903 0.052178256 0.14889397 0.005727728 -0.17086634 -0.013434592 0.12592755 -0.11260646 -0.100295946 0.102759175 -0.13515706 -0.19550866 -0.20029889 -0.038951684 0.25931668 0.01538944 0.10228373 -0.15807836 0.20676415 0.018806811 -0.023164665 0.096951626 -0.22424673 0.10335887 0.028893078 -0.09174628 0.07806001 -0.15717986 -0.17351942 0.10647888 -0.16470124 -0.020545404 -0.013478286 0.047597356 -0.13442025 -0.25764316 0.05694332 -0.05909498 0.05248699 0.19704755 0.012862113 -0.10720269 -0.06588456 0.029565167 -0.0729101 -0.3362166 -0.03401931 0.03190576 -0.16583824 -0.1143206 -0.017999344 0.08481175 -0.24277806 -0.29255643 0.038514145 0.20731623 -0.20078526 -0.16456191 -0.15760262 -0.10084524 -0.09664668 -0.07253598
258 -0.41782802 -0.29631314 0.14976513 0.06129546 0.13963528 -0.012483927 -0.17094629 -0.025718048 0.09682777 -0.12027303 -0.114100225 0.10078403 -0.12641297 -0.15598667 -0.17483541 -0.041119862 0.25660187 0.015074372 0.10499579 -0.16398695 0.22499223 0.01957975 -0.035578452 0.09235552 -0.23036546 0.11452173 0.04551812 -0.13156126 0.06634172 -0.15190895 -0.17330933 0.12693755 -0.18749556 -0.01785436 -0.03321517 0.070830315 -0.14275247 -0.26286352 0.055398498 -0.07247701 0.038511492 0.19103883 -0.0018908749 -0.11854401 -0.02994826 0.043161042 -0.09620928 -0.35314095 -0.019738134 0.04102947 -0.15426463 -0.116845876 -0.016762014 0.07547521 -0.23043354 -0.29214108 0.041770976 0.19840916 -0.2072109 -0.16317952 -0.16858873 -0.099200614 -0.10096984 -0.07540955
116 -0.45580593 -0.28708875 0.1634384 0.068506 0.16706003 0.017867995 -0.15678333 -0.019736497 0.10038197 -0.14401501 -0.09594086 0.09404853 -0.11106632 -0.16534013 -0.1850723 -0.031393897 0.26652417 0.03203111 0.12667379 -0.18947409 0.20704122 0.013979274 -0.06503118 0.11685194 -0.22067742 0.094502516 0.044206735 -0.09570461 0.07625343 -0.15431236 -0.17821138 0.092025705 -0.17035736 -0.0065325545 -0.035474606 0.081530325 -0.13296233 -0.25756976 0.07218878 -0.07012095 0.016914124 0.18750659 0.013922625 -0.11210253 -0.038200777 0.052434538 -0.091070496 -0.34321368 -0.019385258 0.012793915 -0.16294724 -0.10436058 -0.009802263 0.05419574 -0.23644875 -0.28355905 0.050905153 0.20152685 -0.21268949 -0.16015144 -0.1634609 -0.08598931 -0.08937752 -0.06555967
85 -0.43965355 -0.31183195 0.16515282 0.06106819 0.16925876 0.002243328 -0.17130446 -0.00077557546 0.10596504 -0.1382494 -0.106605366 0.08833351 -0.12031427 -0.16208515 -0.17118244 -0.02721082 0.25661534 0.03665962 0.1259437 -0.1901288 0.23559895 0.0075607053 -0.06856638 0.11345855 -0.24425648 0.1052173 0.040225226 -0.1011655 0.08085956 -0.15587774 -0.17855358 0.09491973 -0.17906775 -0.0031152577 -0.034187227 0.09591283 -0.15716335 -0.2553604 0.051490407 -0.06776032 0.024632119 0.21195859 0.003420584 -0.12531096 -0.032682978 0.056676622 -0.10266065 -0.35578778 -0.02997904 0.027483653 -0.17606366 -0.11621363 -0.017436374 0.051764622 -0.2467307 -0.28487265 0.062686615 0.22183086 -0.19092703 -0.16780287 -0.15058549 -0.11243461 -0.09040522 -0.072779134
93 -0.42778677 -0.28191763 0.16459966 0.043537937 0.1387701 0.016341168 -0.16721639 -0.03332356 0.09695697 -0.089713015 -0.10617815 0.092208214 -0.1200717 -0.16606075 -0.17832278 -0.05334 0.27555114 0.022848805 0.11482538 -0.15903206 0.18380041 0.0174738 -0.061447427 0.0845909 -0.20030503 0.089345485 0.0633776 -0.094235286 0.07202048 -0.13399747 -0.15657702 0.087502 -0.1543136 0.007829357 -0.04965922 0.0641879 -0.12094316 -0.26357412 0.06264892 -0.055354606 0.052126814 0.1815279 0.0059056804 -0.11048251 -0.0306087 0.039720874 -0.09621233 -0.32606006 -0.0010819888 0.032028027 -0.14495541 -0.09885921 -0.009500311 0.08038241 -0.2364299 -0.282964 0.044802763 0.1796221 -0.21780016 -0.15152243 -0.17418042 -0.09107134 -0.0846385 -0.080371924
51 -0.43143716 -0.28329453 0.14859122 0.056992944 0.14091496 0.0006632466 -0.17245242 -0.053879935 0.1154892 -0.087530985 -0.10823031 0.10045445 -0.121745445 -0.19284783 -0.20056643 -0.05189701 0.27982354 0.014462046 0.10026414 -0.14328687 0.18017378 0.021432558 -0.031112999 0.06818892 -0.20954093 0.10039755 0.043825515 -0.10991626 0.061442494 -0.13310756 -0.1609306 0.114032105 -0.16152434 -0.009276312 -0.029791048 0.048191253 -0.11360469 -0.26116982 0.055064127 -0.049763355 0.07146323 0.17114614 -0.0071254685 -0.114266925 -0.052506637 0.027265172 -0.06554581 -0.3331269 -0.0076241815 0.035858747 -0.15824029 -0.10039132 -0.006986965 0.08289193 -0.23668677 -0.29328647 0.04959403 0.17260244 -0.21236753 -0.14954047 -0.16915084 -0.095435694 -0.10295515 -0.06957775
192 -0.42309934 -0.26869002 0.13680485 0.05766568 0.11902315 -0.009050079 -0.18017897 -0.050463516 0.11522058 -0.0922235 -0.113914356 0.09942009 -0.12046807 -0.17946418 -0.195571 -0.05365104 0.2830094 0.015056054 0.10287213 -0.133972 0.1844261 0.01809417 -0.043244943 0.06887781 -0.20500278 0.10399453 0.041842375 -0.12243278 0.036100186 -0.14512967 -0.14374538 0.10590937 -0.145225 -0.014033267 -0.034265384 0.0424125 -0.12242257 -0.23754914 0.071373254 -0.044449065 0.062939644 0.15961358 0.00768555 -0.106463134 -0.06419018 0.029679336 -0.07092205 -0.3186833 -0.008162592 0.055213474 -0.14874221 -0.09201348 -0.002405828 0.11600577 -0.21206138 -0.2875089 0.03733677 0.16974267 -0.22421004 -0.1413969 -0.18860187 -0.096519925 -0.1035774 -0.09127707
137 -0.44529352 -0.29809946 0.1650234 0.063598275 0.18346438 0.029507093 -0.16845596 -0.0025790564 0.120514 -0.11741971 -0.104714505 0.096739404 -0.1095388 -0.15886086 -0.19064401 -0.0285682 0.26393065 0.029131534 0.13550861 -0.17958584 0.22948363 0.013541146 -0.047176886 0.11652606 -0.23095179 0.08950701 0.03199585 -0.09315933 0.07625486 -0.15660849 -0.1790173 0.111779556 -0.1808707 -0.016332807 -0.029758727 0.09237985 -0.14205022 -0.2564745 0.046676956 -0.058152705 0.024658758 0.20655394 0.00017999855 -0.11979209 -0.044767953 0.058385737 -0.08815983 -0.33689997 -0.026737008 0.030349927 -0.16838154 -0.11083667 -0.01875428 0.04865553 -0.24768573 -0.2803192 0.053545326 0.21429019 -0.19340008 -0.15765424 -0.15773341 -0.09183426 -0.08626614 -0.054497167
97 -0.4463146 -0.2939675 0.16414481 0.053513885 0.19071597 0.014393122 -0.15616004 0.007736771 0.12516814 -0.13828291 -0.09148187 0.09541938 -0.119354464 -0.17671742 -0.20035252 -0.02493207 0.27056625 0.026520336 0.12229096 -0.19395071 0.22649561 -0.005478405 -0.048125193 0.117110044 -0.24662508 0.1019634 0.03215438 -0.087172374 0.08931715 -0.15334786 -0.18016842 0.10626777 -0.18331599 -0.0049855644 -0.03256979 0.098953106 -0.14159752 -0.26871213 0.04820628 -0.0757902 0.028991621 0.22012468 0.0083914995 -0.12487186 -0.041781783 0.05635921 -0.08606539 -0.34626615 -0.030187324 0.007272703 -0.18702373 -0.1165386 -0.022994304 0.050586917 -0.252385 -0.2933646 0.05408662 0.21669185 -0.19147392 -0.1788919 -0.15641598 -0.1046836 -0.08941028 -0.064798
5 -0.4354533 -0.28384945 0.136972 0.049178258 0.14854361 -0.0034303188 -0.16171362 -0.045625057 0.120990425 -0.10857056 -0.09909572 0.10967111 -0.11750436 -0.17809355 -0.18792869 -0.059164047 0.27762374 0.013960678 0.11318175 -0.14499167 0.19398624 0.025231307 -0.06558375 0.09486991 -0.20801477 0.09157504 0.05516666 -0.11658522 0.060442775 -0.15880649 -0.16156143 0.09374671 -0.17216778 0.0012877218 -0.03270414 0.046808157 -0.12334637 -0.25741473 0.07390692 -0.041710585 0.07273997 0.16858801 0.0054244986 -0.10862317 -0.06496437 0.03081541 -0.08315147 -0.32472572 -0.018323952 0.03247278 -0.15261564 -0.08870518 -0.0018115838 0.078557394 -0.23883311 -0.2872184 0.044169404 0.17529492 -0.21711323 -0.15853293 -0.18273732 -0.09951396 -0.08876853 -0.06332477
3 -0.4491909 -0.29201254 0.16719879 0.049075156 0.17722371 0.008603083 -0.16105089 0.0012152581 0.11797001 -0.13703391 -0.090998165 0.09124162 -0.12988071 -0.19510037 -0.19620104 -0.031184562 0.26576453 0.016595982 0.11579388 -0.1797177 0.21571775 0.009127387 -0.030388193 0.12248673 -0.22969037 0.10884022 0.021421256 -0.08916589 0.09815667 -0.14297622 -0.18568872 0.09939655 -0.18672207 -0.01014824 -0.022339044 0.07014565 -0.13545574 -0.25842586 0.06288709 -0.05243441 0.038804155 0.20103328 0.015259686 -0.113257006 -0.058891613 0.050933488 -0.08042739 -0.35402194 -0.04556878 0.018064363 -0.16663118 -0.11690901 -0.019944934 0.066051155 -0.2573462 -0.2941541 0.051562067 0.20616972 -0.18787846 -0.16771401 -0.15895294 -0.08922911 -0.08343011 -0.057453405
264 -0.42496365 -0.28750154 0.16328609 0.075855896 0.1232369 -0.014989156 -0.15728007 -0.06257988 0.05506902 -0.094918415 -0.12078633 0.08354378 -0.06495757 -0.09152511 -0.102662735 -0.070212364 0.2626108 0.018845271 0.122680664 -0.20156367 0.22168167 0.021534258 -0.123561546 0.10519255 -0.17839624 0.07426365 0.103571214 -0.14820509 0.043108094 -0.14948483 -0.14933944 0.12594707 -0.17941144 0.031803217 -0.0727805 0.07951963 -0.15531047 -0.25239962 0.06007974 -0.08863217 0.028187381 0.13783152 -0.0067189545 -0.12663352 0.014470248 0.080640495 -0.11327626 -0.35804778 0.045827143 0.034851607 -0.13021567 -0.08166631 -0.010730965 0.047942337 -0.18059525 -0.26044437 0.04186637 0.15035874 -0.26912436 -0.11232476 -0.17062847 -0.08478974 -0.1331338 -0.09518101
282 -0.445099 -0.3267867 0.16494069 0.08876597 0.16692626 0.0027548333 -0.16092257 -0.020722903 0.06703082 -0.14049031 -0.1130771 0.07993493 -0.09260345 -0.09510228 -0.124462195 -0.04065664 0.2588428 0.032807782 0.14541127 -0.22033109 0.24110654 0.011339711 -0.12842646 0.13573237 -0.2146404 0.098032326 0.09769803 -0.11843625 0.07271145 -0.15449391 -0.17080419 0.105449416 -0.18004847 0.03156575 -0.06240432 0.10299186 -0.17608017 -0.26662812 0.047149405 -0.09868453 0.006127885 0.19186395 0.0014335081 -0.13508384 0.01948478 0.10240099 -0.12580246 -0.35894617 0.029256767 0.031239033 -0.15979034 -0.10743892 -0.017326009 0.0115511315 -0.20948079 -0.28569558 0.056534883 0.19506538 -0.2284097 -0.13402578 -0.15479203 -0.10278242 -0.118276276 -0.090580605
50 -0.4301187 -0.28375465 0.13396601 0.0641812 0.124897175 -0.016434891 -0.16376424 -0.049158502 0.11775588 -0.07993897 -0.111680724 0.11075738 -0.11628765 -0.18784124 -0.18336777 -0.044642597 0.2810824 0.010465212 0.09857816 -0.12665851 0.17526995 0.023210747 -0.037484612 0.07216121 -0.21005864 0.1090732 0.037322264 -0.11865755 0.050291 -0.14199756 -0.1573108 0.107060276 -0.17300902 -0.022948714 -0.011172934 0.044533037 -0.12333421 -0.25514618 0.06935781 -0.050974805 0.080893084 0.16284816 0.0031558543 -0.11694251 -0.05031681 0.023657095 -0.07537345 -0.34248304 -0.018348016 0.03313515 -0.15851153 -0.08776544 0.0022373456 0.09190123 -0.23022029 -0.29257634 0.045820475 0.17439286 -0.21908155 -0.15303199 -0.16728838 -0.10468012 -0.106412515 -0.08718831
53 -0.44098693 -0.29673654 0.15287334 0.05640186 0.17504722 0.014298859 -0.17067362 -0.019096397 0.09164922 -0.11306801 -0.10613392 0.098054565 -0.111965135 -0.1525378 -0.18401216 -0.047335006 0.2833331 0.03579123 0.13986905 -0.17369176 0.21386358 0.02010245 -0.096532635 0.102320045 -0.21581861 0.08130656 0.07774822 -0.10230089 0.07937162 -0.15745816 -0.15843594 0.09325277 -0.17905979 0.004336855 -0.055789284 0.09750238 -0.14158458 -0.25867832 0.057344954 -0.06314291 0.026233297 0.19594854 -0.0071787597 -0.124363765 -0.03949378 0.05723055 -0.09435082 -0.32374567 0.008344827 0.023385292 -0.15229069 -0.109756544 -0.0039078062 0.055477712 -0.21553102 -0.2915435 0.03337404 0.17195603 -0.21410337 -0.13854831 -0.16065598 -0.09985687 -0.08287196 -0.06304506
122 -0.43983442 -0.3009054 0.1646529 0.06060693 0.17184581 0.011377542 -0.16544628 0.0011075304 0.10447053 -0.13599928 -0.09636386 0.08553955 -0.11478103 -0.16918735 -0.18169004 -0.028914452 0.25834185 0.029664023 0.11567323 -0.1827352 0.22108094 -0.004633195 -0.05805615 0.11018233 -0.23122066 0.10449709 0.041865867 -0.10252835 0.08068532 -0.15654445 -0.18005492 0.103850715 -0.18603632 -0.0023108104 -0.027119154 0.09308864 -0.1550357 -0.25817037 0.060473803 -0.06917098 0.0170491 0.21121156 0.013227623 -0.12277805 -0.041453287 0.05454838 -0.09557519 -0.33969545 -0.014124796 0.024016382 -0.16855459 -0.116685905 -0.016061615 0.04947099 -0.23207335 -0.28714865 0.048744544 0.2070411 -0.19013284 -0.16233431 -0.15263027 -0.09527447 -0.08827719 -0.06842632
193 -0.4259672 -0.274671 0.15925008 0.05722191 0.13777813 0.012246057 -0.16355325 -0.03457382 0.103107736 -0.104693465 -0.11227377 0.10460684 -0.11458372 -0.17727718 -0.19437762 -0.054849904 0.27327353 0.015469762 0.11550378 -0.16002877 0.19157402 0.016675765 -0.05429823 0.07890102 -0.21319596 0.09161731 0.058816057 -0.09007429 0.07286048 -0.14185606 -0.16037595 0.100339904 -0.15810989 -0.0008963261 -0.050523106 0.064182095 -0.1335036 -0.25222751 0.06145233 -0.047953993 0.04253684 0.18262297 -0.0050626015 -0.11098209 -0.048694897 0.039732005 -0.08692092 -0.3190465 -0.011380769 0.027016588 -0.14555012 -0.10152055 -0.01806508 0.08294676 -0.22952971 -0.26902428 0.030258741 0.17049316 -0.21379969 -0.15249906 -0.17142732 -0.09362221 -0.08730456 -0.06976726
62 -0.42741293 -0.28497565 0.14014481 0.055589255 0.14446105 -0.004197943 -0.16754584 -0.034919165 0.106235854 -0.11447276 -0.11039128 0.10112631 -0.10730207 -0.16516219 -0.18485469 -0.049980648 0.27052724 0.026649423 0.12211944 -0.15231135 0.19058381 0.020114494 -0.061941057 0.098602444 -0.2082504 0.09643356 0.052449048 -0.11930594 0.05272154 -0.14350532 -0.15877979 0.09627842 -0.18085454 -0.005097879 -0.044187747 0.07098877 -0.128565 -0.26350087 0.07607607 -0.047057834 0.04927882 0.16099176 0.0037532193 -0.11121082 -0.045670364 0.044554807 -0.09385921 -0.3370473 -0.010374225 0.020688776 -0.14999397 -0.09932657 -0.013744537 0.087848365 -0.22667605 -0.29012617 0.037646335 0.18491474 -0.22130524 -0.14645283 -0.17105962 -0.09059908 -0.09654276 -0.06616309
248 -0.43240598 -0.26994798 0.15300167 0.055498905 0.15423626 0.010563147 -0.15896091 -0.051598307 0.11223468 -0.09965257 -0.10767609 0.104819804 -0.10554237 -0.1687272 -0.18151274 -0.053098094 0.28008285 0.017825428 0.11174495 -0.14456013 0.19197065 0.01975639 -0.066505775 0.0798304 -0.21242768 0.09400387 0.059476726 -0.11032343 0.054000545 -0.14754243 -0.15044339 0.08843107 -0.17005675 -0.0046541267 -0.03398002 0.06755114 -0.11642955 -0.2483766 0.066721044 -0.052835744 0.04744561 0.1702884 0.011743746 -0.1056361 -0.042750593 0.040031955 -0.0870795 -0.3133301 0.0007607804 0.033288702 -0.14678043 -0.10030621 -0.0042649684 0.064423114 -0.22992057 -0.26811376 0.035454948 0.1737676 -0.20895222 -0.14729637 -0.17011824 -0.09777108 -0.08914074 -0.059420675
218 -0.42405593 -0.30180162 0.14824711 0.09546826 0.08909503 -0.017802844 -0.16154003 -0.12262457 0.013466695 -0.05762385 -0.14868039 0.08070646 -0.06485398 -0.052109685 -0.092308834 -0.099558175 0.2898847 0.01135427 0.12421557 -0.1600857 0.18855235 0.05108771 -0.18506096 0.06682766 -0.14057212 0.06179777 0.1591405 -0.19410533 0.012109319 -0.12859736 -0.115557835 0.14141954 -0.16139281 0.035248335 -0.09515227 0.058018934 -0.16236995 -0.2663564 0.060774893 -0.09878494 0.03651765 0.1051384 -0.020826766 -0.1046131 0.054236233 0.08933688 -0.11802668 -0.33559436 0.11036736 0.05801907 -0.08643527 -0.055343125 0.013210452 0.06181672 -0.13726859 -0.24685341 0.025682677 0.10867917 -0.29966938 -0.06328543 -0.18227899 -0.08054549 -0.15198603 -0.11391253
95 -0.43972406 -0.27962044 0.16268608 0.04717498 0.17042589 0.008027589 -0.15480518 -0.02075204 0.10299159 -0.10814145 -0.09559595 0.084596 -0.11789253 -0.16059466 -0.19081312 -0.050180137 0.28321457 0.030071137 0.12867707 -0.1787755 0.19863059 0.018111788 -0.06811219 0.10461922 -0.21440832 0.09851506 0.05316861 -0.09261433 0.074639246 -0.15052088 -0.16006136 0.102663085 -0.17704393 0.0047200117 -0.049070638 0.07293719 -0.13675475 -0.25483912 0.062985465 -0.050959717 0.04188678 0.17602696 0.0057491567 -0.119402796 -0.04569 0.048127018 -0.08760103 -0.32236713 0.0053950795 0.011922348 -0.14995602 -0.09759022 -0.010552808 0.062260605 -0.2365521 -0.27850598 0.03305363 0.17006466 -0.21859775 -0.14126636 -0.165194 -0.0990242 -0.09408562 -0.07062187
221 -0.42765024 -0.28198028 0.14967579 0.11218561 0.09551331 -0.0025936624 -0.13559254 -0.12693615 -0.011315933 -0.06986999 -0.15754129 0.061050627 -0.017037405 -0.003035165 -0.043861885 -0.123088054 0.27792817 0.02105862 0.14491214 -0.20536664 0.20524357 0.051596463 -0.23689009 0.07892344 -0.12809989 0.032249685 0.20142321 -0.1946732 0.02175838 -0.13905455 -0.11748468 0.13491635 -0.16982523 0.06352566 -0.121573105 0.10133362 -0.1714005 -0.25317547 0.060011644 -0.10773837 0.004440968 0.09445894 -0.023762638 -0.1147492 0.07766449 0.13075797 -0.13587098 -0.3226895 0.13857189 0.037968908 -0.08004395 -0.050317254 0.002554087 0.00884299 -0.13151461 -0.23439251 0.017693257 0.10768024 -0.32896343 -0.037356686 -0.18476364 -0.081635825 -0.15809987 -0.10148424
133 -0.45391724 -0.2985524 0.16225776 0.04402669 0.1712201 0.0044428986 -0.17192598 -0.006077411 0.13123053 -0.11570618 -0.08997163 0.101071596 -0.13190925 -0.20271374 -0.20226455 -0.033034917 0.2638291 0.022374239 0.12088754 -0.16412419 0.20653623 0.0091848755 -0.0316425 0.09594856 -0.23670161 0.11531708 0.026038291 -0.090174586 0.085830286 -0.15393825 -0.18251047 0.09075528 -0.1787668 -0.016656976 -0.021443497 0.062219065 -0.13322671 -0.25385034 0.062018525 -0.04553022 0.052872647 0.20404266 0.020135595 -0.11689519 -0.07860224 0.037513204 -0.086877756 -0.338803 -0.0402024 0.027040306 -0.17231172 -0.11498187 -0.00855458 0.08059218 -0.26374936 -0.28489926 0.04825664 0.19269681 -0.1901389 -0.16686274 -0.15276974 -0.0945146 -0.08575052 -0.0643304
184 -0.39549357 -0.2388889 0.110095166 0.03615745 0.10459086 -0.03163558 -0.18491068 -0.101431 0.13675725 -0.016872779 -0.10950281 0.12740521 -0.13425715 -0.22131069 -0.23119994 -0.08987324 0.30068627 -0.0185163 0.08457375 -0.060467653 0.12789382 0.061154865 -0.0060775457 0.022423267 -0.19472209 0.09334793 0.042826254 -0.11180438 0.014047741 -0.14440589 -0.13115288 0.09316528 -0.14417173 -0.014779456 -0.0388387 -0.020361725 -0.074532025 -0.24059093 0.09219562 -0.013469351 0.13275814 0.10964475 -0.002381395 -0.07263444 -0.112805106 -0.025580952 -0.053394713 -0.27493063 -0.023746548 0.072201096 -0.120139346 -0.07618944 0.0026116993 0.16563763 -0.22377242 -0.2696094 0.019507512 0.13261436 -0.223203 -0.1455469 -0.19428197 -0.09425579 -0.08977174 -0.069228776
103 -0.42394793 -0.27215165 0.15148239 0.048347678 0.13328966 -0.00031694907 -0.16300055 -0.06959108 0.09962114 -0.08092109 -0.114290714 0.10035161 -0.113165446 -0.17820537 -0.19417925 -0.069720976 0.28591815 0.026586134 0.1079443 -0.1359514 0.18040037 0.03852635 -0.07038252 0.06377194 -0.20113227 0.09216387 0.06298083 -0.116845116 0.04402854 -0.15337762 -0.13440934 0.08586847 -0.1621532 -0.0019313813 -0.038943134 0.05607605 -0.11645358 -0.2630884 0.08143727 -0.036397368 0.06612446 0.1581305 0.014848288 -0.09979483 -0.06239031 0.03371708 -0.08156007 -0.30856502 -0.0007963304 0.025346803 -0.1340223 -0.09194321 0.006616546 0.10629515 -0.23443648 -0.2834686 0.028809633 0.16028425 -0.22692935 -0.1368194 -0.1787545 -0.08435291 -0.094069704 -0.05696799
101 -0.42105895 -0.2772241 0.14314762 0.06057812 0.14251503 -0.0056510866 -0.16309284 -0.060741458 0.0949896 -0.099378556 -0.10914781 0.09540063 -0.100600004 -0.14242047 -0.1781017 -0.067948826 0.28106114 0.02540757 0.11967422 -0.15584157 0.19390066 0.02823981 -0.07863383 0.091972895 -0.19500124 0.0891361 0.07139698 -0.114262976 0.05258243 -0.14304909 -0.14791197 0.10469539 -0.16802123 0.0034494598 -0.059910733 0.06113935 -0.13374145 -0.2477125 0.07420237 -0.04804561 0.054484576 0.16156696 0.00012597826 -0.10039432 -0.035145044 0.04406154 -0.09479142 -0.329416 0.010910817 0.03132983 -0.12951304 -0.08423642 0.00336601 0.06870254 -0.20666058 -0.27682304 0.035947807 0.16378656 -0.22539505 -0.12420548 -0.18022136 -0.08353782 -0.10623113 -0.07192412
182 -1.3823962 -0.44593978 0.45824218 -0.1333684 -0.041990772 -0.06272999 -0.626234 -1.6283783 -0.12053737 0.6817754 -0.6082805 0.22640797 -0.09877688 -0.14458159 -0.7050389 -1.3599337 1.7557464 0.17058907 0.7517798 -0.00055959413 -0.22572565 0.70398235 -1.5284958 -0.5562446 0.21863224 -0.36316535 1.4282639 -0.6922078 -0.4062355 -0.5203784 0.2831525 0.1858459 -0.20514406 0.6535802 -1.1605392 0.08119474 -0.08247895 -0.6781153 0.58645093 0.55957556 0.6269394 -0.38979432 -0.21576099 0.110432595 -0.17785494 -0.19593689 -0.5067704 -0.41756475 1.1904988 0.2822935 0.5689784 0.24909092 0.36733338 1.0072763 -0.20912725 -0.51974875 -0.4908786 -0.7583255 -1.8705527 0.48634496 -1.5233759 -0.08647608 -0.3168522 -0.23709291
168 -1.4175457 -0.4598835 0.47868317 -0.11574811 -0.018094605 -0.04107296 -0.6487692 -1.614418 -0.11936555 0.655781 -0.6145137 0.23452264 -0.082490735 -0.13666032 -0.7009668 -1.3603432 1.7661489 0.19161616 0.7711372 -0.042556196 -0.20269749 0.7052871 -1.5504899 -0.5339399 0.20195876 -0.35265744 1.443553 -0.6948824 -0.39219925 -0.5230912 0.2713556 0.1760078 -0.2242622 0.6572665 -1.1722246 0.117222086 -0.10841619 -0.68883884 0.57983637 0.5463087 0.59997815 -0.35911506 -0.21266234 0.10218743 -0.17780301 -0.17319807 -0.5353894 -0.44651735 1.2092466 0.28951854 0.55516994 0.23116785 0.3464582 0.9817884 -0.2174626 -0.53958476 -0.50705063 -0.74160904 -1.8770248 0.48537472 -1.5292728 -0.10522372 -0.33647767 -0.24520083
220 -0.43617886 -0.29115054 0.14765415 0.08255618 0.11695435 -0.018316034 -0.15076944 -0.104771964 0.049522545 -0.06190543 -0.13102116 0.0795405 -0.075317755 -0.08363643 -0.11443557 -0.08454033 0.28396317 0.00772374 0.12720925 -0.15409155 0.19128959 0.036052007 -0.12255399 0.06834283 -0.15572217 0.07078791 0.11911868 -0.15354902 0.030152448 -0.1411913 -0.13424838 0.13120745 -0.17003816 0.026032517 -0.07678732 0.058772247 -0.15453272 -0.25831956 0.067721285 -0.06545745 0.049512293 0.11951202 -0.0130058555 -0.11459719 0.00080224173 0.08012982 -0.103189036 -0.32970443 0.072435305 0.046561416 -0.11848196 -0.061066244 -0.0013869922 0.05292488 -0.16771017 -0.2591686 0.033245835 0.12540343 -0.2804959 -0.10038538 -0.17975098 -0.08638831 -0.13665423 -0.092362076
151 -0.43388143 -0.30306897 0.16457406 0.05464332 0.17417635 0.020887073 -0.1714732 -0.004779456 0.11408707 -0.12155795 -0.09518125 0.094698295 -0.12881799 -0.17803732 -0.19798857 -0.03163383 0.25537202 0.018344663 0.12646843 -0.17672734 0.20930786 0.008462111 -0.03343312 0.12073038 -0.23916748 0.11060213 0.033459358 -0.09068065 0.09017117 -0.15181996 -0.1844908 0.09445817 -0.1790093 -0.009958606 -0.03149601 0.06952455 -0.14513868 -0.2616015 0.06445509 -0.07039965 0.040444363 0.21047732 0.01259313 -0.12485671 -0.046040017 0.053012114 -0.09162608 -0.3358892 -0.034468066 0.03046026 -0.18016276 -0.10958331 -0.018572114 0.054271493 -0.25537968 -0.2993042 0.049970698 0.20126468 -0.19606656 -0.16740535 -0.14727293 -0.10348571 -0.0948929 -0.07018969
148 -0.44361606 -0.2746437 0.15275882 0.03935141 0.14394182 0.0022120038 -0.16953439 -0.036634766 0.107025124 -0.09524873 -0.11599298 0.111495934 -0.12860613 -0.18747601 -0.20120169 -0.04255451 0.27541646 0.015565016 0.1101675 -0.16776831 0.18276225 0.0199746 -0.05837028 0.08804153 -0.21750474 0.10300203 0.051690456 -0.09264274 0.0686474 -0.14681824 -0.14894614 0.09287947 -0.15434293 0.0036175374 -0.04426634 0.054303035 -0.11356971 -0.26008445 0.07746865 -0.04826285 0.058511697 0.16742715 0.0119761545 -0.10660811 -0.06934593 0.033958707 -0.07791251 -0.31767637 -0.022153184 0.023013443 -0.1541695 -0.10447494 -0.00755663 0.09117525 -0.238712 -0.29368266 0.047453452 0.16830632 -0.21690026 -0.16156189 -0.16494925 -0.096275605 -0.08166944 -0.06918619
69 -0.44518855 -0.2980476 0.16731964 0.058410298 0.17762 0.022958206 -0.14409606 -0.0032101679 0.100654855 -0.14622515 -0.09743016 0.090141885 -0.116219334 -0.16073784 -0.17806645 -0.021218255 0.25201446 0.036989935 0.14246833 -0.20163979 0.22756161 0.0056446693 -0.05452394 0.116946734 -0.22873786 0.10339698 0.034717966 -0.08823307 0.08399019 -0.14304133 -0.1761582 0.09551759 -0.17960724 0.00765693 -0.03235451 0.09600524 -0.14235899 -0.25242573 0.044400416 -0.052955355 0.023835158 0.20894536 0.019390378 -0.12908736 -0.038873304 0.07522316 -0.094472006 -0.33869138 -0.0053616045 0.009134809 -0.17935355 -0.12501854 -0.020086797 0.03880842 -0.24882725 -0.27239877 0.051587343 0.19589515 -0.19680476 -0.16671722 -0.15384386 -0.08821957 -0.08080135 -0.060178757
139 -0.43512878 -0.2843624 0.15448642 0.04758081 0.15864721 0.01880752 -0.17061311 -0.044220313 0.11080717 -0.09919437 -0.09793281 0.08933255 -0.11362367 -0.1678984 -0.19318585 -0.058801852 0.27638555 0.016155098 0.12343704 -0.15094088 0.18584904 0.017642071 -0.07564423 0.081402585 -0.20188797 0.08634476 0.060450107 -0.090498835 0.06113202 -0.15000434 -0.15283108 0.097973645 -0.15121138 -0.0013221805 -0.04576307 0.07035364 -0.13057318 -0.2534942 0.064446785 -0.03807236 0.05303612 0.17161489 0.010712171 -0.11053717 -0.06559307 0.03934757 -0.09016858 -0.30950165 0.014940885 0.021214554 -0.1583157 -0.099202454 -0.0014338103 0.0736993 -0.2289503 -0.27932832 0.040165033 0.16236664 -0.21562123 -0.13299626 -0.17486134 -0.08139254 -0.09224086 -0.060148742
134 -0.43060213 -0.29026154 0.15992667 0.05894035 0.15539049 0.02561318 -0.15360364 -0.03568559 0.10584753 -0.11143407 -0.11433961 0.08227839 -0.11643958 -0.16401425 -0.20046923 -0.042842586 0.28087837 0.029134 0.13165998 -0.17290604 0.20267141 0.024116045 -0.08537113 0.08895954 -0.21594678 0.0794887 0.052077074 -0.08927109 0.07385983 -0.14479265 -0.14916736 0.09218119 -0.16334501 0.0009995053 -0.047043353 0.07697997 -0.1451504 -0.26969513 0.05270897 -0.05798555 0.037452772 0.19216111 -0.0024176151 -0.110502936 -0.04166795 0.06840755 -0.09856907 -0.32314837 0.010457883 0.031289432 -0.1562037 -0.111558974 -0.0048772246 0.058985632 -0.23566689 -0.28865385 0.026759895 0.1840563 -0.20297529 -0.14613543 -0.16804782 -0.09239544 -0.091687076 -0.071469955
131 -0.40208644 -0.23822194 0.112365 0.029887997 0.08489644 -0.03216988 -0.17866294 -0.12390121 0.13486193 0.0014286829 -0.12668827 0.14868832 -0.13683447 -0.21929707 -0.22517492 -0.1029186 0.31108013 -0.02234573 0.066063166 -0.034287654 0.11840024 0.05894869 -0.00069887115 -0.01444412 -0.17327675 0.09737272 0.052365296 -0.13797711 0.001604924 -0.14552294 -0.117937215 0.10637822 -0.1503479 -0.04342894 -0.031107081 -0.02918798 -0.06302499 -0.23841815 0.10587491 -0.00034029433 0.15103647 0.08736469 0.0041867904 -0.060720336 -0.10842798 -0.037342314 -0.055694625 -0.27849728 -0.026852889 0.06755828 -0.1018286 -0.06630865 0.008804237 0.18419234 -0.21788615 -0.27411628 0.029122239 0.114981174 -0.228623 -0.13385066 -0.2118921 -0.08614136 -0.097467214 -0.08295602
46 -0.462357 -0.28507408 0.16646372 0.052602205 0.1698654 0.0301398 -0.14760293 -0.045137964 0.08128843 -0.105165936 -0.09567436 0.08485624 -0.102446176 -0.14751506 -0.177964 -0.062699586 0.28157476 0.033400703 0.14183886 -0.18307878 0.18808338 0.01790558 -0.091343306 0.107935004 -0.19688573 0.07415351 0.0684695 -0.094841 0.072501935 -0.15595788 -0.15663926 0.09569972 -0.1675297 0.02470401 -0.06179024 0.07793768 -0.14644997 -0.26244584 0.070518464 -0.04603177 0.029842656 0.16902496 0.0181365 -0.10949487 -0.044518717 0.06950256 -0.098744325 -0.31782535 0.022992589 0.007827503 -0.14007317 -0.09084398 -0.011165938 0.058806196 -0.23148268 -0.266519 0.03459926 0.16063055 -0.24061126 -0.13384166 -0.17069358 -0.08897505 -0.096598156 -0.06199683
190 -0.41625977 -0.24427176 0.12676375 0.024844576 0.12654874 -0.0043067387 -0.16037042 -0.08304011 0.13068868 -0.04503025 -0.10944542 0.11931495 -0.13462184 -0.1984072 -0.23371781 -0.082728066 0.3034449 0.0024206627 0.08758076 -0.09310892 0.14597932 0.042005368 -0.036808375 0.035369925 -0.19097538 0.09381099 0.047009774 -0.09711035 0.035010017 -0.14949858 -0.12076393 0.0910121 -0.151687 -0.023795294 -0.041905727 0.019612938 -0.08712504 -0.25201857 0.096128516 -0.0155158425 0.11575202 0.1417713 0.0003905526 -0.08157559 -0.09599698 -0.011294168 -0.06274464 -0.30306742 -0.019116623 0.044279903 -0.11854009 -0.081039324 0.010513543 0.14393543 -0.23114689 -0.27941 0.018094065 0.12769362 -0.2257242 -0.1416937 -0.20556876 -0.08736606 -0.08518811 -0.06830221
123 -0.44220412 -0.27540353 0.15356906 0.04627102 0.1553072 0.003884513 -0.17205712 -0.028691579 0.1306937 -0.09458896 -0.0971512 0.1169541 -0.13356742 -0.2053274 -0.20658976 -0.042870156 0.26538864 0.012910422 0.099486485 -0.139899 0.19222301 0.014695295 -0.0027675848 0.072116435 -0.23929861 0.116665 0.027435303 -0.095679216 0.0675223 -0.14837946 -0.16093032 0.10602335 -0.17259271 -0.028612405 -0.012373327 0.04611165 -0.12069452 -0.26625973 0.06643815 -0.048615947 0.07563732 0.1698127 0.015913894 -0.10779432 -0.07571795 0.017376935 -0.06452458 -0.32937112 -0.043595843 0.026067052 -0.1705092 -0.10366205 -0.01931386 0.09791434 -0.25655866 -0.30076012 0.05137634 0.1829954 -0.20467001 -0.16938137 -0.16606511 -0.08897293 -0.09803924 -0.06200964
73 -0.43698463 -0.26716608 0.15333395 0.040572904 0.16296116 0.0041629076 -0.14925759 -0.02528383 0.09298802 -0.11023389 -0.10293342 0.08973266 -0.10228473 -0.1499504 -0.17632982 -0.06715272 0.27184555 0.025821079 0.12228986 -0.18106908 0.20781666 0.007086908 -0.082733005 0.09827415 -0.2025295 0.095565505 0.06913332 -0.08920237 0.080784865 -0.16372806 -0.15975189 0.08736041 -0.15982993 0.010922995 -0.06047235 0.07056815 -0.13781694 -0.25035238 0.061537802 -0.048277725 0.033613376 0.17670259 0.018505834 -0.11286711 -0.054395843 0.060422044 -0.09051457 -0.3229487 0.014774228 0.020516228 -0.15341605 -0.102760404 -0.0020519407 0.07517715 -0.23537573 -0.27088475 0.034058236 0.16948731 -0.22695895 -0.14683527 -0.18064016 -0.10051446 -0.08671939 -0.0725179
129 -0.45075887 -0.29913202 0.16300622 0.0567547 0.16354418 0.006754422 -0.16663012 -0.041238107 0.09429255 -0.10943396 -0.09825357 0.09139197 -0.10377243 -0.15165432 -0.16205971 -0.06406764 0.28556788 0.026370382 0.13976634 -0.18368423 0.20088378 0.024869438 -0.107221164 0.09365985 -0.18964715 0.088269375 0.07596209 -0.11227302 0.056793228 -0.15675204 -0.14527321 0.08854786 -0.16460703 0.016557284 -0.060357623 0.06916105 -0.13081239 -0.24447474 0.062946424 -0.042810213 0.03922475 0.18197402 0.002560131 -0.11469294 -0.03502087 0.055722527 -0.097296506 -0.31628877 0.024416968 0.03632814 -0.14820628 -0.087732896 0.0035951925 0.0695961 -0.21702088 -0.27443698 0.040758662 0.16320068 -0.23522039 -0.13950078 -0.17434718 -0.09320505 -0.08714734 -0.074477375
109 -0.43644565 -0.26174405 0.14149874 0.05216689 0.15001751 0.0018476866 -0.1576143 -0.07190682 0.08646487 -0.070553765 -0.103159554 0.087318435 -0.092317834 -0.15249114 -0.19268341 -0.075468525 0.28275603 0.028320963 0.117496006 -0.13728301 0.15898308 0.038998768 -0.089159295 0.077009685 -0.18470305 0.07781151 0.09297677 -0.10857139 0.041900173 -0.14532836 -0.13011523 0.084487446 -0.15035148 0.011903591 -0.062240586 0.05631474 -0.11572978 -0.25210312 0.08419338 -0.031033106 0.057727903 0.14319754 0.009345458 -0.09924976 -0.0533967 0.03482182 -0.08328837 -0.30457208 0.031088613 0.03240987 -0.114405654 -0.0776271 0.0010247425 0.08913216 -0.21454278 -0.2708074 0.021594806 0.14349759 -0.24195643 -0.11992012 -0.18343668 -0.08606538 -0.08687038 -0.0670377
75 -0.42937192 -0.26907256 0.14196855 0.03761834 0.11942324 -0.00063815335 -0.16071133 -0.08875087 0.10378739 -0.056676455 -0.11144152 0.10092848 -0.12050316 -0.18706854 -0.20024298 -0.08766741 0.31064615 0.008287345 0.104829125 -0.115448974 0.15679316 0.024373349 -0.066981934 0.040976673 -0.19546245 0.086358465 0.065044664 -0.11577435 0.035480954 -0.15134053 -0.13439314 0.11097589 -0.15125474 0.005671496 -0.046731886 0.02416674 -0.09562525 -0.25537655 0.08066503 -0.02841458 0.09661359 0.12591207 0.0060126134 -0.094368726 -0.06590668 0.0132039655 -0.075093396 -0.30106547 0.01445859 0.05362294 -0.12881665 -0.069033615 0.003949803 0.109939516 -0.20804341 -0.27145973 0.031922087 0.13022333 -0.23237325 -0.1380774 -0.19934352 -0.0904351 -0.08913508 -0.085364625
136 -0.43437457 -0.28772533 0.16313715 0.03311121 0.15113819 0.014083405 -0.16500925 -0.051548358 0.11227338 -0.08743584 -0.1151272 0.1038487 -0.12130042 -0.18474145 -0.19714978 -0.06048657 0.28661546 0.015508148 0.11656748 -0.15040399 0.17366366 0.027152281 -0.04635391 0.07032004 -0.1973059 0.093558095 0.045858953 -0.09685481 0.055938073 -0.14225791 -0.15166847 0.09220805 -0.16051802 -0.008049509 -0.045871593 0.056427844 -0.11005618 -0.25364304 0.06698302 -0.027759891 0.055875078 0.17188361 0.0091407485 -0.108706936 -0.07314683 0.029291583 -0.08522753 -0.32156074 -0.0036098359 0.038951688 -0.1488844 -0.09496233 -0.00837108 0.099512994 -0.24250703 -0.2874964 0.030351322 0.16401398 -0.21064425 -0.14133155 -0.173287 -0.0922518 -0.085102454 -0.061596986
70 -0.43016106 -0.31482813 0.17314202 0.03956021 0.19305173 0.025982747 -0.15081085 0.030541196 0.10733575 -0.14875133 -0.10179788 0.08481367 -0.12615725 -0.16097818 -0.18890117 -0.017188914 0.25024045 0.041517496 0.15121095 -0.20997487 0.23764998 -0.0021076868 -0.068868466 0.12537654 -0.23395368 0.1080483 0.033976763 -0.072423026 0.11011722 -0.14454097 -0.17395051 0.090736374 -0.18209378 0.0064032087 -0.042421035 0.11028876 -0.15092468 -0.25701693 0.03705457 -0.061588958 0.008480851 0.23041375 0.010777502 -0.13180038 -0.03942931 0.076375365 -0.10822827 -0.34140733 -0.023912216 -0.0012730081 -0.17858906 -0.13182314 -0.009164859 0.033280034 -0.2530752 -0.29000854 0.056345563 0.22577743 -0.19005033 -0.16057876 -0.13997869 -0.09553869 -0.079123504 -0.053926624
28 -0.44940704 -0.29360512 0.17115994 0.054310054 0.16811149 0.02373376 -0.16297707 -0.029413726 0.09999521 -0.11629126 -0.09484428 0.094044425 -0.11575383 -0.16468577 -0.19570677 -0.052450765 0.2788184 0.02838285 0.14096282 -0.17493655 0.18941714 0.0132031515 -0.07748001 0.102536395 -0.21974182 0.094856426 0.054368835 -0.08579836 0.079426005 -0.16073895 -0.16625442 0.09677883 -0.16022298 0.013156919 -0.051122937 0.08425187 -0.1387141 -0.24693565 0.06393434 -0.046801556 0.031444464 0.18845451 0.009728056 -0.10497982 -0.04407124 0.04722131 -0.10330762 -0.32021314 -0.0075351 0.018177636 -0.16564414 -0.10415029 -0.00499276 0.052234814 -0.22251244 -0.2751558 0.029106244 0.1670604 -0.21471773 -0.14560403 -0.16917363 -0.09852003 -0.07856091 -0.055098444
128 -0.43934613 -0.27769524 0.15125373 0.048988983 0.1389514 -0.0017044906 -0.15552355 -0.056488562 0.08307909 -0.099760056 -0.11626704 0.084723055 -0.09850585 -0.16019729 -0.16965295 -0.06469382 0.27890626 0.038824912 0.13847756 -0.18030584 0.17186311 0.021305088 -0.105091974 0.0868563 -0.19212314 0.087278925 0.09290387 -0.11453734 0.055508155 -0.1484851 -0.15554856 0.09033749 -0.15761633 0.01624187 -0.07427483 0.060394384 -0.13349977 -0.24782974 0.07403465 -0.053896856 0.0393187 0.1503124 0.016945194 -0.111032955 -0.040208295 0.056220904 -0.09744017 -0.3219378 0.020965084 0.017808361 -0.14650771 -0.095817775 -0.010162682 0.07381812 -0.22055148 -0.2546739 0.023803568 0.15755276 -0.2459711 -0.12515299 -0.16977008 -0.086089484 -0.09892681 -0.07117084
18 -0.42574525 -0.27284893 0.14889982 0.035926625 0.15576895 0.005625821 -0.16508818 -0.04569982 0.09605342 -0.08408697 -0.10761117 0.09174637 -0.10062094 -0.16149785 -0.17952119 -0.07369352 0.28146502 0.0374833 0.1267426 -0.16230428 0.18822742 0.018919246 -0.0871861 0.08221112 -0.18821345 0.09473543 0.07284097 -0.09814928 0.06724492 -0.14406613 -0.14132124 0.09890474 -0.15648562 0.01997962 -0.05990578 0.07778969 -0.13437165 -0.2511533 0.07152362 -0.03307112 0.039137706 0.17695798 0.00077006564 -0.111724496 -0.05017784 0.053291555 -0.09905211 -0.30821526 0.019424971 0.017116737 -0.14006019 -0.10101666 0.007665393 0.08218401 -0.22549945 -0.26995137 0.027078351 0.1462207 -0.22857444 -0.1358876 -0.17207399 -0.097880356 -0.08676324 -0.06054771
240 -0.3830444 -0.20756896 0.094415985 0.030956239 0.06630062 -0.0537599 -0.19337188 -0.14706124 0.14926913 0.038768273 -0.1334795 0.14466065 -0.14608581 -0.24606438 -0.2454972 -0.115903154 0.3276122 -0.03021373 0.056964006 0.008576499 0.09788961 0.06093483 0.023414921 -0.046794884 -0.17925854 0.1049725 0.04099589 -0.14566328 -0.019151872 -0.13989797 -0.09752398 0.10423309 -0.14103462 -0.04873756 -0.012981309 -0.064967334 -0.042671725 -0.24221343 0.104619026 0.014000324 0.19514427 0.07269573 -0.016051563 -0.06070028 -0.14295977 -0.079123944 -0.032049492 -0.2671017 -0.032479446 0.0930744 -0.08569677 -0.054361697 0.021365881 0.22742972 -0.21637727 -0.2679096 0.009846991 0.086086065 -0.24148998 -0.14068931 -0.2271132 -0.09421005 -0.105223455 -0.08664114
191 -0.43577096 -0.2594349 0.14860657 0.045936584 0.13164696 -0.011674717 -0.14908485 -0.087573014 0.08685177 -0.057559155 -0.11725998 0.09093755 -0.101353824 -0.17032081 -0.17596102 -0.08093268 0.30523783 0.022843486 0.10305443 -0.13332531 0.15213175 0.022160418 -0.07451601 0.049536303 -0.17410095 0.08022296 0.082115196 -0.12511039 0.034756437 -0.14628202 -0.12677181 0.09021559 -0.16662286 0.0037547897 -0.049116343 0.033202507 -0.113230295 -0.263929 0.08318946 -0.051798075 0.075378336 0.12799188 0.0037973523 -0.093836784 -0.054402933 0.017268436 -0.08380656 -0.2913694 0.028145025 0.039870236 -0.11458778 -0.07613923 0.013849718 0.095376216 -0.21635607 -0.25937483 0.03050375 0.12427861 -0.22636877 -0.11563842 -0.18086223 -0.089243904 -0.099980645 -0.08114118
200 -0.36258233 -0.12836276 0.020879613 -0.00416216 -0.05513199 -0.139083 -0.24323454 -0.3202253 0.19728747 0.20169519 -0.1628549 0.22711045 -0.15802902 -0.33749658 -0.30347574 -0.20864473 0.40507916 -0.103387974 -0.0319398 0.2126971 -0.036630575 0.13559607 0.13108915 -0.21152075 -0.12584403 0.08619141 0.024863465 -0.23097762 -0.15569234 -0.1297935 -0.042317394 0.12384912 -0.11501356 -0.094046816 -0.011837249 -0.2565603 0.09108093 -0.21476641 0.1927641 0.09245056 0.3810672 -0.08934674 -0.025823431 0.0076914732 -0.2714713 -0.22374012 0.025729662 -0.20329896 -0.042776536 0.17193489 -0.0053730565 0.019571692 0.05951866 0.44629103 -0.21642584 -0.2657493 -0.016426679 -0.045964606 -0.31567642 -0.1164253 -0.31139493 -0.062517434 -0.13135707 -0.122667186
199 -0.4453763 -0.27983028 0.15334229 0.051691618 0.15602429 0.008823551 -0.1546043 -0.038622882 0.1002742 -0.105277434 -0.09558977 0.09577366 -0.120438464 -0.17253886 -0.19581898 -0.048104193 0.2827965 0.017530683 0.12543908 -0.16322112 0.1857129 0.019054176 -0.060339693 0.08496596 -0.21619934 0.08836502 0.050084103 -0.085969195 0.06068223 -0.15940282 -0.15161932 0.087533854 -0.16265915 0.0016362064 -0.038593598 0.063704036 -0.13791725 -0.25854468 0.069163926 -0.05276584 0.060171936 0.1918435 0.007960869 -0.11655366 -0.058644302 0.036601532 -0.09296036 -0.3113997 -0.006893943 0.035311364 -0.15589103 -0.0945489 -0.009533912 0.07464411 -0.23190224 -0.27881688 0.029697333 0.16468464 -0.21293738 -0.15001702 -0.17928448 -0.09132421 -0.08342178 -0.05701823
23 -0.4338084 -0.24957955 0.13817759 0.03487815 0.13307446 0.009447986 -0.1673067 -0.07739345 0.10630468 -0.058787342 -0.10907413 0.103584096 -0.10193978 -0.1817811 -0.21001892 -0.08835183 0.30229256 0.025339628 0.12679763 -0.12284586 0.14819217 0.039294966 -0.08779213 0.062794045 -0.1752205 0.07802333 0.07604224 -0.10758681 0.042337783 -0.14815754 -0.1288015 0.085614234 -0.15486526 0.015925322 -0.07442735 0.03961588 -0.09667241 -0.2491226 0.07724888 -0.006505114 0.07833829 0.14031053 0.012234017 -0.088278405 -0.07479021 0.0136138 -0.08758069 -0.28185987 0.016983286 0.024874529 -0.11037508 -0.082142316 0.008711575 0.1063583 -0.2275669 -0.2675432 0.01657323 0.12029207 -0.2501371 -0.12878773 -0.19957034 -0.086742006 -0.08137189 -0.059357665
9 -0.38047153 -0.12293297 0.02273736 -0.0111525245 -0.07322479 -0.13281679 -0.25037196 -0.3577153 0.20038016 0.22850923 -0.16362113 0.2511283 -0.16809845 -0.35625744 -0.31863633 -0.2403367 0.43477908 -0.106222175 -0.039282694 0.22157931 -0.080012046 0.15888074 0.11368315 -0.23635976 -0.11331995 0.09857512 0.04313304 -0.24575806 -0.1568471 -0.13774239 -0.018273413 0.117422305 -0.1059917 -0.089026496 -0.015067549 -0.27434164 0.11545312 -0.22860202 0.19906779 0.12713009 0.39269307 -0.12351291 -0.0088931285 0.03413962 -0.28846312 -0.23449498 0.017720995 -0.20038359 -0.031006945 0.15800065 -0.002674562 0.034663342 0.06389747 0.48226252 -0.19575435 -0.2698329 -0.0256559 -0.07946857 -0.3528484 -0.11990868 -0.33917835 -0.07017367 -0.14009385 -0.12206158
143 -0.4285682 -0.25284463 0.1528432 0.050000742 0.12560199 0.008721192 -0.15209214 -0.11178219 0.07264362 -0.0511192 -0.12568572 0.08725788 -0.072654985 -0.14284654 -0.16601188 -0.10809973 0.29618394 0.03206099 0.13631792 -0.1568779 0.14703792 0.031209053 -0.12621391 0.057331555 -0.15730335 0.06682405 0.11241754 -0.11360016 0.023046203 -0.16114138 -0.10955065 0.07928569 -0.14868084 0.039998464 -0.09141514 0.057077296 -0.10856251 -0.22880553 0.086973056 -0.031990986 0.054077446 0.113533095 0.0064512338 -0.0911036 -0.042820107 0.046660766 -0.10774941 -0.26969233 0.061228063 0.033287723 -0.100025885 -0.05819297 0.00015638964 0.100911304 -0.19764309 -0.25181165 0.017753102 0.09570207 -0.2793293 -0.1036151 -0.20657867 -0.084107004 -0.10280406 -0.067447044
211 -0.36151907 -0.092421256 -0.013187858 -0.00039459992 -0.115589514 -0.17856714 -0.2716336 -0.4261891 0.24996579 0.31210285 -0.1864019 0.28766865 -0.20069306 -0.41290188 -0.3753661 -0.25997728 0.47055525 -0.15953858 -0.09468353 0.3377305 -0.11804335 0.1689564 0.20818113 -0.31202132 -0.108992256 0.10278699 0.016650159 -0.26006657 -0.23588625 -0.14630923 -0.01715387 0.13030156 -0.10752574 -0.13879392 0.01793004 -0.3714201 0.15291981 -0.22512281 0.23956454 0.12231892 0.5006306 -0.1687589 -0.044742156 0.060281582 -0.34385127 -0.3237163 0.06554305 -0.1690655 -0.079179525 0.22770222 0.011514887 0.053161085 0.054729033 0.5769119 -0.21227266 -0.28625274 -0.011265961 -0.097780846 -0.35597387 -0.13693485 -0.36827755 -0.07044538 -0.16192923 -0.14809829
188 -0.42955604 -0.26975375 0.16064233 0.03114213 0.14835809 0.006392731 -0.14656425 -0.06859735 0.10004262 -0.07694083 -0.100466795 0.07947846 -0.09973699 -0.17087735 -0.18744053 -0.06077666 0.28543952 0.020708393 0.12204666 -0.15015106 0.16492231 0.021256272 -0.075179376 0.061150897 -0.1920192 0.09118769 0.06928279 -0.10516046 0.04656849 -0.14486745 -0.1298938 0.08845507 -0.15451759 0.008813361 -0.05887624 0.05428646 -0.12562522 -0.2498708 0.06976732 -0.036121894 0.05913837 0.16527456 0.012829302 -0.11015275 -0.04567463 0.027710479 -0.091540344 -0.2988815 0.031764444 0.037655164 -0.1316757 -0.082409374 0.00029687694 0.08726521 -0.21295843 -0.2572876 0.0394623 0.14548504 -0.23334043 -0.14025791 -0.18139774 -0.09341911 -0.08981078 -0.075537905
233 -0.4450801 -0.2742607 0.15841444 0.041300002 0.1374663 0.004114599 -0.16078056 -0.07401555 0.084312856 -0.08195641 -0.12380314 0.09946544 -0.10508265 -0.16069728 -0.18093525 -0.07136479 0.298104 0.036501568 0.12835157 -0.15567666 0.17240284 0.030794136 -0.09184798 0.086009994 -0.18001099 0.086727016 0.07530506 -0.108391635 0.061798487 -0.14332351 -0.13926187 0.091242984 -0.14673504 0.023670714 -0.07349478 0.062921666 -0.12297766 -0.2610865 0.07829047 -0.038442217 0.064663805 0.1478241 0.011618162 -0.09987936 -0.058251068 0.044759016 -0.09457523 -0.3024666 0.02338817 0.031040028 -0.13041505 -0.09013227 0.010027478 0.09549579 -0.21691462 -0.25346282 0.023962053 0.15010689 -0.2326695 -0.13783902 -0.18522224 -0.08918051 -0.09132909 -0.05959643
43 -0.42138174 -0.23483124 0.13009027 0.03785433 0.09919525 -0.031105874 -0.16204338 -0.12583871 0.09135211 -0.016935969 -0.112969235 0.113101155 -0.101281434 -0.16199802 -0.16630344 -0.110958956 0.3047961 0.005207135 0.0914806 -0.097312815 0.13344984 0.0470362 -0.07359937 0.011490318 -0.15499583 0.08685231 0.09256427 -0.13689221 0.005932827 -0.14101522 -0.10317152 0.103747085 -0.152607 0.0167254 -0.05974974 0.0130559355 -0.090930335 -0.24066618 0.10286262 -0.015440531 0.11741313 0.09441219 0.004955389 -0.0784883 -0.08258156 -0.00020712627 -0.06966846 -0.28622654 0.033933915 0.051963072 -0.095646724 -0.054213256 0.011777548 0.14791492 -0.20860504 -0.25731057 0.029112644 0.09149087 -0.27904952 -0.114113726 -0.21419837 -0.07644602 -0.11490878 -0.08002629
98 -0.4283528 -0.27095228 0.13807175 0.047864094 0.14229862 -0.012775122 -0.16227609 -0.05850186 0.09951873 -0.073547356 -0.10668122 0.09520952 -0.09868004 -0.17716767 -0.17794998 -0.07902285 0.29463536 0.021033159 0.10555362 -0.13533305 0.16193917 0.028453032 -0.051365536 0.07299847 -0.20103759 0.09424749 0.06170651 -0.11346823 0.05049199 -0.15204726 -0.15042987 0.09579793 -0.17460832 0.0035983708 -0.050130658 0.034437977 -0.10668925 -0.25335696 0.08058822 -0.037313763 0.07508472 0.1492339 0.004586533 -0.10463424 -0.06450133 0.025898261 -0.07993563 -0.31526685 -0.005709883 0.025629623 -0.13892193 -0.08633602 0.0017947318 0.09304601 -0.23591769 -0.27271143 0.027842762 0.15044668 -0.23166177 -0.13653545 -0.17375298 -0.08275713 -0.104201265 -0.06919368
243 -0.36471358 -0.12100156 -0.0015894045 -0.0011349127 -0.117366545 -0.17785357 -0.2761059 -0.4080419 0.20709197 0.2661404 -0.19440551 0.26540595 -0.18236977 -0.36814296 -0.32354483 -0.24630448 0.4551555 -0.14159226 -0.08209329 0.28867945 -0.08185344 0.16975401 0.15794848 -0.27642176 -0.12219279 0.10369774 0.040448494 -0.28371897 -0.20668858 -0.13661498 -0.024554353 0.14986911 -0.10673609 -0.116648726 0.013269324 -0.32426062 0.12981957 -0.235841 0.22088052 0.11584282 0.4526637 -0.15871254 -0.04210194 0.03682627 -0.2957628 -0.27862048 0.049519137 -0.20810612 -0.051841125 0.20014134 0.0061816503 0.038058564 0.06929826 0.5346427 -0.2005272 -0.27763063 -0.014390741 -0.07770012 -0.36316174 -0.11308773 -0.3522215 -0.07562639 -0.17114578 -0.15237346
216 -0.4336925 -0.29946154 0.14149481 0.11641281 0.06678351 -0.028004847 -0.15155359 -0.1573344 -0.013022457 -0.03786883 -0.16798778 0.06438604 -0.019975638 -0.0063350424 -0.04300175 -0.114726685 0.2957431 0.021983586 0.13368799 -0.18462956 0.18715493 0.06195164 -0.22997098 0.062834576 -0.11651393 0.042191494 0.19688946 -0.2202054 -0.017238377 -0.12858897 -0.10160471 0.15736042 -0.1691002 0.0620613 -0.11390593 0.07310915 -0.16780408 -0.25612423 0.060904067 -0.10757943 0.02629289 0.0709322 -0.031980917 -0.12317951 0.074907795 0.11816648 -0.12309001 -0.3342388 0.15360501 0.056074355 -0.0775788 -0.028049836 0.010463155 0.039647177 -0.1069104 -0.24502449 0.029792737 0.08235217 -0.34500942 -0.036877472 -0.18827823 -0.07941299 -0.17904235 -0.11818947
13 -0.43394077 -0.27793187 0.1603206 0.04537316 0.15664573 0.0041969935 -0.15740807 -0.050465986 0.08644758 -0.10403995 -0.10258146 0.08045358 -0.096053444 -0.16592358 -0.17179832 -0.06614765 0.2741091 0.027246213 0.13481961 -0.18770438 0.19058555 0.020215577 -0.09708183 0.100664474 -0.20447657 0.09059136 0.081364736 -0.095018975 0.07434279 -0.14893004 -0.15552425 0.09148306 -0.16832629 0.01586556 -0.066090606 0.07167594 -0.120531246 -0.24510701 0.072772786 -0.045937154 0.04386848 0.16821939 0.013923146 -0.104887836 -0.045433875 0.060597524 -0.095924 -0.31894118 0.0116153 0.017507369 -0.15663198 -0.096073076 -0.0018561806 0.07226651 -0.23418422 -0.2731604 0.029563319 0.15253776 -0.23593795 -0.14061417 -0.16916752 -0.08946364 -0.095983915 -0.064494476
127 -0.42680052 -0.2467107 0.14765 0.041126307 0.12489304 0.006582221 -0.16210051 -0.10293151 0.072847515 -0.050856218 -0.10017912 0.08467401 -0.08885115 -0.1549597 -0.16169818 -0.095317006 0.30349302 0.024350319 0.13493627 -0.13444541 0.14308101 0.043240782 -0.10008469 0.050439175 -0.15694028 0.06325765 0.10325682 -0.111941725 0.026924303 -0.13804594 -0.119526386 0.083948456 -0.14019285 0.031487722 -0.082648546 0.05432561 -0.10087626 -0.23433268 0.08400271 -0.016566364 0.070587605 0.11485428 -0.0037627595 -0.09212462 -0.060294982 0.032205127 -0.09252401 -0.27750206 0.05402407 0.0271287 -0.11292241 -0.07399085 0.006994883 0.105516486 -0.19733723 -0.24885516 0.0074717635 0.105546236 -0.2629584 -0.107004896 -0.20011927 -0.08130878 -0.097278796 -0.053689826
222 -0.43933487 -0.29597303 0.14594503 0.12000159 0.07916792 -0.018402634 -0.15276593 -0.16573738 -0.012244831 -0.044653215 -0.16650333 0.074799076 -0.019699404 -0.022106735 -0.049765453 -0.11686691 0.2972679 0.016783036 0.12451949 -0.16837515 0.18099289 0.062013708 -0.2163415 0.047231495 -0.12171748 0.031008692 0.19145134 -0.21412303 -0.018338872 -0.14155392 -0.10465167 0.15775627 -0.17322567 0.055316944 -0.10315653 0.061140962 -0.15809447 -0.2624749 0.076691 -0.10597182 0.039451376 0.062170714 -0.022081386 -0.118611194 0.05649155 0.11089201 -0.12162352 -0.33467257 0.13444036 0.046312902 -0.07651866 -0.031164056 -0.0015680552 0.04046188 -0.11652838 -0.24555402 0.03442741 0.09392706 -0.34048826 -0.04116575 -0.19438165 -0.074723765 -0.1614349 -0.11026753
217 -0.44564804 -0.26851845 0.13462488 0.09877983 0.053736378 -0.026174031 -0.15854962 -0.20837505 -0.026342152 -0.013089957 -0.18825528 0.0638026 -0.023265975 -0.013471827 -0.05954014 -0.15518619 0.3122706 0.023404513 0.13420656 -0.16583028 0.14666636 0.075477116 -0.26529396 0.037937466 -0.09443508 0.021293111 0.20942862 -0.21720429 -0.022383584 -0.12287014 -0.08432677 0.13854304 -0.15775737 0.08776895 -0.14469635 0.046283025 -0.14430882 -0.26408288 0.08047334 -0.085037954 0.05208635 0.023935352 -0.021076456 -0.102600805 0.063329905 0.10893068 -0.12205108 -0.3126639 0.15867695 0.054356374 -0.049925692 -0.021423366 0.029375428 0.06689823 -0.10095198 -0.23345661 0.010484586 0.05154065 -0.3706839 -0.014607115 -0.21207309 -0.07626947 -0.15820493 -0.12207227
226 -0.44307455 -0.27404144 0.1502521 0.09230672 0.10135439 -0.011480223 -0.15143938 -0.13593315 -0.0031510603 -0.057647627 -0.150594 0.05561854 -0.027253043 -0.051419612 -0.07188065 -0.12501901 0.29687205 0.046439055 0.15126264 -0.18671715 0.17308412 0.042314604 -0.21288662 0.074167766 -0.12303798 0.050539117 0.17498659 -0.17158374 0.0066073844 -0.14052987 -0.11407077 0.1265859 -0.16487148 0.070316605 -0.1292062 0.07975318 -0.1534278 -0.25529954 0.06550491 -0.08102248 0.029911749 0.07869453 -0.010162752 -0.10635734 0.047829628 0.10894862 -0.13405749 -0.31165996 0.13765582 0.030801255 -0.08019321 -0.0394731 0.013572987 0.039056703 -0.14271574 -0.2329886 0.019913798 0.08156527 -0.3303203 -0.04040115 -0.1866662 -0.07081171 -0.13376625 -0.09540876
185 -0.4450757 -0.25795916 0.14981043 0.05079955 0.12547465 0.001838066 -0.1588253 -0.09621216 0.08046775 -0.060638577 -0.10694264 0.0803449 -0.085024886 -0.14759128 -0.16923149 -0.087181896 0.30550206 0.033440955 0.13318631 -0.14349248 0.16410652 0.03267195 -0.12825261 0.07347049 -0.16042031 0.07571117 0.10404334 -0.117955096 0.033562522 -0.16092567 -0.12917814 0.083495095 -0.14929536 0.024032306 -0.084347084 0.055219132 -0.10946637 -0.24715362 0.083129436 -0.030420223 0.059064273 0.13803908 0.016068859 -0.0884129 -0.048265163 0.04091796 -0.10571438 -0.29535618 0.049546428 0.03214784 -0.099658385 -0.06067429 0.01730307 0.08986228 -0.20077783 -0.2503848 0.019653432 0.11676059 -0.25856698 -0.09695284 -0.19040008 -0.08449532 -0.09558838 -0.07284495
76 -0.42710218 -0.24488592 0.13208771 0.040570658 0.10911899 -0.020690434 -0.16138664 -0.12620823 0.08704401 -0.03520214 -0.11600711 0.11334477 -0.095200725 -0.17796877 -0.17079933 -0.1149517 0.32755077 0.012373393 0.11971692 -0.09519343 0.11492323 0.04410725 -0.10281092 0.015584366 -0.15062176 0.068143375 0.091107674 -0.13664179 0.01644515 -0.14901425 -0.105465375 0.08859894 -0.14069685 0.02299404 -0.06829483 0.027798712 -0.096350394 -0.24961439 0.09784857 -0.013307388 0.08651068 0.09563058 0.012737694 -0.07766094 -0.06973159 0.004309982 -0.082832955 -0.27324823 0.043051966 0.04651638 -0.09141628 -0.063036054 0.01740408 0.13360707 -0.19418165 -0.24135159 0.020776303 0.0973859 -0.26333758 -0.09855858 -0.21641333 -0.0709971 -0.10446962 -0.07669552
77 -0.4142625 -0.26059404 0.14893472 0.034563053 0.11679087 -0.003786356 -0.16673058 -0.086933434 0.09151965 -0.048558135 -0.110790044 0.10601759 -0.112904206 -0.17108414 -0.1853963 -0.09101622 0.30482253 0.015586486 0.11695091 -0.110449195 0.14247204 0.04183096 -0.0768552 0.033986654 -0.17968042 0.08712853 0.07361143 -0.113124415 0.026501141 -0.14724065 -0.12373016 0.08276769 -0.1459724 0.014471551 -0.063311875 0.026676012 -0.09083894 -0.24337673 0.07960818 -0.028852273 0.0826012 0.13044617 0.015649797 -0.08837088 -0.07429845 0.0076209465 -0.082312495 -0.27395356 0.019414974 0.043592956 -0.13287169 -0.07200364 0.002848549 0.110704266 -0.21480702 -0.2678591 0.036994975 0.123288825 -0.24869633 -0.12289682 -0.19753136 -0.090650044 -0.09014314 -0.059858672
268 -0.42623562 -0.25253555 0.12839063 0.10688176 0.04019096 -0.029434036 -0.14963529 -0.23270793 -0.027722066 0.0035552608 -0.18617326 0.08779978 -0.021106064 -0.0045080273 -0.05390651 -0.16587065 0.31418163 0.0012756969 0.11255959 -0.1216112 0.1330609 0.07353565 -0.24857502 0.00811482 -0.08169255 0.015105562 0.20770183 -0.22838168 -0.04982937 -0.12822348 -0.06648525 0.13372877 -0.15383837 0.06752735 -0.12356863 0.03346547 -0.13709962 -0.25803667 0.08809622 -0.08756181 0.068822585 0.0011775034 -0.012908883 -0.097608276 0.049340747 0.08683776 -0.12090383 -0.2990711 0.16472243 0.06540991 -0.038643986 -0.0051741195 0.023681121 0.08746957 -0.09139159 -0.22160812 0.016879652 0.034229424 -0.3800734 0.0033785189 -0.22275199 -0.05980089 -0.1738974 -0.11717374
256 -0.43443516 -0.27387494 0.14638986 0.05279561 0.14066927 0.0064258906 -0.15162055 -0.07174257 0.06415307 -0.07539705 -0.11385797 0.08043484 -0.09585754 -0.13347258 -0.16385251 -0.081467494 0.29158434 0.023051597 0.14141981 -0.1732621 0.1749884 0.030127404 -0.11649052 0.08380577 -0.18217684 0.07260942 0.09813042 -0.112001464 0.062723756 -0.14366165 -0.14272895 0.0921936 -0.15560928 0.031871486 -0.07518413 0.07230698 -0.13204028 -0.2578521 0.06793126 -0.040860195 0.03332776 0.13539399 0.0051766317 -0.11022932 -0.032370534 0.058479697 -0.11178168 -0.317237 0.049251508 0.017265318 -0.12004047 -0.07867354 0.0032319396 0.06406602 -0.20790406 -0.25605723 0.020812202 0.13084145 -0.25006887 -0.10981876 -0.17698993 -0.09158793 -0.102742456 -0.06697145
187 -0.43763283 -0.25202549 0.14393081 0.025054723 0.12079209 0.0019523763 -0.15602656 -0.109105356 0.08956956 -0.032727364 -0.10613524 0.10430786 -0.1079716 -0.17406894 -0.1826922 -0.10029207 0.3070976 0.016584633 0.11167716 -0.11414193 0.13331741 0.049308144 -0.083996154 0.04569746 -0.16717277 0.068763375 0.080995224 -0.10979211 0.029383989 -0.1430387 -0.11098261 0.07796285 -0.1575421 0.010238968 -0.06298301 0.018578984 -0.087382294 -0.24769472 0.091662526 -0.00893994 0.102028765 0.119441085 0.016004927 -0.09260936 -0.08030856 0.009759816 -0.077480085 -0.2781119 0.039842933 0.04080453 -0.107327074 -0.058682196 0.021235205 0.12538353 -0.2125868 -0.25078326 0.014810794 0.097237155 -0.25768846 -0.11457653 -0.19675013 -0.07995953 -0.08917577 -0.058600534
215 -0.45363823 -0.29991552 0.1663394 0.1127782 0.08565222 -0.008684349 -0.1435124 -0.16988693 -0.021861061 -0.050861582 -0.16589686 0.055940602 -0.012245492 0.009560809 -0.038984295 -0.120553315 0.29194745 0.026304197 0.15298246 -0.21617264 0.18949266 0.046899933 -0.28164276 0.07517381 -0.10555963 0.029462852 0.2246598 -0.20965232 -0.009395493 -0.14047907 -0.098497234 0.14429116 -0.18497561 0.08839599 -0.14059031 0.09297779 -0.1725005 -0.27202323 0.070036836 -0.119329885 0.005063031 0.06303461 -0.018785782 -0.122205615 0.09246601 0.14258943 -0.1375135 -0.33767188 0.17439565 0.037193656 -0.0776084 -0.035231534 0.0074942224 0.008137353 -0.10753034 -0.23426563 0.03596 0.08880701 -0.36861807 -0.018755343 -0.19041933 -0.079042636 -0.1690188 -0.113991834
37 -0.4474616 -0.2657634 0.1638362 0.04368848 0.14673519 0.018954212 -0.16395082 -0.069452815 0.090119176 -0.07725161 -0.10405002 0.095928125 -0.08605368 -0.16592243 -0.1784731 -0.071347915 0.28289977 0.02961733 0.14080429 -0.16631104 0.15457228 0.029649884 -0.0895951 0.0838709 -0.1817096 0.076741785 0.082724325 -0.10728999 0.058474105 -0.14692803 -0.13552754 0.08349223 -0.15871389 0.01539884 -0.06308235 0.055772275 -0.10505909 -0.24996272 0.07587608 -0.031978004 0.056646418 0.15443099 0.020056522 -0.106535494 -0.05997517 0.044198338 -0.10134247 -0.2909187 0.03302532 0.01630446 -0.13237347 -0.08062875 0.00759169 0.08582467 -0.22344787 -0.25350764 0.03368372 0.12768409 -0.24567544 -0.11588638 -0.18408115 -0.084888145 -0.089403436 -0.05581868
206 -0.37911925 -0.086777784 -0.0061589372 -0.021122321 -0.1674322 -0.20598681 -0.32035607 -0.49300337 0.2649298 0.35927808 -0.2047952 0.32777956 -0.22371696 -0.45355007 -0.39870808 -0.3018176 0.51747 -0.17960343 -0.10852687 0.38447174 -0.14890566 0.21146326 0.20578401 -0.37298825 -0.10583455 0.11097851 0.020035762 -0.30145225 -0.2619433 -0.14286281 0.006783384 0.13797703 -0.09202634 -0.13196592 0.0065474575 -0.41865352 0.19523667 -0.24456683 0.2731987 0.16594677 0.55663514 -0.20664103 -0.035670593 0.08163222 -0.38248536 -0.35821852 0.07184603 -0.18192747 -0.07656351 0.25038385 0.03604874 0.062782414 0.08516433 0.66709983 -0.21234752 -0.3078261 -0.030760359 -0.1418902 -0.4069764 -0.12927519 -0.408386 -0.0701583 -0.16474588 -0.16954148
4 -0.4435834 -0.26906255 0.16153447 0.055062823 0.14682767 0.002231765 -0.1662738 -0.061904415 0.069418274 -0.09716072 -0.10669812 0.08390767 -0.08209807 -0.13232274 -0.15775354 -0.087854885 0.2923016 0.030422276 0.1461404 -0.17884284 0.1916789 0.025463713 -0.13440669 0.08613562 -0.17300607 0.07805382 0.100392744 -0.11313533 0.06647124 -0.15794054 -0.1421676 0.08682824 -0.16216536 0.033712376 -0.08395653 0.08049503 -0.12908795 -0.24672718 0.0696489 -0.04012602 0.03927909 0.14890482 0.016962802 -0.09910386 -0.027151655 0.05385326 -0.1069126 -0.31199384 0.043176293 0.016598357 -0.12588996 -0.091762505 0.0053948704 0.0677703 -0.21168661 -0.24851091 0.030268213 0.13579243 -0.24710624 -0.11097501 -0.17461541 -0.08816952 -0.09422301 -0.06117129
108 -0.4318112 -0.23218718 0.1293266 0.027896116 0.11533074 -0.012406465 -0.16506004 -0.12297409 0.08418484 -0.021532923 -0.11201045 0.096962795 -0.09474585 -0.16725613 -0.17766796 -0.11673166 0.30943498 0.01441149 0.11383547 -0.10109954 0.13553326 0.054857276 -0.092009224 0.03624318 -0.15272698 0.07420052 0.09313681 -0.13035272 0.013909215 -0.15971631 -0.10551423 0.09634173 -0.15593165 0.015400862 -0.078838535 0.022673307 -0.09577052 -0.24203928 0.09965744 -0.005198393 0.10880929 0.09364458 -0.002580583 -0.085436955 -0.08165467 0.0124319615 -0.085927404 -0.2800391 0.04709066 0.046065655 -0.09504964 -0.056813125 0.021292906 0.13791019 -0.20757394 -0.25949517 0.013348682 0.082400255 -0.27813864 -0.10613524 -0.21828556 -0.0818812 -0.09882601 -0.06396112
189 -0.43330553 -0.2384447 0.1302026 0.04192339 0.121433325 -0.0021916614 -0.16768792 -0.112094745 0.08948568 -0.0351449 -0.11294623 0.10914551 -0.09807738 -0.17496744 -0.18611933 -0.10562342 0.3116464 0.013946833 0.11430959 -0.114952646 0.12744284 0.05202599 -0.07861507 0.04017094 -0.16376372 0.08095643 0.08242473 -0.124585755 0.019132163 -0.1576098 -0.119143516 0.09427624 -0.14962186 0.007010565 -0.072685376 0.02741132 -0.088415764 -0.24375466 0.09258655 -0.025172275 0.0978429 0.106886946 0.01588675 -0.084892064 -0.07877674 0.018365003 -0.07790854 -0.27151927 0.019372977 0.032942854 -0.10211513 -0.06471483 0.015372064 0.11565058 -0.20401558 -0.25203997 0.024796616 0.094097935 -0.2674859 -0.114253305 -0.19593687 -0.07191427 -0.097367436 -0.056772336
6 -0.4165607 -0.23344874 0.12961271 0.033112925 0.084092766 -0.023821175 -0.16944289 -0.15310107 0.08734347 0.00284991 -0.124878384 0.10926543 -0.0975027 -0.17019115 -0.1911216 -0.13357316 0.32666552 -0.0043876134 0.105786845 -0.07940307 0.10381604 0.06115971 -0.09048945 -0.011063451 -0.14083204 0.06472481 0.10689824 -0.15061682 -0.0030563425 -0.13647823 -0.092295334 0.09212563 -0.13594699 0.014266733 -0.08254443 -0.0037692646 -0.06910412 -0.23122557 0.09878722 -0.008207371 0.12193162 0.07905592 0.007200773 -0.07117326 -0.09676588 -0.011137779 -0.07382725 -0.2764932 0.05881723 0.057726074 -0.07990292 -0.04190062 0.01750924 0.17260939 -0.1823435 -0.24894457 0.0052706567 0.057760876 -0.28130072 -0.09096916 -0.21698277 -0.07045948 -0.105196126 -0.077003606
