281 128
225 -0.03530013 -0.12182806 -0.013284826 -0.08051403 0.057879224 -0.088201925 -0.032850374 0.07839158 -0.021112433 0.09909063 -0.090167254 0.13556455 -0.07378104 -0.105502166 -0.0026140232 -0.28763708 0.061087836 -0.01574791 -0.09689353 -0.08839306 0.09295111 0.030415148 -0.0019542673 0.06928563 -0.06979924 0.07833169 0.051498078 -0.03589671 -0.022743719 -0.099218346 0.017520115 -0.009198673 -0.056866188 -0.03658088 -0.07136382 -2.2088123e-05 0.018581979 -0.17255476 0.028042244 -0.06416947 -0.0005407192 0.13436979 0.084676184 -0.08657772 -0.12673695 -0.16068609 -0.0059133964 -0.09489571 0.019054234 0.07281447 -0.009773532 0.049803868 0.062977776 0.18145779 -0.02572191 -0.110964976 -0.07993473 0.0053820014 -0.171626 -0.082150176 -0.04305602 -0.08614141 -0.11607722 -0.04627605 -0.10040076 0.12780115 -0.13385019 0.08505248 -0.035503272 -0.044991873 0.1022874 -0.027747229 0.16808519 -0.16655307 0.09569283 0.0030833557 0.18587744 0.05500306 -0.012525385 0.013216093 0.008874908 -0.065522194 -0.051716805 -0.123316355 0.13396367 0.01766606 0.09118747 0.08394205 -0.08525511 0.08039032 0.06386396 0.033844806 -0.077410094 -0.0154526085 -0.15715131 0.088768445 0.052079536 -0.10354941 0.010090125 0.10465223 -0.25094816 -0.044251602 0.031715818 -0.035679214 0.13154231 0.034612194 0.058889523 0.16308436 -0.0631209 -0.009648783 0.027612219 0.10452403 0.0515837 -0.03965168 0.05446803 0.061686415 -0.15634859 0.080760285 -0.054531373 0.018085599 -0.020579997 -0.018799493 -0.013505782 -0.1553402 -0.17913826 0.15926513 -0.0047973883 -0.002251383
58 -0.042956423 -0.120326795 -0.017058676 -0.08741893 0.059760947 -0.08247979 -0.032813493 0.08493034 -0.025417551 0.104630426 -0.082201645 0.13522638 -0.07885081 -0.09989575 -0.0040785884 -0.2862247 0.05810985 -0.014455423 -0.08959045 -0.08831981 0.08434038 0.022995625 -0.0005252945 0.06347138 -0.0763405 0.07265491 0.044983346 -0.037591062 -0.027310476 -0.09425717 0.018090343 -0.0018968825 -0.062459763 -0.038573083 -0.06318269 0.006548663 0.027899345 -0.16891369 0.031988446 -0.07549358 -0.004485133 0.13412379 0.07981696 -0.08204039 -0.13924462 -0.1549556 0.001989291 -0.09022946 0.024980627 0.07098145 -0.013392123 0.04560597 0.06754742 0.18595822 -0.014172056 -0.11613142 -0.07486904 0.0011640175 -0.17677967 -0.08326859 -0.044612065 -0.09225799 -0.11774109 -0.047459897 -0.104756206 0.1434071 -0.13630228 0.08259894 -0.029230028 -0.048850905 0.10775685 -0.028247692 0.18289846 -0.17692308 0.10276645 -0.007101384 0.20584866 0.062251452 -0.013103709 0.018297957 0.008979274 -0.0719211 -0.050886475 -0.12068915 0.13247596 0.019618925 0.090662 0.08387544 -0.089271925 0.08122966 0.059374046 0.03514722 -0.079571865 -0.012684234 -0.15844391 0.09104494 0.039337426 -0.10477554 0.0023395543 0.10170541 -0.2468151 -0.035273917 0.03810502 -0.037942465 0.12220818 0.040713232 0.05350548 0.1667696 -0.053765506 -0.011436883 0.023591157 0.09574681 0.051662773 -0.046186842 0.06049766 0.056761805 -0.15629391 0.079076104 -0.05918363 0.03308285 -0.018800758 -0.01297056 -0.01932247 -0.14876883 -0.17873958 0.15651645 -0.004134639 0.008746912
198 -0.038874235 -0.12486783 -0.017117789 -0.08237945 0.05962006 -0.08933559 -0.040777165 0.083711155 -0.016821252 0.10178833 -0.093382046 0.1389205 -0.071137324 -0.10679737 -0.0046855984 -0.28619945 0.059195854 -0.010520138 -0.08645378 -0.081499204 0.09123735 0.034590483 -0.003042521 0.06931539 -0.08322497 0.09223692 0.04807151 -0.046762224 -0.027448023 -0.09693186 0.017383037 -0.0012918718 -0.061446667 -0.036572013 -0.06991755 0.0026819278 0.026239583 -0.17849566 0.03143387 -0.069799736 0.0054883836 0.13350634 0.085041456 -0.08560148 -0.13556254 -0.16026454 -0.00030288732 -0.09465318 0.022676706 0.076967195 -0.010138295 0.050369956 0.06418162 0.19091348 -0.020897882 -0.11681412 -0.0757599 0.009052105 -0.18098646 -0.08267062 -0.04892 -0.09277754 -0.11573888 -0.050438687 -0.0996814 0.13658711 -0.13091837 0.08674572 -0.036705703 -0.04763282 0.10595164 -0.026869636 0.16798972 -0.16759387 0.10384664 0.0018537658 0.20365402 0.05651867 -0.018330198 0.015634906 0.014173381 -0.06367528 -0.052622303 -0.12169585 0.13379785 0.0153108565 0.087362476 0.07965855 -0.091628954 0.08307872 0.06753054 0.032137435 -0.06974778 -0.016251117 -0.152651 0.09108111 0.04730731 -0.09919989 0.0037757019 0.10406809 -0.25107592 -0.035159703 0.036896326 -0.0370795 0.12671569 0.039258294 0.054914627 0.16506833 -0.06350192 -0.007565339 0.023070512 0.103224635 0.05295017 -0.041808896 0.05391373 0.06337531 -0.15169029 0.083295 -0.059107043 0.032504722 -0.020060075 -0.014607564 -0.019478157 -0.14426675 -0.17704892 0.15576339 -0.005414608 0.0019593094
54 -0.04355869 -0.12336211 -0.011546767 -0.082155466 0.06180162 -0.086717 -0.03423081 0.07642422 -0.020658437 0.09810604 -0.08639929 0.13648152 -0.07982466 -0.1008557 -0.011789951 -0.2802019 0.05877358 -0.015044373 -0.08666283 -0.087917455 0.08456598 0.027788373 -0.0016546346 0.06817646 -0.07722814 0.07687044 0.046319626 -0.03836471 -0.028446378 -0.100452125 0.019623386 0.002635345 -0.06278559 -0.04473432 -0.06251071 0.004217707 0.021060258 -0.17029127 0.036135677 -0.07453008 -0.0018982635 0.13030934 0.08238786 -0.07927247 -0.12984236 -0.15236254 -0.005694693 -0.0936423 0.020819388 0.07654161 -0.017619146 0.044261314 0.06613381 0.17879896 -0.010876425 -0.12169907 -0.073677704 0.0020576897 -0.17449111 -0.08638954 -0.049555138 -0.0890124 -0.114957474 -0.045024015 -0.1135491 0.15224296 -0.14771056 0.08815931 -0.03650067 -0.05782914 0.12057764 -0.028822333 0.19373614 -0.18344939 0.11295818 0.0018879586 0.21923293 0.06528753 -0.016343199 0.014041165 0.012370075 -0.070214055 -0.05184505 -0.1168888 0.12947 0.013470953 0.08967399 0.08360375 -0.08885422 0.08279418 0.064920306 0.030621963 -0.07962702 -0.018778717 -0.15495543 0.09219681 0.038076036 -0.097713776 0.003730684 0.10040564 -0.24659304 -0.038163878 0.036243342 -0.04025417 0.12767243 0.035109363 0.062166676 0.16306491 -0.057583526 -0.0063282195 0.024706727 0.09880915 0.04662423 -0.03970924 0.052543014 0.054587107 -0.14431126 0.07438636 -0.05104361 0.028911602 -0.02160335 -0.013945313 -0.0146977585 -0.1403478 -0.16276039 0.14123401 -0.008507149 0.0039655315
48 -0.042647436 -0.12281569 -0.010084794 -0.08636698 0.058966126 -0.08528402 -0.03602399 0.07722004 -0.02206885 0.10230055 -0.09256493 0.1360926 -0.073101215 -0.106679216 -0.0073353075 -0.28939784 0.05951018 -0.016681178 -0.084236905 -0.08567505 0.08731134 0.03149006 -0.0041280584 0.0648185 -0.07989164 0.08548392 0.045661896 -0.03993572 -0.031871222 -0.10229519 0.023222214 -0.00789683 -0.060220562 -0.0400706 -0.0726112 0.0038230906 0.027296562 -0.17582698 0.034155667 -0.073215455 -0.0076605193 0.13036603 0.09184989 -0.08098089 -0.1329748 -0.15604238 -0.0029415353 -0.09374592 0.019581825 0.07347213 -0.014756865 0.04978327 0.06467074 0.18879373 -0.019754292 -0.114918366 -0.082061596 0.008360789 -0.17873132 -0.08688726 -0.042914372 -0.091103956 -0.11357181 -0.045446947 -0.10659571 0.14318296 -0.14785168 0.08983266 -0.038220435 -0.056597635 0.10753366 -0.031869713 0.1699072 -0.17224985 0.10629484 0.005096804 0.20540059 0.061461974 -0.011124596 0.011692765 0.013211275 -0.06703213 -0.04739093 -0.11635495 0.13286592 0.016813276 0.08607624 0.08784473 -0.088166185 0.08501562 0.06251908 0.033565376 -0.08332336 -0.018610906 -0.15571418 0.08783019 0.041366354 -0.10659188 0.0032558371 0.11028805 -0.24673526 -0.04252366 0.040536046 -0.038278975 0.12338392 0.044938408 0.05691699 0.16479567 -0.065035395 -0.01490235 0.026649022 0.09922133 0.05121858 -0.038621392 0.051099475 0.0572554 -0.14361463 0.07956934 -0.05290318 0.030485284 -0.01759193 -0.02119299 -0.012267321 -0.1436495 -0.16938989 0.15280476 -0.008822093 0.0024959543
231 -0.039038315 -0.11982578 -0.018751139 -0.08657228 0.0646457 -0.09027603 -0.029424647 0.077231765 -0.021628374 0.10064878 -0.08469638 0.13560717 -0.08413404 -0.1038031 -0.0061600553 -0.28183803 0.057721496 -0.016255507 -0.08875199 -0.0882741 0.09112834 0.033009797 -0.009074585 0.06671473 -0.07331294 0.085096985 0.050724022 -0.038656335 -0.032472476 -0.095769905 0.020721441 -0.0024005175 -0.065495275 -0.04109304 -0.07095509 -0.002480368 0.025787342 -0.17317766 0.033751085 -0.077946395 -0.0036433637 0.13219093 0.08694226 -0.07896994 -0.13217849 -0.15587302 0.00035873897 -0.09251267 0.02193392 0.07707643 -0.016279249 0.04768486 0.067431815 0.18679367 -0.012058637 -0.1184228 -0.07467271 0.0107777715 -0.18133503 -0.08887974 -0.046534516 -0.09082597 -0.1186047 -0.049374543 -0.106543295 0.14458697 -0.14117303 0.08850427 -0.030087277 -0.05064133 0.11122088 -0.029890366 0.17814952 -0.1737775 0.10255613 0.004036076 0.20818534 0.063460216 -0.017722648 0.013216535 0.011548941 -0.0705738 -0.053977653 -0.121121295 0.13141775 0.01867568 0.09083991 0.0851221 -0.08697369 0.085177206 0.06457581 0.035640903 -0.07128574 -0.015028363 -0.15466014 0.090693496 0.048487138 -0.096036136 0.0054114573 0.09582752 -0.24291737 -0.03204852 0.037218343 -0.03452974 0.12657188 0.04136184 0.06284404 0.16302492 -0.060568463 -0.015507806 0.031730305 0.09838251 0.04975225 -0.041404534 0.06290384 0.0590994 -0.15667248 0.080532156 -0.060035188 0.026737817 -0.022437707 -0.018918943 -0.01824618 -0.14855541 -0.18169759 0.1590814 -0.014182107 0.012411684
119 -0.037632704 -0.12033962 -0.013272427 -0.08378271 0.060910862 -0.091029845 -0.03522421 0.075092465 -0.027923599 0.09815981 -0.09037705 0.1344806 -0.08494364 -0.11151161 -0.009790942 -0.28397468 0.06086308 -0.012971934 -0.08748543 -0.08473044 0.09199899 0.03388647 -0.0039477 0.06988286 -0.07833043 0.080456115 0.047684293 -0.038855366 -0.026281128 -0.09497904 0.02089007 -0.010372294 -0.0615585 -0.035602286 -0.066952206 0.0026210498 0.029322363 -0.17537844 0.030145675 -0.07567098 0.0028870194 0.12975676 0.080776885 -0.08446466 -0.1302135 -0.1532438 -0.00727013 -0.09499081 0.01644564 0.074713916 -0.007920031 0.056412384 0.0616011 0.18316083 -0.016296148 -0.11732261 -0.08060375 0.011123929 -0.17942837 -0.08580691 -0.04983369 -0.08579369 -0.117894106 -0.043042377 -0.10007716 0.1426142 -0.14716558 0.08710743 -0.042136066 -0.046730973 0.11303463 -0.030135505 0.18106894 -0.17741004 0.10067117 -0.0016770913 0.19952042 0.062669665 -0.012847483 0.012693263 0.012142774 -0.06467594 -0.050030712 -0.10542232 0.12336422 0.020574708 0.08671097 0.08128128 -0.08221958 0.08062657 0.06595021 0.03549942 -0.07585526 -0.017267551 -0.15740839 0.08411162 0.047680907 -0.0995621 0.009011998 0.09441591 -0.25278172 -0.03939316 0.035314128 -0.03416379 0.13130666 0.038536754 0.057940423 0.1649849 -0.06620885 -0.008711552 0.027173981 0.10511961 0.05023706 -0.041986637 0.053247374 0.06231289 -0.14597097 0.08404413 -0.052925967 0.02757459 -0.022597494 -0.017086843 -0.009054354 -0.14950815 -0.16812809 0.15695786 -0.0069601224 0.007832408
105 -0.038452275 -0.12643784 -0.011151868 -0.08172115 0.06505668 -0.08959542 -0.03144579 0.08191147 -0.02235169 0.104137555 -0.08435592 0.1392773 -0.07779845 -0.10576528 -0.008832324 -0.28188145 0.062618 -0.016507035 -0.087891705 -0.08768689 0.09264801 0.033177584 -0.00037384417 0.073674604 -0.07973422 0.085409574 0.04593448 -0.03417072 -0.032251272 -0.100491636 0.017160576 -0.005932727 -0.06329807 -0.040972408 -0.067485414 0.0029835026 0.022395544 -0.18019111 0.030897979 -0.07507701 -0.0012310001 0.13390623 0.08635754 -0.08704898 -0.13556044 -0.15776092 -0.0008918452 -0.09703921 0.022403024 0.07111787 -0.016109776 0.04710696 0.06582164 0.18220776 -0.016030626 -0.12301418 -0.07981656 0.0070499573 -0.17912368 -0.08332403 -0.041957237 -0.09360824 -0.11772705 -0.044959314 -0.10963652 0.14949387 -0.14748712 0.08867001 -0.036089063 -0.0577078 0.115420066 -0.03473905 0.18797256 -0.17810142 0.105161816 -0.0031073617 0.21181794 0.06485313 -0.0126136495 0.01706726 0.012226173 -0.07251896 -0.05216414 -0.1174504 0.13183388 0.018765755 0.08962509 0.08218775 -0.0858045 0.08185265 0.06345651 0.039971724 -0.0791203 -0.01932192 -0.16014142 0.0901669 0.046550456 -0.09853709 -0.0018598868 0.10289032 -0.24820536 -0.03801798 0.039158195 -0.03251767 0.13028125 0.036150455 0.061708424 0.16184922 -0.062294975 -0.0040758317 0.029938595 0.100622766 0.04473649 -0.037478995 0.051127177 0.061994232 -0.14588809 0.0715758 -0.049174074 0.026290482 -0.01821488 -0.018482225 -0.011564301 -0.13607153 -0.1583891 0.14742851 -0.010641999 0.004222888
59 -0.042774793 -0.11839662 -0.015862765 -0.08873319 0.064735636 -0.08456067 -0.034173686 0.07730156 -0.01863245 0.10315752 -0.08612933 0.14228208 -0.077345364 -0.1035919 -0.009816294 -0.2818725 0.06367291 -0.014623385 -0.09046325 -0.08257745 0.089988336 0.027215943 -0.0065046595 0.0630495 -0.07514336 0.080163196 0.04186218 -0.038832717 -0.02855291 -0.10110638 0.02005647 0.0025309655 -0.06610067 -0.046051957 -0.06813247 0.0062212506 0.019902144 -0.17340048 0.029187638 -0.0778952 0.0047014784 0.13311075 0.07681747 -0.085364245 -0.12934186 -0.15237923 -0.0058640908 -0.096918754 0.026258305 0.0776851 -0.011797607 0.046792634 0.064999156 0.18359394 -0.009801576 -0.11560371 -0.07662262 0.004592479 -0.17769742 -0.08679578 -0.05133227 -0.089317456 -0.11565247 -0.04855113 -0.10078769 0.14808606 -0.15250608 0.08577161 -0.034985725 -0.055311985 0.11666411 -0.033599343 0.18947901 -0.17973627 0.106418155 -0.0012256869 0.21466896 0.063885055 -0.013741341 0.016383272 0.008772553 -0.07202702 -0.055776823 -0.11325762 0.12712121 0.012492834 0.097182915 0.089719094 -0.090111166 0.08324207 0.05840486 0.036695838 -0.07924217 -0.017964704 -0.16007802 0.088411815 0.035908002 -0.10166097 0.008549074 0.10364099 -0.24662793 -0.031944383 0.03816535 -0.039572436 0.12637937 0.035575368 0.06107698 0.16005638 -0.05911967 -0.008881375 0.024620209 0.097394235 0.052538294 -0.037338246 0.057411514 0.058038197 -0.14444636 0.07635884 -0.051602624 0.0259066 -0.020272495 -0.019382736 -0.011579285 -0.13698152 -0.16715288 0.13787092 -0.0064156856 0.0021613685
52 -0.04382126 -0.11821661 -0.008226779 -0.08586315 0.057232264 -0.08891261 -0.03373692 0.074242316 -0.023590324 0.0962294 -0.08207018 0.13679728 -0.07420653 -0.10095661 -0.013115457 -0.29258955 0.0631436 -0.013018802 -0.08590683 -0.089599006 0.08964688 0.02752209 -0.0027026546 0.067683935 -0.08136256 0.082269184 0.041550066 -0.03675004 -0.02574113 -0.1013685 0.021797428 0.0010647954 -0.057256408 -0.039255455 -0.06296202 0.004563812 0.025592905 -0.17159073 0.037865818 -0.07734337 0.002466018 0.1322503 0.08352815 -0.078554004 -0.13316183 -0.15394899 0.0023653153 -0.09275804 0.018869754 0.07291379 -0.013788408 0.04903995 0.06712003 0.18058768 -0.012136448 -0.11821585 -0.0721226 -0.0025998778 -0.17724355 -0.08530686 -0.046376616 -0.084018126 -0.12094528 -0.046025485 -0.1063415 0.14574184 -0.14161715 0.085882664 -0.03774055 -0.05132849 0.10331403 -0.027358335 0.17013699 -0.17135908 0.10347896 -0.0023606913 0.19878341 0.060540292 -0.0154639045 0.01215215 0.014930934 -0.06593389 -0.043221436 -0.12104489 0.13015878 0.015957743 0.09060775 0.09171077 -0.09104832 0.085267104 0.06721856 0.035182495 -0.081046365 -0.0231304 -0.1590858 0.087282345 0.038559012 -0.09875599 -0.002654121 0.10913905 -0.24167559 -0.037927426 0.03860926 -0.04074415 0.13129131 0.04343685 0.06204416 0.16046992 -0.060608648 -0.010451495 0.024789039 0.10166229 0.055944424 -0.04032825 0.059109796 0.06350747 -0.1541694 0.08861534 -0.06008459 0.03339564 -0.020607276 -0.019642122 -0.018247547 -0.15045144 -0.17614996 0.15949635 -0.008728581 0.0022984813
117 -0.037818823 -0.11738494 -0.015588155 -0.084745385 0.06605614 -0.08381883 -0.03969238 0.076590486 -0.020713426 0.09842484 -0.08917208 0.13822658 -0.08356788 -0.10269431 -0.0016965485 -0.28120095 0.0523119 -0.013746112 -0.084642045 -0.089351036 0.08814438 0.031211631 -0.0040886677 0.06313095 -0.08092445 0.08338837 0.04629848 -0.03477947 -0.02910816 -0.093788214 0.01655442 0.0033407258 -0.059011847 -0.038415805 -0.061045777 0.0020164966 0.026308421 -0.16786721 0.036988877 -0.068656854 -0.0040432736 0.12958476 0.07781152 -0.07716616 -0.12708674 -0.15092216 -0.0011260735 -0.08953314 0.020937672 0.07236159 -0.016126625 0.04604576 0.066265814 0.1894313 -0.012354256 -0.11746462 -0.07897594 0.0066357898 -0.1826427 -0.08924533 -0.049011886 -0.09187653 -0.12152439 -0.051532175 -0.109482326 0.15477002 -0.15056849 0.09237314 -0.03804243 -0.05402099 0.11127781 -0.023121383 0.1879012 -0.18843071 0.11009459 0.002529036 0.21665639 0.06370102 -0.01589466 0.018542023 0.011673093 -0.0649321 -0.050166383 -0.10959596 0.12763682 0.024274563 0.090411834 0.08291221 -0.08414941 0.0787579 0.06958826 0.033251885 -0.0758152 -0.021038186 -0.15829188 0.08803294 0.04063921 -0.10226137 -0.0010245597 0.098341756 -0.247215 -0.031498857 0.032981113 -0.043091357 0.1347105 0.04177588 0.06021516 0.16823 -0.055855162 -0.012850911 0.02894188 0.11043516 0.04450766 -0.034820188 0.051788185 0.057284508 -0.14291376 0.07496141 -0.054809023 0.021738227 -0.015108486 -0.016762545 -0.015670285 -0.12758769 -0.15174106 0.14062618 -0.0056544915 0.009321662
91 -0.0428835 -0.12258602 -0.011205015 -0.08483287 0.06389715 -0.08208202 -0.03716886 0.079186834 -0.017356155 0.102525495 -0.08704262 0.1366381 -0.07226596 -0.10148267 -0.00794112 -0.28505027 0.059995133 -0.01245317 -0.0929026 -0.09014055 0.09375303 0.029619474 -0.001053207 0.06892811 -0.081056036 0.087947726 0.054277014 -0.040978946 -0.026566818 -0.1029953 0.021015735 -0.008222922 -0.067663625 -0.042986676 -0.06684499 0.0066456315 0.02585433 -0.17215738 0.032639436 -0.07421714 -0.007078569 0.13808285 0.08402214 -0.080043994 -0.13473165 -0.15361479 -0.004944092 -0.09374172 0.023754062 0.0666641 -0.0173008 0.04588696 0.06366672 0.1832385 -0.017534606 -0.11352685 -0.07010268 -0.000271375 -0.17911096 -0.085652836 -0.042313114 -0.08639953 -0.11052531 -0.04690582 -0.10374753 0.1432022 -0.14273651 0.09155598 -0.039230295 -0.053335562 0.111431465 -0.02823655 0.17951751 -0.17763326 0.101626694 0.004146889 0.2092699 0.06429086 -0.010697928 0.017973008 0.016791662 -0.072266765 -0.052197598 -0.11335924 0.12604707 0.016472077 0.08615037 0.08437406 -0.09099424 0.083627224 0.066417925 0.027495012 -0.07779211 -0.021349756 -0.15373665 0.09033259 0.049020305 -0.10261422 -0.002720466 0.10334674 -0.24500881 -0.03165964 0.039726086 -0.043491825 0.13043943 0.03677674 0.05496237 0.16370052 -0.054854807 -0.012393403 0.025262097 0.10367781 0.053416025 -0.043791935 0.052722264 0.062472556 -0.15355633 0.08011607 -0.048697643 0.027782055 -0.023259308 -0.0124155525 -0.020441884 -0.14348266 -0.17267679 0.14904529 -0.011184534 0.0036629927
83 -0.03597724 -0.115771614 -0.018503787 -0.085238814 0.06604476 -0.07946451 -0.039173454 0.074858084 -0.014804638 0.101749174 -0.08184295 0.13887641 -0.07818086 -0.10901312 -0.0063992077 -0.27892637 0.05588936 -0.01811175 -0.09136076 -0.085720256 0.09193475 0.033183556 -0.010268448 0.0623354 -0.07387609 0.077491984 0.05054528 -0.04281039 -0.030476028 -0.09606789 0.016292213 -0.0009744012 -0.0638766 -0.03906116 -0.06899985 0.0037920927 0.021785688 -0.17058732 0.027394047 -0.07876302 0.0047884006 0.12975295 0.07782772 -0.08359131 -0.13095222 -0.15878503 0.001913303 -0.09178111 0.025232868 0.07832445 -0.0075330827 0.04924224 0.062565364 0.18746734 -0.015270378 -0.11463424 -0.07748996 0.005587495 -0.17859276 -0.08715657 -0.046447705 -0.0885853 -0.11566633 -0.046143107 -0.10520302 0.14849952 -0.14206418 0.09349868 -0.03697113 -0.048923492 0.11441437 -0.026769673 0.18133764 -0.18087827 0.1045694 -2.0919028e-05 0.21143971 0.06369449 -0.021585375 0.01610908 0.009315184 -0.06899923 -0.04928305 -0.114816085 0.130873 0.018829614 0.09209855 0.08409011 -0.091498494 0.08428834 0.070888 0.029625442 -0.07920619 -0.022284647 -0.15619569 0.091854125 0.04350188 -0.10034253 0.0095244665 0.100231364 -0.24794045 -0.032924574 0.029997297 -0.041759968 0.13175002 0.037349712 0.05605473 0.16397569 -0.06119235 -0.009955413 0.026834432 0.10534374 0.04527993 -0.043667216 0.05617453 0.054157056 -0.14455971 0.069437824 -0.051885176 0.029564703 -0.020909691 -0.01608264 -0.016964741 -0.1411665 -0.16621229 0.1472666 -0.0095472075 0.001534541
86 -0.04072271 -0.12193026 -0.007667209 -0.084483765 0.06562994 -0.08480684 -0.031193756 0.07874948 -0.02281081 0.10374563 -0.090794325 0.13948448 -0.07406767 -0.10277816 -0.0057559293 -0.2816856 0.05756367 -0.014344156 -0.0872396 -0.08788203 0.09039731 0.032346427 -0.0011335625 0.06681884 -0.08217846 0.08213123 0.045356564 -0.035303462 -0.031334974 -0.09827548 0.017638717 -0.0091043115 -0.063691944 -0.040464357 -0.06619649 0.0035665913 0.027673837 -0.17630225 0.033188406 -0.07522951 0.0023576645 0.12683263 0.08242339 -0.081428416 -0.13192642 -0.15194975 -0.0017166202 -0.0897782 0.020162744 0.06737922 -0.009879129 0.051310122 0.0609374 0.17988762 -0.01791569 -0.11964488 -0.073084965 0.008233505 -0.17250198 -0.08792832 -0.05002898 -0.085379444 -0.113784045 -0.044660315 -0.10495548 0.14170125 -0.13880447 0.08649497 -0.03461228 -0.045509174 0.106823355 -0.026486892 0.17476273 -0.16755618 0.09423906 -0.0023765827 0.19769925 0.058214225 -0.00795467 0.019893635 0.01067336 -0.06838665 -0.045767587 -0.11888175 0.1292866 0.012780116 0.09497893 0.081024334 -0.082675986 0.078275874 0.0703634 0.03551848 -0.074930675 -0.01823155 -0.16379263 0.0950166 0.04307767 -0.09904219 0.0055940803 0.10551796 -0.25362414 -0.040038526 0.035231356 -0.04138355 0.13579066 0.044990502 0.05976861 0.16629937 -0.063219756 -0.009081066 0.022725642 0.10676841 0.05595136 -0.039124344 0.053041037 0.066046365 -0.15485239 0.08024475 -0.055552535 0.029533014 -0.016357666 -0.019757876 -0.016259586 -0.14464638 -0.17338489 0.15084936 -0.007981429 0.0013157416
96 -0.038090397 -0.11753684 -0.011592506 -0.083358616 0.06117687 -0.087231144 -0.03812599 0.07864706 -0.025536556 0.09813962 -0.088777356 0.13307138 -0.07857983 -0.109446034 -0.0067253467 -0.27049917 0.058492288 -0.010691491 -0.09387942 -0.08546023 0.093906485 0.028555658 6.0083315e-05 0.06366873 -0.07989116 0.087200835 0.045451663 -0.038617726 -0.029535232 -0.097173385 0.019256352 -0.0048769517 -0.0629972 -0.035011955 -0.067790575 0.0016684029 0.026155965 -0.1648781 0.031451263 -0.08085751 -0.006425206 0.13489452 0.08546804 -0.0795036 -0.12978579 -0.15662383 -0.0015466867 -0.09084421 0.024761096 0.072004616 -0.018563699 0.049952853 0.05996024 0.18374595 -0.012609159 -0.116442636 -0.070591815 0.0098641785 -0.17679314 -0.08728434 -0.043981303 -0.09146924 -0.10971902 -0.048459947 -0.104134195 0.14104408 -0.138357 0.08820444 -0.034579583 -0.05018939 0.11208372 -0.028366355 0.17995091 -0.18010873 0.10718594 0.0030121098 0.2067001 0.05756904 -0.017922489 0.008791139 0.014462328 -0.073480874 -0.04903428 -0.115965314 0.12816459 0.021677855 0.08722972 0.08389418 -0.08517614 0.08003022 0.063957006 0.035626292 -0.076209985 -0.018158477 -0.15540123 0.090847164 0.044661023 -0.101375446 0.0076290043 0.10077886 -0.2432857 -0.033011165 0.036812346 -0.039300956 0.12873027 0.039762676 0.054415382 0.1699554 -0.05968365 -0.011457676 0.027553687 0.1004249 0.052624855 -0.035373442 0.058134012 0.060286812 -0.15097408 0.08522954 -0.051366653 0.031117395 -0.025649061 -0.02006465 -0.01593948 -0.14913549 -0.17690834 0.16406928 -0.00957303 0.009907088
258 -0.039379437 -0.12143814 -0.020996444 -0.08659039 0.064875774 -0.081311174 -0.028929474 0.08291115 -0.028073289 0.10096403 -0.08560454 0.13577205 -0.08100245 -0.10766261 -0.01051917 -0.28533038 0.060561188 -0.017999195 -0.09110743 -0.08351831 0.093866326 0.028701272 0.00028972264 0.067744344 -0.082235284 0.083883695 0.04754687 -0.038921487 -0.024070432 -0.10474626 0.017764334 0.0016709951 -0.06946275 -0.044931214 -0.06993612 0.002328487 0.028484808 -0.17646635 0.027015597 -0.07623131 6.0380735e-06 0.13949496 0.08535669 -0.08238075 -0.13195246 -0.15664682 -0.0009871324 -0.09568673 0.020911206 0.0774228 -0.014619854 0.049789388 0.064719684 0.18260749 -0.01665236 -0.112584256 -0.07798705 0.010098384 -0.17059398 -0.08383609 -0.04959231 -0.0872729 -0.11116598 -0.041411195 -0.10614762 0.15183713 -0.14886147 0.08820427 -0.03294866 -0.058893103 0.11607573 -0.02907692 0.18487833 -0.17687204 0.10341572 -0.0042010006 0.2110425 0.06542488 -0.011181199 0.014441021 0.012939976 -0.0733754 -0.051305745 -0.10996116 0.124622986 0.016260758 0.08557023 0.08744494 -0.090065666 0.084127314 0.0648439 0.032853816 -0.075912826 -0.02097423 -0.15585576 0.09127397 0.043947607 -0.10105566 0.0009207059 0.104764275 -0.24266127 -0.0343194 0.030971054 -0.03727127 0.13166966 0.040560547 0.059455413 0.16569306 -0.06265381 -0.010382765 0.029837647 0.10122485 0.052173257 -0.044036977 0.05408597 0.059656862 -0.1482207 0.07041939 -0.05378918 0.02581364 -0.022202296 -0.022261064 -0.012490913 -0.1365601 -0.17130892 0.14590557 -0.007208832 -0.0008476804
3 -0.044651557 -0.120382674 -0.012375177 -0.08523841 0.06588118 -0.08554838 -0.032401137 0.07741455 -0.026197111 0.099944554 -0.08697214 0.13774712 -0.086593956 -0.11230811 -0.01119411 -0.29003957 0.062379573 -0.015652694 -0.09089043 -0.093305424 0.08953939 0.032395236 -0.005684644 0.07304338 -0.07886179 0.08223508 0.046196274 -0.036023982 -0.02775431 -0.097418174 0.021520797 -0.007191255 -0.068485565 -0.034885406 -0.06875914 0.0006754498 0.029280787 -0.17382868 0.03181799 -0.0774869 0.0011140015 0.12778236 0.07908577 -0.08524478 -0.13434745 -0.15123609 0.0016042871 -0.09596562 0.019812597 0.07810801 -0.012064914 0.044928204 0.063417435 0.18612099 -0.018497366 -0.12399186 -0.08041453 0.0075725415 -0.18216799 -0.07851224 -0.05107451 -0.09213692 -0.12167777 -0.042282462 -0.10354197 0.13997097 -0.14221832 0.08912641 -0.03284859 -0.05717903 0.113762826 -0.027167032 0.1835959 -0.17422862 0.1046982 -0.00062688615 0.21330515 0.055257674 -0.013219575 0.012885498 0.009356129 -0.0700694 -0.050841738 -0.11910458 0.13095741 0.0220771 0.09128684 0.08764435 -0.086350806 0.08240464 0.06464357 0.041209225 -0.07899093 -0.01627321 -0.16428028 0.09403218 0.038090415 -0.09412054 0.0024719303 0.10004118 -0.25030178 -0.036035225 0.03072405 -0.03579613 0.13622138 0.044013105 0.056319397 0.1583226 -0.0618233 -0.012025668 0.0267459 0.101664886 0.050399143 -0.037654627 0.049653046 0.056907907 -0.14473812 0.075701766 -0.052591912 0.030479044 -0.019266987 -0.019905366 -0.013054052 -0.13828826 -0.16386147 0.14451483 -0.006689275 0.008694586
146 -0.042950638 -0.12239366 -0.0171329 -0.08667636 0.058138758 -0.094539866 -0.037581038 0.0791455 -0.022844467 0.10537944 -0.08854454 0.13724698 -0.08750414 -0.10405024 -0.008532621 -0.283323 0.058760826 -0.016786376 -0.08791587 -0.09141999 0.085019276 0.024690362 -0.0029303029 0.072713375 -0.082975864 0.077372365 0.0490316 -0.038195718 -0.02855658 -0.10047188 0.024196053 -0.0007086487 -0.06449588 -0.044695236 -0.06441009 -0.0011399515 0.023789844 -0.17390956 0.033037137 -0.07611671 0.0040351273 0.13525589 0.08990146 -0.08292463 -0.13449603 -0.15896218 -0.004503466 -0.091695786 0.019440386 0.06811651 -0.012031061 0.048600182 0.060329255 0.18430454 -0.01324708 -0.1178979 -0.07128869 0.0019168095 -0.18420745 -0.08840304 -0.04614524 -0.08513461 -0.12071438 -0.049209643 -0.1045838 0.13653247 -0.13778894 0.08797031 -0.033700533 -0.049759693 0.10601627 -0.026357997 0.17576662 -0.17055899 0.09842945 -0.0072189285 0.1955145 0.060812004 -0.011726566 0.013292742 0.020267203 -0.062000107 -0.052170847 -0.118122324 0.13147736 0.016031243 0.08508499 0.09057531 -0.0885127 0.077897124 0.06565529 0.037642103 -0.075206414 -0.02077226 -0.15162724 0.08935284 0.044432104 -0.097285494 0.004856029 0.10474277 -0.2436997 -0.036310192 0.034031656 -0.040436305 0.1286576 0.04173869 0.062379524 0.16478005 -0.059436508 -0.011015537 0.031662386 0.1002548 0.05031901 -0.04334271 0.05813475 0.063975364 -0.16051337 0.083253115 -0.058857866 0.03432425 -0.01966163 -0.020826314 -0.015169562 -0.16013606 -0.18984078 0.17175777 -0.008120283 0.0045173876
236 -0.04138579 -0.11490803 -0.017381435 -0.0843473 0.06690378 -0.09060383 -0.03174694 0.080084145 -0.024142591 0.09974231 -0.08774662 0.13540864 -0.08491146 -0.10768631 -0.008886385 -0.28806835 0.06229424 -0.015603648 -0.089528665 -0.092687145 0.09482042 0.02981366 -0.0007131074 0.067184575 -0.07677385 0.082554646 0.049665216 -0.036536686 -0.03314347 -0.09873749 0.022604754 -0.0048425943 -0.0665255 -0.039761618 -0.06397038 0.0067030466 0.033301666 -0.17386085 0.03726826 -0.074286796 -0.0061110766 0.13467994 0.084491484 -0.08496451 -0.13496268 -0.16275607 -0.0030530093 -0.08775999 0.017151693 0.0726687 -0.020022834 0.04133255 0.06455597 0.18050687 -0.015577505 -0.11858702 -0.07526247 0.010203852 -0.18340796 -0.08736319 -0.053030577 -0.09455032 -0.11482015 -0.04490654 -0.10426201 0.14763518 -0.14419144 0.084107235 -0.034116354 -0.052181337 0.11090715 -0.025722919 0.18162623 -0.17486028 0.10316224 -0.0046011074 0.20436265 0.065014854 -0.013539116 0.017960837 0.009626208 -0.069864005 -0.052685056 -0.11503876 0.12920104 0.021351716 0.08632244 0.08738143 -0.087532 0.077564344 0.064566486 0.0365799 -0.079882495 -0.02242865 -0.16226813 0.089241736 0.04112783 -0.10441168 0.00022382344 0.10176396 -0.24620356 -0.034732524 0.038255136 -0.030572498 0.1251778 0.038112227 0.06337407 0.1650579 -0.064014174 -0.007978581 0.025951266 0.096027024 0.048841715 -0.033000004 0.049238004 0.05094665 -0.14675397 0.067742884 -0.05453756 0.021613203 -0.020746639 -0.016870763 -0.011182271 -0.13713035 -0.16383721 0.14362913 -0.0053251265 0.0080918055
144 -0.032116324 -0.115626544 -0.01838165 -0.07903974 0.06450696 -0.0885917 -0.032224834 0.081790246 -0.022439888 0.10849211 -0.09173086 0.13773671 -0.080613256 -0.10662084 -0.0032833577 -0.28444928 0.06763216 -0.009298205 -0.08954859 -0.08719927 0.09362489 0.029834125 -0.0070429454 0.06784719 -0.075036585 0.078901485 0.04528317 -0.034726713 -0.027613671 -0.10146191 0.025376234 0.002446002 -0.06471829 -0.04295546 -0.06644407 0.0024366246 0.020180799 -0.17156307 0.04184342 -0.0771264 0.0062195766 0.13437119 0.08799859 -0.0787025 -0.13469636 -0.159413 -0.0054122405 -0.091936454 0.021886507 0.07895004 -0.008728931 0.049432117 0.06629008 0.18769723 -0.019419828 -0.11327155 -0.07514806 0.002856196 -0.17452818 -0.089941315 -0.04367683 -0.08798753 -0.113055274 -0.045522783 -0.107409835 0.1373912 -0.1372488 0.08622945 -0.0377903 -0.049902137 0.10257175 -0.025218014 0.17072612 -0.16714494 0.09469177 0.001345589 0.20082906 0.06434089 -0.007909845 0.01573361 0.01747028 -0.06543526 -0.050494965 -0.11504302 0.12595826 0.013414359 0.086016886 0.08913478 -0.08861724 0.08086 0.064114146 0.03574233 -0.073553964 -0.015729608 -0.15692303 0.09534183 0.050817277 -0.10345338 0.0074011465 0.10424265 -0.24667531 -0.036065426 0.037275597 -0.03982979 0.12206061 0.03319427 0.059598368 0.1684179 -0.057933714 -0.0047851703 0.028910123 0.10638162 0.05227594 -0.044728734 0.060302146 0.064509116 -0.15548794 0.079589255 -0.06061481 0.033312634 -0.014954186 -0.014972712 -0.009140279 -0.15295619 -0.17395963 0.156505 -0.011017618 0.00047146197
94 -0.04017163 -0.11943229 -0.015250015 -0.08396616 0.058310293 -0.08633031 -0.039827265 0.081443705 -0.02247567 0.10213279 -0.081283145 0.13373376 -0.084700234 -0.10651085 -0.00922 -0.28053248 0.055232186 -0.01049303 -0.0912305 -0.0923019 0.0931447 0.029859925 0.0009232656 0.074580595 -0.076084256 0.08449461 0.04747747 -0.0384347 -0.031515278 -0.09725243 0.022755004 -0.0045148316 -0.06636601 -0.043784484 -0.06668621 0.0015989445 0.026137263 -0.16364484 0.035754394 -0.07336174 0.00047495076 0.13162528 0.086457916 -0.08035343 -0.13392231 -0.15567297 -0.003001853 -0.08707754 0.025107186 0.07645468 -0.016633058 0.05183941 0.058569964 0.18358652 -0.013521041 -0.11713027 -0.07458922 -0.0015973614 -0.1811725 -0.08982526 -0.05010261 -0.08897182 -0.12002892 -0.049152207 -0.112822354 0.14845225 -0.14020422 0.09080682 -0.040418535 -0.055270907 0.11361035 -0.02512717 0.1806707 -0.18555251 0.11003113 0.0017427616 0.21439995 0.057273056 -0.016792284 0.016769981 0.015184954 -0.065631226 -0.049712926 -0.11474501 0.13299643 0.017843891 0.08665541 0.08321587 -0.08233295 0.082878284 0.06772837 0.036674 -0.07293445 -0.020162255 -0.15493554 0.09525445 0.044064745 -0.0951163 0.0060738255 0.09463188 -0.2492394 -0.032948907 0.03356238 -0.036056817 0.13481908 0.032695618 0.057643265 0.17089514 -0.05332106 -0.011286474 0.025647337 0.09951502 0.05193023 -0.04366394 0.056819502 0.060986597 -0.14732862 0.082453445 -0.052334238 0.031793814 -0.025418038 -0.0115367705 -0.01252697 -0.14293212 -0.17244297 0.15822758 -0.009971166 0.012413605
142 -0.04594663 -0.12568194 -0.018743096 -0.08888154 0.060928207 -0.0865035 -0.036099106 0.07876688 -0.024125293 0.10350923 -0.08907685 0.13482344 -0.080479465 -0.10508385 -0.008075508 -0.29279485 0.069806986 -0.011476588 -0.085168414 -0.08397087 0.08840915 0.029648663 -0.007940845 0.06793931 -0.07912437 0.08410848 0.050266985 -0.036393322 -0.02669431 -0.094543844 0.022398889 -0.0033021239 -0.062017895 -0.038910065 -0.06459818 0.0065141665 0.027200498 -0.17435844 0.03840735 -0.073174484 -0.0026223373 0.13333775 0.08407736 -0.08221026 -0.13643044 -0.15478984 -0.0061470037 -0.089833386 0.021429908 0.07469448 -0.013573431 0.049156874 0.066920176 0.18847357 -0.013374118 -0.11444042 -0.07816991 0.0041472535 -0.17977552 -0.08420095 -0.04747846 -0.08873828 -0.12082942 -0.04768264 -0.104223095 0.1428791 -0.14571455 0.08251194 -0.033643283 -0.05050098 0.11001561 -0.03038222 0.16803615 -0.17876337 0.10378142 -4.299614e-05 0.20416382 0.057888042 -0.018206907 0.011563351 0.011004845 -0.073415644 -0.04911736 -0.11285472 0.13723353 0.021208558 0.08972669 0.088597335 -0.09381872 0.082751796 0.06227372 0.034509543 -0.07898363 -0.018703585 -0.15610097 0.09094265 0.043095343 -0.10035067 -0.0023600429 0.10319766 -0.2513164 -0.040141124 0.036664408 -0.03923686 0.12608513 0.035968557 0.05811388 0.16257694 -0.060463477 -0.01332245 0.030740611 0.0978974 0.046153188 -0.040204838 0.058958378 0.05375908 -0.15203066 0.07463168 -0.049592342 0.03499742 -0.018479498 -0.014939573 -0.0057058265 -0.14693059 -0.16874139 0.15051995 -0.008043373 0.011132131
244 -0.047440782 -0.1237365 -0.019754851 -0.08508468 0.068103634 -0.089697756 -0.030680876 0.077466585 -0.020695906 0.09966533 -0.09173365 0.13569307 -0.07175867 -0.10752921 -0.008568953 -0.28314173 0.06106165 -0.015307386 -0.08192765 -0.08373626 0.09288854 0.034541234 -0.0013113227 0.06775507 -0.083705544 0.08222269 0.045788594 -0.032813475 -0.02253392 -0.1027174 0.018107152 -0.0056322045 -0.06639262 -0.039301887 -0.070316225 0.006976718 0.024766684 -0.17455648 0.030575046 -0.082173415 -0.0022931402 0.13859893 0.08110743 -0.07769204 -0.13338606 -0.15653053 -0.00076951325 -0.09074087 0.01987942 0.076281905 -0.018550983 0.045283623 0.0614152 0.17944935 -0.015379221 -0.119044386 -0.069071196 0.005311312 -0.17062032 -0.081299104 -0.045729786 -0.09626484 -0.11202094 -0.048129834 -0.09203292 0.13787411 -0.12852006 0.08028166 -0.026176304 -0.04593464 0.09587843 -0.020519035 0.1670645 -0.15191264 0.08801613 0.000988361 0.1939314 0.063050255 -0.010636768 0.020263083 0.0045753815 -0.070617765 -0.05349761 -0.1160958 0.13426344 0.017307952 0.08552952 0.08817456 -0.090647124 0.08594699 0.06425624 0.03268483 -0.08331106 -0.023001716 -0.16285817 0.09614201 0.04151784 -0.10198203 0.00181836 0.10233037 -0.25075513 -0.034625623 0.036033496 -0.040803 0.13306749 0.036874574 0.061121948 0.16135915 -0.059202135 -0.012851421 0.028357888 0.096369006 0.05247352 -0.039872304 0.06602178 0.07133725 -0.16573556 0.08693596 -0.060306713 0.03265695 -0.027417013 -0.019745585 -0.018819327 -0.1549543 -0.17759281 0.15196134 -0.013943212 0.00033497743
118 -0.03451096 -0.120921634 -0.010946398 -0.08149726 0.056788705 -0.084604174 -0.03338909 0.08187796 -0.021061318 0.096980065 -0.08402398 0.1392227 -0.07686612 -0.10496484 -0.007125434 -0.27939188 0.06006149 -0.015359627 -0.09329116 -0.08566579 0.0960468 0.031030856 -0.007695414 0.070594266 -0.07463338 0.088391535 0.04498385 -0.041766815 -0.02771932 -0.09377954 0.013661948 -0.008048676 -0.05934202 -0.032485552 -0.06927812 0.0015750173 0.025098491 -0.16728562 0.035819914 -0.07834634 -0.0038638946 0.13250549 0.08200511 -0.07876631 -0.13484488 -0.15461269 -0.0017288579 -0.091924734 0.021030622 0.07359176 -0.012101875 0.045310903 0.059348606 0.1821913 -0.01167422 -0.1164145 -0.07081499 0.0043035033 -0.17323531 -0.088550396 -0.046386715 -0.093778856 -0.1123196 -0.046291165 -0.106396854 0.14493278 -0.14102548 0.090806946 -0.03890871 -0.05159441 0.11010012 -0.030135196 0.18126328 -0.18177238 0.10149574 0.00095324835 0.21201777 0.06093129 -0.016560452 0.014428383 0.007417124 -0.07417687 -0.05623457 -0.11872415 0.12831306 0.017749263 0.0869054 0.08722406 -0.0879384 0.085464865 0.067181446 0.031469055 -0.07263581 -0.02112391 -0.15988664 0.09315076 0.047265377 -0.09917125 0.0034156425 0.10271693 -0.24368587 -0.03526321 0.041048255 -0.03572516 0.13237014 0.039599784 0.053544547 0.16500664 -0.060104072 -0.011251814 0.032839067 0.100296594 0.04601699 -0.042688984 0.05265441 0.06177791 -0.14938676 0.07570053 -0.054993726 0.02495828 -0.024528328 -0.011039779 -0.02006092 -0.14086112 -0.15935078 0.14666745 -0.012393179 0.0061218217
61 -0.047257904 -0.116408445 -0.013675956 -0.085413635 0.064825736 -0.090467505 -0.03558398 0.08214601 -0.020127043 0.100713134 -0.08524393 0.13892968 -0.07925633 -0.10759591 -0.009982578 -0.28939635 0.062486496 -0.008297264 -0.08999542 -0.09186089 0.09038761 0.026351577 -0.0050374786 0.06552192 -0.07759836 0.08454437 0.04788453 -0.042893156 -0.029880498 -0.09850616 0.019359397 -0.0038063715 -0.06487359 -0.038120333 -0.0663495 0.008286953 0.030186227 -0.17540996 0.03685334 -0.081858665 -0.0013037588 0.13281164 0.087772876 -0.080165766 -0.13651907 -0.15690507 -0.0072022937 -0.09011536 0.025283268 0.07353806 -0.016989563 0.046581637 0.06643455 0.18659948 -0.019831806 -0.11451338 -0.07489419 -0.0020732167 -0.18291408 -0.0930494 -0.043519508 -0.09341631 -0.11458431 -0.040569853 -0.10935767 0.1504928 -0.14474519 0.086844325 -0.035359815 -0.050664008 0.108784474 -0.02135649 0.17806491 -0.17725758 0.10574855 0.0028832173 0.21356672 0.0659815 -0.013939635 0.016791092 0.015545738 -0.07014725 -0.057407912 -0.122219965 0.12511954 0.015432849 0.09134221 0.08604411 -0.08329586 0.088029474 0.064415105 0.034445982 -0.08032087 -0.028195169 -0.15620588 0.091602005 0.04671299 -0.09830103 0.0029191896 0.101645246 -0.2504047 -0.029028727 0.04010245 -0.034343604 0.13780136 0.033550315 0.054169156 0.16605668 -0.056925733 -0.010713623 0.023117444 0.102097325 0.049283862 -0.04144176 0.05105353 0.06350818 -0.14974828 0.080325246 -0.056901306 0.026331792 -0.016897444 -0.013432575 -0.018003631 -0.14017612 -0.16072328 0.15307006 -0.01433187 0.007237278
2 -0.035761595 -0.11840507 -0.012741631 -0.08365381 0.05737792 -0.07864915 -0.032851446 0.08173028 -0.028125472 0.09839423 -0.086886905 0.13762073 -0.07847826 -0.10678814 -0.0060249977 -0.2884383 0.056320455 -0.009750333 -0.08756699 -0.08765001 0.09213774 0.030925691 -0.00455051 0.07078675 -0.08282252 0.080751814 0.045086432 -0.03804978 -0.020645214 -0.09465952 0.016981835 -0.006293449 -0.064397566 -0.03177012 -0.067868635 0.003369468 0.028121445 -0.17917629 0.038282827 -0.07489762 0.005728365 0.13426064 0.08605792 -0.08481105 -0.13211313 -0.15496042 -0.006216263 -0.0957011 0.018785447 0.06924037 -0.013166266 0.046860836 0.064670704 0.18380392 -0.018405106 -0.117044576 -0.07256961 0.007850432 -0.177526 -0.08137909 -0.047425687 -0.087134026 -0.116816334 -0.047892034 -0.10661695 0.1436652 -0.13677783 0.08227902 -0.04497176 -0.051283825 0.10713917 -0.026915547 0.17757316 -0.17502534 0.10011669 0.0039538853 0.20128307 0.055858396 -0.01671515 0.00924006 0.008041314 -0.06889986 -0.052136388 -0.11824612 0.13172907 0.021112528 0.086069286 0.08457765 -0.08386241 0.08240668 0.06979196 0.03518442 -0.07631854 -0.020554181 -0.16235387 0.092437215 0.042894308 -0.096503645 -0.0028542418 0.097127065 -0.2455238 -0.04318817 0.0383768 -0.0462029 0.12856351 0.03839652 0.06009209 0.16898942 -0.06605245 -0.010362344 0.024463914 0.10045642 0.04763171 -0.04536142 0.05407662 0.057569418 -0.1514459 0.08111794 -0.057512864 0.02572204 -0.026959797 -0.017889882 -0.01516866 -0.15235387 -0.16698192 0.1586668 -0.0065953843 0.0023874114
277 -0.038782712 -0.11477047 -0.014818847 -0.08092493 0.06261613 -0.09136566 -0.04408623 0.075796254 -0.017262869 0.10142915 -0.08862373 0.13153745 -0.07925128 -0.10629155 -0.012584736 -0.27355427 0.05978603 -0.014962797 -0.0889293 -0.087068476 0.09032598 0.03293686 -0.0030960448 0.07227595 -0.07422797 0.08016322 0.048476957 -0.035443064 -0.024963642 -0.10615017 0.013631328 -0.0033208507 -0.060554054 -0.035675775 -0.072330505 -0.0008288206 0.021497395 -0.16891314 0.029589703 -0.07801513 0.00047217935 0.13414548 0.07926756 -0.084781714 -0.1349019 -0.15549305 -0.006711242 -0.09148663 0.024621407 0.07366671 -0.009295049 0.051901083 0.06532877 0.17834187 -0.01591477 -0.11248317 -0.07729119 0.007869554 -0.17822178 -0.083515845 -0.04373405 -0.08881275 -0.116493955 -0.049418356 -0.102088906 0.14238925 -0.13983381 0.09321507 -0.037807327 -0.051606186 0.1114206 -0.030224083 0.17628007 -0.16870634 0.10505887 0.0015149218 0.19898666 0.0572397 -0.019299354 0.00992751 0.009755622 -0.06884781 -0.054119803 -0.110904545 0.1325842 0.021858882 0.084629096 0.083842136 -0.084488586 0.08105634 0.06426515 0.032638837 -0.07699036 -0.020194387 -0.15555675 0.084349 0.048342682 -0.10176742 0.0073833996 0.09704493 -0.2434708 -0.03295834 0.036918383 -0.037967812 0.12984626 0.03766084 0.062093943 0.15987836 -0.059295777 -0.00629305 0.026187986 0.10441659 0.049028546 -0.033315796 0.054986056 0.059775695 -0.14530948 0.08113083 -0.05107009 0.025084198 -0.024307605 -0.020996846 -0.013491166 -0.15054561 -0.16802025 0.15342093 -0.00885317 0.0037677155
84 -0.04519358 -0.11757434 -0.015497582 -0.0795892 0.07358322 -0.079944365 -0.030981302 0.07708106 -0.020650256 0.10357129 -0.086578414 0.13961847 -0.07351423 -0.10982577 -0.007940854 -0.2855218 0.061472133 -0.011697512 -0.087695435 -0.08222431 0.08262393 0.029625913 0.00066301913 0.06856594 -0.08005346 0.081020325 0.04427539 -0.033492617 -0.025701791 -0.10171453 0.019279586 -2.2941755e-05 -0.06830017 -0.036166184 -0.06815064 0.008157856 0.022149896 -0.17266472 0.035827555 -0.07673328 -0.00353094 0.13942263 0.08782378 -0.085249774 -0.13305178 -0.15557013 -0.0031462943 -0.09029634 0.018552786 0.07488705 -0.014060877 0.044896074 0.055996444 0.1792609 -0.017736519 -0.1191187 -0.06817623 0.008425598 -0.1765839 -0.07997507 -0.050698787 -0.08699821 -0.115800746 -0.043891653 -0.09929255 0.14713271 -0.14169702 0.08791704 -0.03539818 -0.05624484 0.10610494 -0.029425757 0.16943622 -0.17132185 0.09750748 0.0007951466 0.20654222 0.064958915 -0.013435957 0.019308126 0.012274356 -0.06615387 -0.04970509 -0.11362183 0.12749639 0.016553702 0.08866131 0.08649568 -0.090494595 0.08210963 0.05777828 0.03549805 -0.07471864 -0.02138407 -0.16321096 0.096437015 0.040456187 -0.1005546 0.0054599685 0.106043674 -0.2474015 -0.036933623 0.033382174 -0.03628987 0.1213739 0.039537363 0.05541469 0.16139764 -0.05532012 -0.00633018 0.027326642 0.10173717 0.054930255 -0.03977329 0.062073004 0.065725125 -0.15306336 0.085797034 -0.06114894 0.037229773 -0.02931125 -0.015861182 -0.018061573 -0.1494622 -0.1785696 0.15648642 -0.0009261498 0.0038444726
138 -0.042756643 -0.12458361 -0.02161733 -0.08628377 0.06568955 -0.09095104 -0.03795729 0.08076362 -0.021580528 0.100516714 -0.08894086 0.13719551 -0.08182994 -0.10606094 -0.0059501445 -0.28235492 0.06254925 -0.021665132 -0.091250926 -0.08661736 0.091782525 0.029690666 -7.9956135e-07 0.06680966 -0.07594017 0.07906701 0.050443113 -0.040231436 -0.026927553 -0.092746064 0.019601416 -0.00055989524 -0.062686466 -0.04346939 -0.07069613 -0.00041178212 0.019718634 -0.18031609 0.03176093 -0.07337114 0.0010322063 0.13159512 0.082603574 -0.08498211 -0.13536854 -0.1628077 -0.003908125 -0.094103485 0.022596855 0.07997297 -0.015319664 0.050628774 0.060920514 0.18959174 -0.015720716 -0.12071975 -0.08003102 0.008306272 -0.17624728 -0.07994539 -0.04915356 -0.09654397 -0.11209209 -0.051722392 -0.094560765 0.13325529 -0.1290872 0.08132853 -0.032615468 -0.045698233 0.09881504 -0.0272225 0.16602309 -0.15860446 0.09607986 0.0010384537 0.1895073 0.05915864 -0.014664226 0.009575588 0.012648044 -0.065757215 -0.049797304 -0.12429865 0.13338049 0.013099032 0.092262544 0.09102842 -0.08766366 0.08351598 0.060150642 0.036524408 -0.0796383 -0.023377145 -0.16029055 0.094590195 0.049032785 -0.10382627 0.0104872035 0.10732568 -0.25543085 -0.038866255 0.035368934 -0.03601892 0.12661172 0.04026355 0.057438422 0.1655151 -0.060678475 -0.008683606 0.026307195 0.10543312 0.051393133 -0.040519673 0.06681574 0.06550052 -0.15943623 0.07976312 -0.055083875 0.019756775 -0.022295402 -0.020639163 -0.014671194 -0.16032138 -0.1851301 0.16589807 -0.0082928855 0.0015480962
133 -0.0441133 -0.121024065 -0.011481614 -0.08404767 0.06063137 -0.08319144 -0.037710104 0.080424935 -0.021307865 0.10332196 -0.08483506 0.13581431 -0.08035167 -0.10374356 -0.008902271 -0.29043582 0.05357109 -0.011842345 -0.08667222 -0.09234397 0.09407086 0.031884287 -0.004336946 0.07091735 -0.08514875 0.08429553 0.04839021 -0.037990462 -0.024847353 -0.094490714 0.017802382 -0.003351225 -0.064792894 -0.038506567 -0.064376436 0.0052454094 0.024763081 -0.17119792 0.032742996 -0.076385304 0.00071428623 0.1365599 0.08822575 -0.08045219 -0.13424708 -0.15161367 -0.0033785473 -0.09571583 0.017472122 0.069038525 -0.015026021 0.0418698 0.06400365 0.1857732 -0.015977066 -0.11709765 -0.07274129 0.0010730922 -0.17718656 -0.08460403 -0.04165225 -0.09213254 -0.11764954 -0.044228718 -0.10839432 0.1474044 -0.1424418 0.08518674 -0.031392746 -0.052125216 0.10675047 -0.024630792 0.1804005 -0.17687935 0.10405894 -0.0018909364 0.20825034 0.064793766 -0.015081313 0.014175431 0.00860288 -0.06784372 -0.05208251 -0.119432695 0.13024707 0.022810474 0.09213638 0.083212025 -0.08921783 0.08943489 0.06637838 0.03487432 -0.07649588 -0.021833414 -0.16235447 0.09065439 0.042318635 -0.09703925 0.0022405565 0.098084055 -0.24276556 -0.04043454 0.038583513 -0.04101439 0.13218206 0.036267214 0.05508012 0.1684766 -0.05914065 -0.01228046 0.024899805 0.097287446 0.050015073 -0.046534717 0.06194572 0.05966236 -0.15281917 0.08691393 -0.0575004 0.028322801 -0.021729784 -0.01662561 -0.01953803 -0.14974241 -0.16959816 0.16083889 -0.013088544 0.008643795
246 -0.04181902 -0.11688275 -0.010815842 -0.07803647 0.061188564 -0.08659251 -0.036816984 0.07908414 -0.028078128 0.1044284 -0.08216941 0.13917509 -0.072394796 -0.11553986 -0.0093538305 -0.2800926 0.06271712 -0.016691258 -0.087608114 -0.08593563 0.085491754 0.024607979 -0.0065938197 0.06899018 -0.07027249 0.08786641 0.0491087 -0.041230574 -0.026857821 -0.09489761 0.013979527 -0.0035772533 -0.05720479 -0.037686266 -0.07327652 -0.0006271462 0.026266523 -0.1730811 0.02626059 -0.07314754 -0.0006483051 0.13179778 0.08611008 -0.08121655 -0.13141066 -0.16202275 -0.0043678405 -0.0852177 0.022026928 0.07462987 -0.014667352 0.046302278 0.059320733 0.18121055 -0.011309691 -0.11563177 -0.0784306 0.0045357076 -0.18059704 -0.09052722 -0.047065794 -0.08825998 -0.11469607 -0.04924838 -0.10984493 0.15194987 -0.14403991 0.09248588 -0.0399055 -0.0530834 0.10989961 -0.032391604 0.18365325 -0.1818633 0.110999994 0.005740037 0.21473539 0.064503536 -0.017530149 0.017141655 0.011307846 -0.06496106 -0.05110884 -0.11344635 0.13340098 0.013791187 0.08495158 0.08984768 -0.08865335 0.080506824 0.06342838 0.030597933 -0.079054646 -0.022142202 -0.15747213 0.08849099 0.043455865 -0.09416644 0.0067502554 0.10059661 -0.24626346 -0.03234572 0.037737478 -0.035929613 0.13209626 0.046182428 0.05740145 0.16039997 -0.060493685 -0.0048019285 0.028816346 0.1013765 0.04506251 -0.03946921 0.057300895 0.05797649 -0.14754793 0.077196494 -0.05123443 0.022225644 -0.027369961 -0.020125257 -0.018411383 -0.15055354 -0.17011903 0.15402558 -0.014427105 0.008439442
282 -0.03712651 -0.12527573 -0.022399403 -0.08112927 0.067500144 -0.090810545 -0.031122439 0.076170884 -0.021174137 0.10637216 -0.08177381 0.14097351 -0.07939977 -0.10118933 -0.0052258577 -0.2891069 0.061422102 -0.017825538 -0.088918924 -0.08211037 0.08285094 0.027912281 -0.001756449 0.06444108 -0.077364765 0.08382118 0.051612593 -0.040887896 -0.032078605 -0.099792615 0.020028226 0.00021160895 -0.061065834 -0.038073875 -0.06691975 0.0039430913 0.024955925 -0.17322768 0.033507027 -0.076394394 0.0029666235 0.13200207 0.081168644 -0.08696839 -0.13493858 -0.15850405 -0.00013769406 -0.089297965 0.021761918 0.07547741 -0.008725065 0.04758665 0.05913954 0.18193747 -0.011135654 -0.114712454 -0.07574577 0.0010931803 -0.17413358 -0.08482576 -0.047274742 -0.09068096 -0.1221078 -0.051726088 -0.09856561 0.13460566 -0.1350823 0.082262084 -0.03233601 -0.0497714 0.110038176 -0.021507535 0.16988532 -0.17411281 0.10372387 0.0025479218 0.2016489 0.066239156 -0.012369717 0.020564148 0.011869656 -0.06316664 -0.04936125 -0.11687644 0.12338593 0.016489435 0.09184727 0.08145979 -0.09207242 0.0828328 0.068660915 0.033076152 -0.0785681 -0.0195962 -0.1602875 0.08487922 0.044546206 -0.10113602 0.0051611303 0.10080631 -0.24034464 -0.042141646 0.03433638 -0.037225302 0.12465569 0.0378089 0.06275004 0.16780913 -0.06270122 -0.011736435 0.021280963 0.103778385 0.054809462 -0.038357377 0.0627442 0.06478479 -0.15710786 0.08105469 -0.058535084 0.021359151 -0.027906347 -0.020650914 -0.018469743 -0.15408196 -0.18253924 0.16351305 -0.010186713 0.003133113
106 -0.03871663 -0.11943762 -0.016577138 -0.083073795 0.060617033 -0.0877443 -0.033286482 0.0788091 -0.029941237 0.096757345 -0.08323689 0.13812545 -0.08681199 -0.106808744 -0.013033109 -0.28702137 0.06505833 -0.0150416065 -0.092685215 -0.08182861 0.08957012 0.027580453 -0.00692648 0.0627407 -0.08903154 0.08714545 0.050018854 -0.047536716 -0.025954865 -0.09992244 0.014781974 0.0020581249 -0.06352295 -0.039256357 -0.0657379 0.0023931789 0.032437995 -0.18099523 0.03316682 -0.0772636 0.0023137056 0.13807926 0.07899017 -0.084370166 -0.13631572 -0.16138454 0.004428353 -0.0969593 0.01829429 0.06884784 -0.015742926 0.053677816 0.06475316 0.18405853 -0.01377331 -0.12129836 -0.07959474 0.009216649 -0.18135446 -0.09244796 -0.05116869 -0.09315054 -0.11411546 -0.047885474 -0.10005072 0.14192356 -0.1358874 0.07858369 -0.02992692 -0.05029952 0.10286824 -0.026012741 0.18010753 -0.17226161 0.09752432 0.00048900157 0.19777933 0.0593943 -0.01230826 0.019634496 0.013888248 -0.07405704 -0.048525 -0.120997615 0.12919642 0.016917627 0.08717018 0.084106185 -0.08998968 0.08017078 0.06389498 0.036676 -0.0822175 -0.012046923 -0.15594034 0.08983675 0.048000112 -0.09739487 0.0025172818 0.105338976 -0.24579118 -0.03055307 0.039695352 -0.045747574 0.13317361 0.03881435 0.060552236 0.17011292 -0.061110206 -0.007986005 0.023594443 0.10363304 0.04491744 -0.03803412 0.055976342 0.061232056 -0.15088972 0.072147325 -0.04765959 0.02691906 -0.024793096 -0.014280262 -0.014461687 -0.14480482 -0.16596276 0.14544801 -0.0043260404 0.0021526488
85 -0.03931466 -0.11810769 -0.022443559 -0.085068576 0.06051961 -0.088020615 -0.033379797 0.075838245 -0.015588151 0.104790136 -0.089209035 0.13233206 -0.08453938 -0.09735254 -0.0019021184 -0.28180808 0.05887103 -0.013725813 -0.0947405 -0.08870848 0.08653354 0.03223081 -0.012237645 0.06117335 -0.07860893 0.0776033 0.047341943 -0.04022097 -0.032004625 -0.09443734 0.024550559 -0.0065581603 -0.0652503 -0.03770881 -0.0717075 0.004471762 0.017843936 -0.17161614 0.033265512 -0.07132365 0.0036905117 0.12480887 0.0816701 -0.08302067 -0.13263716 -0.15539159 -0.0003447548 -0.096036725 0.018659007 0.07838874 -0.008143838 0.049023557 0.062436543 0.18718293 -0.015486918 -0.113522485 -0.070217475 0.010133266 -0.17480978 -0.08206228 -0.04354332 -0.094680466 -0.120185025 -0.050519653 -0.11008028 0.1491637 -0.14934316 0.09204223 -0.034148037 -0.056470007 0.11557519 -0.023592327 0.18055034 -0.18759243 0.11415414 0.0023221218 0.21830791 0.06691267 -0.01780557 0.01614436 0.011308201 -0.06500135 -0.04688028 -0.119001016 0.13400905 0.01666382 0.09152439 0.08561494 -0.09289036 0.080055885 0.058799382 0.0389106 -0.07900007 -0.022272164 -0.16386662 0.09829716 0.045537453 -0.095561735 0.0025400354 0.10034358 -0.24743459 -0.03683067 0.034130864 -0.03877765 0.12954997 0.034032974 0.06064943 0.16341382 -0.062452465 -0.01679852 0.029078094 0.099915944 0.041779093 -0.03698608 0.062607005 0.05833502 -0.14805245 0.06694173 -0.056160584 0.024160244 -0.01658394 -0.01297275 -0.008309125 -0.13973543 -0.17218858 0.15473315 -0.00837972 0.0035883528
192 -0.037065636 -0.11531876 -0.017757133 -0.079798445 0.057920393 -0.08609272 -0.03440673 0.074737355 -0.01803187 0.09605008 -0.081572525 0.13017161 -0.07666137 -0.1025276 -0.009783828 -0.27719787 0.065095335 -0.012319457 -0.08803632 -0.08932055 0.08380431 0.022195121 -0.008355215 0.072872706 -0.077781074 0.085466675 0.045256056 -0.037698906 -0.027683467 -0.09630806 0.023705075 -0.0061636567 -0.05729619 -0.04193991 -0.068470955 0.0056070886 0.021389257 -0.17234504 0.035023715 -0.075956516 -0.00012166305 0.13009933 0.08253524 -0.08492264 -0.13172467 -0.14894831 0.0023858622 -0.092311636 0.024602994 0.07359714 -0.018377459 0.04385139 0.06812088 0.17837165 -0.013189312 -0.11690557 -0.075810425 0.005156637 -0.17224939 -0.08353453 -0.048168298 -0.096089005 -0.11534919 -0.048138306 -0.103769176 0.14348942 -0.14326395 0.09376041 -0.038905375 -0.052417994 0.10640454 -0.026880525 0.1811982 -0.1722977 0.106677584 -0.004689246 0.20883894 0.05852494 -0.016557774 0.015748609 0.013376725 -0.06734774 -0.052099545 -0.114721194 0.13492303 0.019478986 0.08464722 0.08366613 -0.0844057 0.08054842 0.059501614 0.036661204 -0.076805755 -0.020790963 -0.15831086 0.09027713 0.046242893 -0.098976 -0.0006717971 0.10049531 -0.25229713 -0.03373291 0.03271264 -0.03918349 0.1301378 0.039589804 0.05650793 0.15836714 -0.0588328 -0.015841434 0.029167641 0.09794938 0.056578938 -0.039059643 0.05870164 0.06269233 -0.14929558 0.07842313 -0.055453174 0.032053765 -0.019816076 -0.018094841 -0.013483587 -0.14355138 -0.17425522 0.15727869 -0.008005597 0.0020021761
97 -0.0450507 -0.11105667 -0.014025846 -0.08315961 0.06144932 -0.090730935 -0.036734134 0.080076106 -0.014241366 0.102487914 -0.08349249 0.13835275 -0.0781231 -0.10347868 -0.006636144 -0.28010732 0.058570787 -0.020426104 -0.09257916 -0.088799134 0.09219036 0.029006338 -0.005057364 0.06336025 -0.07783479 0.07978544 0.044024743 -0.044630688 -0.03206139 -0.09896535 0.022669071 -0.00013757909 -0.06674447 -0.04186331 -0.06621819 0.006266987 0.02749207 -0.16807276 0.029130043 -0.0803936 -0.002746228 0.13344796 0.08039369 -0.076912776 -0.13397038 -0.15738638 -0.0012460244 -0.09116814 0.028522503 0.074060135 -0.007392937 0.052828394 0.06244224 0.19079688 -0.009690019 -0.11357175 -0.07489582 0.0061350884 -0.17783387 -0.08557196 -0.045038443 -0.0876186 -0.11729621 -0.050318897 -0.09922008 0.14692903 -0.14424266 0.089915715 -0.025941776 -0.053444657 0.112291574 -0.024651866 0.17236967 -0.17248918 0.10677109 -0.0046836734 0.20384522 0.06609498 -0.011007726 0.014402934 0.010139874 -0.060962494 -0.049764972 -0.12009613 0.13035412 0.011717057 0.08644322 0.08795853 -0.08468864 0.07843488 0.062352248 0.029035175 -0.07651494 -0.015774421 -0.15100113 0.091074824 0.03851398 -0.09935602 0.0049728206 0.098431475 -0.24941479 -0.034207363 0.038507782 -0.041682713 0.12917459 0.040313255 0.061414372 0.16487555 -0.059407406 -0.011301388 0.022558419 0.097799525 0.049340855 -0.040540185 0.05948429 0.06305818 -0.15223491 0.07942376 -0.052801766 0.026706832 -0.02205292 -0.019256078 -0.011022351 -0.15601096 -0.18505988 0.16206361 -0.0075389324 0.009256275
278 -0.038204063 -0.11652294 -0.017822009 -0.084141225 0.06592329 -0.08606909 -0.029798867 0.08009439 -0.024127431 0.09531372 -0.08770612 0.13148476 -0.07589102 -0.10489466 -0.008740911 -0.28601402 0.05994553 -0.010729949 -0.086436 -0.08453019 0.097287424 0.029547721 -0.0014545141 0.069539435 -0.08062653 0.08663383 0.042676307 -0.04094066 -0.028188225 -0.09789675 0.020070927 -0.0018479681 -0.058518074 -0.04492624 -0.065097585 0.005771946 0.0270255 -0.17482896 0.035308205 -0.08153177 -0.0024037892 0.13389099 0.083909966 -0.07683327 -0.13116105 -0.15646446 -0.0026272405 -0.09161094 0.021177044 0.07073483 -0.017762871 0.04816732 0.058985863 0.18584685 -0.017290065 -0.117933095 -0.07068857 0.0050476943 -0.17488477 -0.08401137 -0.04772929 -0.08086928 -0.11256494 -0.048268564 -0.113545544 0.15271606 -0.14805214 0.090287656 -0.040504 -0.052152168 0.1089463 -0.027322743 0.18647537 -0.18466629 0.1079899 0.0029290463 0.210609 0.06814881 -0.01468074 0.01466036 0.01657364 -0.06588319 -0.049071305 -0.11205476 0.12434346 0.010717645 0.09070346 0.083931305 -0.08432839 0.08387347 0.064177394 0.030450419 -0.07503496 -0.021115161 -0.15453139 0.09168457 0.048003316 -0.09928148 0.006640437 0.09694584 -0.24174082 -0.029537523 0.04067905 -0.039739106 0.123035945 0.04231727 0.05781212 0.17041814 -0.062413927 -0.006927702 0.025388079 0.09214238 0.051700547 -0.044454444 0.051061764 0.061152607 -0.15460822 0.086142644 -0.053774796 0.030660825 -0.02647699 -0.009797874 -0.017112577 -0.15274116 -0.17134249 0.15649061 -0.0071958536 0.0058844294
129 -0.044776954 -0.12109057 -0.0128409425 -0.0855059 0.06862701 -0.09028564 -0.038588904 0.08285978 -0.020417368 0.102592945 -0.08857248 0.13495822 -0.07648103 -0.10783164 -0.0043258267 -0.29040113 0.0601193 -0.014469521 -0.088471115 -0.08640702 0.091285825 0.03443334 -0.0041748835 0.06735219 -0.076072134 0.08301138 0.048176993 -0.04223432 -0.026194187 -0.1009284 0.024878658 -0.004729544 -0.065896064 -0.03255106 -0.06433077 -0.004214144 0.033003196 -0.16842669 0.032099064 -0.071571104 0.0037496642 0.13590534 0.07804282 -0.08805361 -0.13433112 -0.1622222 -0.0017120861 -0.088253595 0.019514075 0.07616571 -0.015975779 0.057639323 0.06513673 0.184565 -0.01370481 -0.11803443 -0.07174872 0.0064441366 -0.18450812 -0.08969969 -0.0461727 -0.09053866 -0.11649553 -0.05062093 -0.098106325 0.13929687 -0.13323618 0.08071351 -0.033056535 -0.049006432 0.104112945 -0.024575977 0.1654553 -0.1614854 0.10003966 -0.0024281146 0.19348955 0.059080146 -0.016840989 0.010558659 0.013209625 -0.06623664 -0.050488625 -0.11557053 0.1287009 0.018664226 0.08234507 0.08426722 -0.08794564 0.086301565 0.07058228 0.03352691 -0.08159022 -0.016387055 -0.16334462 0.09385776 0.038572192 -0.0969338 0.0026803608 0.107218064 -0.25445548 -0.04219559 0.038825568 -0.03601785 0.13616182 0.04053643 0.05740627 0.16169417 -0.06567044 -0.00996995 0.022446014 0.10882366 0.041983966 -0.036787964 0.05637135 0.06401834 -0.14552815 0.08105691 -0.05138244 0.023836883 -0.020142362 -0.017294098 -0.013517048 -0.1455998 -0.16833653 0.15448262 -0.0047310283 -0.0035452244
87 -0.04434868 -0.11694916 -0.0142807765 -0.08405394 0.05981739 -0.08235177 -0.040802136 0.07602179 -0.0151031725 0.10041494 -0.08422638 0.1367511 -0.07700249 -0.10605223 -0.0048536398 -0.27021068 0.048753034 -0.01290776 -0.08796066 -0.08947393 0.08737926 0.03015254 -0.009326403 0.07200725 -0.07860922 0.08700548 0.04160163 -0.039916176 -0.027681077 -0.10054092 0.02553032 -0.0085331295 -0.067685604 -0.04404838 -0.07094929 0.0027959384 0.029229436 -0.16727838 0.030265639 -0.07230705 -0.002903437 0.1269592 0.08153228 -0.07741178 -0.12893625 -0.15252125 -0.007876105 -0.093332104 0.027486652 0.06808081 -0.013861989 0.047849286 0.06300729 0.19019367 -0.0137651 -0.12134872 -0.072109714 -0.00047069942 -0.17640197 -0.085233875 -0.04182093 -0.08801702 -0.11411006 -0.046419133 -0.100024186 0.14684086 -0.14410546 0.087723404 -0.03007339 -0.047359377 0.114782095 -0.027597938 0.18161266 -0.17380346 0.10551155 -0.005690151 0.21136044 0.056370422 -0.016775608 0.024017857 0.007872023 -0.068368986 -0.054088492 -0.1124026 0.1298361 0.013949596 0.08584376 0.07925389 -0.080291346 0.08979251 0.065484114 0.033575986 -0.08038396 -0.016854085 -0.15834667 0.09251841 0.049850218 -0.100122906 0.002762757 0.09436284 -0.24596116 -0.033912133 0.035078317 -0.03982997 0.13507916 0.031058319 0.054087706 0.1737486 -0.057241157 -0.008135023 0.026856046 0.10001546 0.04338538 -0.03979732 0.055900704 0.06464222 -0.15033317 0.07623566 -0.056914173 0.023118237 -0.023510195 -0.011631843 -0.010693046 -0.14177583 -0.17092527 0.15553226 -0.0068339338 0.004318227
62 -0.035158396 -0.114444755 -0.021384036 -0.082388654 0.059605 -0.08139064 -0.038640056 0.083568394 -0.019356292 0.09813114 -0.08285859 0.1365343 -0.08025232 -0.103949495 -0.008684311 -0.28248227 0.057460718 -0.00978093 -0.087315775 -0.083974674 0.08355017 0.030036889 -0.0051578674 0.06694857 -0.07808659 0.08267426 0.048314866 -0.041313145 -0.030669495 -0.09655507 0.016250743 -0.0038316685 -0.06604127 -0.0343232 -0.06483813 0.0062264777 0.025930852 -0.17477523 0.036241263 -0.07406262 -0.002041382 0.12714447 0.08143048 -0.07982184 -0.13141085 -0.1568142 -0.0024577319 -0.08990863 0.024764104 0.077647306 -0.0175517 0.045122184 0.061824642 0.19144954 -0.012725726 -0.118225336 -0.07928139 0.007678929 -0.17457631 -0.0844384 -0.04370612 -0.09199104 -0.113926746 -0.045598574 -0.10635193 0.14529817 -0.13943191 0.088075146 -0.034041923 -0.054227207 0.10799049 -0.028058426 0.18196252 -0.17569458 0.09807346 0.005397628 0.21040942 0.058335796 -0.015654182 0.015079853 0.013767936 -0.06617364 -0.051723257 -0.114840806 0.12337254 0.018085273 0.094663225 0.08872889 -0.08665039 0.08287145 0.065773234 0.029319264 -0.08027541 -0.015155817 -0.15884145 0.09232845 0.046665475 -0.10132214 0.0030489329 0.10157516 -0.24700943 -0.03236127 0.034915246 -0.036024563 0.13110904 0.04157145 0.060021438 0.16213657 -0.05691263 -0.010259007 0.02617855 0.1011644 0.052897885 -0.04015035 0.063224904 0.05988403 -0.16091134 0.08239095 -0.05926937 0.028371206 -0.019783447 -0.014357401 -0.01897249 -0.15362908 -0.18135607 0.15932186 -0.009851029 0.004355476
184 -0.03298177 -0.11451364 -0.017880779 -0.07959702 0.061350938 -0.09202137 -0.03762069 0.07699198 -0.016073395 0.10300273 -0.0873802 0.13785984 -0.07840323 -0.11036766 -0.011378209 -0.2831176 0.058611993 -0.015653636 -0.09033532 -0.08414972 0.08283671 0.034096945 -0.0006555452 0.071042486 -0.07539313 0.08369976 0.043408092 -0.038245596 -0.02852127 -0.095099084 0.01496024 -0.0015312838 -0.0614006 -0.0354716 -0.06760934 -0.000303915 0.022952007 -0.17621607 0.036156874 -0.07454631 0.0029011776 0.11984876 0.08245101 -0.08300288 -0.13497548 -0.15035114 0.0018076417 -0.093232244 0.023080006 0.074499846 -0.014454486 0.04598924 0.060856033 0.18184322 -0.011078435 -0.11549191 -0.07840825 0.007763707 -0.17153965 -0.087673075 -0.040950578 -0.08957603 -0.11056926 -0.045568004 -0.10587306 0.14163518 -0.14199933 0.086040646 -0.036507074 -0.054942027 0.1135762 -0.03143079 0.17916377 -0.17952628 0.105682835 0.0051412373 0.20523188 0.06400006 -0.018664408 0.014203724 0.013794204 -0.06579829 -0.050113514 -0.11639037 0.12707187 0.018436057 0.08484462 0.08347331 -0.091510735 0.080655664 0.0698918 0.036673844 -0.0730933 -0.016577292 -0.15806526 0.08953371 0.0392274 -0.09765217 0.003966873 0.10370636 -0.24921371 -0.03220551 0.03703227 -0.038694292 0.1310676 0.040625677 0.054617383 0.16036658 -0.058815956 -0.0039029913 0.030393675 0.10854017 0.052033942 -0.033133935 0.05456804 0.061006226 -0.14482827 0.078786045 -0.049144205 0.029609855 -0.019090172 -0.017742962 -0.014064676 -0.13913585 -0.16787408 0.15463519 -0.011981832 0.0038213977
199 -0.039948538 -0.120448634 -0.017048802 -0.0796775 0.06137024 -0.08749386 -0.03238008 0.08386213 -0.023979276 0.09983778 -0.08389426 0.13554001 -0.07891042 -0.10541538 -0.0061614215 -0.28591955 0.06392485 -0.017111244 -0.08370745 -0.08276977 0.088172026 0.034035914 -0.006087815 0.07089558 -0.08693557 0.08060785 0.04566683 -0.04131672 -0.030074785 -0.10163985 0.02092018 -0.0025103246 -0.060964365 -0.032998428 -0.06864189 0.0022876903 0.02513049 -0.17326768 0.035560343 -0.07583804 0.002368648 0.13408633 0.08013213 -0.08835702 -0.13022135 -0.1563509 0.00030298124 -0.089877814 0.012224119 0.0786272 -0.014720437 0.051691372 0.058866 0.1795769 -0.01144488 -0.11878554 -0.07955943 0.0030446881 -0.17913647 -0.08961187 -0.0484319 -0.095162846 -0.11390925 -0.04022723 -0.10524616 0.14462693 -0.13557947 0.08094412 -0.032057386 -0.055139795 0.10375172 -0.022348976 0.17770511 -0.17255978 0.10317146 0.006172566 0.20729746 0.06685521 -0.021979991 0.011465252 0.0038673985 -0.073633954 -0.048971493 -0.12306101 0.13235556 0.025958918 0.08835595 0.08873852 -0.09245253 0.08914631 0.06811492 0.034951083 -0.07915224 -0.013969164 -0.16213937 0.09330923 0.044784438 -0.10058711 0.0012212069 0.09790791 -0.24772362 -0.03868114 0.034414243 -0.03774448 0.13198395 0.039762832 0.06259633 0.15767011 -0.060564917 -0.0058294903 0.031204103 0.098358 0.048970737 -0.0396593 0.062126644 0.058065426 -0.15195318 0.08034069 -0.059030138 0.027145432 -0.025303038 -0.0185821 -0.017152363 -0.14246204 -0.16631089 0.15518168 -0.013358924 0.006339995
102 -0.040282402 -0.11406526 -0.015456273 -0.08757102 0.062769204 -0.089508675 -0.03212397 0.08162014 -0.017988209 0.09812174 -0.08338497 0.1345123 -0.08112792 -0.10414406 -0.011068224 -0.28160128 0.05742212 -0.011893578 -0.08187735 -0.08608367 0.08034314 0.023654545 -0.0034481336 0.06085858 -0.07911086 0.07992215 0.051192965 -0.041636977 -0.025067164 -0.10021395 0.021387711 -0.0013440693 -0.05815029 -0.035251647 -0.06741413 0.005674387 0.023129513 -0.17132266 0.036613755 -0.07801776 -0.0055955304 0.12888983 0.08415689 -0.076508544 -0.13163733 -0.16103089 -0.0024764899 -0.08964033 0.020232245 0.07087212 -0.01805234 0.04502507 0.06237252 0.17966142 -0.014642282 -0.11645241 -0.06679798 0.0046343007 -0.17979515 -0.082788706 -0.042771474 -0.088672206 -0.11335754 -0.045302115 -0.109995075 0.15119508 -0.14605534 0.092850186 -0.037580527 -0.055548336 0.11458246 -0.028218122 0.18716712 -0.17782268 0.110562 0.0046015843 0.21417989 0.0685458 -0.011959289 0.017536284 0.011634403 -0.06302607 -0.052234262 -0.11549852 0.1264095 0.015917415 0.085454 0.09006011 -0.08131271 0.08219514 0.0599807 0.03673531 -0.08084532 -0.017861828 -0.15834165 0.08819109 0.041474633 -0.098511524 0.0038491185 0.10277433 -0.25311467 -0.03096346 0.036266584 -0.042871475 0.12743877 0.034694254 0.057003215 0.17056678 -0.056043375 -0.0094618695 0.027083356 0.09581915 0.048990574 -0.03866979 0.059223708 0.06044654 -0.1506932 0.08250898 -0.053609952 0.031635504 -0.019378863 -0.012668722 -0.013273379 -0.15029807 -0.17447025 0.15653475 -0.005482711 0.006410855
57 -0.041042335 -0.12152226 -0.01899872 -0.0893279 0.06273874 -0.08549946 -0.037316278 0.07540022 -0.021375543 0.10079686 -0.08461703 0.13596432 -0.07790766 -0.109041885 -0.009286679 -0.28514782 0.060927432 -0.015115033 -0.091548294 -0.08480175 0.08703814 0.030740727 -0.0016090808 0.06735408 -0.07654793 0.08668845 0.050740715 -0.03673981 -0.024223272 -0.0939959 0.017105341 -0.00087499747 -0.06323384 -0.03840277 -0.070306495 0.0060534906 0.018526051 -0.17454788 0.030935928 -0.07000896 0.005196047 0.13008347 0.08382675 -0.084819354 -0.1310205 -0.15353598 0.0021264057 -0.09421633 0.023555538 0.07534855 -0.017024525 0.04671617 0.061727233 0.18138401 -0.01822864 -0.115943745 -0.076348156 0.010101364 -0.18207654 -0.08346732 -0.05434363 -0.091400445 -0.120389216 -0.043390848 -0.10563208 0.14402261 -0.14136635 0.087527335 -0.038443662 -0.055520788 0.117940195 -0.028607992 0.183628 -0.18618177 0.11554284 0.0025337928 0.2125244 0.05880272 -0.012693451 0.015928546 0.013012926 -0.06313108 -0.05109825 -0.115418874 0.13509789 0.020864515 0.08935776 0.083717056 -0.087954074 0.08498663 0.065825604 0.03473979 -0.08113674 -0.019098677 -0.16121905 0.09125332 0.044239607 -0.09796871 0.008634115 0.100998946 -0.24475993 -0.034736857 0.032102045 -0.039230615 0.12855066 0.040517047 0.057524797 0.16361773 -0.063006185 -0.008552185 0.0314225 0.097965345 0.042664375 -0.03458906 0.04900513 0.054987777 -0.13454889 0.07102315 -0.049041074 0.02823247 -0.023697114 -0.018029455 -0.016811939 -0.13804473 -0.15873885 0.14340922 -0.010210064 0.0018043795
49 -0.04107304 -0.123144336 -0.010900321 -0.08206248 0.06233253 -0.09119269 -0.035049412 0.08066869 -0.022124365 0.09725135 -0.08755855 0.14232732 -0.078889936 -0.10767936 -0.006345031 -0.29151917 0.06024419 -0.01042319 -0.08447693 -0.08323015 0.095090546 0.029467192 0.0029287876 0.06845261 -0.07857819 0.08771998 0.043472514 -0.038067307 -0.026219571 -0.102992326 0.014506726 -0.0047243563 -0.06359964 -0.03895402 -0.06268984 0.003711147 0.026686998 -0.17915627 0.033716112 -0.0762947 -0.0010661159 0.1325583 0.09075497 -0.07633723 -0.13256073 -0.15506406 -0.007555813 -0.09318264 0.021644207 0.07551122 -0.018236613 0.047238316 0.06669896 0.1872284 -0.019178012 -0.117825784 -0.07447692 0.007077008 -0.1786426 -0.086104184 -0.048951995 -0.08929809 -0.1129849 -0.049804218 -0.09861732 0.14021204 -0.13508926 0.08136311 -0.03623072 -0.05602956 0.10023481 -0.03446592 0.1737347 -0.17297007 0.09515018 -0.003124437 0.19967937 0.053890105 -0.0112038525 0.0119435005 0.0106428135 -0.067311525 -0.054314554 -0.11549367 0.12454263 0.012457794 0.08635687 0.08511226 -0.08531495 0.08640513 0.063657634 0.03242042 -0.08292493 -0.023548186 -0.15571164 0.088655986 0.038679227 -0.09998232 0.0029128902 0.103537284 -0.24196903 -0.0416568 0.03670253 -0.038357243 0.13026077 0.04280535 0.057996206 0.16879651 -0.06350112 -0.0123281535 0.02802139 0.10058904 0.053163722 -0.033542007 0.054244675 0.06107919 -0.1475059 0.084195524 -0.06069551 0.028757356 -0.023425063 -0.012517063 -0.017861944 -0.14826658 -0.16415928 0.1447507 -0.008727627 0.002942238
95 -0.03990324 -0.11502652 -0.011117645 -0.07723997 0.064077556 -0.082334146 -0.03149369 0.08049102 -0.024789715 0.102461845 -0.087058045 0.13422738 -0.08266058 -0.10564686 -0.009081264 -0.2831365 0.06108932 -0.014963197 -0.08520914 -0.09283038 0.092179894 0.037606634 -0.005604385 0.07616126 -0.08071095 0.083402015 0.045737557 -0.034783665 -0.028210845 -0.10490944 0.021711657 -0.0046309945 -0.06404202 -0.042506605 -0.06633711 0.002747464 0.025564529 -0.17516546 0.028542051 -0.07823129 -0.0012423745 0.13765575 0.084346294 -0.08315683 -0.12800501 -0.15756136 -0.0040268945 -0.08737627 0.024112295 0.07294363 -0.012074935 0.052151076 0.066034615 0.18751411 -0.011356237 -0.12168315 -0.0809879 0.0049069147 -0.18064243 -0.08321356 -0.046568375 -0.09110435 -0.117569916 -0.050221384 -0.10536764 0.14031555 -0.13851377 0.09042852 -0.038113248 -0.047813557 0.10441905 -0.026743747 0.17675212 -0.16676992 0.09503314 -0.0042702495 0.20278613 0.058505688 -0.014904362 0.016360132 0.007428293 -0.07127165 -0.048827793 -0.1120206 0.1338429 0.017115358 0.08651488 0.08694027 -0.0850211 0.079403326 0.06333968 0.033205964 -0.080009736 -0.014161396 -0.15123916 0.09019058 0.043403637 -0.101332866 0.0024462258 0.102795504 -0.24731486 -0.034874458 0.034842175 -0.037288915 0.12974414 0.036163133 0.054516744 0.16214253 -0.060255665 -0.008334795 0.029078947 0.10246525 0.050497223 -0.034967396 0.060258538 0.055996485 -0.15660837 0.07256732 -0.059240565 0.031706046 -0.021647984 -0.016658578 -0.0045758383 -0.14715266 -0.1754506 0.15789047 -0.012648442 0.0091685075
123 -0.040772356 -0.11747392 -0.018555388 -0.08569999 0.0637318 -0.089005314 -0.030677168 0.0809076 -0.022350423 0.10221694 -0.08851063 0.13972561 -0.08472895 -0.10432143 -0.011735361 -0.28685278 0.058663093 -0.009807769 -0.09029684 -0.08855576 0.089419976 0.031226136 -0.0037446776 0.061711352 -0.08359065 0.08310477 0.05922953 -0.038919393 -0.027130287 -0.10234532 0.018442389 0.0021198145 -0.06307559 -0.0366993 -0.06692986 0.0028711464 0.019622667 -0.17948125 0.028491586 -0.07559958 -0.004256572 0.12859327 0.0862165 -0.08471188 -0.13230047 -0.16154855 0.0081804115 -0.0947093 0.01897947 0.069875486 -0.019571844 0.049463872 0.065953456 0.18213907 -0.019415086 -0.11877331 -0.07799432 0.0073423316 -0.17900902 -0.08662014 -0.043935698 -0.087396726 -0.11909127 -0.041309975 -0.10695523 0.13644262 -0.14011666 0.08288817 -0.030096294 -0.05602635 0.113255665 -0.0277542 0.18318996 -0.17322057 0.102388464 0.004251162 0.20463471 0.0621922 -0.011751678 0.018350719 0.015628077 -0.06886229 -0.056726146 -0.11758542 0.12992981 0.022686588 0.08909358 0.087143846 -0.0885122 0.08112685 0.070289426 0.04132803 -0.08197581 -0.019528082 -0.15469897 0.09027539 0.04213074 -0.09736439 0.0017565831 0.10425481 -0.24493724 -0.02919154 0.033721752 -0.046027135 0.13279624 0.03531056 0.0637245 0.15741427 -0.061552312 -0.016463427 0.027925583 0.1032836 0.052768633 -0.03547872 0.056456268 0.06093012 -0.14847332 0.073868856 -0.056139488 0.02828662 -0.016259711 -0.014236201 -0.021131584 -0.13763435 -0.17129524 0.14802422 -0.0125580635 0.008254901
1 -0.04544806 -0.12372524 -0.009577217 -0.08474091 0.0668499 -0.09422194 -0.03602189 0.08221031 -0.02229868 0.10119049 -0.09048253 0.13479555 -0.076467976 -0.106948294 -0.010640587 -0.2869868 0.0610313 -0.016433122 -0.08353578 -0.08579986 0.08915006 0.025900558 0.0014375973 0.06280251 -0.074745096 0.08331007 0.05231311 -0.0341593 -0.029026022 -0.10153235 0.013114334 -0.0024611882 -0.059170764 -0.040668484 -0.06814343 0.00392319 0.01686162 -0.1774213 0.038543247 -0.08058054 -0.0041961046 0.12808117 0.08684318 -0.07758942 -0.13271633 -0.16116631 -0.0055039725 -0.09172588 0.029257033 0.07796292 -0.015820758 0.04877935 0.05887874 0.18431652 -0.018489264 -0.11503192 -0.0770389 0.008481326 -0.17539036 -0.08350867 -0.0428393 -0.09260036 -0.11397865 -0.049525674 -0.10152161 0.13338031 -0.12813559 0.0836287 -0.0414943 -0.049216997 0.10108985 -0.036396522 0.17034662 -0.16428871 0.094576284 0.00031467824 0.19725928 0.057976175 -0.011358554 0.007826042 0.009525613 -0.06750425 -0.04882088 -0.12396589 0.12614357 0.010216092 0.08610552 0.08375083 -0.083376125 0.079400204 0.063963406 0.025900701 -0.07440546 -0.01827454 -0.15443781 0.087173484 0.041465484 -0.104261816 0.008730685 0.10545355 -0.24706127 -0.039489865 0.039062142 -0.04074231 0.13158683 0.043582752 0.06315973 0.1656672 -0.060327593 -0.010005149 0.027100138 0.099448875 0.053258028 -0.034441695 0.057421837 0.060855247 -0.15382569 0.08797162 -0.05539776 0.026949525 -0.024293918 -0.020199211 -0.018403526 -0.15268278 -0.17741825 0.15566905 -0.015253948 0.002519944
126 -0.04796445 -0.121325776 -0.01681211 -0.0846651 0.068923 -0.086180516 -0.03550584 0.08072948 -0.02365816 0.098146304 -0.0891578 0.1403552 -0.07448499 -0.104602925 -0.0055026235 -0.28793466 0.060079526 -0.014575991 -0.08611272 -0.091852725 0.09414544 0.028757153 -0.0024784382 0.06219191 -0.08525968 0.08251262 0.053308032 -0.040457644 -0.025633957 -0.1001304 0.013933121 -0.00084250444 -0.06508066 -0.042110506 -0.06500825 0.0054052933 0.02254851 -0.17016344 0.032653518 -0.077256 0.00012612122 0.13596852 0.08273498 -0.08072856 -0.13839783 -0.1548314 0.0015866172 -0.090708494 0.024675777 0.07608853 -0.015367782 0.046861447 0.06647665 0.18645237 -0.018229261 -0.12025367 -0.073567905 0.010987624 -0.18098393 -0.08996695 -0.047300212 -0.08842428 -0.11680412 -0.047888745 -0.10542252 0.147229 -0.1406072 0.088010125 -0.033405494 -0.055068947 0.10540399 -0.02821225 0.17250098 -0.16778533 0.10539051 0.0004849202 0.2102182 0.062307157 -0.010577517 0.017138345 0.012415301 -0.06825133 -0.053746454 -0.120505825 0.1268062 0.019227374 0.09025903 0.08512731 -0.08625805 0.079478785 0.06256367 0.03381816 -0.07719519 -0.020403048 -0.15718749 0.09189268 0.039553307 -0.10304038 -0.0052503822 0.10759121 -0.25334385 -0.03384881 0.038574617 -0.043314107 0.123259634 0.039916426 0.056395076 0.16846804 -0.06372691 -0.012075305 0.021697586 0.10735938 0.05009526 -0.039292693 0.051616006 0.060975205 -0.1415484 0.07893197 -0.051369887 0.03546292 -0.015715454 -0.01588326 -0.016531372 -0.13654509 -0.16672695 0.14022328 -0.0052901665 0.0055055227
110 -0.03506587 -0.12191938 -0.014831088 -0.08313333 0.069735706 -0.08760649 -0.026639458 0.07898136 -0.024961527 0.10447956 -0.09154764 0.1330989 -0.075429566 -0.10487384 -0.005992537 -0.29006818 0.0657485 -0.010460189 -0.08508105 -0.0825424 0.09279025 0.032251757 -0.00024829793 0.07029256 -0.07635914 0.07716209 0.048994932 -0.030249087 -0.029240072 -0.09872561 0.02530042 0.00071144063 -0.063822486 -0.036385592 -0.0666854 0.008264065 0.025044888 -0.17498094 0.03954769 -0.07530772 0.0013216097 0.13711162 0.079772845 -0.08726185 -0.12757987 -0.15909995 2.8974053e-05 -0.08919747 0.019031176 0.074556276 -0.016820015 0.04630803 0.06359169 0.18155888 -0.016048253 -0.117246665 -0.07558883 0.0062150517 -0.17882138 -0.08174735 -0.053952325 -0.09658464 -0.12087006 -0.046562072 -0.0924613 0.13647482 -0.1322858 0.07682193 -0.036694326 -0.05082209 0.10136544 -0.02562986 0.1678657 -0.16266224 0.1010824 0.0012025654 0.19738793 0.063433856 -0.015959485 0.012644326 0.0119739175 -0.06675509 -0.053603783 -0.119139686 0.13201016 0.025173824 0.09123994 0.08514612 -0.09262381 0.08296412 0.06375667 0.040792853 -0.077747904 -0.016631095 -0.16760847 0.09370295 0.040199768 -0.10000886 0.004319083 0.102006435 -0.24653274 -0.040330306 0.03489369 -0.035007972 0.13044418 0.0388785 0.06636669 0.16242936 -0.05854043 -0.0077526136 0.025689704 0.10168619 0.05280764 -0.03703124 0.06253073 0.06400728 -0.16213244 0.08865725 -0.06402318 0.028169785 -0.02458883 -0.022756903 -0.019819632 -0.15551707 -0.18515924 0.15950176 -0.0052442853 0.006565578
150 -0.036488842 -0.12349689 -0.011784788 -0.08345026 0.063229404 -0.08772275 -0.036757212 0.07211981 -0.023651646 0.09822663 -0.08508547 0.13530393 -0.07837659 -0.10602043 -0.008566953 -0.29061884 0.06481543 -0.010234622 -0.08419656 -0.08180624 0.08523544 0.027393226 -0.00094859913 0.06826814 -0.07681349 0.087609336 0.04755701 -0.036030434 -0.02885684 -0.09288116 0.018504597 0.0017113348 -0.057890546 -0.03382618 -0.06407567 0.0069810054 0.021269199 -0.17274216 0.039025716 -0.07775186 -0.0013312142 0.12889731 0.08763458 -0.07945028 -0.12770312 -0.1559744 -0.0061301724 -0.08782899 0.024158923 0.07142185 -0.01276275 0.044666663 0.061854906 0.18200624 -0.01507293 -0.11556015 -0.07349879 -0.00047140697 -0.17368636 -0.08386915 -0.046109475 -0.089957 -0.113221504 -0.04943487 -0.102886006 0.1413896 -0.14005612 0.08499366 -0.0380597 -0.05028878 0.09974478 -0.029168392 0.17237237 -0.17508896 0.09778649 -5.8355326e-05 0.20265596 0.062278427 -0.019522546 0.010716912 0.009814341 -0.065014504 -0.046200916 -0.11764749 0.12230684 0.01721291 0.08608067 0.08167675 -0.085337736 0.08724459 0.06419388 0.032702357 -0.07926338 -0.01876992 -0.15484148 0.0903678 0.043125663 -0.09572833 0.005208417 0.10553076 -0.2416338 -0.041343585 0.032832935 -0.038270622 0.12821612 0.039269023 0.06076704 0.1646774 -0.061367534 -0.013191937 0.028508384 0.10036809 0.048308868 -0.04087175 0.056071524 0.0627178 -0.15526131 0.07944081 -0.05792902 0.02783579 -0.022787524 -0.01890105 -0.010599698 -0.15009034 -0.16996829 0.15505295 -0.012566226 0.007300927
23 -0.032586146 -0.1133807 -0.024841046 -0.084898315 0.063350484 -0.08445928 -0.029463638 0.08259053 -0.02227056 0.100853816 -0.089271344 0.13812205 -0.08010429 -0.11217681 -0.010653696 -0.28178498 0.060463876 -0.011326526 -0.09249808 -0.08296722 0.09097155 0.025200736 -0.00668001 0.075968005 -0.07456972 0.08184553 0.045214996 -0.040312137 -0.031073535 -0.102257654 0.020764016 -0.00079824956 -0.06549397 -0.043232422 -0.07484601 -0.00040346515 0.023992062 -0.17586912 0.028370544 -0.07405344 -0.00021037736 0.13476045 0.082730055 -0.08317444 -0.1301632 -0.15512735 -0.0033674939 -0.08874585 0.015946416 0.07020786 -0.013321796 0.047310874 0.06721997 0.1723068 -0.01473627 -0.11889555 -0.073906176 0.004914216 -0.17672342 -0.08893369 -0.047660712 -0.092674874 -0.11495993 -0.044891194 -0.10535466 0.1457327 -0.14228891 0.09269583 -0.038091317 -0.048841983 0.1118409 -0.026251508 0.18672466 -0.17765151 0.100942835 0.00028864405 0.20844392 0.06522349 -0.0062923464 0.017937286 0.015205628 -0.071279354 -0.05030976 -0.11639316 0.12792762 0.02401678 0.08428375 0.08799144 -0.090438254 0.077323385 0.06564694 0.037792843 -0.07892006 -0.022880038 -0.16788547 0.0899656 0.047702868 -0.099423975 0.00076250127 0.10263756 -0.2505826 -0.03661928 0.037104603 -0.041573983 0.12664226 0.03217044 0.05558462 0.1541743 -0.05827392 -0.0064142016 0.023749487 0.09589506 0.05292788 -0.04222508 0.05713468 0.059773598 -0.15838356 0.07727187 -0.052583557 0.027001299 -0.022745032 -0.016430998 -0.018092483 -0.15064928 -0.17153002 0.15083785 -0.014555946 0.002827289
116 -0.03765542 -0.1220525 -0.014299646 -0.079359785 0.061524063 -0.086957686 -0.03181851 0.07708991 -0.020390006 0.10110071 -0.088715754 0.1397355 -0.07601381 -0.100982964 -0.011733663 -0.28056085 0.063542955 -0.014197217 -0.08478014 -0.08522113 0.094889864 0.035115458 -0.0061031603 0.06536018 -0.07321561 0.07858556 0.048760932 -0.036146484 -0.031954587 -0.10334266 0.016496249 0.0019163435 -0.058897696 -0.042738672 -0.06962343 0.0042205295 0.021472268 -0.16850404 0.033144873 -0.08080862 -0.0030673272 0.1288107 0.07577911 -0.08317621 -0.13172013 -0.15410419 -0.002388618 -0.093445204 0.02085803 0.07426079 -0.010751279 0.047947396 0.06940997 0.18845983 -0.011092325 -0.11723538 -0.07215196 0.0046746843 -0.17653018 -0.08394462 -0.047466513 -0.08444706 -0.11395596 -0.049360745 -0.10696647 0.14279905 -0.13641995 0.08469679 -0.036313485 -0.05361753 0.11050865 -0.03227675 0.1839832 -0.16946992 0.10323209 -0.0010679724 0.20766123 0.058245815 -0.014256988 0.016205795 0.014513097 -0.07475859 -0.051696215 -0.118583985 0.1269201 0.018881436 0.091629386 0.08535506 -0.085708186 0.084101826 0.06425865 0.036738496 -0.074069254 -0.014236653 -0.15559801 0.09275511 0.043370593 -0.09646918 0.0023458933 0.10158342 -0.2453643 -0.040938728 0.03884419 -0.03632206 0.13128409 0.040040076 0.053386692 0.15636648 -0.061948296 -0.008052224 0.025473142 0.107388794 0.048376992 -0.03663983 0.05510184 0.054297622 -0.14240198 0.079058506 -0.05424292 0.030629542 -0.016328795 -0.01744985 -0.010667762 -0.14811906 -0.17303173 0.14867537 -0.012561184 0.005329473
240 -0.037936285 -0.12146048 -0.020899799 -0.08400755 0.063676216 -0.08814723 -0.03786948 0.083742805 -0.021653216 0.10561601 -0.089253925 0.13385966 -0.08116564 -0.10730285 -0.009125501 -0.290464 0.062630914 -0.015258894 -0.083723366 -0.081956804 0.089948215 0.027434628 -0.0025842797 0.0664868 -0.07948 0.08411848 0.049939625 -0.03848908 -0.024062814 -0.09690767 0.023728492 -0.0053491024 -0.06325953 -0.039760076 -0.0618796 0.005629619 0.020323304 -0.1782163 0.03166962 -0.07021284 0.0019227816 0.13470171 0.0840559 -0.08467049 -0.13611756 -0.1595492 -0.0035712756 -0.09614561 0.020222412 0.07748698 -0.014946046 0.048104644 0.066549875 0.18326466 -0.0148164 -0.11663062 -0.07903692 0.0072666164 -0.1745711 -0.082920745 -0.046647962 -0.0908496 -0.11433122 -0.04470658 -0.10265613 0.13683166 -0.13440968 0.08499407 -0.031711817 -0.056631546 0.09864406 -0.03362924 0.17511503 -0.16793297 0.10568815 0.0018365114 0.19531435 0.05403848 -0.010532411 0.011008137 0.017693399 -0.06368891 -0.047947183 -0.11866571 0.12577136 0.013401037 0.09076916 0.087066054 -0.091645546 0.08101508 0.06684848 0.031792343 -0.082606636 -0.015688892 -0.15610296 0.089031465 0.04334925 -0.10491053 0.005634808 0.105844885 -0.2531257 -0.041179817 0.034452554 -0.03692516 0.130726 0.03703002 0.05256092 0.16360022 -0.061282717 -0.011995504 0.027491234 0.10653184 0.0536049 -0.041713245 0.05639219 0.053129204 -0.14947863 0.07616425 -0.05328336 0.031703304 -0.021360984 -0.019541867 -0.011319939 -0.13728932 -0.16519652 0.14650293 -0.012891075 0.003853195
224 -0.045322143 -0.11683263 -0.011254876 -0.08263244 0.064743176 -0.08720318 -0.033931926 0.084533386 -0.02432385 0.094668895 -0.09063344 0.13811612 -0.08073466 -0.10947775 -0.008798253 -0.27957347 0.056476995 -0.017936144 -0.0887145 -0.0868803 0.09195712 0.022457834 0.0032291254 0.0673255 -0.08187008 0.07892786 0.047836352 -0.036625843 -0.029579034 -0.100237876 0.016608056 -0.0022002677 -0.062292203 -0.04977915 -0.067407295 -0.0013163448 0.027733253 -0.17232509 0.03370703 -0.073855266 -0.0017872261 0.1346023 0.082635514 -0.07562393 -0.13164468 -0.1584065 0.00027094936 -0.08959282 0.020403363 0.075090826 -0.017341489 0.04728699 0.063224785 0.18373255 -0.015812142 -0.12014645 -0.07442333 0.008341747 -0.17993437 -0.08559703 -0.045887247 -0.085354224 -0.1121408 -0.04490999 -0.109324075 0.14598112 -0.14141673 0.08853853 -0.03139254 -0.04605723 0.11138095 -0.029965557 0.17731124 -0.17956188 0.10501444 -0.0013190656 0.20983763 0.0593528 -0.015733222 0.013476052 0.011020724 -0.06537885 -0.051838916 -0.1203429 0.13283937 0.013674371 0.08500246 0.08990992 -0.08330996 0.080685146 0.059425328 0.03137857 -0.07398801 -0.019902797 -0.15660264 0.09270553 0.04121137 -0.09865122 0.0024156424 0.09766987 -0.24788035 -0.033867188 0.04047685 -0.040992822 0.11991298 0.04278363 0.06088428 0.16261804 -0.062219903 -0.008366082 0.027379055 0.09987519 0.043208748 -0.0371498 0.053307585 0.058035947 -0.14360774 0.07835668 -0.055322316 0.02863727 -0.01846819 -0.0145884985 -0.018762363 -0.14373884 -0.16597618 0.14594294 -0.008409365 0.0036938356
50 -0.03791233 -0.12383255 -0.018350862 -0.07715869 0.05784497 -0.093971685 -0.03211815 0.082184926 -0.019604804 0.103344 -0.09161121 0.13771784 -0.07675937 -0.11078954 -0.007113927 -0.28846228 0.07224188 -0.013666285 -0.08591094 -0.08102592 0.089602455 0.027266119 0.00088582665 0.068914525 -0.0729507 0.08242807 0.052720435 -0.035291262 -0.029730303 -0.09804348 0.017173188 -0.0043700333 -0.0632119 -0.041436423 -0.06571865 0.006901033 0.023325175 -0.16946925 0.036442004 -0.079385616 0.0017065841 0.13637231 0.084682375 -0.08324179 -0.13086194 -0.15824454 -0.0037542467 -0.09717159 0.02391948 0.08144686 -0.019491376 0.05122348 0.069364086 0.18673821 -0.02228031 -0.11947163 -0.07452625 0.009315141 -0.17883332 -0.08703047 -0.048453975 -0.098317675 -0.118440434 -0.052282516 -0.09829312 0.12738878 -0.13356951 0.07991954 -0.03687347 -0.04906301 0.10081651 -0.028165616 0.16506574 -0.16471104 0.09619867 0.0017403399 0.19574808 0.06178589 -0.008147546 0.010319213 0.0057175034 -0.065562055 -0.054831844 -0.118986025 0.12994795 0.021161092 0.08736739 0.08592752 -0.09020438 0.09067642 0.057329323 0.034918133 -0.08170565 -0.024227714 -0.16272837 0.09450482 0.048759464 -0.10317309 0.003897986 0.10426407 -0.2514189 -0.034291785 0.035127625 -0.039107606 0.13175842 0.035881184 0.06273847 0.1645225 -0.061401937 -0.012227382 0.029406717 0.10252804 0.05337475 -0.038426965 0.057626646 0.069197565 -0.1604418 0.08786402 -0.05514874 0.037332796 -0.017987547 -0.013781361 -0.015818601 -0.1544453 -0.17569727 0.15497552 -0.0075268405 0.0069413716
260 -0.04247818 -0.118812755 -0.017294822 -0.07905776 0.06111537 -0.08637065 -0.04326637 0.08571234 -0.01757988 0.101434544 -0.08689702 0.14133756 -0.078266345 -0.10490491 -0.0079831155 -0.2874349 0.05914506 -0.010663048 -0.08747183 -0.085394114 0.09778381 0.03465963 -0.003148495 0.07302487 -0.08230602 0.08761652 0.051650114 -0.040422365 -0.024603412 -0.09923919 0.013935 0.002694974 -0.06998786 -0.03924072 -0.07005425 0.0015913959 0.021944253 -0.1669216 0.026896225 -0.075157 4.3645923e-05 0.13576311 0.0866371 -0.08296434 -0.13338336 -0.1558425 -0.0027435832 -0.09405841 0.028823845 0.07486705 -0.015807122 0.047605667 0.065076895 0.18058045 -0.008913118 -0.12133216 -0.07728483 0.003080783 -0.18020558 -0.088843554 -0.043188907 -0.088441886 -0.11690073 -0.04935684 -0.100839004 0.14531086 -0.1342864 0.08943644 -0.032782707 -0.057986684 0.10260563 -0.030349882 0.17267261 -0.17137562 0.102454744 -4.708184e-05 0.20169349 0.05752362 -0.0138258375 0.022394482 0.010794938 -0.07402185 -0.05450426 -0.123521805 0.12700227 0.013719336 0.086377114 0.09054272 -0.08800082 0.0874993 0.0673596 0.037500355 -0.076343164 -0.021565152 -0.15527551 0.09186034 0.047808453 -0.10440193 0.0037736103 0.09608408 -0.25141186 -0.02794777 0.03318239 -0.03891735 0.12402516 0.030960677 0.05668911 0.16224499 -0.059878703 -0.014353965 0.02784645 0.10305284 0.049688745 -0.04252641 0.0586003 0.05965276 -0.14362258 0.078294285 -0.05534547 0.03425941 -0.019348744 -0.01482083 -0.017273584 -0.14427663 -0.17073584 0.1454966 -0.013091317 0.01045753
93 -0.040373117 -0.11622352 -0.013634968 -0.07977403 0.058552343 -0.08405458 -0.03585188 0.082331456 -0.020015849 0.101307295 -0.08666031 0.13211855 -0.082982846 -0.10469512 -0.00517467 -0.28417358 0.0598587 -0.012119302 -0.08730828 -0.08313836 0.086652644 0.025699789 0.00088479696 0.060930353 -0.07986562 0.0777498 0.052067917 -0.03592859 -0.020126227 -0.09641099 0.015523511 -0.0077251736 -0.060420815 -0.03591861 -0.06487156 0.006340378 0.027751187 -0.17221063 0.030888118 -0.07605584 0.0016113148 0.13534361 0.07967261 -0.07836857 -0.12711176 -0.1559028 -0.006014293 -0.09367251 0.023805758 0.07443123 -0.011443091 0.046412043 0.060187742 0.18688923 -0.018720416 -0.11901446 -0.07392577 0.0122512905 -0.17336224 -0.08707079 -0.048644785 -0.08714877 -0.114260584 -0.05283328 -0.1063695 0.14358243 -0.13745023 0.08624425 -0.035597827 -0.05108197 0.10765985 -0.028731434 0.1726283 -0.17466442 0.09903005 -8.9382884e-05 0.20448227 0.054657374 -0.012293103 0.01302247 0.010325173 -0.06700373 -0.046670757 -0.11591219 0.12677193 0.017133793 0.089480296 0.08268109 -0.08490762 0.07816534 0.068969265 0.027937045 -0.078884795 -0.015021863 -0.15453038 0.08926638 0.04743455 -0.09792558 0.003237866 0.09865193 -0.2525368 -0.034928907 0.03206725 -0.044421386 0.13012199 0.039483815 0.056276407 0.16766335 -0.059638686 -0.009497743 0.025789699 0.10278653 0.043429263 -0.040900473 0.05543874 0.05843371 -0.14925553 0.08422158 -0.04484315 0.03457836 -0.023678975 -0.010281294 -0.012739252 -0.14621112 -0.16769421 0.15583214 -0.0038731822 0.0048956717
187 -0.043774996 -0.12129054 -0.010906679 -0.08609108 0.060317285 -0.08369104 -0.029421926 0.08174864 -0.025672868 0.10567092 -0.08235891 0.1343212 -0.081127435 -0.10246493 -0.002395523 -0.28003037 0.0615202 -0.013019456 -0.087530866 -0.084845036 0.09021728 0.029853487 -0.0019524691 0.06849374 -0.079137765 0.07714339 0.04801166 -0.038660046 -0.02576812 -0.09584726 0.01989032 -0.0041633337 -0.06574998 -0.03897413 -0.06073355 -0.00018873154 0.028913954 -0.17228162 0.04110366 -0.07731388 -0.0021739772 0.13301936 0.08935001 -0.08487443 -0.13097037 -0.1532845 0.0033381963 -0.08928493 0.026736926 0.075772405 -0.015663452 0.05386439 0.0667977 0.18467215 -0.011672438 -0.11813894 -0.081429034 0.004399196 -0.17842676 -0.08773227 -0.045707542 -0.09442231 -0.110949375 -0.04379954 -0.10065071 0.13694954 -0.13473062 0.083430715 -0.027433349 -0.053191703 0.09942359 -0.021856148 0.17433469 -0.16447976 0.098254435 -0.0024096041 0.20364265 0.063846536 -0.014389016 0.01468457 0.01135869 -0.07206357 -0.052156374 -0.12096785 0.12795626 0.01774579 0.08788233 0.08657734 -0.08672794 0.08558538 0.06416225 0.033221163 -0.07610943 -0.016037386 -0.16084252 0.089378074 0.03753462 -0.09830539 -0.0014435825 0.10612827 -0.2589526 -0.0377968 0.032305535 -0.04653688 0.12519328 0.035586707 0.064603634 0.17027451 -0.064546324 -0.010713422 0.027560836 0.09568932 0.049301773 -0.042600065 0.062111 0.05632537 -0.14758295 0.08630944 -0.05931624 0.02816533 -0.021194221 -0.013012388 -0.019943167 -0.15067312 -0.176559 0.15375938 -0.010768841 0.011907788
75 -0.0366536 -0.12376937 -0.016584398 -0.0866779 0.061648197 -0.082142234 -0.031294048 0.08055763 -0.026662895 0.09824731 -0.07957365 0.13576253 -0.08327381 -0.10578254 -0.011550975 -0.2906459 0.066170596 -0.015719686 -0.0896137 -0.08148807 0.09293947 0.024511347 -0.007951665 0.06828223 -0.08230372 0.082430884 0.046101063 -0.039542038 -0.026402803 -0.10155598 0.014910191 -0.00074338575 -0.06271452 -0.035717897 -0.06377866 0.0029514388 0.029540665 -0.17472337 0.036557917 -0.078677125 -0.00048526897 0.13689916 0.08831086 -0.082037166 -0.1348963 -0.15970768 0.0050228084 -0.08995475 0.018884648 0.075096406 -0.013646051 0.049857195 0.060601134 0.1788886 -0.011411009 -0.11321801 -0.079643324 0.010308548 -0.18349658 -0.09347342 -0.051426996 -0.09472906 -0.119424365 -0.05314565 -0.1086268 0.1444023 -0.1370469 0.07928554 -0.037882917 -0.058370277 0.111537814 -0.02811425 0.17490135 -0.17686342 0.109659344 0.004855266 0.2006962 0.06575872 -0.013516607 0.01013573 0.014700101 -0.065784685 -0.048412565 -0.11447679 0.12994759 0.017146036 0.085770115 0.09371281 -0.08891719 0.07733823 0.062341362 0.03735931 -0.08288345 -0.022255138 -0.15903556 0.08780864 0.04181981 -0.09341368 0.003840491 0.10470981 -0.24717355 -0.037173912 0.03536928 -0.038768575 0.11939457 0.044089824 0.05983923 0.15954372 -0.06383502 -0.016492179 0.02740385 0.09720172 0.05287496 -0.0400687 0.06001862 0.05666569 -0.15590428 0.08050182 -0.052333724 0.034211967 -0.031692125 -0.022368276 -0.01291582 -0.14761303 -0.16826068 0.15985379 -0.012209773 0.0044227378
71 -0.040584587 -0.11678624 -0.016724885 -0.08101619 0.06304775 -0.08859957 -0.03977483 0.078952424 -0.016959248 0.10177735 -0.08708393 0.14010909 -0.07539208 -0.10599907 -0.0058790054 -0.28378415 0.059039205 -0.012696727 -0.08734906 -0.08570292 0.085774645 0.031216789 -0.0009907344 0.0679715 -0.08355096 0.07925301 0.05322446 -0.03589495 -0.02569815 -0.10263054 0.015248963 -0.0026624068 -0.061807334 -0.04171736 -0.06497349 0.005241847 0.024524238 -0.179166 0.03469826 -0.07453286 -0.002147563 0.1350866 0.08792448 -0.08443391 -0.13043892 -0.15514167 0.0003409586 -0.09352478 0.024814412 0.069793396 -0.01766133 0.047031835 0.061785188 0.17687236 -0.01969483 -0.12042105 -0.07590747 0.0067435238 -0.1803686 -0.0870471 -0.044785604 -0.09066474 -0.12217414 -0.045341365 -0.106409915 0.14690459 -0.13617599 0.08305554 -0.03585508 -0.055777054 0.11255517 -0.025563393 0.17951754 -0.17314546 0.10311985 -0.00033953975 0.20160231 0.059221607 -0.014644549 0.013536482 0.014151126 -0.064529665 -0.05147467 -0.11928063 0.13045077 0.018957792 0.089417964 0.08879815 -0.08682902 0.08551711 0.065493144 0.03408307 -0.07906811 -0.0154133495 -0.15706722 0.09211418 0.040518362 -0.10426129 0.006986152 0.099243805 -0.2518504 -0.032449923 0.03146909 -0.04024023 0.12790756 0.03741553 0.060549557 0.17166577 -0.059601225 -0.013112962 0.029159758 0.09592473 0.04813036 -0.039049342 0.053748604 0.060972366 -0.14413293 0.08414907 -0.054089993 0.030975845 -0.026018178 -0.015848039 -0.01926936 -0.13884395 -0.17103302 0.15383124 -0.012448205 0.0058786166
250 -0.04423503 -0.11895713 -0.010648846 -0.082434595 0.06073275 -0.08131193 -0.03215271 0.08606153 -0.02354258 0.10446029 -0.08504385 0.13952017 -0.07991724 -0.10093055 -0.009838365 -0.29079062 0.065985724 -0.013438279 -0.08306608 -0.084174655 0.095340185 0.028902154 -0.008733283 0.066531956 -0.08860992 0.08265112 0.042551495 -0.043197352 -0.031369 -0.107021704 0.015224579 0.0014734854 -0.062347442 -0.03770127 -0.06588465 0.0058195423 0.018997118 -0.17775877 0.033170737 -0.08364626 -0.0068960856 0.13663055 0.088914275 -0.08416507 -0.13393515 -0.15415804 -0.0020958437 -0.08643563 0.018574568 0.07995974 -0.015292284 0.051132873 0.061032064 0.17472734 -0.013119493 -0.12192592 -0.07718114 0.0055974 -0.1809846 -0.09191743 -0.046211183 -0.09158044 -0.114075184 -0.048201405 -0.105648264 0.1399225 -0.13640754 0.08424895 -0.035013404 -0.05602064 0.108629726 -0.028405225 0.17438342 -0.17012483 0.09963843 -0.00089825655 0.20427236 0.06447896 -0.011313884 0.011332888 0.011432313 -0.07038063 -0.054539543 -0.1175336 0.12672351 0.012405004 0.089764714 0.08858656 -0.08593498 0.08360361 0.06080388 0.03516133 -0.07352948 -0.017042426 -0.15607537 0.092078395 0.042018212 -0.09577697 0.0006374143 0.10546776 -0.24280351 -0.035440706 0.038721498 -0.038043454 0.12650928 0.037550468 0.063701995 0.16150272 -0.061978724 -0.010714995 0.027646158 0.09927564 0.046082247 -0.04801523 0.05934547 0.065122396 -0.15407775 0.08043456 -0.0558311 0.03312626 -0.022334233 -0.017885169 -0.011454578 -0.14682223 -0.17095602 0.14848611 -0.014219868 0.00098148
137 -0.043982845 -0.118419856 -0.014959645 -0.084094495 0.06368898 -0.0821438 -0.03299154 0.08406819 -0.02140602 0.10440258 -0.0856983 0.13539812 -0.07419425 -0.10244779 -0.0059527983 -0.29120255 0.062038884 -0.015640946 -0.0897479 -0.087423526 0.090099975 0.02847846 0.0043695606 0.069012284 -0.079481654 0.0812344 0.04416698 -0.041999277 -0.027118627 -0.09753255 0.017106136 0.0032111108 -0.06268929 -0.04089022 -0.06455081 0.0055414136 0.028597496 -0.1750029 0.029304847 -0.074324176 -0.0026879983 0.13189104 0.08625663 -0.080327295 -0.1339797 -0.15623641 0.0017399403 -0.088351965 0.021515056 0.07934167 -0.016174613 0.051025394 0.061649725 0.18833248 -0.022514803 -0.11150023 -0.07610722 0.005251822 -0.17522147 -0.083357826 -0.044945907 -0.084788546 -0.113329604 -0.041475605 -0.10630894 0.1488833 -0.14469421 0.087557174 -0.035202134 -0.05219288 0.112088285 -0.029977074 0.17407572 -0.1759337 0.1034272 -0.0006571195 0.20658793 0.06626459 -0.013280478 0.016555354 0.013834736 -0.06707717 -0.046683643 -0.12329113 0.12802593 0.012297002 0.086207815 0.0906827 -0.0890911 0.08362508 0.06516352 0.031074455 -0.08070938 -0.018531451 -0.1546611 0.09308961 0.04221767 -0.10007294 0.00061863905 0.105844416 -0.24713871 -0.036820546 0.036469966 -0.037640296 0.12468677 0.037723057 0.052014694 0.15800674 -0.06231714 -0.0096342545 0.030117359 0.106319994 0.049173426 -0.041872095 0.055899817 0.053779364 -0.14311343 0.08096611 -0.056290764 0.02845515 -0.018523183 -0.014809905 -0.016618947 -0.14620562 -0.16756618 0.1495846 -0.008036669 0.00463154
47 -0.04569739 -0.12622677 -0.017703457 -0.08567743 0.06529863 -0.08523843 -0.036925998 0.08324922 -0.027626265 0.105535224 -0.088535145 0.13712788 -0.07685615 -0.110066645 -0.002746066 -0.28587666 0.06030776 -0.018238705 -0.086428225 -0.08535241 0.091057844 0.028508374 -0.0034741648 0.07084115 -0.08099119 0.08594103 0.05046579 -0.038280994 -0.03200202 -0.105713315 0.020918714 -0.0004471434 -0.064391166 -0.04899355 -0.069644906 0.0001541383 0.025027428 -0.17185469 0.03464405 -0.07684996 -0.0013599085 0.13723394 0.08500506 -0.08133074 -0.13406025 -0.15859996 -0.0006892196 -0.08984481 0.021880357 0.078046694 -0.011346271 0.054357365 0.06312276 0.18242873 -0.010310584 -0.121098556 -0.078838795 0.0073632794 -0.18171577 -0.09618695 -0.045099027 -0.094783455 -0.11817644 -0.042688772 -0.098201185 0.1342575 -0.12827176 0.08379363 -0.02843086 -0.049107306 0.098732 -0.023950508 0.16565986 -0.15784428 0.09183165 -0.0047510182 0.1905762 0.06126535 -0.0155778825 0.013857464 0.014494572 -0.07458855 -0.05204235 -0.119876094 0.13057534 0.016535372 0.086431384 0.083652794 -0.08450616 0.078901276 0.064775154 0.035310082 -0.079880245 -0.012414948 -0.15476269 0.09218296 0.039162196 -0.10429707 -0.0017430023 0.10364497 -0.24823634 -0.031688407 0.03761662 -0.0376269 0.1220221 0.0414727 0.05571996 0.16280009 -0.060256742 -0.005796002 0.028478138 0.10270227 0.04989418 -0.041370954 0.05765873 0.0631363 -0.15203471 0.07438144 -0.054771584 0.03666719 -0.02210125 -0.014278089 -0.02077637 -0.14694409 -0.17414473 0.15733781 -0.011178199 0.010809402
