284 64
83 -0.12825018 -0.24327327 -0.16559155 -0.20686242 0.12547483 -0.060134757 -0.014645633 -0.1661432 -0.076733105 0.057227626 -0.2938132 0.12054924 -0.031618897 -0.08835307 -0.050464634 -0.28012133 0.16984713 0.12213938 0.012355034 -0.051188618 0.29196224 0.05408063 0.028758164 0.018798627 -0.119519904 -0.038356204 0.002320163 0.025081055 -0.08421999 -0.12257434 0.024224408 -0.012671195 -0.089440085 -0.04701225 -0.099364825 0.117488116 -0.012524916 -0.14510566 0.12127629 -0.12103408 0.041011523 0.27098078 -0.08106489 -0.116116226 -0.021177268 0.15545486 -0.09465622 -0.121247634 -0.063895464 0.096847326 -0.16656134 -0.093506835 0.039728172 0.236789 -0.23478584 -0.19410563 -0.1015498 -0.013297575 -0.07426389 0.10499864 -0.22092426 -0.060563926 -0.1871183 0.0015515299
142 -0.1295186 -0.23262572 -0.15368962 -0.20837404 0.10876074 -0.060070675 -0.0064435406 -0.15988785 -0.08763042 0.055700846 -0.27905837 0.099820696 -0.015301378 -0.08137312 -0.052852966 -0.29110393 0.17877902 0.13049148 0.0014959916 -0.043374013 0.29139778 0.047731906 0.028258 0.013400954 -0.12683928 -0.027378626 0.0027393529 0.029312361 -0.06999083 -0.11412802 0.026344215 -0.014487381 -0.06732122 -0.023385748 -0.09243822 0.11831409 -0.0035964844 -0.14563799 0.1266596 -0.11560974 0.026758492 0.2835865 -0.086344905 -0.12532322 -0.029472973 0.15361032 -0.112108015 -0.10715231 -0.05912941 0.09413846 -0.17455955 -0.103779644 0.04796407 0.23404117 -0.24444006 -0.2017081 -0.121143855 -0.012982532 -0.07707888 0.106974214 -0.20531812 -0.06105082 -0.18587369 -0.01993977
138 -0.13987069 -0.24034014 -0.17276861 -0.21887499 0.11313173 -0.07336497 -0.010948986 -0.16632602 -0.07856379 0.047475897 -0.2761769 0.11394042 -0.033280004 -0.088927604 -0.04825814 -0.26963642 0.17283672 0.12087436 -0.0026609444 -0.048150342 0.29231396 0.04358858 0.03192151 0.016111543 -0.12016118 -0.026125973 0.005687036 0.016770614 -0.07277878 -0.11336735 0.034841444 -0.0056021977 -0.082255565 -0.032760948 -0.08960033 0.11327565 -0.005060223 -0.15229833 0.13010475 -0.11972731 0.03566878 0.29641864 -0.09384518 -0.13409129 -0.026510779 0.15359412 -0.09770929 -0.1263366 -0.06511536 0.09952948 -0.17489822 -0.085062444 0.031277727 0.23934393 -0.22140843 -0.18941256 -0.10974941 -0.0085042175 -0.095678546 0.112230614 -0.21888652 -0.07022375 -0.18040879 -0.011621948
225 -0.10285571 -0.21670666 -0.1445957 -0.19038765 0.1074025 -0.05716216 0.0069253743 -0.1472898 -0.0862819 0.053073354 -0.28402567 0.1204573 -0.021575773 -0.09026027 -0.04840459 -0.28788847 0.1761695 0.10814369 -0.008248397 -0.044828136 0.3077207 0.049736727 0.01372713 0.014631478 -0.13297254 -0.032541484 0.011120925 0.020838343 -0.0707422 -0.12855737 0.018315312 -0.022400554 -0.06559295 -0.03504126 -0.0984055 0.10406101 -0.01138561 -0.15066405 0.12055395 -0.10460482 0.037086975 0.29231957 -0.07289412 -0.1348144 -0.024395049 0.14077261 -0.09538229 -0.11498999 -0.067940414 0.08504932 -0.15136296 -0.09256514 0.060231905 0.22923264 -0.23093161 -0.19619481 -0.12352386 -0.013816735 -0.07693575 0.10500833 -0.22081979 -0.06180258 -0.19014454 -0.012999996
224 -0.13099341 -0.23706803 -0.15797223 -0.20280133 0.12198783 -0.0728035 0.0011205291 -0.14596325 -0.10089556 0.041872997 -0.30232024 0.12481065 -0.03204584 -0.0728366 -0.045417454 -0.2588877 0.18459325 0.111655116 -0.00046903294 -0.03054534 0.2864099 0.044034768 0.045470558 0.025507167 -0.13830315 -0.034992527 -0.00013640097 0.029246135 -0.08384529 -0.104029275 0.014406065 -0.013834317 -0.060060795 -0.043818776 -0.09760991 0.10989873 0.0150957415 -0.1603566 0.1309578 -0.11554403 0.031137982 0.27937496 -0.08561458 -0.120287485 -0.022369547 0.14790075 -0.09873255 -0.11361068 -0.084577434 0.09191061 -0.16602094 -0.11428815 0.042831223 0.24020235 -0.23893109 -0.210139 -0.11069795 -0.013037298 -0.07912699 0.118900545 -0.22058083 -0.045305356 -0.17444299 -0.0068994467
57 -0.09837453 -0.22723238 -0.15992424 -0.21479101 0.116089016 -0.066068 -5.5192428e-05 -0.15330322 -0.08686219 0.047081392 -0.2818329 0.102714896 -0.020965587 -0.08017361 -0.04997526 -0.30817938 0.15124483 0.10752341 -0.004008593 -0.038192105 0.26171762 0.051032275 0.04248931 0.008823667 -0.13065016 -0.03287286 0.006790168 0.031991523 -0.07162435 -0.123864196 0.016839817 -0.009977082 -0.06414496 -0.019562986 -0.09006711 0.11089193 -0.012302095 -0.15486494 0.12674037 -0.114869356 0.04643911 0.29898787 -0.07796339 -0.12710358 -0.015632788 0.16634917 -0.085617326 -0.12811755 -0.06931493 0.09534369 -0.17893109 -0.105063476 0.036650926 0.22839448 -0.2344599 -0.21354645 -0.11242325 -0.0029837938 -0.08285373 0.11894372 -0.22832973 -0.05871831 -0.19415607 -0.010489228
94 -0.12110875 -0.24286324 -0.16205263 -0.210423 0.11836443 -0.071430795 -0.0051944796 -0.13674414 -0.0912486 0.057123356 -0.27137557 0.11675157 -0.027443092 -0.0886044 -0.055681925 -0.27839646 0.17425485 0.11959073 0.008734329 -0.046303306 0.28828612 0.05544031 0.031983543 0.029966043 -0.13043343 -0.022042176 0.002002211 0.035176113 -0.081628986 -0.12115451 0.027677322 -0.027732078 -0.073236264 -0.04399679 -0.10116746 0.1161269 0.007437954 -0.14509964 0.1269084 -0.10241213 0.025344927 0.3039145 -0.07284086 -0.12612467 -0.035583153 0.14550616 -0.097358584 -0.12788413 -0.08125809 0.08863714 -0.16371241 -0.09625039 0.046605494 0.23833627 -0.23782788 -0.19127269 -0.10401504 -0.019998934 -0.06882151 0.10124291 -0.21932708 -0.059212107 -0.18890019 -0.012899801
126 -0.11873543 -0.24631032 -0.16742973 -0.20435882 0.11233833 -0.07145585 -0.003922284 -0.17023396 -0.08681994 0.043583866 -0.27680075 0.116377145 -0.016182173 -0.07456804 -0.031591006 -0.28414506 0.16451816 0.12027541 0.006622197 -0.04538967 0.27674416 0.054931853 0.04661852 0.0103618875 -0.1207821 -0.04167072 0.016535377 0.020682413 -0.06633264 -0.11960836 0.022150526 -0.019387351 -0.06067922 -0.024208087 -0.082665324 0.11394824 -0.008008352 -0.14952342 0.12317955 -0.1214483 0.03957458 0.31175253 -0.082113534 -0.13188341 -0.017488334 0.15568878 -0.093922496 -0.122059524 -0.059975408 0.09735446 -0.18099676 -0.09632498 0.03521945 0.2383362 -0.25036472 -0.19875848 -0.113440834 -0.0065681087 -0.080856964 0.098664165 -0.2168217 -0.057092987 -0.17492115 -0.00978581
146 -0.118494175 -0.22317342 -0.1430116 -0.22268207 0.10162802 -0.06310387 -0.011022193 -0.1543682 -0.09684161 0.052008156 -0.31448537 0.12072038 -0.027769653 -0.07903101 -0.042182803 -0.2725198 0.15717936 0.11473784 0.0011513748 -0.049751442 0.26432526 0.04433092 0.024416452 0.023949856 -0.123708874 -0.03834673 0.0037489268 0.027529638 -0.065280914 -0.11524786 0.024544867 -0.020167567 -0.07412723 -0.037485164 -0.07658588 0.1074828 -0.0038661365 -0.16319153 0.13135394 -0.11895901 0.03505102 0.31352046 -0.08850537 -0.1368287 -0.021515232 0.16435732 -0.106200986 -0.13173126 -0.07533872 0.08024944 -0.16650297 -0.11128476 0.053893767 0.24807379 -0.23339058 -0.19965614 -0.116983585 -0.020843884 -0.09337517 0.10863534 -0.21691316 -0.050631233 -0.1821243 -0.017742194
110 -0.10843286 -0.22067136 -0.15085515 -0.20424749 0.10465421 -0.056948554 0.009183765 -0.14644526 -0.092726395 0.052752163 -0.3037137 0.104375355 -0.019855313 -0.072593525 -0.057108272 -0.2815476 0.16164187 0.12534212 -0.0056131445 -0.043722786 0.2830251 0.048590273 0.034316983 0.017903678 -0.124799535 -0.039926477 0.0036840644 0.03532825 -0.0864315 -0.11706473 0.01944272 -0.01023115 -0.07036544 -0.03956389 -0.090041846 0.12547894 -0.012701134 -0.14730576 0.13493158 -0.11843588 0.03393166 0.30362016 -0.097811 -0.1276949 -0.023547182 0.15717274 -0.091889724 -0.12485298 -0.071365595 0.083748326 -0.17106913 -0.10428516 0.040652066 0.23377343 -0.23271668 -0.20700724 -0.11576941 -0.017857593 -0.08208569 0.10763039 -0.23341946 -0.07277797 -0.1900077 -0.016662803
54 -0.13048305 -0.25720698 -0.16658778 -0.21476965 0.1126318 -0.08229194 -0.004184552 -0.17707977 -0.0803822 0.04762301 -0.3068859 0.115950815 -0.015809039 -0.076710485 -0.054241195 -0.28430814 0.15404867 0.10937286 0.011117493 -0.042256236 0.2632028 0.051169194 0.029714404 0.02192894 -0.108999506 -0.028675716 0.007233641 0.021207811 -0.09683146 -0.13312156 0.029023081 -0.013015688 -0.0921251 -0.04352301 -0.09959111 0.12302326 -0.0034493594 -0.13055773 0.13439053 -0.11665413 0.036388524 0.28445947 -0.08465151 -0.11805222 -0.016401835 0.15790145 -0.09741365 -0.11785173 -0.06933055 0.09035035 -0.1775032 -0.09625161 0.044480965 0.23331696 -0.22674689 -0.21110953 -0.11003226 -0.012231997 -0.07275455 0.1120965 -0.22243257 -0.0712934 -0.1852685 -0.0111105675
244 -0.12489433 -0.22859281 -0.1589364 -0.2013905 0.10279232 -0.06871524 -0.011505626 -0.16536562 -0.07129821 0.04684921 -0.2762998 0.10992072 -0.024815856 -0.089050196 -0.058646433 -0.27015904 0.18246637 0.11835063 0.013794006 -0.04686251 0.27754474 0.05809597 0.04535879 0.020287247 -0.12592526 -0.031964242 0.010013561 0.044349663 -0.06266131 -0.114042275 0.020667173 -0.02812711 -0.069947466 -0.016003044 -0.09462112 0.11362837 0.0041604955 -0.14696774 0.123127736 -0.12255184 0.04353295 0.3308045 -0.0808368 -0.13126363 -0.030022362 0.1642874 -0.116029695 -0.13305885 -0.07481295 0.089715876 -0.18130508 -0.10189308 0.036104698 0.23972568 -0.256814 -0.20847058 -0.10576202 -0.018845346 -0.06322168 0.113221474 -0.23052685 -0.06457751 -0.19333865 -0.0024735208
49 -0.10817291 -0.22434747 -0.12887755 -0.19880272 0.10847298 -0.07684783 -0.010143436 -0.15503052 -0.08499559 0.040715527 -0.28730586 0.12144031 -0.026141252 -0.093093514 -0.047321837 -0.29524824 0.15629314 0.11817764 0.0028568788 -0.037103534 0.26971912 0.045729965 0.035187528 0.010748738 -0.11708975 -0.022715475 0.001299048 0.0237597 -0.07993645 -0.12068895 0.0206378 -0.028119903 -0.0703296 -0.025376892 -0.09141723 0.122245744 0.0020080814 -0.1465418 0.12780525 -0.11450247 0.031116148 0.31112522 -0.074627355 -0.11289506 -0.019019624 0.1557943 -0.10939596 -0.12266731 -0.08178981 0.09287983 -0.18779643 -0.10939607 0.055452306 0.24409936 -0.24531202 -0.20500109 -0.11525765 -0.0069376533 -0.08822017 0.10416327 -0.23308006 -0.059912004 -0.18430601 -0.014661909
58 -0.11370815 -0.22388561 -0.14806238 -0.21178018 0.09968433 -0.050780743 -0.010219228 -0.15632094 -0.08959544 0.044880908 -0.2734289 0.10797253 -0.018884918 -0.07276881 -0.055179615 -0.28888917 0.16972472 0.124959946 0.006858617 -0.056318123 0.27579442 0.043585014 0.038089916 0.016012445 -0.120898426 -0.041035943 -0.0057061403 0.029263407 -0.07039175 -0.1117121 0.02326534 -0.01688375 -0.0643062 -0.025021287 -0.08305218 0.10618253 0.0071022897 -0.14218134 0.11552267 -0.11337256 0.032997057 0.31267497 -0.08886272 -0.14288825 -0.03336182 0.17095415 -0.10571253 -0.12257291 -0.0719911 0.08039632 -0.17628768 -0.10991346 0.043526664 0.25417337 -0.25259352 -0.2089705 -0.11091248 -0.018289799 -0.076153114 0.11568836 -0.22586113 -0.06166346 -0.18772998 -0.0041566263
87 -0.11866003 -0.22342935 -0.14619258 -0.20078494 0.11873411 -0.048885196 -0.011278491 -0.15180317 -0.08924179 0.061369676 -0.31056213 0.11776976 -0.018118832 -0.09260138 -0.044029973 -0.30957463 0.15655798 0.12076644 0.009561091 -0.05821551 0.2855033 0.035481982 0.0223665 0.023667872 -0.1263005 -0.017290663 0.006664641 0.020864675 -0.06962793 -0.1369728 0.037204284 -0.021093355 -0.09224499 -0.051999994 -0.09344566 0.1255314 0.001882468 -0.13234136 0.11437182 -0.10175474 0.025503632 0.2858769 -0.08870129 -0.11260138 -0.00785163 0.15453815 -0.109323196 -0.11427452 -0.06197148 0.078981675 -0.17907254 -0.09953799 0.046905648 0.24056818 -0.2322663 -0.20698567 -0.11248059 -0.02696274 -0.07868214 0.10647962 -0.22367388 -0.072286926 -0.18152857 -0.0046580173
52 -0.11544252 -0.20719902 -0.14288835 -0.19901693 0.09988021 -0.0636392 -0.0007301559 -0.14873722 -0.08482354 0.05171731 -0.29528898 0.120745406 -0.028024867 -0.073791526 -0.055695873 -0.28998616 0.16997288 0.1306552 -0.005353596 -0.038788483 0.28660226 0.049225263 0.025515957 0.0068770368 -0.13526312 -0.02328853 -0.0005919123 0.03738138 -0.065164745 -0.12570624 0.029609662 -0.009992054 -0.05901016 -0.022898566 -0.07783819 0.11064342 -0.020809617 -0.16513266 0.13541341 -0.12288206 0.04155608 0.33391544 -0.09752025 -0.13025753 -0.023291878 0.16337794 -0.10458631 -0.12730917 -0.07634916 0.08793254 -0.17235301 -0.113622405 0.04531627 0.23763402 -0.23127504 -0.20639671 -0.11373806 -0.020064332 -0.096451275 0.09937294 -0.23486245 -0.049496174 -0.19188109 -0.009462969
96 -0.116855785 -0.24068913 -0.16892998 -0.21898644 0.12186977 -0.073267 -0.005471844 -0.15802242 -0.090537116 0.04647134 -0.31264052 0.12340779 -0.021233253 -0.08265647 -0.038625795 -0.276982 0.16092868 0.11122068 -0.0039963364 -0.04041729 0.274387 0.04698103 0.028032284 0.00927689 -0.12611772 -0.017828811 0.0072324513 0.023764959 -0.087810636 -0.13058667 0.03492067 -0.010265815 -0.09092616 -0.04303669 -0.09396434 0.11546666 -0.01702035 -0.14005539 0.11132375 -0.122817464 0.039738823 0.29604658 -0.089568704 -0.12966783 -0.013203921 0.15971349 -0.09129288 -0.124090225 -0.05737174 0.10175354 -0.1829696 -0.08665331 0.040623277 0.2424098 -0.2165111 -0.19827937 -0.10886011 -0.004244383 -0.07158396 0.100146726 -0.2102036 -0.07074792 -0.17526005 -0.0073374743
246 -0.1255358 -0.22173676 -0.16051395 -0.21582983 0.094868675 -0.07669363 -0.012172697 -0.17208424 -0.09437084 0.0421414 -0.25078964 0.10750579 -0.019596007 -0.09368849 -0.047311697 -0.28427455 0.15886082 0.11896566 0.0070331777 -0.057264924 0.26170474 0.04754136 0.022185866 0.02296801 -0.11853528 -0.017681468 0.01477155 0.02196289 -0.06883404 -0.1025675 0.015961079 -0.018565895 -0.05301103 -0.012735746 -0.08441688 0.10324363 -0.0076576257 -0.16429166 0.13039757 -0.116303295 0.045693483 0.3252466 -0.0773962 -0.1339264 -0.017227858 0.17659129 -0.106947124 -0.13875762 -0.096875675 0.09456351 -0.17935908 -0.10592078 0.031509075 0.23746662 -0.2310633 -0.20595066 -0.10692733 -0.01696237 -0.08938308 0.11078718 -0.23809029 -0.056883212 -0.2066105 -0.023921601
145 -0.12876666 -0.24985228 -0.16850686 -0.21852957 0.11837092 -0.061697554 -0.0093006315 -0.16605325 -0.08570581 0.03951689 -0.28905436 0.10341979 -0.025167383 -0.07778252 -0.04749405 -0.27615696 0.16384004 0.108415835 -0.0015214443 -0.048336733 0.2647291 0.05819489 0.036631346 0.032937236 -0.121442325 -0.028430672 0.019248892 0.028793795 -0.08189123 -0.1072429 0.025680168 -0.0058140904 -0.07894422 -0.03621994 -0.10469266 0.11697698 0.006469866 -0.14981371 0.12566423 -0.109968886 0.040961295 0.29326516 -0.087996356 -0.120619364 -0.007811169 0.16463736 -0.102945566 -0.13026555 -0.077068806 0.089560494 -0.19203675 -0.10807939 0.040415067 0.24252471 -0.24203739 -0.21550225 -0.12588409 -0.012755304 -0.07801246 0.110748 -0.22371778 -0.06976285 -0.1907685 -0.0062994407
277 -0.11256884 -0.2251109 -0.15277664 -0.21193886 0.1005339 -0.07050145 -0.010691975 -0.15362969 -0.09164909 0.056540374 -0.29968455 0.117114834 -0.028763674 -0.074851885 -0.046805985 -0.26788107 0.15810639 0.121221796 0.016466854 -0.04745965 0.26144135 0.048137568 0.041158915 0.024846502 -0.11607801 -0.030549323 0.00065350055 0.036451597 -0.07186102 -0.11416014 0.017238002 -0.019998569 -0.06831807 -0.032753095 -0.10121831 0.09353234 0.0035065894 -0.14503242 0.12328913 -0.10758073 0.031513404 0.30986187 -0.09246584 -0.13747175 -0.03347832 0.15666127 -0.10038368 -0.13449581 -0.0783071 0.07773677 -0.16594388 -0.112045094 0.046018984 0.2432368 -0.24698217 -0.21241991 -0.12446307 -0.01667482 -0.08623874 0.111731604 -0.21181588 -0.06555357 -0.17626823 -0.007708282
144 -0.113958 -0.23152387 -0.16072626 -0.20221563 0.1204416 -0.060804978 -0.0002157558 -0.15135899 -0.08663233 0.059720118 -0.272094 0.11164657 -0.026519883 -0.07898319 -0.04512576 -0.27944767 0.16415322 0.1232767 6.0454462e-05 -0.041860517 0.2769715 0.047986936 0.03068692 0.021615963 -0.11499646 -0.028908892 -0.0002939114 0.043575425 -0.07150496 -0.12505889 0.029746795 -0.014653295 -0.08483195 -0.037960634 -0.093160786 0.115300454 -0.0054233307 -0.1565534 0.12582485 -0.112767406 0.049225524 0.31163222 -0.08743315 -0.12711467 -0.028566908 0.15684941 -0.10437097 -0.11962048 -0.067647085 0.094560735 -0.15847047 -0.101970494 0.04689086 0.2403835 -0.24413317 -0.19612442 -0.107863314 -0.02469594 -0.077306345 0.09810113 -0.21426603 -0.058909107 -0.18142399 -0.0055572754
260 -0.1096315 -0.22075124 -0.1596478 -0.20731327 0.10011397 -0.07612514 -0.004048449 -0.1373396 -0.077525176 0.05708949 -0.2772449 0.11774846 -0.034339335 -0.07875869 -0.044394333 -0.29093352 0.16352911 0.12163034 -7.554418e-05 -0.046896316 0.2843537 0.06137754 0.045220893 0.017405586 -0.1259796 -0.020460544 0.009220219 0.028638719 -0.079998665 -0.11066349 0.018547038 -0.022786545 -0.07528517 -0.025375756 -0.09901315 0.101884626 0.0029090238 -0.1339203 0.12095321 -0.10736057 0.042146374 0.30185732 -0.07964038 -0.126805 -0.02896879 0.15471166 -0.097836904 -0.12946066 -0.07059768 0.082624465 -0.16276102 -0.108211555 0.038573712 0.23596227 -0.23870094 -0.21481876 -0.13101529 -0.028358014 -0.08184401 0.10967924 -0.2217636 -0.071629465 -0.19394782 -0.016530031
2 -0.11696341 -0.22798452 -0.14959332 -0.20709862 0.11684876 -0.063348025 -0.0051621185 -0.15795727 -0.09759414 0.056731682 -0.3068568 0.124310434 -0.014899223 -0.075474806 -0.042495515 -0.26626343 0.15270188 0.12605831 -0.0014640609 -0.04041934 0.25779054 0.048618503 0.045101266 0.022460582 -0.113585085 -0.032983776 0.006423967 0.033345662 -0.07365628 -0.10658886 0.022516629 -0.015797805 -0.088270515 -0.021625366 -0.10078036 0.12628272 0.0065562073 -0.14899254 0.12750797 -0.11757937 0.035685007 0.30829468 -0.072023086 -0.13073848 -0.030012228 0.1554696 -0.102066666 -0.1132789 -0.06771618 0.07511985 -0.16689266 -0.114307895 0.04493864 0.2548497 -0.24608572 -0.21303682 -0.10991194 -0.012517316 -0.079172805 0.11204454 -0.21348658 -0.060511377 -0.17745224 -0.008351828
84 -0.1127896 -0.21449378 -0.13838641 -0.18805234 0.119884074 -0.055970635 -0.008595069 -0.14576481 -0.08225088 0.049917582 -0.27224654 0.1149542 -0.020031089 -0.082267314 -0.049454655 -0.28100348 0.16820487 0.13002785 0.0055211824 -0.043284252 0.28605303 0.043465376 0.03877151 0.021684662 -0.13295762 -0.029691702 -0.0008746575 0.034360964 -0.059084203 -0.12090945 0.02451562 -0.011049607 -0.08527861 -0.035051342 -0.07993394 0.11530211 -0.0034288466 -0.14602421 0.1319565 -0.12603135 0.027340291 0.3162024 -0.084293574 -0.14618191 -0.03651091 0.1621143 -0.10823993 -0.12149689 -0.07175396 0.07867321 -0.17422809 -0.11043604 0.050349038 0.2502393 -0.25648552 -0.21322855 -0.11137981 -0.017065145 -0.08147295 0.1116275 -0.2237506 -0.05996485 -0.19317457 0.0041262596
186 -0.12545997 -0.2513676 -0.15553123 -0.20719793 0.11355277 -0.08078121 -0.019187314 -0.18318155 -0.1000636 0.038286373 -0.2882347 0.1047753 -0.018160846 -0.07583559 -0.03384061 -0.24716072 0.15558003 0.112315685 0.019430809 -0.051522322 0.2590563 0.048007015 0.035847347 0.015583099 -0.09665955 -0.027701544 0.009800325 0.032602325 -0.080678694 -0.11224558 0.031581253 -0.0013379483 -0.080664575 -0.028167613 -0.09100301 0.104922436 0.0073614195 -0.13967808 0.12788336 -0.11130636 0.036849994 0.29744947 -0.08800751 -0.120146796 -0.022324124 0.15315959 -0.105937816 -0.13192244 -0.065959655 0.09276706 -0.18265247 -0.108618915 0.041211817 0.25975522 -0.24826601 -0.2247894 -0.12153608 -0.014183183 -0.08388386 0.12090395 -0.23580101 -0.06320348 -0.19080362 -0.013937546
1 -0.12931824 -0.24600135 -0.14978589 -0.21556143 0.10708449 -0.059941884 -0.0038010764 -0.16075338 -0.07407984 0.05255487 -0.28714588 0.112481065 -0.017895509 -0.08583283 -0.047607154 -0.2929278 0.17032675 0.121403135 0.013460609 -0.057834487 0.28692007 0.051302694 0.034257147 0.027175922 -0.11945407 -0.033083886 0.007886033 0.039081443 -0.07485537 -0.13106245 0.009350568 -0.014983323 -0.076622285 -0.034355693 -0.09320752 0.09375867 -0.00586817 -0.15271875 0.12699781 -0.11781789 0.03479143 0.28520522 -0.07919797 -0.116686255 -0.025075559 0.159337 -0.11023956 -0.11462838 -0.063393824 0.08998414 -0.1804612 -0.10110331 0.039679334 0.25480527 -0.255666 -0.20778619 -0.11691106 -0.013307685 -0.08231659 0.10082813 -0.22453006 -0.06507943 -0.19606258 0.0029334154
119 -0.111414514 -0.22911222 -0.15238695 -0.21503833 0.12508525 -0.060976665 0.00015931716 -0.15490359 -0.10462704 0.050052583 -0.32040653 0.113811426 -0.03595139 -0.08711637 -0.047711708 -0.2827922 0.17265177 0.121408194 0.00095045497 -0.039003313 0.28168792 0.043978024 0.040328246 0.014281878 -0.13029325 -0.028072556 -0.0032197286 0.031915974 -0.08089416 -0.12122806 0.017716538 -0.031652085 -0.08197992 -0.041450724 -0.09980014 0.12145832 0.009779905 -0.15466768 0.12776579 -0.117759265 0.030980881 0.29329467 -0.083752595 -0.13596648 -0.028172743 0.1521018 -0.11092221 -0.11840425 -0.06745648 0.07773281 -0.1484769 -0.091927655 0.045024965 0.22769818 -0.2272565 -0.19528589 -0.11554987 -0.0095767435 -0.076079264 0.097313404 -0.21733038 -0.05327645 -0.17048047 -0.004127677
86 -0.12229767 -0.24468137 -0.14141582 -0.21736343 0.10705524 -0.079678066 -0.013083049 -0.17391114 -0.09654271 0.05567384 -0.30589765 0.11470155 -0.01135086 -0.08103215 -0.039969478 -0.2546892 0.15863124 0.12648281 0.0018023262 -0.04341255 0.25449556 0.053853743 0.037299767 0.016937617 -0.11888143 -0.026395934 0.0027667375 0.03168894 -0.08866075 -0.10688851 0.022952877 -0.020911165 -0.07108715 -0.030101454 -0.089748956 0.11458146 0.009706784 -0.16069533 0.14337231 -0.106627464 0.02668422 0.3092378 -0.0794047 -0.13211522 -0.03444709 0.16420387 -0.11434193 -0.13512613 -0.08506723 0.07235488 -0.16009839 -0.100928456 0.046714712 0.24018128 -0.23663335 -0.20815758 -0.1124897 -0.014934335 -0.08194246 0.104766905 -0.22726174 -0.049422074 -0.18512599 -0.0026336978
48 -0.120838985 -0.23725799 -0.16003396 -0.2126105 0.11319709 -0.07190865 -0.0009865024 -0.1597623 -0.08825213 0.05669428 -0.31885463 0.12990023 -0.026175741 -0.07699329 -0.05281573 -0.29856282 0.16021699 0.11709786 0.009596843 -0.039258018 0.29513308 0.05478757 0.031168513 0.020436022 -0.1321642 -0.028861241 -0.0057119015 0.023311732 -0.08831616 -0.13396645 0.03180062 -0.028014168 -0.07470559 -0.039641444 -0.09854706 0.10250959 -0.0017648838 -0.1531204 0.1302361 -0.11008236 0.030744692 0.29536566 -0.072331384 -0.13236135 -0.027203973 0.14933865 -0.09239577 -0.12676176 -0.07870465 0.078765735 -0.15399475 -0.08506775 0.042734038 0.23620586 -0.22596306 -0.20072448 -0.12018803 -0.014247024 -0.08274411 0.09380359 -0.21333 -0.053718466 -0.17373832 -0.0037080117
115 -0.110619076 -0.26036155 -0.16062537 -0.22975005 0.105793595 -0.08374876 -0.012588928 -0.18007037 -0.10332288 0.03646736 -0.29810083 0.112705864 -0.021066818 -0.08293853 -0.041821677 -0.27335975 0.15438528 0.101854324 0.010795293 -0.0522285 0.2531064 0.055928763 0.048468117 0.012116907 -0.113934085 -0.03944872 0.0015006944 0.02366007 -0.07032433 -0.10624434 0.02397689 -0.0021712712 -0.05455563 -0.031794317 -0.084201545 0.11079852 0.009231649 -0.1393877 0.12291778 -0.113246225 0.025548685 0.3088656 -0.09283951 -0.12717767 -0.02059508 0.15863565 -0.09402108 -0.12870713 -0.07431341 0.09655869 -0.17993125 -0.10794524 0.041148536 0.2498417 -0.2293315 -0.2134388 -0.12067735 -0.0153575 -0.07646989 0.12131864 -0.21973127 -0.060137708 -0.17358798 -0.012618687
89 -0.11373035 -0.22537194 -0.1501718 -0.21270739 0.103366435 -0.05517298 -0.0060325176 -0.15708283 -0.08277542 0.04732987 -0.26748267 0.110707335 -0.029764913 -0.07882931 -0.050194282 -0.30443 0.15924089 0.1121445 0.004758742 -0.051400885 0.2771459 0.0470236 0.040951308 0.021452766 -0.12651959 -0.02746098 0.0034047964 0.021844916 -0.07696916 -0.123332806 0.019131145 -0.015129286 -0.06454228 -0.0352306 -0.0958732 0.09661488 0.0017201512 -0.14302096 0.12859462 -0.11485686 0.03861808 0.31146297 -0.08742989 -0.13699703 -0.02540083 0.16287057 -0.100952454 -0.12174676 -0.07297731 0.088100865 -0.1669288 -0.11243587 0.038486253 0.23666282 -0.2307865 -0.21111293 -0.11127131 -0.023158193 -0.08344068 0.11294348 -0.22773443 -0.062005978 -0.18460593 -0.006120955
61 -0.12222246 -0.23668675 -0.14727639 -0.2218773 0.111876555 -0.07207164 -0.008366947 -0.15495883 -0.07939909 0.051748253 -0.30280015 0.09561311 -0.026346585 -0.08734647 -0.05330056 -0.2985345 0.1508169 0.12792678 0.0052520987 -0.041810255 0.26121795 0.048236337 0.039752204 0.015728882 -0.121510394 -0.032148767 0.0005622472 0.029838188 -0.082408614 -0.14152813 0.025672082 -0.03073513 -0.09030394 -0.0378367 -0.09719794 0.11873853 0.011541011 -0.14503895 0.12810707 -0.10819015 0.03627557 0.3140516 -0.086736225 -0.13395762 -0.02994577 0.16681111 -0.10945106 -0.12247617 -0.0674789 0.08955805 -0.16793017 -0.103741124 0.050709862 0.23547836 -0.23662779 -0.20281416 -0.12704183 -0.021697871 -0.099976644 0.09621389 -0.2248244 -0.06941409 -0.16445613 -0.0018766322
278 -0.11363794 -0.22738999 -0.15008475 -0.21277349 0.11694381 -0.07091268 0.0056709703 -0.14121738 -0.09678966 0.047505397 -0.30682775 0.12054453 -0.031774495 -0.083245434 -0.056868114 -0.30454004 0.16821745 0.12583163 0.0020123578 -0.046953194 0.28131253 0.048970483 0.035329107 0.008143941 -0.11971206 -0.016496371 -0.0016352765 0.024561204 -0.07141083 -0.11861027 0.0328281 -0.011334387 -0.06350406 -0.037449352 -0.09076905 0.110255 0.010293253 -0.1381897 0.12761262 -0.10498065 0.032614894 0.288972 -0.07596461 -0.12655602 -0.037879292 0.1459082 -0.098890156 -0.118898764 -0.07338081 0.073958494 -0.16322191 -0.10334794 0.049101017 0.24863733 -0.22971983 -0.20947318 -0.11754258 -0.016302101 -0.08693599 0.10838538 -0.22432904 -0.057040118 -0.18455826 -0.009932094
273 -0.08300708 -0.17143205 -0.13284427 -0.15936495 0.11352915 -0.059714105 0.016617635 -0.08112954 -0.07539187 0.069584735 -0.29293433 0.13124129 -0.03682218 -0.0973563 -0.05906709 -0.3484004 0.15236169 0.12021969 -0.014130676 -0.03335944 0.31070542 0.029205823 0.003937062 0.0077057383 -0.17728536 -0.012003996 0.0026649623 0.005543491 -0.07166002 -0.14928015 0.026333218 -0.039640795 -0.083185665 -0.06213533 -0.105956554 0.12611566 -0.013605386 -0.13722342 0.13915841 -0.13019009 0.030332342 0.28248817 -0.08149558 -0.12247628 -0.039517235 0.13225529 -0.07904022 -0.10668357 -0.07688226 0.06293836 -0.13932921 -0.08485877 0.07578764 0.22105086 -0.19972065 -0.19038126 -0.13202068 -0.010844447 -0.07515528 0.08061668 -0.20887214 -0.09805666 -0.16988415 0.00434829
196 -0.079740815 -0.18110234 -0.14400016 -0.16928741 0.102509364 -0.05500929 0.011402413 -0.09089298 -0.08094303 0.08512171 -0.26441318 0.13117199 -0.03831734 -0.08485752 -0.049883433 -0.339273 0.16633554 0.1171551 -0.012140983 -0.03811749 0.31905484 0.042115517 -0.003213005 0.020443065 -0.16776964 -0.005057781 0.02048585 0.0063882694 -0.076517746 -0.14047964 0.030525792 -0.038272355 -0.0758814 -0.046647154 -0.10227508 0.1171018 -0.01796407 -0.13389893 0.13973774 -0.13200533 0.02215651 0.30717942 -0.084810264 -0.12894346 -0.036970727 0.13682571 -0.08539309 -0.11154788 -0.08574275 0.07851761 -0.1462293 -0.08981338 0.0645212 0.21823145 -0.1881003 -0.19602227 -0.11859084 -0.016449364 -0.06755439 0.08250581 -0.20409827 -0.10627518 -0.17933682 0.0038938848
181 -0.07887367 -0.18694758 -0.14174052 -0.16991454 0.1025263 -0.062450342 0.018425088 -0.07766578 -0.07239101 0.08024903 -0.26785046 0.14267105 -0.033012625 -0.092466995 -0.044906873 -0.35288638 0.15193714 0.11672871 -0.013301009 -0.024484644 0.31624123 0.033891547 0.006632272 0.012234038 -0.16191061 -0.005549173 0.0060567 0.0032242716 -0.06849174 -0.15539229 0.033026397 -0.042768408 -0.08823237 -0.0622595 -0.11081847 0.11479373 -0.006883855 -0.12740338 0.13997133 -0.12726584 0.013813 0.28601274 -0.08071638 -0.13417014 -0.0492415 0.124946184 -0.080399774 -0.09818342 -0.08148342 0.07230226 -0.13100213 -0.09249925 0.07967384 0.23121008 -0.19490902 -0.19107227 -0.1279498 -0.019029224 -0.071506456 0.072067864 -0.19450216 -0.110276304 -0.17790265 0.0021165588
259 -0.07052121 -0.17196174 -0.12118751 -0.1644493 0.10038426 -0.06748104 0.017420245 -0.08870303 -0.06983641 0.06458867 -0.29082194 0.12800549 -0.040175803 -0.093094714 -0.04044146 -0.34422022 0.1597613 0.11576587 -0.0045434535 -0.032300375 0.30853418 0.032671608 0.011562537 0.010557832 -0.15885808 -0.0061091343 -0.0007693218 0.0012137532 -0.08491349 -0.14134999 0.023545183 -0.040267386 -0.08460352 -0.05570836 -0.10401573 0.11769819 -0.011539698 -0.12901278 0.14141779 -0.1275348 0.009711524 0.29016563 -0.080022484 -0.13861015 -0.044697117 0.13266861 -0.08266207 -0.102598384 -0.07944542 0.06929074 -0.13976885 -0.09598171 0.06993833 0.22435336 -0.20280726 -0.18523511 -0.1353006 -0.027414279 -0.06610321 0.08011025 -0.20353086 -0.099507555 -0.16457108 0.005048761
208 -0.07994563 -0.16857037 -0.13290788 -0.15832692 0.106360674 -0.05561679 0.012281233 -0.081871375 -0.074192986 0.07358054 -0.27835986 0.12933649 -0.04049902 -0.09867696 -0.061945885 -0.34810317 0.16133776 0.11244069 -1.2234914e-05 -0.03052896 0.31895655 0.030416861 0.011057257 0.018012993 -0.16775164 0.0007334117 0.001128789 0.0018438015 -0.070066236 -0.13729209 0.03273048 -0.047326803 -0.08246975 -0.06514455 -0.10115819 0.10783093 -0.00034491465 -0.13124888 0.1452279 -0.12758571 0.024405364 0.29128894 -0.07953176 -0.13043174 -0.03987494 0.13339238 -0.07707549 -0.11120231 -0.066673934 0.066008605 -0.14072378 -0.09306638 0.06568491 0.21640028 -0.18652636 -0.19388773 -0.12884213 -0.014860147 -0.05930997 0.08355097 -0.19831821 -0.106999084 -0.16901283 0.0073372936
154 -0.07227818 -0.1867636 -0.13652454 -0.1742984 0.11100009 -0.0808741 0.02056171 -0.08173878 -0.07427995 0.078884974 -0.2800298 0.12867334 -0.033228908 -0.08322003 -0.05020246 -0.35214078 0.15069202 0.10984952 -0.013288123 -0.035553843 0.31530792 0.04094415 0.0037877287 0.01788078 -0.17937663 -0.009415716 0.0030526582 -0.0032875957 -0.0873615 -0.15174639 0.018887913 -0.050888516 -0.086711004 -0.053606275 -0.11279192 0.12684412 -0.0032979548 -0.13517927 0.15118167 -0.13754673 0.022156432 0.28236017 -0.080395624 -0.13496667 -0.039380457 0.12207298 -0.08319685 -0.113403305 -0.081802085 0.078091234 -0.14024307 -0.087640464 0.06933247 0.2159468 -0.19965765 -0.20531422 -0.13738142 -0.0225245 -0.07084513 0.09102244 -0.20751676 -0.114979476 -0.17905842 0.007966754
30 -0.073834755 -0.19454464 -0.14408505 -0.15889671 0.09523254 -0.067054614 0.027498951 -0.080845594 -0.078347795 0.07957185 -0.2904204 0.14436753 -0.039324656 -0.095431864 -0.0563216 -0.3508764 0.16317908 0.115842715 -0.014941125 -0.016785426 0.33168757 0.032330442 0.011822992 0.0035704703 -0.16835035 -0.01452469 0.010269026 0.005909843 -0.08810232 -0.1490696 0.02345896 -0.05274049 -0.07510222 -0.06044375 -0.118145734 0.1310455 -0.0048267986 -0.12034818 0.1350098 -0.13259149 0.017541192 0.2947733 -0.084339455 -0.12936552 -0.044450406 0.12537043 -0.07976018 -0.10858399 -0.082448155 0.07583466 -0.14491037 -0.09223341 0.07683411 0.2154657 -0.19180141 -0.195479 -0.14581814 -0.018677179 -0.06190785 0.0790174 -0.2085618 -0.11866385 -0.16620478 0.0031766028
55 -0.07262412 -0.17556052 -0.12609045 -0.15584123 0.10657236 -0.061635315 0.023956846 -0.08256377 -0.06537138 0.07722081 -0.26913893 0.14154641 -0.04114827 -0.09521686 -0.052913833 -0.3595336 0.1597847 0.119388774 -0.0055796797 -0.035256837 0.34019163 0.038638376 0.004481261 0.018532416 -0.1681987 -0.005700509 -0.00036307404 -0.0019742504 -0.082402006 -0.14253607 0.031044506 -0.051571105 -0.07641741 -0.057207957 -0.09549254 0.1114861 -0.016460594 -0.13556275 0.13682036 -0.13604677 0.028178696 0.29395452 -0.076033585 -0.13438022 -0.030235514 0.12807715 -0.07662666 -0.10441993 -0.07436596 0.065711625 -0.13896999 -0.08772959 0.073249206 0.21801002 -0.19430168 -0.19045745 -0.12195931 -0.018833915 -0.06527829 0.07457646 -0.19787845 -0.10383788 -0.1651232 0.0005164853
36 -0.066897646 -0.17867027 -0.12484833 -0.16891856 0.11245283 -0.06314879 0.026809124 -0.07155561 -0.07302094 0.085644156 -0.29713285 0.137152 -0.037882134 -0.097076565 -0.052265245 -0.36444002 0.15788153 0.11489998 -0.011379713 -0.03656245 0.33124253 0.04336686 -0.004022984 0.024988791 -0.17494534 -0.0075071603 0.0072243046 -0.0018961683 -0.088662595 -0.15822771 0.04144523 -0.05657031 -0.09324835 -0.06530563 -0.11895721 0.12181955 -0.009424181 -0.13362889 0.14900395 -0.13648356 0.0258906 0.2794543 -0.0675786 -0.13147141 -0.040872566 0.11740958 -0.069830425 -0.1006736 -0.07804923 0.07011646 -0.13086642 -0.08227876 0.079911165 0.20999107 -0.18652514 -0.17735898 -0.13233817 -0.015977232 -0.06976936 0.08162193 -0.20313397 -0.11234534 -0.17136523 0.011594193
226 -0.08099725 -0.17191203 -0.12957959 -0.1565979 0.10504066 -0.06152191 0.014259049 -0.084726036 -0.078151256 0.07461106 -0.28523302 0.12760901 -0.03774718 -0.10572957 -0.049361818 -0.36187 0.16398409 0.124746636 -0.007904387 -0.040636145 0.3271374 0.035372894 0.022701433 0.015245275 -0.16677028 -0.0068952735 -0.0051131556 0.004482322 -0.08054414 -0.15026149 0.024916155 -0.04101345 -0.08236117 -0.052306753 -0.10456811 0.10747288 -0.005704166 -0.13762584 0.13052206 -0.13407472 0.019698998 0.29313996 -0.079353854 -0.12890477 -0.035140462 0.13615772 -0.090162486 -0.10438362 -0.07050717 0.073311456 -0.14273122 -0.089847505 0.07260631 0.22396667 -0.21561651 -0.19355536 -0.1354424 -0.023667363 -0.07151255 0.087701306 -0.21267048 -0.09271039 -0.17874579 0.005268919
143 -0.07384765 -0.18615156 -0.12601352 -0.15708925 0.11717277 -0.050536018 0.009331172 -0.08425355 -0.073475 0.082566425 -0.30331403 0.1353194 -0.029239815 -0.09684093 -0.06405413 -0.35736987 0.15431261 0.122475885 0.0069666877 -0.040335294 0.3175076 0.027307509 0.013768923 0.026598493 -0.1713064 -0.0039942167 0.003993794 0.012233794 -0.08032235 -0.1576229 0.029944513 -0.043074947 -0.09233707 -0.059369754 -0.111706086 0.11453419 -0.011115961 -0.11597044 0.14476644 -0.12987882 0.0092245145 0.2742992 -0.084854715 -0.1328551 -0.042282235 0.13655314 -0.08485224 -0.09861484 -0.069791555 0.07027048 -0.1285709 -0.08328988 0.058628425 0.22008021 -0.19562116 -0.19796577 -0.1164872 -0.0305414 -0.065766916 0.07092777 -0.20462902 -0.09871542 -0.17235483 0.008837658
37 -0.082176626 -0.16853228 -0.119592786 -0.15561137 0.107347466 -0.047097024 0.009726287 -0.07105719 -0.067718685 0.07968166 -0.28327152 0.14149794 -0.03288744 -0.102573045 -0.060298145 -0.34614775 0.14786965 0.11471535 0.003443689 -0.0413695 0.31012774 0.038387377 0.015293048 0.025480334 -0.17360902 -0.008441323 0.0058003566 0.009999806 -0.07372808 -0.14499569 0.029041411 -0.044343904 -0.0893154 -0.06178966 -0.099314824 0.10641171 -0.001703835 -0.124663636 0.14521642 -0.12825282 0.020832254 0.29516104 -0.077561155 -0.13631958 -0.053271413 0.12377998 -0.07813632 -0.09470403 -0.07511194 0.059711482 -0.12998098 -0.091148965 0.06902476 0.22241081 -0.20044442 -0.18113242 -0.1152439 -0.026202692 -0.063590795 0.08345392 -0.20071746 -0.101485796 -0.1684287 0.006919143
6 -0.08159709 -0.19159353 -0.13727418 -0.16321674 0.11326457 -0.06064584 0.023715477 -0.08210557 -0.08114794 0.0724927 -0.28841564 0.1373907 -0.037129857 -0.09453622 -0.047366854 -0.3466883 0.15487763 0.108693354 -0.0058097183 -0.03377758 0.32404563 0.03478586 0.00683203 0.0086017875 -0.16039576 -0.02080771 0.0064960434 0.0019178173 -0.07877644 -0.14542495 0.029935902 -0.041789528 -0.07989695 -0.060115818 -0.09977295 0.11816275 -0.009741442 -0.1278583 0.1417868 -0.14031252 0.01796413 0.29414892 -0.07603774 -0.14014745 -0.05232797 0.12602904 -0.0681432 -0.10943196 -0.069065176 0.079583235 -0.13830754 -0.08927117 0.06281914 0.2233413 -0.19014198 -0.20442922 -0.13340473 -0.02089853 -0.06580097 0.079688966 -0.20040537 -0.09327018 -0.17460224 -0.0020557588
24 -0.07007958 -0.1769839 -0.12300607 -0.15462272 0.112139 -0.060853425 0.02133289 -0.0669626 -0.07647404 0.0836726 -0.28733546 0.14084414 -0.03355172 -0.10201471 -0.051763944 -0.36274078 0.15112495 0.11200098 -0.0069231787 -0.028165655 0.3311992 0.039649326 0.0018220964 0.027181325 -0.17276418 -0.0015801156 0.0003091741 -0.00022005965 -0.090894885 -0.15422173 0.023296641 -0.050343975 -0.099362575 -0.0662445 -0.11274602 0.12258171 0.0034840093 -0.12792067 0.1443253 -0.1306038 0.015638292 0.27884218 -0.07913072 -0.12798512 -0.044354502 0.12479247 -0.078322224 -0.08991131 -0.07611112 0.057686515 -0.12113581 -0.08529144 0.07149429 0.2167538 -0.1800336 -0.18117836 -0.123986125 -0.021149939 -0.067621134 0.0709024 -0.19384994 -0.102361925 -0.15880531 0.0056381957
229 -0.06735424 -0.1780062 -0.12570894 -0.14959934 0.10802314 -0.055765945 0.010476953 -0.0811431 -0.07944118 0.07348477 -0.27014834 0.12675786 -0.03703949 -0.09490959 -0.056361377 -0.35591626 0.16471894 0.11926803 -0.0061001712 -0.031080242 0.33317143 0.037170943 -0.013426635 0.017823609 -0.17167553 -0.005920744 0.010917753 0.007538248 -0.07070862 -0.14072268 0.031659663 -0.044691708 -0.084371455 -0.052531205 -0.10264618 0.11589081 -0.0117691625 -0.13969544 0.15128635 -0.14205353 0.017201815 0.2912975 -0.088197276 -0.14134711 -0.05090401 0.120684594 -0.07757436 -0.10140617 -0.07458236 0.07498197 -0.12499897 -0.09290209 0.08179574 0.21732718 -0.20196871 -0.18591687 -0.13428667 -0.024382528 -0.06393896 0.084649816 -0.20864792 -0.10548206 -0.17582473 0.003984734
10 -0.07714476 -0.17922285 -0.13122536 -0.1644373 0.107028626 -0.044451717 0.02067651 -0.085020475 -0.066136286 0.065840915 -0.28523627 0.13320251 -0.042467847 -0.08861618 -0.05927715 -0.3573685 0.15974332 0.11484646 -0.007982417 -0.03340988 0.3175504 0.03707404 0.001033722 0.022012707 -0.17299433 -0.013700412 0.0053069266 0.001993855 -0.08840723 -0.1508211 0.022324676 -0.048675813 -0.082211144 -0.05388665 -0.11322801 0.11324282 -0.010087311 -0.1448259 0.14017522 -0.13497338 0.017030051 0.28557798 -0.0761638 -0.13031152 -0.03548633 0.14152156 -0.07895904 -0.10336261 -0.06901342 0.064071685 -0.13179882 -0.08623772 0.07323085 0.2135276 -0.19852792 -0.1841131 -0.12640175 -0.025392871 -0.06857413 0.0786097 -0.19973567 -0.095582165 -0.18007174 0.008333431
17 -0.07724862 -0.17434765 -0.12513246 -0.15302706 0.101052724 -0.06072906 0.016425287 -0.08013951 -0.06219584 0.072520904 -0.27730227 0.14022379 -0.03549224 -0.09732608 -0.061053015 -0.35576874 0.16403477 0.114306845 -0.008232994 -0.030628202 0.336698 0.029691203 0.0020215858 0.011232052 -0.16983181 0.004147615 -0.0018379859 0.004160648 -0.07583985 -0.14642428 0.03314228 -0.048002314 -0.08298176 -0.058874283 -0.11087579 0.10827054 -0.0063589406 -0.13212642 0.14388874 -0.13422483 0.020064529 0.29539886 -0.08965679 -0.13440901 -0.047968052 0.12773001 -0.08403622 -0.104577735 -0.07917532 0.08220281 -0.14658178 -0.09929238 0.07072309 0.21617281 -0.19952804 -0.20123874 -0.14172295 -0.008556381 -0.0628838 0.07715685 -0.21260624 -0.113244906 -0.18058492 -0.0013551984
269 -0.064590245 -0.17941736 -0.12334514 -0.166203 0.10860423 -0.068135545 0.017633138 -0.068155445 -0.08100402 0.069267295 -0.28236383 0.12724055 -0.04200868 -0.088523045 -0.052168313 -0.36356917 0.14650796 0.09728795 -0.017906783 -0.026833726 0.31642893 0.032945562 -0.009628199 0.023938881 -0.16381715 0.0011544497 -0.005869561 -0.0023320436 -0.08852432 -0.15385622 0.027739985 -0.04521445 -0.08430243 -0.05837619 -0.10973228 0.12605494 -0.0062572476 -0.12691161 0.15504193 -0.13490173 0.012661955 0.28243843 -0.091871776 -0.1335458 -0.043216925 0.11528265 -0.068698846 -0.09622139 -0.07861595 0.064740755 -0.13059123 -0.084842525 0.07936774 0.22576511 -0.18453576 -0.19741511 -0.14246269 -0.01209005 -0.07380984 0.07850624 -0.19644064 -0.10662326 -0.16794534 0.005569169
212 -0.077914506 -0.18175632 -0.13576199 -0.1697865 0.10445842 -0.060143325 0.023777174 -0.08066431 -0.07826213 0.085299335 -0.28522548 0.13429992 -0.039566793 -0.09003692 -0.059720322 -0.3494705 0.15835229 0.11873153 -0.0029137572 -0.03876897 0.31481487 0.039793253 0.015024764 0.0048116315 -0.1699143 -0.016079409 0.008028311 0.007868897 -0.08372117 -0.13706791 0.02517702 -0.03488926 -0.07392132 -0.05853853 -0.1135769 0.11025318 -0.0019238639 -0.1282027 0.14255339 -0.13363561 0.012218819 0.29614595 -0.087680325 -0.13364457 -0.056963146 0.13067715 -0.079729095 -0.097682044 -0.079088844 0.06868111 -0.12553987 -0.09421699 0.06856668 0.227705 -0.19425943 -0.19933757 -0.12613219 -0.02816502 -0.06655915 0.07318467 -0.1941343 -0.10486107 -0.17614748 0.001972826
102 -0.07582915 -0.1806971 -0.12450006 -0.16451317 0.10303078 -0.06550187 0.0107024405 -0.082099505 -0.075421765 0.07291032 -0.28802353 0.1299001 -0.041846864 -0.100499325 -0.057144683 -0.34699377 0.15901102 0.124836214 0.0012892932 -0.035053115 0.32871798 0.032219592 0.0036669557 0.002238019 -0.17858529 -0.021190502 0.0116401035 0.010737645 -0.06976795 -0.15259698 0.028547954 -0.037502225 -0.079639696 -0.05330631 -0.11354112 0.11863079 -0.014228553 -0.13316411 0.14097191 -0.13744356 0.016112557 0.2940992 -0.090580046 -0.13265535 -0.044279628 0.123596914 -0.08677353 -0.1086945 -0.075064525 0.07070168 -0.14069848 -0.09773635 0.07395773 0.20978636 -0.20261976 -0.19708185 -0.12248558 -0.022579368 -0.07566998 0.086341314 -0.19541249 -0.10950732 -0.16797425 0.004724165
170 -0.07429254 -0.17868008 -0.13186584 -0.15661952 0.09787947 -0.0462037 0.016473144 -0.0817608 -0.075426035 0.07237898 -0.27843377 0.13174137 -0.027626235 -0.09568033 -0.045761302 -0.35630223 0.16478077 0.11635124 -0.0013803294 -0.037183397 0.32441702 0.036490623 0.0039491677 0.0143740745 -0.16177624 -0.018614467 0.010273476 0.0068578892 -0.08142869 -0.1489838 0.028725725 -0.035022773 -0.07972241 -0.064941645 -0.11471241 0.113751814 -0.010214385 -0.13386458 0.13789816 -0.11653097 0.01728035 0.26881155 -0.090570666 -0.13163611 -0.04784737 0.13063031 -0.08477844 -0.109068155 -0.073414035 0.07038492 -0.13937166 -0.08892169 0.083897024 0.2268802 -0.19444017 -0.19558835 -0.13010488 -0.030366546 -0.071098946 0.07588214 -0.20215851 -0.10450264 -0.17080428 0.0054443534
200 -0.07634778 -0.1866999 -0.12867117 -0.16211642 0.104590856 -0.06957413 0.008068629 -0.08146534 -0.06774014 0.07309389 -0.27300215 0.13205649 -0.027703378 -0.10035508 -0.040549636 -0.3511756 0.15033859 0.114903465 0.0011070804 -0.037865084 0.33476612 0.0347687 0.0072698537 0.027316794 -0.16563049 -0.016360337 -0.0038099792 -0.0014141971 -0.08526898 -0.14480984 0.025511814 -0.042495858 -0.08681854 -0.054658268 -0.10966199 0.1070978 -0.012817672 -0.12723704 0.14223927 -0.13410039 0.02525739 0.29263058 -0.08526352 -0.14382358 -0.04476259 0.1245878 -0.089845546 -0.1025488 -0.07359099 0.08240259 -0.1376362 -0.09325779 0.074519455 0.22415446 -0.19793293 -0.1963094 -0.13769831 -0.02789304 -0.068010114 0.08545459 -0.20156522 -0.099616125 -0.16760217 0.004034985
108 -0.081474245 -0.16786242 -0.13860883 -0.16807409 0.11458688 -0.05986703 0.020329634 -0.074648395 -0.07354242 0.07984592 -0.2822035 0.13127086 -0.0353479 -0.10071686 -0.055002414 -0.34945127 0.14912196 0.1155486 -0.007298512 -0.027569506 0.32062662 0.044740774 0.012501641 0.02029205 -0.16775326 -0.012522792 -0.0038796219 0.0041106343 -0.0809771 -0.15027119 0.035047624 -0.034572143 -0.094332054 -0.062726475 -0.099807784 0.117536195 -0.0052840505 -0.1360595 0.14114684 -0.129679 0.02388683 0.28786093 -0.07699918 -0.1362536 -0.045267347 0.13417156 -0.07601393 -0.11253582 -0.077275395 0.068439126 -0.1367933 -0.088905916 0.08066311 0.22521795 -0.20146835 -0.19085722 -0.12719944 -0.027541582 -0.06694532 0.07667929 -0.20624842 -0.10446547 -0.16886218 0.010672965
201 -0.06983481 -0.17733356 -0.124421656 -0.15465482 0.10242709 -0.057645626 0.00730198 -0.064558566 -0.06851492 0.076066576 -0.28903696 0.13659206 -0.036860887 -0.08968904 -0.038614772 -0.34501427 0.1457885 0.11663475 -0.00041148477 -0.018360207 0.31758153 0.032731503 -0.00726581 0.013852985 -0.1635196 -0.009368394 0.002046461 0.002577486 -0.077385455 -0.14833865 0.02962561 -0.04988989 -0.085060626 -0.07441844 -0.113198765 0.119177334 -0.013482422 -0.128451 0.13299032 -0.12601551 0.014258872 0.29171842 -0.09505161 -0.13456321 -0.0404043 0.12720144 -0.07688917 -0.108064964 -0.079533584 0.07976158 -0.1341271 -0.09113323 0.07632102 0.2265421 -0.19628318 -0.18912464 -0.1371644 -0.018734915 -0.07721153 0.069093026 -0.20786484 -0.10232159 -0.16965552 0.009885716
22 -0.070586756 -0.17626104 -0.13071784 -0.16341828 0.10000217 -0.062304053 0.014147879 -0.083446205 -0.08257646 0.071200036 -0.28239822 0.13607055 -0.033026394 -0.09801656 -0.04800845 -0.34343782 0.14903682 0.11796648 -0.002156279 -0.02972346 0.32478628 0.03753346 0.014019515 0.01323253 -0.17395453 -0.0058418727 0.0004941299 -0.0001778921 -0.06994764 -0.14015898 0.023100454 -0.041610233 -0.08672773 -0.053174406 -0.106077574 0.108885385 -0.009540722 -0.13659863 0.1325088 -0.13871513 0.020808103 0.28271374 -0.08968116 -0.12678921 -0.03531154 0.13750345 -0.08648304 -0.10569515 -0.06990971 0.07106352 -0.14933357 -0.09723332 0.06285989 0.22040261 -0.19436058 -0.19222786 -0.12425984 -0.015564685 -0.06777935 0.0747829 -0.20549656 -0.0944324 -0.17452334 0.006271426
282 -0.074381836 -0.19449553 -0.14561632 -0.156718 0.1148828 -0.0690865 0.020182405 -0.086765476 -0.0679408 0.08038527 -0.27616602 0.14030497 -0.02986666 -0.087466575 -0.03682134 -0.34086782 0.1612548 0.10739543 -0.0014006955 -0.022441806 0.31216577 0.044040244 0.0058612046 0.016862512 -0.16194049 -0.010740994 0.013808436 0.007304121 -0.084007554 -0.15029229 0.028811675 -0.05623556 -0.08187133 -0.050649937 -0.11230589 0.11251572 -0.0029778373 -0.13279715 0.13355981 -0.13327885 0.031230347 0.286634 -0.08214737 -0.14001004 -0.039554324 0.12329841 -0.084190845 -0.0995755 -0.07771856 0.07582023 -0.13125594 -0.0925006 0.06771418 0.21880431 -0.19904561 -0.19181035 -0.124207415 -0.016981047 -0.060956176 0.088814996 -0.20349835 -0.104601875 -0.17910929 0.0030716567
53 -0.07430369 -0.18166429 -0.13419981 -0.17087337 0.11495155 -0.0638599 0.007795437 -0.081322476 -0.08079627 0.06993666 -0.27896497 0.13442369 -0.041282456 -0.092282265 -0.053745147 -0.33789903 0.16545445 0.12225805 -0.00860225 -0.028788354 0.32243696 0.036101084 -0.0009760004 0.0114391185 -0.16841415 -0.013528925 0.015611356 0.0064506195 -0.077669024 -0.1462094 0.026406 -0.037965484 -0.08668406 -0.054101676 -0.11083042 0.11850055 0.0013143867 -0.134394 0.13825682 -0.12561677 0.017994797 0.30237606 -0.09104374 -0.13342568 -0.04595874 0.12695052 -0.08574924 -0.09164913 -0.08193136 0.067644976 -0.14175762 -0.09955221 0.07280597 0.22967818 -0.19817562 -0.21022657 -0.13297886 -0.026992952 -0.0739183 0.08753326 -0.21683936 -0.10510614 -0.1751488 -0.0012136736
167 -0.06671345 -0.17559388 -0.12471305 -0.15871313 0.10579669 -0.061166346 0.015931254 -0.086894386 -0.06898966 0.0669889 -0.28722927 0.13517103 -0.04332355 -0.09143881 -0.045544054 -0.36086938 0.15592371 0.12120263 -0.018983552 -0.033732295 0.3173471 0.033356637 0.007250559 0.021647504 -0.16225867 -0.0073939194 0.00766414 -0.0050053177 -0.06997019 -0.14929093 0.02875521 -0.039873496 -0.079852425 -0.056973495 -0.09876429 0.1239353 -0.009550694 -0.13298805 0.14340216 -0.13777097 0.00984507 0.29013574 -0.081528135 -0.1365908 -0.04382757 0.13197407 -0.079092816 -0.09809106 -0.087430336 0.077533625 -0.14119866 -0.09160034 0.07118246 0.23206267 -0.20533791 -0.19399223 -0.1429795 -0.013157765 -0.059806343 0.08234925 -0.20868242 -0.10089649 -0.17623751 0.00855451
73 -0.078701854 -0.1676908 -0.11769809 -0.1600877 0.10656133 -0.062272288 0.02194743 -0.06709765 -0.07893447 0.06680578 -0.2781081 0.12314593 -0.027745798 -0.09475651 -0.04977207 -0.3486822 0.14866976 0.10861496 -0.012826921 -0.029235143 0.32311478 0.025220538 -0.0018820127 0.012070906 -0.17068174 -0.0045735794 0.0071437107 0.011543031 -0.06991456 -0.1536518 0.026309045 -0.054198764 -0.07087188 -0.06992405 -0.10247473 0.109453 -0.011564086 -0.1340154 0.13550392 -0.1333404 0.0063800504 0.2781739 -0.074166946 -0.13305402 -0.047446087 0.1279935 -0.073602766 -0.09900575 -0.076079465 0.07395146 -0.14236103 -0.08838669 0.075831145 0.21650398 -0.18966289 -0.19866644 -0.1378569 -0.015695265 -0.06283632 0.08328956 -0.20215179 -0.1099354 -0.15976737 -0.0037924089
0 -0.07703704 -0.17980191 -0.12940653 -0.1674264 0.0919662 -0.056812044 0.01668516 -0.079431415 -0.08192408 0.07360496 -0.28679368 0.1408253 -0.030825185 -0.09811576 -0.046476804 -0.36170685 0.15636808 0.1140197 -0.007493881 -0.033810087 0.309771 0.027034748 -0.0025859354 0.023168622 -0.17640124 -0.01292815 0.00966826 0.0042708986 -0.08591043 -0.15639968 0.031702608 -0.04284733 -0.08949033 -0.07328949 -0.109333135 0.11967753 0.0005243952 -0.123981446 0.1509358 -0.1351729 0.010011156 0.26682517 -0.08089114 -0.12140731 -0.045514166 0.1333776 -0.07934446 -0.10687104 -0.08624043 0.06839827 -0.13963783 -0.09325687 0.06877214 0.21187875 -0.19476429 -0.19285263 -0.14434801 -0.015090593 -0.07063747 0.07970709 -0.19793524 -0.109550096 -0.16758133 0.011064127
262 -0.07298013 -0.17093928 -0.13436018 -0.15591143 0.10718138 -0.05676982 0.019844042 -0.07750401 -0.066148125 0.08489157 -0.2791653 0.13232547 -0.03159921 -0.100715555 -0.06031621 -0.3543907 0.16599436 0.111742035 -0.002840201 -0.028505739 0.32409453 0.03826408 -0.0040849173 0.019764697 -0.15927325 -0.002161175 0.012321499 0.0096704 -0.08118599 -0.14026967 0.01721542 -0.05296344 -0.07732567 -0.053214706 -0.11366145 0.111656725 -0.0149039775 -0.14084095 0.14996386 -0.120459795 0.01869726 0.2920929 -0.08259343 -0.13091177 -0.04830411 0.12128014 -0.08284746 -0.113490574 -0.082324184 0.084997654 -0.13865112 -0.09904168 0.074499816 0.22935872 -0.19501615 -0.19532982 -0.14130375 -0.023191886 -0.07143328 0.082030386 -0.2084117 -0.11024385 -0.17919245 0.0023619272
141 -0.07629194 -0.17533122 -0.12585756 -0.16969343 0.10882856 -0.05262476 0.021224642 -0.07133167 -0.068383075 0.072592266 -0.26988348 0.12780811 -0.038462184 -0.10244753 -0.050754208 -0.36295345 0.15837677 0.12117406 -0.011881877 -0.02547639 0.31775838 0.037852027 -0.0012912616 0.02300578 -0.17046624 -0.012453944 0.0056269835 0.0010913365 -0.07761961 -0.15055194 0.03342962 -0.04249907 -0.08112648 -0.05395158 -0.108050406 0.11449356 -0.009314593 -0.13223551 0.13486862 -0.13459335 0.01364316 0.289762 -0.08223024 -0.12705691 -0.030651009 0.13656847 -0.08402338 -0.10596444 -0.08060442 0.07978442 -0.14301461 -0.09047152 0.0842683 0.22525091 -0.19772692 -0.18649259 -0.13524045 -0.028298415 -0.06918108 0.076307595 -0.20704776 -0.108380154 -0.18050878 0.014030932
99 -0.063720606 -0.1718487 -0.12478454 -0.15523382 0.11606979 -0.05539697 0.02089156 -0.06962051 -0.06273038 0.08365425 -0.26116708 0.1321589 -0.034683663 -0.08396992 -0.043709688 -0.35364863 0.16293955 0.11119833 -0.016685689 -0.034695607 0.3379529 0.03248571 0.0008359498 0.02051014 -0.18533313 -0.00073909014 0.004001041 0.005256657 -0.07956066 -0.15893738 0.03014793 -0.055452734 -0.07994563 -0.054350577 -0.10587019 0.11891245 -0.018751014 -0.12726665 0.14400302 -0.13794342 0.01290771 0.28297424 -0.08089351 -0.1353623 -0.048028294 0.12200817 -0.07292976 -0.096439466 -0.081324756 0.06329293 -0.13492815 -0.07765697 0.073925786 0.2182283 -0.20420204 -0.19089496 -0.12419679 -0.032838617 -0.05526082 0.07735983 -0.1997615 -0.10429991 -0.1732718 0.008758455
78 -0.08493448 -0.18743241 -0.1374533 -0.16186506 0.111637354 -0.06520488 0.023075258 -0.0890162 -0.07382344 0.07836284 -0.27464437 0.11653535 -0.035094623 -0.10220794 -0.04583404 -0.35987926 0.16191491 0.11234612 -0.0040706713 -0.039000247 0.3177144 0.03681712 0.013861498 0.02342244 -0.15925935 -0.0072563407 0.0021460145 0.0072557162 -0.07657567 -0.15364839 0.037596885 -0.038449567 -0.08166533 -0.064765416 -0.11059321 0.11468487 -0.0027622662 -0.119462624 0.13981813 -0.11709265 0.022077186 0.2915881 -0.0820997 -0.12916906 -0.042123556 0.1240115 -0.084005415 -0.10262602 -0.060086362 0.074124865 -0.13214518 -0.07842229 0.058353014 0.20971118 -0.20243537 -0.19265507 -0.12067647 -0.030201081 -0.066790864 0.08804352 -0.20379482 -0.1042402 -0.16543025 0.0033105293
69 -0.08368321 -0.18005967 -0.13116218 -0.15530454 0.10300754 -0.05578007 0.01619942 -0.086229526 -0.08023909 0.075175874 -0.288708 0.14089611 -0.040829338 -0.08731145 -0.05286558 -0.33738905 0.15319136 0.11566833 -0.0022559238 -0.035063412 0.31482944 0.04537829 0.018143238 0.010875061 -0.16599609 -0.008052429 0.0027293577 0.0029149016 -0.08815734 -0.13632846 0.026084935 -0.039943706 -0.09247436 -0.0473134 -0.099440046 0.11441006 -0.0039878897 -0.124796465 0.13768144 -0.1243372 0.027027763 0.29186884 -0.070319064 -0.13587977 -0.045875456 0.13364248 -0.077850595 -0.11199481 -0.06838762 0.06805772 -0.14751029 -0.09498872 0.059821293 0.21844885 -0.20478518 -0.1870106 -0.122451365 -0.020165484 -0.07346771 0.07731079 -0.19989891 -0.09616499 -0.17409258 0.0016567088
147 -0.07486396 -0.17684907 -0.12975584 -0.16152287 0.102642804 -0.06535642 0.013062175 -0.074673206 -0.072755344 0.08350785 -0.27945843 0.13419351 -0.04017767 -0.09489553 -0.044583503 -0.35780385 0.15441264 0.10827107 -0.00668553 -0.032447666 0.3090736 0.034671392 0.009274632 0.017824098 -0.16840634 -0.0059995744 -0.00216533 0.0063327765 -0.0835626 -0.14584433 0.023863677 -0.039590575 -0.08157952 -0.05839299 -0.11573578 0.12296983 -0.009721498 -0.12511727 0.13493483 -0.12737772 0.015142824 0.29265624 -0.09247299 -0.12837747 -0.03972822 0.1292886 -0.085043676 -0.10498046 -0.07645779 0.07386555 -0.13506165 -0.09825775 0.0714196 0.23216213 -0.18954745 -0.18477163 -0.11849756 -0.02775747 -0.06543448 0.081178084 -0.20433232 -0.10166828 -0.17332411 0.00875186
60 -0.06745694 -0.1739156 -0.13084027 -0.15799966 0.09255096 -0.04910298 0.018446783 -0.07716048 -0.07463093 0.070257895 -0.29036754 0.13211216 -0.032491215 -0.095291615 -0.052207496 -0.3489193 0.1602271 0.112093545 -0.005903714 -0.044349622 0.32730046 0.03439121 0.004188784 0.019217389 -0.17347673 -0.009624833 0.011018284 0.014035061 -0.07136563 -0.14099465 0.020943472 -0.042405248 -0.0717208 -0.057301734 -0.10247105 0.10118161 -0.0054310886 -0.13204384 0.14920555 -0.12794456 0.015668236 0.30898234 -0.08761789 -0.14950562 -0.051430557 0.14240535 -0.089049324 -0.120138906 -0.07594928 0.079281814 -0.13591772 -0.09973746 0.0752423 0.2271055 -0.20469312 -0.20588095 -0.14180373 -0.02953157 -0.0672925 0.08133144 -0.20808603 -0.10868606 -0.18124273 -0.0008327138
77 -0.07529738 -0.18457249 -0.13449594 -0.1670901 0.10044361 -0.057817016 0.013063636 -0.08340778 -0.08327894 0.07733255 -0.28505424 0.1375368 -0.034050357 -0.09112633 -0.049329985 -0.35744253 0.16458687 0.124201454 0.0024070651 -0.028388295 0.31632748 0.03687823 0.0061006667 0.014916662 -0.1639894 -0.0071634008 -0.0017698519 0.010049013 -0.08165797 -0.15311576 0.029055992 -0.04806022 -0.086889885 -0.05072939 -0.10767282 0.11065184 0.0026011355 -0.13007541 0.13659579 -0.13803537 0.02134727 0.30230916 -0.08058595 -0.14188544 -0.0433692 0.14014265 -0.08616467 -0.1019719 -0.07306595 0.07036442 -0.14532202 -0.0936029 0.07085336 0.21822467 -0.20237343 -0.19945355 -0.12341714 -0.018297005 -0.07320678 0.08604106 -0.21323249 -0.10768037 -0.17137414 0.008790143
192 -0.06953136 -0.1686129 -0.13012137 -0.14971645 0.10626547 -0.06361951 0.01988822 -0.0661896 -0.065660395 0.07138726 -0.29694566 0.14278649 -0.038732227 -0.099168144 -0.05843052 -0.3658186 0.16250831 0.11555898 -0.013932255 -0.033883452 0.32637003 0.02221832 -0.0034106367 0.017502766 -0.17624158 -0.004511789 0.0031528978 -0.0046892427 -0.08233697 -0.15330864 0.03380901 -0.054867458 -0.08587505 -0.07098117 -0.10957985 0.12197146 -0.011995802 -0.12780572 0.14696145 -0.14244756 0.018588893 0.29801792 -0.076378904 -0.13443378 -0.04724225 0.12533437 -0.06694065 -0.10409113 -0.074773274 0.07626391 -0.13306838 -0.09159841 0.08481962 0.2269328 -0.18991883 -0.19382918 -0.13440576 -0.011519505 -0.057138234 0.07448131 -0.20973289 -0.11654039 -0.17806026 0.004331122
113 -0.07176664 -0.17477258 -0.12406283 -0.15855995 0.09321846 -0.05118186 0.020839868 -0.0706777 -0.077839114 0.07025264 -0.28727272 0.12895675 -0.04315636 -0.10182713 -0.053851742 -0.3591535 0.15329693 0.10604876 -0.011577755 -0.035655756 0.3273825 0.03562084 0.0006579904 0.024663756 -0.17662522 -0.011200873 -0.0018697096 0.008884851 -0.086266115 -0.1465987 0.022366652 -0.053872436 -0.08993705 -0.06634123 -0.10921984 0.11607261 -0.015965149 -0.13375162 0.15051629 -0.1372961 0.020686803 0.2871318 -0.08511592 -0.14159411 -0.05242954 0.13375273 -0.08546909 -0.10806832 -0.08198408 0.06643499 -0.12740852 -0.08602863 0.06708545 0.21443468 -0.18688756 -0.18893878 -0.14350927 -0.017847903 -0.06513392 0.0784312 -0.19815567 -0.104303546 -0.16891837 0.0049203704
152 -0.06222881 -0.15973273 -0.118338995 -0.15093313 0.083709724 -0.043215737 0.013312886 -0.05715583 -0.06795289 0.06132422 -0.27416423 0.13837898 -0.029450035 -0.101416774 -0.053606022 -0.36387822 0.15506993 0.11587366 -0.008208369 -0.027237572 0.31693846 0.035904188 -0.011142968 0.015868254 -0.17118597 -0.009697978 0.010536204 0.008917097 -0.06892076 -0.14690697 0.02646492 -0.051817045 -0.08065248 -0.049494218 -0.1078875 0.10524295 -0.0032395385 -0.12846841 0.14443742 -0.12924272 0.0120180305 0.30163762 -0.0931692 -0.14845192 -0.04993101 0.13187058 -0.07860895 -0.106872 -0.09372828 0.079006016 -0.14516598 -0.093401514 0.085636064 0.21793538 -0.20333481 -0.19477081 -0.13708498 -0.023469636 -0.06375651 0.07821436 -0.21138464 -0.11463998 -0.17396481 -0.0017488188
171 -0.07378702 -0.17588094 -0.13858104 -0.15435721 0.10149511 -0.056447025 0.023147825 -0.0671383 -0.07786992 0.0828826 -0.2882214 0.14529517 -0.043518994 -0.08957514 -0.057557527 -0.35853216 0.16091487 0.11359221 -0.0044823 -0.0312422 0.3326915 0.03855047 0.0049613 0.022145152 -0.17325942 -0.0035166552 0.0035463201 -0.0016700375 -0.079631045 -0.1507005 0.030190393 -0.041047268 -0.08561694 -0.075721726 -0.12236162 0.1265678 -0.017227681 -0.12405213 0.13027984 -0.12009735 0.006319936 0.27153373 -0.080370866 -0.13300487 -0.04838723 0.121881306 -0.077507555 -0.109384574 -0.08317555 0.073323086 -0.12696694 -0.08789338 0.0832449 0.22507712 -0.1791673 -0.18745989 -0.12545948 -0.023683026 -0.06181978 0.07894787 -0.20615642 -0.1060816 -0.1643648 0.010399575
227 -0.06587763 -0.18056315 -0.12791227 -0.15673007 0.106867135 -0.06168115 0.014907517 -0.07879312 -0.07167784 0.08346487 -0.29142928 0.14559174 -0.040186252 -0.08360108 -0.055205595 -0.3441417 0.14825925 0.11077519 -0.0053688413 -0.02521957 0.30343312 0.028071228 0.0031364874 0.005548393 -0.16574211 -0.010074741 0.0017325833 -0.0059095845 -0.07802834 -0.15029192 0.02143051 -0.0552692 -0.09445984 -0.06680529 -0.110750765 0.11404348 -0.002232307 -0.12274815 0.14278951 -0.13909028 0.012861772 0.28056467 -0.08914955 -0.12805983 -0.051089317 0.11810675 -0.07956114 -0.10721607 -0.071562506 0.067886844 -0.12768891 -0.091959715 0.08605343 0.22511981 -0.1925514 -0.18693663 -0.13052917 -0.015668346 -0.060349837 0.06736266 -0.19008616 -0.111809574 -0.1595599 0.004455123
207 -0.07153789 -0.18107969 -0.13261779 -0.15614101 0.113396935 -0.058708068 0.026401082 -0.07508992 -0.06952216 0.08860337 -0.28731546 0.14527965 -0.04075394 -0.091017276 -0.05175246 -0.36334893 0.16706403 0.119158 -0.015554262 -0.032452647 0.3499956 0.04106151 -1.5948684e-05 0.022451533 -0.17669733 -0.015483692 -0.0036842334 0.002695317 -0.07583353 -0.15525247 0.021465145 -0.046228427 -0.08546286 -0.05949125 -0.10793456 0.1111758 -0.00789219 -0.12551548 0.13555454 -0.1317775 0.021027733 0.2925926 -0.08564517 -0.13951144 -0.039116938 0.11971513 -0.07505813 -0.09629737 -0.070092306 0.071773015 -0.12484314 -0.086549655 0.07411458 0.20485607 -0.18230355 -0.18555713 -0.12622145 -0.027964208 -0.06682228 0.07455239 -0.20613094 -0.105112515 -0.16901088 0.0032799055
70 -0.07108461 -0.20359671 -0.14089473 -0.18008655 0.11400905 -0.07379393 0.0072470712 -0.09340351 -0.076948516 0.07564313 -0.29027152 0.13659479 -0.033599958 -0.08898865 -0.049990866 -0.33558056 0.14966673 0.10001222 0.003890912 -0.029221546 0.31396928 0.037803017 -0.0026042394 0.01188943 -0.15954806 -0.013332211 -5.9233724e-05 0.002343091 -0.08014062 -0.14940254 0.03082839 -0.034450687 -0.09209909 -0.061339147 -0.10537505 0.119614266 -0.0069596237 -0.12674277 0.14233825 -0.11965754 0.020359967 0.28650266 -0.09306447 -0.13548431 -0.049303245 0.13182913 -0.08316607 -0.10535779 -0.08568405 0.0712243 -0.13140805 -0.085714474 0.076067224 0.22530618 -0.19199046 -0.18731236 -0.12351027 -0.016533146 -0.07614059 0.08755544 -0.19617115 -0.09459207 -0.17695192 0.0034898082
197 -0.08443043 -0.16898389 -0.12141764 -0.15225092 0.09136458 -0.063501924 0.010322805 -0.07543676 -0.07384369 0.08114022 -0.2772133 0.13337299 -0.04162457 -0.09940758 -0.057437174 -0.33946887 0.16713464 0.11242006 -0.006959667 -0.031837843 0.33190408 0.035226714 0.0021315208 0.023846209 -0.17021634 -0.008614379 0.0064551868 -0.0017792432 -0.08208303 -0.14932247 0.01959641 -0.041581564 -0.086382955 -0.055184435 -0.10895329 0.119257 -0.0019836586 -0.13300605 0.13436607 -0.12689257 0.020643031 0.29406384 -0.0945927 -0.1352284 -0.0431746 0.13322617 -0.08852748 -0.10790209 -0.07233217 0.06425038 -0.14546351 -0.08737462 0.06926702 0.21912925 -0.19532251 -0.1873583 -0.13293624 -0.0151269045 -0.07481403 0.08154047 -0.20739165 -0.10502913 -0.16748767 0.0043686433
177 -0.0840331 -0.18818776 -0.13186221 -0.16521424 0.116129704 -0.071619056 0.010434618 -0.09038687 -0.06122745 0.0723797 -0.28672186 0.1307996 -0.02754253 -0.09477774 -0.054199513 -0.33981478 0.15279026 0.112768285 -0.00911695 -0.022830732 0.3089132 0.044289056 -0.0008050537 0.0106418 -0.16293232 -0.0010750171 0.0020205455 0.00427406 -0.088950455 -0.14708409 0.026171952 -0.04360239 -0.08974052 -0.052663915 -0.104155876 0.12596323 -0.015995527 -0.12742095 0.1459611 -0.12015616 0.020338934 0.2942184 -0.07858454 -0.13540809 -0.03973099 0.12595159 -0.07987218 -0.096827775 -0.073737726 0.06665614 -0.1279783 -0.09257693 0.06868264 0.21199836 -0.19305654 -0.19381358 -0.13414235 -0.016124854 -0.061022177 0.089186266 -0.19991986 -0.111638255 -0.17090528 -0.001314227
280 -0.070953146 -0.17597468 -0.115611374 -0.15694098 0.09155823 -0.054623928 0.020592567 -0.0683525 -0.08128848 0.0801682 -0.27592888 0.13262376 -0.039786883 -0.09032234 -0.050406013 -0.3545122 0.14655146 0.1136731 -0.008966714 -0.02901378 0.33427018 0.04142079 0.0052901465 0.016595747 -0.17672433 -0.012736909 0.0009650914 0.0027374998 -0.09128476 -0.14368866 0.02004088 -0.048511636 -0.07866718 -0.06485857 -0.093751125 0.11105322 -0.011667233 -0.12693673 0.1410151 -0.12508786 0.0075547225 0.29163066 -0.08808694 -0.13103634 -0.045965116 0.12655613 -0.07388278 -0.113204785 -0.077314794 0.073135845 -0.1366435 -0.096671015 0.08688162 0.22653918 -0.18529375 -0.20394161 -0.13242777 -0.031022694 -0.061960563 0.08747727 -0.20188627 -0.108122975 -0.16906083 -0.0050636036
231 -0.07398996 -0.17764121 -0.12384654 -0.16756912 0.105051465 -0.065791704 0.01171807 -0.08301279 -0.067903474 0.07388987 -0.27343744 0.1323678 -0.040928114 -0.095678404 -0.05320128 -0.34119317 0.15371613 0.10679728 -0.0015278163 -0.03754564 0.31753322 0.048775863 -0.0018972887 0.01871545 -0.15201265 -0.00816262 0.009907048 0.012932985 -0.08191318 -0.14099526 0.026737126 -0.04028285 -0.09138742 -0.06170272 -0.1136875 0.10913743 -0.007450867 -0.12805404 0.14419107 -0.12713048 0.009269273 0.28999266 -0.0726638 -0.12910147 -0.046296127 0.14144379 -0.08837416 -0.115393676 -0.0773983 0.07820383 -0.14209558 -0.08960868 0.07968637 0.22682822 -0.20293534 -0.19607575 -0.12710863 -0.01980116 -0.06678952 0.07504007 -0.21464223 -0.102852546 -0.17669953 -0.0026776332
75 -0.086273246 -0.18804105 -0.14104871 -0.18562831 0.12038614 -0.05401856 0.017115409 -0.09340306 -0.08001404 0.07379485 -0.29295057 0.1341244 -0.03383542 -0.094389126 -0.053461596 -0.34164384 0.15550579 0.11371597 -0.0040478813 -0.02457658 0.3158098 0.029066667 -0.005417592 0.013640827 -0.16747384 -0.01571937 -0.0032425653 0.013865098 -0.08591027 -0.15706693 0.031724054 -0.041018903 -0.09581711 -0.057000592 -0.10740818 0.12615249 -0.0056591127 -0.13570577 0.14104055 -0.13045779 0.024033152 0.28244317 -0.076237544 -0.13814108 -0.03859312 0.12760346 -0.078551784 -0.100415416 -0.073506504 0.07598889 -0.13530014 -0.08673605 0.07427284 0.21883951 -0.18979196 -0.18268238 -0.12659524 -0.012612029 -0.06798581 0.07660657 -0.19948816 -0.09842695 -0.16370913 -0.0020454659
213 -0.063033335 -0.16842775 -0.12161359 -0.15256171 0.09503412 -0.051562283 0.022808954 -0.069090985 -0.06586709 0.0790522 -0.2951158 0.14903283 -0.027431149 -0.0988424 -0.04646201 -0.37512413 0.1546217 0.113755666 -0.012966834 -0.03395789 0.32929137 0.042544324 -0.00064999185 0.023840124 -0.17524385 -0.0016930096 0.0060893823 -0.0008296827 -0.08258291 -0.1456199 0.031481747 -0.059487376 -0.08170997 -0.072246864 -0.11000735 0.112977825 -0.009839458 -0.12650502 0.14072484 -0.14029306 0.018209442 0.2875474 -0.09025336 -0.13274865 -0.043480236 0.11577158 -0.0842443 -0.10009816 -0.08041434 0.07320517 -0.13771914 -0.08830267 0.07081493 0.21972494 -0.18547608 -0.18760836 -0.14009513 -0.014846826 -0.06885854 0.07153787 -0.1985669 -0.107586175 -0.16338502 0.0025316135
264 -0.07059647 -0.17255965 -0.123861514 -0.153337 0.11242551 -0.05946275 0.015431597 -0.06561204 -0.07071745 0.084635004 -0.28982967 0.14993343 -0.02922521 -0.10483927 -0.05069876 -0.377765 0.15628047 0.11033843 -0.011690036 -0.035225004 0.3367776 0.031869564 0.008372815 0.022300394 -0.1758987 -0.015885336 0.0054790606 0.00020006497 -0.081506945 -0.16516794 0.029443035 -0.047915723 -0.08563915 -0.07317093 -0.109144546 0.12034434 -0.005619511 -0.1176308 0.1383285 -0.13351959 0.016390704 0.28032112 -0.08436683 -0.13663168 -0.04392009 0.11640875 -0.07382387 -0.10456218 -0.0740138 0.07785562 -0.13070977 -0.07448162 0.070263535 0.21460806 -0.18247725 -0.18174869 -0.13177519 -0.025421783 -0.065935 0.06481454 -0.20315126 -0.10553258 -0.17024168 0.0067829615
283 -0.074779384 -0.17041004 -0.1224773 -0.1651104 0.10378053 -0.059651323 0.019058399 -0.07326298 -0.078205235 0.08050354 -0.2728855 0.12696035 -0.03809913 -0.10144172 -0.052562334 -0.37618354 0.15031207 0.11687409 -0.014275044 -0.043356735 0.34008938 0.03859134 4.747416e-05 0.0094472775 -0.16909978 -0.017337916 0.0032326898 0.005097432 -0.0748326 -0.15218692 0.022014966 -0.041167628 -0.094975814 -0.064113356 -0.09939482 0.12994024 -0.022085905 -0.12543444 0.14698446 -0.12748791 0.026600592 0.28299144 -0.08117829 -0.13053815 -0.050441623 0.122546256 -0.072183885 -0.107899874 -0.069353424 0.064432286 -0.13659957 -0.0804298 0.07566475 0.21225083 -0.19273774 -0.18653825 -0.13428706 -0.027333274 -0.06662821 0.088765085 -0.20719324 -0.111300424 -0.17559817 0.0065334667
268 -0.08585949 -0.17936672 -0.13948965 -0.16777897 0.101403244 -0.058875553 0.0119430935 -0.09506307 -0.069419265 0.0625164 -0.28056976 0.12966502 -0.040321644 -0.092930175 -0.055316765 -0.36399853 0.15580626 0.10975996 -0.011830613 -0.034040276 0.31772262 0.03596156 -0.0029009478 0.0074779117 -0.17711987 -0.009356194 0.0066072247 0.005789865 -0.07681531 -0.14842951 0.033212483 -0.047302473 -0.08233358 -0.05951258 -0.09532124 0.12094848 -0.020388084 -0.1349268 0.14096081 -0.13511363 0.026982598 0.28522593 -0.07110596 -0.13284928 -0.034041286 0.1299844 -0.08444708 -0.114587516 -0.07780264 0.07685019 -0.1457332 -0.08731148 0.06583421 0.21709557 -0.19389218 -0.19064993 -0.123769894 -0.012341535 -0.071248576 0.088193215 -0.21463834 -0.09987729 -0.17934306 0.0046283165
63 -0.0718127 -0.17277275 -0.12536201 -0.17053266 0.11349908 -0.055882763 0.021351386 -0.07565499 -0.07266114 0.08465326 -0.29538092 0.13348585 -0.03644194 -0.09102146 -0.04832843 -0.36546287 0.15317418 0.11270995 -0.012393029 -0.028645312 0.31793502 0.044578925 -0.004130319 0.023342978 -0.1747227 -0.0055460543 -0.0016188849 0.002518293 -0.08454878 -0.15247841 0.03846127 -0.054678693 -0.08724141 -0.068477064 -0.12063789 0.12445466 -0.007780489 -0.12638107 0.14989169 -0.12844074 0.016333489 0.28578702 -0.079039745 -0.13611104 -0.036474634 0.12705307 -0.07815748 -0.10863608 -0.07545501 0.07546677 -0.13526171 -0.08281423 0.08347132 0.22299759 -0.18850733 -0.18849601 -0.1359908 -0.024306681 -0.07140623 0.08247646 -0.20349813 -0.11678073 -0.1720977 0.0021212758
220 -0.0721428 -0.1741856 -0.12487537 -0.14977364 0.11169544 -0.053884007 0.02403034 -0.06679056 -0.058691923 0.091316015 -0.2890169 0.14172228 -0.039057717 -0.08836865 -0.05493616 -0.3548417 0.15674749 0.113356866 -0.0020776787 -0.020149512 0.33774585 0.028201027 0.0037227727 0.010468335 -0.17024894 -0.006054257 0.0037590016 0.009039907 -0.075156786 -0.15597518 0.029904936 -0.046716593 -0.09688564 -0.06646571 -0.11528746 0.111690454 -0.025398621 -0.12745807 0.13992852 -0.12281141 0.019847248 0.2827592 -0.08694384 -0.13475356 -0.04821428 0.123514526 -0.077954255 -0.10604167 -0.07000197 0.07258402 -0.14028873 -0.07975151 0.075779654 0.20920998 -0.18223533 -0.18843502 -0.12982213 -0.0207286 -0.06608807 0.0624868 -0.19733533 -0.118701205 -0.17376806 0.010136638
153 -0.07879573 -0.19351874 -0.12350412 -0.16978212 0.103097245 -0.07137722 2.1854223e-05 -0.10919432 -0.07057402 0.06723207 -0.2813665 0.13390803 -0.03347945 -0.08787816 -0.051235605 -0.34990576 0.14935794 0.111274384 0.0041124914 -0.037751116 0.31077817 0.040112548 0.0145515865 0.017899394 -0.15377112 -0.01428362 0.01289605 0.004015234 -0.07498496 -0.14639199 0.01824127 -0.04404495 -0.077918746 -0.055991594 -0.095367655 0.11384427 -0.005483339 -0.13159326 0.1427603 -0.11904356 0.024781149 0.2957889 -0.07760928 -0.13445257 -0.049562454 0.13184644 -0.08238783 -0.106916875 -0.07356009 0.06858727 -0.13150053 -0.08406955 0.057033196 0.22475931 -0.19716877 -0.19507651 -0.13455756 -0.020669978 -0.06446412 0.08710347 -0.19776581 -0.09806521 -0.17157593 0.0129610235
25 -0.07994279 -0.18106645 -0.12937555 -0.16335148 0.09445363 -0.0647054 0.016432123 -0.08431027 -0.073536314 0.080098525 -0.28523827 0.12800907 -0.032798577 -0.08970485 -0.054531254 -0.3569936 0.16234617 0.115636684 -0.0019198635 -0.024989892 0.32874623 0.03525701 0.018273639 0.02113356 -0.1630635 -0.01783412 0.006149045 0.0061133127 -0.08795938 -0.14371996 0.027136879 -0.04964566 -0.08241651 -0.0618636 -0.11397644 0.120982714 -0.013644242 -0.12570266 0.1328823 -0.12797403 0.004151284 0.27716404 -0.08313303 -0.13556705 -0.040027518 0.12657854 -0.072824165 -0.09661903 -0.063875385 0.06544431 -0.13624494 -0.07994435 0.06732902 0.2087552 -0.19193576 -0.19184944 -0.11810822 -0.025113668 -0.07016219 0.08592211 -0.20255654 -0.09240321 -0.16292705 0.00048549075
241 -0.072274685 -0.17365937 -0.13603894 -0.16707924 0.11178428 -0.05780157 0.02429955 -0.07832928 -0.06995837 0.07716576 -0.28562415 0.1262726 -0.030998372 -0.107720345 -0.06106468 -0.3625194 0.16082826 0.117490396 -0.011819974 -0.03552067 0.33684105 0.04475445 -0.008541728 0.015180136 -0.16539101 -0.007789002 0.00124693 0.01606355 -0.07649656 -0.16933134 0.03075072 -0.053076923 -0.09129872 -0.06102858 -0.1040962 0.12693545 -0.010318358 -0.1406759 0.14494404 -0.12526445 0.02336036 0.28332576 -0.08313645 -0.13856661 -0.05309983 0.11402219 -0.06926693 -0.09263618 -0.07595583 0.06707034 -0.12279905 -0.077585325 0.07945977 0.20414849 -0.1962898 -0.18503676 -0.129332 -0.027061593 -0.06700798 0.08280647 -0.18555948 -0.115201406 -0.17045018 0.0061722235
204 -0.08719504 -0.18308023 -0.13607314 -0.16618903 0.106683016 -0.05992873 0.010705697 -0.09318624 -0.07412177 0.07747639 -0.2824645 0.13285637 -0.03702612 -0.10771445 -0.053514455 -0.36954722 0.1459698 0.11495638 9.786944e-05 -0.030353455 0.3184717 0.04109201 0.007784034 0.014892678 -0.16982839 -0.009905526 0.005128142 -9.07721e-05 -0.072299555 -0.16676003 0.033085465 -0.0406805 -0.08079883 -0.06436713 -0.09696507 0.124835424 -0.019379683 -0.13040668 0.14349136 -0.12964502 0.015149039 0.2848761 -0.091043964 -0.13467492 -0.03655057 0.12758133 -0.08117539 -0.11042677 -0.074189104 0.07831973 -0.12572582 -0.082576536 0.07453144 0.22315666 -0.19548956 -0.19889727 -0.12929747 -0.015967583 -0.06651412 0.08652824 -0.20576702 -0.09524902 -0.18015917 -0.0062772213
185 -0.08172085 -0.17861353 -0.13716424 -0.16264004 0.10479794 -0.059440535 0.016900446 -0.093217365 -0.07053552 0.076788135 -0.2836395 0.11743442 -0.02430093 -0.1125409 -0.060431376 -0.35644567 0.1622286 0.12530833 -0.0039677476 -0.029308252 0.32083127 0.03108011 -0.00051736116 0.022787353 -0.15644501 -0.0017147091 0.0078669945 0.016133536 -0.08513178 -0.15663114 0.025377735 -0.047461655 -0.083268635 -0.06390669 -0.11453723 0.112761855 -0.000989836 -0.13204597 0.1411823 -0.12649159 0.022706557 0.2965139 -0.07719554 -0.121537365 -0.039328877 0.12419115 -0.09316073 -0.10544689 -0.07607243 0.0802978 -0.13587551 -0.08491245 0.07728188 0.22369462 -0.20841113 -0.20035744 -0.12876567 -0.022367358 -0.067719854 0.089855984 -0.19967403 -0.10031082 -0.17662725 -0.0049411766
4 -0.08381633 -0.18615718 -0.13900262 -0.16694652 0.11996742 -0.07167723 0.007633274 -0.08293593 -0.06789132 0.075661905 -0.287182 0.14226358 -0.02762828 -0.102380656 -0.058309317 -0.3618302 0.166786 0.11059207 -0.001468384 -0.028706165 0.32703584 0.037162535 -0.0024222047 0.0093803685 -0.1681334 -0.005185919 0.007738503 0.010464997 -0.0783201 -0.15794584 0.027521253 -0.05447527 -0.098334335 -0.06342079 -0.11849984 0.12165429 -0.0060321586 -0.12892343 0.14631733 -0.13330244 0.025817715 0.2822326 -0.071280606 -0.12219467 -0.040724542 0.117780305 -0.08293669 -0.10886286 -0.0816882 0.07009281 -0.13730033 -0.09341654 0.07415656 0.2270937 -0.20702638 -0.1919205 -0.12839745 -0.017116496 -0.060156833 0.08012776 -0.20056266 -0.11184491 -0.17765501 0.008002504
90 -0.075693905 -0.16677302 -0.1326863 -0.16552792 0.1069758 -0.05539805 0.019787764 -0.094380476 -0.06760234 0.06370972 -0.27302313 0.11894428 -0.031777393 -0.09147081 -0.05827057 -0.3358931 0.15074363 0.10635953 -0.010060425 -0.03753096 0.31842077 0.03382341 0.009517339 0.013799505 -0.16162787 -0.006742515 0.005250257 0.01933685 -0.07605563 -0.1343155 0.025466582 -0.04265673 -0.080266215 -0.05138588 -0.09097028 0.1150752 -0.009832374 -0.13274866 0.1295399 -0.13089177 0.028532838 0.29839554 -0.07232407 -0.12700032 -0.039915077 0.14521112 -0.07956218 -0.11488387 -0.075492665 0.079153776 -0.15302274 -0.08441802 0.07467318 0.21864009 -0.20417506 -0.19107567 -0.13128641 -0.015323931 -0.0690258 0.083851635 -0.21374609 -0.10280624 -0.18514699 0.006238697
116 -0.081715345 -0.17273821 -0.12759964 -0.15274952 0.11073252 -0.05613959 0.020437595 -0.08243619 -0.07469449 0.068458006 -0.2782122 0.14128877 -0.03582655 -0.090378985 -0.057583787 -0.344088 0.16203845 0.11377895 -0.008918456 -0.03234193 0.3307719 0.04400243 -0.0075638657 0.006298622 -0.16542318 -0.014125343 0.005490581 0.0064440668 -0.08409475 -0.14744577 0.024235845 -0.043760277 -0.08440823 -0.058220662 -0.1074024 0.1186992 0.00102713 -0.12129075 0.14390863 -0.14320584 0.014084429 0.2852755 -0.08702246 -0.12570898 -0.042342514 0.11856118 -0.076120384 -0.10738467 -0.07836601 0.06966662 -0.13374831 -0.09201663 0.08092998 0.2257575 -0.18401308 -0.18912347 -0.12410597 -0.015925093 -0.067753054 0.06939481 -0.20755802 -0.0950501 -0.17108627 0.0048618345
125 -0.07405932 -0.17052841 -0.12714009 -0.16378632 0.11298786 -0.059173387 0.014300028 -0.083625175 -0.07934579 0.07096246 -0.28352815 0.12504002 -0.04087607 -0.0960223 -0.060611416 -0.36847487 0.16003677 0.11428403 -0.0063598636 -0.03646144 0.33273333 0.025059206 0.008513115 0.02000337 -0.17015025 -0.0026648762 -0.001481807 0.00017748825 -0.09214329 -0.15995948 0.027528297 -0.041036732 -0.08888604 -0.06467075 -0.110719845 0.12872046 -0.003973107 -0.1284853 0.15273258 -0.1328773 0.019885557 0.27941275 -0.076276034 -0.12508006 -0.034239374 0.11760282 -0.09024586 -0.09506737 -0.07895322 0.06171275 -0.13861343 -0.08532904 0.07662343 0.21425728 -0.19135943 -0.19195673 -0.121561885 -0.025100399 -0.076219544 0.08261811 -0.2118904 -0.10972319 -0.17439683 0.010638903
59 -0.07623385 -0.17312494 -0.12798953 -0.15945557 0.106674634 -0.055850748 0.02312439 -0.07932145 -0.07450498 0.08038667 -0.2851113 0.14486173 -0.027449224 -0.093796864 -0.05996485 -0.34596708 0.15187952 0.11576661 -0.007008432 -0.021968009 0.31557545 0.027212191 0.0025522127 0.011266869 -0.15528902 -0.014123951 -0.0038510768 0.0016482894 -0.07751714 -0.1552428 0.026373278 -0.04395253 -0.0930329 -0.06283749 -0.100482255 0.11549133 -0.011044332 -0.13994667 0.144647 -0.14424486 0.016209956 0.30109268 -0.082734 -0.13727736 -0.04553646 0.13150403 -0.07744472 -0.11739547 -0.071076624 0.07087539 -0.1299625 -0.08869292 0.07008159 0.22025807 -0.18329148 -0.18515472 -0.12739962 -0.01693608 -0.07508248 0.06996187 -0.20993179 -0.09588222 -0.16643098 0.0019777515
109 -0.084471256 -0.18838137 -0.13452396 -0.15960209 0.11726384 -0.068751656 0.010532071 -0.091760136 -0.080782436 0.07625375 -0.27905476 0.12835398 -0.03424817 -0.08978134 -0.055249177 -0.32718402 0.14911611 0.11019182 -0.007008117 -0.022120902 0.304463 0.038810305 0.015050787 0.022130301 -0.16412818 -0.011458597 0.006250604 0.00152364 -0.083800845 -0.13899533 0.028435761 -0.04358584 -0.0793424 -0.058866795 -0.10245494 0.11333536 -0.010174595 -0.13683337 0.14465323 -0.12733054 0.015497421 0.28085464 -0.0757647 -0.13651443 -0.04474412 0.12880807 -0.08032591 -0.11213395 -0.07114573 0.07853719 -0.1362865 -0.09250323 0.060655657 0.2248114 -0.1978644 -0.20342816 -0.12994294 -0.006497147 -0.06889185 0.0835508 -0.20318472 -0.102584995 -0.17122266 -0.0036446878
32 -0.06784081 -0.16883394 -0.1318957 -0.14424995 0.10388846 -0.057534993 0.025591094 -0.067996375 -0.07185921 0.07072889 -0.2677539 0.13644336 -0.039695974 -0.091798365 -0.051670417 -0.34977823 0.1487043 0.1082809 -0.017751304 -0.030201778 0.31466815 0.038107473 -0.010546503 0.0065167183 -0.16982377 -0.009299427 0.0074926508 0.010914268 -0.06818072 -0.15196034 0.021710845 -0.046949558 -0.07512445 -0.049336437 -0.11182649 0.121573545 -0.0052119885 -0.118863665 0.13565609 -0.13700594 0.013183634 0.29575214 -0.08658891 -0.13349584 -0.050232843 0.12787049 -0.06978724 -0.10792514 -0.080044255 0.065188035 -0.14087081 -0.08550359 0.074057326 0.22833885 -0.1989937 -0.20093285 -0.13452925 -0.024713157 -0.06541867 0.06916276 -0.20198491 -0.109789595 -0.1828808 0.008390869
254 -0.08251476 -0.1925227 -0.13122456 -0.17788056 0.101433046 -0.06524554 0.01685215 -0.08953127 -0.07456822 0.090588465 -0.27917686 0.14465193 -0.03939159 -0.09714059 -0.046183422 -0.35467452 0.15969694 0.11209448 -0.003989589 -0.029724292 0.31968996 0.037923396 0.007055197 0.01743859 -0.16793498 -0.011260217 0.0033036622 -0.0014626822 -0.07612857 -0.16315465 0.02899915 -0.0511455 -0.08579743 -0.06893364 -0.1108684 0.12981337 -0.02155951 -0.12741965 0.15167531 -0.13113388 0.013960249 0.3000115 -0.08356587 -0.14554928 -0.042051945 0.13464905 -0.0862288 -0.11495344 -0.07454107 0.07699246 -0.1333373 -0.08609674 0.073946185 0.20558411 -0.17951813 -0.18529138 -0.13866371 -0.030071646 -0.07090258 0.08622912 -0.20405833 -0.10655009 -0.16525424 0.0021083495
163 -0.07048991 -0.17669682 -0.12119599 -0.16180542 0.10341617 -0.0595644 0.01759923 -0.080920376 -0.07437821 0.058519494 -0.28732044 0.13421811 -0.035247378 -0.10512694 -0.06185686 -0.37216127 0.15453583 0.12011595 -0.007383697 -0.0318937 0.32574263 0.039865036 0.006708614 0.018294204 -0.16699658 -0.0174767 -0.0023940213 0.007787131 -0.082631454 -0.15273552 0.027951198 -0.043267433 -0.07117583 -0.050036993 -0.094055764 0.10655222 -0.018763954 -0.13901353 0.14607586 -0.1332309 0.017530354 0.28790656 -0.07969027 -0.1388205 -0.044582885 0.13471177 -0.087243415 -0.11021329 -0.067715526 0.07067647 -0.13562837 -0.09563513 0.07267461 0.20918372 -0.1956921 -0.18487206 -0.12626438 -0.012574765 -0.06857029 0.08544977 -0.20498632 -0.09388913 -0.1806118 0.00148304
15 -0.07182629 -0.16308476 -0.11370735 -0.15082723 0.097838804 -0.049653508 0.023282275 -0.07733493 -0.073728874 0.071684815 -0.26293933 0.13390428 -0.03971943 -0.09037511 -0.04922075 -0.3550654 0.15308502 0.1136054 -0.014879014 -0.037980948 0.3348012 0.040905725 0.005465209 0.021165246 -0.17115565 -0.0065281624 0.0024156785 0.009866678 -0.0724026 -0.14353259 0.017133651 -0.041906305 -0.0688801 -0.056891933 -0.09930664 0.10467513 -0.019254664 -0.13241626 0.14946942 -0.1269218 0.010689933 0.3008767 -0.08259316 -0.13390143 -0.03989805 0.1353105 -0.0880166 -0.11043937 -0.08407386 0.06985776 -0.13811706 -0.095282115 0.075417794 0.22642969 -0.2014903 -0.1999666 -0.14281248 -0.028327009 -0.06691067 0.07704438 -0.20055062 -0.096728876 -0.17254733 -0.002784592
120 -0.07834395 -0.1772274 -0.13925968 -0.15806031 0.09143553 -0.059406165 0.017764373 -0.07112105 -0.06956096 0.08061681 -0.28016087 0.13034508 -0.031787816 -0.10181155 -0.04999552 -0.3592396 0.1589167 0.11114722 -0.0063252505 -0.026780766 0.3179885 0.03109931 0.0011963873 0.018760357 -0.17279324 -0.0072859987 0.008622869 0.011305192 -0.07476395 -0.14533621 0.03299694 -0.04941092 -0.08137063 -0.05886666 -0.10352894 0.11904543 -0.020086 -0.13681112 0.13895065 -0.13929532 0.012831382 0.3054084 -0.09273446 -0.1345719 -0.036244657 0.12696253 -0.08393715 -0.10795954 -0.082544155 0.0832235 -0.14615698 -0.084899716 0.06333931 0.21002907 -0.19560401 -0.1986646 -0.12979059 -0.021669984 -0.07281453 0.08120251 -0.20593816 -0.09901039 -0.17784494 -0.0056725573
82 -0.06628087 -0.17556411 -0.12014079 -0.16720267 0.0960667 -0.0564188 0.025914937 -0.08290913 -0.07678702 0.08473247 -0.28425857 0.13874716 -0.027576875 -0.100935556 -0.058795776 -0.36831033 0.14807738 0.12568285 -0.008628796 -0.030420255 0.3403538 0.03253196 0.0089292275 0.014917181 -0.17377967 -0.0075360904 0.006324036 0.0003617474 -0.082972564 -0.16316903 0.033262834 -0.05435653 -0.08792552 -0.068889745 -0.10288547 0.11866427 -0.009271113 -0.11989694 0.15080623 -0.13602972 0.016266933 0.28649002 -0.08213092 -0.13509592 -0.043941617 0.12442525 -0.07293273 -0.09444989 -0.081338674 0.06397018 -0.13044892 -0.07947586 0.06706475 0.21708916 -0.18978502 -0.19656183 -0.12655699 -0.020815322 -0.07133784 0.087937556 -0.20231903 -0.112955116 -0.16704054 0.001451364
35 -0.0758487 -0.16798872 -0.12703241 -0.15553284 0.096583135 -0.049769524 0.01860368 -0.07529106 -0.07994098 0.08088003 -0.2806932 0.13958007 -0.03953264 -0.096154526 -0.051514752 -0.3582125 0.16327648 0.12463789 -0.004475139 -0.022361757 0.32870162 0.031192763 -0.0035687853 0.026791513 -0.16782546 -0.0025121712 0.0062994924 0.011703219 -0.08794763 -0.14789489 0.032477055 -0.049679954 -0.09583573 -0.06767981 -0.11244892 0.12095986 -0.003926326 -0.12776029 0.14570907 -0.12382044 0.0065920623 0.28048137 -0.07361505 -0.13156575 -0.04548686 0.11594111 -0.08289675 -0.094346724 -0.08707466 0.06445449 -0.13356143 -0.094885625 0.07627644 0.21506862 -0.18672457 -0.19738938 -0.13378778 -0.02289478 -0.06434037 0.07292462 -0.2054151 -0.1147798 -0.16716559 0.010227826
34 -0.07410439 -0.18545017 -0.11929368 -0.15714225 0.10302681 -0.06230213 0.021763273 -0.08742181 -0.07940563 0.06838842 -0.2826546 0.13059102 -0.026941579 -0.098591454 -0.045391884 -0.34648967 0.1494417 0.107944876 0.0015747803 -0.027128179 0.29974422 0.038104955 0.0073810085 0.011920666 -0.15570386 -0.01687226 0.011447244 -0.0020033412 -0.074167505 -0.13299759 0.034739677 -0.042307734 -0.08101289 -0.054535605 -0.10315494 0.11706969 0.00040532954 -0.12609702 0.14188656 -0.12929219 0.014261053 0.30708715 -0.07802671 -0.13421541 -0.04202984 0.12566955 -0.081266984 -0.11015114 -0.073276795 0.078854196 -0.13987137 -0.08992741 0.07906832 0.22729968 -0.19711976 -0.19608703 -0.13076138 -0.017423378 -0.061117258 0.0774115 -0.19987212 -0.09775567 -0.17722145 0.004655733
251 -0.09258519 -0.19401112 -0.14216177 -0.17893109 0.11976992 -0.05747752 0.016321352 -0.101166375 -0.0778492 0.08439678 -0.28319415 0.13332233 -0.027992258 -0.08682731 -0.05252767 -0.3493112 0.1587661 0.11746236 0.0017330344 -0.03468928 0.31839913 0.03761964 -0.0019160123 0.018033579 -0.16586438 -0.014584087 0.0036602959 0.016425477 -0.089267895 -0.14228655 0.03167709 -0.036595475 -0.09463449 -0.05078984 -0.10176682 0.12225823 -0.015219031 -0.13971847 0.15387462 -0.118952475 0.01743233 0.28839335 -0.08315465 -0.13932662 -0.045909826 0.13047253 -0.083680555 -0.104309365 -0.07396279 0.07376718 -0.12766668 -0.08853123 0.0661388 0.22669278 -0.19687445 -0.19251302 -0.1300638 -0.026175708 -0.06382064 0.07679137 -0.19725223 -0.09567119 -0.17140906 0.007323408
230 -0.069475204 -0.15916617 -0.13319911 -0.15047076 0.09469169 -0.04464754 0.021738594 -0.05948817 -0.06124669 0.074677415 -0.27019814 0.1335407 -0.040577605 -0.103090584 -0.05875125 -0.3710797 0.15643387 0.113895275 -0.011279365 -0.034830876 0.3479647 0.04367315 0.0028775895 0.026545104 -0.19025046 -0.0067928876 0.007453571 0.0034698246 -0.08051082 -0.14509164 0.032801103 -0.047122903 -0.08594729 -0.06785587 -0.10731545 0.11356363 -0.009338802 -0.13403666 0.15074106 -0.13190088 0.021201594 0.2967583 -0.07786512 -0.12684862 -0.04684759 0.11858304 -0.076653585 -0.10547843 -0.09066994 0.06512034 -0.13656925 -0.08434491 0.08419094 0.21638829 -0.19832937 -0.19075805 -0.13262337 -0.017739834 -0.06399597 0.08150393 -0.20168664 -0.11831358 -0.17012241 0.006882698
216 -0.07589158 -0.18617338 -0.13307983 -0.16259645 0.10715975 -0.060130097 0.01628663 -0.074329354 -0.07945248 0.07752673 -0.27940905 0.13178478 -0.037266627 -0.09299264 -0.042444732 -0.34453353 0.15812358 0.117191516 -0.011214131 -0.029264297 0.33440697 0.03366094 0.009246094 0.020642215 -0.16752906 -0.011725536 0.0019105661 0.0031424258 -0.07841059 -0.13931851 0.03620549 -0.040438134 -0.0875188 -0.0586258 -0.099224694 0.11953367 -0.0025513428 -0.12662187 0.13855965 -0.13623132 0.01777667 0.29522964 -0.08805102 -0.13756272 -0.040103752 0.12472187 -0.083972104 -0.102638625 -0.06751438 0.078100055 -0.13800585 -0.08944368 0.067523636 0.21333754 -0.19794329 -0.19362767 -0.124563046 -0.026924621 -0.061077576 0.07094174 -0.19462916 -0.102491826 -0.1679038 0.0060809283
198 -0.07000279 -0.18495119 -0.13098629 -0.16956103 0.09677397 -0.05547329 0.0035358812 -0.08914503 -0.06593873 0.07659064 -0.27943882 0.12578996 -0.0262275 -0.09529577 -0.05205237 -0.36558065 0.14789046 0.114323154 -0.002500886 -0.028871682 0.31528768 0.040088106 -0.012002777 0.015157915 -0.169572 -0.002347463 0.010917188 0.00034170935 -0.081109285 -0.14564621 0.028389012 -0.04346804 -0.08350745 -0.049879674 -0.10371199 0.11807136 -0.006767173 -0.13601175 0.14177556 -0.12233586 0.024539698 0.29488912 -0.09115766 -0.14321171 -0.040406156 0.13824308 -0.08092913 -0.11759265 -0.0822523 0.077195846 -0.12986176 -0.08292017 0.07932998 0.22009806 -0.1951615 -0.18534945 -0.12660241 -0.0179415 -0.07357457 0.084576145 -0.20133024 -0.10997481 -0.17230174 0.00032060404
195 -0.071543895 -0.16555543 -0.11815029 -0.15446623 0.09466954 -0.043974068 0.01359652 -0.0700487 -0.06803073 0.07324854 -0.2655108 0.12672122 -0.035218555 -0.100760445 -0.05148853 -0.33278975 0.16001476 0.12440512 -0.004478504 -0.035297837 0.32853773 0.045120634 -0.006973563 0.022666924 -0.17549852 -0.005935494 -0.00091469625 0.01253067 -0.0835817 -0.13609944 0.026954386 -0.04835862 -0.079339676 -0.044827454 -0.10326574 0.10117307 -0.0061986614 -0.14439206 0.1382354 -0.13979685 0.0291863 0.30589885 -0.08142925 -0.14369103 -0.046858054 0.12838216 -0.08991056 -0.11129688 -0.08458092 0.07232877 -0.144261 -0.096789256 0.075905524 0.23058394 -0.21265692 -0.19722424 -0.13020235 -0.02059751 -0.07327934 0.07670635 -0.20224585 -0.103976324 -0.18009794 0.003298474
97 -0.08809673 -0.17572722 -0.14200708 -0.1700943 0.11848653 -0.06525848 0.019387586 -0.08535773 -0.06418233 0.08648542 -0.2796578 0.13862692 -0.028805789 -0.09997359 -0.060173206 -0.3539771 0.16454025 0.117069885 -0.01341174 -0.032252535 0.31350127 0.027825145 0.011529301 0.010884871 -0.15927733 -0.016836919 0.0060246075 0.0059852577 -0.08741919 -0.14984919 0.02854843 -0.041709043 -0.099512465 -0.064691395 -0.11738732 0.12729326 -0.003578333 -0.12886731 0.13906814 -0.13380347 0.024124935 0.2903122 -0.0902623 -0.12235123 -0.045224972 0.124536045 -0.08224945 -0.10201537 -0.07264993 0.06532013 -0.12936719 -0.08208738 0.06923733 0.2238698 -0.18996456 -0.18341328 -0.12684447 -0.027431808 -0.06647359 0.07767281 -0.20247221 -0.10329801 -0.17340218 -0.0007844179
72 -0.07214662 -0.17901024 -0.12573867 -0.16712259 0.113304645 -0.04739626 0.011510548 -0.08328164 -0.07309774 0.07885506 -0.28426945 0.14227009 -0.04326916 -0.096492335 -0.044372622 -0.34035638 0.15837409 0.11761007 -0.010024145 -0.03800505 0.31632462 0.03687741 -0.00397864 0.010019043 -0.1744501 -0.0038033242 0.007979153 0.0100458935 -0.07728114 -0.15649432 0.02728897 -0.048081517 -0.08851576 -0.0645776 -0.10658299 0.11902843 -0.013829977 -0.13083927 0.13624503 -0.126284 0.023120357 0.29376018 -0.083689064 -0.138914 -0.039066304 0.12045543 -0.08334362 -0.10160185 -0.07755898 0.061873075 -0.13473378 -0.07589522 0.0739665 0.21881819 -0.19437924 -0.18664439 -0.13049936 -0.018616583 -0.06289815 0.078707226 -0.20380835 -0.10791834 -0.17326649 0.00805592
131 -0.072473936 -0.17933367 -0.12944761 -0.15997078 0.10317506 -0.05720668 0.024032163 -0.06926096 -0.076696135 0.09192213 -0.28617203 0.14618567 -0.039203834 -0.09631559 -0.052292775 -0.3557929 0.15929534 0.111652665 -0.0045422246 -0.028784215 0.3233988 0.034220494 -0.0078396 0.014096389 -0.15429066 -0.004738637 0.012816935 0.014049156 -0.07700979 -0.16246077 0.029647546 -0.04301656 -0.10141954 -0.06825795 -0.12393404 0.12899308 -0.014372046 -0.12641257 0.13384809 -0.11816612 0.019681841 0.2701046 -0.08369782 -0.12120906 -0.034875575 0.120670676 -0.08444363 -0.0952853 -0.07807314 0.064969115 -0.13480458 -0.09150927 0.073438294 0.21382174 -0.18747693 -0.19229566 -0.12709944 -0.018967161 -0.06325118 0.07645977 -0.20711379 -0.11542564 -0.16781412 0.0127522545
228 -0.0683506 -0.16990064 -0.12452817 -0.15486975 0.099182494 -0.062455256 0.008478194 -0.080745295 -0.064575695 0.07275468 -0.27735326 0.12751427 -0.03417195 -0.094250776 -0.049683917 -0.3492086 0.14225347 0.10329154 -0.011826164 -0.035493206 0.31851736 0.03562241 -0.0036668195 0.027198037 -0.16664685 -0.014592568 0.0024284674 -0.003857318 -0.082516745 -0.15958439 0.024815636 -0.04101135 -0.09380807 -0.06767168 -0.1047483 0.11063907 -0.022401603 -0.12988114 0.14614645 -0.12811212 0.011432612 0.28963012 -0.08368741 -0.13472855 -0.047476105 0.1310712 -0.07925589 -0.1126796 -0.08648511 0.07588098 -0.13051419 -0.084469326 0.072334446 0.21885142 -0.19630198 -0.19588359 -0.13579664 -0.018831665 -0.06270947 0.08703147 -0.20526174 -0.11481775 -0.17845531 0.0012649224
218 -0.08200191 -0.1910503 -0.13215086 -0.1582573 0.103864454 -0.058064684 0.008620134 -0.08770636 -0.07184694 0.0790317 -0.26709512 0.13516542 -0.033131137 -0.08936148 -0.051718783 -0.33999944 0.15759887 0.11097419 -0.007239115 -0.03319988 0.32416368 0.03983637 0.0046514315 0.023802556 -0.15422797 -0.0037486725 0.010122134 0.008235312 -0.07394832 -0.1517777 0.026635401 -0.042705383 -0.08311221 -0.06285305 -0.10143464 0.1042901 -0.013982625 -0.1351314 0.13163456 -0.13245702 0.023024382 0.3050276 -0.084496856 -0.1290679 -0.04216632 0.13156748 -0.08757119 -0.11832264 -0.07020054 0.07655511 -0.13356726 -0.08841362 0.0766112 0.23213492 -0.20195095 -0.1864063 -0.12954658 -0.030220075 -0.065642685 0.08060888 -0.20382173 -0.0940539 -0.18701462 0.004053861
26 -0.071483865 -0.16894294 -0.119115785 -0.16008747 0.10161242 -0.06345247 0.015165093 -0.090905644 -0.077136 0.0652913 -0.27303696 0.12345839 -0.033498224 -0.099136256 -0.055192355 -0.34777287 0.16373228 0.111502446 -0.010611722 -0.027614264 0.33552492 0.04227622 0.007419175 0.02103455 -0.17134295 -0.0077466806 -0.002577969 -0.0004453445 -0.0836619 -0.13502151 0.032423645 -0.047025513 -0.07568111 -0.05712133 -0.11091707 0.1077899 -0.00968089 -0.13934347 0.14393753 -0.13308571 0.014641878 0.2908804 -0.0865629 -0.14247303 -0.04648477 0.14123057 -0.0943872 -0.11173971 -0.08277251 0.081166305 -0.136141 -0.08803315 0.06725244 0.21150161 -0.19760486 -0.19387707 -0.13509433 -0.014925315 -0.075327225 0.08002353 -0.19880447 -0.10809297 -0.17554773 0.008209535
23 -0.07813843 -0.1627942 -0.1390533 -0.1542912 0.102393985 -0.044553217 0.0215509 -0.064786285 -0.067366265 0.07650385 -0.2797494 0.13572694 -0.030075673 -0.10399851 -0.059263136 -0.36221117 0.1586525 0.12856992 -0.0036124808 -0.027344065 0.33180866 0.029180143 0.00019661034 0.026805164 -0.17509763 -0.013170429 -0.0026337735 0.00020253088 -0.0882164 -0.14821228 0.027242271 -0.050917614 -0.09073152 -0.058820236 -0.11190686 0.11510331 -0.006995668 -0.13744506 0.13494185 -0.14366503 0.0215902 0.29853097 -0.08189603 -0.13243279 -0.036241934 0.12482553 -0.07828153 -0.098760344 -0.07639663 0.069010615 -0.13571668 -0.08196064 0.07528808 0.20712115 -0.19529839 -0.19198386 -0.12890819 -0.024014067 -0.06750837 0.068879195 -0.20451759 -0.110216945 -0.1703023 0.009704756
118 -0.074000664 -0.19067864 -0.1332987 -0.168315 0.103723675 -0.05500105 0.02306338 -0.08089977 -0.070055544 0.07231212 -0.2685923 0.13581656 -0.028087309 -0.09437791 -0.05123152 -0.3580316 0.15969896 0.110892266 -0.009832963 -0.029687444 0.32153776 0.03274252 -0.0030344795 0.015684215 -0.16092366 -0.0049114865 0.0050998083 0.0007290066 -0.07015632 -0.14458725 0.02461788 -0.04995507 -0.06725604 -0.0500528 -0.10424375 0.110363 -0.0082715275 -0.1307661 0.14228095 -0.12682328 0.0064797313 0.29107502 -0.0890873 -0.13321105 -0.04506759 0.12792182 -0.081226245 -0.10312808 -0.07741039 0.0732498 -0.12706538 -0.101173274 0.062383607 0.2192286 -0.18945701 -0.193529 -0.12121332 -0.023857238 -0.06163295 0.07870344 -0.19763188 -0.105237946 -0.16700846 -0.0025407455
13 -0.0750584 -0.18068446 -0.13001218 -0.17250286 0.10436095 -0.06352508 0.009860311 -0.096995935 -0.06771519 0.070851706 -0.2785146 0.123264275 -0.03543684 -0.10025755 -0.04447143 -0.33144772 0.14518563 0.10818273 -0.00670519 -0.037253153 0.31732062 0.040625144 -0.007890352 0.021051556 -0.16840586 -0.009492182 0.0114436075 0.013418282 -0.075126074 -0.14723098 0.02185778 -0.0370453 -0.0840696 -0.0600136 -0.101847194 0.105962425 -0.0017611522 -0.124953374 0.13846837 -0.12711406 0.030984754 0.29692698 -0.08466894 -0.13125278 -0.04005445 0.13865201 -0.083367415 -0.10342311 -0.08662081 0.07870906 -0.1478868 -0.083461516 0.077294864 0.228692 -0.207654 -0.19503723 -0.13863547 -0.02398595 -0.066338114 0.07983265 -0.20423248 -0.09987604 -0.17823623 -0.0036340277
21 -0.07256022 -0.16146198 -0.12148821 -0.1561934 0.096695475 -0.056319617 0.016016023 -0.07699107 -0.07012157 0.08788687 -0.26963353 0.13160653 -0.0418582 -0.10218678 -0.05576947 -0.36056206 0.16350015 0.11309205 -0.0023915237 -0.033137545 0.35045534 0.043826092 0.003134984 0.018044822 -0.18070483 -0.012590407 0.006964286 0.009492488 -0.079568684 -0.14804539 0.028699525 -0.051569577 -0.08003951 -0.05409849 -0.11072791 0.10781843 -0.018711675 -0.1234386 0.15230975 -0.13577439 0.014842345 0.30518442 -0.087255955 -0.14448817 -0.05388229 0.12836027 -0.079131275 -0.1060901 -0.06976578 0.068376064 -0.12420253 -0.07976537 0.081717744 0.20691495 -0.19230914 -0.1857591 -0.1319773 -0.026501635 -0.068104535 0.08751476 -0.20337728 -0.10740728 -0.17293298 0.011552391
194 -0.061052695 -0.15834607 -0.12562677 -0.1519659 0.092903815 -0.040344257 0.016760724 -0.06327668 -0.062022794 0.064784676 -0.27423015 0.130976 -0.034012794 -0.1060493 -0.053273305 -0.3569943 0.1611017 0.12315843 -0.0075543346 -0.038472068 0.33408585 0.028968573 -0.0034044082 0.010190021 -0.17143875 0.00023846945 0.002045831 0.0031277314 -0.06991245 -0.14727536 0.02292299 -0.051877763 -0.090426475 -0.064870395 -0.10954283 0.10839648 -0.009745913 -0.13045071 0.13209602 -0.12601447 0.02141037 0.2822088 -0.0782475 -0.12464302 -0.050167616 0.12975211 -0.08421725 -0.105213635 -0.08190786 0.07680147 -0.13046102 -0.091904975 0.0755173 0.22204942 -0.20038661 -0.19317587 -0.14166248 -0.018947627 -0.064426824 0.07499349 -0.20604785 -0.108053364 -0.17547947 0.0075493935
174 -0.075170934 -0.16716793 -0.12064909 -0.15667626 0.09601757 -0.04549986 0.020971766 -0.081197485 -0.073108315 0.07337028 -0.2743325 0.14009121 -0.040318806 -0.09408345 -0.052605905 -0.35571888 0.14438781 0.109280504 -0.0076922667 -0.0344571 0.31720445 0.03246209 0.0011649776 0.023311947 -0.16080965 -0.0031754388 0.002115434 0.016775925 -0.08423182 -0.14245345 0.021694176 -0.049558096 -0.089461274 -0.053701337 -0.09929567 0.119352415 -0.012802061 -0.13305007 0.14389384 -0.13015948 0.016559286 0.28265107 -0.074099354 -0.13557424 -0.05047477 0.12466978 -0.079431266 -0.09566193 -0.07597037 0.07180404 -0.1236986 -0.089735344 0.07277374 0.22944924 -0.20317043 -0.20166342 -0.13541573 -0.023406794 -0.06122547 0.07473667 -0.20244177 -0.107262455 -0.17570592 0.003885746
65 -0.08677619 -0.18273307 -0.13775279 -0.1649629 0.11185243 -0.06307334 0.014159764 -0.08283683 -0.073065646 0.06497363 -0.28399417 0.13596421 -0.03049862 -0.09389798 -0.05688744 -0.3460848 0.16002429 0.12060139 -0.0014693206 -0.032752827 0.31070164 0.030718476 0.015049249 0.022285733 -0.15717487 -0.005032624 0.004588869 0.011587574 -0.07735201 -0.14300178 0.032144714 -0.035805047 -0.08248281 -0.064499415 -0.11416887 0.10684368 -0.0085992925 -0.12970592 0.13831471 -0.12990968 0.019447228 0.28907427 -0.0758732 -0.13360138 -0.04906229 0.127489 -0.0795352 -0.10617689 -0.07247593 0.07540377 -0.14856447 -0.09339841 0.0677631 0.2149025 -0.2013989 -0.19536193 -0.13123682 -0.027316783 -0.06530146 0.071068525 -0.21720876 -0.10136706 -0.17371625 0.013183526
179 -0.099086724 -0.19186983 -0.15013275 -0.18489341 0.11679388 -0.058498472 0.010858324 -0.09613201 -0.07828054 0.075865224 -0.29826552 0.14307037 -0.030762717 -0.10050015 -0.047765445 -0.34428248 0.14941618 0.1250978 -0.005775693 -0.027863385 0.3018845 0.034153678 0.0055466047 0.022090439 -0.14774583 -0.015453045 0.002967061 0.0034565094 -0.08429431 -0.14615719 0.038843323 -0.036893155 -0.08384617 -0.05750738 -0.11218035 0.12610404 -0.013754598 -0.13243088 0.1279135 -0.1304852 0.019228224 0.29211873 -0.0871168 -0.12782039 -0.039871335 0.13157797 -0.077868074 -0.113214314 -0.06896686 0.07724252 -0.14332323 -0.08650919 0.063769445 0.21983951 -0.1864073 -0.18536791 -0.111133896 -0.021128707 -0.08300055 0.07911489 -0.19837382 -0.10307478 -0.17484713 -0.0022430166
276 -0.08136504 -0.16376129 -0.12781818 -0.15482378 0.10386635 -0.06234195 0.011975885 -0.06305689 -0.0672402 0.08179405 -0.3007 0.14334714 -0.041713923 -0.08681193 -0.057333626 -0.3602143 0.15694277 0.11719806 0.00024010005 -0.025533775 0.3222083 0.039406203 -0.005939295 0.013892892 -0.17672828 -0.0064641526 0.0150830345 0.0044634873 -0.0852781 -0.15029822 0.03161397 -0.048028555 -0.09543348 -0.060243182 -0.10927257 0.11563051 -0.01149027 -0.13212508 0.15106206 -0.14326748 0.015698405 0.29438907 -0.07882896 -0.13069265 -0.044873524 0.1271639 -0.07587329 -0.10033056 -0.083135374 0.06198407 -0.13382483 -0.09280697 0.08226072 0.2099629 -0.18724462 -0.1873687 -0.13574903 -0.020551547 -0.0760794 0.06493468 -0.21041314 -0.10317155 -0.17109421 0.008593197
39 -0.081692696 -0.16668223 -0.12135242 -0.1532094 0.11574527 -0.054402534 0.019440984 -0.07569184 -0.07724952 0.07430755 -0.28345045 0.12755199 -0.035592478 -0.08736944 -0.05245466 -0.3607565 0.15167637 0.1208253 -0.013368984 -0.022713184 0.34202644 0.03956567 0.013767934 0.022046935 -0.18499771 -0.0028707767 -0.0036387 0.00338333 -0.08981742 -0.14601958 0.029054163 -0.046344027 -0.080748275 -0.060508292 -0.09352781 0.10980745 -0.01371703 -0.12912244 0.1448514 -0.13867268 0.019528726 0.28695077 -0.080236696 -0.1434491 -0.04215947 0.1319589 -0.0754666 -0.09448786 -0.07196613 0.074068405 -0.13567951 -0.08145699 0.07385957 0.21182135 -0.18966061 -0.19256745 -0.13662735 -0.015793702 -0.06375385 0.081488356 -0.20902142 -0.093945004 -0.17571324 0.0048550456
187 -0.090668395 -0.19409138 -0.1278367 -0.17153612 0.10315547 -0.056858227 0.017797245 -0.09072579 -0.07592683 0.08532313 -0.28445986 0.14016211 -0.03244078 -0.09423343 -0.040057432 -0.33223066 0.15708299 0.11536964 -0.0035500664 -0.023844808 0.31280375 0.041306052 0.009005404 0.024115343 -0.1573614 -0.021861102 0.009254335 0.01445819 -0.08422435 -0.13849889 0.03489858 -0.04391972 -0.09715579 -0.06429007 -0.10777212 0.11108388 -0.0016555683 -0.13129015 0.14432898 -0.12639153 0.015040039 0.29727203 -0.07648199 -0.14105923 -0.04236617 0.13389964 -0.07771674 -0.10111747 -0.074774414 0.08022955 -0.137083 -0.085126884 0.08493054 0.22372831 -0.19887869 -0.19117245 -0.1378688 -0.022290569 -0.070291385 0.08663844 -0.1986917 -0.10610827 -0.16801234 0.0098909335
