284 128
58 -0.19145301 -0.17226899 -0.052988444 -0.04153763 -0.0076353517 -0.108943164 -0.16139984 -0.06455778 0.008763907 -0.051199835 -0.11758521 0.09689045 0.013358796 -0.028116073 0.07575534 -0.21764068 0.14162305 0.08570277 -0.00034139148 -0.08024244 0.10871841 0.11766572 0.03952259 -0.07174667 -0.08731608 0.1615851 -0.04094227 -0.07419027 -0.04709513 -0.027603818 0.028408552 0.07498236 0.024828723 0.09674365 -0.04029154 -0.00015065819 -0.03650656 -0.086349934 0.059457365 -0.010331697 -0.14895815 0.15271331 -0.06294288 -0.029382255 0.02160263 0.03514928 -0.079523005 -0.12252746 -0.033373136 0.033299092 -0.063377954 -0.0108995 0.052783288 0.26017806 -0.087716594 -0.12116657 -0.12526074 0.020259926 -0.0001348065 0.00065932266 -0.09731341 -0.10981308 -0.12486586 -0.17603114 -0.116522476 -0.03520312 -0.059795827 0.08673293 -0.13961779 -0.040817 0.031333428 -0.011991502 0.06737187 -0.0709899 0.12364343 -0.015464566 0.101313375 -0.039378557 0.110132016 -0.11070551 -0.05427321 0.038527977 0.059312418 -0.053362414 0.037118606 -0.042760435 0.16697977 -0.00864475 -0.050003093 0.08677127 0.09729496 0.027651666 0.017154211 -0.13690515 -0.03404279 0.13044132 0.10026417 -0.13138394 0.1277028 0.02281503 0.034170903 -0.044459824 0.030738067 -0.06487765 0.0332589 0.038947675 0.14351805 0.21011993 -0.13006394 -0.10998563 -0.034487512 0.13958423 0.012383715 -0.14560157 -0.0683789 0.1546691 0.014674564 0.08735915 -0.12602372 -0.12274198 0.13296989 -0.030029 -0.06929927 -0.034690674 -0.08095761 0.0941748 0.08377363 -0.10211464
110 -0.20233391 -0.17636617 -0.048227087 -0.028242366 -0.0033997402 -0.12523776 -0.15897413 -0.071341805 0.0032237966 -0.05582524 -0.11534463 0.09035944 0.01804837 -0.030661218 0.05684367 -0.16712695 0.14181753 0.08647193 0.013088517 -0.07716274 0.103722245 0.10871771 0.041026294 -0.066329464 -0.08587685 0.13091286 -0.035719544 -0.060206953 -0.046535242 -0.031697925 0.029508794 0.08078959 0.02313288 0.10790107 -0.051795658 -0.0005371679 -0.03841806 -0.08555476 0.055855695 -0.024245389 -0.1563152 0.16364108 -0.061538592 -0.021843664 0.026361829 0.035037555 -0.07781447 -0.12453849 -0.037995845 0.03563022 -0.07230967 -0.021558654 0.03298785 0.26923746 -0.10896816 -0.12402818 -0.13073936 0.039296992 0.0031472875 0.008839742 -0.11652025 -0.11116928 -0.13823578 -0.19208595 -0.121490926 -0.033186603 -0.071385756 0.09475412 -0.15790763 -0.050307404 0.026287746 -0.00796766 0.07713248 -0.063985765 0.13669209 0.003911446 0.11413004 -0.044917848 0.1222579 -0.123765565 -0.054404948 0.050225064 0.062787384 -0.060101643 0.04376311 -0.05944687 0.18877119 -0.0053082854 -0.032318156 0.08510529 0.09482209 0.0381963 0.012065802 -0.15810376 -0.03732412 0.15274975 0.12383221 -0.13113397 0.14385645 0.035462 0.048694663 -0.051289693 0.037539233 -0.069797836 0.04121899 0.042514525 0.15960589 0.220328 -0.14135732 -0.11522879 -0.0442739 0.14919387 0.011526661 -0.10787877 -0.052183628 0.12217626 0.00746067 0.066844426 -0.10008877 -0.09445216 0.103286326 -0.023014411 -0.07176015 -0.03653227 -0.048419073 0.06040997 0.07874719 -0.08889345
126 -0.20759547 -0.17795204 -0.053247813 -0.039427202 -0.0048878235 -0.11276577 -0.16824956 -0.06447038 0.007876181 -0.047510292 -0.10669643 0.08919846 0.010582041 -0.02465539 0.060544457 -0.18226317 0.14138207 0.08281742 0.0057504317 -0.06934819 0.10370489 0.11955207 0.047555882 -0.066858344 -0.08921127 0.14553498 -0.036830742 -0.067127354 -0.044759985 -0.035811733 0.024707139 0.07107442 0.024522746 0.09229887 -0.04660621 -0.0042207506 -0.045657866 -0.0868349 0.05790655 -0.023172399 -0.14918238 0.15243702 -0.051561702 -0.021437302 0.021254927 0.03100921 -0.07614249 -0.11892036 -0.032180473 0.043182917 -0.06589355 -0.010073488 0.04053236 0.24638763 -0.09108761 -0.115954496 -0.11796317 0.024972135 -0.003818809 -0.0011536735 -0.10397665 -0.09780823 -0.11435992 -0.17395295 -0.11815672 -0.029800085 -0.07142311 0.093451366 -0.14817308 -0.052829284 0.03259112 -0.012738524 0.074141555 -0.06661945 0.13218458 -0.0048813117 0.11210211 -0.034714893 0.11538831 -0.10727634 -0.052663356 0.041855354 0.05130288 -0.061375502 0.029551176 -0.052789498 0.17083843 -0.0036042337 -0.03739672 0.07971861 0.09903164 0.02384461 0.01802882 -0.1490738 -0.032491837 0.13853355 0.11010994 -0.13336323 0.12822738 0.03349751 0.03585651 -0.04532547 0.030775195 -0.06641992 0.043270905 0.042125683 0.14307156 0.21259344 -0.13590215 -0.115795285 -0.043287955 0.14745316 0.018966438 -0.14720705 -0.06954396 0.15711612 0.015786244 0.0896714 -0.119600095 -0.10940916 0.1339263 -0.028248515 -0.0716336 -0.04021779 -0.08002188 0.08657001 0.085046515 -0.10424547
2 -0.2000812 -0.17693177 -0.05281819 -0.029973458 -0.0047527654 -0.117222704 -0.16608822 -0.06537418 0.0014381902 -0.046709884 -0.10484115 0.086768754 0.008530317 -0.03104254 0.061429057 -0.17464659 0.13064069 0.0781059 -1.1515636e-05 -0.06843108 0.10002252 0.111385755 0.042709526 -0.057075724 -0.0877667 0.14624868 -0.038319882 -0.06695889 -0.046614934 -0.03165094 0.029181797 0.07081845 0.018925656 0.09131687 -0.04831883 -0.0017483945 -0.0360769 -0.08397096 0.05430889 -0.016338794 -0.13601252 0.14817952 -0.052751526 -0.026903303 0.019370444 0.031652793 -0.076805465 -0.12135809 -0.033762097 0.03555692 -0.059057973 -0.008508018 0.042555165 0.25013405 -0.09359559 -0.12104208 -0.11975877 0.028975403 -0.0072340937 0.0038168284 -0.10246914 -0.098505236 -0.12358811 -0.17089589 -0.11792111 -0.028811794 -0.07162722 0.08984387 -0.14978997 -0.051921885 0.034012564 -0.0036480597 0.070571676 -0.074658215 0.12857926 -0.0033723933 0.112422496 -0.03561573 0.116706245 -0.110354505 -0.056162328 0.048661634 0.06265605 -0.057569038 0.03665301 -0.04966602 0.1750527 -0.0064145783 -0.041202612 0.082414806 0.1108143 0.032868948 0.026079396 -0.15209244 -0.04264669 0.14190555 0.10973242 -0.13004544 0.13196455 0.02672187 0.03303142 -0.04869299 0.03113999 -0.07064354 0.044338178 0.03814064 0.16205548 0.22621079 -0.1416354 -0.11305196 -0.03819874 0.1586948 0.010346193 -0.15514624 -0.07065072 0.16686174 0.015769366 0.09229062 -0.12709266 -0.12558804 0.13599935 -0.03916448 -0.068109535 -0.044616114 -0.0871504 0.101571344 0.08709486 -0.1076907
225 -0.20068052 -0.16480541 -0.044131957 -0.02822312 -0.0052467515 -0.10302126 -0.15513499 -0.07032985 -0.004373886 -0.053004146 -0.09610774 0.0917119 0.011304361 -0.027422318 0.06266908 -0.18035012 0.13694403 0.07797977 0.0030855937 -0.07530737 0.10083544 0.11344347 0.037853602 -0.06229837 -0.077634744 0.13863893 -0.031197086 -0.06389648 -0.0395928 -0.036763716 0.018581659 0.08037277 0.0274619 0.10241997 -0.04881767 -0.0071199797 -0.040439006 -0.07681158 0.04789053 -0.01547283 -0.15402883 0.14791109 -0.05324341 -0.025673537 0.02996589 0.032674406 -0.08006381 -0.118009984 -0.032647364 0.03246154 -0.06283461 -0.014925996 0.03529252 0.25226468 -0.09340118 -0.11215759 -0.11861401 0.020193113 0.0025819787 0.0016972044 -0.103791595 -0.09185583 -0.13008796 -0.17764486 -0.11882892 -0.0367667 -0.06760947 0.09605946 -0.1494565 -0.05323832 0.03266113 -0.01262514 0.07653822 -0.06971532 0.1281662 -0.0019119789 0.11779604 -0.043376144 0.1257718 -0.114543125 -0.062247835 0.048416533 0.061869286 -0.06683914 0.037706196 -0.060099576 0.18182617 -0.0065524275 -0.038277682 0.08895709 0.10524216 0.031073822 0.018458528 -0.16027261 -0.04155614 0.1402772 0.122530654 -0.13497956 0.14089422 0.034858227 0.04448775 -0.05482381 0.027586259 -0.06977396 0.04207612 0.040111627 0.14594038 0.20335098 -0.13423069 -0.1139341 -0.03924081 0.14791851 0.013556813 -0.14261235 -0.06546314 0.16324893 0.015485101 0.083493695 -0.12329795 -0.11578434 0.12803286 -0.035340518 -0.06880072 -0.045115985 -0.07417418 0.082770176 0.09156141 -0.1114777
87 -0.18689725 -0.15525188 -0.040767908 -0.02497811 -0.005404675 -0.10087415 -0.1551612 -0.065112986 0.0023699042 -0.057270706 -0.10783619 0.08918523 0.011624037 -0.026744314 0.061871067 -0.15831095 0.12892713 0.08046384 0.005546343 -0.07434435 0.10042281 0.106021665 0.038681954 -0.061149493 -0.08212439 0.13909373 -0.040287826 -0.06019083 -0.03785327 -0.031860307 0.023916377 0.0667046 0.021004302 0.095640354 -0.038801573 -0.009619959 -0.03185576 -0.06132069 0.03877751 -0.013838464 -0.14889088 0.14400454 -0.057321373 -0.01878585 0.027907569 0.032465894 -0.08921891 -0.11829242 -0.029251866 0.03400981 -0.06501272 -0.016147822 0.026637044 0.25080737 -0.09874654 -0.11395993 -0.11086177 0.027508784 -0.0009187635 0.0036807132 -0.09948266 -0.08948145 -0.12614425 -0.17298461 -0.11865356 -0.021161208 -0.07035589 0.08857521 -0.14191075 -0.047039058 0.029455217 -0.012802025 0.07672726 -0.06913884 0.13738526 -0.00032735875 0.11739118 -0.045427248 0.12807111 -0.11496884 -0.0610037 0.048987422 0.053378362 -0.05233129 0.029750744 -0.05911683 0.17440376 -0.012212877 -0.036084093 0.09002321 0.101941764 0.030594483 0.015557008 -0.16163869 -0.035336558 0.14499639 0.12668133 -0.13187633 0.13954042 0.021563442 0.045718793 -0.053250343 0.039422065 -0.07659691 0.042208068 0.04016987 0.1578808 0.23178819 -0.14193872 -0.1220247 -0.043113403 0.15655304 0.01113145 -0.14753985 -0.06869761 0.1653179 0.012884698 0.09508378 -0.13071215 -0.12538016 0.13355163 -0.02454961 -0.078312956 -0.05008008 -0.07413624 0.08951698 0.09655033 -0.11293814
54 -0.21239829 -0.17986888 -0.04906876 -0.029456433 -0.0030448132 -0.12182251 -0.16468091 -0.07225665 0.00909832 -0.047464564 -0.1067166 0.08240928 0.010115087 -0.026230626 0.06328932 -0.18551016 0.14304988 0.08098792 0.0062964396 -0.07531046 0.10351378 0.12110925 0.05104778 -0.057941582 -0.080740444 0.14708534 -0.04036825 -0.06431519 -0.040858384 -0.039241202 0.021628551 0.071718805 0.016248971 0.08875191 -0.041520532 -0.002776435 -0.038469136 -0.06792859 0.050711654 -0.012920249 -0.13974842 0.14027834 -0.05489917 -0.023630798 0.021665314 0.03141228 -0.07705041 -0.12409018 -0.030842805 0.033710457 -0.06618265 -0.0073839705 0.044108804 0.23664337 -0.08971529 -0.11568166 -0.11311527 0.025186745 -0.007817022 0.00044700198 -0.09380416 -0.092312545 -0.118645124 -0.16466784 -0.11793656 -0.030174393 -0.07131792 0.08733162 -0.14043708 -0.043070797 0.035775892 -0.0049317894 0.07026035 -0.061096873 0.12253715 -0.00060329586 0.10411417 -0.035372883 0.11143751 -0.10308955 -0.047658797 0.042589262 0.055054765 -0.06162324 0.030572861 -0.0571931 0.16795743 -0.005309517 -0.045273583 0.086482465 0.10488299 0.036588896 0.01858715 -0.14932328 -0.03909205 0.13740344 0.103740476 -0.13380875 0.12878971 0.024235273 0.035613075 -0.048516586 0.03602848 -0.07105797 0.045163736 0.03512523 0.1551282 0.22698101 -0.14006078 -0.1139479 -0.045971327 0.15339623 0.009622301 -0.15134901 -0.07291616 0.16684197 0.014728361 0.092452 -0.1301782 -0.1310704 0.14295466 -0.03444149 -0.07383831 -0.046537217 -0.088180386 0.097618006 0.08905997 -0.10940892
224 -0.20420161 -0.17409691 -0.053877607 -0.033215288 0.002613743 -0.118560895 -0.16196504 -0.06309435 0.006249806 -0.05140555 -0.10658626 0.08831117 0.005905665 -0.025353476 0.061542016 -0.17087582 0.13936847 0.07779304 0.00096539746 -0.06625106 0.10049748 0.108248554 0.039994013 -0.05823827 -0.08468761 0.14449237 -0.032062963 -0.06654239 -0.047757205 -0.036184553 0.024362365 0.06640452 0.02314714 0.084140725 -0.050497662 -0.006424747 -0.03817633 -0.08094385 0.052703824 -0.013566639 -0.152641 0.15201904 -0.060982335 -0.02216671 0.025672557 0.030420132 -0.07682412 -0.1262602 -0.035463843 0.03866352 -0.065494835 -0.009992993 0.0469448 0.24576923 -0.08908388 -0.12193118 -0.12611423 0.020510564 -0.0049418597 0.003916121 -0.09742885 -0.105583 -0.120231695 -0.17131554 -0.11672182 -0.030858362 -0.074264966 0.086707175 -0.1442798 -0.04788127 0.034019306 -0.008416066 0.075624995 -0.072877124 0.13107347 -0.006538541 0.115630426 -0.039078835 0.11762939 -0.11395201 -0.05906645 0.0502929 0.058957756 -0.058972917 0.03335394 -0.0576538 0.17726389 0.0006429358 -0.036383033 0.082544595 0.101506434 0.03105056 0.022218259 -0.15191595 -0.041227248 0.13880573 0.11389839 -0.1336519 0.13589473 0.02309722 0.026893266 -0.04906603 0.03516207 -0.06901437 0.045192733 0.0404135 0.16173261 0.22175182 -0.13981068 -0.11626813 -0.040162973 0.15928832 0.009984682 -0.13951717 -0.0638257 0.1579277 0.012322 0.08615601 -0.11797735 -0.11536272 0.13167076 -0.035328146 -0.06419379 -0.038649563 -0.080972105 0.08606229 0.08092773 -0.10315056
142 -0.2010022 -0.17653933 -0.05177765 -0.031500645 -0.0025983783 -0.10724829 -0.15947701 -0.06401928 0.004040317 -0.049978223 -0.11260688 0.083231434 0.015893241 -0.026786398 0.069102034 -0.18757106 0.14839743 0.0919412 0.005918329 -0.0703661 0.10371318 0.12016568 0.042043775 -0.0739413 -0.08129275 0.15602301 -0.03611379 -0.06595692 -0.03974001 -0.024248678 0.020135345 0.06883321 0.026433175 0.100799754 -0.048684876 0.00034672796 -0.03801428 -0.07646742 0.05039417 -0.02016622 -0.14725645 0.15071726 -0.051971514 -0.025673917 0.021417486 0.03417269 -0.0884139 -0.11657151 -0.028597748 0.04285288 -0.0691218 -0.006139194 0.04337376 0.2584664 -0.094428554 -0.120109744 -0.12209201 0.027780563 0.0037375255 -0.0058790557 -0.10225575 -0.099124044 -0.13177352 -0.18301314 -0.12622036 -0.027336823 -0.072030164 0.09384064 -0.14702812 -0.043106094 0.028234841 -0.00833727 0.07393049 -0.080566965 0.1357539 -0.0049218624 0.12076881 -0.04845079 0.12181304 -0.12558068 -0.06272736 0.04470121 0.06440521 -0.05742011 0.03283202 -0.05966836 0.18844233 -0.007152183 -0.04870699 0.0906613 0.10714802 0.033539537 0.017119775 -0.1538672 -0.03738265 0.13755879 0.11472801 -0.13091323 0.13355893 0.028613847 0.036630932 -0.05340492 0.03803798 -0.07548273 0.039897036 0.035313495 0.15074731 0.21902843 -0.13491312 -0.1111432 -0.041293424 0.14471179 0.008175218 -0.13910289 -0.060582023 0.1542938 0.01845359 0.08532903 -0.1149502 -0.11601635 0.12963603 -0.024512457 -0.069690004 -0.03873723 -0.07801136 0.085863575 0.08166542 -0.09631629
48 -0.20984368 -0.16775005 -0.049771324 -0.031268258 -0.0037156588 -0.11152833 -0.15977715 -0.069670014 0.0027165357 -0.058146935 -0.12372828 0.09907519 0.01554 -0.02451653 0.067565106 -0.18946062 0.13831295 0.08739729 0.008377257 -0.067350104 0.10269994 0.10841882 0.038819373 -0.068666995 -0.08269674 0.14645682 -0.04064083 -0.06659339 -0.04804832 -0.03923926 0.02992103 0.08116014 0.026940843 0.10967088 -0.055569362 -0.009003684 -0.035273783 -0.07621272 0.05060733 -0.011289634 -0.15147184 0.14657868 -0.055492368 -0.022777654 0.022630505 0.03192067 -0.078790024 -0.12017959 -0.037459966 0.03060397 -0.059254307 -0.007809893 0.035505153 0.2545641 -0.09595698 -0.11284987 -0.12383018 0.031435438 -0.0027295987 -0.0040498367 -0.10132763 -0.09474627 -0.123443775 -0.17205116 -0.10978893 -0.031577826 -0.0644566 0.08636844 -0.13452701 -0.047397416 0.022784624 -0.010898181 0.07069424 -0.065495886 0.13633992 0.002227797 0.11039832 -0.038668297 0.12422897 -0.11308227 -0.051552325 0.049182065 0.059555 -0.058159355 0.034800697 -0.062777154 0.1794261 -0.00060783344 -0.034998212 0.09010909 0.10142854 0.034876093 0.015452934 -0.15274498 -0.039358854 0.1361879 0.11015671 -0.12739725 0.13262647 0.028522449 0.035259392 -0.05356072 0.03704015 -0.07545199 0.036910906 0.039781183 0.145152 0.21808289 -0.14031911 -0.11886426 -0.045463342 0.14672711 0.018000005 -0.14409329 -0.07287035 0.15808506 0.015522645 0.08756516 -0.121104956 -0.11346337 0.13508572 -0.02918356 -0.06790655 -0.036372572 -0.07724522 0.08822529 0.09047907 -0.10834614
138 -0.22468686 -0.19049037 -0.057625413 -0.03567467 -0.0040264963 -0.120965876 -0.17738359 -0.07653529 0.011492917 -0.05458406 -0.11271701 0.095102176 0.0038979503 -0.031250775 0.066814825 -0.19694075 0.14100514 0.08388044 0.005470946 -0.079910964 0.1125611 0.12649882 0.041703068 -0.061513867 -0.089507066 0.15448765 -0.035906676 -0.07015332 -0.043387618 -0.032513246 0.027050411 0.08415056 0.018641781 0.10143534 -0.053912204 -0.0073016128 -0.047159646 -0.08625231 0.060512 -0.009004929 -0.14806046 0.15225802 -0.05845616 -0.027725175 0.025923565 0.03397804 -0.079409435 -0.13339862 -0.03189954 0.0416139 -0.06538999 -0.008437701 0.038711637 0.25449884 -0.09519975 -0.120931424 -0.13108104 0.01973865 -0.005497455 0.004498466 -0.10240073 -0.102189146 -0.12540874 -0.17325027 -0.110030904 -0.034181446 -0.06331536 0.0839775 -0.14391926 -0.046981376 0.027729157 -0.006512738 0.07949632 -0.059955813 0.11796061 -0.0007365709 0.099697 -0.041668482 0.10918557 -0.10589765 -0.04818363 0.047266684 0.04670457 -0.054593235 0.034371316 -0.052691434 0.1630949 0.0034070562 -0.03541422 0.07850948 0.09711774 0.033686474 0.019283043 -0.14801364 -0.033594165 0.13479449 0.105849594 -0.12147843 0.12079492 0.0267726 0.031112807 -0.044872995 0.03186869 -0.064533494 0.038330074 0.03993306 0.1471892 0.20356756 -0.13431887 -0.10356427 -0.03585004 0.14588156 0.0138396295 -0.12483906 -0.060057506 0.14327112 0.0137101775 0.077306226 -0.11557016 -0.10637676 0.12259967 -0.030381618 -0.062545955 -0.040156316 -0.06935135 0.082472965 0.07385681 -0.095394224
1 -0.21849021 -0.19236138 -0.04952689 -0.044990614 0.0053434162 -0.1264848 -0.17329147 -0.06758708 0.005896413 -0.046726897 -0.096987255 0.07683777 0.011234708 -0.023398474 0.06020393 -0.18696706 0.13256848 0.08028981 0.0101963105 -0.07018976 0.0950258 0.110132165 0.04657428 -0.062265705 -0.082065076 0.14988104 -0.03581757 -0.060514472 -0.042930324 -0.0345557 0.018497799 0.07228828 0.020592896 0.09517358 -0.04797263 -0.009849154 -0.035154626 -0.075250685 0.05538653 -0.017785579 -0.14891133 0.14515506 -0.049617965 -0.02046488 0.024844117 0.02668819 -0.08707919 -0.12436673 -0.032155354 0.040280595 -0.06482389 -0.00028265317 0.03737109 0.24930252 -0.09255012 -0.11842088 -0.11823021 0.028049385 -0.00076691766 -0.0035500803 -0.095211424 -0.09506356 -0.12346717 -0.16889606 -0.12037188 -0.027568946 -0.071895614 0.08918546 -0.14586104 -0.04518058 0.030740818 -0.010435616 0.07539263 -0.07260655 0.12185234 -0.00724907 0.113091804 -0.043284144 0.11427792 -0.11332065 -0.054425396 0.039696556 0.06166076 -0.057426456 0.021990076 -0.06207513 0.17302386 -0.006638138 -0.037100315 0.08325438 0.10278376 0.03093217 0.019247266 -0.14209235 -0.03643304 0.1255823 0.11422881 -0.13245842 0.12870705 0.027002176 0.034189504 -0.04815693 0.035885245 -0.07356776 0.04664357 0.046511315 0.15479074 0.21912938 -0.1413732 -0.11386715 -0.04320991 0.14769264 0.012705012 -0.14464098 -0.07010109 0.16220823 0.015337902 0.09452356 -0.1252856 -0.12620854 0.13842265 -0.023762817 -0.07981164 -0.040934134 -0.08126233 0.08872542 0.081299 -0.104004465
244 -0.22105159 -0.18469414 -0.05120389 -0.03505826 -8.60363e-05 -0.121226184 -0.17479086 -0.074380614 0.0114676505 -0.04302724 -0.10200664 0.07870573 0.016388016 -0.03645413 0.0538531 -0.16656797 0.1458591 0.084757335 0.01111566 -0.070895314 0.1090833 0.1223842 0.04230262 -0.063134864 -0.08924285 0.1500949 -0.041106332 -0.07047099 -0.0362546 -0.031099748 0.021626385 0.062226273 0.017191563 0.096565165 -0.04263118 -0.002162543 -0.037500743 -0.079810806 0.050849054 -0.016492413 -0.13893455 0.1522648 -0.05519279 -0.023380205 0.020031985 0.030402472 -0.075988986 -0.11745951 -0.03416373 0.035834268 -0.06840045 -0.00786428 0.036020093 0.25375637 -0.09841317 -0.11553061 -0.11934662 0.02765354 -0.0040994813 0.008300493 -0.10101371 -0.10526867 -0.12690619 -0.17519835 -0.11400056 -0.027790155 -0.070690855 0.08926103 -0.14626355 -0.04657254 0.03198496 -0.0058903336 0.07092873 -0.061972875 0.1255145 0.0010519554 0.10954111 -0.034454525 0.120244704 -0.107673734 -0.05501141 0.047890726 0.05760147 -0.054999445 0.03484954 -0.055318553 0.17019032 -0.0042639123 -0.039834686 0.083809495 0.10085922 0.033735868 0.016620599 -0.1497927 -0.03725428 0.14042681 0.105711676 -0.13032784 0.12887238 0.028339671 0.035787757 -0.041817416 0.031554766 -0.067668 0.046038818 0.040848512 0.15344204 0.22596993 -0.13698442 -0.11756979 -0.035731368 0.15216272 0.01731651 -0.14193039 -0.061968602 0.15811615 0.008422604 0.08403454 -0.12129099 -0.11188793 0.13005368 -0.036965057 -0.07291581 -0.041803308 -0.07546222 0.08730265 0.08043489 -0.10813831
119 -0.20664653 -0.17162909 -0.049379252 -0.029357577 0.0011922427 -0.114617124 -0.16894029 -0.071355954 -0.002544428 -0.048598237 -0.10919808 0.08216361 0.009959168 -0.031359628 0.054513313 -0.16528228 0.12738152 0.08243255 0.006297875 -0.06917961 0.09317803 0.10621893 0.0389315 -0.06065331 -0.07739211 0.13433251 -0.034761734 -0.056751415 -0.038953412 -0.030980961 0.021393863 0.06639642 0.01748388 0.10234878 -0.047254406 -0.005795801 -0.03280132 -0.07225873 0.04414909 -0.01733639 -0.14059971 0.14281324 -0.055430826 -0.025757695 0.025563164 0.03315028 -0.085811704 -0.11651036 -0.032026246 0.037101217 -0.05768482 -0.010131246 0.030469405 0.24180067 -0.089412056 -0.11139548 -0.11699457 0.027427537 -0.0023581767 -0.0017979689 -0.10281915 -0.08857284 -0.11967443 -0.16567045 -0.11568652 -0.03138605 -0.07350579 0.0951797 -0.14513923 -0.051527265 0.030230409 -0.009310464 0.074441366 -0.07109488 0.13526629 -0.0039190706 0.11753131 -0.045852493 0.12578323 -0.1143959 -0.05799973 0.054305885 0.057715863 -0.049956635 0.033568 -0.053349823 0.17274885 -0.0058101774 -0.035357416 0.085001744 0.10308361 0.030583804 0.026236385 -0.15831167 -0.039520282 0.14094155 0.11606736 -0.12217151 0.13534315 0.019779895 0.03532094 -0.05143903 0.03139018 -0.07204679 0.048644762 0.04211002 0.15377223 0.22510251 -0.14280964 -0.12484142 -0.042563714 0.16360407 0.009353399 -0.15460256 -0.06726225 0.16579638 0.01695417 0.0965086 -0.12436673 -0.12047023 0.14086358 -0.030328173 -0.07501788 -0.045186054 -0.078390904 0.0915156 0.09093358 -0.112999745
246 -0.17638521 -0.15588856 -0.039837886 -0.028277226 -0.010370272 -0.10210041 -0.14718382 -0.06767929 0.0013787043 -0.04438841 -0.101301976 0.08713327 0.016498959 -0.03211106 0.06309269 -0.18563834 0.14011677 0.08418163 0.0098371515 -0.07378121 0.10071093 0.112076536 0.036756396 -0.06604944 -0.08069109 0.1539465 -0.035252683 -0.07356032 -0.04243175 -0.025832336 0.016473562 0.058189437 0.027881868 0.102118894 -0.05070111 -0.00847168 -0.029876936 -0.08053682 0.04982547 -0.01103539 -0.13654721 0.1420051 -0.050507896 -0.01976767 0.025240352 0.029106503 -0.08421681 -0.112766065 -0.039236087 0.03403885 -0.065023325 -0.0086948555 0.036616128 0.25565204 -0.08903498 -0.11566149 -0.12063346 0.026619587 -0.005412875 -0.0057767453 -0.10768284 -0.10096188 -0.12930685 -0.17630407 -0.12724262 -0.028067956 -0.06995303 0.093121454 -0.15212268 -0.052843478 0.031168712 -0.0060619516 0.074424714 -0.077454515 0.1376807 -0.0005439024 0.1191158 -0.040212154 0.1209276 -0.11485191 -0.063115515 0.0515645 0.062835835 -0.058174975 0.028733138 -0.056901045 0.18203227 -0.008456154 -0.04153775 0.09083508 0.104229935 0.030794527 0.016981998 -0.15687159 -0.03856667 0.1410153 0.11745438 -0.13440007 0.1419351 0.022882793 0.03997264 -0.049095053 0.030509423 -0.07148275 0.047615305 0.04363294 0.16042371 0.23481189 -0.14219674 -0.12566638 -0.040964965 0.15628785 0.014522745 -0.14100432 -0.05841037 0.1566697 0.010651109 0.08377251 -0.11941777 -0.1168524 0.12545197 -0.033999737 -0.076554865 -0.04290654 -0.07950448 0.08466119 0.07838202 -0.104681365
146 -0.20055303 -0.16148104 -0.04288936 -0.026702413 -0.0052710297 -0.109557495 -0.15325613 -0.06623941 0.007863297 -0.0557238 -0.119449705 0.10249593 0.007145099 -0.030231077 0.07792475 -0.19253832 0.14372559 0.086031355 0.0047194115 -0.081337154 0.10700889 0.115347445 0.048768762 -0.06272289 -0.08550894 0.15363757 -0.03735773 -0.06570311 -0.04149585 -0.03519847 0.02011044 0.07556772 0.019068746 0.096730694 -0.047791347 -0.011446875 -0.037963443 -0.08336102 0.04761344 -0.02100118 -0.14588717 0.14576767 -0.05040259 -0.026831258 0.025157068 0.029178621 -0.083339565 -0.116760135 -0.032701902 0.0364079 -0.061170746 -0.016459191 0.03182443 0.24358697 -0.08772644 -0.11159459 -0.11170089 0.018976135 0.0019850747 -0.0034995433 -0.09573598 -0.08975089 -0.120374285 -0.17209303 -0.12646075 -0.030317258 -0.072523445 0.09616494 -0.14669304 -0.0490588 0.030094631 -0.0038823958 0.07090347 -0.072673105 0.12705119 -0.0037834423 0.11778737 -0.04338999 0.12625614 -0.121326305 -0.061257504 0.053422414 0.059275806 -0.06355352 0.03612413 -0.05920082 0.18063995 -0.0015838307 -0.040332418 0.083315544 0.106063634 0.03400685 0.025100484 -0.16160913 -0.03805083 0.1403465 0.115134016 -0.12516333 0.1404859 0.028694527 0.04276768 -0.052913804 0.03168749 -0.06990229 0.042397358 0.042035334 0.15675208 0.21920572 -0.14265339 -0.119614504 -0.03495731 0.14797394 0.00699058 -0.1369154 -0.063409574 0.15854919 0.012573601 0.083792746 -0.122037925 -0.112390295 0.13222723 -0.035370417 -0.07096587 -0.040792674 -0.073978044 0.08543037 0.08514572 -0.10660053
186 -0.20581058 -0.1723792 -0.04955627 -0.022951072 -0.0083992435 -0.11856609 -0.17336698 -0.07134455 0.0058586053 -0.058637083 -0.11191493 0.098297186 0.010774741 -0.03570609 0.06849738 -0.17547639 0.13832223 0.08413436 0.0058030183 -0.0718676 0.1092758 0.112406224 0.040027685 -0.057063296 -0.085718445 0.15152259 -0.035524502 -0.07232875 -0.053096186 -0.03693097 0.028834267 0.07697564 0.022782898 0.10590865 -0.050860155 -0.004939104 -0.03599061 -0.07115468 0.051009472 -0.015043886 -0.14870805 0.1503445 -0.060639124 -0.023332598 0.018428179 0.03118295 -0.08230798 -0.12083081 -0.029797157 0.034869708 -0.0643936 -0.01409011 0.03445294 0.2561936 -0.09045452 -0.119679436 -0.12321258 0.027092384 -0.0004968608 0.0019430802 -0.10325507 -0.100538075 -0.12720604 -0.17519195 -0.114826806 -0.027997887 -0.06910607 0.091064386 -0.14772709 -0.05306767 0.029666575 -0.0028784098 0.070140965 -0.06517809 0.12519409 -0.0019841425 0.11163397 -0.038402967 0.12194695 -0.112616375 -0.05082316 0.052491512 0.060086556 -0.058783412 0.030781303 -0.051855333 0.17028196 -0.010226207 -0.03539632 0.0840282 0.09884742 0.03482359 0.023377841 -0.16217539 -0.03886004 0.14186144 0.1068428 -0.12521423 0.13630717 0.02713667 0.03784109 -0.04756631 0.0331872 -0.06470876 0.04137844 0.034210127 0.15051523 0.22196233 -0.13599607 -0.11909107 -0.042245075 0.15213022 0.016867945 -0.13349468 -0.062933594 0.14838625 0.013239287 0.0768243 -0.11483857 -0.11226094 0.12184784 -0.035884406 -0.06688508 -0.03729507 -0.073017135 0.08638704 0.078636326 -0.10593676
278 -0.1867656 -0.15563376 -0.04805082 -0.02709702 -0.003334127 -0.10864377 -0.14451237 -0.060984075 0.0042129853 -0.052110348 -0.10324909 0.08657874 0.017151028 -0.035606273 0.06544282 -0.19816966 0.14414632 0.08541863 0.012788019 -0.0741669 0.10657117 0.1161958 0.044816352 -0.063113935 -0.09116193 0.15305445 -0.034037374 -0.06977562 -0.044774543 -0.029244015 0.02550532 0.07525423 0.022522455 0.098541476 -0.04842985 -0.0040298766 -0.030011624 -0.07676486 0.047290187 -0.01376415 -0.1451524 0.1553377 -0.052818894 -0.02057476 0.022820257 0.026578967 -0.08133852 -0.124077715 -0.035560213 0.03302849 -0.061281554 -0.008394663 0.027831495 0.24851792 -0.09880218 -0.11316306 -0.11744529 0.024514068 -0.002487219 0.0032539323 -0.10551996 -0.08962964 -0.12921488 -0.17208447 -0.114315756 -0.02515405 -0.07231012 0.08827294 -0.14745833 -0.047405336 0.033256836 -0.0050878604 0.081691206 -0.075007096 0.14114341 0.0006898143 0.11892794 -0.03555631 0.12198138 -0.118047826 -0.055812474 0.051015846 0.06135036 -0.058772583 0.03430549 -0.060645994 0.18767661 -0.0054006847 -0.03911934 0.08697328 0.1118095 0.03420867 0.020100204 -0.15312748 -0.034673676 0.13659361 0.11563643 -0.13121617 0.13254923 0.03190389 0.043226037 -0.049825445 0.03445018 -0.06957369 0.047012094 0.045220863 0.16380914 0.23420618 -0.15128796 -0.12486631 -0.040380817 0.16032845 0.015571256 -0.14910813 -0.067447536 0.16287182 0.008105642 0.08845559 -0.13106215 -0.12277688 0.13442187 -0.03308721 -0.08089176 -0.046164885 -0.078532994 0.08831267 0.085549735 -0.11482665
57 -0.21005452 -0.17883413 -0.05478289 -0.03141935 -5.051017e-05 -0.12470413 -0.1703537 -0.070607185 -0.0015855067 -0.037961897 -0.08526996 0.06866591 0.015679853 -0.03157535 0.04303015 -0.13614924 0.13925913 0.08329301 0.008897227 -0.06794373 0.09621162 0.11249434 0.047506683 -0.070654176 -0.085588686 0.15468241 -0.03993694 -0.061546963 -0.023079935 -0.026782524 0.01202447 0.061910287 0.01362577 0.08419771 -0.038638465 -0.001430831 -0.038564064 -0.07056728 0.044262685 -0.018159946 -0.14195944 0.15141864 -0.054256815 -0.023121996 0.016455086 0.032084152 -0.082992874 -0.11965786 -0.029819742 0.035360385 -0.06776193 -0.009250014 0.02833489 0.24247304 -0.094027184 -0.11521449 -0.11100084 0.037274197 0.002321931 -0.00020270314 -0.10405006 -0.09312935 -0.12826794 -0.17428687 -0.12454336 -0.03612261 -0.07575882 0.09941577 -0.15496865 -0.048335724 0.03720977 -0.008795161 0.07265468 -0.07089881 0.13752526 -0.005016863 0.11252351 -0.042502716 0.12891297 -0.11373022 -0.051131785 0.055356026 0.06438694 -0.056257498 0.03998246 -0.06299562 0.17832983 -0.0060476875 -0.040251255 0.08483729 0.10188684 0.032892972 0.017896272 -0.15973614 -0.041802753 0.14733827 0.119801104 -0.135664 0.14563264 0.024101594 0.045480978 -0.048696835 0.035126273 -0.07804929 0.0345076 0.04417025 0.14577271 0.22233583 -0.13662517 -0.11491234 -0.03985294 0.14812577 0.009474475 -0.147531 -0.070810154 0.16791499 0.017598588 0.08915756 -0.12655462 -0.122636676 0.14066835 -0.033033956 -0.08046331 -0.043632668 -0.07763672 0.0913516 0.08740602 -0.114829384
52 -0.19005753 -0.15602592 -0.04199935 -0.028196601 -0.00929504 -0.10392879 -0.14507525 -0.06369498 0.006296066 -0.058364153 -0.11433852 0.09215038 0.013933549 -0.024983572 0.057744443 -0.18603855 0.13265772 0.08542222 0.0076545095 -0.0719919 0.100609474 0.106641434 0.039474532 -0.061282918 -0.08544596 0.13889629 -0.03577409 -0.055768598 -0.035422664 -0.036384687 0.01933333 0.0708321 0.023476744 0.09144454 -0.041391544 -0.008029767 -0.028805137 -0.06908055 0.047275495 -0.017719526 -0.14649957 0.14910017 -0.056899562 -0.022295274 0.028408956 0.033707146 -0.080869466 -0.11515979 -0.03690341 0.0344855 -0.06392917 -0.013156778 0.03788376 0.24167973 -0.08929051 -0.1164703 -0.12020888 0.019258745 0.0003567459 -0.0007878847 -0.1062719 -0.09066527 -0.12690403 -0.17890456 -0.12241192 -0.0316207 -0.06602524 0.09513417 -0.1457506 -0.046521682 0.03028963 -0.0054016192 0.07989954 -0.06654847 0.13447621 -0.0020045275 0.108095355 -0.04327573 0.11910109 -0.11524925 -0.051755928 0.047208495 0.056102984 -0.058426138 0.03554499 -0.05823979 0.1764109 -0.0049595744 -0.03888228 0.08874232 0.10617623 0.03395896 0.019714324 -0.15379283 -0.034053314 0.13878703 0.11454264 -0.11857714 0.1287396 0.030563002 0.041801844 -0.050194956 0.03573726 -0.074395105 0.05013207 0.0441313 0.1624986 0.22869027 -0.14957921 -0.11999699 -0.04559284 0.15804492 0.01496024 -0.15605241 -0.06980538 0.1672338 0.006475218 0.09433163 -0.13098685 -0.123524755 0.13799077 -0.02918065 -0.07864091 -0.041879997 -0.07633209 0.08849691 0.087106384 -0.11760129
260 -0.21294588 -0.17520742 -0.051357284 -0.029654734 -0.0066284947 -0.12319124 -0.17081329 -0.063915916 0.01957487 -0.059748713 -0.119798675 0.102547474 0.00902727 -0.034554843 0.07835075 -0.21034396 0.1436963 0.08731153 0.0033999125 -0.07016194 0.11082973 0.123277165 0.04596495 -0.06125313 -0.09175757 0.15532443 -0.032073114 -0.06959423 -0.051872723 -0.031964876 0.017051104 0.07331429 0.019175675 0.104464695 -0.053665414 -0.011031873 -0.039868124 -0.0755724 0.042957265 -0.0159201 -0.13978872 0.14753774 -0.052077197 -0.02603385 0.024655921 0.028367655 -0.07705553 -0.12706088 -0.027481377 0.028733283 -0.055985585 -0.011754233 0.03359856 0.22956192 -0.084773846 -0.11128846 -0.11483823 0.022392528 -0.0027000553 0.0021533645 -0.08732416 -0.0879971 -0.117682844 -0.16980745 -0.1047142 -0.025918208 -0.06653792 0.08766266 -0.1338329 -0.04837794 0.02974845 -0.010296634 0.07053768 -0.065615274 0.11932342 -0.0024247603 0.10348495 -0.03673747 0.11919789 -0.111129135 -0.057585184 0.04753699 0.06034808 -0.06367495 0.027481487 -0.062970355 0.17464326 -0.0070221657 -0.037444286 0.08255411 0.103041396 0.030402392 0.014060754 -0.14597265 -0.035451975 0.12322768 0.10419027 -0.12270405 0.12062619 0.027835852 0.03454722 -0.043885544 0.03528418 -0.06691058 0.043312654 0.03216765 0.15756531 0.2227068 -0.14590165 -0.124245524 -0.03549273 0.15027666 0.011694213 -0.14720276 -0.06621105 0.15992755 0.013699515 0.084429555 -0.1230203 -0.11430092 0.14220288 -0.033016816 -0.07303506 -0.040352587 -0.07868048 0.08750358 0.07894863 -0.10396642
94 -0.21006279 -0.1909174 -0.05810066 -0.035103783 -0.004605651 -0.12501864 -0.17955893 -0.07015416 0.010228254 -0.051216107 -0.112838596 0.09655097 0.008589334 -0.030286763 0.063737474 -0.18907739 0.13511886 0.08070346 0.0042971666 -0.0719079 0.10510032 0.114749394 0.04329048 -0.057936747 -0.08261925 0.1586453 -0.038440254 -0.06878647 -0.04889234 -0.031967055 0.022459298 0.071199305 0.027535213 0.0951308 -0.04857785 -0.0043566814 -0.03132529 -0.072254114 0.0477666 -0.012699374 -0.14710481 0.14960839 -0.057140198 -0.027627638 0.020248132 0.034418933 -0.079849295 -0.12260003 -0.0347958 0.034896288 -0.066921934 -0.003650351 0.04070166 0.24433707 -0.08392221 -0.12044754 -0.11744217 0.01977503 0.00083691446 -0.0036416166 -0.097838745 -0.099890135 -0.12470753 -0.17237754 -0.12606971 -0.036483627 -0.0746054 0.09268752 -0.15652637 -0.05152174 0.039676704 -0.002331338 0.06744468 -0.0707974 0.1273188 -0.0043323585 0.10657979 -0.04185328 0.11446255 -0.10886295 -0.052911874 0.04871614 0.06012951 -0.056423247 0.03658749 -0.053722326 0.16643327 -0.012953284 -0.044272717 0.08280753 0.102522425 0.03311704 0.0252571 -0.15470256 -0.0385678 0.14309056 0.111635774 -0.12848108 0.13738821 0.02825653 0.03147457 -0.041712075 0.028465278 -0.064720556 0.03971987 0.038448222 0.14101554 0.20908946 -0.13003676 -0.10853997 -0.039146323 0.14263287 0.013739408 -0.14220268 -0.064658515 0.1586093 0.01200871 0.08841979 -0.118501365 -0.11676002 0.12843105 -0.031395737 -0.07191191 -0.039009865 -0.08248194 0.0924454 0.078095116 -0.10465028
145 -0.22037987 -0.18771 -0.05478752 -0.03196992 0.0011183469 -0.121018544 -0.17644624 -0.07038649 0.0047587156 -0.047112975 -0.10047769 0.08301154 0.009713845 -0.02959188 0.044360016 -0.14784287 0.13075 0.08090929 0.007008981 -0.07195388 0.098070845 0.11135916 0.045400716 -0.061224528 -0.081413135 0.14328474 -0.032885406 -0.05906626 -0.032046773 -0.036748253 0.019286256 0.07062367 0.018125597 0.09801021 -0.051718082 -0.0037711943 -0.026939876 -0.07196571 0.04308059 -0.016805874 -0.14468549 0.15141773 -0.055946395 -0.020167468 0.025855452 0.036404133 -0.08863 -0.12119327 -0.034217637 0.03554281 -0.067220144 -0.014121151 0.0320724 0.24819772 -0.096477486 -0.119904146 -0.118855454 0.030848583 0.0022479233 0.002443934 -0.10547365 -0.09108979 -0.13098437 -0.17394572 -0.11968256 -0.03334336 -0.06756429 0.0929811 -0.14661025 -0.052242987 0.027530368 -0.010404424 0.082920276 -0.07000539 0.1354268 0.0049581956 0.11078673 -0.045950774 0.12235641 -0.114717335 -0.05831983 0.05127415 0.055000942 -0.053356532 0.0389772 -0.06462872 0.17663169 -0.0055147693 -0.036329903 0.08587517 0.106634885 0.03473969 0.01841093 -0.16086987 -0.036478903 0.14484411 0.11667504 -0.12317093 0.13696153 0.03292288 0.043196965 -0.049069982 0.03243926 -0.0797895 0.04373105 0.04352039 0.15505038 0.22224554 -0.14594187 -0.11449885 -0.041795157 0.16082172 0.018864302 -0.14697696 -0.06634827 0.16626073 0.012833496 0.09551046 -0.12629935 -0.12362729 0.13189504 -0.029405959 -0.07952063 -0.045931917 -0.07381108 0.09039735 0.09111781 -0.11575167
144 -0.20994155 -0.17759208 -0.049787775 -0.028942708 0.0022795282 -0.114207804 -0.16730236 -0.06736925 -0.0012225887 -0.047140386 -0.106748655 0.08589518 0.015528464 -0.027678858 0.06267513 -0.17235318 0.13960601 0.08673751 0.0077625657 -0.07361328 0.0939443 0.10536669 0.040481865 -0.06290544 -0.076781884 0.14098881 -0.040881075 -0.058609296 -0.037888862 -0.030878907 0.029375728 0.07102982 0.016982494 0.10430674 -0.046853404 -0.0076832445 -0.034922503 -0.07400002 0.05413602 -0.020870395 -0.14045651 0.14561462 -0.051460396 -0.021977767 0.01894892 0.028686594 -0.084715694 -0.11842724 -0.025827525 0.041454747 -0.06409181 -0.012203861 0.036193684 0.25069207 -0.096699625 -0.11041005 -0.11220244 0.02709024 0.0022227725 -0.0041536666 -0.099059924 -0.09220801 -0.1194818 -0.17161772 -0.12486657 -0.028674778 -0.06807571 0.08919788 -0.15007143 -0.04830421 0.025360145 -0.006031761 0.07052496 -0.06605881 0.13114393 0.0032140026 0.113856316 -0.042461183 0.12245102 -0.11549715 -0.050699573 0.0479191 0.061862264 -0.053001817 0.03759588 -0.059123993 0.17710364 -0.006585512 -0.038715396 0.085515305 0.09692383 0.029886778 0.023235425 -0.14999205 -0.04206859 0.14815612 0.11788818 -0.12769344 0.13688003 0.025256831 0.04202179 -0.047881763 0.039420918 -0.07125012 0.037969083 0.038578838 0.15140015 0.22431616 -0.13817771 -0.11201705 -0.042894173 0.1528182 0.0121476455 -0.14510244 -0.06362567 0.15950425 0.0154013205 0.0930693 -0.12355489 -0.11650921 0.13371176 -0.023121286 -0.072482295 -0.045276854 -0.072288536 0.09083902 0.08607512 -0.106103584
89 -0.20600541 -0.17427215 -0.04804625 -0.038657356 -0.0052231895 -0.11437272 -0.16866961 -0.072779186 0.0056004734 -0.04961868 -0.09691855 0.090393946 0.013358131 -0.025773909 0.07018602 -0.19148035 0.14073393 0.08646225 0.007307617 -0.07887827 0.11409875 0.115708575 0.048936743 -0.061536767 -0.09175702 0.15462889 -0.035319004 -0.06984688 -0.045494374 -0.037202608 0.013586563 0.066130824 0.018306823 0.09098197 -0.047505874 -0.009885352 -0.035374746 -0.0825586 0.05280339 -0.015044556 -0.1477441 0.15306443 -0.05744885 -0.028044565 0.03364177 0.029957063 -0.082978524 -0.1246457 -0.033485368 0.040676817 -0.065521404 -0.010540647 0.035482552 0.24508506 -0.08979238 -0.116519205 -0.11844769 0.017962534 -0.00083220156 -0.0010764699 -0.10280042 -0.0926879 -0.12171594 -0.17616531 -0.12099873 -0.02228103 -0.07154716 0.08383225 -0.14379787 -0.04991149 0.030869199 -0.012619878 0.0766715 -0.07184841 0.13191505 -0.003512806 0.11112916 -0.037054453 0.11356938 -0.115791716 -0.05767103 0.043953497 0.058064863 -0.057231683 0.024666624 -0.06086102 0.17125568 -0.0029945853 -0.03385 0.08597248 0.10074826 0.034233864 0.013846591 -0.14977093 -0.03525476 0.1289528 0.11334935 -0.13347414 0.12855412 0.031253453 0.043647673 -0.0504076 0.03624815 -0.070739836 0.046999358 0.043598555 0.15882523 0.22197275 -0.14228508 -0.12465165 -0.03895252 0.14688237 0.012048107 -0.13951978 -0.067465544 0.15518382 0.013909299 0.08627102 -0.12461005 -0.10934264 0.13058163 -0.025796786 -0.07589685 -0.038020432 -0.071134605 0.08136665 0.08903473 -0.09927071
115 -0.19875146 -0.17289959 -0.04432734 -0.032931007 -0.004426617 -0.11599414 -0.15859437 -0.06825294 0.004875935 -0.04931135 -0.09739308 0.08113302 0.010599525 -0.028787637 0.054896645 -0.17134847 0.13542749 0.0804347 0.0090910485 -0.07498141 0.09879979 0.11524491 0.044449683 -0.06263788 -0.07857816 0.13483927 -0.036848187 -0.06035896 -0.04120785 -0.03592112 0.018604616 0.07478843 0.025185384 0.09677508 -0.044928074 -0.0052810237 -0.03483325 -0.07746402 0.044640053 -0.013798246 -0.14626713 0.15227094 -0.05725424 -0.022081763 0.028736575 0.031116255 -0.07549447 -0.12247594 -0.035415027 0.03335888 -0.066333264 -0.015232097 0.036573995 0.24370517 -0.098020315 -0.11314714 -0.12069884 0.021331256 -0.0013035216 0.0024197327 -0.09823827 -0.09400745 -0.12268257 -0.17484999 -0.113536544 -0.027394492 -0.064010516 0.09044934 -0.14296429 -0.04479764 0.030168205 -0.012299195 0.08095682 -0.07170677 0.12568653 4.41161e-05 0.11110333 -0.044362087 0.11712336 -0.11268615 -0.058213044 0.042997804 0.06269222 -0.05783009 0.028875317 -0.06310779 0.18592258 -0.0022511 -0.04126993 0.088050336 0.105128095 0.03644259 0.014509364 -0.14412335 -0.033451673 0.1232906 0.107235976 -0.123447224 0.12084663 0.031697154 0.047940858 -0.056745425 0.037473142 -0.07689945 0.044533797 0.041925833 0.16171578 0.22561333 -0.14624667 -0.12028921 -0.039709345 0.15734254 0.009849212 -0.14405721 -0.06448254 0.16094941 0.018075662 0.08475067 -0.12548332 -0.12334367 0.13514143 -0.034322035 -0.07809373 -0.044817686 -0.072184585 0.083368905 0.08450658 -0.10928744
277 -0.18835802 -0.16509564 -0.045525372 -0.029933294 0.0004471869 -0.12060545 -0.1600882 -0.066524945 0.0002129987 -0.04250129 -0.0991253 0.07994253 0.011153193 -0.027215052 0.051484883 -0.16592151 0.14084236 0.08450785 0.01029644 -0.07145314 0.10028167 0.11106826 0.045294844 -0.05827226 -0.082871646 0.1510091 -0.04011088 -0.06203047 -0.031168252 -0.03345712 0.013374399 0.06334578 0.021052727 0.09181241 -0.044845603 -0.010694361 -0.038362887 -0.0722788 0.048688475 -0.012716555 -0.14641932 0.14718288 -0.05890462 -0.025742482 0.019663585 0.03437181 -0.08228295 -0.1280456 -0.031054 0.03029702 -0.06242002 -0.010857159 0.038390104 0.24394119 -0.08802506 -0.11493705 -0.11968078 0.026340134 -0.0055423053 0.0028366274 -0.095308065 -0.09473108 -0.123302646 -0.17676249 -0.12346267 -0.031218851 -0.07121644 0.09917402 -0.15204862 -0.052031066 0.0350881 -0.008830834 0.07557731 -0.07329727 0.1367859 -0.0053867083 0.116132446 -0.041632894 0.1214751 -0.122999065 -0.055218257 0.05054589 0.06574647 -0.051815856 0.03623708 -0.0592751 0.18433495 -0.0069197305 -0.04376973 0.09463759 0.105564296 0.03198901 0.018266423 -0.15932088 -0.043084215 0.13902555 0.11674101 -0.13903426 0.1425236 0.025132023 0.039514612 -0.051006805 0.03256184 -0.07495987 0.045155838 0.048462305 0.16357873 0.2321958 -0.13709556 -0.12127136 -0.044169143 0.16706605 0.013352392 -0.14777008 -0.06760576 0.1631795 0.015316993 0.09535464 -0.12917197 -0.12474522 0.14080317 -0.039541285 -0.07458349 -0.049343072 -0.080151565 0.09160785 0.09016202 -0.11712047
84 -0.21773325 -0.1787929 -0.0513926 -0.029140748 0.0019031682 -0.118083894 -0.17333959 -0.06970903 0.006140894 -0.05007631 -0.099959984 0.08930742 0.014185402 -0.03327626 0.059976432 -0.17934571 0.14280757 0.08549295 0.01486855 -0.074404076 0.10168071 0.11683584 0.04298703 -0.06524606 -0.085870765 0.1472351 -0.037770767 -0.06336088 -0.04466929 -0.041031875 0.021020178 0.07979776 0.019482797 0.102593176 -0.050305843 -0.0007007851 -0.037739538 -0.06402757 0.042236723 -0.020901829 -0.15585487 0.15538153 -0.053458218 -0.02720084 0.019451804 0.0336228 -0.08402648 -0.12171427 -0.033408206 0.036594532 -0.06427191 -0.013118238 0.029317893 0.25238907 -0.09536353 -0.11982166 -0.11386402 0.027051248 -0.0019955214 0.0022213396 -0.108763605 -0.096509606 -0.12868325 -0.1726985 -0.12197596 -0.026707232 -0.07706995 0.09420023 -0.15138072 -0.054706205 0.03205786 -0.0068199513 0.068686865 -0.064215966 0.12897572 0.0022390287 0.118897475 -0.040076327 0.11945837 -0.11109027 -0.049918115 0.045980636 0.05448224 -0.0567835 0.037231315 -0.059777115 0.17319295 -0.007995939 -0.03516678 0.0778037 0.09445154 0.03277829 0.0186398 -0.15375419 -0.0394531 0.14743225 0.11140271 -0.12862292 0.13698877 0.034738168 0.039839428 -0.04618539 0.031678874 -0.06827468 0.041430097 0.040493406 0.14681447 0.21863325 -0.13251708 -0.113242485 -0.038206197 0.14977355 0.016060967 -0.13636744 -0.059953127 0.14987946 0.011704578 0.080630675 -0.12302039 -0.10156154 0.12117908 -0.024524614 -0.07401064 -0.039912205 -0.070499174 0.07992484 0.08238179 -0.09989176
86 -0.20402788 -0.17831776 -0.04102574 -0.02262235 -0.0036324144 -0.116041325 -0.16157155 -0.07402539 0.003904858 -0.04478002 -0.09549823 0.08459922 0.011555077 -0.027096465 0.0510342 -0.14432946 0.1342792 0.0816737 0.008910157 -0.0682716 0.09729078 0.10853094 0.04553392 -0.064782836 -0.08079418 0.13566034 -0.040736 -0.05441183 -0.041856747 -0.031878535 0.013977311 0.07044282 0.023124151 0.094541885 -0.051130626 -0.0073336265 -0.032044116 -0.07062128 0.04244031 -0.016161572 -0.14252229 0.15002204 -0.0491882 -0.022371972 0.02284355 0.033414733 -0.08639998 -0.12131452 -0.031836465 0.037385497 -0.064272866 -0.0070016617 0.033090606 0.23969887 -0.097264044 -0.11309839 -0.11282538 0.028600637 0.005681721 -0.0033068531 -0.105080664 -0.08754832 -0.12549518 -0.17324674 -0.12426404 -0.030505955 -0.07455872 0.09733784 -0.14884347 -0.045971204 0.032087114 -0.0037079467 0.07848687 -0.071980305 0.12789863 0.0013929573 0.11227296 -0.04563334 0.12946028 -0.1181695 -0.052497674 0.054848213 0.05973836 -0.058825135 0.037003353 -0.067562096 0.18015406 -0.0075903223 -0.036105935 0.08106955 0.105191566 0.034189418 0.0219647 -0.15429667 -0.038036313 0.14015977 0.12052831 -0.12102743 0.13531104 0.033414226 0.042617317 -0.05144116 0.034804914 -0.06751425 0.044441584 0.046960115 0.16121474 0.22997364 -0.14370874 -0.11595578 -0.044024296 0.1601763 0.011998855 -0.13862316 -0.06509202 0.16095187 0.013767303 0.08545103 -0.121850185 -0.11730324 0.13449402 -0.029269807 -0.07872547 -0.04689351 -0.072362974 0.086318806 0.08792305 -0.10908686
61 -0.21304446 -0.18729293 -0.05474349 -0.036501825 -1.5561276e-05 -0.12420028 -0.17219327 -0.069309786 0.01248547 -0.053025402 -0.10596341 0.0889585 0.009684689 -0.03599998 0.06695018 -0.18296504 0.14888959 0.090612866 0.0060038227 -0.07649674 0.10904667 0.121404774 0.04602481 -0.066115044 -0.092285156 0.15450022 -0.040688485 -0.07347942 -0.040798176 -0.03499919 0.022014642 0.05878941 0.015107769 0.08699356 -0.04503789 -0.0020889495 -0.029139588 -0.07791797 0.05225948 -0.014355677 -0.14161909 0.15168469 -0.054671317 -0.028649252 0.018686114 0.036276855 -0.082022704 -0.12287632 -0.027670562 0.035592098 -0.05946233 -0.008377643 0.040234786 0.24391153 -0.09784211 -0.11398449 -0.11981772 0.02261759 -0.0075654793 0.0015003574 -0.10045614 -0.09836058 -0.11945433 -0.1636797 -0.122037195 -0.030179527 -0.07656682 0.08713737 -0.14659597 -0.04894923 0.03224101 -0.0014126544 0.07228947 -0.0689373 0.12938492 0.0024954143 0.11150691 -0.033183094 0.117335804 -0.11162524 -0.049977306 0.04979137 0.055540845 -0.05861403 0.030816527 -0.054901343 0.17613463 -0.009849506 -0.03539811 0.0848469 0.10350288 0.032146137 0.028788975 -0.15710603 -0.039238006 0.14942905 0.1145267 -0.13311483 0.13634047 0.025903853 0.03468641 -0.04302306 0.03190096 -0.065731905 0.047031548 0.035980072 0.14622883 0.21591456 -0.13235104 -0.11611249 -0.036622774 0.15149868 0.018852333 -0.13958314 -0.0651172 0.14832054 0.0065642083 0.0831083 -0.1169595 -0.10819555 0.12341849 -0.029384043 -0.07076955 -0.04044111 -0.06855547 0.08529696 0.0744665 -0.09673166
49 -0.21416727 -0.18859404 -0.048923 -0.037289206 0.00013991368 -0.12847061 -0.16866533 -0.07431725 0.009103061 -0.05257802 -0.10130256 0.08702898 0.010393212 -0.030589458 0.068280876 -0.19824044 0.14170788 0.09329336 0.008974649 -0.071820326 0.10753408 0.122331284 0.046215553 -0.074334554 -0.09074936 0.158999 -0.041708447 -0.07094497 -0.047581557 -0.039118983 0.017735366 0.0709804 0.023641577 0.10861019 -0.05134574 -0.004028912 -0.03548395 -0.07912697 0.048826143 -0.015636656 -0.14488168 0.1552037 -0.046916116 -0.027748113 0.023830697 0.033896137 -0.08174263 -0.13046075 -0.035242777 0.03722091 -0.063492775 -0.0064056246 0.03674996 0.24627534 -0.09691226 -0.117304966 -0.11695495 0.031838458 -0.0006654968 -0.0041179657 -0.09805487 -0.0889108 -0.12456508 -0.1747157 -0.11634457 -0.027957834 -0.06833542 0.082695186 -0.13615723 -0.05218712 0.030551512 -0.012987561 0.072711825 -0.07259947 0.12324289 -0.0029388329 0.11275855 -0.04059272 0.11291366 -0.11762484 -0.055796247 0.048596077 0.062062673 -0.058408663 0.02937757 -0.061655845 0.17412564 -0.0077910586 -0.040169705 0.085354 0.10588754 0.033059526 0.010005939 -0.13637309 -0.0373176 0.11967003 0.09836884 -0.11859146 0.1208143 0.029690675 0.04147768 -0.052445333 0.033307076 -0.07601901 0.04446253 0.041387 0.15548569 0.22043674 -0.13940683 -0.11574621 -0.039875615 0.1442787 0.013655374 -0.12742476 -0.053689312 0.13819323 0.015218166 0.07951832 -0.114597864 -0.10895828 0.12201616 -0.02451515 -0.07243906 -0.034435783 -0.06584691 0.07736777 0.07766455 -0.09884924
96 -0.21437526 -0.1970124 -0.0545868 -0.04845684 -0.0028433215 -0.13112645 -0.18380752 -0.07790811 0.00082877825 -0.048940286 -0.11227422 0.08875058 0.008598348 -0.027797509 0.062800504 -0.18251884 0.1500349 0.0894792 -0.00062361703 -0.07432775 0.10921897 0.12091687 0.040951084 -0.07357815 -0.091889106 0.16208194 -0.04586088 -0.07247371 -0.049775925 -0.030243913 0.029938001 0.07388834 0.02360554 0.107220486 -0.046698634 -0.005356074 -0.03824449 -0.0714592 0.049138334 -0.019466527 -0.15027569 0.15042296 -0.056581136 -0.023462167 0.026889028 0.036529843 -0.08062592 -0.12736122 -0.033953384 0.040352043 -0.06476355 -0.009414962 0.041690677 0.253578 -0.08437179 -0.11655272 -0.11592302 0.032418862 0.0020187725 0.0027439147 -0.09716661 -0.10137519 -0.11845536 -0.17544194 -0.12778775 -0.03129493 -0.06873791 0.089909725 -0.15032692 -0.046897348 0.033345852 -0.0133380145 0.071105726 -0.073322915 0.13951637 -0.0031116863 0.10939395 -0.04178319 0.11544712 -0.12503946 -0.054301973 0.043647014 0.06468637 -0.052109033 0.032421224 -0.050613876 0.18329263 -0.010036601 -0.04665986 0.08747533 0.103355326 0.03219493 0.016124051 -0.15121487 -0.039298657 0.13691205 0.117483355 -0.13513814 0.13825771 0.024862453 0.04169915 -0.04914191 0.032474656 -0.07414697 0.039662395 0.042618703 0.14965136 0.21300447 -0.12971506 -0.11120666 -0.038251024 0.14283565 0.010096366 -0.13217008 -0.056806922 0.14011195 0.011186427 0.08289083 -0.1081987 -0.11290565 0.118484795 -0.026580838 -0.06487153 -0.03580926 -0.067227304 0.08241361 0.07247597 -0.09513588
83 -0.20830768 -0.17882818 -0.0479411 -0.028552609 -0.0013614096 -0.11330054 -0.16663858 -0.07021188 0.004313062 -0.047971122 -0.103181235 0.094208136 0.011962824 -0.03132669 0.06767482 -0.18274885 0.13922708 0.079691246 0.006977633 -0.07248047 0.10524135 0.11507177 0.04118236 -0.07039939 -0.08183122 0.15080784 -0.034032952 -0.06908164 -0.052179523 -0.03651312 0.017509803 0.07669202 0.016974501 0.10269728 -0.050209474 -0.0067511704 -0.034804676 -0.07015996 0.043914203 -0.01790796 -0.1413049 0.14209114 -0.051544387 -0.022363957 0.02379101 0.030177178 -0.07724965 -0.12026201 -0.028943384 0.041359633 -0.062449526 -0.013366158 0.03668937 0.24566337 -0.08748542 -0.11738513 -0.11094778 0.02657883 -0.00018021202 -0.002950736 -0.09614609 -0.09173952 -0.124619864 -0.17079313 -0.1255157 -0.03166487 -0.07287414 0.09587303 -0.15167066 -0.048207294 0.036384065 -0.0063838437 0.07061864 -0.07106816 0.13011979 -0.006122073 0.11120073 -0.039204616 0.11736849 -0.11007514 -0.056492303 0.04163584 0.06092575 -0.06213285 0.033487506 -0.057526134 0.1720497 -0.0059970953 -0.03874075 0.08392175 0.10237979 0.030068671 0.01874869 -0.15474904 -0.037492175 0.14129753 0.110689305 -0.12996714 0.13694178 0.024015544 0.03693082 -0.045227505 0.034071576 -0.06825352 0.045191947 0.03977711 0.14414394 0.2166491 -0.133237 -0.117346644 -0.03932979 0.14661258 0.012255677 -0.14587463 -0.05882218 0.15378796 0.017950514 0.085879415 -0.11918299 -0.11696672 0.1304192 -0.03414869 -0.074004255 -0.041712046 -0.075036354 0.088802494 0.080873184 -0.10230732
180 -0.21250278 -0.20019154 -0.07055043 -0.0478451 0.0119584985 -0.13325812 -0.17444241 -0.068913475 0.035123233 -0.04927559 -0.124607734 0.088377945 0.0033854533 -0.024001276 0.095166154 -0.2713575 0.12836953 0.07203109 -0.0065713543 -0.057361152 0.09954106 0.11604796 0.03526014 -0.043590866 -0.090156585 0.16390407 -0.035996377 -0.06880183 -0.07201852 -0.05180276 0.045031745 0.08356099 0.01978329 0.08945876 -0.057257585 -0.0062386394 -0.031989407 -0.08432531 0.06374501 -0.0022988678 -0.13401523 0.14027041 -0.059571844 -0.026305752 0.026817763 0.037258994 -0.06651497 -0.12680979 -0.037025366 0.027087439 -0.053517535 0.0068007996 0.06873126 0.21056908 -0.06934025 -0.11658073 -0.12434931 0.002390682 -0.013061974 0.0062499605 -0.0826144 -0.11067027 -0.10073583 -0.14847058 -0.112368755 -0.041414328 -0.082974695 0.08514478 -0.14038976 -0.03684672 0.048749648 0.007510661 0.057925463 -0.059317127 0.10368007 -0.026203118 0.09460121 -0.024253568 0.083217464 -0.08122451 -0.04382523 0.045246344 0.052806664 -0.0485273 0.021585852 -0.03787492 0.14349233 0.0021602213 -0.03942796 0.070944734 0.10010501 0.028776817 0.034849614 -0.12480542 -0.044360146 0.12796763 0.09390632 -0.12183271 0.12022236 0.014050951 0.0048674117 -0.032340556 0.019217556 -0.052192695 0.057438232 0.034418702 0.15253396 0.20279536 -0.122456096 -0.111601576 -0.031100342 0.1578051 0.0016812026 -0.14991957 -0.056898493 0.14680131 0.008630904 0.08265584 -0.11427009 -0.12139216 0.13038892 -0.050129 -0.038376264 -0.025417035 -0.09423107 0.10158759 0.05732982 -0.1036903
276 -0.20882972 -0.19798873 -0.06619 -0.05681471 0.006883359 -0.13141134 -0.17845798 -0.067714445 0.02898209 -0.05010071 -0.13472503 0.092295446 0.0034665898 -0.026529167 0.09770385 -0.27276137 0.13418029 0.07672106 -0.002344355 -0.06651451 0.105193965 0.12934774 0.032886017 -0.051028594 -0.09817299 0.16500278 -0.042119555 -0.0797808 -0.07386964 -0.04350292 0.046634614 0.08597621 0.026326556 0.10125176 -0.05737145 -0.007021417 -0.03245861 -0.086347245 0.06252365 -0.0058069113 -0.14518009 0.15237221 -0.05616318 -0.027047465 0.026394231 0.042643495 -0.06597111 -0.1262679 -0.03900256 0.02853783 -0.05781857 0.007561929 0.064853355 0.22321871 -0.07418878 -0.118921526 -0.12774868 0.011944124 -0.019202255 -0.0026386427 -0.08351329 -0.110131405 -0.10237976 -0.14787588 -0.11296129 -0.039062336 -0.07817347 0.08497376 -0.13213325 -0.042884104 0.046384387 0.0028827668 0.05640343 -0.06128273 0.10590989 -0.017539607 0.095118836 -0.023912156 0.08017202 -0.08724465 -0.046479914 0.039465155 0.05448392 -0.045062955 0.022211298 -0.040303394 0.15087074 -0.0025621303 -0.03886419 0.07634516 0.10220309 0.022171535 0.029949876 -0.124417596 -0.037554294 0.12419492 0.09786911 -0.12835076 0.117950134 0.016144486 0.009664109 -0.0331753 0.02314931 -0.054692864 0.048480093 0.026735675 0.14333887 0.19513184 -0.12042354 -0.104903445 -0.028655972 0.14448068 -0.002701287 -0.139532 -0.05558045 0.1373401 0.009481805 0.07671933 -0.10556004 -0.115146644 0.118441336 -0.036572568 -0.040449724 -0.025974674 -0.08085898 0.091561764 0.059293818 -0.09513711
171 -0.21135674 -0.20582873 -0.07191467 -0.053319726 0.0027793734 -0.13178958 -0.17925674 -0.07064022 0.034966487 -0.047915805 -0.12250401 0.09821835 0.0039202715 -0.027337216 0.101491556 -0.2722497 0.14316359 0.07616148 -0.007688548 -0.06760242 0.115588315 0.13337947 0.037219346 -0.05023812 -0.09791066 0.17856802 -0.041572016 -0.08482721 -0.07113111 -0.041110393 0.045524206 0.084786095 0.026170023 0.08413361 -0.057499744 -0.0016886628 -0.039100498 -0.09751229 0.06509224 -0.0016459142 -0.1431757 0.15030894 -0.061229646 -0.03227247 0.02209992 0.042471547 -0.06756687 -0.1302363 -0.038374618 0.03671332 -0.054807287 0.0052863844 0.071345076 0.22534233 -0.06573933 -0.120485835 -0.12374001 0.007575897 -0.014107162 0.0046588513 -0.0851083 -0.11799196 -0.09695854 -0.14571306 -0.110922895 -0.040816262 -0.079250984 0.0783443 -0.13036169 -0.039573643 0.042935006 0.003055343 0.054556374 -0.05976176 0.10279429 -0.024598759 0.08827843 -0.019706078 0.07759157 -0.082594365 -0.04418558 0.03949571 0.05469039 -0.044819612 0.019469123 -0.033837713 0.1443696 0.00041376185 -0.044021238 0.06591864 0.100501426 0.026592027 0.030246593 -0.122047104 -0.040515814 0.119735025 0.09394247 -0.12499499 0.11522505 0.01588538 0.005205154 -0.030000027 0.013994711 -0.048930917 0.04782038 0.023554811 0.13967304 0.18487604 -0.11139749 -0.09835885 -0.03012341 0.1377979 -0.0017746366 -0.13541612 -0.054558575 0.13080655 0.004440993 0.07242225 -0.10169788 -0.11136279 0.11832391 -0.040641285 -0.03482196 -0.023682896 -0.08928071 0.08863236 0.050867595 -0.08547909
192 -0.2111006 -0.20501864 -0.07674834 -0.053274408 0.008291279 -0.13401207 -0.18135203 -0.071434416 0.034432538 -0.052855257 -0.13159084 0.08893299 0.0042838096 -0.029247731 0.09607776 -0.27935302 0.13562177 0.07530378 -0.0053649372 -0.06058262 0.10517259 0.11874192 0.032063708 -0.050334856 -0.098298 0.1643263 -0.038013954 -0.075452544 -0.07598782 -0.04305667 0.049377114 0.09060849 0.030194718 0.09417366 -0.059628572 0.0006228993 -0.036149956 -0.08676447 0.060578655 -0.005666007 -0.13642837 0.15229666 -0.058053926 -0.03007917 0.022647718 0.044048112 -0.05952482 -0.12675284 -0.034059875 0.033961907 -0.054082077 0.009571589 0.072216555 0.21019939 -0.07101996 -0.1218321 -0.123397306 0.013338298 -0.014810386 0.0037689481 -0.0819964 -0.11730824 -0.10235778 -0.145415 -0.10192273 -0.039803647 -0.07682506 0.07949856 -0.13045385 -0.03620685 0.041509584 0.0058067027 0.057454154 -0.059350602 0.0994856 -0.027132265 0.08674331 -0.018885782 0.075392954 -0.07906972 -0.044384576 0.037598304 0.04674836 -0.044673596 0.021509463 -0.030935341 0.13743691 -0.002933922 -0.04334742 0.07104541 0.093441114 0.025927033 0.023772273 -0.1129601 -0.036309227 0.114324525 0.09051121 -0.117917374 0.10681977 0.014810458 -0.0017138927 -0.031157076 0.01682004 -0.049847882 0.049119417 0.030424802 0.14760046 0.19393389 -0.11833684 -0.1018047 -0.03054057 0.14346279 0.0024189856 -0.13635042 -0.052634176 0.1413485 0.008364181 0.07617612 -0.10488423 -0.10838749 0.12111511 -0.03940329 -0.040974896 -0.019543959 -0.08754668 0.09419059 0.05386892 -0.093185104
176 -0.21916206 -0.21896864 -0.0739457 -0.057735212 0.003063931 -0.136402 -0.18876675 -0.07557566 0.03571424 -0.051630985 -0.14110619 0.097641766 0.005484928 -0.033112857 0.1120874 -0.29848534 0.13770443 0.07624575 -0.012180272 -0.06164857 0.104678735 0.12999694 0.034864552 -0.053141806 -0.09298254 0.17290865 -0.042941242 -0.08686695 -0.085506424 -0.044975378 0.052190356 0.0869797 0.024020793 0.10104683 -0.06360076 -0.007390558 -0.03280796 -0.08250828 0.053575095 -0.0015372745 -0.12878588 0.13914603 -0.056586765 -0.03179079 0.024928207 0.038720965 -0.064002156 -0.11498706 -0.034023527 0.027108854 -0.04971267 0.0028317203 0.06395082 0.2129494 -0.06371527 -0.11930915 -0.123214684 0.008214869 -0.019926675 0.00023720681 -0.073830545 -0.10616536 -0.096509464 -0.1368983 -0.114786245 -0.041840557 -0.08341122 0.083119765 -0.13258284 -0.038479947 0.047511578 0.00087983295 0.053329654 -0.06042381 0.09810363 -0.027184792 0.08338449 -0.01912233 0.07417233 -0.0781975 -0.047240827 0.034546513 0.05439709 -0.04864768 0.022365239 -0.025795808 0.14078963 -0.0064207762 -0.039007343 0.06763141 0.090947874 0.020073624 0.0317509 -0.11892262 -0.034440953 0.11455381 0.08881292 -0.12196383 0.11189248 0.013307763 0.0057340055 -0.035610307 0.01916142 -0.048331972 0.05081574 0.023269428 0.14392091 0.18541618 -0.11903476 -0.10194318 -0.031336315 0.13971971 -0.004180503 -0.14226468 -0.055397734 0.1398458 0.003452484 0.082717456 -0.104717754 -0.119683765 0.12402746 -0.0445519 -0.042341135 -0.022034066 -0.09212504 0.100581825 0.05670141 -0.096273415
273 -0.20707439 -0.197176 -0.06878479 -0.052633382 0.0060243597 -0.12773855 -0.17764352 -0.07130708 0.026153533 -0.050769366 -0.12488861 0.09422988 0.0059765787 -0.030411385 0.095099404 -0.26232353 0.13328955 0.07414754 -0.010577379 -0.061947696 0.102409184 0.11800057 0.03516286 -0.051727284 -0.096652836 0.16373928 -0.03945719 -0.07735589 -0.07275016 -0.0430494 0.043460876 0.08661161 0.029848076 0.092884645 -0.056326866 -0.0047796983 -0.028389914 -0.08697799 0.057799846 0.00039939006 -0.12842575 0.1406146 -0.058362328 -0.02270337 0.027053565 0.04100647 -0.06229261 -0.11819179 -0.03975103 0.02837566 -0.0515847 0.007384103 0.06721749 0.20813537 -0.0674585 -0.11888023 -0.12359707 0.009100865 -0.019981707 7.679663e-05 -0.08029497 -0.106283545 -0.096910216 -0.14176899 -0.10765292 -0.036036734 -0.074990675 0.07755887 -0.13142759 -0.036657847 0.04510575 0.0006857356 0.059583794 -0.06518074 0.10958211 -0.023556666 0.09478125 -0.020772617 0.08492788 -0.09026254 -0.049121834 0.041112386 0.054010846 -0.04885406 0.020254271 -0.033595398 0.1487559 -0.0014749169 -0.044063903 0.07519051 0.1012642 0.022839256 0.02643428 -0.12137798 -0.042203505 0.12147741 0.09305315 -0.12140068 0.11308061 0.015854413 0.007943766 -0.042271245 0.020648694 -0.05802104 0.053119157 0.031970453 0.15434805 0.19952251 -0.12173474 -0.109932296 -0.03333458 0.14822616 -0.0048414073 -0.14638434 -0.058639668 0.14532596 0.0054753586 0.08357445 -0.11116627 -0.121569864 0.1232214 -0.042413056 -0.04413977 -0.025354354 -0.095330246 0.09870953 0.05728754 -0.09751427
240 -0.2249858 -0.21580496 -0.076730646 -0.055197235 0.010074595 -0.14384057 -0.1964607 -0.07438877 0.032175854 -0.05353134 -0.14040837 0.09506319 0.004787522 -0.032896206 0.102404065 -0.28380734 0.13850205 0.07760008 -0.002042986 -0.06434419 0.11324743 0.12201226 0.033197116 -0.05360326 -0.09593894 0.1662784 -0.038758755 -0.07547906 -0.07600029 -0.048554216 0.051156715 0.08953291 0.028656894 0.10286846 -0.058445945 0.00029651858 -0.034249816 -0.08771042 0.057052393 -0.0013989282 -0.13849655 0.1523068 -0.062387295 -0.031358864 0.021539986 0.038237974 -0.06283882 -0.12924133 -0.039062746 0.032140654 -0.056590267 0.0063168877 0.06440911 0.22133274 -0.0727754 -0.12345756 -0.12843817 0.012207351 -0.016143974 0.0049006934 -0.081305 -0.1167168 -0.104688056 -0.14413571 -0.102772236 -0.040093634 -0.07340072 0.07983858 -0.12928443 -0.04460711 0.038570404 0.0031860198 0.060006425 -0.057228297 0.1083842 -0.018077867 0.08925317 -0.021947345 0.084534705 -0.086411215 -0.045156565 0.04148594 0.05516041 -0.04961254 0.017613305 -0.037907247 0.15444845 -0.0042504333 -0.04497719 0.07019913 0.10248289 0.027501823 0.01988041 -0.117527544 -0.03674585 0.115579434 0.09204073 -0.124078974 0.11499778 0.018743785 0.0035561868 -0.037301682 0.019350624 -0.049741186 0.051328804 0.028548567 0.13958395 0.1925498 -0.12091505 -0.10460993 -0.03475591 0.1500341 0.0048713437 -0.12957452 -0.050030638 0.12992133 0.0022007488 0.07164285 -0.10263736 -0.10794872 0.10952233 -0.042441744 -0.03857339 -0.019404124 -0.08147145 0.08690336 0.05325065 -0.08951194
103 -0.210631 -0.19847254 -0.06308879 -0.047626194 0.004308374 -0.12727295 -0.17513327 -0.072423846 0.028860172 -0.053124417 -0.12888038 0.09163702 0.0049695363 -0.029145354 0.08826884 -0.24997999 0.13519274 0.08156782 -0.005679322 -0.0651273 0.11329278 0.12623659 0.02954407 -0.050348654 -0.09719252 0.16086686 -0.03792675 -0.079837225 -0.072366625 -0.045215223 0.04784291 0.079738595 0.027334757 0.09444973 -0.05169082 0.0011133173 -0.037454978 -0.09254998 0.06730054 -0.0030364532 -0.14983545 0.16097736 -0.062662125 -0.030593276 0.026889404 0.044423413 -0.065328754 -0.12896442 -0.03738194 0.027405009 -0.052635826 0.00369674 0.06360097 0.23510216 -0.078364894 -0.1298331 -0.13445061 0.014881165 -0.017415784 0.0023089002 -0.08575122 -0.11676888 -0.10722695 -0.15067428 -0.104475096 -0.037769046 -0.07004424 0.07901859 -0.12819317 -0.044116776 0.039572716 0.0017234547 0.06338049 -0.058285084 0.106392644 -0.014401458 0.09470662 -0.017130563 0.07805571 -0.08961853 -0.046692524 0.03671112 0.053677753 -0.04616067 0.02068207 -0.03441352 0.15166196 -0.0035347925 -0.036959507 0.07166178 0.09681417 0.025078908 0.026319833 -0.1307013 -0.03583494 0.12895566 0.08671024 -0.12335899 0.117263414 0.014891252 0.0070575415 -0.036451675 0.021683758 -0.05599372 0.047375947 0.023778984 0.14035489 0.19143263 -0.116440855 -0.10439244 -0.038382318 0.13667096 0.012205759 -0.13277297 -0.06277125 0.13835296 0.0076346532 0.078687645 -0.10665137 -0.10982821 0.120940655 -0.03968053 -0.04336533 -0.025418468 -0.0865855 0.08960453 0.065652475 -0.09238026
93 -0.20401196 -0.19464636 -0.06357812 -0.04856038 3.591516e-05 -0.12605442 -0.17618492 -0.064897016 0.028494423 -0.048683014 -0.12638943 0.09631568 0.0027510019 -0.035191454 0.10191433 -0.27309367 0.14205033 0.08260585 -0.0038060325 -0.06723964 0.1175071 0.12555723 0.044733886 -0.05901272 -0.096536905 0.16840881 -0.03811997 -0.07704171 -0.06935487 -0.042603627 0.04119341 0.0863317 0.027808955 0.09323791 -0.057380714 -0.004617881 -0.03016218 -0.09705717 0.06244644 -0.0057876385 -0.14506993 0.16076042 -0.064289995 -0.030142833 0.026753508 0.038628597 -0.073522925 -0.12821005 -0.036099978 0.035425216 -0.052534223 0.003517697 0.063314006 0.23278177 -0.08143165 -0.13189356 -0.13120635 0.013837996 -0.013284124 -0.0037807128 -0.09021041 -0.109898694 -0.111174434 -0.1601716 -0.11218805 -0.03205142 -0.07385984 0.08242742 -0.13254312 -0.039087564 0.04109832 0.0031948027 0.055395525 -0.065296695 0.10046651 -0.019668788 0.09095853 -0.021984963 0.08567709 -0.08897041 -0.047764607 0.037705418 0.051752146 -0.0521039 0.016207654 -0.038299672 0.14757375 -0.0019171931 -0.040693697 0.06941974 0.10109541 0.023812382 0.030225454 -0.118920736 -0.033182584 0.117581606 0.0921696 -0.11903805 0.11163883 0.017741483 0.00677822 -0.03701766 0.018209187 -0.053301316 0.04351832 0.03294227 0.13801016 0.1841211 -0.11762386 -0.094511725 -0.028130675 0.13248755 -0.0012051272 -0.12839724 -0.055466868 0.128318 0.007818372 0.07601616 -0.096739806 -0.10197945 0.10939345 -0.031730372 -0.044848677 -0.02784308 -0.080373324 0.08892139 0.058211267 -0.08004766
219 -0.21365097 -0.21080041 -0.068936974 -0.0538473 0.008565963 -0.13524492 -0.18449514 -0.07694618 0.0337328 -0.05142708 -0.12293307 0.09520686 0.0054127336 -0.026113804 0.09424494 -0.26804835 0.1337589 0.074777275 -0.0047508306 -0.061994046 0.10573067 0.12126727 0.038179874 -0.053715438 -0.09812218 0.16736966 -0.03750004 -0.081359915 -0.071767315 -0.045284744 0.040979028 0.080773525 0.021692742 0.09192982 -0.05888585 -0.009093166 -0.0289617 -0.083937384 0.05616362 -0.0062809335 -0.14185764 0.15290642 -0.060969274 -0.030891886 0.030902475 0.045235284 -0.067450106 -0.12816772 -0.032014623 0.038581423 -0.05395255 0.000900335 0.058245543 0.21383703 -0.072425745 -0.12073096 -0.12450129 0.011270858 -0.010052673 0.0020116202 -0.08225055 -0.11169383 -0.10199085 -0.14891826 -0.11716047 -0.035193842 -0.08001587 0.08941282 -0.14003927 -0.04516834 0.043331392 0.0023414034 0.06387919 -0.063565 0.11023118 -0.02018695 0.100820564 -0.024184873 0.084031835 -0.09599973 -0.05266921 0.042719863 0.05818091 -0.056096077 0.019376293 -0.037439305 0.15493284 -0.0066759004 -0.04264576 0.07007475 0.10081376 0.027883051 0.029809525 -0.12761116 -0.040360685 0.12786905 0.10284419 -0.13267192 0.12161965 0.01910728 0.008361521 -0.03542551 0.017155843 -0.05983001 0.05085269 0.031672247 0.15482384 0.20636219 -0.122844316 -0.11363533 -0.030574042 0.14946274 0.0011520325 -0.13437627 -0.048396766 0.13662814 0.0036098056 0.080955416 -0.1087694 -0.110540666 0.12643105 -0.035985116 -0.051893968 -0.026038898 -0.086492844 0.09393461 0.059603117 -0.09439903
220 -0.211167 -0.20101397 -0.06565787 -0.05246469 0.012371438 -0.1308787 -0.17366809 -0.07191367 0.0346166 -0.05006798 -0.12832563 0.094182044 0.006344773 -0.028258123 0.10096705 -0.27230856 0.13394327 0.072364315 -0.0001348687 -0.058720596 0.10492212 0.115003645 0.037727684 -0.054246254 -0.0889508 0.16010901 -0.03701571 -0.07443204 -0.07471391 -0.047352605 0.044969596 0.08675293 0.024462374 0.09518364 -0.06156619 -0.002811558 -0.036504142 -0.08815332 0.059689462 -0.00094102375 -0.14222132 0.14773084 -0.06188861 -0.030242886 0.023442347 0.04263342 -0.06505458 -0.1288234 -0.035644893 0.03403031 -0.05789013 0.008878065 0.06500395 0.22206084 -0.0723765 -0.124913804 -0.12357769 0.009424148 -0.020329949 -0.0006228147 -0.08228427 -0.11407242 -0.108760044 -0.15062849 -0.10824256 -0.036229957 -0.07734161 0.07889559 -0.13826855 -0.03919078 0.04242702 0.0008868837 0.057117805 -0.061718673 0.11075395 -0.022193871 0.09592161 -0.022535933 0.08766344 -0.08314228 -0.045725204 0.03745842 0.055542443 -0.04935576 0.02318307 -0.033460975 0.1487761 -0.0026332736 -0.040429972 0.07524531 0.105724335 0.026383396 0.02816586 -0.115719914 -0.040875934 0.1235869 0.09608376 -0.12706266 0.1171727 0.016443733 0.0034700588 -0.035201456 0.022287734 -0.052974302 0.05233249 0.034527212 0.15149161 0.2083891 -0.12467253 -0.10618267 -0.033124138 0.1555842 0.0010886258 -0.13713877 -0.051280055 0.13821954 0.005106923 0.07485727 -0.104809 -0.113817014 0.115340136 -0.039711423 -0.03770102 -0.027015008 -0.082390636 0.094291255 0.055137664 -0.0913296
112 -0.21267869 -0.20842214 -0.0639477 -0.052643903 0.002336341 -0.13292952 -0.17641646 -0.06772233 0.03490027 -0.060375344 -0.14301385 0.10142041 0.0062706736 -0.034107607 0.11220004 -0.29164687 0.13665947 0.07760057 -0.0072316 -0.062383004 0.11034685 0.1234465 0.042120703 -0.051323887 -0.096214645 0.1648516 -0.038302552 -0.07799867 -0.077758044 -0.048895705 0.04362336 0.086294696 0.028297067 0.09998317 -0.059802175 -0.0037375174 -0.027615912 -0.077027865 0.048910666 -0.008724331 -0.13632198 0.13648278 -0.05614574 -0.02262626 0.026259862 0.033756275 -0.06038524 -0.10880608 -0.028258175 0.025333006 -0.05750273 0.008607052 0.058218822 0.20609298 -0.06486288 -0.11168879 -0.11378193 0.0048646433 -0.0132423835 0.0039504836 -0.07647222 -0.105901316 -0.10259279 -0.14117381 -0.110646576 -0.041094963 -0.079327404 0.08856671 -0.13383415 -0.042618547 0.043815184 0.0007815561 0.059348077 -0.06257327 0.09722773 -0.017449709 0.09522022 -0.026505616 0.08970563 -0.088001214 -0.044573452 0.040734727 0.052597567 -0.048935004 0.027156549 -0.036645822 0.15240055 0.00028122327 -0.043716248 0.07096267 0.10108839 0.026832793 0.028567694 -0.12553822 -0.035330582 0.12058508 0.09760634 -0.11329337 0.11287122 0.020722443 0.007669625 -0.03651722 0.024276631 -0.050712146 0.054362345 0.03163179 0.15534684 0.20091417 -0.12814537 -0.107537724 -0.032234143 0.1530778 0.0004981763 -0.15015644 -0.061470333 0.15274827 0.008979818 0.08739206 -0.11847137 -0.12922843 0.12853384 -0.044246215 -0.04379568 -0.03161625 -0.09699125 0.09923288 0.06451381 -0.10699746
279 -0.21916382 -0.2198458 -0.07038543 -0.053988073 0.011016535 -0.13706422 -0.19311018 -0.07877449 0.03802288 -0.056049407 -0.14873597 0.10886049 0.010523606 -0.028715493 0.11256547 -0.30942467 0.13270006 0.07115783 -0.012627503 -0.062201057 0.10959518 0.12542027 0.03856723 -0.054758314 -0.09595095 0.17206599 -0.043927025 -0.08220709 -0.0877349 -0.04842916 0.04753108 0.0970788 0.026554056 0.10051235 -0.061819907 -0.0056696213 -0.03807432 -0.093497485 0.06376723 -0.006580606 -0.14742924 0.16043375 -0.06717957 -0.035324913 0.025422627 0.043300126 -0.06447527 -0.12583362 -0.031367704 0.031742614 -0.05828288 0.002946652 0.07175271 0.2213014 -0.07018006 -0.12896758 -0.124924414 0.008995472 -0.014540557 0.0064246817 -0.07691728 -0.120922506 -0.101072565 -0.14780048 -0.11370764 -0.039036654 -0.08042798 0.08638956 -0.13704577 -0.043321576 0.044759255 0.006723737 0.060013626 -0.05633068 0.102065645 -0.024416607 0.09253032 -0.021798993 0.07460887 -0.0803734 -0.045548104 0.03695456 0.05069373 -0.048275106 0.019249486 -0.034394927 0.1403883 -0.0072236117 -0.039395347 0.0681929 0.092647836 0.026741719 0.031203337 -0.12492909 -0.03701516 0.12336976 0.09275518 -0.12669417 0.114899606 0.013337534 0.0029637374 -0.030471211 0.019373262 -0.05059227 0.044622466 0.025111277 0.13890998 0.19240087 -0.1107019 -0.096285775 -0.036348507 0.14227767 -0.003147515 -0.13825549 -0.054627247 0.14256114 0.006569744 0.07536566 -0.10928675 -0.116847456 0.12284477 -0.044131543 -0.04240045 -0.023421166 -0.089578 0.094688855 0.05973428 -0.09143185
40 -0.20073663 -0.18734007 -0.068690486 -0.04700622 0.010295363 -0.12413457 -0.1705598 -0.064440235 0.031086635 -0.05162968 -0.120131336 0.08834953 0.0043115923 -0.03494922 0.09806033 -0.2820467 0.13645439 0.07008066 -0.0078998525 -0.065134384 0.10419042 0.12236723 0.039037403 -0.044150565 -0.09246313 0.15992507 -0.040564794 -0.07784457 -0.074806675 -0.04732713 0.042494763 0.084856935 0.024490235 0.091955125 -0.05542171 -0.0045151766 -0.031909242 -0.078999594 0.05933378 -0.00075106055 -0.13971901 0.14541452 -0.057306673 -0.027608275 0.021180717 0.037290435 -0.061684158 -0.12371924 -0.031928528 0.031914487 -0.052782986 0.0011173253 0.062243663 0.2114874 -0.067511134 -0.1205313 -0.12525757 0.00370535 -0.014241206 -0.0006364472 -0.07959586 -0.10921582 -0.101388045 -0.14543346 -0.10543315 -0.036102742 -0.07645809 0.0755299 -0.12793021 -0.036176372 0.041752383 0.0054520858 0.061591417 -0.06501544 0.10311832 -0.02531563 0.09366115 -0.018889206 0.0750186 -0.084484406 -0.04571888 0.040089916 0.05650401 -0.05022005 0.022045983 -0.029979946 0.14809804 -0.005931374 -0.04395712 0.07560786 0.09516346 0.026224876 0.02822105 -0.118244745 -0.039022665 0.121415555 0.09036689 -0.12220995 0.11337321 0.01662907 0.009419676 -0.037105463 0.022523966 -0.051534228 0.05512029 0.027284328 0.15650302 0.20151049 -0.122774154 -0.107427865 -0.03223375 0.14879015 -0.0028360025 -0.14533752 -0.054166146 0.14627342 0.0073980694 0.07911214 -0.11063829 -0.12058172 0.12980235 -0.042801537 -0.044051893 -0.029566353 -0.09080619 0.1002688 0.05940096 -0.09968902
179 -0.21733572 -0.21085656 -0.073320955 -0.058637116 0.005320572 -0.13170518 -0.18749525 -0.075123794 0.029581038 -0.05491869 -0.1290252 0.10110277 0.006776285 -0.034324825 0.10538648 -0.27720317 0.13494956 0.0782221 -0.0092366915 -0.06662274 0.10645902 0.12504852 0.03546295 -0.05229437 -0.09119572 0.16418847 -0.04202044 -0.08508758 -0.077237375 -0.045483906 0.04938989 0.088314265 0.030356847 0.09941299 -0.057518642 -0.0032809218 -0.03211915 -0.09064599 0.055135086 -0.0054189665 -0.1398192 0.14899944 -0.05875296 -0.03103776 0.025962971 0.041162454 -0.06504639 -0.12390736 -0.03618003 0.032250244 -0.056139108 0.010040085 0.06559406 0.22305855 -0.07207196 -0.12011598 -0.121246375 0.007905764 -0.019101588 4.063865e-05 -0.08371662 -0.11343496 -0.10339383 -0.14949201 -0.11348585 -0.035631977 -0.08052063 0.08007985 -0.13260625 -0.040390506 0.047111575 0.0051920554 0.05443685 -0.06462319 0.09872311 -0.022052491 0.085670836 -0.02180606 0.082312964 -0.08688999 -0.04682719 0.03933762 0.050672915 -0.050665632 0.019302247 -0.030404644 0.15177636 -0.0011420316 -0.043423828 0.06836838 0.102511205 0.023693427 0.026795823 -0.121610224 -0.03888823 0.11792206 0.09913913 -0.12498919 0.11587258 0.015517181 0.00932834 -0.036428623 0.020114616 -0.053314798 0.047916647 0.029348854 0.15043692 0.20624901 -0.124653235 -0.10716175 -0.0336755 0.1513675 -0.00079438795 -0.13852495 -0.05939606 0.14139506 0.0093145035 0.079884805 -0.111102834 -0.12266495 0.12323626 -0.040203687 -0.045809835 -0.024181604 -0.091150284 0.093336605 0.05982358 -0.096246846
121 -0.22271572 -0.21918459 -0.07529968 -0.055829998 0.0127841765 -0.13971649 -0.19176868 -0.07942378 0.039826706 -0.053950038 -0.1377657 0.101444304 0.007675471 -0.035413474 0.1020583 -0.2978206 0.13574897 0.0780568 -0.006090463 -0.064243086 0.114134535 0.1307377 0.036372986 -0.045834284 -0.09708744 0.16953608 -0.03632443 -0.082616195 -0.08095235 -0.055840727 0.049692594 0.09532968 0.024442308 0.09690488 -0.06449094 -0.008178627 -0.033070147 -0.08956363 0.05761269 -0.0048425198 -0.14150268 0.15648887 -0.06078667 -0.026061323 0.025617756 0.04548234 -0.0661486 -0.13353564 -0.032855432 0.028951954 -0.048178565 0.009694603 0.066627264 0.21206222 -0.06340936 -0.11815432 -0.12721251 0.005731862 -0.022987189 0.0077396682 -0.08071328 -0.112526245 -0.100819714 -0.14474516 -0.106781386 -0.041718945 -0.07748322 0.08032164 -0.13582425 -0.041626487 0.04854296 0.002132459 0.056521427 -0.05858373 0.09811549 -0.022841418 0.08331888 -0.021135192 0.07573478 -0.07711721 -0.04359907 0.045935716 0.04812756 -0.04363176 0.018216498 -0.0334421 0.14408854 0.002482878 -0.043980613 0.073229805 0.10123368 0.022853198 0.032645997 -0.12029222 -0.03714506 0.12059841 0.09068185 -0.11934352 0.11089475 0.015770234 0.0038147287 -0.032515716 0.014075 -0.04699499 0.051849827 0.026338268 0.1385348 0.18716945 -0.111225 -0.0992378 -0.026953084 0.14293593 0.0038021095 -0.13569105 -0.05239849 0.13136432 0.0045562326 0.07188931 -0.10306618 -0.10955679 0.11254654 -0.042888578 -0.037890807 -0.02101451 -0.086606234 0.08974218 0.05283507 -0.09452625
92 -0.20965545 -0.19801773 -0.06581993 -0.05597037 0.007815527 -0.12588607 -0.17131595 -0.074335 0.029952217 -0.05245613 -0.13284445 0.099594966 0.007583659 -0.02933891 0.10103402 -0.2759738 0.13547114 0.07214759 -0.0062001054 -0.07065947 0.10837287 0.12148848 0.03589388 -0.052343924 -0.08944101 0.16740318 -0.043310594 -0.07126533 -0.07104476 -0.039594106 0.0446618 0.085919835 0.02521678 0.09446513 -0.059810553 -0.004199568 -0.035889298 -0.0891976 0.0613764 -0.0054296223 -0.1400133 0.14995556 -0.056907184 -0.02601602 0.024767008 0.04269745 -0.06913708 -0.12801903 -0.03314294 0.031987716 -0.060340732 0.002115187 0.06292452 0.22175428 -0.073628455 -0.11883538 -0.12794895 0.014803253 -0.011175667 0.0046773823 -0.083646365 -0.1161418 -0.10784425 -0.14929232 -0.11271332 -0.040359307 -0.08083658 0.08497931 -0.13553305 -0.041705713 0.042731795 -0.0010679341 0.05758228 -0.062711135 0.10731856 -0.020036908 0.096382715 -0.025871042 0.08454035 -0.09151922 -0.042126995 0.042451814 0.05031414 -0.04465499 0.025733147 -0.034239035 0.14608765 0.0009956531 -0.03530144 0.0704919 0.09325222 0.024292631 0.024867654 -0.12688763 -0.04289937 0.12712513 0.09667798 -0.12423406 0.11576032 0.01858547 0.011248649 -0.032747515 0.022860968 -0.05340554 0.04775133 0.032543942 0.149629 0.19983381 -0.12691283 -0.10775556 -0.034614734 0.1442595 0.001407972 -0.13219637 -0.051895026 0.13440776 0.008373149 0.08079336 -0.10443897 -0.107439615 0.123482965 -0.037075866 -0.045810975 -0.023552142 -0.08455197 0.092877544 0.055119127 -0.09608537
134 -0.20291258 -0.19931924 -0.07104251 -0.05151949 0.0057964865 -0.12905252 -0.17283851 -0.069597386 0.038995963 -0.05035617 -0.13556045 0.0996803 0.0018292579 -0.035344027 0.10353058 -0.2851038 0.13305864 0.06871371 -0.009881482 -0.06420315 0.10611678 0.11968536 0.03232614 -0.05123467 -0.09539119 0.16175911 -0.041520204 -0.0734863 -0.075529695 -0.0458786 0.050672974 0.08740251 0.024534142 0.08638907 -0.059090327 -0.0066037625 -0.03608027 -0.09847929 0.060094498 -0.006402899 -0.13688348 0.15560052 -0.059616435 -0.025800483 0.021452868 0.046256326 -0.06470956 -0.12739187 -0.03104079 0.031606745 -0.052877713 -0.00092941616 0.07131837 0.21548572 -0.073158845 -0.12453271 -0.12850264 0.010969454 -0.013044266 0.0037036866 -0.07927425 -0.114419535 -0.10179531 -0.14854127 -0.104463056 -0.036711905 -0.07573845 0.08093447 -0.12788574 -0.039858416 0.04134914 0.003091404 0.058234703 -0.05480278 0.09742058 -0.024373509 0.081513 -0.020799203 0.07591104 -0.08324888 -0.047732573 0.039953124 0.05160611 -0.04596005 0.025875835 -0.029174266 0.14566983 -0.002392293 -0.03732729 0.07539531 0.09751989 0.018157883 0.024029551 -0.11937991 -0.037141662 0.12151212 0.09222031 -0.11951935 0.11271266 0.008979284 0.005826376 -0.036629066 0.019919708 -0.054363936 0.047914296 0.026673784 0.15313904 0.19479407 -0.1253069 -0.11062619 -0.034346648 0.14698881 0.00092632964 -0.14728862 -0.05584048 0.1442989 0.008021991 0.08422273 -0.110121556 -0.1224846 0.13363624 -0.04744246 -0.041900646 -0.022239631 -0.08896031 0.102059424 0.056740787 -0.10250855
283 -0.22699986 -0.21346475 -0.07095955 -0.05685119 0.0029670666 -0.14089172 -0.19052517 -0.07043972 0.031985123 -0.053417213 -0.13588807 0.09943522 0.009580831 -0.029859928 0.10700506 -0.29460987 0.13668564 0.081276864 -0.0042229868 -0.06634387 0.11779591 0.12810604 0.03738718 -0.052621383 -0.101219185 0.17240849 -0.044803582 -0.0810447 -0.07780699 -0.044256404 0.043630663 0.09602427 0.024169832 0.09681287 -0.06190378 -0.0017232024 -0.04018508 -0.09419081 0.06691485 -0.001196573 -0.13853547 0.15063463 -0.055876587 -0.030652655 0.02057103 0.03941275 -0.063987225 -0.1284433 -0.030983204 0.02739175 -0.05376605 0.009872909 0.06464788 0.20942377 -0.06883574 -0.118346766 -0.12499197 0.0059855226 -0.015792653 0.0025635776 -0.08293621 -0.10684204 -0.096319295 -0.14479585 -0.10583543 -0.033017244 -0.07742754 0.07877178 -0.13055651 -0.040003013 0.042578533 0.004073224 0.055343147 -0.055750415 0.09723645 -0.025154695 0.085502654 -0.016380006 0.07916954 -0.078528315 -0.04431465 0.035375647 0.054528773 -0.045578614 0.021396566 -0.033945806 0.14114445 -0.0014586761 -0.037927166 0.06606213 0.09331492 0.020593142 0.028548231 -0.11823652 -0.035277393 0.11413103 0.090424 -0.11544519 0.11082476 0.014894021 0.005559305 -0.03173128 0.020827537 -0.04564678 0.046749733 0.021689916 0.13531002 0.18638073 -0.11262406 -0.09456579 -0.030039322 0.13978074 0.0042186202 -0.13594972 -0.057175737 0.13770345 0.008551608 0.08007867 -0.10843993 -0.110771425 0.12412731 -0.040505834 -0.04019913 -0.024803199 -0.0821494 0.08965794 0.05758248 -0.0870496
77 -0.20776956 -0.20399308 -0.06769536 -0.04903451 0.006031933 -0.13034308 -0.18336424 -0.067577854 0.029182447 -0.04895081 -0.1301408 0.095923856 0.003838863 -0.026770292 0.098298214 -0.262928 0.13974084 0.077503376 -0.00076401775 -0.058375057 0.10626546 0.12633224 0.037621904 -0.05165409 -0.09849702 0.16911046 -0.04231961 -0.07849438 -0.070423715 -0.043739133 0.04229952 0.08204878 0.027068939 0.09363978 -0.058684353 -0.0053520696 -0.03050377 -0.08193646 0.054281738 -0.0050782273 -0.14495295 0.15660915 -0.057233837 -0.030434081 0.02370241 0.043527175 -0.07038672 -0.12731317 -0.035359986 0.03245561 -0.05743216 0.008618378 0.06377649 0.22251248 -0.0756984 -0.12738003 -0.1255882 0.016089045 -0.019647727 0.0065118573 -0.08517623 -0.11778135 -0.10767734 -0.14928979 -0.11518144 -0.037472356 -0.08094237 0.08950373 -0.14203492 -0.039379813 0.041424766 0.0051397337 0.061000414 -0.057781067 0.10954748 -0.02306611 0.08833006 -0.021990415 0.08000486 -0.08205782 -0.044584136 0.04308484 0.050176363 -0.04989653 0.024303017 -0.04043318 0.14716285 -0.00083059975 -0.042307843 0.075116046 0.10112331 0.027353836 0.026344392 -0.12547463 -0.036189746 0.12635703 0.10186543 -0.12625432 0.118570976 0.013350254 0.004774713 -0.038081598 0.017539205 -0.047307085 0.050203532 0.034259047 0.13761324 0.19373229 -0.1180375 -0.09857873 -0.02979458 0.14368208 -0.0017998078 -0.13704321 -0.054509953 0.14528774 0.0032446436 0.079727046 -0.10881579 -0.11624375 0.118691616 -0.03955909 -0.043858238 -0.024036538 -0.084741056 0.094363436 0.057616785 -0.09097244
46 -0.2090089 -0.20482758 -0.065929145 -0.05056661 0.011477211 -0.12341294 -0.17527308 -0.07008963 0.029200746 -0.0542175 -0.13429031 0.10443915 0.0037314922 -0.023748927 0.09867788 -0.2823756 0.13537477 0.072813034 -0.008232304 -0.06103969 0.10103109 0.11951119 0.031205634 -0.0458494 -0.08871583 0.1573699 -0.040846396 -0.08095542 -0.0802052 -0.050287466 0.048548903 0.08774186 0.025736859 0.09891373 -0.059179466 -0.0056117834 -0.033390757 -0.08967075 0.062578544 0.0002424597 -0.1429818 0.14706582 -0.05474515 -0.027085586 0.02450902 0.04168235 -0.06382401 -0.1230117 -0.03692977 0.030468443 -0.048822317 0.0076143746 0.062395386 0.22438464 -0.07382869 -0.12573946 -0.1288024 0.008062303 -0.01859302 0.0022808288 -0.08031706 -0.11922994 -0.10885399 -0.14714894 -0.111264795 -0.041323822 -0.07568435 0.07868745 -0.13219282 -0.04180641 0.039256405 0.0020975685 0.06048927 -0.062107977 0.106891885 -0.023050679 0.08921465 -0.025366388 0.0784399 -0.089073405 -0.04485917 0.038580514 0.048324823 -0.048748393 0.022199225 -0.034304753 0.14341372 -0.0009077326 -0.041038286 0.074790694 0.100804456 0.027584666 0.029147217 -0.12128826 -0.037229083 0.12650456 0.096007444 -0.12278377 0.11331559 0.011246894 -0.0022257338 -0.03970899 0.015996808 -0.05554423 0.05013453 0.030914588 0.15141147 0.20294756 -0.12166908 -0.102130316 -0.034440666 0.15357707 0.0033828348 -0.13362491 -0.056117494 0.13805723 0.0050980626 0.07543189 -0.10688352 -0.11469182 0.115083665 -0.04177254 -0.039855704 -0.019337328 -0.0839154 0.091764376 0.050900873 -0.092462346
264 -0.21987082 -0.20643538 -0.069275476 -0.050730128 0.01288311 -0.1373543 -0.1851462 -0.07060803 0.033396926 -0.052741747 -0.12956329 0.097464405 0.010338109 -0.03308795 0.10306871 -0.27665347 0.13799533 0.07398418 -0.008121385 -0.06537572 0.11033777 0.12072728 0.03941035 -0.04995499 -0.09478402 0.16196921 -0.041081313 -0.076854214 -0.07360913 -0.0475585 0.044672795 0.0852548 0.02612245 0.09383897 -0.058539867 -0.0012438069 -0.029891262 -0.081594296 0.06082385 -0.0056241443 -0.13394822 0.1406256 -0.059365712 -0.029100105 0.023524875 0.03643476 -0.06254728 -0.12403306 -0.038304355 0.035870727 -0.054256186 0.00918506 0.062868066 0.22086622 -0.071475275 -0.12106998 -0.12441328 0.007273786 -0.01795566 -0.0011619776 -0.08635383 -0.11010804 -0.10795103 -0.15000455 -0.10729236 -0.035808478 -0.077567875 0.07744642 -0.13562436 -0.03683354 0.044443514 0.0033637555 0.059554882 -0.06723476 0.10519381 -0.021349605 0.093022384 -0.022594184 0.08643074 -0.08468205 -0.052179176 0.04477068 0.053034596 -0.049348604 0.021543628 -0.039872713 0.1512763 0.00046083584 -0.044547718 0.07499069 0.09838979 0.030496212 0.027024819 -0.12522645 -0.043204863 0.11821723 0.09207542 -0.1251016 0.113511816 0.011048137 0.0062153153 -0.03610774 0.022537457 -0.059958637 0.054983247 0.030935174 0.15612486 0.20790587 -0.12396277 -0.11010307 -0.036179297 0.15171993 0.0068289996 -0.14196517 -0.06164271 0.15001555 0.01047721 0.08188693 -0.11048653 -0.12145556 0.12696318 -0.043176543 -0.043575242 -0.0289953 -0.09414836 0.09877509 0.06437898 -0.09687388
98 -0.20269053 -0.19618207 -0.06678191 -0.050330065 0.006760288 -0.1293224 -0.16992961 -0.067175746 0.032241628 -0.052904587 -0.12964788 0.099850036 0.011856008 -0.02896022 0.102147415 -0.27379712 0.14152232 0.078917965 -0.0055238763 -0.063274726 0.10648579 0.124041185 0.03964826 -0.049391434 -0.09571031 0.1643838 -0.039483074 -0.0792753 -0.074005 -0.04944499 0.044465963 0.08691662 0.027370054 0.096324176 -0.06208688 -0.007048644 -0.031225758 -0.09343744 0.06723105 0.0018406343 -0.1448784 0.15591247 -0.063174196 -0.0310483 0.027623076 0.044921417 -0.06697467 -0.1298419 -0.040649056 0.027992636 -0.05840492 0.0037631588 0.07101547 0.22991183 -0.08132341 -0.1302244 -0.13473319 0.007825282 -0.019615972 0.0070240693 -0.086579226 -0.111470744 -0.11358623 -0.15758818 -0.10880573 -0.037251912 -0.07323265 0.07794091 -0.12938961 -0.035619754 0.044701032 0.0022944524 0.059163556 -0.05801408 0.09937371 -0.019699305 0.08291187 -0.019956687 0.08273727 -0.0790682 -0.04572265 0.03429842 0.05095801 -0.049419317 0.020666905 -0.0376805 0.1415625 -0.0028655122 -0.036563694 0.07603936 0.101753905 0.024336267 0.02874381 -0.1197479 -0.037544787 0.121187404 0.09454545 -0.12163327 0.11088387 0.015595179 0.0046112766 -0.039638404 0.015269059 -0.052103613 0.052447557 0.028587885 0.13606037 0.18698645 -0.117355436 -0.09800954 -0.028461486 0.14277725 0.0069490015 -0.13479948 -0.054241106 0.13522889 0.0034937088 0.07234332 -0.10116166 -0.11197541 0.1212486 -0.03729776 -0.04422099 -0.022718346 -0.08183 0.08423773 0.06172973 -0.09291894
178 -0.19586092 -0.19084111 -0.06687178 -0.04758545 0.008378015 -0.12672046 -0.17508592 -0.07033846 0.03502719 -0.05436465 -0.13700178 0.110241435 0.010468536 -0.031318534 0.11209221 -0.29888806 0.13610761 0.07281071 -0.00896323 -0.06615895 0.10873831 0.12662105 0.034150437 -0.051827352 -0.09194175 0.17021376 -0.040190767 -0.08161391 -0.07855182 -0.03856203 0.048764747 0.08389387 0.030991651 0.09659313 -0.056930188 -0.0013437382 -0.028400563 -0.085469104 0.055817034 -0.005146127 -0.13906926 0.15078513 -0.056854445 -0.030444354 0.027559659 0.04222614 -0.060975797 -0.11672587 -0.028903462 0.033590432 -0.051507547 0.0013680793 0.06334523 0.21157129 -0.06947334 -0.11441764 -0.12158349 0.010337783 -0.011131752 0.003357746 -0.07978612 -0.11146363 -0.0961773 -0.14646247 -0.11310406 -0.035744894 -0.074305594 0.07605933 -0.13552871 -0.033861972 0.044203103 0.0041005346 0.061400738 -0.066031575 0.10309705 -0.02606122 0.09487142 -0.027859978 0.08546889 -0.08261647 -0.052037027 0.03697282 0.053940464 -0.04697083 0.022567473 -0.028643992 0.14630997 -0.0071702353 -0.043304533 0.06828209 0.09507438 0.028045818 0.028985199 -0.12462273 -0.034108747 0.1138168 0.0905571 -0.12013068 0.11238586 0.012035621 0.0076322346 -0.04125703 0.01922375 -0.05429885 0.050961047 0.029891938 0.16192292 0.21307206 -0.13013136 -0.10804205 -0.032505378 0.15464967 0.0020122598 -0.14554568 -0.061290644 0.15518983 0.005484298 0.08270031 -0.11910636 -0.12866971 0.12814319 -0.040149778 -0.04750129 -0.032156568 -0.094143435 0.100906625 0.065308124 -0.09830347
16 -0.2168079 -0.20545994 -0.06758927 -0.049972415 0.0065895854 -0.13535716 -0.18389983 -0.07836032 0.032428525 -0.047209483 -0.12201855 0.09709985 0.0042520403 -0.030926213 0.09779221 -0.2693751 0.13122156 0.069474034 -0.008516659 -0.0683611 0.102408506 0.12466787 0.04038915 -0.052341547 -0.08999406 0.16168058 -0.03559075 -0.07719508 -0.07424441 -0.04859532 0.036509793 0.09043623 0.023061864 0.08919017 -0.055857945 -0.0019943356 -0.030926077 -0.091079116 0.05658225 -0.010586791 -0.14391452 0.15269236 -0.05338609 -0.028393436 0.025140092 0.04210246 -0.06355263 -0.12633441 -0.035896506 0.03498505 -0.050467733 0.0035718575 0.06295668 0.21718715 -0.07067404 -0.117011115 -0.12528993 0.008789141 -0.013856065 -0.0008398413 -0.077251896 -0.1151599 -0.104493804 -0.15101269 -0.10904919 -0.039363183 -0.077004835 0.08668969 -0.1366499 -0.046506997 0.049948443 -0.0021397788 0.060233854 -0.059977613 0.10712856 -0.01963724 0.09391901 -0.022414373 0.079964265 -0.082363494 -0.043147907 0.040228523 0.053298302 -0.05146417 0.023196448 -0.03219116 0.14655827 0.00084796874 -0.039056476 0.072515495 0.09722216 0.02719779 0.023555772 -0.12434581 -0.037220802 0.12489098 0.09810912 -0.12666792 0.11632999 0.018314755 0.012910234 -0.03253018 0.021813093 -0.052240923 0.049122464 0.028465724 0.14472193 0.19716889 -0.11624869 -0.102575846 -0.0320716 0.1521412 2.3035676e-05 -0.12952939 -0.04884036 0.13871115 0.004392647 0.07659661 -0.10379699 -0.11044103 0.11615527 -0.04237906 -0.045210876 -0.02792476 -0.07698035 0.09284593 0.055673245 -0.08934875
261 -0.21494675 -0.20642349 -0.07301383 -0.05512445 0.008110048 -0.1316217 -0.17674096 -0.07172556 0.035448536 -0.052742988 -0.13476218 0.09822796 0.007315676 -0.029330118 0.10909816 -0.2879332 0.13643749 0.07896049 -0.012073605 -0.068779245 0.11108344 0.12508821 0.034465604 -0.052546754 -0.09513776 0.16784129 -0.04029475 -0.07964794 -0.07518094 -0.04429413 0.04607826 0.08370213 0.024206502 0.090612724 -0.054018367 -0.0044676927 -0.036886256 -0.093011394 0.063931115 -0.0064389277 -0.14381203 0.152479 -0.060109224 -0.034174692 0.023601184 0.039997775 -0.06128361 -0.13024952 -0.034930415 0.030583257 -0.056966525 0.004749429 0.072329536 0.22492228 -0.070861645 -0.12553564 -0.12953857 0.0068380856 -0.010379519 -0.00029599603 -0.078894064 -0.11476551 -0.09976648 -0.15033136 -0.10627011 -0.040799856 -0.07858674 0.078691125 -0.1292934 -0.040287986 0.04309503 0.0051416666 0.055089843 -0.053389043 0.09886271 -0.018211741 0.0847678 -0.02386973 0.07698502 -0.08204229 -0.044270672 0.04180889 0.050751023 -0.04969097 0.020945288 -0.03596201 0.14276735 -0.0022823482 -0.042758763 0.064951904 0.10141051 0.026217813 0.030566739 -0.11878826 -0.03731574 0.122121245 0.09438956 -0.11754722 0.11587472 0.01574059 0.0046332767 -0.033024307 0.020709606 -0.049444843 0.04601455 0.023945646 0.14372271 0.18931876 -0.12124103 -0.095151655 -0.032266207 0.141731 0.0037671963 -0.13523698 -0.054773632 0.13136595 0.0033195866 0.07683819 -0.10361672 -0.10620354 0.11873354 -0.03459656 -0.038010396 -0.022332333 -0.08243086 0.08732444 0.050528336 -0.09139722
131 -0.22280721 -0.2139597 -0.07448965 -0.059104875 0.008578096 -0.13286647 -0.18398614 -0.07264354 0.027492875 -0.04996495 -0.139662 0.106540285 -0.00036414523 -0.031282544 0.10390271 -0.28124535 0.140624 0.0773981 -0.006066908 -0.0640644 0.113910735 0.13119039 0.034656204 -0.053426016 -0.09379232 0.17067653 -0.04123325 -0.08004679 -0.07813585 -0.048791166 0.052191257 0.09064681 0.025483485 0.09453933 -0.059455287 -0.0015390811 -0.033717886 -0.08604408 0.06065109 -0.003669002 -0.14297935 0.1525874 -0.05938474 -0.028962275 0.026579222 0.041513406 -0.06818302 -0.12433133 -0.038823895 0.027840076 -0.055834167 0.0054929466 0.06756009 0.22831382 -0.0704183 -0.13027127 -0.12642357 0.013565059 -0.013005995 0.00564278 -0.089108005 -0.11927559 -0.10627268 -0.1501583 -0.114088856 -0.0367347 -0.08063036 0.08448072 -0.13314572 -0.03994663 0.041900896 0.0018930165 0.056025244 -0.06164319 0.101198286 -0.016072098 0.08717437 -0.023917856 0.078576535 -0.086335704 -0.044760264 0.037460748 0.04989046 -0.042536594 0.020924779 -0.034070946 0.14783794 -0.0036278572 -0.040356528 0.065492906 0.09986891 0.027485553 0.02514646 -0.12587248 -0.037176818 0.12750766 0.098210864 -0.12086876 0.12030828 0.011992346 0.007844307 -0.033357874 0.013652389 -0.048130617 0.048666514 0.026620952 0.13576764 0.18476765 -0.11385084 -0.09054776 -0.02720163 0.13599484 0.0013060037 -0.13582052 -0.052978925 0.13790411 -0.0010731975 0.06998428 -0.100977406 -0.10558616 0.11337249 -0.03443958 -0.037794963 -0.026023759 -0.08406789 0.08349229 0.050754827 -0.082672946
80 -0.20792773 -0.20335184 -0.0705667 -0.046511352 0.009832474 -0.12892205 -0.1739081 -0.069862194 0.02856537 -0.052033123 -0.13061783 0.09466162 0.0113408305 -0.02686952 0.09007539 -0.25887305 0.12987907 0.07585711 0.0014190567 -0.0621146 0.1003456 0.117020115 0.035499234 -0.051640004 -0.091316625 0.15843485 -0.040920142 -0.0760039 -0.07182783 -0.04774354 0.04701216 0.09536893 0.024181241 0.09794329 -0.062351335 -0.0029563408 -0.032299127 -0.083095156 0.057374686 -0.005047079 -0.14206634 0.14753546 -0.06004909 -0.02980275 0.023013106 0.046899185 -0.06372585 -0.12535751 -0.03207372 0.033187784 -0.05249711 0.0013139078 0.05752061 0.21872452 -0.07060191 -0.12306394 -0.12504753 0.0126147345 -0.017284019 0.0023802498 -0.08212425 -0.11003558 -0.10327562 -0.1481069 -0.11251812 -0.033639804 -0.07811049 0.083529174 -0.1376885 -0.04340067 0.04954039 0.005443653 0.057659935 -0.057157714 0.10366021 -0.020070571 0.09191385 -0.026823308 0.0809172 -0.08635371 -0.04422918 0.039346352 0.052856486 -0.05333363 0.026500491 -0.039025344 0.14563057 -0.0006974939 -0.039157927 0.07017419 0.09943115 0.031428766 0.028883196 -0.12160586 -0.042342115 0.12046163 0.09882532 -0.12487113 0.1162474 0.021570005 0.008326528 -0.034755003 0.019529121 -0.054306358 0.04980225 0.03522777 0.14801942 0.20209092 -0.12415428 -0.100363836 -0.034880493 0.14605989 0.0005910821 -0.13693495 -0.050424706 0.13805953 0.011955166 0.07521376 -0.106153235 -0.11268094 0.11825661 -0.040221382 -0.05175901 -0.022896219 -0.08128315 0.087953955 0.056426678 -0.092963696
81 -0.21051954 -0.20814545 -0.063281745 -0.053393163 0.010139119 -0.12685756 -0.18204646 -0.067347564 0.028575167 -0.054043576 -0.12998429 0.09593448 0.012507024 -0.02941523 0.10312582 -0.2780322 0.13903141 0.07884401 0.00034330456 -0.06312234 0.113681935 0.12672903 0.035180632 -0.056163874 -0.09527946 0.17647052 -0.037245832 -0.080381885 -0.076814905 -0.042037424 0.04249867 0.08698955 0.022134328 0.09556028 -0.061456166 -0.007106285 -0.031050278 -0.09151123 0.06603367 -0.0031467152 -0.14077358 0.15065318 -0.057095643 -0.02922586 0.023631437 0.0369971 -0.07347145 -0.11675133 -0.035453726 0.030555401 -0.049694054 0.008068362 0.06124838 0.21453424 -0.069001555 -0.116894946 -0.12477807 0.0095691355 -0.011266482 -0.0041283784 -0.07898792 -0.10427001 -0.10347033 -0.142071 -0.1181441 -0.03604566 -0.08209414 0.08584939 -0.14088133 -0.04102114 0.04597984 0.0017534614 0.055585515 -0.06652929 0.10486309 -0.021672612 0.096403494 -0.026956556 0.08650897 -0.0893336 -0.043605052 0.03777379 0.054307755 -0.052692305 0.022184292 -0.03598793 0.14867425 -0.0043911706 -0.040782593 0.075784214 0.10555401 0.022192243 0.027311673 -0.12565641 -0.036580645 0.12686427 0.09897867 -0.12712942 0.11497852 0.020670053 0.0019457954 -0.0409113 0.021643994 -0.052693143 0.04962032 0.03349515 0.14339982 0.19374186 -0.11848438 -0.10184472 -0.026758827 0.14274356 0.0021067124 -0.14100537 -0.05663387 0.13809063 0.0055900747 0.08030528 -0.107202746 -0.11703999 0.120080575 -0.040220615 -0.0470581 -0.023784058 -0.08357639 0.09210679 0.052347727 -0.09610971
226 -0.21230258 -0.1993637 -0.07171042 -0.047614023 0.0051640477 -0.13452408 -0.18073721 -0.070707805 0.028488705 -0.05025831 -0.13382469 0.09828041 0.007039804 -0.031532045 0.10583323 -0.27750394 0.13476522 0.08125461 -0.008449156 -0.065183796 0.111218296 0.12281498 0.04017408 -0.055741176 -0.09244402 0.1664226 -0.040793657 -0.080034174 -0.075644635 -0.0447665 0.0408774 0.08977482 0.02640834 0.09806455 -0.057769757 -0.0052839494 -0.03388486 -0.08874044 0.05373493 -0.0065049254 -0.14400283 0.15006842 -0.059733547 -0.030709635 0.02874381 0.042222057 -0.07025364 -0.12402878 -0.02860693 0.034325156 -0.05321377 0.0040188143 0.06735719 0.2185888 -0.07274107 -0.12133766 -0.12856473 0.010018316 -0.014805312 0.0027573798 -0.07839943 -0.10978076 -0.10460557 -0.15199175 -0.11062304 -0.04345608 -0.07378616 0.079804555 -0.13388102 -0.042410158 0.038970742 0.0015648967 0.05974834 -0.06330808 0.10407036 -0.025388265 0.094798416 -0.021299362 0.089909606 -0.0896244 -0.05083399 0.04477917 0.05022528 -0.05164254 0.023000382 -0.03584343 0.1521163 -0.0061554504 -0.046108797 0.073604465 0.098699935 0.022269629 0.026547309 -0.12826532 -0.035847172 0.115305275 0.09132009 -0.12302009 0.112118654 0.014275878 0.0056152707 -0.036315482 0.023415353 -0.051490948 0.04735767 0.0296875 0.14369424 0.18865381 -0.11373092 -0.10263432 -0.032042146 0.13661082 -0.0016321946 -0.13237557 -0.056052074 0.13782677 0.0079689585 0.08076079 -0.10674708 -0.11329597 0.11731479 -0.033729263 -0.045326736 -0.025272535 -0.08518347 0.09407689 0.056529716 -0.09080506
109 -0.21901487 -0.20643653 -0.069392666 -0.047147974 0.0110229375 -0.13237727 -0.18229447 -0.07309989 0.029890921 -0.05199888 -0.13062654 0.09814431 0.0075140893 -0.028960211 0.09274872 -0.2594521 0.1338434 0.07551961 -0.006935638 -0.056516327 0.10219278 0.12424232 0.04056055 -0.04645864 -0.09568736 0.16670649 -0.034341317 -0.081246406 -0.07628685 -0.04582075 0.042978324 0.085976236 0.024467153 0.09321132 -0.058055136 -0.008315388 -0.03234868 -0.085165784 0.06261258 -0.004384638 -0.15175481 0.15597239 -0.059074618 -0.032000624 0.023645071 0.042201575 -0.07015993 -0.134037 -0.032172937 0.036744144 -0.05588467 0.0056254105 0.06157724 0.23075825 -0.071868606 -0.12921998 -0.12874465 0.013851276 -0.014314905 0.00023497718 -0.08304959 -0.115346454 -0.107693255 -0.15615076 -0.11341293 -0.039680917 -0.076957114 0.08878225 -0.13383092 -0.04769372 0.041112084 -0.0007714453 0.057427004 -0.058779296 0.1041063 -0.023173947 0.09949222 -0.02268017 0.08869595 -0.087507516 -0.045119733 0.044690944 0.054385293 -0.050246138 0.02173855 -0.035437457 0.14360991 -0.00583011 -0.038269307 0.0745447 0.10177498 0.02481474 0.028848384 -0.13104199 -0.03910292 0.13308263 0.10345311 -0.12898271 0.124989964 0.018180897 0.004757838 -0.033915345 0.022132806 -0.051250696 0.051386032 0.028517755 0.14440042 0.19628978 -0.11746807 -0.103611805 -0.03435588 0.14513777 0.0060074273 -0.14030407 -0.053348202 0.14286606 0.0049374662 0.08376259 -0.10456731 -0.11391874 0.12427905 -0.037321195 -0.042244196 -0.023368303 -0.08484728 0.095956534 0.05939506 -0.09322562
20 -0.22491223 -0.21699257 -0.073912986 -0.05296996 0.005611169 -0.14668494 -0.1841039 -0.072519355 0.026205273 -0.055616766 -0.13857487 0.094336055 0.013122308 -0.028403614 0.09640657 -0.2731532 0.13044712 0.076622985 -0.0045505324 -0.06417176 0.1072368 0.11631799 0.037805676 -0.050994202 -0.0916264 0.16293715 -0.03458349 -0.07343912 -0.07297493 -0.05101211 0.042509977 0.08870871 0.028331079 0.09900965 -0.059050165 -0.001471793 -0.027570447 -0.084116966 0.055505775 -0.0073740194 -0.14343856 0.14088672 -0.06257358 -0.02757355 0.026662638 0.041542027 -0.0627421 -0.122417174 -0.037677903 0.029564274 -0.06014798 0.0057589156 0.069111064 0.22077008 -0.0736807 -0.12599343 -0.12859082 0.0056396932 -0.016988833 0.0031333067 -0.083382405 -0.111213766 -0.106794484 -0.15457508 -0.11244382 -0.04178001 -0.07829471 0.08858376 -0.14001945 -0.038733404 0.044135444 0.0063215503 0.06169221 -0.060707945 0.109060585 -0.020369727 0.09668349 -0.027454523 0.08519969 -0.08348259 -0.04563755 0.03931659 0.050766375 -0.053145733 0.027042767 -0.035756897 0.14786306 -0.0002721273 -0.044412687 0.076735824 0.101317875 0.026085863 0.02804114 -0.1254081 -0.040545534 0.12253852 0.09619653 -0.122461386 0.11339211 0.020501802 0.0046309712 -0.044091247 0.019040037 -0.051637463 0.053771853 0.03696738 0.1548924 0.20716523 -0.12605903 -0.10435039 -0.037040714 0.15769735 0.002521894 -0.14236207 -0.060463976 0.14786457 0.011330192 0.08747664 -0.1134384 -0.120115 0.12733972 -0.038194727 -0.046795223 -0.03222584 -0.08930475 0.09572654 0.06024868 -0.10175103
