284 128
277 -0.17871784 -0.15778132 -0.084338754 0.035507075 0.044098627 -0.06565743 -0.22232506 -0.008709012 0.0513557 0.043122847 -0.12311342 0.09563714 -0.027632995 -0.082009465 -0.15354125 -0.15164022 0.12397467 0.08151213 -0.04190111 0.023085123 0.1097904 0.084488705 -0.024372136 0.024903506 -0.07728207 -0.0018075128 -0.021517774 -0.118317835 -0.04875402 -0.19180268 -0.007911125 0.025346199 -0.05595384 -0.063239515 0.018041927 0.0608558 0.018255506 -0.1280571 0.0674524 -0.0035125809 -0.027487816 0.12965433 -0.0760781 -0.10031663 -0.042980436 -0.04842159 -0.048195206 -0.17790301 0.0294814 0.11449842 -0.07713865 0.0028695574 0.18824138 0.13897727 -0.061137643 -0.055638615 -0.121505134 0.037929427 -0.056275718 -0.07358019 -0.100646414 -0.14385557 -0.05214159 -0.024208834 -0.09385912 0.03033842 -0.02477759 -0.023496376 -0.037961002 -0.008860084 0.07706867 -0.016410204 0.16059268 -0.03380619 0.102354035 0.056500923 0.19441564 0.004465998 0.047652908 -0.051235314 0.05543896 -0.016833073 -0.21997754 -0.003973497 0.060322877 -0.033666216 0.12588511 0.022424543 0.030522913 0.10076369 0.08660399 0.045444306 0.008089805 0.027285792 0.011092867 0.10059166 0.07075886 -0.22239931 0.066804655 0.0047928505 -0.1812735 0.028382877 0.061499216 -0.03352136 -0.015756818 -0.033867642 0.12973118 0.10622434 0.037587073 -0.007849121 -0.008965406 0.19769982 0.032086875 -0.10398188 -0.069613345 0.06188001 0.03492383 0.09130749 -0.111399055 0.021603145 0.059063192 -0.056480408 0.050383013 -0.19596131 -0.1187917 0.19855924 -0.00043975443 -0.11307049
83 -0.19152488 -0.17812768 -0.087270394 0.04408281 0.046980187 -0.061206937 -0.24602944 -0.013911138 0.060969718 0.043766137 -0.12608968 0.11107351 -0.030646387 -0.09020202 -0.15904082 -0.15692064 0.12056936 0.076882385 -0.043237247 0.020785172 0.10148751 0.082120806 -0.024475135 0.017993126 -0.07781928 -0.0104587 -0.01904281 -0.12109865 -0.05775269 -0.19875968 -0.015643822 0.023209943 -0.06367795 -0.068584226 0.02237088 0.06972286 0.02013826 -0.120394886 0.063846365 -0.008480033 -0.025286695 0.11119913 -0.08010998 -0.091269225 -0.035317063 -0.05006365 -0.04864153 -0.16976221 0.029719982 0.11281879 -0.07496964 -0.0019565313 0.1677733 0.13276465 -0.060483098 -0.054286916 -0.10386973 0.038988497 -0.057874184 -0.07692862 -0.10798001 -0.12632008 -0.05268244 -0.023850316 -0.09314714 0.03162695 -0.022515887 -0.022236396 -0.04497383 -0.015113924 0.07746968 -0.012554641 0.16861378 -0.04003169 0.105898336 0.062809 0.2059077 0.0077485717 0.04855551 -0.045052975 0.056269098 -0.0150279375 -0.23257205 -0.01115718 0.057006773 -0.0467952 0.12674923 0.017968321 0.027223071 0.102398686 0.088647 0.039826613 0.012541108 0.021418922 0.0147989495 0.10831106 0.061740518 -0.21379651 0.06698996 0.003056458 -0.17315066 0.028450552 0.050176807 -0.033956286 -0.010515437 -0.03076662 0.118820615 0.10973739 0.031867553 -0.0042123846 -0.005633086 0.1903806 0.045094706 -0.11055918 -0.071805656 0.061099794 0.039502233 0.09012064 -0.10279152 0.016501596 0.05236536 -0.0539551 0.03917812 -0.19973546 -0.12388172 0.19488329 0.0024398477 -0.106727116
57 -0.18700533 -0.17350027 -0.09154869 0.036866795 0.04505905 -0.061866816 -0.23463818 -0.003919584 0.05517106 0.03935257 -0.12195131 0.10122961 -0.026074838 -0.082604796 -0.15149948 -0.15325695 0.115312204 0.07333821 -0.044733353 0.022608288 0.100952275 0.077570476 -0.020963315 0.016416343 -0.0796358 0.0027396732 -0.018653722 -0.11214309 -0.052269213 -0.19868268 -0.008120045 0.021161465 -0.061851695 -0.07144697 0.024256557 0.06755674 0.021033736 -0.12678123 0.064818755 -0.0012637496 -0.026957663 0.12702607 -0.08116435 -0.09919089 -0.040506955 -0.04699941 -0.04978957 -0.1742028 0.026838524 0.11924937 -0.082620844 0.008438596 0.18254295 0.13964126 -0.064468555 -0.06493247 -0.114919804 0.04067937 -0.052494533 -0.06956812 -0.10534697 -0.13478938 -0.055225298 -0.018878827 -0.092014015 0.024830325 -0.025014397 -0.02477274 -0.04395919 -0.011356346 0.07168768 -0.011815197 0.15743412 -0.035255134 0.10340024 0.05644106 0.19824839 0.0052123275 0.051755 -0.045263134 0.055004023 -0.012365177 -0.22189163 -0.011836606 0.060095068 -0.03715203 0.12836212 0.018315215 0.027998054 0.10221764 0.095045805 0.04720472 0.008096638 0.02891563 0.0125013655 0.10693325 0.0662693 -0.20926097 0.06421198 0.004030882 -0.18996048 0.03009195 0.056753125 -0.037330538 -0.012625259 -0.025087852 0.13074447 0.11140402 0.027975734 -0.008057718 -0.00518739 0.19993481 0.036463745 -0.108343884 -0.06843799 0.06552632 0.036905438 0.08939982 -0.11147729 0.020767145 0.058927737 -0.06031158 0.045064718 -0.19732861 -0.124345355 0.19945857 -0.0030638198 -0.11123768
225 -0.18089369 -0.16922516 -0.08016183 0.04231444 0.039386865 -0.057406873 -0.22309522 -0.00983078 0.055440564 0.033235613 -0.11948482 0.108588606 -0.02460328 -0.0836575 -0.15151234 -0.15526213 0.12236914 0.065908514 -0.046317544 0.02063331 0.102961026 0.07912176 -0.026855046 0.018451333 -0.07400814 -0.0033807019 -0.01480834 -0.11788924 -0.05140394 -0.20212407 -0.009511091 0.018985463 -0.058540784 -0.06830823 0.022916766 0.064036965 0.021257872 -0.115257904 0.064099796 -0.0025871124 -0.028467722 0.12209564 -0.073327005 -0.09241276 -0.036407042 -0.050905522 -0.052931212 -0.17349248 0.029903308 0.11711939 -0.08028327 0.0033760783 0.18397036 0.14052826 -0.06594161 -0.052306663 -0.11517748 0.035827585 -0.052199267 -0.070352316 -0.1054485 -0.13322008 -0.058238972 -0.023372004 -0.09004888 0.022876022 -0.019023601 -0.022120208 -0.040672373 -0.015808254 0.0725804 -0.0164219 0.15788585 -0.03157609 0.1004735 0.060986273 0.20775157 0.009306271 0.055176113 -0.049662475 0.054386448 -0.01495639 -0.231362 -0.018995581 0.052210033 -0.03812902 0.12582548 0.019847475 0.03137051 0.105156854 0.09108463 0.04440322 0.007326591 0.031706892 0.01463393 0.10124972 0.071068764 -0.2244895 0.06377613 0.011546347 -0.18172981 0.02553675 0.054398153 -0.035540204 -0.010563695 -0.032135155 0.12709586 0.1081632 0.02519421 -0.013645629 -0.009329619 0.19445397 0.04064578 -0.09797378 -0.0715028 0.06634047 0.032581683 0.08633928 -0.11222864 0.020227017 0.050417572 -0.060465902 0.04878323 -0.19669586 -0.12332513 0.19394816 0.003924568 -0.11100954
9 -0.18838538 -0.17201069 -0.08440818 0.041018922 0.03756279 -0.064642474 -0.23575315 -0.0066952063 0.062206086 0.03677916 -0.1238074 0.110967316 -0.025645876 -0.0873634 -0.15214977 -0.15535986 0.12252538 0.082122736 -0.041834023 0.027745895 0.09584611 0.08424609 -0.016467443 0.014858935 -0.0838602 0.0012673291 -0.024601918 -0.12566149 -0.05114541 -0.19655934 -0.0050731367 0.027271945 -0.06561186 -0.074108675 0.027824707 0.065143146 0.022697559 -0.11772865 0.06748327 0.000115818526 -0.030941667 0.11862123 -0.076180674 -0.090131 -0.039751194 -0.049791593 -0.05322645 -0.17988928 0.02722581 0.10966736 -0.0846667 0.006123011 0.1879533 0.13715383 -0.0542768 -0.05417919 -0.11162828 0.037561122 -0.05364482 -0.07430543 -0.11133983 -0.13939081 -0.05890147 -0.025859788 -0.09130379 0.027194995 -0.023484735 -0.023873432 -0.039621893 -0.010209601 0.07336391 -0.014554025 0.15892597 -0.03767064 0.110085614 0.056656208 0.19821644 0.01595242 0.052461877 -0.050082948 0.061733715 -0.016140368 -0.23326461 -0.018285042 0.054878816 -0.034448262 0.12919727 0.021259341 0.024424471 0.10209284 0.09239109 0.039418016 0.015722932 0.03502849 0.011486397 0.10243893 0.07145849 -0.22993621 0.066911474 0.0049682828 -0.18252465 0.024838442 0.054558393 -0.032565676 -0.018214261 -0.029973576 0.114992335 0.10997083 0.027675102 -0.010834262 -0.009787907 0.18324147 0.043460593 -0.102985375 -0.06779543 0.058404133 0.02896041 0.096996896 -0.10914531 0.025483286 0.05084813 -0.051840145 0.041491274 -0.18790811 -0.11771824 0.19920297 0.005834836 -0.10624465
192 -0.17997535 -0.16843615 -0.08384556 0.041300174 0.038504668 -0.06310234 -0.227156 -0.0014550899 0.059683952 0.03410249 -0.12248549 0.10134631 -0.028365953 -0.09021036 -0.15151548 -0.15039602 0.12071566 0.07940616 -0.04151668 0.02337833 0.103318095 0.07616529 -0.028605666 0.022945542 -0.08187121 0.005004491 -0.018951558 -0.121574484 -0.05373699 -0.1980197 -0.0036415528 0.021748168 -0.05569635 -0.07782602 0.025435016 0.064856425 0.01915242 -0.122511804 0.06566848 -0.005399108 -0.026516078 0.1312159 -0.07758572 -0.09997635 -0.04444578 -0.04657994 -0.04856048 -0.17949621 0.026680032 0.11988626 -0.08086527 0.0032905207 0.19071992 0.14401491 -0.054674625 -0.06263376 -0.116928816 0.038032085 -0.04872543 -0.076811224 -0.10175917 -0.13969028 -0.054498386 -0.025247097 -0.09328248 0.026729638 -0.026301563 -0.022800129 -0.04521167 -0.009084529 0.07175869 -0.015180222 0.15098646 -0.03079494 0.09919159 0.05176554 0.20105359 0.004238061 0.04454544 -0.053957444 0.058092944 -0.017557206 -0.22745815 -0.006867146 0.05952435 -0.02829169 0.12209314 0.020766048 0.02646477 0.10283493 0.08997361 0.050925072 0.010083626 0.029335735 0.01567785 0.10028759 0.06918931 -0.21810348 0.059712313 0.0030843439 -0.18018888 0.030313734 0.059372567 -0.033331934 -0.015844127 -0.028471582 0.12876938 0.10583675 0.029304389 -0.014990724 -0.011617908 0.19168057 0.036175735 -0.101872995 -0.06610055 0.06601224 0.034737345 0.086403586 -0.11074503 0.025638212 0.053834546 -0.050957076 0.041584868 -0.1885403 -0.117737405 0.20036383 -0.003917187 -0.111632906
59 -0.18690982 -0.17742981 -0.078386836 0.041430503 0.043957327 -0.059915498 -0.2398153 -0.008137761 0.05455599 0.03975512 -0.12893666 0.11076246 -0.022390299 -0.080836415 -0.150642 -0.15076067 0.123958714 0.073585816 -0.0425955 0.02578697 0.10368246 0.082514234 -0.022675991 0.018944224 -0.07768926 -0.010186854 -0.023848906 -0.118391424 -0.05388024 -0.19954187 -0.014582341 0.02777239 -0.06310794 -0.0772706 0.02328456 0.06494879 0.024656931 -0.12259181 0.0659815 -0.010102881 -0.030390304 0.11233164 -0.07918717 -0.08914806 -0.031313892 -0.048239693 -0.052539192 -0.1790126 0.03268454 0.11535371 -0.07675743 6.630048e-05 0.18445885 0.14479424 -0.0545758 -0.052604765 -0.111587055 0.040387772 -0.06109383 -0.07676221 -0.11678543 -0.13235822 -0.049886193 -0.026705073 -0.09330265 0.029239826 -0.030908238 -0.021930452 -0.04274841 -0.019597007 0.07909585 -0.023615792 0.17129017 -0.037869558 0.10821619 0.06120557 0.20720096 0.009351394 0.055072483 -0.042660277 0.056518503 -0.017616184 -0.23905735 -0.010683258 0.053805854 -0.041446783 0.13544007 0.022851102 0.02795064 0.09942298 0.08731287 0.041070964 0.015881915 0.029762382 0.0068038222 0.11166712 0.06981056 -0.23608819 0.07001296 0.0074229166 -0.16558693 0.031164922 0.054548442 -0.032314338 -0.01665054 -0.030481618 0.1163512 0.09900946 0.025434693 -0.0011453532 -0.0105235465 0.17499489 0.04036055 -0.09888476 -0.069623224 0.062415015 0.038648255 0.087491155 -0.099767245 0.018936878 0.05001667 -0.053179525 0.04158748 -0.18534796 -0.11399527 0.18181348 0.011598653 -0.10058839
115 -0.1760951 -0.16978338 -0.081357226 0.037470594 0.04124117 -0.063184194 -0.23084703 -0.006901157 0.05624169 0.03671724 -0.121095866 0.09886116 -0.028625578 -0.08848188 -0.1494858 -0.15245278 0.11834179 0.077077 -0.0452892 0.016276129 0.10327896 0.08516762 -0.020760877 0.02229848 -0.08091483 -0.004064781 -0.02508449 -0.120888405 -0.0521654 -0.19345567 -0.0067446134 0.01850759 -0.060220137 -0.07548452 0.022611069 0.067458615 0.024219029 -0.1292787 0.06892027 -0.0016219157 -0.028694812 0.12435626 -0.08556963 -0.09733967 -0.03965182 -0.048725948 -0.047850557 -0.17913792 0.024710476 0.1123331 -0.08339173 -0.0017943273 0.1860928 0.1414085 -0.056600012 -0.055343024 -0.11128466 0.03923888 -0.04915039 -0.068312846 -0.1026358 -0.1380404 -0.04336751 -0.02633976 -0.100852855 0.03255452 -0.027838893 -0.019289486 -0.045384783 -0.011778839 0.07008983 -0.018049993 0.15843982 -0.03358152 0.10546604 0.062003206 0.19732442 0.0036877217 0.047321342 -0.05164376 0.05265554 -0.015731502 -0.2227993 -0.008658446 0.056049805 -0.04040332 0.12701786 0.022302775 0.027102556 0.09237463 0.087481104 0.04316674 0.013899046 0.025888108 0.014295862 0.1078039 0.07038064 -0.2256349 0.06433584 0.005620804 -0.17747203 0.023776166 0.063929975 -0.037190508 -0.01223585 -0.027039435 0.1202279 0.10562657 0.032474343 -0.008863958 -0.006664957 0.20023175 0.037445743 -0.11027203 -0.06984211 0.06487765 0.03923566 0.092724234 -0.10950536 0.019000065 0.054872982 -0.05727944 0.045030765 -0.19323246 -0.12457603 0.19802655 5.949648e-05 -0.11067666
119 -0.18390137 -0.17812757 -0.08193731 0.044592228 0.04409064 -0.059730444 -0.23614414 -0.013567936 0.050586086 0.035332747 -0.12146936 0.09894346 -0.029623834 -0.08904497 -0.14959733 -0.15588687 0.11603349 0.077437736 -0.04422967 0.023094345 0.098912984 0.081596226 -0.021672355 0.018926268 -0.07715524 -0.0033958356 -0.023314493 -0.11531295 -0.056513548 -0.19856912 -0.009789892 0.017787484 -0.06538505 -0.06810463 0.023661021 0.064793475 0.026352659 -0.12443121 0.06913101 -0.0035670318 -0.02511041 0.114783175 -0.08246604 -0.09533383 -0.032628637 -0.044953115 -0.05427775 -0.17593208 0.026854096 0.11380339 -0.07436421 0.0029287478 0.18304184 0.13811404 -0.060910936 -0.060449276 -0.1107037 0.0388775 -0.05399019 -0.07148332 -0.1043047 -0.12977634 -0.050812256 -0.023016816 -0.09346385 0.02478966 -0.028856846 -0.02262659 -0.045545973 -0.008375687 0.072833106 -0.015983207 0.16835782 -0.03694052 0.10709501 0.05709812 0.20468925 0.0040940093 0.05418983 -0.047980614 0.05663598 -0.010945292 -0.23228759 -0.0070124594 0.055655032 -0.036691457 0.12441754 0.015237091 0.029467957 0.094912365 0.087577656 0.044036306 0.013883079 0.025968164 0.0074753347 0.10741399 0.06942293 -0.22950308 0.06939151 0.004438488 -0.17224127 0.029051205 0.052444614 -0.032924622 -0.010748023 -0.029774003 0.11654919 0.10211225 0.032589912 -0.011059431 -0.010565956 0.1874502 0.038227953 -0.10291116 -0.06933529 0.062356852 0.032760575 0.09349476 -0.10847248 0.020558868 0.05405523 -0.04917421 0.040169418 -0.19086722 -0.11437313 0.18794633 0.0019114193 -0.103271954
211 -0.18063591 -0.17089744 -0.083955355 0.04296992 0.042617507 -0.063439704 -0.22488183 -0.010629279 0.05850131 0.03562245 -0.1232928 0.10119737 -0.020562202 -0.08085079 -0.14453064 -0.14599504 0.113673985 0.07153263 -0.045944996 0.021198304 0.10014557 0.074068025 -0.018637279 0.024117943 -0.07041901 -0.0014029263 -0.021736316 -0.11310045 -0.056936968 -0.20191398 -0.00861491 0.014790002 -0.062522136 -0.07837719 0.020731708 0.05872754 0.0180019 -0.11806493 0.071504 -0.0058667692 -0.02623253 0.11092812 -0.07629301 -0.088137425 -0.041615758 -0.05108882 -0.051443163 -0.1602911 0.023176935 0.11433296 -0.08844662 -0.00018848701 0.17946953 0.14252135 -0.05888452 -0.05742777 -0.11013744 0.029743439 -0.04832629 -0.07177582 -0.10228504 -0.13197517 -0.053172577 -0.022967378 -0.09907629 0.02881048 -0.032009948 -0.023402968 -0.04704914 -0.007856626 0.07180553 -0.011896902 0.15582988 -0.029720407 0.102931455 0.057029758 0.19674411 0.009125539 0.051365465 -0.047580827 0.05806284 -0.016590806 -0.22254534 -0.014568595 0.061803587 -0.04365028 0.12280411 0.01916653 0.024134241 0.09885737 0.09061805 0.045637142 0.011525652 0.025483085 0.013419475 0.111188576 0.06928646 -0.23168683 0.06788316 0.0071249 -0.17749546 0.020184929 0.054842927 -0.02908434 -0.003606535 -0.03052512 0.12493686 0.11379865 0.03187499 -0.008170361 -0.012345821 0.19978428 0.04291649 -0.10307873 -0.068018675 0.05950648 0.041245352 0.08646113 -0.114485346 0.018028583 0.05804101 -0.058905795 0.049988803 -0.1941884 -0.12606457 0.19893287 -0.0025925864 -0.11169533
2 -0.18489057 -0.17778927 -0.08458428 0.041179266 0.04110275 -0.060919296 -0.23563766 -0.009357162 0.05331608 0.034009296 -0.12305734 0.108776316 -0.021885175 -0.08437348 -0.14872004 -0.15556972 0.118056536 0.07433684 -0.04198548 0.025081547 0.10030058 0.0825879 -0.022250824 0.021172052 -0.08063936 -0.0032359215 -0.02095518 -0.11882835 -0.04979946 -0.1961947 -0.0060253753 0.017341267 -0.06164438 -0.065556474 0.019409956 0.0666571 0.023571286 -0.12657863 0.07126292 -0.0060110753 -0.023755606 0.11222031 -0.07244355 -0.0887534 -0.03676846 -0.0526367 -0.0509124 -0.1673802 0.029908782 0.10988928 -0.07651289 -0.004145403 0.18043283 0.14035322 -0.061913673 -0.055023596 -0.107705064 0.042658396 -0.053863455 -0.06463813 -0.10601422 -0.1302497 -0.053470787 -0.028308826 -0.095521316 0.03176851 -0.025658691 -0.023508094 -0.051158782 -0.011059548 0.07234694 -0.013993632 0.16098425 -0.032687835 0.10320458 0.06326917 0.20464331 0.007249974 0.05476814 -0.05155177 0.050949924 -0.017029347 -0.22898228 -0.011037853 0.06136681 -0.03122516 0.1214311 0.019881582 0.031011766 0.09562499 0.08898137 0.046343096 0.005388126 0.02478613 0.009816745 0.10824079 0.06917541 -0.22565545 0.06521159 0.010117229 -0.16651542 0.018758316 0.05371287 -0.0344339 -0.009373423 -0.0339576 0.12746032 0.109222814 0.025974628 -0.0070850295 -0.012171599 0.20081207 0.042175993 -0.10666826 -0.073401265 0.06169094 0.03767946 0.09063177 -0.11458561 0.015125401 0.056503627 -0.059886284 0.049746737 -0.20080344 -0.12218232 0.19731385 0.0053748176 -0.10986822
106 -0.18675369 -0.17875142 -0.08053724 0.047473446 0.0433209 -0.06938177 -0.24000724 -0.012188127 0.05782855 0.033539716 -0.121201284 0.101854645 -0.025567912 -0.093579076 -0.16079967 -0.16031507 0.12601517 0.07259513 -0.042661432 0.023562592 0.09621608 0.073677026 -0.025809651 0.022008836 -0.082683265 0.00060204504 -0.020133635 -0.12070233 -0.055931874 -0.21413994 -0.012326374 0.023988415 -0.072214216 -0.074702755 0.026812727 0.07443624 0.024698548 -0.12564121 0.072817534 -0.0019087816 -0.025462708 0.1291161 -0.08551681 -0.099758975 -0.04071731 -0.04755107 -0.04813415 -0.17859069 0.031196205 0.10896299 -0.08176353 0.006326295 0.17712142 0.13683026 -0.065566 -0.057642695 -0.10653037 0.04038779 -0.051420894 -0.07803873 -0.10990762 -0.13676581 -0.05014325 -0.027445858 -0.09497389 0.032393068 -0.023867793 -0.02221428 -0.041868873 -0.009723163 0.06998165 -0.015261309 0.16127084 -0.031225523 0.09910603 0.054251246 0.20446561 0.008916189 0.059304163 -0.0462531 0.05905703 -0.011586688 -0.22160569 -0.0142639 0.049851146 -0.037802733 0.11564504 0.015650189 0.02525295 0.0915868 0.08073049 0.046511967 0.009573887 0.029264456 0.012467579 0.10719302 0.067178585 -0.22160968 0.06735172 0.008905377 -0.17364219 0.03368947 0.059121836 -0.036635894 -0.010295294 -0.032517705 0.114370756 0.10356285 0.03510725 -0.005872011 -0.015897196 0.17652452 0.03556298 -0.09448205 -0.069384165 0.06433002 0.033855725 0.08721585 -0.10506115 0.022928495 0.04752268 -0.04498159 0.038442943 -0.18726447 -0.115631886 0.18432428 0.0053099245 -0.10456653
138 -0.178015 -0.16258992 -0.08181257 0.038569298 0.038567163 -0.0639914 -0.2194041 -0.007874762 0.055814225 0.03339953 -0.1224346 0.09941398 -0.028859619 -0.08067969 -0.14710766 -0.14478625 0.123048626 0.07310092 -0.0413211 0.022183433 0.10923338 0.082194805 -0.02564151 0.021406736 -0.074162856 -0.0006545281 -0.013331882 -0.11605255 -0.04462267 -0.18535171 -0.0068709916 0.020640586 -0.05736548 -0.069636784 0.026635658 0.063368194 0.017787224 -0.1261729 0.06970999 -0.003370365 -0.03179331 0.13323435 -0.09019443 -0.10469409 -0.041844077 -0.053802475 -0.052786693 -0.18564573 0.031195886 0.12008852 -0.08575107 0.0028785444 0.19119601 0.15048027 -0.06026355 -0.058515202 -0.12360468 0.037102655 -0.054873098 -0.072462246 -0.10829241 -0.14233424 -0.04716185 -0.027844213 -0.09472328 0.027215192 -0.023218986 -0.024678055 -0.0453889 -0.011033999 0.07318207 -0.020861642 0.16262569 -0.027287852 0.1049018 0.06386315 0.20627452 0.0055702175 0.052002564 -0.052214067 0.059444968 -0.01613938 -0.22593363 -0.01059726 0.05913975 -0.03857682 0.12546092 0.024208684 0.02748468 0.098959886 0.08569008 0.04360854 0.011135582 0.023660166 0.015609142 0.1097442 0.07377795 -0.22343753 0.06575312 0.008243284 -0.18141179 0.03050081 0.05884421 -0.03294307 -0.016212674 -0.031466965 0.12077109 0.09638264 0.033437002 -0.007710294 -0.00529775 0.18988025 0.03535467 -0.09981121 -0.070191085 0.06453206 0.03535352 0.086721666 -0.1069518 0.01805334 0.051335674 -0.053224225 0.04626823 -0.19400598 -0.11754753 0.19294412 0.0023049319 -0.10764226
186 -0.19784977 -0.18050148 -0.08889735 0.046124626 0.04387936 -0.07093636 -0.25004506 -0.010876666 0.055114515 0.032118157 -0.12413375 0.10447465 -0.024927823 -0.09219274 -0.15509754 -0.16035226 0.12237531 0.08036396 -0.040194336 0.02350654 0.10180014 0.08209888 -0.028667511 0.023674153 -0.07940299 -9.004562e-05 -0.018065548 -0.11772279 -0.054914184 -0.21539278 -0.0036580143 0.026922654 -0.07131377 -0.07463419 0.023606153 0.07018522 0.020047922 -0.11300964 0.07198889 -0.009575252 -0.02729948 0.11745044 -0.07936604 -0.09222464 -0.03900333 -0.049631745 -0.053899776 -0.17357932 0.0339002 0.11140605 -0.07265155 -0.000742024 0.17747824 0.1376691 -0.053574346 -0.054190397 -0.10687768 0.03460292 -0.052177478 -0.069908865 -0.101395704 -0.1302222 -0.049138587 -0.027718106 -0.08824166 0.029582174 -0.022562128 -0.025012067 -0.04354236 -0.013570162 0.0725537 -0.011838229 0.15382282 -0.029460652 0.09888757 0.055656567 0.20216092 0.0018466273 0.053470045 -0.04951152 0.062443756 -0.013931343 -0.22783197 -0.010675931 0.053860407 -0.033758886 0.12579739 0.021375818 0.02636075 0.09823087 0.08544346 0.04425101 0.011274533 0.02238841 0.006075409 0.107186034 0.06214885 -0.21501213 0.062303826 0.0054108608 -0.17521627 0.02724603 0.06159732 -0.025454145 -0.015092773 -0.038474135 0.12313967 0.108655855 0.03636343 -0.0059899706 -0.008942255 0.18900248 0.04020568 -0.10031979 -0.07220474 0.0667329 0.03665469 0.090583004 -0.10786166 0.017910214 0.05802173 -0.055102848 0.043709975 -0.19000392 -0.11685778 0.1951742 0.00019128728 -0.11060712
122 -0.18848816 -0.17316768 -0.0853212 0.03959546 0.042456917 -0.0605797 -0.24059577 -0.007282845 0.056329362 0.03465561 -0.12694487 0.095714584 -0.020594282 -0.087453976 -0.15347911 -0.15598817 0.11740154 0.07439384 -0.041198976 0.023479374 0.0973279 0.07838741 -0.029273733 0.020739391 -0.081321575 -0.007813058 -0.015206115 -0.11857102 -0.05405178 -0.20222318 -0.011630555 0.020636939 -0.061157305 -0.06605438 0.025981456 0.069669716 0.019983856 -0.12539908 0.07087513 -0.0083721345 -0.03445508 0.12186863 -0.07958647 -0.094429076 -0.033988632 -0.051346224 -0.048806902 -0.16939308 0.02906129 0.11550636 -0.07588303 -0.002772062 0.1784482 0.13700208 -0.05644283 -0.06051846 -0.10885767 0.04025821 -0.049865264 -0.07173646 -0.10814417 -0.13318175 -0.0482217 -0.02593487 -0.09696939 0.0301868 -0.017461015 -0.024881203 -0.047929622 -0.0144253 0.07770269 -0.017793873 0.16043855 -0.028081438 0.102439836 0.060024332 0.2004228 0.005936476 0.048695378 -0.046725728 0.05455297 -0.013549986 -0.22303396 -0.007964628 0.051955353 -0.03870825 0.12750714 0.0122781005 0.02723392 0.100451924 0.0882899 0.04337323 0.01739296 0.019541455 0.013318105 0.1028354 0.06431252 -0.21531598 0.06373126 0.007120085 -0.17402531 0.031426683 0.060491342 -0.03461531 -0.017322375 -0.02452052 0.124208696 0.10241115 0.03746652 -0.0058781896 -0.010499842 0.18934059 0.04028987 -0.100574605 -0.07569853 0.07012203 0.036812026 0.09185378 -0.10768641 0.02261547 0.055990737 -0.054676797 0.042410072 -0.19677202 -0.12122693 0.1928178 0.0058663976 -0.11344388
41 -0.18927017 -0.18020059 -0.079981044 0.040529836 0.045740917 -0.061040595 -0.2398689 -0.009289502 0.054279745 0.035107315 -0.12295462 0.10444705 -0.030006645 -0.08418364 -0.15029864 -0.15097664 0.11586403 0.07810245 -0.041639954 0.02228876 0.10572582 0.077400595 -0.021187741 0.018118614 -0.07681228 -0.0029059814 -0.023480142 -0.118457325 -0.049992677 -0.19401935 -0.01029791 0.023497542 -0.06234366 -0.069928974 0.02473087 0.07308917 0.022834763 -0.12112872 0.063388884 -0.0056355423 -0.024783883 0.12185122 -0.08581424 -0.100238234 -0.03772102 -0.047412608 -0.047646858 -0.16980033 0.032097396 0.11193515 -0.0807396 -0.0015420824 0.18117103 0.13725992 -0.052972715 -0.05507252 -0.106938645 0.036013868 -0.05237783 -0.07453064 -0.10543039 -0.13232765 -0.04604116 -0.026933627 -0.09541122 0.032349844 -0.029189112 -0.021183973 -0.04618602 -0.0068395515 0.07153034 -0.020100418 0.1579623 -0.03245534 0.103336774 0.058879133 0.19710995 0.0063811885 0.04887419 -0.047813874 0.049890265 -0.017097432 -0.22745188 -0.013086225 0.059996992 -0.040028945 0.12365689 0.017439766 0.025472203 0.09062334 0.08557853 0.040109143 0.017437752 0.027699254 0.009769386 0.114394955 0.06607642 -0.2225675 0.066952914 0.012490931 -0.17947192 0.025850266 0.059043247 -0.038618874 -0.0071202675 -0.027094532 0.1234845 0.107977815 0.030852346 -0.004745918 -0.007818526 0.19543523 0.032125797 -0.110775255 -0.07439886 0.05536707 0.03633282 0.08785608 -0.10982702 0.018137084 0.051007744 -0.055002548 0.04353851 -0.18842772 -0.120274074 0.19326438 0.0025128445 -0.1118414
5 -0.18858771 -0.1761146 -0.08705195 0.04422001 0.046514157 -0.06340385 -0.22838181 -0.008857597 0.061410744 0.037933975 -0.12535156 0.11083119 -0.02691982 -0.08027152 -0.14917259 -0.15350318 0.1200658 0.06893486 -0.03941971 0.026045797 0.10222067 0.083612196 -0.02165097 0.023653368 -0.075114906 -0.0042365766 -0.01979148 -0.11322233 -0.05282565 -0.20371522 -0.005898674 0.022270052 -0.06620654 -0.07617069 0.029095136 0.065357015 0.02311454 -0.11730878 0.06742037 -0.008017746 -0.024963276 0.12616712 -0.08189332 -0.09609782 -0.042319745 -0.05060575 -0.04738861 -0.1760242 0.032851562 0.11565292 -0.080482125 0.0035457767 0.18554059 0.13817087 -0.052811876 -0.056866888 -0.10898823 0.036702137 -0.051021438 -0.077729076 -0.11316754 -0.13693696 -0.05168711 -0.02309273 -0.09426686 0.026674807 -0.024165116 -0.027779741 -0.03956323 -0.013174834 0.06958161 -0.014134595 0.1527097 -0.03706895 0.10629375 0.056536827 0.19688848 0.0058014137 0.049910877 -0.050746784 0.05270297 -0.013863595 -0.22674823 -0.010642753 0.055892766 -0.038917188 0.124649465 0.021801861 0.030334465 0.094361834 0.09318132 0.041201353 0.016113471 0.034605443 0.008878806 0.111107774 0.06500083 -0.22489904 0.0681206 0.013517593 -0.17751506 0.030134255 0.05460442 -0.04118975 -0.015763422 -0.029427985 0.12324175 0.10323475 0.023365756 -0.004579353 -0.014437441 0.18714349 0.039598 -0.10487137 -0.07510025 0.06206826 0.032532804 0.085319534 -0.102131136 0.028568253 0.05242377 -0.05371002 0.043169923 -0.19203877 -0.119321495 0.1978899 0.0009076075 -0.10403101
3 -0.1949428 -0.18054104 -0.08430508 0.040793907 0.047985177 -0.068132564 -0.2377138 -0.006062717 0.055041783 0.03736891 -0.120976426 0.09815681 -0.033257958 -0.088123836 -0.15346962 -0.15757024 0.12088318 0.07675468 -0.0420691 0.021355448 0.09767492 0.08248695 -0.020868888 0.026055701 -0.07519224 0.00021443397 -0.01911075 -0.114690356 -0.04813247 -0.19822766 -0.0046982323 0.018253952 -0.07027112 -0.06980396 0.027110858 0.06473216 0.021425946 -0.119210385 0.07122075 -0.0008100343 -0.032136288 0.12625101 -0.07901654 -0.09714981 -0.046826243 -0.04774557 -0.05066617 -0.18204771 0.027521802 0.11700487 -0.078457385 0.0003148659 0.18676275 0.14384365 -0.06461416 -0.06137834 -0.11736577 0.03989644 -0.058748417 -0.06813725 -0.10788106 -0.13614365 -0.052665185 -0.019849304 -0.09522798 0.024681168 -0.022928044 -0.02267624 -0.044444356 -0.012477784 0.07503631 -0.016073748 0.15109716 -0.030575829 0.096168585 0.05344066 0.19457316 0.004529226 0.049832366 -0.047901753 0.054240372 -0.01336395 -0.22369081 -0.010732232 0.05658308 -0.03207329 0.12383181 0.017537678 0.021456031 0.09650863 0.08557742 0.04560006 0.013971427 0.026924763 0.0046561966 0.10851963 0.06696426 -0.21567997 0.06741077 0.008824786 -0.17842583 0.030240307 0.053255357 -0.029868243 -0.011383838 -0.029847149 0.12466184 0.10521763 0.032708522 -0.008570517 -0.00487095 0.186941 0.040849183 -0.10267114 -0.069892436 0.06441282 0.031271737 0.0914858 -0.10371531 0.021416578 0.05442582 -0.05672226 0.040654693 -0.19052035 -0.12124556 0.19276288 -0.0028097483 -0.10328981
47 -0.19588758 -0.18037573 -0.0863109 0.04439643 0.038234472 -0.06591356 -0.24970646 -0.0067960103 0.058266185 0.039964728 -0.13007851 0.10765413 -0.01945087 -0.0912184 -0.15735275 -0.15429822 0.123960994 0.07785797 -0.037109513 0.029373916 0.10077204 0.08394174 -0.023286043 0.0239412 -0.082227655 -0.0035804394 -0.015596069 -0.11769853 -0.053126544 -0.20879127 -0.010865291 0.022474939 -0.061280232 -0.07222841 0.027310299 0.070705995 0.021579722 -0.12519209 0.07022497 -0.0041179713 -0.025543712 0.12092449 -0.07942497 -0.09556086 -0.032146323 -0.04914403 -0.05456567 -0.17357329 0.02522304 0.11664502 -0.07400862 0.004416331 0.17783193 0.13231726 -0.055259626 -0.05431699 -0.11096025 0.04006116 -0.052922137 -0.07884483 -0.110792615 -0.1332941 -0.051771093 -0.024112301 -0.0928838 0.026975125 -0.022640975 -0.021013737 -0.043939915 -0.007408334 0.07581984 -0.022659525 0.15599658 -0.025362689 0.101636775 0.05261242 0.19402914 0.011809539 0.051706303 -0.046956953 0.05403549 -0.017047288 -0.22051497 -0.01602334 0.0537053 -0.0337329 0.11561009 0.017681835 0.026211018 0.09357622 0.084750935 0.039141446 0.01472535 0.024626544 0.01417597 0.10418014 0.062483925 -0.21913584 0.05941456 0.0071289837 -0.16195217 0.027396929 0.053628013 -0.034337066 -0.018094093 -0.031544533 0.11212161 0.10246229 0.031834673 -0.0045776567 -0.0055745486 0.18635996 0.041483253 -0.103776745 -0.07364313 0.0669578 0.034398954 0.0883453 -0.11140339 0.025484357 0.05072156 -0.053349804 0.0398662 -0.19367252 -0.12067011 0.1957722 0.0037357067 -0.10360065
146 -0.19152182 -0.18180366 -0.0880262 0.039085686 0.037286177 -0.06854392 -0.23967266 -0.0035656996 0.05358123 0.03611678 -0.121283285 0.09962498 -0.024249714 -0.07673715 -0.13943867 -0.1367204 0.10872905 0.07352885 -0.04157827 0.018921094 0.09437572 0.07873589 -0.021734508 0.02649834 -0.07594573 -0.0009882862 -0.023584334 -0.109284624 -0.054710105 -0.19632155 0.00077014987 0.01618604 -0.06318388 -0.08460281 0.021220429 0.06071372 0.015350707 -0.12051675 0.06654028 -0.0028383175 -0.027743943 0.124036565 -0.07455464 -0.10055347 -0.038035426 -0.04525539 -0.052005254 -0.17414816 0.025746342 0.1080603 -0.07838244 0.0027754963 0.18583693 0.13951817 -0.05668674 -0.053649582 -0.11127038 0.03021809 -0.046683982 -0.06617229 -0.09674519 -0.1350705 -0.04934996 -0.023820736 -0.0928974 0.028878167 -0.03019557 -0.019271385 -0.037567176 -0.010664036 0.070357874 -0.01654122 0.1587036 -0.030238708 0.10184801 0.05917826 0.19847721 0.0111846775 0.052998014 -0.052906357 0.06398929 -0.015768657 -0.22630766 -0.011521802 0.061936583 -0.029352887 0.12334733 0.023547625 0.028290154 0.089488484 0.09161333 0.04393376 0.012993233 0.02986494 0.013558281 0.10980523 0.06894361 -0.23533952 0.06947854 0.007141814 -0.17544656 0.02543195 0.052888468 -0.036445234 -0.009745751 -0.035296213 0.12700847 0.10503699 0.026935747 -0.012212834 -0.008264707 0.1955256 0.03760015 -0.10482883 -0.07032496 0.058649097 0.033455875 0.09378157 -0.112089396 0.021988811 0.06405065 -0.055951186 0.048941586 -0.18681857 -0.12095496 0.20117666 -0.003030912 -0.11153024
250 -0.19701464 -0.17539302 -0.08222319 0.039584965 0.042061586 -0.06828022 -0.24662851 -0.0039699753 0.05394504 0.045904335 -0.12175934 0.09575047 -0.026035566 -0.08073492 -0.14762834 -0.14764036 0.11777571 0.08054471 -0.0354745 0.025315562 0.10503136 0.0783842 -0.023642976 0.015177697 -0.08363554 -0.0013283925 -0.021522885 -0.11911188 -0.055060674 -0.19993407 -0.010242584 0.023860969 -0.06193726 -0.06433865 0.025991423 0.07019604 0.017574575 -0.1264751 0.06579779 -0.006888173 -0.033609014 0.123796515 -0.08041941 -0.10028274 -0.03730051 -0.047188044 -0.048767578 -0.16738085 0.024569964 0.11453716 -0.07373134 0.0034204014 0.17753182 0.13221678 -0.058685333 -0.05846253 -0.11173311 0.03706634 -0.05696807 -0.074097246 -0.10277463 -0.13035639 -0.04455727 -0.02753622 -0.095533684 0.02365988 -0.024613878 -0.019806445 -0.039901573 -0.015633011 0.07198863 -0.019622732 0.16347453 -0.032425735 0.10649951 0.06168561 0.20076539 0.006131824 0.04806499 -0.0448199 0.047586907 -0.01331319 -0.21708588 -0.015806943 0.05754009 -0.037965488 0.12594828 0.020311814 0.029415116 0.09440291 0.08859534 0.039532393 0.0162518 0.02893485 0.01161404 0.10555519 0.060404487 -0.21030538 0.061237484 0.0087120775 -0.17968589 0.027364917 0.06077084 -0.038125023 -0.011672338 -0.03127023 0.12887532 0.10651584 0.027142951 -0.0070189545 -0.005353474 0.19803034 0.038553014 -0.11418542 -0.06701261 0.0672504 0.03360638 0.08843565 -0.10967187 0.023720566 0.05592957 -0.057853185 0.05191991 -0.19505277 -0.12560529 0.19552585 -0.0049293577 -0.11790302
145 -0.18403205 -0.16864201 -0.08547967 0.0355819 0.045683116 -0.054967996 -0.23803808 -0.0008965006 0.058433067 0.044071432 -0.12729554 0.09957871 -0.031250756 -0.08790776 -0.15351856 -0.1565803 0.114106126 0.07586564 -0.04355232 0.016026843 0.103573486 0.08346323 -0.01890241 0.026872735 -0.075931534 0.0024503865 -0.017238041 -0.11605791 -0.051120676 -0.20456612 0.0013744213 0.02536514 -0.06855219 -0.080985144 0.025440304 0.07292713 0.022310015 -0.119988084 0.06744974 -3.2695784e-06 -0.028526913 0.12682396 -0.08472419 -0.09661654 -0.037527487 -0.041500777 -0.055019725 -0.17681724 0.029252307 0.1106164 -0.07924246 0.0003169742 0.18009697 0.13587403 -0.05936408 -0.060835417 -0.12044097 0.035328295 -0.0542765 -0.076907896 -0.097693145 -0.13643412 -0.048528817 -0.01858909 -0.09456397 0.022729198 -0.023419373 -0.023945931 -0.041985027 -0.009602868 0.06930922 -0.018600048 0.16288646 -0.03551813 0.11192611 0.06238093 0.2007273 0.00024769118 0.044218756 -0.048265766 0.054844175 -0.008514112 -0.22746663 -0.0028534539 0.05946767 -0.036239684 0.11875399 0.018417072 0.030904504 0.09388302 0.08970297 0.042151384 0.014053051 0.028600313 0.012291293 0.10752972 0.06744626 -0.2175086 0.062406093 0.011301292 -0.1758794 0.035993874 0.054558184 -0.041382298 -0.01748782 -0.030447792 0.12165973 0.09976439 0.030735238 -0.006922572 -0.0029283545 0.19139211 0.032026093 -0.099549204 -0.06678032 0.055759635 0.032683883 0.08865551 -0.097479075 0.022800067 0.048579004 -0.04533783 0.04358352 -0.18442926 -0.11054468 0.19286367 -0.0062050335 -0.10157566
243 -0.18020906 -0.17272301 -0.0883569 0.03623297 0.04275462 -0.06594548 -0.24406706 -0.01208132 0.054852895 0.03689654 -0.12879163 0.102818854 -0.02877085 -0.08371674 -0.14957614 -0.147927 0.12354293 0.07866683 -0.044935077 0.022670325 0.109579846 0.08365067 -0.022570634 0.022065733 -0.08566803 -0.008049735 -0.014800757 -0.123321824 -0.05259307 -0.190913 -0.010150692 0.020391319 -0.06095079 -0.07192716 0.021888193 0.066062 0.019080877 -0.13048056 0.067166425 -0.006763695 -0.024800083 0.11898916 -0.08654078 -0.095569514 -0.03433055 -0.053213794 -0.049769357 -0.17575558 0.029912807 0.114508785 -0.07690271 -0.0033236116 0.17663944 0.13645236 -0.058846246 -0.053458262 -0.10821129 0.041414626 -0.05142035 -0.066012636 -0.10067465 -0.13559638 -0.0514107 -0.024544826 -0.08895342 0.031322107 -0.023591751 -0.020175377 -0.039877012 -0.008979838 0.07748436 -0.017886585 0.16639297 -0.03519022 0.10357425 0.062366683 0.20062262 0.010772565 0.05230041 -0.051664203 0.054953177 -0.013836218 -0.23123375 -0.013745019 0.060799956 -0.04096169 0.12323326 0.01950548 0.030226046 0.103399396 0.08602193 0.04634784 0.012516353 0.026106507 0.009541703 0.10351484 0.07207793 -0.22197716 0.06085509 0.011087404 -0.178243 0.034940403 0.060018614 -0.03365534 -0.013673266 -0.035295613 0.12280401 0.109070785 0.033693776 -0.006552596 -0.0042639184 0.20328172 0.037960216 -0.10961031 -0.07116648 0.06408225 0.0344494 0.08624876 -0.10667809 0.014469727 0.05394961 -0.056493435 0.040268045 -0.2040684 -0.12133181 0.20174783 -0.00010611896 -0.10965121
97 -0.18439788 -0.16863026 -0.086325526 0.040375333 0.042298622 -0.07213647 -0.22904766 -0.007644703 0.061647758 0.038483176 -0.12134934 0.099578455 -0.021544022 -0.08246301 -0.14991698 -0.15026064 0.120134585 0.072673544 -0.043744788 0.022596844 0.096092165 0.0737983 -0.019732565 0.01862839 -0.08000499 -0.0024211614 -0.016615137 -0.117074475 -0.051603798 -0.19645879 -0.0038589137 0.022790855 -0.063740075 -0.07377338 0.022580368 0.0705172 0.021690862 -0.11890384 0.06764215 -0.006002022 -0.027525669 0.12076501 -0.085062295 -0.0943237 -0.037358467 -0.049444064 -0.050214052 -0.17425624 0.029069636 0.11211926 -0.08256388 0.006904669 0.18753572 0.14095885 -0.05775126 -0.058781262 -0.11243007 0.035435215 -0.050648693 -0.07254402 -0.10577324 -0.13892114 -0.048594028 -0.028552227 -0.09181567 0.028684322 -0.025880529 -0.024756525 -0.040732577 -0.011948582 0.0761636 -0.014753722 0.15803349 -0.030425822 0.10483878 0.05606718 0.1948619 0.009208589 0.0546323 -0.048905175 0.05190246 -0.010056571 -0.21197163 -0.016408259 0.050506808 -0.03765151 0.11636924 0.021758266 0.025732318 0.089817055 0.0829059 0.042292204 0.012114689 0.03177194 0.011684691 0.11001226 0.06733799 -0.22727238 0.06712163 0.0061212587 -0.18268514 0.027836973 0.05548339 -0.034842536 -0.009452139 -0.030107176 0.13016933 0.110683076 0.031707995 -0.008300662 -0.015295101 0.19247538 0.040843412 -0.0994638 -0.06856395 0.06468517 0.034578312 0.0901871 -0.107505605 0.018299937 0.057788737 -0.05522803 0.046618644 -0.19690086 -0.12353882 0.19843653 0.002506213 -0.109853
52 -0.18114664 -0.1637234 -0.080637075 0.03628801 0.037770726 -0.06851357 -0.22302194 -0.000704245 0.05297592 0.032185107 -0.11436399 0.09053606 -0.017670909 -0.085025184 -0.15391503 -0.14814353 0.11960832 0.07422726 -0.03660154 0.024773888 0.10690555 0.07703639 -0.02712648 0.021320762 -0.0830895 0.0034531732 -0.021391975 -0.11361976 -0.050180763 -0.19898234 -0.0047382307 0.02224264 -0.056458928 -0.07417951 0.023305563 0.06441072 0.015189535 -0.12505366 0.067195065 -0.002273309 -0.026506465 0.13028361 -0.083848454 -0.09647517 -0.04020087 -0.0504215 -0.049419075 -0.17101355 0.027859604 0.11724687 -0.08471502 0.0010818238 0.19327682 0.139664 -0.05425069 -0.0571801 -0.120353796 0.033179227 -0.051756326 -0.07715498 -0.10674886 -0.14378862 -0.053525187 -0.029102778 -0.09235871 0.03144131 -0.02201208 -0.021307336 -0.041466925 -0.008902445 0.06368606 -0.016092919 0.14448193 -0.024851056 0.091083005 0.054036416 0.18905623 0.0030792628 0.05081533 -0.04359023 0.056429606 -0.020816984 -0.21552595 -0.010819765 0.05654659 -0.03536987 0.12589055 0.027909838 0.028639356 0.0976371 0.09359739 0.04356274 0.005531019 0.024147514 0.013001689 0.09190911 0.063495636 -0.21332192 0.05807152 0.012706713 -0.18299323 0.03217155 0.06970963 -0.03892118 -0.014527502 -0.031470884 0.13004084 0.101241075 0.026337763 -0.004320704 -0.013196762 0.19610102 0.03761255 -0.10376746 -0.06659005 0.061045665 0.025961194 0.09343594 -0.11181754 0.02007815 0.05617619 -0.058486637 0.0466655 -0.19036923 -0.112399526 0.19685587 -0.0073072594 -0.112331
260 -0.1897385 -0.1682796 -0.08418017 0.040966615 0.038317777 -0.065601654 -0.23741408 0.0002991558 0.06338734 0.042902887 -0.1201629 0.10309657 -0.03324392 -0.08012569 -0.14713152 -0.14838862 0.12101891 0.079389505 -0.04390475 0.018908314 0.10336563 0.08645864 -0.014825717 0.029082263 -0.078036994 -0.002578692 -0.019790178 -0.11645184 -0.04891644 -0.18506825 -0.007631201 0.019686103 -0.06382108 -0.07084621 0.025749926 0.061837282 0.02213817 -0.12733291 0.060380325 -0.007550803 -0.024073202 0.12209976 -0.07285386 -0.09253948 -0.035630107 -0.047896307 -0.051075246 -0.16967577 0.03314229 0.10805016 -0.073688485 -0.0006380605 0.18624973 0.14154778 -0.05833902 -0.05646181 -0.11915663 0.03489063 -0.0550736 -0.07671428 -0.10192407 -0.13316847 -0.052008677 -0.024539698 -0.093601234 0.028079852 -0.020291157 -0.018713236 -0.048562147 -0.019371314 0.07207165 -0.024090473 0.1654901 -0.03250938 0.10753151 0.06474366 0.20148006 0.003278463 0.054927997 -0.047485884 0.05858987 -0.017578006 -0.2269899 -0.012966144 0.05889202 -0.040219832 0.124115095 0.024618022 0.034140054 0.09817307 0.091047674 0.0447494 0.014490763 0.027764317 0.016605161 0.10791746 0.07495319 -0.22907911 0.06082528 0.0077092657 -0.17658643 0.03673614 0.051155645 -0.038216304 -0.008819967 -0.037461232 0.13091703 0.108267784 0.03108769 -0.007939959 -0.0062891496 0.19792111 0.03611886 -0.10466665 -0.07095784 0.05818938 0.036552545 0.08675668 -0.11074557 0.025111487 0.0546814 -0.046186775 0.042096525 -0.19312541 -0.1137833 0.19400541 -0.0103029115 -0.099753685
48 -0.18741581 -0.17573878 -0.08960856 0.042752963 0.03716801 -0.068294644 -0.2358629 -0.0040463237 0.059756417 0.03563172 -0.12599175 0.1056491 -0.018000428 -0.07969574 -0.15155509 -0.15644465 0.111970745 0.07204745 -0.04191594 0.031161306 0.10237956 0.0766891 -0.029444179 0.021424865 -0.08041587 0.005066911 -0.026328588 -0.12075045 -0.055985298 -0.20783323 -0.003362412 0.019547373 -0.059866626 -0.07322766 0.018295903 0.06354623 0.025137367 -0.124385014 0.067820325 0.001521058 -0.031188294 0.11981746 -0.07855849 -0.09696541 -0.03633044 -0.048785377 -0.049851656 -0.17685787 0.023655681 0.11491415 -0.07945735 0.0079748 0.19095759 0.14791103 -0.059124902 -0.055100493 -0.12322351 0.042018205 -0.05498447 -0.081350975 -0.10854429 -0.14034493 -0.052318122 -0.02353229 -0.09671042 0.028173361 -0.028847491 -0.026191866 -0.03709558 -0.008217067 0.07147107 -0.016644424 0.14485595 -0.02709535 0.100693405 0.053073414 0.18482092 0.005179364 0.051010843 -0.042513855 0.059513286 -0.016779233 -0.21145292 -0.013352496 0.0542118 -0.040370673 0.11733573 0.02463683 0.02555695 0.09558206 0.087878875 0.050408114 0.0032475824 0.03097754 0.012875641 0.10699822 0.064466275 -0.2176367 0.06542551 0.009514955 -0.18081215 0.023737695 0.059321728 -0.031863518 -0.012279032 -0.02684753 0.116061226 0.10918543 0.024943246 -0.0066258907 -0.014037434 0.1851645 0.042015836 -0.10477667 -0.07406656 0.060538225 0.034627132 0.092828676 -0.110567674 0.018883334 0.059683558 -0.05573466 0.04888075 -0.18567978 -0.12231644 0.19827566 0.0046141446 -0.10775059
121 -0.19019894 -0.18200764 -0.08359452 0.041673645 0.044932507 -0.06827174 -0.24121164 -0.009575163 0.06036848 0.040184338 -0.1259655 0.10226933 -0.029872162 -0.08419117 -0.15229206 -0.15812366 0.11958767 0.08093262 -0.03923243 0.020102372 0.107989326 0.08548271 -0.020765597 0.021516602 -0.07782791 -0.003602913 -0.020578021 -0.11627417 -0.051985946 -0.20684616 -0.0062403637 0.022186885 -0.06719817 -0.07294523 0.0248774 0.066080466 0.020172087 -0.12855719 0.0677582 -0.0094696395 -0.030969266 0.13319536 -0.0829973 -0.09951926 -0.045103483 -0.05014262 -0.047233336 -0.17501841 0.032303773 0.1116969 -0.07887413 0.00036091724 0.18439995 0.1468663 -0.058766335 -0.054923203 -0.115948714 0.036454223 -0.05776384 -0.0688217 -0.11312115 -0.13751191 -0.053116594 -0.028466346 -0.09542467 0.03041426 -0.023227403 -0.028110964 -0.047856603 -0.010886482 0.073019534 -0.016429137 0.15804344 -0.038796343 0.09839992 0.056898035 0.19045423 -0.000828331 0.049171336 -0.044756822 0.052400127 -0.012675568 -0.21599278 -0.008628323 0.057869848 -0.034182098 0.12703031 0.020036086 0.023799017 0.09187499 0.085922286 0.03997757 0.015151658 0.026765773 0.015071017 0.109645665 0.067660615 -0.22890846 0.065122455 0.007968942 -0.17629305 0.028638158 0.05487438 -0.03102401 -0.0049568987 -0.03435115 0.1299538 0.10582982 0.030527093 -0.005477628 -0.004172475 0.18786506 0.040775962 -0.10643297 -0.068866305 0.061625056 0.037534166 0.08446228 -0.11127913 0.02071701 0.052717824 -0.050542485 0.046375163 -0.18642627 -0.12119748 0.1927722 -0.0028361005 -0.10973584
198 -0.18134111 -0.17741112 -0.08200623 0.037494835 0.03452648 -0.06756649 -0.24364503 -0.00848194 0.060953297 0.043010287 -0.13557467 0.10430048 -0.024904191 -0.08714351 -0.15618521 -0.16169101 0.1269848 0.074959934 -0.04055369 0.024586752 0.096776 0.081951864 -0.027404018 0.02310296 -0.087769 -0.0018620995 -0.018961258 -0.12386185 -0.057235457 -0.2069082 -0.013769231 0.024369268 -0.06310031 -0.07341838 0.027593326 0.07480022 0.026194615 -0.12219856 0.06494839 -0.0018724514 -0.024159793 0.12036299 -0.07939684 -0.09535921 -0.031770676 -0.04681549 -0.049712196 -0.17300338 0.02822399 0.11468285 -0.08008754 0.005183204 0.18149835 0.13827346 -0.061053634 -0.05830825 -0.10651311 0.03895263 -0.053318128 -0.07032494 -0.107506216 -0.13780084 -0.04695233 -0.024549145 -0.08895179 0.0253781 -0.017953295 -0.021090345 -0.043768678 -0.012839223 0.07395942 -0.0136268 0.15464972 -0.028683916 0.10532482 0.06171249 0.20045419 0.0064694053 0.047971535 -0.04664387 0.053820215 -0.007312556 -0.2257246 -0.0124959145 0.054808177 -0.03180409 0.114425056 0.014336141 0.021491764 0.094053924 0.08840361 0.040840924 0.016979616 0.023172641 0.017039072 0.101073794 0.06727884 -0.21551153 0.06397154 0.0025256472 -0.16608109 0.030094093 0.05248708 -0.03814579 -0.019104453 -0.029545726 0.11996259 0.09910937 0.030738546 -0.009230182 -0.013671849 0.18415634 0.039848574 -0.10069359 -0.06724258 0.06638769 0.035361644 0.09468689 -0.110010415 0.026392054 0.05216985 -0.047695227 0.037902277 -0.19260599 -0.119169705 0.19467248 0.0016134185 -0.10801627
142 -0.19054887 -0.17829105 -0.08809454 0.033284474 0.0419223 -0.058187902 -0.23300867 -0.0021474909 0.051645707 0.03825405 -0.12231205 0.09742502 -0.027166415 -0.078156866 -0.14874041 -0.14911553 0.12216897 0.07785384 -0.042147078 0.021351125 0.102009095 0.07970121 -0.02349939 0.019483056 -0.07141106 -0.0005568523 -0.02040622 -0.11078244 -0.04991959 -0.1890126 -0.00309513 0.018202972 -0.058214836 -0.07659987 0.022234635 0.06574112 0.017622607 -0.12552845 0.064842656 -0.0068912073 -0.031503823 0.12653053 -0.078311935 -0.09896591 -0.04305546 -0.04165004 -0.053249415 -0.17111957 0.03376734 0.11221681 -0.0792281 0.0026712695 0.18821174 0.14308119 -0.061485756 -0.05006357 -0.11840335 0.03404655 -0.048055336 -0.0710603 -0.09987178 -0.13367681 -0.052291922 -0.022208754 -0.09801742 0.028777683 -0.035692733 -0.018812072 -0.04073864 -0.013886793 0.07265027 -0.01927866 0.16037787 -0.03794384 0.103601724 0.060698405 0.20473619 0.0035370989 0.04877596 -0.050278846 0.054925296 -0.021266472 -0.22310436 -0.01028242 0.06399308 -0.03595346 0.13049088 0.021287456 0.0302775 0.098016955 0.08712955 0.041723225 0.013036979 0.02836976 0.018272623 0.105590396 0.07075321 -0.22444922 0.062237665 0.007528157 -0.1730359 0.028732762 0.054977335 -0.034565087 -0.008211749 -0.03333701 0.1248584 0.1040503 0.03359093 -0.007337302 -0.0055983453 0.19506449 0.03501679 -0.10764823 -0.068715036 0.057582617 0.03540224 0.08419468 -0.10064158 0.020409098 0.058743168 -0.051429883 0.049097423 -0.18944775 -0.118664734 0.19612218 -0.0044579944 -0.101285204
264 -0.19511576 -0.17892091 -0.08877105 0.039924037 0.050880443 -0.064942084 -0.23843366 -0.006143983 0.05260524 0.0382933 -0.11176474 0.09897226 -0.022054464 -0.09033236 -0.14847384 -0.15507813 0.12149998 0.073762454 -0.045976017 0.020670708 0.10521546 0.0799144 -0.019985436 0.026323168 -0.07667148 -0.0054715946 -0.023776088 -0.11864703 -0.05640076 -0.21512339 -0.007309081 0.020860627 -0.06617157 -0.07679205 0.024259377 0.063961014 0.024448156 -0.11419508 0.068762645 -0.004502742 -0.02432219 0.11885466 -0.081575744 -0.09963622 -0.039415125 -0.04753947 -0.044943366 -0.16370407 0.029403374 0.118665144 -0.08031261 0.006055642 0.18187556 0.13896811 -0.05632558 -0.058140136 -0.11597889 0.031220423 -0.05783113 -0.07540239 -0.10703207 -0.14204991 -0.05499437 -0.025037454 -0.09120161 0.030760258 -0.023405548 -0.028098956 -0.0459123 -0.00988349 0.07025746 -0.013360605 0.1535323 -0.03540979 0.10029129 0.056729097 0.19892989 0.0022718185 0.04695496 -0.046195354 0.051557016 -0.014518277 -0.22117023 -0.007407984 0.057421993 -0.037584778 0.124271676 0.021890147 0.029968418 0.1002114 0.08474497 0.043030377 0.007764507 0.025848642 0.008861613 0.106286526 0.06255889 -0.22249721 0.06210455 0.004357947 -0.17191021 0.025783757 0.057489272 -0.031166904 -0.005707194 -0.029178096 0.12108756 0.0990252 0.036754087 -0.008159035 -0.013687068 0.1883717 0.040552847 -0.09953293 -0.071364015 0.06315211 0.03454945 0.08021775 -0.10588868 0.01909324 0.048963595 -0.05412631 0.04700645 -0.1855647 -0.11774296 0.19278349 0.00061448436 -0.109186344
110 -0.17963034 -0.17188758 -0.08263607 0.03571821 0.044741865 -0.06511468 -0.22556661 -0.0022669688 0.054818146 0.0398145 -0.1261495 0.092847034 -0.018750492 -0.087207586 -0.15358038 -0.15451609 0.12781802 0.0766162 -0.033998363 0.020749075 0.11171561 0.077548325 -0.02415324 0.026064415 -0.07569442 -0.0029362428 -0.018164793 -0.107970595 -0.05323392 -0.19676572 -0.004576149 0.017866584 -0.064344175 -0.07105233 0.021915661 0.0675896 0.015876113 -0.1272171 0.07245259 -0.0057085226 -0.027984595 0.1387222 -0.08816038 -0.10219876 -0.037853803 -0.048791014 -0.048043147 -0.16928329 0.031373464 0.11331689 -0.084691934 0.0018603408 0.18135016 0.14105527 -0.06368896 -0.056125503 -0.11170907 0.03550672 -0.04920967 -0.070232846 -0.10712763 -0.14393544 -0.054416765 -0.023750944 -0.092126556 0.026348786 -0.023102565 -0.02587729 -0.04317457 -0.009978469 0.069800474 -0.015020937 0.15284415 -0.023360053 0.10480991 0.05813636 0.2014479 0.011692907 0.054943055 -0.047761504 0.055048555 -0.017244993 -0.22319674 -0.013252768 0.058390804 -0.03217715 0.11914761 0.018119281 0.030698719 0.09425479 0.08793661 0.04531787 0.009352408 0.030427264 0.015523158 0.10671814 0.06543476 -0.22748512 0.06479209 0.0113043 -0.17642426 0.03030285 0.0640317 -0.042756498 -0.0144135 -0.033260155 0.12497905 0.10389387 0.033602346 -0.012079846 -0.013475775 0.19207044 0.03550213 -0.10330136 -0.071892865 0.059437867 0.027100962 0.08857475 -0.11605574 0.02435552 0.05420565 -0.05627026 0.04652627 -0.19320846 -0.1181848 0.19803265 0.0016756163 -0.11071941
118 -0.18703786 -0.18091825 -0.084018715 0.033772744 0.044532083 -0.064286165 -0.23658998 -0.007926396 0.05757661 0.035859525 -0.12236565 0.10025109 -0.025440404 -0.08146096 -0.151076 -0.15074392 0.12554184 0.080405734 -0.042862374 0.017470328 0.106876954 0.0805787 -0.02889784 0.02233809 -0.0745259 -0.0011963412 -0.017153362 -0.12174611 -0.047257915 -0.20468543 -0.0046680537 0.021173945 -0.06014978 -0.068052754 0.02652914 0.07236186 0.017360836 -0.12384021 0.077063225 -0.0061512333 -0.036074318 0.13173331 -0.09032108 -0.10417124 -0.05257425 -0.04917881 -0.04658496 -0.17995963 0.028382692 0.114484556 -0.08583919 -0.00025579834 0.18781371 0.1410501 -0.06016835 -0.061914984 -0.11417984 0.035019614 -0.056564625 -0.07465059 -0.10787077 -0.14688846 -0.054151867 -0.026992003 -0.096762486 0.026842192 -0.0255785 -0.027439035 -0.051681228 -0.0075327097 0.074356094 -0.013592734 0.1607515 -0.03054807 0.099422134 0.0591327 0.20104972 0.0004459897 0.048945133 -0.05246945 0.05683592 -0.020433536 -0.23139454 -0.013474009 0.055516526 -0.033640698 0.1252176 0.017703103 0.024325619 0.09950272 0.08385222 0.047412105 0.017026877 0.026228694 0.009063228 0.11008247 0.07103416 -0.23275308 0.06813965 0.012915406 -0.17414805 0.02005301 0.05918731 -0.027652474 -0.008189497 -0.027413648 0.11682853 0.09727181 0.039069917 -0.0069576716 -0.007973912 0.1769138 0.03971002 -0.09629189 -0.070492856 0.060429107 0.037081894 0.079636045 -0.10240385 0.015797101 0.04703899 -0.045754727 0.035385806 -0.17978835 -0.10869326 0.17983787 -0.002153245 -0.10727806
117 -0.18215655 -0.17137831 -0.082504936 0.040636852 0.040070575 -0.066043474 -0.23356086 -0.009568569 0.06605278 0.033836868 -0.12927507 0.11201958 -0.021652514 -0.09286817 -0.15319176 -0.15889609 0.117812775 0.07781894 -0.042328615 0.025009187 0.10653588 0.085555345 -0.018976666 0.01902252 -0.08063247 -0.0034190896 -0.021905178 -0.12102561 -0.05609404 -0.20295428 -0.011646267 0.027209554 -0.057945568 -0.076619215 0.023598088 0.059733365 0.019013278 -0.12429055 0.070278235 -0.0025571962 -0.036707614 0.11923109 -0.082847096 -0.086496666 -0.032123953 -0.051244676 -0.055091817 -0.17891811 0.030790722 0.11822868 -0.08597795 0.00012522303 0.18972737 0.14506057 -0.052450523 -0.051038846 -0.11646489 0.042162396 -0.05625114 -0.07833806 -0.11354879 -0.13375774 -0.053903375 -0.029534187 -0.08828172 0.02953984 -0.018844662 -0.019834083 -0.042839356 -0.013604121 0.0711779 -0.01882021 0.15337959 -0.03738452 0.10612337 0.05947825 0.19206217 0.0033445698 0.053953685 -0.04543837 0.055406652 -0.013819156 -0.23339082 -0.0076148827 0.05531426 -0.034210894 0.12259702 0.021862224 0.029714586 0.09657375 0.09142506 0.040309023 0.015666742 0.026093913 0.010782554 0.10124678 0.06656444 -0.22119085 0.06664303 0.0037055062 -0.17313161 0.03301757 0.053185463 -0.043876942 -0.014870763 -0.030384492 0.121827886 0.10981959 0.031440154 -0.0064133815 -0.007227956 0.18862331 0.048760097 -0.10170119 -0.07439339 0.068822965 0.032780822 0.09734442 -0.10984798 0.022572946 0.052083522 -0.05455815 0.04010336 -0.19382049 -0.12340018 0.1961856 0.0044272207 -0.10456756
61 -0.19858639 -0.18201207 -0.09167938 0.042157643 0.045573052 -0.06752234 -0.24444439 -0.003257636 0.060826093 0.04225388 -0.125232 0.10189194 -0.026364852 -0.08164756 -0.14972644 -0.15053225 0.12013684 0.07599082 -0.045554716 0.018657934 0.09750341 0.07759656 -0.022067659 0.02150173 -0.07597071 -0.0025382976 -0.019964995 -0.113796614 -0.05728944 -0.21714443 -0.0040887427 0.01996413 -0.07272889 -0.0832951 0.026388945 0.067260295 0.02259818 -0.12002417 0.07210386 -0.0036673774 -0.029194487 0.12174451 -0.08194669 -0.100706786 -0.04221791 -0.042849887 -0.04945174 -0.17059627 0.029189143 0.11208327 -0.07337657 0.005750923 0.18196444 0.13707018 -0.060962982 -0.056332085 -0.11362247 0.030623538 -0.058920987 -0.07668286 -0.10233553 -0.13431878 -0.05000487 -0.019055162 -0.095577024 0.021664217 -0.025847046 -0.028940491 -0.040152423 -0.011643 0.07453849 -0.009474556 0.1577337 -0.032985352 0.10486468 0.05975815 0.19588508 0.007641686 0.052802283 -0.048204146 0.05955523 -0.014764768 -0.22498594 -0.011787917 0.05354194 -0.03632713 0.12174484 0.012626949 0.029570112 0.096470505 0.08817802 0.044455178 0.01733947 0.027375426 0.010986229 0.11084925 0.06852554 -0.22822772 0.061085213 0.0066588037 -0.17284597 0.029127916 0.053829167 -0.032035317 -0.010267576 -0.033308685 0.1177879 0.09923216 0.030736418 -0.007767838 -0.011348896 0.1873141 0.039423898 -0.098698944 -0.072580345 0.062317334 0.032996636 0.08659426 -0.10673019 0.023809867 0.050796855 -0.049143314 0.041850187 -0.18132329 -0.10832521 0.1942971 -0.007227795 -0.102027535
258 -0.18630582 -0.17854774 -0.085772835 0.03927552 0.039133467 -0.061910413 -0.22972125 -0.0060526878 0.053176586 0.032257378 -0.116574146 0.104394935 -0.024380889 -0.08079981 -0.15390001 -0.1487182 0.114018545 0.07466387 -0.038828958 0.022617642 0.10469384 0.079857714 -0.019437756 0.01749181 -0.07871269 0.0011935586 -0.024670294 -0.115661904 -0.05455792 -0.20594671 -0.009477439 0.019822523 -0.058366638 -0.07881918 0.016515879 0.057856467 0.020348335 -0.12224666 0.06155959 -0.002951865 -0.025648236 0.12608777 -0.07975014 -0.09362762 -0.03682068 -0.052005403 -0.052640457 -0.1700086 0.029772671 0.122836806 -0.07650721 0.00022448885 0.18649466 0.14237776 -0.05843374 -0.057837803 -0.11286055 0.03714875 -0.048927803 -0.070489295 -0.106452525 -0.13407066 -0.05098519 -0.025363248 -0.09544275 0.030104846 -0.030261723 -0.022552548 -0.04248301 -0.012943935 0.0764757 -0.018305395 0.15424374 -0.02838572 0.09970369 0.056723632 0.1958491 0.011301504 0.05146246 -0.046023075 0.052879706 -0.021248432 -0.2166433 -0.007153759 0.053887203 -0.041628547 0.12536809 0.020621425 0.023408107 0.10000701 0.08797584 0.037222587 0.011731373 0.027768536 0.013350994 0.10772553 0.066825524 -0.22504921 0.05951528 0.008005604 -0.17725319 0.027690172 0.059844993 -0.028330665 -0.013545509 -0.023666319 0.12346407 0.10613287 0.031465396 -0.0096726315 -0.016353196 0.1899139 0.040744983 -0.105964474 -0.06960025 0.061680507 0.03178415 0.08363225 -0.11500159 0.016585283 0.05956103 -0.06094941 0.0400476 -0.19098489 -0.12391856 0.1938098 0.005066561 -0.11485774
144 -0.18603909 -0.1721887 -0.08741776 0.045606695 0.045117997 -0.066029616 -0.23823291 -0.005724911 0.05117273 0.043632604 -0.12816009 0.10400597 -0.025434535 -0.08888433 -0.1508883 -0.15345724 0.12504561 0.07944206 -0.040951643 0.023182716 0.10677455 0.07758248 -0.022062944 0.022107044 -0.07301995 -0.0050922497 -0.026785398 -0.11821671 -0.046230357 -0.20961703 -0.0043378174 0.02465293 -0.06612052 -0.08029075 0.025340876 0.06499823 0.021144725 -0.12809953 0.07119518 -0.010565941 -0.025719726 0.13054499 -0.079940416 -0.09990435 -0.045814574 -0.05019077 -0.049854644 -0.17178112 0.035298485 0.114828125 -0.077546746 -0.0012786972 0.18711138 0.14069904 -0.062649705 -0.050019234 -0.1108776 0.028638111 -0.051216833 -0.07275699 -0.10016036 -0.1352912 -0.04798982 -0.021805895 -0.09795253 0.02652638 -0.03128472 -0.027446482 -0.041788194 -0.009996386 0.07255619 -0.015506319 0.1633273 -0.03387218 0.10165119 0.062246542 0.20058286 0.012836026 0.05942055 -0.052184794 0.05679207 -0.01199443 -0.22034632 -0.009019501 0.052816562 -0.03646109 0.12469268 0.021722961 0.026697192 0.096040815 0.08610712 0.04186575 0.01599561 0.03106573 0.009621353 0.11023121 0.06794778 -0.23340224 0.06540357 0.006743415 -0.17315117 0.025001042 0.058131665 -0.034149565 -0.016573353 -0.031276345 0.11796955 0.102668405 0.030355163 -0.0044446806 -0.010821275 0.18486771 0.033850543 -0.10268354 -0.06892808 0.058520433 0.03729556 0.0872163 -0.11005243 0.023960387 0.054716002 -0.052340597 0.04930153 -0.19173458 -0.112404 0.19298477 -0.0009458906 -0.1122175
102 -0.19290113 -0.17753188 -0.08712784 0.03419402 0.04088163 -0.07004016 -0.23831877 0.0027179262 0.05335929 0.03309079 -0.12486398 0.0897515 -0.024682218 -0.090833165 -0.14954583 -0.14764178 0.11653426 0.077768065 -0.03742737 0.019780794 0.10085134 0.071971804 -0.022265008 0.017313408 -0.0779515 -0.0048532565 -0.018375073 -0.11525095 -0.05206182 -0.20192076 -0.0042385873 0.01961873 -0.056837518 -0.07371027 0.020516837 0.065789714 0.016115502 -0.1223481 0.06766604 -0.0054655494 -0.035383023 0.12004005 -0.088213764 -0.092867196 -0.036285892 -0.047895577 -0.054047283 -0.1715406 0.023597803 0.114348054 -0.08374197 -0.00073752203 0.18247765 0.13421315 -0.057461955 -0.06253768 -0.114271455 0.03532963 -0.053363815 -0.06652867 -0.095304854 -0.13951363 -0.04589075 -0.022439437 -0.09558571 0.027325785 -0.02276415 -0.017604657 -0.04496839 -0.0054823677 0.06788072 -0.01993331 0.15149194 -0.0273843 0.09537653 0.060252734 0.19143519 0.00689968 0.04972266 -0.048717905 0.049508743 -0.018556 -0.22407347 -0.013742716 0.059072524 -0.03478001 0.12283127 0.02284823 0.03357485 0.09455758 0.087906145 0.048555646 0.010732514 0.023509102 0.013654611 0.09349277 0.064341605 -0.21035624 0.058383495 0.010028962 -0.18499833 0.03269829 0.065913275 -0.04000946 -0.014262747 -0.030964252 0.12756735 0.10661479 0.0331503 -0.0073056202 -0.008657155 0.19254048 0.037331406 -0.10581836 -0.06958594 0.065506406 0.02997764 0.092435956 -0.11279914 0.023744522 0.056117453 -0.05497626 0.047303654 -0.19420633 -0.12236904 0.20282711 -0.0047100214 -0.108083524
91 -0.18961075 -0.17811361 -0.07972289 0.04128997 0.045981184 -0.058082353 -0.2389996 -0.015063462 0.06333063 0.045486867 -0.13103905 0.10409077 -0.023708984 -0.083917454 -0.15667114 -0.15797564 0.11394618 0.07145244 -0.04358553 0.02045437 0.10237406 0.080981374 -0.019422397 0.022856489 -0.08432585 -0.0031968234 -0.021417199 -0.11529566 -0.05225871 -0.19794548 -0.0033493561 0.017723365 -0.06905088 -0.07525592 0.028598642 0.075302914 0.021199647 -0.11553284 0.0634474 0.002021624 -0.03201549 0.12630753 -0.07932298 -0.09810136 -0.036255613 -0.041530415 -0.05782408 -0.1754657 0.03067225 0.113131925 -0.08220156 -0.002313986 0.18174857 0.13650037 -0.06499747 -0.057032622 -0.114667244 0.040522885 -0.05911938 -0.076300524 -0.106585406 -0.13070105 -0.050760675 -0.022563517 -0.09010962 0.02340755 -0.025528857 -0.023054443 -0.03994054 -0.01551448 0.072778806 -0.020840509 0.16281332 -0.031739686 0.10310034 0.05950505 0.19472112 0.006991718 0.051051717 -0.03889086 0.056843452 -0.012613615 -0.22699422 -0.0049145743 0.050967455 -0.0361317 0.116555505 0.016410053 0.026710765 0.09177465 0.08620433 0.04128391 0.010978984 0.03051701 0.013195798 0.11110495 0.067642204 -0.216959 0.058746893 0.008243951 -0.17750749 0.032546125 0.05343893 -0.0352649 -0.010221069 -0.034661364 0.1284919 0.108054556 0.03724312 -0.008295094 -0.008574542 0.1985869 0.04208737 -0.10389369 -0.07733971 0.06458884 0.03494729 0.09163849 -0.10319282 0.020358343 0.053664126 -0.054216143 0.04688187 -0.1913596 -0.12207378 0.19441482 7.4281095e-05 -0.107336804
150 -0.18565556 -0.17335035 -0.08524665 0.039640106 0.042217918 -0.06267661 -0.23725079 -0.0025089555 0.05478422 0.03486621 -0.12452889 0.099261224 -0.027625116 -0.0931028 -0.15228628 -0.15333621 0.12245575 0.079567716 -0.04094447 0.023775049 0.097798236 0.07686244 -0.019965025 0.017933538 -0.08017097 0.0025709013 -0.018082825 -0.114528626 -0.052309442 -0.20799896 -0.008969807 0.026019122 -0.06345604 -0.07728438 0.03150005 0.072187066 0.014796618 -0.123266205 0.07427112 -0.0073239077 -0.036860984 0.13525319 -0.08201036 -0.10374865 -0.04396204 -0.04835022 -0.05176458 -0.17296824 0.028900012 0.11220544 -0.07873298 0.0054923277 0.18661387 0.13973358 -0.058060385 -0.060555775 -0.11616294 0.031077728 -0.056607164 -0.07346946 -0.107014894 -0.13877952 -0.050622225 -0.025914779 -0.092977524 0.02646124 -0.024601242 -0.025548937 -0.046870608 -0.0040933453 0.06997211 -0.017058566 0.14680459 -0.034164753 0.09682803 0.06000321 0.19454183 0.01291788 0.050030246 -0.052461024 0.057572287 -0.018195514 -0.22632718 -0.012478996 0.052339293 -0.029363543 0.11934426 0.0183608 0.023800544 0.0997237 0.091674246 0.04443977 0.011884477 0.028952489 0.016116098 0.10685952 0.06998746 -0.22666855 0.06669953 0.0058147334 -0.17762423 0.022523029 0.058018107 -0.03364518 -0.013237582 -0.031186596 0.119699396 0.10092609 0.033942457 -0.0075741834 -0.004392332 0.1860086 0.037117943 -0.105037175 -0.07082789 0.065084666 0.026603082 0.084925316 -0.10731122 0.024903309 0.04807123 -0.050947405 0.044387206 -0.18170166 -0.109672666 0.19005607 -0.0048270836 -0.09915423
137 -0.1909051 -0.17939243 -0.086372845 0.03761336 0.043598622 -0.06636345 -0.24775192 -0.008821341 0.065844014 0.04233887 -0.13481008 0.10756733 -0.027860401 -0.086038105 -0.15792058 -0.16099732 0.12031339 0.0802658 -0.041864958 0.01666754 0.10390635 0.0835144 -0.021310411 0.020862699 -0.08500215 -0.006897423 -0.018239183 -0.12503919 -0.05802811 -0.20064244 -0.011290409 0.019280216 -0.06430711 -0.076314986 0.02523259 0.07054298 0.018459551 -0.12116901 0.06534575 -0.00041592523 -0.023467647 0.11273404 -0.07585871 -0.08867315 -0.035557475 -0.045937784 -0.046657063 -0.16664837 0.02869963 0.11041513 -0.07770821 -9.989067e-05 0.17187849 0.13240579 -0.057086095 -0.047984514 -0.10161943 0.034339476 -0.04812823 -0.06558915 -0.10690523 -0.123132356 -0.043833703 -0.02366522 -0.08977293 0.03425073 -0.028610429 -0.023082025 -0.04377262 -0.015211942 0.075521894 -0.014731906 0.15689611 -0.032204907 0.105263665 0.05909166 0.2014793 0.011928124 0.054848697 -0.046326898 0.05241391 -0.012348475 -0.21845526 -0.012952364 0.050178986 -0.03916925 0.12157885 0.02227996 0.02387967 0.09153617 0.08330051 0.03823694 0.008848183 0.020307206 0.013602923 0.10078746 0.06714166 -0.22434543 0.061963238 0.0060066395 -0.16835093 0.029007215 0.056193978 -0.030197231 -0.011604215 -0.03356333 0.11404588 0.09603167 0.032301746 -0.009305517 -0.008510882 0.19121888 0.040142316 -0.10297544 -0.07187063 0.059771653 0.041870143 0.09118963 -0.10626777 0.023584608 0.06067312 -0.048806593 0.035467863 -0.19257747 -0.11382778 0.1868827 0.006268829 -0.104980834
89 -0.19522606 -0.17699769 -0.08856062 0.033391677 0.041424867 -0.063110724 -0.23793608 -0.006988554 0.05872911 0.04040731 -0.12733743 0.10638424 -0.026809951 -0.08434706 -0.14881432 -0.15842062 0.114313014 0.07515266 -0.04126491 0.021975778 0.10371339 0.077198654 -0.017260911 0.027496323 -0.07706583 -0.003057717 -0.024678918 -0.11654671 -0.05757845 -0.20889232 -0.009846721 0.019202849 -0.06220389 -0.07778035 0.019126503 0.062562376 0.022900706 -0.1271266 0.06849225 -0.0048186677 -0.026885599 0.12304054 -0.08168962 -0.09891078 -0.035576664 -0.054860573 -0.053137053 -0.17667475 0.03073992 0.12387939 -0.08583069 0.0008365701 0.19062896 0.1447516 -0.05460838 -0.060344588 -0.11867537 0.035506256 -0.05487841 -0.07582432 -0.10870831 -0.14375304 -0.050855134 -0.025505733 -0.09877186 0.030869596 -0.03329868 -0.024406454 -0.053902075 -0.009986891 0.07322248 -0.022572564 0.16139239 -0.032616314 0.10327855 0.06031906 0.18932636 0.009834589 0.047012903 -0.055135436 0.050940182 -0.021881461 -0.21261634 -0.008051881 0.04968583 -0.031518143 0.11771563 0.0272169 0.02893078 0.09491728 0.08174837 0.04611624 0.0056678364 0.026739389 0.010134 0.108368605 0.073503755 -0.2390637 0.06686249 0.008253769 -0.17302829 0.02731002 0.05282768 -0.03036578 -0.007725354 -0.026618043 0.12062165 0.097906664 0.030692829 -0.01089312 -0.013473165 0.18365477 0.038342826 -0.10461762 -0.071031414 0.05784209 0.03165554 0.09092183 -0.11339731 0.024748899 0.05847234 -0.049347296 0.044202846 -0.18367165 -0.11908329 0.19507241 0.004781317 -0.10380777
58 -0.17476311 -0.16137768 -0.08701067 0.03601068 0.036990613 -0.05878761 -0.22280402 -0.0027019258 0.05421248 0.03461396 -0.11646788 0.0933475 -0.018969638 -0.085524365 -0.15269133 -0.15435135 0.11636401 0.08245513 -0.04317423 0.021010337 0.100210115 0.07792935 -0.021772074 0.020666972 -0.075850315 -0.0018485761 -0.025988739 -0.11915359 -0.04802139 -0.19181114 -0.0049426802 0.019708054 -0.054153714 -0.06560173 0.021262664 0.06391123 0.020334601 -0.12225843 0.07025297 0.00062616373 -0.035230394 0.1203539 -0.088194415 -0.099425666 -0.04271715 -0.045555975 -0.047010876 -0.17262429 0.024857221 0.11063857 -0.081718296 -0.0008408389 0.1889519 0.13632068 -0.059126697 -0.060182024 -0.11507727 0.03345714 -0.050737735 -0.07058612 -0.097999364 -0.14152586 -0.051686876 -0.027057623 -0.090008184 0.02999019 -0.022799723 -0.027253063 -0.04196475 0.0017981972 0.06932334 -0.018582355 0.15853535 -0.031090721 0.09718196 0.052441508 0.18516321 0.0050561195 0.049530197 -0.050075386 0.05262925 -0.021718228 -0.22470272 -0.0088740885 0.05993121 -0.030578934 0.11933728 0.013548031 0.02259071 0.09535803 0.08611406 0.045128968 0.0076565 0.031586893 0.006847717 0.1061623 0.05856448 -0.22662432 0.0672012 0.0059000286 -0.1789539 0.024599548 0.062725425 -0.028683456 -0.02046749 -0.031479582 0.11786803 0.11234901 0.035695307 -0.008603572 -0.013743493 0.18996191 0.043054644 -0.114504345 -0.07625804 0.061475765 0.032194585 0.094181694 -0.116939016 0.021080626 0.059314623 -0.052858915 0.04443993 -0.19219975 -0.12087787 0.20254216 0.0025576141 -0.11035244
71 -0.18202725 -0.17358024 -0.086450495 0.036457337 0.043197807 -0.068409435 -0.23532584 -0.009358858 0.06718312 0.042769633 -0.13287462 0.101933755 -0.024805775 -0.082234256 -0.1430095 -0.15061252 0.11720698 0.07541412 -0.044339355 0.024939366 0.09609838 0.08313106 -0.022902966 0.024775796 -0.08103036 -0.004342149 -0.01607883 -0.11256517 -0.050300922 -0.19781442 -0.0017658938 0.02057661 -0.06663209 -0.07861262 0.027189253 0.07125219 0.011552402 -0.12644447 0.07457314 -0.0033197978 -0.02671005 0.12256081 -0.081466906 -0.101826556 -0.038223077 -0.04252045 -0.053408552 -0.1784001 0.034065165 0.114002965 -0.08223075 0.0002231348 0.18159392 0.13534606 -0.06281344 -0.055007454 -0.116690874 0.03778789 -0.052417714 -0.07452246 -0.103379324 -0.13835238 -0.0502845 -0.018176181 -0.09318544 0.025509065 -0.024938414 -0.025803639 -0.04467528 -0.012038978 0.072847374 -0.010328772 0.15733832 -0.033895317 0.1055716 0.05668232 0.1948921 0.00078456977 0.046377644 -0.054185268 0.06384829 -0.014543927 -0.22284633 -0.012013399 0.055600688 -0.032160416 0.12645277 0.024548434 0.025999928 0.09722246 0.080052085 0.042734325 0.012193769 0.032344364 0.012677423 0.11546437 0.06998961 -0.22536173 0.06997239 0.007940019 -0.18042733 0.031429462 0.052467026 -0.032986604 -0.012023815 -0.039076492 0.1270004 0.107727 0.036361538 -0.011501374 -0.006472497 0.19406322 0.03447636 -0.10301018 -0.07262198 0.062642284 0.040685225 0.09143722 -0.106396474 0.02185117 0.056365393 -0.04725092 0.04408879 -0.18855245 -0.11757526 0.19432393 -0.0042939084 -0.10620968
224 -0.19130385 -0.1758974 -0.08949292 0.044240635 0.04142409 -0.06819898 -0.23930913 -0.0063532013 0.05538195 0.036943737 -0.13503106 0.10950251 -0.029807318 -0.0855468 -0.15699522 -0.16036768 0.12858796 0.07557504 -0.04004564 0.024181109 0.110196255 0.08312137 -0.020629948 0.026783817 -0.08104155 -0.006794674 -0.015764724 -0.12022887 -0.058276623 -0.19820717 -0.014020808 0.022174954 -0.06084058 -0.07741711 0.021982808 0.06220272 0.020700103 -0.13317142 0.07131497 -0.0057083364 -0.032135762 0.12150857 -0.0850778 -0.09230564 -0.032141164 -0.05083843 -0.050373714 -0.1772183 0.024513602 0.11867478 -0.08203778 -0.0015785564 0.18366505 0.13971187 -0.05386117 -0.05160652 -0.11450864 0.03740702 -0.056230046 -0.07131936 -0.11248012 -0.13407543 -0.047783997 -0.026220407 -0.09820767 0.029223813 -0.02695054 -0.022890085 -0.037276994 -0.011350359 0.077167496 -0.01740343 0.15312679 -0.03441726 0.106420256 0.05977176 0.20117898 0.008705686 0.0566639 -0.043302257 0.05058778 -0.009772454 -0.22802871 -0.019105857 0.061651986 -0.03994332 0.12694322 0.021540629 0.029615093 0.09566706 0.091659866 0.04291942 0.019049874 0.026826642 0.011197478 0.105513126 0.06557371 -0.2173595 0.06478636 0.0063901828 -0.18155387 0.030999172 0.059812374 -0.038933028 -0.016923802 -0.027567219 0.12203612 0.101749964 0.028877929 -0.004520485 -0.006378188 0.19423315 0.036144283 -0.10211114 -0.0685612 0.063499644 0.034616705 0.08801613 -0.11051384 0.020940877 0.05683289 -0.061060954 0.04038514 -0.19667396 -0.119176656 0.19487603 0.0027775748 -0.10910021
105 -0.18841365 -0.17213945 -0.08260029 0.037269287 0.041257653 -0.06946958 -0.22697993 0.0017877753 0.058016054 0.031151243 -0.122067034 0.10317244 -0.0205529 -0.08257352 -0.15230401 -0.14799507 0.12988031 0.079015225 -0.03620567 0.026375506 0.10873873 0.08625938 -0.01917053 0.025528383 -0.07987557 0.0033002167 -0.01945031 -0.11368478 -0.04923222 -0.20099103 -0.0036135537 0.018014781 -0.06248208 -0.082084514 0.026814783 0.06084403 0.01799679 -0.12688902 0.069901004 -0.0041893898 -0.037398204 0.1339502 -0.07993623 -0.1005545 -0.045944892 -0.049781173 -0.048204172 -0.17952561 0.027119428 0.11768026 -0.08277935 0.008958241 0.19292286 0.14649482 -0.05981298 -0.06008602 -0.12588128 0.035458677 -0.056544606 -0.066072 -0.10690236 -0.14586842 -0.055816002 -0.023492273 -0.09033326 0.027606452 -0.02856251 -0.026585585 -0.043277476 -0.010727731 0.07598976 -0.019950397 0.14681166 -0.026333764 0.0964039 0.053531025 0.19338465 0.008424072 0.052627474 -0.046871964 0.055942446 -0.027398972 -0.21993804 -0.015131226 0.059339084 -0.03403208 0.12939663 0.020116543 0.029408699 0.09835087 0.08458511 0.04657084 0.0115567045 0.030234115 0.014986982 0.10577225 0.07064926 -0.22406751 0.059903726 0.00800006 -0.18147396 0.024197722 0.058542017 -0.027225276 -0.01322173 -0.03202965 0.124834836 0.09861574 0.029318107 -0.0067154416 -0.0055393283 0.19070007 0.03417834 -0.0983587 -0.06907615 0.06382221 0.0355052 0.08285331 -0.105817035 0.026446117 0.055037186 -0.058497015 0.044797737 -0.1873041 -0.11534049 0.19514401 -0.0014125109 -0.10932785
88 -0.18714269 -0.17100847 -0.08534449 0.039333288 0.03772404 -0.059584334 -0.23486964 -0.004249757 0.051457364 0.03563775 -0.120819904 0.1033952 -0.031100532 -0.08058258 -0.1491512 -0.15319134 0.12332728 0.07575756 -0.044024665 0.024257382 0.10702037 0.08306446 -0.023235813 0.02728781 -0.080253944 -0.0057464465 -0.023005992 -0.12654302 -0.048445627 -0.19781017 -0.010166021 0.02232138 -0.060142305 -0.07267635 0.026448129 0.06628286 0.02134236 -0.12662032 0.068327524 -0.0061145714 -0.031978007 0.124891885 -0.0777895 -0.10074965 -0.04057647 -0.04885398 -0.053294882 -0.17994201 0.028423697 0.11730829 -0.08226771 0.0007372529 0.1893908 0.14145793 -0.0578287 -0.056181435 -0.11732202 0.031648185 -0.05388955 -0.07151196 -0.10650205 -0.13801856 -0.04738804 -0.017852696 -0.0991385 0.031039296 -0.026785811 -0.023316368 -0.043514956 -0.0096036885 0.07775007 -0.017167542 0.15477943 -0.031952407 0.10693929 0.059732743 0.19905448 0.010168553 0.053262394 -0.056399103 0.061116442 -0.014681026 -0.23768604 -0.015825758 0.06319118 -0.032190997 0.122335725 0.01866105 0.027586244 0.09717278 0.08967396 0.045385946 0.0110722715 0.029419262 0.012117909 0.104999684 0.06305506 -0.22719277 0.06394006 0.011514113 -0.16694233 0.026399288 0.048989963 -0.02814675 -0.0151657 -0.031235479 0.11399975 0.09979114 0.028828189 -0.008463285 -0.0068751555 0.17997436 0.030951573 -0.10196347 -0.071216725 0.0526465 0.036097504 0.0871352 -0.10866338 0.023571696 0.05540288 -0.04970026 0.04202228 -0.18710673 -0.11137638 0.18800254 2.4526576e-05 -0.10430311
96 -0.1900037 -0.17891528 -0.085703775 0.03792937 0.044347983 -0.06869 -0.24517705 -0.008663115 0.057426456 0.034818225 -0.12699516 0.1044898 -0.019617215 -0.08923223 -0.15073249 -0.14731507 0.12742727 0.07985361 -0.044547845 0.027595399 0.10549301 0.08234033 -0.024481388 0.018080527 -0.08444404 0.0028685092 -0.024732979 -0.12051401 -0.055429276 -0.20699614 -0.005762595 0.02011594 -0.06291057 -0.07475861 0.02521825 0.06586948 0.015852958 -0.11715128 0.0701151 -0.0076559708 -0.029609708 0.1221817 -0.08293328 -0.09583617 -0.03571547 -0.04834409 -0.053045247 -0.17712556 0.0352867 0.12003295 -0.07814565 0.005102391 0.18354227 0.1446413 -0.056973185 -0.053899888 -0.11215732 0.03828277 -0.051231116 -0.07012403 -0.10462997 -0.1389366 -0.050748445 -0.02533571 -0.09183408 0.026812198 -0.020197468 -0.023911107 -0.045277316 -0.003627074 0.07780548 -0.017619448 0.15593682 -0.0314475 0.10680026 0.061210718 0.20076093 0.006079207 0.051885113 -0.05262238 0.058334302 -0.020786993 -0.22763188 -0.009592309 0.058138076 -0.033481296 0.12566888 0.019343559 0.029409487 0.09581943 0.08804044 0.045966055 0.010824096 0.028430942 0.008914537 0.10747159 0.063327014 -0.22646484 0.06820145 0.004340369 -0.18258454 0.029667841 0.056912746 -0.03677395 -0.015988903 -0.035410468 0.11882353 0.10869469 0.032789502 -0.014186781 -0.008483464 0.19389965 0.038914382 -0.10003938 -0.06884622 0.055639315 0.034416996 0.09200993 -0.10568631 0.022666423 0.05522534 -0.054979842 0.04649353 -0.20012692 -0.11551387 0.19763093 0.0011779809 -0.10850292
54 -0.1797954 -0.17168055 -0.08292999 0.0435949 0.035428517 -0.06532041 -0.22910711 -0.008402221 0.058610134 0.031377934 -0.12736207 0.100445464 -0.022287222 -0.07940915 -0.15247278 -0.1473819 0.11574089 0.0722871 -0.041779254 0.022072397 0.0982871 0.08056396 -0.019237172 0.023641253 -0.084532574 -0.003024982 -0.022737639 -0.11624369 -0.053413972 -0.2000287 -0.005566224 0.022160906 -0.0628392 -0.07666509 0.026640132 0.06471039 0.017430944 -0.120366774 0.073014006 -0.0036453207 -0.025814287 0.12162535 -0.072935194 -0.09305508 -0.035983313 -0.046067506 -0.052631956 -0.16947572 0.02993146 0.111719616 -0.08332382 0.006122352 0.18724453 0.1336385 -0.060571797 -0.054855928 -0.11031774 0.037072085 -0.048203997 -0.06710487 -0.10954409 -0.13403916 -0.05253623 -0.024663355 -0.09165934 0.028840208 -0.024294386 -0.023687018 -0.03769213 -0.006673362 0.077572994 -0.015792448 0.1519774 -0.02974099 0.10041746 0.065639526 0.19637962 0.009269131 0.054315038 -0.048652112 0.06086561 -0.016290741 -0.22317322 -0.017920513 0.054467745 -0.0382157 0.11884102 0.020907031 0.026501989 0.09578082 0.09682884 0.042340815 0.006507236 0.030555043 0.015735453 0.106419004 0.067897744 -0.22668862 0.06865248 0.007168118 -0.180487 0.026154954 0.061687227 -0.037175257 -0.014194667 -0.03682593 0.13036284 0.11278165 0.028297398 -0.0065067643 -0.01551663 0.19491407 0.038517524 -0.09860258 -0.069982 0.058201242 0.034204863 0.09069166 -0.109130144 0.021948684 0.05653687 -0.05349344 0.04386828 -0.1904077 -0.11976478 0.1997463 0.0054640337 -0.11451132
49 -0.16928388 -0.15589194 -0.07148466 0.043097664 0.04327404 -0.05730666 -0.21596837 -0.010107891 0.061652347 0.04148871 -0.12531117 0.10857072 -0.033943076 -0.08228637 -0.15192166 -0.15422525 0.11510876 0.073968865 -0.04918801 0.023650857 0.10200438 0.078542255 -0.014103625 0.017652432 -0.07769556 -6.603163e-05 -0.021635992 -0.11820389 -0.05198156 -0.19133064 -0.002352006 0.01680454 -0.058090694 -0.06381696 0.024158565 0.06858518 0.025318695 -0.12455769 0.06877345 -0.003683025 -0.030998787 0.12993294 -0.08234659 -0.09959348 -0.042163074 -0.04790522 -0.053146936 -0.18277554 0.028181365 0.119792864 -0.08747814 0.004475377 0.19660892 0.14463125 -0.0705077 -0.06071599 -0.115357034 0.0368893 -0.053645693 -0.07284135 -0.10222558 -0.14352594 -0.046275225 -0.023602856 -0.10058741 0.025260318 -0.033084627 -0.025030648 -0.04396646 -0.015050378 0.07541771 -0.020276772 0.16549961 -0.03862759 0.10913677 0.061107688 0.20391847 0.0040426124 0.050708953 -0.051182263 0.054153737 -0.008496214 -0.22915721 -0.0076258625 0.05137626 -0.038121756 0.12365523 0.022288973 0.028749388 0.10010315 0.087873824 0.04261763 0.009259282 0.02870074 0.015863515 0.107689485 0.070730984 -0.24050386 0.070688546 0.009015495 -0.16601436 0.026166301 0.05362632 -0.03469045 -0.011825116 -0.027253313 0.12150411 0.106324844 0.033424985 -0.0144936545 -0.014764118 0.17907098 0.036310576 -0.094397135 -0.064604506 0.056665864 0.041151367 0.08955927 -0.105394326 0.021995785 0.0511008 -0.042157307 0.041756846 -0.18240692 -0.11230145 0.1838833 0.006057291 -0.10386454
85 -0.1918362 -0.18365483 -0.08567041 0.037121654 0.041760225 -0.06671225 -0.24053884 -0.007987903 0.05689779 0.04470645 -0.12800696 0.09319202 -0.028786175 -0.081658915 -0.14480257 -0.14967969 0.11402783 0.0819323 -0.042536486 0.01850099 0.10382371 0.08258897 -0.024915772 0.019419698 -0.08302517 -0.0045042317 -0.020087618 -0.11373765 -0.060583647 -0.20077986 -0.003042145 0.015468655 -0.069226615 -0.075305454 0.01924933 0.072315596 0.016163941 -0.12400944 0.0677539 -0.0013807387 -0.025785975 0.12940781 -0.085457444 -0.10861179 -0.044161864 -0.047736485 -0.052945033 -0.17851092 0.025079966 0.118744 -0.077407695 0.006557245 0.18534976 0.14535841 -0.06722916 -0.05510381 -0.113717504 0.038329273 -0.053343657 -0.069307394 -0.10389689 -0.14124858 -0.05186978 -0.02146302 -0.09007499 0.02422041 -0.02775436 -0.02100775 -0.041675456 -0.015528706 0.06938315 -0.011015578 0.15039384 -0.032697663 0.10300915 0.060209453 0.18671457 0.010061256 0.04510939 -0.042245913 0.055420265 -0.015093521 -0.21535754 -0.015069907 0.054769654 -0.04070431 0.12640332 0.018431747 0.025347406 0.09027545 0.081809774 0.04091195 0.010180459 0.023274548 0.006799413 0.111519635 0.069690876 -0.21390444 0.060909994 0.007978921 -0.17884853 0.027297782 0.050953563 -0.03122435 -0.004677625 -0.03111404 0.12564589 0.10142898 0.027671847 -0.008414541 -0.004207562 0.19376586 0.034966122 -0.10556671 -0.06919696 0.063657425 0.033219773 0.08417683 -0.1093651 0.01896591 0.056574076 -0.047248002 0.044133063 -0.18746497 -0.12241997 0.19407718 -0.0050382516 -0.10602141
254 -0.1916881 -0.176997 -0.08048023 0.036985412 0.042799357 -0.0640341 -0.2348694 -0.0074792793 0.05646013 0.044820897 -0.11846022 0.10294974 -0.025924833 -0.0859208 -0.14872618 -0.15204048 0.119957395 0.07886046 -0.042140856 0.018690653 0.10122354 0.08053513 -0.020505356 0.025185244 -0.07469369 -0.004470644 -0.021750202 -0.114120275 -0.049830753 -0.20409465 -0.0056586233 0.021788199 -0.062298473 -0.076518714 0.02460508 0.067198604 0.019661145 -0.12258182 0.07172119 -0.0015099819 -0.03420267 0.12659763 -0.083997585 -0.103221044 -0.036255725 -0.04390564 -0.049744606 -0.17048849 0.033482008 0.11399118 -0.07439141 -0.0013577872 0.17701784 0.13482067 -0.056014664 -0.05621436 -0.11308582 0.031942684 -0.055262767 -0.07098412 -0.10686952 -0.13017347 -0.047526505 -0.026233155 -0.0904061 0.027254712 -0.020104704 -0.027838325 -0.040717714 -0.010295228 0.074435115 -0.017239941 0.16254814 -0.030891154 0.10566074 0.058061887 0.20068511 0.005200578 0.051461097 -0.047410134 0.053464636 -0.00881401 -0.21950543 -0.010679707 0.056092024 -0.036649793 0.12532869 0.023118086 0.03049487 0.09664499 0.08617897 0.043293584 0.018026924 0.026912887 0.0077411663 0.10726585 0.05970292 -0.22075759 0.06694404 0.0037475042 -0.1799126 0.031134998 0.0493665 -0.034310944 -0.008580909 -0.037197612 0.1286527 0.108582705 0.028902296 -0.0020532734 -0.010210281 0.18698765 0.040976822 -0.10622016 -0.070394225 0.06111516 0.039695784 0.09063828 -0.11152362 0.025535552 0.056468077 -0.053140033 0.044495493 -0.19328867 -0.12153552 0.1916926 0.00063242344 -0.112655744
278 -0.18341745 -0.1665173 -0.09173945 0.03775124 0.048553135 -0.06426269 -0.22872964 -0.0035168305 0.0551249 0.038900774 -0.123631686 0.10313708 -0.02849219 -0.09019573 -0.15472126 -0.1572024 0.121416084 0.08153727 -0.0443574 0.019737879 0.10767041 0.08403347 -0.019067429 0.02314247 -0.080331005 0.0041413987 -0.023237973 -0.12348882 -0.055678975 -0.20069969 -0.0011695841 0.02752399 -0.06057063 -0.08041931 0.02393258 0.06344418 0.028117938 -0.12869021 0.067456596 -0.0054115667 -0.031526655 0.1346886 -0.082008764 -0.09902585 -0.04220202 -0.050098598 -0.048079655 -0.1728768 0.027300874 0.113312066 -0.080955006 0.005918957 0.18617095 0.14460729 -0.058380056 -0.06278226 -0.11263832 0.032229125 -0.055866025 -0.07064248 -0.10601375 -0.134568 -0.055812854 -0.025490016 -0.09661662 0.031891074 -0.028493887 -0.025491524 -0.048482217 -0.008163484 0.073191 -0.009316009 0.166364 -0.043541573 0.11148177 0.062499624 0.20500012 0.0078119785 0.0482266 -0.048615627 0.061524894 -0.01107889 -0.22795399 -0.0038780868 0.063847035 -0.037326436 0.13167751 0.014062982 0.033044856 0.097543955 0.0972461 0.04347138 0.0147111025 0.02708286 0.017020022 0.10145835 0.064440645 -0.21877097 0.063108504 0.0028049513 -0.1783639 0.033060327 0.06011379 -0.03555688 -0.016327582 -0.028607422 0.1234493 0.10793173 0.023601841 -0.0062974975 -0.010975576 0.18159552 0.037854776 -0.106392615 -0.068081856 0.059624154 0.029699044 0.085692346 -0.10744616 0.019463746 0.04852152 -0.047993064 0.042164486 -0.18931037 -0.11554488 0.1951181 -0.0023115298 -0.10655769
86 -0.18352917 -0.17982477 -0.07710933 0.043951765 0.0422594 -0.06712488 -0.23258145 -0.008369007 0.061216116 0.040225487 -0.12602304 0.1049364 -0.024621265 -0.08559791 -0.15010053 -0.15722016 0.12314178 0.07873893 -0.040469497 0.023572974 0.09972792 0.08308961 -0.01924801 0.022498704 -0.083294205 -0.0009139351 -0.025864528 -0.117603704 -0.051565982 -0.19430035 -0.0043160357 0.019301197 -0.066713326 -0.076394826 0.026875075 0.06746781 0.019031798 -0.12030383 0.067845665 -0.0009605021 -0.029217066 0.11950907 -0.07559238 -0.0943069 -0.037899904 -0.041960947 -0.051071838 -0.17821681 0.031132417 0.10733618 -0.07744691 0.0043753805 0.1824793 0.13172013 -0.062159244 -0.05068523 -0.10912729 0.034649957 -0.05050546 -0.074750066 -0.1050281 -0.13129064 -0.049069636 -0.020727143 -0.093203716 0.023331296 -0.026528427 -0.024820171 -0.03852802 -0.0075364606 0.07650663 -0.012198115 0.15756105 -0.034041725 0.10005466 0.05879776 0.19463722 0.010566317 0.055828184 -0.04814753 0.05734426 -0.0097969 -0.22138058 -0.013151022 0.058829743 -0.035368375 0.12527598 0.015433987 0.027461227 0.09129155 0.086978406 0.042269934 0.019449752 0.029301412 0.007212264 0.11226474 0.07179397 -0.2228217 0.06874364 0.0065280693 -0.17671925 0.028543014 0.05340475 -0.029888766 -0.010085034 -0.03351094 0.1264516 0.105600126 0.036513392 -0.005351768 -0.011498366 0.1972058 0.038513195 -0.104836255 -0.07658319 0.06596515 0.035402644 0.09204055 -0.11154941 0.019442312 0.058220617 -0.05353378 0.043305077 -0.19410165 -0.12286178 0.20187733 -0.0011496735 -0.112316474
51 -0.20181908 -0.18481536 -0.09972371 0.04088019 0.04348297 -0.06590939 -0.25091082 -0.0048749098 0.055679422 0.040916 -0.117349185 0.09884423 -0.030409371 -0.09132979 -0.15272757 -0.15018918 0.1126898 0.08311782 -0.04371996 0.018914683 0.093748346 0.07157603 -0.020854108 0.01690303 -0.075937666 0.0038624823 -0.021283127 -0.11698758 -0.05224468 -0.20905381 -0.0024526534 0.024405494 -0.062749356 -0.08052708 0.023923252 0.068007715 0.021869635 -0.11987988 0.06696201 0.00043384085 -0.029278863 0.12632598 -0.083456606 -0.10556038 -0.038426127 -0.042752914 -0.048610665 -0.16810633 0.029206032 0.1100565 -0.077954814 0.0019709151 0.18749131 0.12790641 -0.0574108 -0.062418334 -0.1109207 0.025665198 -0.042330682 -0.06814098 -0.08988214 -0.13390884 -0.05245318 -0.017103713 -0.09174953 0.029788494 -0.026383113 -0.02288429 -0.04190929 -0.006843876 0.06805318 -0.018122844 0.16377224 -0.03656132 0.10650264 0.06236079 0.20776789 0.00710582 0.04831345 -0.05898359 0.06060545 -0.018516583 -0.21980229 -0.013129287 0.056529842 -0.028456371 0.120418884 0.02400877 0.026981821 0.09456762 0.08856853 0.045355808 0.013513913 0.027595323 0.011148754 0.099366546 0.0647835 -0.22826873 0.057947773 0.005523445 -0.17298606 0.027945733 0.054450177 -0.036221787 -0.01212927 -0.037221983 0.12471747 0.10270105 0.031580314 -0.009920541 -0.0101170335 0.19064435 0.031020314 -0.10455886 -0.06286405 0.0643329 0.030396843 0.09182276 -0.10996492 0.02402103 0.053199913 -0.047031514 0.042314682 -0.18521434 -0.11095491 0.2024768 -0.0062831044 -0.111661084
244 -0.1826816 -0.16482465 -0.08271005 0.042237017 0.039587494 -0.06485338 -0.22721538 -0.004685554 0.061586276 0.04141628 -0.1263049 0.097282074 -0.022011086 -0.090049736 -0.15895616 -0.15481707 0.12354291 0.07539485 -0.039081544 0.023046298 0.10600982 0.08570656 -0.020725532 0.02666861 -0.07734498 0.0031360087 -0.023210302 -0.110964455 -0.052998252 -0.20315303 -0.0012401732 0.017648118 -0.06307132 -0.06771226 0.02216116 0.0670375 0.024501402 -0.12848915 0.073334254 -0.00045430407 -0.027861757 0.13358378 -0.08235754 -0.102658615 -0.043999944 -0.048499703 -0.049998872 -0.17886305 0.031023106 0.12004717 -0.08884673 0.0010218135 0.19585747 0.14689684 -0.061542414 -0.05869131 -0.12355603 0.03952855 -0.050947063 -0.07759054 -0.1120212 -0.1567584 -0.05019317 -0.02243158 -0.099059545 0.032318495 -0.025982961 -0.024287783 -0.042058133 -0.006293995 0.07233476 -0.013479726 0.15900075 -0.026988074 0.09982672 0.05845509 0.196437 0.0097027635 0.052087165 -0.043386355 0.055887196 -0.01249287 -0.2208999 -0.004097884 0.054926064 -0.028276997 0.11489163 0.020363992 0.028099773 0.09653479 0.09028265 0.04665402 0.0073256115 0.028664093 0.013644929 0.11343852 0.07087083 -0.23638967 0.06666198 0.004811583 -0.17221896 0.03154686 0.060184352 -0.03909663 -0.007895288 -0.033456407 0.12213693 0.09882617 0.0345992 -0.008136885 -0.006179094 0.18382291 0.04120686 -0.101579934 -0.065500386 0.06864081 0.024008565 0.090324156 -0.108972445 0.022161666 0.051614992 -0.05240881 0.04980165 -0.18632716 -0.11378389 0.19544344 -0.008486153 -0.10555703
257 -0.18429473 -0.172445 -0.08313716 0.044129796 0.045117803 -0.06717415 -0.23494938 -0.003619398 0.05849855 0.039865535 -0.13407314 0.10720776 -0.026921244 -0.0897519 -0.16205408 -0.16576758 0.12505323 0.08242319 -0.04266263 0.024140716 0.11172607 0.08310724 -0.023037147 0.021308945 -0.080605276 0.0004578317 -0.020033987 -0.11899023 -0.054954235 -0.20996664 -0.0053760186 0.020601269 -0.06684271 -0.06628684 0.02316772 0.07419969 0.026319955 -0.13248068 0.07295428 -0.0038426877 -0.029809657 0.13319494 -0.082773894 -0.10466386 -0.04319269 -0.04735857 -0.049856517 -0.17884992 0.023985054 0.11729991 -0.08070278 0.0007398918 0.18289334 0.14178945 -0.065484166 -0.06353885 -0.1103217 0.040936302 -0.05332254 -0.067218445 -0.10208231 -0.14136703 -0.051957183 -0.024896428 -0.09454933 0.030178843 -0.026544066 -0.02150984 -0.042396702 -0.0149629805 0.075926356 -0.015954828 0.15976165 -0.028364198 0.096041836 0.057088725 0.19257027 0.00877198 0.047213998 -0.043870218 0.050930664 -0.011491294 -0.22128126 -0.010712611 0.050827324 -0.035929326 0.1216394 0.018587198 0.02409895 0.09194741 0.08593771 0.04209513 0.0088253645 0.022622116 0.009961659 0.10415539 0.064229086 -0.21752185 0.060326114 0.00696223 -0.17781676 0.02667711 0.061246864 -0.032361332 -0.012141242 -0.025253816 0.11954035 0.10065234 0.030513862 -0.009673812 -0.011569144 0.18452536 0.04254975 -0.10158372 -0.068769306 0.065422624 0.033357333 0.09144491 -0.10899566 0.02221717 0.050061394 -0.05841401 0.047078896 -0.19314407 -0.1193326 0.1930424 -0.0014944228 -0.10858891
93 -0.18885136 -0.17686628 -0.08324474 0.03901978 0.038255416 -0.06484134 -0.24005117 -0.00097646663 0.05864918 0.042456403 -0.120115645 0.099441186 -0.027862562 -0.08574579 -0.14558709 -0.14906487 0.11139638 0.07231041 -0.037282463 0.018932682 0.09583866 0.076942265 -0.016124712 0.019783698 -0.074688636 -0.003034702 -0.018067665 -0.10885865 -0.05422774 -0.20424779 -0.004903341 0.021995483 -0.061298855 -0.07647787 0.024689777 0.06650985 0.02323776 -0.122381665 0.06682574 -0.0051571494 -0.025767278 0.12325611 -0.078853354 -0.092899315 -0.031590443 -0.046135034 -0.049992643 -0.16702053 0.030334635 0.11165351 -0.07585189 0.00086982676 0.18201236 0.14070177 -0.058336765 -0.057055473 -0.113882534 0.038659718 -0.046009336 -0.07712701 -0.10559353 -0.13499805 -0.04705579 -0.027643036 -0.09517033 0.029620234 -0.022360532 -0.020803548 -0.04177145 -0.01450806 0.07185042 -0.018111726 0.15603945 -0.032755554 0.10829791 0.06292275 0.20339772 0.0047180806 0.052096415 -0.055286534 0.053595424 -0.012409159 -0.21190087 -0.01567555 0.05190515 -0.032286465 0.122052796 0.019450966 0.035181638 0.08774912 0.095003024 0.043314155 0.018139124 0.035013042 0.016221136 0.103725255 0.07066051 -0.22414716 0.067026526 0.005463183 -0.17762753 0.030740133 0.053988766 -0.040732205 -0.013981833 -0.03241368 0.12998228 0.10473944 0.029104214 -0.0048359637 -0.012493628 0.19367544 0.033015 -0.10554834 -0.06998851 0.064731464 0.03564519 0.09612815 -0.107649215 0.02525641 0.0542363 -0.051345702 0.041651085 -0.1914128 -0.12193293 0.20526284 0.0024111886 -0.10712594
87 -0.19870771 -0.17693822 -0.08383523 0.04538409 0.044538356 -0.062793024 -0.23929667 -0.009837369 0.06459142 0.03769087 -0.12664507 0.10206915 -0.019455025 -0.09549142 -0.15778041 -0.156175 0.12259338 0.07876506 -0.03971397 0.02249885 0.10882314 0.07964147 -0.02216824 0.025100283 -0.077907175 -0.00075326074 -0.022401312 -0.113964155 -0.05547787 -0.22699942 -0.0021997718 0.021131089 -0.06705114 -0.078889705 0.028686192 0.07086781 0.026034523 -0.12281675 0.0699446 -0.00070751633 -0.035281576 0.13300703 -0.09271811 -0.10559317 -0.037467167 -0.051665988 -0.053654276 -0.17899662 0.034975015 0.11687522 -0.08851944 -0.0015350879 0.18664292 0.14041008 -0.06273869 -0.06072085 -0.11165316 0.032161754 -0.048430596 -0.0696488 -0.10228965 -0.14280084 -0.051284928 -0.026409768 -0.09444687 0.027406413 -0.026249161 -0.027509077 -0.04682812 -0.009953095 0.07610194 -0.01947442 0.15896566 -0.027280519 0.102647014 0.051375438 0.19836923 0.0055632717 0.05271913 -0.049804263 0.052153867 -0.011357286 -0.22281314 -0.006548223 0.053340442 -0.031077268 0.11779947 0.015658163 0.029313873 0.09692017 0.081990436 0.038840927 0.010658695 0.027304225 0.0120686125 0.10955345 0.06416923 -0.2290983 0.059768118 0.0076739867 -0.17589536 0.022494104 0.061062418 -0.03578303 -0.010518584 -0.03138642 0.118290745 0.0995352 0.03545831 -0.013102289 -0.013840369 0.18313861 0.034745656 -0.09841025 -0.0726703 0.06376186 0.031583566 0.09109835 -0.11479124 0.02223894 0.047486287 -0.051037606 0.047418952 -0.18958995 -0.11982785 0.19557072 0.0035366693 -0.11696985
84 -0.19692324 -0.17743576 -0.07815238 0.043763235 0.052364625 -0.063227884 -0.24451555 -0.0108960625 0.06457747 0.041708 -0.12753987 0.11063134 -0.023153292 -0.090238 -0.15496127 -0.15822484 0.12754332 0.07837704 -0.03970416 0.021254547 0.101641506 0.086336516 -0.019694319 0.024047732 -0.08021863 -0.0071649724 -0.01624615 -0.11616381 -0.04608629 -0.20660956 -0.008456416 0.025129301 -0.070477396 -0.07306076 0.028813913 0.07010908 0.021752872 -0.11599362 0.07098545 -0.012941157 -0.03035051 0.12450937 -0.08082076 -0.09290765 -0.03437498 -0.048870124 -0.055048723 -0.1739829 0.03212679 0.10904306 -0.077131465 -0.00015531934 0.16986386 0.13455969 -0.05879462 -0.054199234 -0.10385628 0.04497955 -0.05639249 -0.07185566 -0.11121614 -0.1256537 -0.053547677 -0.020964183 -0.086050905 0.028348979 -0.024347821 -0.025801057 -0.040949307 -0.017639562 0.0744361 -0.019585354 0.15754412 -0.028784992 0.1064018 0.058322564 0.20921403 -0.00045673343 0.052239522 -0.045805547 0.0601295 -0.010595335 -0.2319765 -0.011350366 0.054432254 -0.041180775 0.124628685 0.016399313 0.03120999 0.10041635 0.08187339 0.04278624 0.017906176 0.02784558 0.00846632 0.10983138 0.063109085 -0.21610612 0.065547824 0.0135712195 -0.17381777 0.027213965 0.054584194 -0.035051815 -0.014608231 -0.03183518 0.113341175 0.10100919 0.036011774 -0.0074839075 -0.0112819215 0.17919081 0.044017825 -0.09511692 -0.07137982 0.06438207 0.04006399 0.08682343 -0.10114858 0.025498096 0.043775804 -0.046916332 0.036357228 -0.18790272 -0.11435893 0.18208286 0.0103319185 -0.10984492
221 -0.18105897 -0.1632291 -0.08423874 0.039326046 0.048761692 -0.059044745 -0.220721 0.0030789196 0.053846613 0.03465986 -0.11511453 0.09378797 -0.023860475 -0.08700327 -0.14559269 -0.14770548 0.11744001 0.07634165 -0.04326583 0.021822518 0.10285352 0.081888154 -0.01850062 0.023987405 -0.08148224 0.00028936012 -0.022475805 -0.11592582 -0.047315806 -0.19832416 0.0010444598 0.023547249 -0.061431326 -0.075842395 0.02795529 0.06497954 0.024669169 -0.11513281 0.06789582 -0.008059431 -0.032508895 0.14076489 -0.08529601 -0.1094979 -0.041488215 -0.04304235 -0.05026118 -0.17321518 0.03216487 0.12228794 -0.083661616 0.003522075 0.19497009 0.13917103 -0.06919391 -0.060821448 -0.12315132 0.03301997 -0.051126994 -0.073062055 -0.098727904 -0.15213959 -0.054651003 -0.024834596 -0.08923164 0.025069073 -0.025122654 -0.025058221 -0.041399762 -0.0073970295 0.07226412 -0.012097822 0.15890184 -0.028987268 0.10499459 0.060489003 0.20503505 0.004472357 0.043193255 -0.04748238 0.057534352 -0.011441432 -0.2291599 -0.0074201003 0.051444788 -0.028425522 0.12818667 0.018473174 0.03105584 0.10064403 0.09102149 0.04396048 0.015252932 0.025117302 0.012148612 0.10268344 0.06796687 -0.22547576 0.057197172 0.0005102483 -0.1753801 0.026712729 0.054589022 -0.026384896 -0.013729361 -0.038380295 0.13719651 0.109214485 0.034029655 -0.008449223 -0.0108128395 0.20207761 0.031922724 -0.11307413 -0.072533816 0.065184794 0.03483155 0.09516224 -0.11533119 0.02001765 0.054647565 -0.056577336 0.051707145 -0.20126855 -0.12007596 0.20883353 -0.008215083 -0.11811437
53 -0.19432184 -0.18044247 -0.08924796 0.037640445 0.048369285 -0.06328579 -0.24614373 -0.0045462777 0.05730997 0.037320014 -0.12661995 0.10515627 -0.028574497 -0.09065906 -0.15361655 -0.1545617 0.12289241 0.080044284 -0.03956624 0.025000442 0.10711011 0.085367 -0.024906037 0.022087283 -0.083155006 -0.005778438 -0.018771188 -0.11805283 -0.05658438 -0.22077836 -0.0078050327 0.023776026 -0.06791807 -0.07880123 0.027678192 0.06836291 0.027204307 -0.1230356 0.06671936 -0.008187761 -0.034597646 0.13195296 -0.08924561 -0.10159186 -0.0386347 -0.05313915 -0.051646624 -0.17401564 0.027949536 0.119695224 -0.07983989 -0.00044200636 0.18718383 0.14618942 -0.054950256 -0.062238537 -0.117358625 0.034753118 -0.05659937 -0.076076016 -0.11143729 -0.13530928 -0.04942519 -0.027797729 -0.09397635 0.028709888 -0.019455362 -0.024687625 -0.049000427 -0.014412736 0.07216575 -0.016670607 0.15027228 -0.029868098 0.10389277 0.058996413 0.19518569 0.004322334 0.051213626 -0.04600801 0.050542895 -0.017337792 -0.22506529 -0.009168222 0.057985675 -0.03140877 0.120953865 0.02048684 0.030157661 0.091788515 0.085122034 0.04055421 0.017186772 0.029555116 0.010513438 0.110536024 0.06320242 -0.21695693 0.06252988 0.0033567986 -0.1786735 0.032198627 0.05437655 -0.033021793 -0.01215861 -0.0287094 0.11934897 0.099497266 0.03087976 -0.006290666 -0.0059623364 0.17762634 0.03395605 -0.10530534 -0.07067042 0.060850237 0.039933007 0.08294067 -0.0993924 0.026650934 0.04934024 -0.05063423 0.0363097 -0.18653469 -0.11522168 0.18551333 0.002821251 -0.10596788
282 -0.19105625 -0.18394938 -0.085986815 0.049619347 0.04243109 -0.071356945 -0.24482375 -0.01334123 0.06078821 0.0389904 -0.12611903 0.113029934 -0.020413622 -0.08553602 -0.15087296 -0.15461788 0.12283906 0.07456863 -0.036092088 0.026445687 0.09717515 0.07740075 -0.02307085 0.0218898 -0.08013811 -0.0022458744 -0.018649042 -0.11520096 -0.056288246 -0.21195705 -0.014887862 0.019047374 -0.06362696 -0.074168906 0.023302166 0.06502023 0.021894153 -0.12239679 0.068280555 -0.003752287 -0.02083124 0.10810954 -0.07174148 -0.08872514 -0.03391449 -0.0492986 -0.05869789 -0.16662885 0.025598403 0.10909684 -0.07093322 0.0010552646 0.16734384 0.12878639 -0.054656554 -0.049011096 -0.10067751 0.03677941 -0.047099408 -0.071327455 -0.10428223 -0.11933171 -0.05201849 -0.027053135 -0.089980274 0.024487304 -0.019356716 -0.021235768 -0.0410722 -0.011022063 0.07615451 -0.014786308 0.15203857 -0.028379368 0.100490436 0.05319796 0.19958892 0.011724833 0.059537955 -0.04139824 0.057485256 -0.009335746 -0.22238664 -0.015322128 0.05436617 -0.042370923 0.11597171 0.015563263 0.027846178 0.09910434 0.08720011 0.042301986 0.00589016 0.023281584 0.003881414 0.099826634 0.06362464 -0.21529101 0.0654295 0.0040536313 -0.17884824 0.023955498 0.051117375 -0.033085044 -0.015887788 -0.03489949 0.123594426 0.11632416 0.02877699 -0.011411198 -0.013634598 0.19788404 0.043414652 -0.10350369 -0.06916907 0.06615642 0.038026255 0.09606685 -0.11816888 0.020088086 0.054496326 -0.05395222 0.04184863 -0.2050039 -0.12543975 0.20104828 0.0040722797 -0.10975989
231 -0.18970022 -0.17414926 -0.08647212 0.036976017 0.04595746 -0.07215421 -0.2383658 -0.009393476 0.06592885 0.039722353 -0.12871586 0.10721293 -0.030953258 -0.09104622 -0.15288232 -0.16131766 0.13313952 0.07398954 -0.047203247 0.019444967 0.107274875 0.09338524 -0.02056797 0.0257719 -0.077524595 -0.0039085886 -0.019279638 -0.12187066 -0.05354616 -0.20749684 -0.009554202 0.024061812 -0.06868947 -0.07821366 0.02889014 0.066795275 0.023789972 -0.12018765 0.07141743 -0.0067747305 -0.031361807 0.119536504 -0.07223622 -0.089642346 -0.035061974 -0.047113348 -0.05002807 -0.17125905 0.03309576 0.11980568 -0.08421475 0.003033177 0.18124954 0.13990904 -0.061320566 -0.051072776 -0.10957765 0.03756969 -0.053902835 -0.077438295 -0.1166769 -0.13095589 -0.048741926 -0.027389606 -0.09370484 0.028766202 -0.024998737 -0.022446806 -0.041811835 -0.010390873 0.07899119 -0.017984739 0.16381262 -0.03185624 0.10614601 0.063831 0.2062987 0.013103547 0.0529584 -0.049408738 0.054958444 -0.007975256 -0.23198843 -0.014568217 0.0545541 -0.039096523 0.12201818 0.023449332 0.030969452 0.09880595 0.09008418 0.04240422 0.01596338 0.033200834 0.0106922835 0.105325736 0.06917447 -0.22149608 0.068875976 0.0064415084 -0.16665599 0.030280821 0.049818497 -0.03285288 -0.014507021 -0.03389681 0.117724106 0.09842921 0.03215117 -0.009413751 -0.0019231846 0.17322671 0.03833829 -0.096051805 -0.06705603 0.060966797 0.037464637 0.085532226 -0.10225502 0.020367814 0.04909181 -0.053918462 0.035876334 -0.18607558 -0.118417785 0.17882638 0.0030778777 -0.099972256
218 -0.1632175 -0.15890977 -0.07431693 0.04042069 0.041371636 -0.05270538 -0.21084365 -0.003534562 0.05544899 0.04055902 -0.11714097 0.102842614 -0.032086764 -0.07980689 -0.15463991 -0.15869114 0.119335346 0.071480155 -0.04537377 0.02329832 0.104136996 0.084564105 -0.02457817 0.026536116 -0.07500126 0.004116401 -0.019661514 -0.120499 -0.050408933 -0.18503165 -0.0045571653 0.018107213 -0.059394676 -0.0728472 0.022507796 0.061053317 0.024306415 -0.12817411 0.063182764 -0.0031262531 -0.025070913 0.1283632 -0.07843299 -0.09348704 -0.03587368 -0.05018786 -0.05101722 -0.18028754 0.03506087 0.11803544 -0.073793136 0.00077356084 0.19222653 0.14868961 -0.06112554 -0.056548502 -0.1146911 0.037015468 -0.050280318 -0.074295126 -0.10249577 -0.13749035 -0.053410586 -0.021649344 -0.100419626 0.028984169 -0.0203567 -0.022879114 -0.042092975 -0.012115217 0.07855815 -0.013158071 0.15936062 -0.037423026 0.10820622 0.054567803 0.21007714 0.00785778 0.04945351 -0.050331626 0.059286002 -0.011815206 -0.22907394 -0.012192417 0.06493099 -0.035699986 0.12416754 0.022706173 0.031076012 0.09740442 0.09714181 0.045910675 0.0076999976 0.029652424 0.015167826 0.10455271 0.066759914 -0.22687462 0.06632242 0.0073147155 -0.18374641 0.033509083 0.058446202 -0.034483653 -0.012802718 -0.031970374 0.121605515 0.10936604 0.031273376 -0.01177207 -0.006404615 0.1986163 0.033702992 -0.1039055 -0.067192756 0.05743591 0.034957223 0.093173146 -0.10363653 0.02271485 0.056987863 -0.054549247 0.04730831 -0.19922192 -0.12501973 0.20084386 -0.00354638 -0.101558626
