284 16
206 -0.16097759 -0.34034666 0.15258195 -0.2087905 0.11723362 -0.29471147 -0.36648265 -0.28406537 0.07747568 -0.17749694 -0.30798858 0.10899519 -0.26068997 -0.3255863 -0.17596297 -0.5139224
192 -0.1835967 -0.32439148 0.12482864 -0.13503005 0.13545986 -0.29072282 -0.37944078 -0.3220447 0.07366843 -0.22146153 -0.31487048 0.06267987 -0.25935107 -0.35073516 -0.18104684 -0.48997074
41 -0.19290495 -0.4391166 0.13714589 -0.19588102 0.18312506 -0.2820806 -0.28754804 -0.30111757 0.10026557 -0.19406648 -0.34052157 0.10799466 -0.23363188 -0.2941526 -0.13597457 -0.45180133
260 -0.16148436 -0.35390407 0.11128677 -0.20293093 0.11694593 -0.2987656 -0.37173262 -0.2725033 0.106234625 -0.18339172 -0.31786767 0.10477446 -0.2599833 -0.32333213 -0.13260466 -0.46580723
257 -0.082857646 -0.354134 0.11374982 -0.15303898 0.1776317 -0.34693137 -0.29316765 -0.26592073 0.066230245 -0.1948016 -0.3203419 0.12796403 -0.23456405 -0.3313853 -0.17081544 -0.5409482
236 -0.100544274 -0.34507868 0.10694541 -0.1306651 0.1557126 -0.32978925 -0.31521153 -0.33342853 0.085582785 -0.2088341 -0.33098474 0.1106281 -0.24973154 -0.33442557 -0.16538423 -0.5018061
84 -0.18307145 -0.38770673 0.16186287 -0.17963983 0.16459765 -0.2808706 -0.33509144 -0.32357302 0.05753589 -0.16968425 -0.28926492 0.13067423 -0.20601486 -0.31118923 -0.17784166 -0.4786676
106 -0.099675864 -0.36818692 0.14747636 -0.15757301 0.10687708 -0.30671504 -0.32057828 -0.33081266 0.028356485 -0.19331361 -0.3114035 0.10227769 -0.26157525 -0.35422873 -0.19056948 -0.46653664
117 -0.07715548 -0.36154115 0.12762062 -0.17023918 0.15783332 -0.3344418 -0.39131045 -0.31504354 0.07434663 -0.20356297 -0.33455914 0.10794275 -0.25999424 -0.3555869 -0.13808228 -0.41771483
83 -0.18938652 -0.39164796 0.104307316 -0.20664838 0.20264995 -0.23559305 -0.35170293 -0.32951432 0.087295145 -0.107719176 -0.2892624 0.10419822 -0.2268092 -0.3191781 -0.14981528 -0.4982608
221 -0.16346318 -0.36792055 0.12656668 -0.16411349 0.1994321 -0.27815545 -0.30025962 -0.31087196 0.03506738 -0.20888445 -0.32755682 0.10543559 -0.22918345 -0.3338698 -0.17061748 -0.5040474
225 -0.10588037 -0.3312603 0.18835771 -0.17473167 0.112588756 -0.26769462 -0.34913075 -0.31995678 0.06607122 -0.18133661 -0.32320115 0.06959847 -0.20535377 -0.31389365 -0.15087612 -0.5596384
54 -0.16529146 -0.3952642 0.16052002 -0.18691179 0.1135497 -0.29953095 -0.338659 -0.3190498 0.11274659 -0.16998151 -0.33881256 0.113735266 -0.2012819 -0.30864576 -0.17761618 -0.47242
246 -0.1260552 -0.371095 0.13621084 -0.19062892 0.14204986 -0.32486787 -0.30581316 -0.31154546 0.033413112 -0.20181622 -0.3017487 0.14000537 -0.24863903 -0.33043793 -0.1735967 -0.49981466
5 -0.11001088 -0.3629421 0.09558875 -0.17753145 0.14751269 -0.30024046 -0.29245195 -0.31030586 0.11644944 -0.18799324 -0.30080077 0.11341505 -0.25187293 -0.305289 -0.15185396 -0.521921
59 -0.15264641 -0.41419834 0.17441618 -0.24791962 0.17466098 -0.2719907 -0.2719691 -0.29061034 0.08499678 -0.14601448 -0.31413937 0.11264464 -0.20145594 -0.32107255 -0.18780927 -0.46804506
115 -0.13902548 -0.37877464 0.1623023 -0.2313416 0.121451825 -0.30155426 -0.33222085 -0.34096873 0.06973088 -0.1495372 -0.31875727 0.059064243 -0.20796707 -0.32387227 -0.13805342 -0.48082674
71 -0.13770793 -0.32897064 0.13127238 -0.22415166 0.13749504 -0.2951785 -0.29336977 -0.31182092 0.07994797 -0.14189768 -0.3104185 0.1142387 -0.22656266 -0.32524845 -0.12767942 -0.5403588
244 -0.21191528 -0.3185881 0.106381685 -0.18372236 0.124099955 -0.29039392 -0.3308338 -0.33177698 0.08801837 -0.16921005 -0.3167425 0.080670714 -0.20276663 -0.36355302 -0.19224888 -0.4974367
102 -0.1254503 -0.3423234 0.12773785 -0.20479669 0.13311556 -0.29511482 -0.36526525 -0.28085196 0.06814504 -0.16388138 -0.2931146 0.072606064 -0.2638558 -0.35257104 -0.16678704 -0.49983016
144 -0.15716948 -0.36866266 0.13157213 -0.18305524 0.16371615 -0.28602022 -0.28566435 -0.2597621 0.033600327 -0.1644195 -0.34061855 0.10842393 -0.24750271 -0.3431198 -0.15374145 -0.5059735
254 -0.16300836 -0.42113417 0.1464842 -0.24277678 0.089273356 -0.28275472 -0.28889966 -0.29847735 0.08219303 -0.13154538 -0.25855902 0.11133944 -0.2410633 -0.29655626 -0.16251417 -0.52902484
87 -0.1835158 -0.3751441 0.1747376 -0.21117374 0.15581961 -0.27615094 -0.32852286 -0.2940427 0.10990142 -0.17395364 -0.33176184 0.09619156 -0.19776228 -0.34630638 -0.17946136 -0.46382472
51 -0.15170726 -0.35597005 0.11087789 -0.18815987 0.13059598 -0.3075049 -0.3397568 -0.31971323 0.085801 -0.15804802 -0.29034325 0.07229163 -0.24573104 -0.3353193 -0.14922106 -0.48862615
53 -0.12535483 -0.36331826 0.116034314 -0.22437248 0.17750116 -0.28114304 -0.36035064 -0.2756443 0.06815606 -0.16407429 -0.32290325 0.12916604 -0.2529522 -0.3547289 -0.19085462 -0.46649742
137 -0.16531684 -0.3590739 0.13851406 -0.20649227 0.15051788 -0.2783736 -0.3899393 -0.31584966 0.1316936 -0.10409557 -0.31301448 0.09673069 -0.17869675 -0.33211353 -0.1189895 -0.5111176
278 -0.14536029 -0.3864856 0.12154369 -0.21821977 0.15274462 -0.26311603 -0.31118026 -0.33673286 0.08305779 -0.1722589 -0.32568887 0.10966949 -0.21065834 -0.33880964 -0.18973787 -0.47200477
110 -0.108208045 -0.39265323 0.1469547 -0.20519486 0.14349444 -0.30239767 -0.29697174 -0.30933526 0.063327454 -0.14380357 -0.36852223 0.08138346 -0.1798755 -0.28736684 -0.16224946 -0.5038825
250 -0.20740116 -0.32451686 0.12875511 -0.18609785 0.12230411 -0.28245452 -0.35072562 -0.29932863 0.06629554 -0.16945466 -0.31125775 0.11926409 -0.31108138 -0.2955001 -0.1692151 -0.5117772
86 -0.12718281 -0.41752902 0.17535019 -0.16856337 0.14054415 -0.3445805 -0.33690065 -0.3228234 0.09210888 -0.16949172 -0.31264696 0.13323066 -0.19896147 -0.3264746 -0.13604304 -0.450675
57 -0.11600318 -0.34937066 0.113113225 -0.23141189 0.13784763 -0.2813976 -0.3543147 -0.3040435 0.053539243 -0.13215578 -0.32184806 0.089501254 -0.2348676 -0.3084995 -0.17815323 -0.5085482
1 -0.22292979 -0.36698228 0.1552901 -0.21481371 0.17341031 -0.3049897 -0.2998681 -0.25107235 0.10494969 -0.1344004 -0.31584784 0.0788269 -0.20981522 -0.3305753 -0.17407092 -0.51581717
61 -0.18208921 -0.37217042 0.14595658 -0.18959215 0.085409254 -0.3094963 -0.35276508 -0.32375985 0.0774619 -0.18603209 -0.29522097 0.0801142 -0.24576189 -0.315107 -0.15355763 -0.47982207
258 -0.13004708 -0.42954987 0.15088153 -0.23394313 0.10883615 -0.27951476 -0.2798166 -0.28575373 0.07092007 -0.17003186 -0.2894 0.10912034 -0.26659 -0.30450422 -0.16044767 -0.49518332
88 -0.1203157 -0.33462167 0.14677274 -0.13940983 0.09504056 -0.31257015 -0.33456 -0.2914822 0.04631116 -0.2062909 -0.3071326 0.10407413 -0.24501677 -0.33965576 -0.14491753 -0.54066265
126 -0.1444096 -0.40908843 0.13159685 -0.20179486 0.12731986 -0.2762985 -0.34502196 -0.27835432 0.061751876 -0.1863797 -0.30972964 0.091568545 -0.21471938 -0.32016292 -0.118568726 -0.505446
121 -0.12928076 -0.3158984 0.11368839 -0.19236797 0.15600674 -0.31014454 -0.2830791 -0.29326677 0.067996435 -0.16379425 -0.31547764 0.102281176 -0.25295138 -0.3707603 -0.13602729 -0.5429471
105 -0.16165884 -0.41095206 0.17724712 -0.19443884 0.1260406 -0.3215605 -0.33198863 -0.28583097 0.107552074 -0.19721417 -0.27907687 0.11417518 -0.2200445 -0.32763883 -0.17147385 -0.4710615
205 -0.12653147 -0.35724148 0.10932854 -0.16032034 0.11666455 -0.33397046 -0.3505492 -0.3107181 0.05286598 -0.12459425 -0.26821792 0.120764546 -0.28295103 -0.37928864 -0.17198144 -0.4865013
211 -0.16354764 -0.33549306 0.089136586 -0.15158676 0.12696958 -0.31538054 -0.2954674 -0.35093796 0.09669112 -0.18278916 -0.34002897 0.08821917 -0.25315842 -0.33934388 -0.1599206 -0.4900796
145 -0.1787039 -0.42400977 0.11653117 -0.1939788 0.13916142 -0.24137597 -0.34064263 -0.29314527 0.07205391 -0.19079106 -0.34461087 0.066656545 -0.22740553 -0.2808685 -0.15989019 -0.48783088
243 -0.1388469 -0.36965904 0.13706744 -0.22697715 0.1769491 -0.32093933 -0.3037427 -0.30961263 0.050020065 -0.17078781 -0.30836168 0.042991985 -0.24045764 -0.32664883 -0.14664766 -0.49811935
118 -0.1402713 -0.40212223 0.15138477 -0.19755796 0.13960157 -0.3041971 -0.29199097 -0.2639518 0.08275455 -0.14586902 -0.31213132 0.106025726 -0.21580936 -0.32874864 -0.17929284 -0.5044475
264 -0.14289391 -0.37738755 0.14704989 -0.2222502 0.16979021 -0.31042892 -0.34700236 -0.24240352 0.1196619 -0.1661317 -0.30026183 0.08816798 -0.21556886 -0.32219303 -0.13781208 -0.49857312
122 -0.14820446 -0.35768127 0.12328217 -0.19052103 0.15388708 -0.33395553 -0.33930385 -0.2491315 0.09401044 -0.19731309 -0.29260045 0.05162857 -0.19508265 -0.3467834 -0.14190535 -0.49707082
97 -0.17057924 -0.3156593 0.13568789 -0.17442796 0.1887739 -0.3340042 -0.32296008 -0.335635 0.084340446 -0.15305951 -0.27155626 0.12229682 -0.22973578 -0.3623207 -0.16735256 -0.48954153
116 -0.1910329 -0.4050472 0.15262167 -0.22216631 0.1441435 -0.2790138 -0.29786816 -0.30766705 0.07467598 -0.17429015 -0.3288389 0.109985195 -0.23666613 -0.2909052 -0.16421786 -0.46739393
186 -0.113989696 -0.43492103 0.12832797 -0.19463663 0.15421966 -0.34321892 -0.32073483 -0.32143378 0.02558766 -0.1646763 -0.2643654 0.10293483 -0.22960028 -0.362706 -0.15431981 -0.44803336
119 -0.12776005 -0.3776055 0.12677625 -0.22285782 0.14443089 -0.29113773 -0.29574543 -0.28902406 0.049737714 -0.15685214 -0.3136623 0.045047957 -0.27442613 -0.32711032 -0.16543643 -0.50081724
224 -0.21889971 -0.32829893 0.1186526 -0.15115823 0.17121837 -0.28389278 -0.37038237 -0.29655108 0.060743727 -0.20094469 -0.32832637 0.12528129 -0.2449551 -0.3523741 -0.17305449 -0.47801355
9 -0.17008147 -0.38154796 0.1101489 -0.21541527 0.15863042 -0.2937979 -0.31643385 -0.29810512 0.091671266 -0.15106003 -0.28289056 0.108678326 -0.2266708 -0.3418045 -0.16068782 -0.49912998
89 -0.18405806 -0.34527084 0.115984686 -0.22236255 0.13811558 -0.27763587 -0.28585407 -0.2908669 0.07663095 -0.17337348 -0.3074378 0.10868019 -0.26705912 -0.32149446 -0.16984743 -0.4892883
47 -0.115900636 -0.36333522 0.13531661 -0.20971598 0.16585577 -0.31675816 -0.31202734 -0.3103759 0.043611627 -0.1406028 -0.30761266 0.087681495 -0.17835079 -0.374332 -0.13212878 -0.49086705
91 -0.15070136 -0.37183738 0.16498813 -0.17228107 0.16654466 -0.26519912 -0.32710403 -0.3463273 0.10173244 -0.13626054 -0.29268768 0.07366509 -0.22850706 -0.31814677 -0.18605505 -0.52787375
58 -0.1740972 -0.3588522 0.088906966 -0.23270255 0.1370224 -0.26788157 -0.32792026 -0.3049034 0.09314153 -0.1475656 -0.28486657 0.13946533 -0.23182401 -0.27363 -0.14767878 -0.5371306
52 -0.14892653 -0.37923276 0.14168724 -0.22474904 0.12585998 -0.31749463 -0.28703192 -0.31637803 0.09084138 -0.16053975 -0.27375782 0.09465809 -0.23068158 -0.2947286 -0.16087379 -0.5250693
96 -0.13790114 -0.37308693 0.14768027 -0.21755469 0.15317264 -0.31112403 -0.32026365 -0.3314459 0.0751779 -0.17970227 -0.3099999 0.12861297 -0.24021937 -0.3220311 -0.1549794 -0.44884172
150 -0.088349685 -0.37682346 0.16937457 -0.1969078 0.1506243 -0.2776187 -0.31227392 -0.30887267 0.064689346 -0.19195512 -0.30612025 0.09710149 -0.23155156 -0.35660216 -0.16132134 -0.501902
142 -0.15190092 -0.38132778 0.09852564 -0.1968334 0.15853456 -0.25157395 -0.3530584 -0.3102754 0.02802157 -0.15102564 -0.3479381 0.121641 -0.23478355 -0.33259425 -0.15061489 -0.5097531
231 -0.16008039 -0.38519892 0.122102186 -0.24130277 0.18383707 -0.29478213 -0.27250862 -0.28278807 0.08794638 -0.16034058 -0.27878487 0.10632549 -0.25224835 -0.32955006 -0.15457308 -0.5200552
49 -0.089784876 -0.3921767 0.1514573 -0.16713396 0.121509016 -0.30595338 -0.29454702 -0.28600803 0.057911016 -0.14603429 -0.28704652 0.109203294 -0.26433495 -0.34395462 -0.1439935 -0.5039167
3 -0.1206085 -0.36487007 0.16569744 -0.17491321 0.1288435 -0.2953179 -0.27584526 -0.299236 0.034501832 -0.19102246 -0.30641982 0.08038161 -0.26889578 -0.35253346 -0.17561878 -0.52798504
146 -0.18757655 -0.3887286 0.15824178 -0.20361446 0.10425367 -0.3094095 -0.35238427 -0.31466332 0.06361962 -0.17479053 -0.3448029 0.10729113 -0.27683496 -0.32785812 -0.13952906 -0.4241572
277 -0.17041516 -0.3347767 0.10341651 -0.20108846 0.14582966 -0.33706006 -0.317163 -0.3460578 0.023587989 -0.16033258 -0.30776533 0.09700709 -0.29509953 -0.3328738 -0.19241975 -0.46477786
94 -0.17977796 -0.37264523 0.11376079 -0.1817301 0.17882265 -0.32647124 -0.3482772 -0.30418673 0.07054132 -0.15905 -0.26782402 0.099382475 -0.28076163 -0.35131145 -0.20580216 -0.4523388
93 -0.1355279 -0.3713134 0.16294041 -0.18917584 0.10972088 -0.26839775 -0.36720377 -0.29541162 0.06890569 -0.15163448 -0.3033074 0.09187906 -0.27694297 -0.3357259 -0.13275783 -0.4956222
140 -0.124980144 -0.37011203 0.112711124 -0.23180608 0.13436297 -0.30941078 -0.37294778 -0.321366 0.1395361 -0.19296776 -0.3140432 0.07654212 -0.22087108 -0.3552177 -0.13696538 -0.46664965
218 -0.14447193 -0.39358583 0.13502397 -0.18924828 0.1388837 -0.34794056 -0.33956507 -0.24663335 0.07439492 -0.18587525 -0.29675692 0.0799134 -0.24156705 -0.31892484 -0.1533404 -0.50385255
2 -0.12150896 -0.3759192 0.11836925 -0.1763965 0.11955877 -0.30666813 -0.31154808 -0.29160997 0.056829218 -0.18729609 -0.33951157 0.11599363 -0.2202012 -0.3573259 -0.14654309 -0.48386624
138 -0.15123291 -0.3861538 0.10687953 -0.22344992 0.13279973 -0.29931486 -0.3115064 -0.3239458 0.07334468 -0.15174107 -0.32459217 0.10338171 -0.23381716 -0.34353822 -0.155856 -0.45667136
85 -0.19223662 -0.36701044 0.14782771 -0.18334016 0.09180435 -0.29377842 -0.3606802 -0.32109785 0.09317854 -0.17343861 -0.33574915 0.050426755 -0.256164 -0.31157646 -0.10347444 -0.47019866
198 -0.1631058 -0.3926391 0.11617378 -0.18703625 0.1338689 -0.27599207 -0.41275784 -0.3324837 0.08207646 -0.14944199 -0.3118786 0.13645181 -0.22401954 -0.30925912 -0.17770976 -0.45635602
282 -0.17532006 -0.36129856 0.08844216 -0.16221109 0.16679505 -0.3158468 -0.33380237 -0.35358036 0.083133034 -0.17594963 -0.28107417 0.11271974 -0.27252334 -0.29102883 -0.13380761 -0.49179098
48 -0.13906005 -0.3318838 0.11038349 -0.19266325 0.122595385 -0.2817639 -0.32982376 -0.31853092 0.027569996 -0.20362152 -0.3535346 0.108957626 -0.20834744 -0.2928806 -0.16439515 -0.53479064
113 -0.1317613 -0.4255113 0.14914708 -0.25202084 0.1322421 -0.3287246 -0.16526593 -0.18904467 0.09990212 -0.10985682 -0.37179303 0.0022844642 -0.25379694 -0.3403304 -0.11203377 -0.5145917
55 -0.14765182 -0.38329834 0.14240624 -0.23012611 0.16829066 -0.38313422 -0.1577897 -0.18064977 0.10547813 -0.071189694 -0.30602294 0.044820912 -0.22640389 -0.36357477 -0.16584809 -0.5244855
256 -0.1345732 -0.42418236 0.09399175 -0.24610604 0.14812368 -0.3376665 -0.16131799 -0.19957577 0.06279752 -0.074947216 -0.3107519 0.010685641 -0.22827797 -0.35208544 -0.14430904 -0.55313003
18 -0.13536054 -0.39145792 0.08918005 -0.2701362 0.17014998 -0.339502 -0.21842061 -0.1703531 0.13601802 -0.017085304 -0.3136058 0.0030260847 -0.18291844 -0.32985637 -0.117236 -0.5907828
34 -0.12747324 -0.42516768 0.14409523 -0.24767798 0.16424999 -0.37095904 -0.14073808 -0.18199146 0.07743397 -0.09616138 -0.3547414 0.021204103 -0.1953996 -0.35409555 -0.15165387 -0.49988514
22 -0.08837137 -0.41279 0.1258403 -0.2880262 0.098655075 -0.3422458 -0.21167883 -0.19860497 0.046561435 -0.08776186 -0.34474185 0.0108848335 -0.20274274 -0.36738145 -0.1028187 -0.53333336
30 -0.117845535 -0.45695084 0.09162222 -0.22649084 0.11445918 -0.342562 -0.17708765 -0.22786856 0.10005411 -0.06996981 -0.34889516 0.0060082013 -0.2088357 -0.33628494 -0.12541646 -0.5271252
23 -0.13137081 -0.367789 0.08134077 -0.24428123 0.11898344 -0.3076257 -0.26964575 -0.18426588 0.11303809 -0.10158786 -0.34605512 0.028822908 -0.23430346 -0.387256 -0.14892396 -0.51293075
0 -0.14040671 -0.3918223 0.118518986 -0.28908685 0.11473225 -0.32268625 -0.22554126 -0.2164071 0.07894682 -0.10313781 -0.29865488 0.04566414 -0.20960805 -0.34604615 -0.12445097 -0.53758174
37 -0.18081942 -0.37741655 0.159902 -0.23220724 0.1730847 -0.33409867 -0.2332444 -0.1979673 0.12203243 -0.09592803 -0.32967353 0.064821064 -0.1749946 -0.39024156 -0.15340872 -0.48694003
185 -0.17041805 -0.4166097 0.11879577 -0.25762948 0.12505566 -0.37445012 -0.18763751 -0.20183061 0.08634854 -0.06905129 -0.31358448 0.0064664525 -0.18072027 -0.38120615 -0.13742606 -0.500299
176 -0.13543175 -0.39728317 0.11790647 -0.26539657 0.13736412 -0.3278734 -0.19142254 -0.2127414 0.10520764 -0.12474713 -0.34092054 -0.016462095 -0.2367253 -0.3099731 -0.11411528 -0.5371696
69 -0.117247745 -0.4149387 0.11242498 -0.23813243 0.13226578 -0.34051597 -0.19542798 -0.20937663 0.060992803 -0.10214273 -0.33896872 0.06520386 -0.2238073 -0.3730354 -0.13233061 -0.49963954
131 -0.1429071 -0.4334393 0.1334812 -0.32320237 0.14613828 -0.33217454 -0.16292726 -0.17182668 0.052512616 -0.08251147 -0.34291548 0.045801394 -0.22227165 -0.34022206 -0.1327731 -0.49677488
252 -0.086241566 -0.43396506 0.17252202 -0.24144733 0.15674767 -0.3617282 -0.15646464 -0.18604824 0.09658648 -0.102118626 -0.32242975 0.03263352 -0.21926421 -0.35648027 -0.10695376 -0.5120444
202 -0.13752988 -0.40571827 0.13672884 -0.26947105 0.122448266 -0.3221194 -0.20154622 -0.19109328 0.10205826 -0.10893866 -0.32041648 0.028092189 -0.19976279 -0.37059036 -0.1046289 -0.54426956
199 -0.14528704 -0.38404262 0.110544235 -0.24584444 0.13725251 -0.35549977 -0.21481897 -0.20050506 0.07288137 -0.08517134 -0.31724778 0.0053781415 -0.23496202 -0.33446884 -0.14898679 -0.5311488
16 -0.14740364 -0.38257068 0.15285929 -0.24849522 0.17720228 -0.34157327 -0.20213939 -0.21940793 0.090500526 -0.088254854 -0.33890906 0.0448886 -0.20709738 -0.32357323 -0.10635803 -0.50983906
203 -0.18143368 -0.3830998 0.13964793 -0.28040093 0.17333789 -0.34620783 -0.25229108 -0.20615834 0.1020663 -0.11460039 -0.3453342 -0.011407384 -0.17907964 -0.33955905 -0.15291464 -0.4706706
128 -0.104720555 -0.4251038 0.13968746 -0.26774624 0.12258828 -0.35752246 -0.16510056 -0.19075891 0.07485579 -0.072965324 -0.33968803 0.009120872 -0.2208518 -0.39422107 -0.14831652 -0.4887626
109 -0.16163747 -0.39497894 0.114673994 -0.23737448 0.19532889 -0.33719996 -0.20087898 -0.19790724 0.0575181 -0.09376714 -0.32008255 0.010633189 -0.22859347 -0.31165364 -0.16651395 -0.5224246
151 -0.13412572 -0.4383198 0.13104357 -0.26675743 0.16046228 -0.3109911 -0.21087268 -0.21149488 0.09261376 -0.06091615 -0.30854484 -0.0033146387 -0.24903095 -0.3261506 -0.13058731 -0.50419915
193 -0.1260559 -0.39677048 0.11765145 -0.2780541 0.09840704 -0.34068182 -0.15751372 -0.18211862 0.097344495 -0.10126977 -0.3184601 0.040403184 -0.21118847 -0.34869817 -0.15432033 -0.5655491
180 -0.12674163 -0.4122831 0.15860379 -0.24093507 0.13834931 -0.36416802 -0.16204365 -0.19232722 0.10171587 -0.102909625 -0.31820792 0.007446383 -0.22469053 -0.3214171 -0.15375832 -0.53304654
43 -0.16639003 -0.3938894 0.1421143 -0.27716863 0.13664497 -0.38470834 -0.16501155 -0.17548385 0.08356467 -0.04573496 -0.3021714 0.027660467 -0.24727412 -0.35238984 -0.11544228 -0.5109033
274 -0.14672244 -0.39404482 0.15614288 -0.27942976 0.15913278 -0.35513654 -0.21167919 -0.16668625 0.063920476 -0.070519574 -0.34556425 0.024792561 -0.19902737 -0.34469154 -0.09506244 -0.5210403
143 -0.1091169 -0.43233377 0.14425714 -0.25984964 0.16446784 -0.3166477 -0.22210741 -0.21008751 0.11240044 -0.073573984 -0.3614469 0.031640384 -0.1861219 -0.31923795 -0.12346668 -0.51260245
65 -0.16744761 -0.37715963 0.096943624 -0.25358307 0.1664813 -0.34138563 -0.22724122 -0.22688122 0.101779364 -0.14908946 -0.31885713 0.015391584 -0.17863962 -0.33436987 -0.15847689 -0.51916534
11 -0.17276141 -0.4198106 0.08659551 -0.24548745 0.15790285 -0.34063268 -0.22044437 -0.17646413 0.13296057 -0.1139395 -0.32630137 0.043581743 -0.24203925 -0.2802853 -0.10772214 -0.5306401
10 -0.12023947 -0.41927168 0.14236507 -0.26339558 0.17412251 -0.33596644 -0.19755214 -0.21522026 0.12121723 -0.119573615 -0.3253101 0.040973257 -0.20111221 -0.32769316 -0.15436615 -0.51763624
267 -0.17933032 -0.36739215 0.08212743 -0.25321373 0.10355894 -0.3667001 -0.18212469 -0.220657 0.078894116 -0.09477654 -0.3349921 0.021965431 -0.22147137 -0.36267048 -0.09930643 -0.5402568
63 -0.15760228 -0.4150083 0.16296448 -0.29743764 0.16367073 -0.32899088 -0.18143764 -0.20962176 0.10569516 -0.06639995 -0.3255226 -0.010983849 -0.2145605 -0.2974212 -0.13795137 -0.5290459
172 -0.11167186 -0.39361292 0.11918859 -0.28022462 0.20987622 -0.34204033 -0.14959534 -0.2029748 0.06972781 -0.073807396 -0.3504573 0.045036312 -0.19703767 -0.35052016 -0.13466986 -0.53552663
7 -0.10040499 -0.3867536 0.10256101 -0.27203524 0.13069797 -0.3338192 -0.19876507 -0.2115809 0.112318374 -0.09236986 -0.34234536 0.02216232 -0.21718088 -0.38388842 -0.12427145 -0.5153628
245 -0.0950187 -0.3944612 0.13179186 -0.2588169 0.14795378 -0.33403158 -0.201177 -0.2250501 0.09071146 -0.06329717 -0.32092077 0.00043156015 -0.20894198 -0.33510935 -0.119381085 -0.5510235
147 -0.13865322 -0.3683636 0.17410406 -0.2500574 0.10940706 -0.37428704 -0.23131506 -0.15074885 0.11295918 -0.043246485 -0.333408 -0.012961437 -0.21092917 -0.34943992 -0.11709026 -0.54807043
27 -0.101342686 -0.39418533 0.064894 -0.27334958 0.1468109 -0.31091508 -0.20708694 -0.18010029 0.07287813 -0.06534606 -0.36026296 0.015557516 -0.21676469 -0.32143953 -0.15246896 -0.5521886
77 -0.12927999 -0.431225 0.14720424 -0.2550985 0.11695132 -0.33857423 -0.23839687 -0.17093414 0.07475659 -0.073145494 -0.32814816 0.023582563 -0.2305568 -0.33258507 -0.09794451 -0.52482957
219 -0.110332645 -0.42728913 0.123867944 -0.29345116 0.16059308 -0.33393878 -0.16842745 -0.20755422 0.083791524 -0.05980536 -0.31034562 0.011210809 -0.22325966 -0.33082065 -0.14409386 -0.5179361
240 -0.10501123 -0.39652923 0.13917111 -0.23134248 0.1506749 -0.3233748 -0.18334517 -0.19468124 0.07044099 -0.082593285 -0.34864596 0.0012224708 -0.2314852 -0.3454709 -0.116023466 -0.5268323
66 -0.1488802 -0.4515169 0.14644451 -0.29696786 0.12913887 -0.3647842 -0.19597146 -0.1829056 0.06796934 -0.08551888 -0.3324544 0.0038155548 -0.14838427 -0.32569543 -0.08749525 -0.5095067
184 -0.08159621 -0.38863754 0.104016796 -0.24548414 0.11589059 -0.34435222 -0.23506106 -0.1841847 0.104292534 -0.06929159 -0.31574917 -0.003480304 -0.22746137 -0.37116972 -0.13506469 -0.5280106
26 -0.10994778 -0.39216715 0.13673967 -0.27859244 0.16698052 -0.36542496 -0.17975904 -0.22903165 0.059441186 -0.08060013 -0.3472293 0.009973995 -0.19725318 -0.38238004 -0.13943712 -0.49916735
33 -0.11458887 -0.42330092 0.14564912 -0.24044015 0.14836088 -0.3418545 -0.24694932 -0.1721997 0.106988125 -0.1182753 -0.3149239 0.044768386 -0.20839268 -0.3689534 -0.10037839 -0.50729364
75 -0.09395864 -0.4095725 0.12254155 -0.31025282 0.13194898 -0.32166937 -0.18871099 -0.20602696 0.044780612 -0.11984504 -0.30616716 -0.007363757 -0.21891563 -0.36983347 -0.11354248 -0.5244676
281 -0.14548701 -0.40154976 0.11059765 -0.25784114 0.13995828 -0.3466017 -0.13956822 -0.20718963 0.07113191 -0.12650001 -0.3017271 0.052244604 -0.22934979 -0.35007593 -0.13434456 -0.54040635
283 -0.16085373 -0.3766459 0.15392274 -0.2801949 0.10806393 -0.34492344 -0.22461122 -0.22233866 0.051552594 -0.10351294 -0.3003811 -0.00725944 -0.21636087 -0.32240006 -0.12026985 -0.5383031
90 -0.14856522 -0.3999463 0.11100413 -0.30107263 0.15477602 -0.3440951 -0.20520745 -0.20561464 0.0689694 -0.10034039 -0.3440916 -0.0039063417 -0.1987672 -0.36055088 -0.1451983 -0.49799097
132 -0.16580495 -0.37921974 0.12991542 -0.3147579 0.13123302 -0.31703347 -0.24098337 -0.20792226 0.06479724 -0.09091761 -0.3519113 0.048668213 -0.20875016 -0.3253503 -0.09341868 -0.52344245
29 -0.16593288 -0.37160873 0.11022131 -0.25604773 0.17152688 -0.3295522 -0.22651598 -0.23599254 0.09213609 -0.08556588 -0.29678997 0.019615311 -0.20961487 -0.33948418 -0.14070547 -0.533317
8 -0.11923853 -0.46277782 0.1569949 -0.28033194 0.124487355 -0.32328957 -0.12455525 -0.18084122 0.057014182 -0.054852728 -0.32093126 0.024000969 -0.23619293 -0.33158335 -0.1056735 -0.5445029
195 -0.11327953 -0.45270863 0.17498398 -0.2990219 0.12574297 -0.32221153 -0.21358082 -0.1990049 0.09874334 -0.056867495 -0.3379731 0.042183492 -0.20687076 -0.34802917 -0.098201014 -0.47003838
104 -0.10157263 -0.40166527 0.13819759 -0.30050564 0.13087632 -0.351906 -0.14477606 -0.21266586 0.07713461 -0.09987406 -0.32332656 0.0023637668 -0.2235533 -0.30993503 -0.15061775 -0.5236345
125 -0.15629657 -0.41749978 0.16870226 -0.27715528 0.14111295 -0.35202253 -0.18713254 -0.24001159 0.057537552 -0.13880031 -0.33160394 0.026681304 -0.19457027 -0.31477368 -0.14575721 -0.50357056
251 -0.15696797 -0.42667067 0.111907475 -0.29456037 0.1379476 -0.31496444 -0.17734574 -0.25532198 0.061315108 -0.07981751 -0.29480207 0.024012966 -0.20192918 -0.3254164 -0.14110154 -0.5235451
6 -0.09687492 -0.41571343 0.17400564 -0.228543 0.15058812 -0.34588945 -0.16928121 -0.1723615 0.092364565 -0.06896719 -0.31588113 0.013616099 -0.21568659 -0.36501846 -0.107484095 -0.52675134
194 -0.113597825 -0.40163666 0.09727705 -0.2734963 0.09883632 -0.31805766 -0.25151885 -0.22645755 0.1054625 -0.12457306 -0.34210864 0.056171045 -0.17517489 -0.37605587 -0.09898138 -0.5185466
164 -0.104839355 -0.40151197 0.1320101 -0.2803248 0.13149053 -0.34219533 -0.25442064 -0.1652974 0.07581756 -0.10124182 -0.34878606 0.055439875 -0.2087254 -0.3451666 -0.15868935 -0.4948392
217 -0.15259466 -0.3602901 0.08557979 -0.25747114 0.118558414 -0.3714928 -0.24045889 -0.23870833 0.06486116 -0.08293695 -0.3409062 -0.0042861532 -0.19538277 -0.35676846 -0.1362961 -0.5183625
191 -0.16827157 -0.39871538 0.14630385 -0.2826773 0.20902324 -0.35389978 -0.1571869 -0.20626588 0.06593081 -0.12998427 -0.3031639 0.026596237 -0.20869398 -0.36795607 -0.11593289 -0.4848338
155 -0.14907864 -0.41851595 0.12382974 -0.25588882 0.13660112 -0.3160746 -0.24066147 -0.24165705 0.063115455 -0.092962034 -0.33517238 0.03223901 -0.18406883 -0.34958583 -0.13884519 -0.49637753
212 -0.15264209 -0.42373696 0.09433163 -0.3053089 0.12444025 -0.3312391 -0.14968587 -0.24392687 0.07307095 -0.06746742 -0.2857207 0.044356268 -0.24191602 -0.31700256 -0.14953592 -0.5190325
136 -0.11873785 -0.44172797 0.16189803 -0.27563712 0.13291757 -0.33186185 -0.21458666 -0.18378113 0.0967575 -0.08256951 -0.33606967 0.030228483 -0.20858364 -0.3692883 -0.10007374 -0.48407578
67 -0.15866879 -0.359224 0.14735061 -0.27123395 0.1788203 -0.3874319 -0.18916091 -0.21819502 0.12038854 -0.04727469 -0.27069354 -0.023731658 -0.22460495 -0.37288466 -0.10269567 -0.52734435
255 -0.08779891 -0.40960255 0.13650233 -0.22163683 0.12070742 -0.34108782 -0.20639609 -0.20884144 0.06588705 -0.076887764 -0.3459217 0.047953624 -0.1816057 -0.37929425 -0.14312719 -0.5121523
183 -0.14196666 -0.4166157 0.1477411 -0.2723858 0.12571889 -0.34062645 -0.17525534 -0.1926222 0.079562515 -0.10335356 -0.34725124 0.041205764 -0.21319607 -0.3650711 -0.1309647 -0.4978402
196 -0.1616557 -0.41640684 0.096999206 -0.31110165 0.13841882 -0.36728224 -0.16599362 -0.1994234 0.0661647 -0.050847325 -0.31904235 -0.020291723 -0.2295289 -0.33329672 -0.11355824 -0.52754706
153 -0.13173889 -0.4226537 0.16642812 -0.23469722 0.105975 -0.357487 -0.18769757 -0.19108818 0.094099544 -0.14335097 -0.33037877 0.051810235 -0.20387429 -0.31896126 -0.12563644 -0.51168704
157 -0.14738016 -0.38118038 0.103011735 -0.25665942 0.10379822 -0.30203485 -0.20094493 -0.20021386 0.06208977 -0.10126626 -0.30868256 0.018366631 -0.24661997 -0.34494206 -0.15481512 -0.5473077
70 -0.13089204 -0.43426654 0.12322557 -0.29687512 0.1509316 -0.35175017 -0.21277177 -0.1861635 0.07673031 -0.05023351 -0.34883484 0.056426313 -0.2292433 -0.32921663 -0.13600731 -0.47620395
178 -0.1593062 -0.3697065 0.13342206 -0.25175685 0.14471525 -0.33675355 -0.22912104 -0.21507908 0.09602602 -0.055823524 -0.27510783 0.032823075 -0.19723824 -0.3374419 -0.13254425 -0.56084126
162 -0.15502334 -0.35593796 0.12743652 -0.24041092 0.17425211 -0.3390772 -0.2299051 -0.20248099 0.09152226 -0.08469555 -0.30942443 0.002298485 -0.23333608 -0.38113278 -0.16345115 -0.51944953
14 -0.12924185 -0.4197004 0.13278162 -0.29259422 0.14730322 -0.33528772 -0.21475424 -0.20086737 0.084052324 -0.07511698 -0.35057268 0.04844304 -0.21280012 -0.3281797 -0.1538255 -0.50727165
120 -0.11470235 -0.4389649 0.13407256 -0.22541238 0.098318756 -0.37167442 -0.17611802 -0.14536004 0.10623442 -0.08058843 -0.33279586 -0.0020760903 -0.18558598 -0.39351913 -0.098871335 -0.55562097
174 -0.14018816 -0.39252156 0.15340017 -0.23568936 0.13857582 -0.33783805 -0.19783904 -0.23714513 0.10677468 -0.10234623 -0.3056168 0.056544468 -0.22349568 -0.3564216 -0.1389208 -0.5357547
39 -0.17192598 -0.42222464 0.15593486 -0.26601896 0.17421201 -0.305471 -0.19881201 -0.18940754 0.08953547 -0.106680244 -0.32682472 0.020236904 -0.18703522 -0.35919017 -0.13649043 -0.523308
182 -0.115641996 -0.43341666 0.13269526 -0.26925993 0.08896197 -0.36353204 -0.12941875 -0.22373146 0.08285238 -0.055456538 -0.31186023 -0.0024391743 -0.20279582 -0.33212352 -0.09960965 -0.55856514
181 -0.11864452 -0.4147109 0.12691438 -0.259449 0.110406056 -0.35334092 -0.18817067 -0.18419744 0.10334624 -0.111862026 -0.2933306 0.059698932 -0.20808192 -0.36572516 -0.080687806 -0.55706406
95 -0.15660559 -0.3965918 0.13023442 -0.28444415 0.17069638 -0.36197373 -0.16004375 -0.16655359 0.090684205 -0.066651665 -0.29978645 -5.661382e-05 -0.24209169 -0.3545881 -0.17592932 -0.5004212
239 -0.10891393 -0.37769207 0.13982174 -0.28079095 0.11932135 -0.33898956 -0.18085827 -0.21797808 0.064758874 -0.08711841 -0.3177864 -0.035594095 -0.20590287 -0.32864702 -0.10730478 -0.5649202
242 -0.15050857 -0.38176525 0.14095852 -0.27654728 0.127581 -0.32680318 -0.22911963 -0.2029406 0.12350245 -0.08041144 -0.3513602 -0.002698623 -0.19712165 -0.3361341 -0.10892672 -0.5310609
19 -0.105264336 -0.41419038 0.13577154 -0.30521572 0.14696632 -0.34603736 -0.1913785 -0.21786973 0.09697198 -0.07382573 -0.34548888 0.02934008 -0.20419958 -0.32058877 -0.14641121 -0.5116512
103 -0.14612608 -0.40283266 0.15021838 -0.24716996 0.13830483 -0.3359479 -0.18758433 -0.195294 0.073365204 -0.09222648 -0.3545661 -0.021907777 -0.22406133 -0.34357488 -0.12306919 -0.51854795
248 -0.18732186 -0.37414327 0.16458462 -0.2964331 0.1584868 -0.30526307 -0.17490566 -0.22856186 0.09803143 -0.092675045 -0.33198532 0.042278983 -0.19094864 -0.35563073 -0.10804207 -0.5352991
81 -0.15214702 -0.39971307 0.16348752 -0.2800667 0.18204904 -0.3552905 -0.20469734 -0.19865315 0.08931924 -0.10227527 -0.29669678 0.0071751485 -0.18238086 -0.3636059 -0.12688246 -0.50567037
141 -0.13490537 -0.40788177 0.16836245 -0.28579366 0.14629258 -0.3212662 -0.16589089 -0.20399186 0.080695346 -0.100327395 -0.30165765 0.020053102 -0.21041551 -0.366846 -0.13568537 -0.5163503
226 -0.14771563 -0.3605545 0.09829935 -0.26108083 0.14364347 -0.35525826 -0.18757221 -0.16725038 0.07592507 -0.08469051 -0.3495736 0.019902298 -0.21275076 -0.3742328 -0.11547227 -0.5503183
215 -0.10715668 -0.394114 0.1281892 -0.28385454 0.10612282 -0.35004175 -0.19879735 -0.19042215 0.11381645 -0.06974635 -0.30366462 0.018305361 -0.24953586 -0.36272636 -0.12990832 -0.5149974
50 -0.20180745 -0.40085313 0.08030034 -0.23209572 0.12928636 -0.36842787 -0.20223612 -0.22134833 0.08330714 -0.051144388 -0.3188021 0.020503182 -0.21669437 -0.37757865 -0.14123306 -0.49758235
35 -0.17525737 -0.4306456 0.13747275 -0.28871077 0.1274391 -0.3144319 -0.19775708 -0.2295817 0.094200164 -0.065524966 -0.3379719 0.045845326 -0.19515432 -0.33705348 -0.120469525 -0.51355815
228 -0.12325243 -0.3463074 0.11262631 -0.24837351 0.13432379 -0.35228285 -0.23381585 -0.20415759 0.101564184 -0.09352011 -0.34387487 -0.016829206 -0.21899526 -0.39153898 -0.13168052 -0.5218171
165 -0.12408438 -0.4072881 0.12942652 -0.26194274 0.17960726 -0.33434173 -0.19439724 -0.1744745 0.0758167 -0.065756135 -0.31660524 -0.018088093 -0.21175832 -0.3496471 -0.14611468 -0.5403517
62 -0.08939708 -0.389987 0.1081122 -0.2620356 0.11226424 -0.37656137 -0.25415957 -0.18485627 0.1104015 -0.12002912 -0.31382132 0.020280294 -0.19687338 -0.3737277 -0.13802972 -0.50902957
42 -0.13750683 -0.37737247 0.12382607 -0.2901762 0.17857066 -0.35043684 -0.2183973 -0.16734786 0.09776928 -0.067603156 -0.29964674 0.022246277 -0.24809246 -0.3278357 -0.09145689 -0.56818444
15 -0.20014282 -0.39814964 0.14031115 -0.26862305 0.1484627 -0.30186045 -0.20071864 -0.2375193 0.080402754 -0.09197229 -0.31512073 0.03908167 -0.20326123 -0.339502 -0.12410654 -0.53510296
271 -0.14868301 -0.37902048 0.10060493 -0.3014163 0.1266889 -0.32843614 -0.23652884 -0.20380984 0.067891985 -0.07223464 -0.2950207 0.023892963 -0.2269957 -0.36257508 -0.1433851 -0.5189989
263 -0.13769718 -0.41365626 0.10012661 -0.27354395 0.15118346 -0.36390963 -0.17737798 -0.17650059 0.052701198 -0.065135784 -0.28805703 0.0417972 -0.23779164 -0.3701749 -0.11740392 -0.538372
216 -0.09935686 -0.45550698 0.1362362 -0.2640364 0.11792951 -0.37096676 -0.18513834 -0.17292538 0.038104825 -0.08549347 -0.3401255 0.04827989 -0.23394538 -0.33216205 -0.13111384 -0.48537195
100 -0.14527497 -0.38600844 0.14273071 -0.2833258 0.1794349 -0.34108597 -0.2484134 -0.17876233 0.10885217 -0.06978512 -0.34307438 0.037202455 -0.18295869 -0.3642638 -0.12885621 -0.48713213
32 -0.13449423 -0.43210524 0.09377371 -0.29380697 0.13264324 -0.341829 -0.15091093 -0.22241992 0.06074221 -0.056756657 -0.32091942 0.021831207 -0.2281004 -0.36025476 -0.12604892 -0.49342275
253 -0.12641521 -0.40201116 0.14583217 -0.22326486 0.14739218 -0.31599113 -0.17258672 -0.20969772 0.057460833 -0.10580039 -0.34915596 0.05645504 -0.2179271 -0.36448503 -0.17492777 -0.5228134
207 -0.13788189 -0.42699805 0.13191256 -0.26461124 0.15399867 -0.3707319 -0.15235652 -0.24269997 0.09259524 -0.09370534 -0.31081223 0.067198075 -0.200632 -0.32159805 -0.115606904 -0.48837668
152 -0.16320442 -0.40739694 0.15698999 -0.2799017 0.1327577 -0.30006373 -0.20694204 -0.18744424 0.0878347 -0.12048012 -0.33059832 0.057234872 -0.21925403 -0.3575072 -0.16317506 -0.51385295
158 -0.17951693 -0.40073386 0.10216729 -0.24493146 0.08930589 -0.30849612 -0.18160301 -0.18304053 0.06215108 -0.118642986 -0.33668783 -0.00034445277 -0.19113722 -0.3821582 -0.16141242 -0.5379285
60 -0.11601358 -0.42418098 0.13976432 -0.2944116 0.11635383 -0.34738728 -0.16245756 -0.15943772 0.11110393 -0.09340757 -0.37935784 -0.023433724 -0.2155891 -0.3489396 -0.11257717 -0.5068448
230 -0.14235416 -0.42488012 0.1021338 -0.28575298 0.13213922 -0.2773368 -0.20417152 -0.20080239 0.09037568 -0.046539076 -0.36709023 0.032003038 -0.22316685 -0.30302504 -0.150164 -0.5347404
241 -0.104932584 -0.37297305 0.12534875 -0.2754923 0.11753005 -0.32559252 -0.23974803 -0.2348902 0.09760706 -0.12008266 -0.33541682 -0.013556233 -0.21408638 -0.37142128 -0.152837 -0.49927282
44 -0.07992217 -0.4151396 0.10331215 -0.28841293 0.14798804 -0.33913425 -0.21793276 -0.22961749 0.107206054 -0.107923485 -0.334297 0.034857906 -0.24248306 -0.33859676 -0.11862616 -0.5087911
154 -0.11021895 -0.41490963 0.166233 -0.3254516 0.1596229 -0.38383892 -0.1791835 -0.17727077 0.074215665 -0.07757271 -0.33119267 -0.014431459 -0.19175018 -0.3437481 -0.120436676 -0.513045
101 -0.16230384 -0.41175717 0.11580663 -0.24643858 0.17161699 -0.35572454 -0.20098752 -0.2482619 0.08312485 -0.11622018 -0.29720098 0.039615277 -0.17247982 -0.29195407 -0.13188134 -0.54271835
46 -0.14432622 -0.4549937 0.1648502 -0.258032 0.14355396 -0.30379087 -0.16970971 -0.2222595 0.07784262 -0.0745135 -0.3079298 0.06329434 -0.22140658 -0.3097263 -0.16901438 -0.5359959
40 -0.19872665 -0.37417212 0.15515856 -0.25449964 0.13994157 -0.3212416 -0.23196994 -0.18318263 0.086264245 -0.13118502 -0.27978468 0.024134666 -0.23457253 -0.3554788 -0.15282539 -0.5148572
266 -0.16466169 -0.38472402 0.1327541 -0.29598364 0.102772504 -0.39844504 -0.20466903 -0.22564353 0.08479785 -0.051743418 -0.3424327 -0.012728866 -0.17791937 -0.3835976 -0.07679605 -0.49459735
134 -0.07769222 -0.42965832 0.12904431 -0.23615676 0.13830218 -0.31406984 -0.16798832 -0.20360324 0.106599316 -0.06483098 -0.3347421 0.014810161 -0.23162723 -0.37178853 -0.14555994 -0.5351333
161 -0.14909661 -0.38073894 0.15665281 -0.20993036 0.12968019 -0.32033646 -0.22306655 -0.2027532 0.088554606 -0.12507842 -0.35177818 0.03037105 -0.2104199 -0.32067168 -0.13499196 -0.5442453
272 -0.10376424 -0.39463484 0.09671716 -0.2505751 0.15898532 -0.34340733 -0.17135121 -0.23281 0.06936451 -0.118430786 -0.28446376 0.010906524 -0.21067756 -0.36676043 -0.14189415 -0.5464225
170 -0.14387926 -0.40944847 0.10152885 -0.2835656 0.10186087 -0.3273746 -0.16987604 -0.20211227 0.07800417 -0.11820771 -0.3248916 0.0015968335 -0.212375 -0.36162928 -0.107586026 -0.5483484
64 -0.14005877 -0.41155747 0.1463603 -0.26044485 0.14085943 -0.3586572 -0.16694233 -0.17500538 0.08152522 -0.100512564 -0.3185537 0.04323317 -0.2303135 -0.3623592 -0.10714236 -0.5024778
249 -0.17219447 -0.38624367 0.13879232 -0.30232385 0.1328709 -0.3148666 -0.2222423 -0.18687719 0.037592378 -0.06360699 -0.32009333 -0.025495699 -0.22714305 -0.34268832 -0.14078176 -0.5292847
112 -0.13186832 -0.43637368 0.1560447 -0.27819502 0.1305911 -0.35001576 -0.15168524 -0.19103104 0.06805561 -0.0852615 -0.30925393 0.010296393 -0.23343621 -0.36045578 -0.10487722 -0.52209014
280 -0.17549253 -0.4212252 0.16373704 -0.2635253 0.13270107 -0.32959193 -0.21708535 -0.196898 0.07519912 -0.118761115 -0.3207241 1.110314e-05 -0.20429368 -0.3242853 -0.11439953 -0.51325935
56 -0.18622561 -0.38929275 0.112933844 -0.276174 0.18854198 -0.34282938 -0.19615221 -0.22232167 0.0631252 -0.103982836 -0.29638472 0.050113637 -0.23685944 -0.31778428 -0.15233913 -0.5162233
247 -0.097021714 -0.42727482 0.12926471 -0.24114537 0.13479936 -0.37037635 -0.2124712 -0.17521144 0.048296884 -0.080492064 -0.32718223 0.046166096 -0.2559884 -0.3515355 -0.15774155 -0.50939804
36 -0.08845625 -0.4164605 0.1311946 -0.29447308 0.14307451 -0.37316477 -0.1768899 -0.2158972 0.07784986 -0.0578385 -0.34766552 -0.0026391335 -0.2532203 -0.34616253 -0.12009812 -0.494387
82 -0.08989784 -0.42186582 0.15212616 -0.29896033 0.12639713 -0.3272515 -0.1650088 -0.20956935 0.04828631 -0.07304499 -0.3712182 0.021800188 -0.19476248 -0.35892987 -0.1519123 -0.49348235
139 -0.11753687 -0.4368982 0.12994947 -0.26086447 0.10940853 -0.3170101 -0.24768409 -0.21007119 0.11607555 -0.08554436 -0.30913296 0.008504999 -0.2291221 -0.32714853 -0.0958288 -0.5151039
127 -0.18531366 -0.41435617 0.12460693 -0.24672507 0.15068534 -0.30173188 -0.21449037 -0.24202287 0.08523793 -0.076280765 -0.28001535 0.014835467 -0.24437273 -0.3609123 -0.11727351 -0.53222543
268 -0.15321764 -0.37801167 0.11703269 -0.23968181 0.13342033 -0.32754865 -0.19389336 -0.25307918 0.04583524 -0.12927756 -0.31870273 0.06823438 -0.22824699 -0.33369341 -0.13590601 -0.5191754
17 -0.13243629 -0.4257805 0.15191676 -0.24642454 0.101065725 -0.38071123 -0.15505286 -0.18132852 0.11051583 -0.04798262 -0.3358906 0.046837866 -0.18708414 -0.36760312 -0.1340244 -0.523098
188 -0.10875877 -0.3939222 0.15574855 -0.30100778 0.18158792 -0.34431306 -0.1948831 -0.22263268 0.111708626 -0.07294861 -0.306793 0.0073448187 -0.20043407 -0.37701938 -0.13710785 -0.5087521
189 -0.14788805 -0.38026166 0.09261066 -0.26776722 0.18266566 -0.34731045 -0.18454275 -0.19619039 0.11070869 -0.06348539 -0.33585677 -0.0044962843 -0.19585423 -0.3850743 -0.11684727 -0.5181406
204 -0.16259645 -0.3725701 0.12146719 -0.26128 0.12418212 -0.31167457 -0.2325268 -0.23559313 0.08860583 -0.047937814 -0.3054496 0.03899987 -0.23944488 -0.3546402 -0.1439745 -0.52915066
234 -0.1197121 -0.40291432 0.14133538 -0.22906333 0.13408485 -0.34854 -0.21965149 -0.20913342 0.055240992 -0.08153542 -0.31739423 0.06703978 -0.18928702 -0.38144824 -0.11216217 -0.54548424
76 -0.16618332 -0.40008926 0.091893 -0.25598735 0.15491194 -0.35690552 -0.15205792 -0.20769036 0.08391759 -0.08770686 -0.31064332 0.067209534 -0.20930587 -0.3840211 -0.105925396 -0.53602654
238 -0.13129856 -0.42216113 0.10549603 -0.3122438 0.14040388 -0.33860588 -0.12835595 -0.19629823 0.08685362 -0.07546383 -0.32224232 0.032154918 -0.20759429 -0.33918807 -0.1727196 -0.5217794
261 -0.15016618 -0.3926965 0.095216006 -0.26601198 0.15131365 -0.3594054 -0.23176572 -0.2268256 0.10548174 -0.09863913 -0.31143746 -0.0028188627 -0.21860671 -0.3294875 -0.11516527 -0.527098
130 -0.16648704 -0.4122262 0.15148187 -0.2764242 0.14270718 -0.33764926 -0.20713764 -0.24677053 0.089017235 -0.078991815 -0.30757958 0.01890613 -0.2333726 -0.30847377 -0.12532228 -0.4959902
108 -0.15937221 -0.37959328 0.085358836 -0.29212666 0.16016954 -0.31719473 -0.20360501 -0.22407539 0.085444376 -0.074893534 -0.31874394 0.008934937 -0.209834 -0.34320188 -0.14945999 -0.531397
179 -0.18201293 -0.38156793 0.118602104 -0.29362804 0.12732142 -0.31159177 -0.20574543 -0.20891953 0.06907675 -0.10275186 -0.2923215 0.037479777 -0.22883028 -0.38231704 -0.107260324 -0.51755625
279 -0.10774754 -0.40351802 0.13864546 -0.24761122 0.13694228 -0.30850074 -0.20424536 -0.19428912 0.07023515 -0.05174105 -0.3383473 0.0046092444 -0.192972 -0.34440714 -0.12949646 -0.5732356
223 -0.117867514 -0.3757676 0.12676978 -0.23591349 0.11509436 -0.32517925 -0.21427236 -0.22090973 0.06407515 -0.11564982 -0.34473777 0.0066915876 -0.19840387 -0.39124972 -0.116332635 -0.5537984
4 -0.17197593 -0.3851181 0.13227561 -0.24831297 0.163362 -0.34998304 -0.2162948 -0.18138939 0.051943727 -0.102081515 -0.29477325 0.043672446 -0.19605581 -0.35454834 -0.14999385 -0.5524176
262 -0.13728712 -0.40210205 0.10441055 -0.28192928 0.16254482 -0.32230327 -0.18494862 -0.19908103 0.11579648 -0.07399948 -0.32594937 0.021636523 -0.19889435 -0.34804922 -0.14865467 -0.5392239
129 -0.14995442 -0.40884063 0.15063187 -0.29287946 0.16914746 -0.35896197 -0.20570163 -0.17259502 0.1260933 -0.04433378 -0.28912118 0.007029085 -0.20386899 -0.345495 -0.09535368 -0.5246851
273 -0.17992288 -0.37614357 0.13080141 -0.25891083 0.13500214 -0.34083596 -0.21838623 -0.2195751 0.06406255 -0.114955574 -0.3339474 0.042945463 -0.21031153 -0.35409597 -0.15488264 -0.49473646
163 -0.13054734 -0.37173668 0.12794158 -0.25630254 0.15152788 -0.32294208 -0.16840585 -0.14906025 0.08185292 -0.12767436 -0.3456575 0.039089397 -0.21718727 -0.34522697 -0.163706 -0.54607683
235 -0.15046352 -0.40445408 0.1510858 -0.26029032 0.14988434 -0.35165277 -0.1955975 -0.22103363 0.06940299 -0.07675415 -0.34690535 0.035899706 -0.1702019 -0.31571037 -0.12198631 -0.5272643
21 -0.18052673 -0.37661022 0.09420345 -0.31281242 0.113943525 -0.32006365 -0.22570868 -0.2265859 0.074307114 -0.06555768 -0.31921288 0.05265906 -0.20800473 -0.3806898 -0.14842835 -0.4738424
220 -0.1483706 -0.44153854 0.14312367 -0.30048722 0.1579195 -0.3585984 -0.15838927 -0.2015193 0.10176257 -0.050613277 -0.3108676 -0.008821043 -0.22425215 -0.31338236 -0.12718955 -0.4958597
31 -0.13104296 -0.39426857 0.13990253 -0.26157352 0.12965104 -0.3552159 -0.2048133 -0.24271536 0.058469035 -0.08566291 -0.30768123 0.07786414 -0.19704024 -0.3664652 -0.13939887 -0.5349596
187 -0.19822657 -0.42036018 0.15443607 -0.29095083 0.14061673 -0.31182942 -0.21433516 -0.20312084 0.058727928 -0.090523735 -0.29780746 0.024345221 -0.2592488 -0.33590665 -0.10414695 -0.49833906
79 -0.12305534 -0.42002237 0.10766229 -0.26344648 0.19408599 -0.3468437 -0.20072971 -0.217476 0.07839926 -0.07816656 -0.29853016 0.03038583 -0.19041651 -0.37396246 -0.17377138 -0.49724606
12 -0.15798484 -0.40264413 0.11358029 -0.28620058 0.13473856 -0.3638941 -0.24893856 -0.2509767 0.058666408 -0.06522495 -0.292607 0.03733107 -0.22914726 -0.34534958 -0.121925406 -0.48286098
20 -0.13275318 -0.40218398 0.13291767 -0.2588372 0.11716159 -0.3654005 -0.19383483 -0.2009219 0.080624044 -0.10443042 -0.34461692 -0.0003102456 -0.18735032 -0.34553692 -0.150673 -0.52982414
232 -0.12938797 -0.39907372 0.1391354 -0.29047507 0.16992791 -0.3750703 -0.17503156 -0.22791532 0.07863736 -0.095459685 -0.3096229 0.062173184 -0.20880963 -0.36153045 -0.09922461 -0.5217896
45 -0.11107192 -0.4066145 0.13984142 -0.266478 0.17586415 -0.35538095 -0.17371795 -0.18988056 0.113160275 -0.094984144 -0.32342216 0.05345018 -0.15405521 -0.3644671 -0.12965178 -0.52195275
201 -0.14325748 -0.39927742 0.14265919 -0.23156112 0.11154928 -0.34864387 -0.23308587 -0.18942691 0.0995584 -0.10467625 -0.3134858 0.029318461 -0.23867328 -0.3331985 -0.114368856 -0.5417348
28 -0.1720145 -0.3916036 0.16879283 -0.24635385 0.15575139 -0.31761715 -0.19544832 -0.22933452 0.06801064 -0.10473745 -0.31148195 0.045025606 -0.19580701 -0.35250813 -0.15496531 -0.5332496
265 -0.15177968 -0.39179417 0.08120464 -0.28514838 0.120438814 -0.31930384 -0.21343467 -0.20673268 0.10930509 -0.07862378 -0.32106936 0.03966698 -0.23308901 -0.31153315 -0.12878485 -0.5334516
200 -0.12450699 -0.39265847 0.13476071 -0.27007082 0.12657583 -0.35212407 -0.24556011 -0.19174093 0.0870232 -0.10346586 -0.32033375 -0.012331097 -0.17514686 -0.36476433 -0.10451801 -0.5116637
107 -0.1309403 -0.37608042 0.117418334 -0.2899051 0.12164282 -0.34538367 -0.2009523 -0.18863231 0.09633236 -0.15234078 -0.33050576 0.0030105032 -0.23046201 -0.36622787 -0.11507022 -0.52617776
159 -0.1270089 -0.39778683 0.11148777 -0.24738859 0.10753323 -0.35559842 -0.22049472 -0.20298778 0.07901052 -0.08918384 -0.3387531 0.005109211 -0.1773328 -0.35534707 -0.12439855 -0.5154425
190 -0.12281572 -0.39552385 0.12066974 -0.2907472 0.1695819 -0.32896185 -0.15520015 -0.20320976 0.07023358 -0.10370494 -0.31227508 0.009432035 -0.21725889 -0.34360588 -0.14366798 -0.54877305
99 -0.120353326 -0.41917858 0.16655818 -0.25522262 0.16278546 -0.33910117 -0.23725168 -0.221553 0.07978984 -0.08758921 -0.33517057 0.026627243 -0.2009013 -0.3397938 -0.11670918 -0.48695064
13 -0.09794624 -0.39818853 0.15064473 -0.28915524 0.1185588 -0.32188633 -0.16188082 -0.2107874 0.058405414 -0.057988685 -0.32620883 0.013515236 -0.22057739 -0.3841999 -0.12874186 -0.5279241
135 -0.15874803 -0.42610604 0.12795335 -0.2801699 0.11274088 -0.3768547 -0.18890905 -0.17882456 0.107207485 -0.09412634 -0.30045447 0.034690127 -0.23217377 -0.3203885 -0.121601984 -0.53925836
114 -0.12999864 -0.41534233 0.12861921 -0.2793346 0.11764671 -0.34821367 -0.18678038 -0.16676314 0.10577141 -0.1203162 -0.3546621 0.0020345955 -0.19794638 -0.33483016 -0.10677875 -0.52526236
269 -0.071996175 -0.41046804 0.13771349 -0.29499632 0.12915152 -0.33232448 -0.21151629 -0.15958567 0.05639171 -0.09766808 -0.34319413 0.009904361 -0.23088397 -0.3274078 -0.14396076 -0.5171669
237 -0.11287863 -0.41710818 0.14035209 -0.2695386 0.15370373 -0.33185193 -0.18261492 -0.17797719 0.057411913 -0.054824334 -0.35395437 0.04879326 -0.23139547 -0.36148018 -0.14390709 -0.5182028
213 -0.10974572 -0.42616436 0.11035544 -0.25615847 0.13983926 -0.32415017 -0.16818188 -0.21087326 0.112771235 -0.111706644 -0.34191224 0.019712487 -0.21537477 -0.32943544 -0.10781804 -0.52932817
160 -0.13152379 -0.41670895 0.16083124 -0.27303785 0.18475236 -0.38895258 -0.20252448 -0.19088478 0.06899327 -0.08760185 -0.30043492 0.023144012 -0.1926375 -0.34171778 -0.12680571 -0.5009787
168 -0.15074177 -0.34240502 0.12830304 -0.21057244 0.16396719 -0.32203177 -0.2814596 -0.24564992 0.070062265 -0.09204168 -0.3427838 0.0479737 -0.20285697 -0.3475431 -0.14067954 -0.5428178
171 -0.1340761 -0.41137564 0.118424475 -0.24074368 0.11924842 -0.3675291 -0.19267683 -0.19175434 0.11064975 -0.11419079 -0.29672518 0.068739556 -0.2477357 -0.34715787 -0.16549699 -0.4943334
275 -0.11126545 -0.41957977 0.1169783 -0.26584575 0.1521626 -0.34718978 -0.19597462 -0.19828995 0.058929473 -0.07079629 -0.34943193 0.0009814135 -0.24984458 -0.3256902 -0.1464769 -0.50747037
133 -0.1989883 -0.41440463 0.163248 -0.24184403 0.13201962 -0.31233004 -0.25386223 -0.19504112 0.11738379 -0.093526706 -0.30801165 0.016578715 -0.19569987 -0.30444604 -0.14246398 -0.52566105
73 -0.17467383 -0.37293163 0.14125203 -0.29586187 0.14746961 -0.3329134 -0.18819071 -0.17987108 0.06133676 -0.117679454 -0.35597038 -0.016254295 -0.20933563 -0.32713556 -0.12499814 -0.5332147
173 -0.12770201 -0.3690722 0.17426305 -0.23307817 0.14319378 -0.3396313 -0.18401752 -0.19239806 0.08632004 -0.09659799 -0.32638824 -0.006716159 -0.2525325 -0.34637898 -0.12689961 -0.55992526
259 -0.111341715 -0.3942094 0.11035894 -0.27820033 0.11598752 -0.34676537 -0.20377973 -0.24720897 0.10793886 -0.14439228 -0.32400653 -0.012423942 -0.23753028 -0.31987056 -0.09902806 -0.51989526
197 -0.15666857 -0.3971624 0.13021503 -0.27872425 0.09572993 -0.36265647 -0.22085649 -0.20129961 0.08735476 -0.07883563 -0.3112524 0.0278857 -0.22232494 -0.35336655 -0.12990451 -0.50211376
123 -0.16317251 -0.40351003 0.14261846 -0.30741826 0.16332379 -0.331795 -0.1558252 -0.19291821 0.082447685 -0.08353485 -0.29213858 0.03210392 -0.2159485 -0.3478246 -0.14864138 -0.5363349
166 -0.15381534 -0.4333645 0.15232626 -0.28684384 0.11000892 -0.38399112 -0.15863435 -0.21983518 0.060732048 -0.09868126 -0.3024618 -0.0024128503 -0.18462636 -0.36525893 -0.0872679 -0.49578536
25 -0.19432354 -0.4122654 0.11860805 -0.27565843 0.09496683 -0.33324534 -0.22355506 -0.23424211 0.12878442 -0.083561786 -0.30996343 -0.004898531 -0.21046035 -0.2923856 -0.12560947 -0.5547673
233 -0.18804426 -0.39930835 0.15740168 -0.22585985 0.13406655 -0.3283342 -0.22749613 -0.25056288 0.07674679 -0.14533472 -0.3172995 0.10705288 -0.21323921 -0.3445615 -0.12125162 -0.49147606
209 -0.17680739 -0.38725907 0.10805582 -0.29314807 0.086289115 -0.33637083 -0.19170365 -0.19660982 0.09898128 -0.10470429 -0.37823644 0.05006213 -0.23383838 -0.34555703 -0.10037431 -0.49238905
214 -0.13167702 -0.3960544 0.15035081 -0.24957632 0.09531005 -0.30826253 -0.2037459 -0.1925967 0.09522161 -0.08164759 -0.34160885 0.041296996 -0.20875868 -0.32170802 -0.1425336 -0.53860945
78 -0.14348243 -0.37510043 0.12275493 -0.23082021 0.1710173 -0.36947784 -0.17980401 -0.24169113 0.067775875 -0.080737926 -0.31779152 0.02220561 -0.21462272 -0.3916443 -0.12435823 -0.51139426
80 -0.14811854 -0.44366258 0.11893938 -0.27078983 0.14728948 -0.30135345 -0.1643582 -0.18756385 0.07660558 -0.1116786 -0.35680205 0.013532788 -0.18756787 -0.31975457 -0.1184748 -0.52374625
177 -0.16107091 -0.40808436 0.1439693 -0.27342826 0.16779359 -0.35929725 -0.16558634 -0.20948422 0.09604016 -0.073808745 -0.34383005 0.008317131 -0.19742097 -0.34389773 -0.13488196 -0.50690526
149 -0.18501003 -0.39323214 0.10933582 -0.24042158 0.15510136 -0.31325564 -0.26685843 -0.2079071 0.10843416 -0.08587029 -0.36594087 0.0165428 -0.20076354 -0.3250442 -0.12421053 -0.52137923
210 -0.121077135 -0.4388016 0.09724366 -0.28065073 0.13778354 -0.3471545 -0.16507867 -0.15146293 0.060808368 -0.060933087 -0.30066156 0.042948477 -0.21544991 -0.33556548 -0.16137622 -0.5553555
270 -0.16965911 -0.38872334 0.09345926 -0.2915604 0.14046413 -0.36100104 -0.18701115 -0.25380948 0.104343355 -0.10132984 -0.31680506 0.039338693 -0.2180173 -0.37883654 -0.109891355 -0.47628236
229 -0.14605288 -0.41790727 0.10779974 -0.22842194 0.14220649 -0.34095657 -0.23319516 -0.22161716 0.10022609 -0.06434616 -0.30610153 0.016070522 -0.223711 -0.31172252 -0.12378716 -0.5303355
208 -0.15452902 -0.3800058 0.13343138 -0.25341403 0.1427937 -0.37552628 -0.20678191 -0.22151731 0.05430764 -0.07802242 -0.31200135 0.017222092 -0.25172442 -0.3529576 -0.16580866 -0.5118215
72 -0.121985495 -0.41805413 0.13423537 -0.28805745 0.15714763 -0.31437835 -0.20499386 -0.2021925 0.08799574 -0.08623753 -0.31822553 0.040581957 -0.2113253 -0.36076325 -0.126213 -0.48718077
276 -0.14412421 -0.34529778 0.12591347 -0.27579135 0.11806188 -0.35878375 -0.2231269 -0.21014053 0.086862974 -0.1267143 -0.3287029 0.021919401 -0.23334107 -0.31569055 -0.15479155 -0.526853
169 -0.10184042 -0.39078313 0.09902722 -0.24559231 0.16091178 -0.3839961 -0.20121883 -0.18482602 0.117243655 -0.10399755 -0.3169151 0.047822706 -0.22806756 -0.3518575 -0.13932626 -0.5207898
92 -0.16542692 -0.4080109 0.09614655 -0.29819164 0.1438814 -0.3078731 -0.19486795 -0.24527663 0.07076128 -0.10122317 -0.30532685 0.06634982 -0.20921382 -0.34943166 -0.11343393 -0.5066185
74 -0.16119078 -0.4140476 0.10010197 -0.28284633 0.15179887 -0.30118307 -0.22436012 -0.20059794 0.083013445 -0.1133849 -0.30922022 0.047125094 -0.23558487 -0.31250876 -0.11780539 -0.51811194
227 -0.119390726 -0.4652568 0.12756456 -0.2732949 0.16773598 -0.3433138 -0.20806241 -0.22366557 0.11127327 -0.060632806 -0.31002864 0.059148528 -0.20415777 -0.3198309 -0.12396502 -0.48762196
38 -0.071230225 -0.43976724 0.1552242 -0.2401353 0.08785877 -0.35208875 -0.2117778 -0.22504027 0.12858334 -0.10015338 -0.30611908 0.038050625 -0.14827889 -0.36221254 -0.15351054 -0.5139749
156 -0.104181156 -0.43408304 0.10877631 -0.25713542 0.14667602 -0.3059863 -0.21372847 -0.22533526 0.06968918 -0.113159984 -0.31815714 0.081635244 -0.2589625 -0.3261953 -0.13428223 -0.5403328
167 -0.11554019 -0.38327888 0.117854655 -0.2550648 0.15150619 -0.36007178 -0.19813651 -0.21567057 0.09886742 -0.116918 -0.34010595 0.017218579 -0.20551337 -0.32012388 -0.10453693 -0.5401251
175 -0.15586814 -0.37263924 0.12709875 -0.2752771 0.12077626 -0.3581433 -0.20666364 -0.21210615 0.102674186 -0.11239355 -0.32187778 0.06549833 -0.19684768 -0.328277 -0.13283616 -0.5146249
124 -0.13206989 -0.4190369 0.1040261 -0.25880203 0.13988824 -0.34179035 -0.16241524 -0.19206777 0.10857794 -0.103526056 -0.30910733 0.03352869 -0.22712599 -0.34616894 -0.15396334 -0.52216506
111 -0.123505846 -0.39352995 0.13152632 -0.30590397 0.17831549 -0.3041579 -0.25783926 -0.23683544 0.04544663 -0.10005636 -0.3210521 0.019475969 -0.22101966 -0.3520791 -0.1664752 -0.5032301
222 -0.16501385 -0.43068102 0.14898844 -0.25275132 0.16028029 -0.3189609 -0.20730156 -0.20819525 0.06895994 -0.09887614 -0.32245553 0.034233272 -0.18749759 -0.3352064 -0.105791986 -0.5485908
148 -0.1758157 -0.383675 0.15414688 -0.26243043 0.13858753 -0.36826918 -0.2086397 -0.18138379 0.056444332 -0.052350592 -0.34931666 0.03421285 -0.2249599 -0.34056342 -0.13870722 -0.49622735
24 -0.12355425 -0.3986667 0.13768047 -0.2306311 0.1261037 -0.36134133 -0.1919078 -0.21604873 0.08393173 -0.0784863 -0.2957402 0.026069961 -0.21141937 -0.36123815 -0.11461492 -0.5549525
68 -0.16583025 -0.36592788 0.13037837 -0.23780358 0.15854663 -0.3254814 -0.20766723 -0.21570164 0.047402766 -0.11740453 -0.3436165 0.050779283 -0.19186193 -0.36777112 -0.10779884 -0.52733773
98 -0.12815258 -0.4180178 0.1318645 -0.30438173 0.15096155 -0.33280954 -0.19941083 -0.18867178 0.08274597 -0.07465642 -0.31265858 -0.021310067 -0.17984062 -0.32610655 -0.09473938 -0.5659986
