34 128
34 -0.059500296 -0.10933372 0.21668074 0.010948012 0.048019648 -0.096027173 0.12651175 -0.087022565 -0.061927028 0.11937319 -0.07769879 0.10156798 0.0570582 -0.18749806 -0.0126364 -0.11163551 -0.084673405 -0.16834661 0.037654765 0.0040978757 0.1774091 0.02398048 0.075891688 -0.04606393 -0.12136838 0.018175818 -0.031567153 0.091995656 0.017522592 0.12930942 -0.037835225 0.16551538 -0.054923747 -0.011632897 -0.11589485 -0.11733785 0.35649648 0.19379847 0.081817091 -0.035078827 -0.18770356 0.12111403 0.11783429 0.13327351 -0.10685673 0.13654073 -0.016921088 -0.099754825 -0.18720201 0.15566097 0.012807699 0.18665396 0.013581831 0.12410288 -0.17164239 -0.11901016 -0.18745714 0.011744795 -0.043341305 -0.10444068 0.16085531 -0.19582225 -0.12602587 0.078044601 0.083878666 -0.23237798 -0.06533578 -0.10441806 0.033020392 -0.18984891 0.026357066 -0.04840105 -0.055988688 -0.024733767 0.088741757 -0.09367726 0.035099614 0.035595037 -0.11766948 0.057762783 0.0088389833 -0.16327526 -0.0015858433 -0.18319005 -0.11229759 0.23001063 0.022190968 0.011741877 -0.0045419689 -0.0027816989 0.046414897 0.11443175 -0.007091356 -0.01968009 -0.0077996561 0.1443824 -0.094582073 -0.014337882 0.0043041119 -0.19626361 -0.05849896 0.083121993 -0.12531503 -0.019704593 -0.0074789356 0.015110417 0.25331414 0.0045260098 -0.024507232 -0.12408513 0.094489589 -0.024885869 -0.051828053 0.12282884 -0.05919059 0.076526888 -0.17121471 0.24122918 -0.078457363 0.0018262709 -0.045632917 -0.21649776 0.046540316 -0.16847625 -0.044461582 0.14626522 0.043736503 0.067114621
1 -0.069572642 -0.17198353 0.21334071 -0.0037153338 0.047541115 -0.14743842 0.10324626 0.0087006539 0.03266789 0.10393304 0.0039814138 0.16456527 0.032561146 -0.23254536 0.072674423 -0.21395768 -0.10991284 -0.2688171 0.11804525 -0.060633648 0.20568188 -0.014625886 -0.0046720714 -0.034828857 0.01001701 0.016255988 0.016613817 0.06301035 0.11172809 0.15633906 -0.059651002 0.058956575 -0.098927751 0.020026799 -0.08149635 -0.18819565 0.24355988 0.16247424 0.07584504 -0.0066685644 -0.047942787 -0.012029207 0.12592481 0.19052477 -0.11481756 0.1349722 0.011141034 -0.10483148 -0.073689587 0.14058 -0.072430849 0.066590585 0.0092488257 0.14008488 -0.16571684 -0.11691746 -0.091133274 0.029190673 -0.0027966171 -0.12879063 0.17633916 -0.15277107 -0.03590022 0.063932575 0.0049325144 -0.062564343 -0.095673129 -0.055762433 0.063881628 -0.20851529 -0.055547331 -0.036790624 -0.086434759 -0.058617491 0.23885208 -0.042394202 0.1119745 0.01775522 -0.11157858 -0.068544738 -0.090177692 -0.090560451 -0.026510591 -0.10616379 -0.16757067 0.050306253 0.20829821 -0.07504829 0.062248681 0.019893136 0.1028908 -0.014446021 -0.019486858 -0.021101404 -0.11894146 0.083779901 -0.09253975 -0.16034217 0.06959299 -0.033433601 -0.050143853 0.055183336 -0.10625618 0.015325763 -0.08277677 -0.0061792284 0.13162152 0.011996976 -0.035942867 -0.17131734 0.09678866 0.041336622 -0.018361704 0.11737721 -0.15400329 0.082352236 -0.10747518 0.18366824 -0.077589698 -0.058657806 -0.012367473 -0.13826136 0.11567158 -0.20599091 -0.19353431 0.051374953 0.14235185 0.10536546
33 -0.0606962 -0.10563854 0.22356565 0.010637654 0.048956178 -0.096567534 0.1254252 -0.094097704 -0.069565751 0.12335317 -0.07880944 0.098416805 0.059525732 -0.1924112 -0.016725989 -0.10130965 -0.091196187 -0.16265005 0.026220519 0.0050094058 0.18305182 0.030625818 0.082294412 -0.046631478 -0.14063038 0.025318712 -0.041326538 0.10118826 0.016601669 0.12977575 -0.043666258 0.18097942 -0.051798217 -0.0089216521 -0.12873621 -0.12154403 0.37540972 0.20140949 0.0831258 -0.037834104 -0.20528109 0.13275568 0.11913881 0.12968205 -0.1085737 0.14695324 -0.02571262 -0.10313037 -0.21274318 0.15672906 0.018276747 0.20406547 0.012504769 0.12219679 -0.18218933 -0.11579535 -0.20427471 0.012725504 -0.047751456 -0.098599985 0.1706069 -0.21362123 -0.13765448 0.08323101 0.096236624 -0.25645849 -0.057761643 -0.10904552 0.028215483 -0.19096607 0.041428879 -0.050424948 -0.04752738 -0.02189876 0.073790289 -0.096043579 0.037863757 0.03256125 -0.1180791 0.06968572 0.026854608 -0.17436625 -0.0032491533 -0.19721901 -0.11105762 0.2533451 0.0021133139 0.017200472 -0.0072871298 -0.0080729788 0.047785804 0.13224715 -0.0078238295 -0.023237763 0.0068308641 0.1555777 -0.10018308 -0.0041963747 0.0043556346 -0.21509108 -0.065333076 0.078965165 -0.12860587 -0.013990623 0.0078443475 0.016582983 0.2645008 0.0072870268 -0.019792395 -0.12478226 0.092597589 -0.0333042 -0.054841291 0.11745633 -0.04779122 0.078557514 -0.18221088 0.2420163 -0.080926418 0.0012048011 -0.047767516 -0.2278084 0.037238177 -0.1669507 -0.022758126 0.15346937 0.028793069 0.060700454
3 -0.054217633 -0.10375325 0.19940621 0.00030860704 0.044993911 -0.097401023 0.10473824 -0.060837198 -0.048130009 0.10561088 -0.044138871 0.10336868 0.043441612 -0.18971099 0.0051686983 -0.12772624 -0.081934251 -0.17412595 0.051911343 -0.014242587 0.16493584 0.021789381 0.042042073 -0.032299422 -0.085414596 0.023368441 -0.016885225 0.091105886 0.050300919 0.13000488 -0.047525395 0.12251377 -0.069158189 0.010003167 -0.10124645 -0.12971167 0.31094512 0.175633 0.083164006 -0.021631768 -0.13545443 0.071909621 0.10969695 0.1445841 -0.10058933 0.13226989 -0.014832172 -0.10242798 -0.16280469 0.14017323 -0.0039300914 0.13682128 0.00769762 0.12582026 -0.16992931 -0.10911209 -0.15169926 0.015695641 -0.037865113 -0.097057089 0.14928693 -0.17135929 -0.10262099 0.068447828 0.06218905 -0.17793071 -0.061486352 -0.087086052 0.036543 -0.18470277 0.0080695925 -0.040841855 -0.054116096 -0.030569717 0.11843717 -0.076060258 0.060059704 0.024746804 -0.10276835 0.0242074 -0.013470661 -0.13652205 -0.015783193 -0.15301386 -0.11339865 0.17872213 0.062807031 -0.012455257 0.010540092 -0.0035193041 0.055899747 0.079873733 -0.014055472 -0.026292855 -0.039320681 0.1211935 -0.10048033 -0.044855129 0.021681653 -0.14426082 -0.059414055 0.063396133 -0.11140884 -0.0073153642 -0.018553033 0.012275981 0.20430066 0.0090836817 -0.024899922 -0.13128749 0.088184543 -0.01482316 -0.03545972 0.11137214 -0.075288892 0.075844973 -0.14638869 0.2087916 -0.06603606 -0.015903804 -0.039145138 -0.19170317 0.050244413 -0.16563998 -0.070103794 0.11658543 0.063014701 0.069581345
2 -0.054102451 -0.12543702 0.20752496 -0.0017955744 0.0455756 -0.11353882 0.11052151 -0.043237656 -0.031049181 0.10932414 -0.033275031 0.12746689 0.045544129 -0.21079573 0.024819005 -0.15781292 -0.098939903 -0.20421685 0.069527209 -0.027546419 0.18611528 0.013333214 0.032301519 -0.036700148 -0.068274334 0.022207057 -0.010326101 0.084879644 0.071513347 0.14221546 -0.050041273 0.10847361 -0.081879452 0.015134956 -0.10354429 -0.14716066 0.30869642 0.17560169 0.085181214 -0.021283442 -0.11403725 0.056885283 0.11848619 0.16017397 -0.10854709 0.13933721 -0.011308136 -0.10846707 -0.14361605 0.14066269 -0.02237121 0.11997011 0.012934386 0.13811204 -0.17951016 -0.11330244 -0.13697927 0.020627344 -0.029679719 -0.10676673 0.16314965 -0.17132705 -0.089067698 0.064960778 0.049966037 -0.14982447 -0.077344105 -0.085188836 0.042024128 -0.19937003 -0.010906269 -0.041878894 -0.061406765 -0.041928679 0.15474108 -0.065677792 0.076961391 0.022422336 -0.11196057 0.0009501907 -0.037011206 -0.13335903 -0.023294587 -0.14498025 -0.1306345 0.15368505 0.10583898 -0.032071918 0.029902123 0.0013033366 0.076221451 0.05869085 -0.016864922 -0.030845659 -0.063723721 0.11706312 -0.1033317 -0.081167251 0.029684089 -0.11751826 -0.054842327 0.059635699 -0.11194552 -0.0031692742 -0.039068464 0.0014228971 0.19442385 0.01394786 -0.033308208 -0.14647901 0.093094148 0.0025816211 -0.031420894 0.11425948 -0.10416163 0.079651825 -0.14100279 0.20980707 -0.074761465 -0.028613904 -0.033850364 -0.18641916 0.073727436 -0.18886124 -0.10368757 0.10685578 0.093952313 0.083351173
4 -0.061407406 -0.13329017 0.21996126 0.001783373 0.052931432 -0.12700108 0.11107796 -0.042246066 -0.022674613 0.11227284 -0.027190801 0.13620862 0.04752313 -0.21848835 0.029068422 -0.16572784 -0.10094965 -0.21980657 0.076990068 -0.024805084 0.19797093 0.010724443 0.028113041 -0.039911173 -0.062690631 0.024309674 -0.011124499 0.086845234 0.075808339 0.14879185 -0.056013908 0.1100043 -0.083668746 0.011894752 -0.10639589 -0.15976955 0.31649089 0.18603046 0.086030342 -0.015393172 -0.11625275 0.051107407 0.12580781 0.17496206 -0.10992476 0.14744151 -0.010349435 -0.11518987 -0.1518672 0.14652552 -0.025041312 0.12299217 0.013790812 0.14207096 -0.18672985 -0.11876557 -0.1417094 0.019991525 -0.025094731 -0.12054183 0.18048662 -0.18601292 -0.087828256 0.072762333 0.053532053 -0.15268715 -0.086492836 -0.087583259 0.052533507 -0.20937832 -0.013461682 -0.041256819 -0.067114159 -0.049168482 0.17457958 -0.071303397 0.084251076 0.028811635 -0.12228871 0.00076193828 -0.038958389 -0.14135759 -0.021874281 -0.15216507 -0.14422372 0.15566432 0.12378924 -0.039705303 0.03239283 0.0051228534 0.07653372 0.052820399 -0.019742239 -0.029801173 -0.068573259 0.12330052 -0.11130074 -0.090489298 0.037792485 -0.12281603 -0.063258104 0.065767586 -0.11609462 0.0061726128 -0.04613341 0.0039845333 0.19372103 0.011285221 -0.03465547 -0.1560172 0.10120928 -1.5636091e-05 -0.03261685 0.11989866 -0.10833357 0.086015858 -0.14731181 0.21648961 -0.076321855 -0.030846806 -0.030179383 -0.19178954 0.075771943 -0.1997008 -0.1180513 0.1080275 0.098401301 0.090050519
32 -0.06029696 -0.10665902 0.21140394 0.0047121705 0.047264684 -0.097067893 0.12251398 -0.092677787 -0.067050084 0.11899232 -0.073000789 0.099432178 0.056649715 -0.18649225 -0.011130099 -0.10347951 -0.08732041 -0.16806114 0.028820751 0.00053447083 0.17906322 0.034084789 0.068722762 -0.04273076 -0.13333191 0.019545693 -0.038719546 0.10001569 0.020309094 0.12642455 -0.041027125 0.16732551 -0.04961887 -0.01017322 -0.12285231 -0.11985957 0.36439094 0.20126852 0.081256919 -0.042155936 -0.19133785 0.12245725 0.1136381 0.12881362 -0.11399674 0.14453094 -0.021593491 -0.094424091 -0.19901326 0.15099667 0.013702258 0.1937722 0.0064660613 0.12643875 -0.17944399 -0.12019455 -0.18955438 0.013378508 -0.048802614 -0.10355419 0.16864415 -0.20406678 -0.13126187 0.083931431 0.077870503 -0.23911564 -0.066989869 -0.10179157 0.031100497 -0.19757874 0.026659705 -0.043851916 -0.052736137 -0.027599923 0.086979985 -0.093707964 0.038291283 0.032160603 -0.1198006 0.057472445 0.012509713 -0.16549712 -2.3613757e-07 -0.18632808 -0.11444069 0.23934458 0.02009506 0.011443602 0.00065264892 -0.011103489 0.050178554 0.12204048 -0.0037946419 -0.02560568 0.00023052882 0.14441681 -0.096285015 -0.014957321 0.0029314742 -0.20502761 -0.060083039 0.077331297 -0.12825064 -0.015211982 0.0026290179 0.022402804 0.26059875 0.0054702586 -0.023467971 -0.12466763 0.092655942 -0.03147329 -0.049998846 0.12685399 -0.055597566 0.080519833 -0.17727548 0.24106033 -0.069657229 -0.0071317079 -0.047661178 -0.22806351 0.040409639 -0.17223716 -0.033273757 0.14684451 0.032436211 0.068701878
14 -0.057225943 -0.12264118 0.20720112 -0.002735547 0.048028331 -0.10796868 0.10514716 -0.050583217 -0.033123069 0.10981127 -0.040376693 0.12074363 0.043329652 -0.19778351 0.019570157 -0.14276955 -0.088499576 -0.19261557 0.065477036 -0.023033865 0.18072595 0.01804116 0.033801883 -0.034619678 -0.072924338 0.023516361 -0.0082054976 0.088060394 0.055887606 0.13835806 -0.046506282 0.11404924 -0.074200429 0.012265586 -0.097250238 -0.14150086 0.30324602 0.1751923 0.080181979 -0.021019593 -0.12402379 0.061546165 0.11525359 0.15456817 -0.10389296 0.13645789 -0.010159492 -0.099991977 -0.14503758 0.14308263 -0.019467499 0.12617117 0.011635937 0.13148874 -0.17043677 -0.11282301 -0.14316025 0.020546217 -0.032710042 -0.10945356 0.15858145 -0.17352366 -0.087729268 0.062100116 0.049377538 -0.15307829 -0.070588194 -0.087597527 0.0413149 -0.19168228 -0.0090598147 -0.038469918 -0.062682316 -0.035153132 0.14566664 -0.067601435 0.068363219 0.024005704 -0.11039354 0.0050173439 -0.030739086 -0.13200949 -0.014548233 -0.13987572 -0.12886308 0.16033341 0.09055797 -0.027000485 0.024768576 0.00011090403 0.065429002 0.059964567 -0.014788438 -0.027144128 -0.054180264 0.1177192 -0.10058996 -0.066744931 0.030339535 -0.12427684 -0.056862969 0.060562588 -0.10822324 -0.00053875358 -0.036288224 0.0071015926 0.19564807 0.013071592 -0.033723127 -0.13753103 0.08454071 -0.0075251861 -0.034847565 0.11379768 -0.087690659 0.075100809 -0.14091277 0.20180954 -0.070458844 -0.023176728 -0.032510545 -0.18280667 0.064361744 -0.17793274 -0.089590259 0.10389507 0.076615863 0.076385275
24 -0.056139223 -0.094727054 0.21669689 0.006341483 0.045352876 -0.089210249 0.12085134 -0.098354936 -0.072023079 0.12171227 -0.076543607 0.091574192 0.059862997 -0.18412706 -0.022570761 -0.096707165 -0.086297281 -0.15417296 0.026186418 0.0050048386 0.17308605 0.03565266 0.076823086 -0.037940953 -0.14207144 0.02751475 -0.039927728 0.099988624 0.012502101 0.12567702 -0.044235658 0.17578001 -0.053060524 -0.012268939 -0.12425624 -0.11476307 0.3748548 0.1957943 0.085604705 -0.044067692 -0.19999646 0.13401444 0.11201183 0.12720677 -0.10409895 0.14426069 -0.028560335 -0.092801653 -0.2069021 0.14860038 0.02472169 0.19884169 0.0069372794 0.12709342 -0.17576715 -0.10954066 -0.19340996 0.011472197 -0.053882007 -0.095111929 0.15863834 -0.20392971 -0.13651727 0.077872865 0.087845087 -0.25205308 -0.05896936 -0.10399587 0.021209873 -0.18530132 0.039907862 -0.047346137 -0.04613921 -0.021166673 0.067934647 -0.097773336 0.029009305 0.027486464 -0.11602158 0.073645152 0.028759079 -0.1688471 -0.0024709047 -0.18829909 -0.10803 0.24692325 -0.0056860992 0.021316735 -0.0060598357 -0.011509115 0.041468065 0.13061379 -0.0062679052 -0.024951272 0.010278699 0.15054135 -0.093527779 0.002860697 -0.0040108203 -0.2129617 -0.064052634 0.080385402 -0.1199208 -0.015161776 0.010344779 0.021168038 0.25935286 0.0072277668 -0.021987939 -0.1144589 0.093238667 -0.038312174 -0.051862724 0.11702794 -0.049516998 0.071947373 -0.17813066 0.23475559 -0.070504524 0.0058228015 -0.049114518 -0.22660157 0.02994035 -0.16240285 -0.01142511 0.156005 0.02616144 0.06211561
30 -0.050475091 -0.10261434 0.20018475 0.01277684 0.033880364 -0.085115381 0.12208105 -0.084560081 -0.060920019 0.12068082 -0.078081354 0.09865284 0.051807713 -0.18744749 -0.011859238 -0.10582127 -0.090372987 -0.1701234 0.028823862 0.001728042 0.17285563 0.021750076 0.073746756 -0.049172737 -0.1202974 0.019111991 -0.033087071 0.089970566 0.015055978 0.12627691 -0.040318415 0.15892854 -0.048888475 -0.016552271 -0.12090538 -0.11498823 0.36168948 0.19993018 0.080439001 -0.046253882 -0.18862219 0.12399411 0.11784183 0.13250479 -0.10984772 0.13993932 -0.017018439 -0.098570764 -0.1933181 0.15568925 0.013150506 0.19244766 0.0094319806 0.11549373 -0.16461852 -0.11344688 -0.19482847 0.01460174 -0.0393904 -0.102924 0.16423431 -0.2025784 -0.1175822 0.081171826 0.088812776 -0.2387374 -0.066216841 -0.097603694 0.027072893 -0.19703293 0.033597983 -0.046259653 -0.052188672 -0.022803357 0.083144218 -0.091600738 0.038232327 0.033501472 -0.11498202 0.063441209 0.012222962 -0.15861191 -0.004514555 -0.17891745 -0.10777539 0.22775754 0.014430553 0.017039074 -0.0025763151 -0.0060263788 0.054294027 0.11377083 -0.0092922533 -0.014218145 0.0039813225 0.14114629 -0.089366533 -0.012018557 0.0032211447 -0.19962591 -0.048101377 0.076445125 -0.12310383 -0.021437259 -0.0017601113 0.016726967 0.24711911 0.0066240937 -0.024231119 -0.12221688 0.091644742 -0.024670277 -0.056171525 0.11633071 -0.05139336 0.076273724 -0.17738962 0.23116237 -0.075715967 0.0037698413 -0.048221465 -0.21014275 0.043168981 -0.16446115 -0.030651055 0.14312643 0.046124019 0.063761629
28 -0.059763905 -0.11864052 0.20905665 0.0045184004 0.042606682 -0.098972589 0.11562511 -0.065821528 -0.042767804 0.11212811 -0.050530545 0.11571503 0.047590259 -0.19072048 0.0067585181 -0.12788966 -0.095292583 -0.19058223 0.05146949 -0.012391374 0.17667674 0.017237745 0.049338762 -0.040759154 -0.094191916 0.022866538 -0.026494484 0.08571519 0.045405764 0.13058504 -0.046223775 0.13842358 -0.059549432 0.00015535134 -0.10913361 -0.13690484 0.33056706 0.18661681 0.079430945 -0.030848764 -0.15236676 0.083972484 0.11691882 0.14536351 -0.11088194 0.1382536 -0.016292032 -0.09927135 -0.16996625 0.14450519 -0.011358417 0.15754066 0.012131549 0.12110201 -0.16663617 -0.11489604 -0.16619255 0.012121277 -0.036530893 -0.10647289 0.16564435 -0.18845199 -0.098986581 0.076155074 0.065646127 -0.19244713 -0.071084395 -0.085658096 0.033966433 -0.1976497 0.0075628199 -0.039999686 -0.06197777 -0.03655589 0.11942023 -0.076532252 0.055411994 0.03005215 -0.11806422 0.029987361 -0.010356148 -0.1455989 -0.0065235901 -0.15945446 -0.12307202 0.18946424 0.063506067 -0.0061410661 0.013612965 -0.00023876061 0.064287327 0.085123427 -0.012865095 -0.024598328 -0.026531512 0.12606534 -0.092306055 -0.046127904 0.018683985 -0.15819591 -0.056538437 0.072139613 -0.1218292 -0.0092266509 -0.018154696 0.013166283 0.22101958 0.011260102 -0.023449063 -0.1363906 0.093204826 -0.0092959721 -0.04574021 0.11488623 -0.076816767 0.075926825 -0.15834047 0.217638 -0.073264547 -0.018159086 -0.03678361 -0.1973432 0.059234731 -0.1727128 -0.073950566 0.11778877 0.063686892 0.076335803
8 -0.051814262 -0.11520581 0.19555272 -0.00040397767 0.040812913 -0.10104863 0.10346018 -0.050504837 -0.03368438 0.10662425 -0.039656617 0.11169541 0.040948186 -0.18609203 0.018235646 -0.13528647 -0.084992222 -0.17739874 0.061354816 -0.015997572 0.16845667 0.015507259 0.034601163 -0.038364228 -0.074320696 0.026376942 -0.011028944 0.085618243 0.052967545 0.1293813 -0.047369163 0.11219296 -0.068370372 0.011162529 -0.097404197 -0.13187188 0.30236745 0.16940524 0.082912602 -0.017566081 -0.12413146 0.064571224 0.10759756 0.1504347 -0.097669616 0.13733004 -0.014104174 -0.10143455 -0.14905487 0.1375874 -0.017851422 0.12501229 0.016653351 0.1292294 -0.17234257 -0.10751563 -0.14379776 0.014269903 -0.032335225 -0.10450704 0.15371148 -0.1716852 -0.092444248 0.064874373 0.057161715 -0.16156991 -0.067593083 -0.087124832 0.040246096 -0.18697704 -0.0055569466 -0.042289678 -0.056888107 -0.036957111 0.1333075 -0.067471653 0.062623583 0.02364183 -0.10769089 0.012961987 -0.021830494 -0.13704917 -0.019817848 -0.14430194 -0.1257973 0.1648851 0.085740671 -0.02313965 0.019867703 -0.0023813723 0.066005796 0.061624628 -0.015236804 -0.027346648 -0.048593711 0.11191623 -0.098347411 -0.066456266 0.021355474 -0.13092984 -0.051727254 0.055426374 -0.1096404 -0.0034859681 -0.025651991 0.0012543956 0.19132914 0.0051905606 -0.031362135 -0.13412689 0.082791425 -0.0055168178 -0.031049058 0.10715778 -0.08850494 0.075709291 -0.13945276 0.19827621 -0.070933565 -0.020720229 -0.035585813 -0.18163489 0.063377246 -0.16766116 -0.079838783 0.10327194 0.075135075 0.070656031
9 -0.052791018 -0.10679068 0.19074051 0.0038412868 0.039594639 -0.093267679 0.1078221 -0.058712337 -0.035382971 0.1055696 -0.049634527 0.10930719 0.045392133 -0.18547176 0.0054676887 -0.12005983 -0.091469504 -0.17192402 0.045704499 -0.0097007463 0.16382416 0.018147778 0.052285716 -0.042216714 -0.087972656 0.024174474 -0.023156997 0.074638709 0.037596658 0.12306844 -0.041215908 0.12988493 -0.060517758 -0.0045823068 -0.097039297 -0.12479081 0.31035036 0.17157742 0.07093595 -0.024629787 -0.14813468 0.08031103 0.11158012 0.14066136 -0.10186186 0.13067588 -0.011515126 -0.098953977 -0.16094334 0.13521302 -0.0079954332 0.14774513 0.0077630533 0.11808646 -0.15651166 -0.10825118 -0.16009006 0.013317388 -0.030712273 -0.10483477 0.15827218 -0.17848559 -0.10131162 0.072797425 0.069495574 -0.18780647 -0.064898767 -0.086483814 0.034713551 -0.1851974 0.01249342 -0.038925696 -0.051010158 -0.032972716 0.11654545 -0.076124474 0.052777883 0.031442598 -0.11249345 0.032249466 -0.0060825595 -0.13883567 -0.012554343 -0.1600778 -0.11901925 0.1793292 0.060173217 -0.0077907606 0.008467746 0.00091816351 0.063126154 0.081959628 -0.0081519186 -0.016365921 -0.031305458 0.12040406 -0.087466016 -0.045038413 0.017140482 -0.14986718 -0.056317039 0.063564502 -0.11726933 -0.0078070699 -0.019219261 0.0082687084 0.20585264 0.0098391864 -0.028816449 -0.13235246 0.093675926 -0.0090365307 -0.038832735 0.10835709 -0.074346788 0.074180968 -0.15474282 0.21643314 -0.074804269 -0.0082072048 -0.038357362 -0.19133249 0.05508801 -0.16729547 -0.070182264 0.1204706 0.063492216 0.071554027
6 -0.064244233 -0.1781843 0.21102941 0.010750807 0.044169717 -0.14579028 0.11435473 0.015282257 0.040981896 0.10243328 0.011941859 0.17040844 0.025082611 -0.23581007 0.088060148 -0.21706238 -0.12035266 -0.28850964 0.11834669 -0.066702589 0.20568256 -0.024142906 -0.0049519599 -0.041047629 0.029053045 0.0062746969 0.011485932 0.039859932 0.10847411 0.16439725 -0.051027283 0.048189644 -0.095030814 0.0090763643 -0.073516019 -0.18843167 0.24787976 0.17025481 0.059077226 -0.0091176592 -0.047638975 -0.0050937352 0.13190551 0.18764904 -0.12965693 0.1442468 0.025111372 -0.10918615 -0.066422865 0.14998293 -0.072049908 0.071422331 0.0012858529 0.13433374 -0.15085478 -0.12713268 -0.091774538 0.024595009 0.011769469 -0.14620446 0.18910097 -0.1522124 -0.023482688 0.074904613 0.0034157601 -0.071771078 -0.10442214 -0.053691477 0.069886856 -0.22674438 -0.055220235 -0.033431441 -0.10956707 -0.055556208 0.26405358 -0.040979434 0.11350144 0.025510881 -0.12375944 -0.071565337 -0.099191308 -0.073689647 -0.019845145 -0.10274512 -0.17216374 0.040077843 0.23156331 -0.073815607 0.06370832 0.023213612 0.11474575 -0.013748146 -0.012960295 -0.0081166979 -0.12462258 0.091663651 -0.083758302 -0.17567413 0.077437662 -0.037206631 -0.042526063 0.058294114 -0.12164703 0.015789971 -0.099350341 -0.0061101974 0.13411407 0.011987614 -0.026261017 -0.18516578 0.11100635 0.060550489 -0.024350801 0.12563327 -0.16449061 0.10126358 -0.11510304 0.19252689 -0.077440143 -0.060681004 -0.0098645445 -0.15273346 0.14014573 -0.23305458 -0.22000471 0.05518616 0.16083246 0.1099455
7 -0.067486212 -0.20088787 0.21137531 0.006865276 0.042457253 -0.16128355 0.11542653 0.035698917 0.072743073 0.099039249 0.026373981 0.19244123 0.021779632 -0.25331187 0.11329018 -0.24550605 -0.12864304 -0.32080141 0.13271463 -0.081178591 0.22309041 -0.035821829 -0.016894478 -0.035118837 0.061430436 -0.00031592613 0.015406009 0.027668621 0.1268108 0.17330827 -0.051970221 0.033596072 -0.11005744 0.0070588202 -0.072855689 -0.21111743 0.22411184 0.16087756 0.05459293 -0.0020080726 -0.021148283 -0.033560548 0.13677327 0.20974784 -0.13269761 0.15113701 0.035240054 -0.10703594 -0.039061509 0.14941326 -0.095912442 0.050869677 0.0028870923 0.14206152 -0.15583591 -0.12912942 -0.071551651 0.027572887 0.025725879 -0.15007548 0.19944885 -0.148151 -7.9533551e-05 0.078954332 -0.017284714 -0.030634794 -0.11337261 -0.040058389 0.086641788 -0.23757437 -0.078796856 -0.027388686 -0.12622407 -0.067291781 0.31117433 -0.029665126 0.12852314 0.024271848 -0.13002492 -0.10779078 -0.12348354 -0.056163374 -0.02535197 -0.088591658 -0.19883232 0.0007115131 0.27839273 -0.094082333 0.078609355 0.034400985 0.13469565 -0.045801178 -0.011358219 -0.0084602572 -0.15249979 0.085143492 -0.079654671 -0.21430437 0.09074568 0.00037430122 -0.044498652 0.061352219 -0.13043688 0.02394286 -0.12121283 -0.018732524 0.1099451 0.010035816 -0.025651351 -0.19994582 0.11710481 0.082780175 -0.02045284 0.12381821 -0.19558354 0.10120346 -0.107385 0.18734752 -0.083473116 -0.072173029 -0.0031162566 -0.13719453 0.16810155 -0.24788353 -0.2662003 0.034091536 0.19018848 0.13279285
20 -0.061234102 -0.1430942 0.20703848 0.0041285986 0.042601492 -0.128086 0.11258754 -0.025233399 -0.0056263623 0.10285208 -0.019368934 0.13629304 0.041068003 -0.21284072 0.043632369 -0.17274807 -0.10737222 -0.22816615 0.081031434 -0.040695094 0.19282833 -0.00087952049 0.023991453 -0.036080681 -0.033083394 0.019776056 -0.0011386962 0.064909801 0.079939224 0.14197242 -0.053653248 0.08942952 -0.081489176 0.0072904453 -0.088744283 -0.1574457 0.28353989 0.16737914 0.069688864 -0.018286275 -0.096517861 0.033290818 0.11631057 0.1670102 -0.10881401 0.14067109 0.0044173216 -0.10376079 -0.11895944 0.13819867 -0.041322216 0.10612949 0.010333826 0.1264641 -0.16521262 -0.1149271 -0.12288436 0.016675051 -0.017092759 -0.11745117 0.17693557 -0.16640846 -0.06455195 0.073009081 0.03506387 -0.1272587 -0.084094182 -0.070294522 0.052759293 -0.20042275 -0.024630757 -0.036208339 -0.079352401 -0.047248319 0.1887652 -0.056687623 0.087913543 0.023501676 -0.11433734 -0.018190445 -0.050901212 -0.11424094 -0.019708397 -0.13688567 -0.14345905 0.1188439 0.1401421 -0.042566836 0.03536291 0.011616983 0.086985238 0.033998601 -0.014071074 -0.021218913 -0.07766559 0.1084087 -0.091654003 -0.10707823 0.044141088 -0.089266166 -0.05564357 0.058517233 -0.11860996 0.0099199824 -0.056149229 0.0022130627 0.16748856 0.0099064652 -0.024182634 -0.15274209 0.096053921 0.022088019 -0.029806303 0.11538005 -0.1209681 0.082686856 -0.12909393 0.20188083 -0.072478779 -0.035493594 -0.024460282 -0.16732013 0.091760948 -0.19941217 -0.13695681 0.089886159 0.10505573 0.092533492
31 -0.055124223 -0.11899883 0.21154088 0.0062351367 0.04477625 -0.11057975 0.1127364 -0.062205143 -0.039827332 0.11156123 -0.04292655 0.12050149 0.050544623 -0.20004891 0.014415009 -0.14035398 -0.09672635 -0.18962424 0.059270825 -0.016930098 0.18087202 0.01375502 0.042222984 -0.036250282 -0.081145048 0.022273973 -0.015043713 0.087833375 0.048759405 0.13390577 -0.04821071 0.13005608 -0.071215264 0.0044212043 -0.10094244 -0.13280575 0.31963012 0.18147223 0.084422298 -0.029340334 -0.13921565 0.079520419 0.11701065 0.14864412 -0.10991445 0.14065586 -0.014591622 -0.10630095 -0.15939406 0.14950754 -0.015706643 0.14842534 0.010956186 0.12701727 -0.17068756 -0.11761792 -0.15376307 0.014280067 -0.036341771 -0.11356097 0.16900505 -0.18379226 -0.1011825 0.069444463 0.057128873 -0.18068503 -0.076829739 -0.092604704 0.039660703 -0.19671501 0.0021827174 -0.045283601 -0.063216135 -0.035942312 0.13803367 -0.075901695 0.065323561 0.026907774 -0.11193451 0.020924222 -0.019104594 -0.1410792 -0.015082536 -0.15983835 -0.12670173 0.17643481 0.076184615 -0.018943744 0.018174401 -0.0018766645 0.062521525 0.078943335 -0.0076280264 -0.023431325 -0.045757972 0.12507078 -0.099769667 -0.05915495 0.023247782 -0.14197421 -0.059498284 0.068881929 -0.11880909 -0.0089962343 -0.030464793 0.0090126982 0.21380757 0.010963823 -0.025474124 -0.13922353 0.090331607 -0.010526264 -0.04223891 0.11548303 -0.085849538 0.083265737 -0.15553935 0.22257201 -0.077852651 -0.016128592 -0.038990002 -0.19929506 0.063239068 -0.18556041 -0.086517401 0.12019164 0.0697487 0.07740362
29 -0.057611018 -0.11358695 0.20494896 0.00076787337 0.045603685 -0.10581525 0.11331116 -0.069944307 -0.043224711 0.11270333 -0.04775307 0.1138211 0.04624803 -0.19356623 0.0078549488 -0.12791562 -0.09614668 -0.18668802 0.051319461 -0.013617131 0.18001543 0.01838286 0.045734901 -0.040134672 -0.096942179 0.019995026 -0.021956153 0.083923392 0.046916451 0.13358745 -0.042097103 0.13206485 -0.061192323 -0.00035774225 -0.11096882 -0.13113807 0.32755384 0.18443541 0.080682106 -0.032140333 -0.14402105 0.08683724 0.10828628 0.13789093 -0.10337067 0.14361052 -0.016319886 -0.10005384 -0.16866262 0.14314732 -0.0066943625 0.1514423 0.0078925416 0.12339585 -0.17383042 -0.10773959 -0.15528364 0.017013554 -0.033157729 -0.10176911 0.16384883 -0.18626827 -0.1056535 0.072487883 0.062665775 -0.19139968 -0.072412916 -0.092753001 0.039520733 -0.18780211 0.0073419828 -0.04292189 -0.060033787 -0.030446619 0.12148236 -0.074163884 0.058319233 0.027591389 -0.11196084 0.028651623 -0.014268574 -0.1399364 -0.0091479458 -0.16373409 -0.11955078 0.18718268 0.064149588 -0.014436854 0.013749287 -0.0063447687 0.062945835 0.081608333 -0.012319445 -0.021713495 -0.026197158 0.12924464 -0.098154947 -0.042813219 0.018893706 -0.15758806 -0.058586165 0.068598799 -0.11721507 -0.0039053559 -0.017038187 0.010101811 0.21007238 0.005896823 -0.024170406 -0.12994127 0.093081616 -0.011459513 -0.043331705 0.11176684 -0.079075016 0.073811844 -0.15503976 0.21034104 -0.066728301 -0.015705731 -0.038503103 -0.19669063 0.053218652 -0.17501345 -0.064859256 0.12460195 0.060585439 0.068322532
25 -0.063635446 -0.11174133 0.21593252 0.0012018834 0.047433682 -0.10342506 0.11791071 -0.089124203 -0.057510532 0.11843673 -0.068303987 0.10368992 0.057867486 -0.19110487 -0.0076527405 -0.12098704 -0.085842155 -0.17548582 0.041343022 0.0013915836 0.18750913 0.029379386 0.069040626 -0.037372142 -0.12271218 0.017742924 -0.031705596 0.098206975 0.024916982 0.13599576 -0.041393757 0.16249914 -0.058634277 -0.0083597153 -0.12449877 -0.12687984 0.35387653 0.19974326 0.083711408 -0.03645518 -0.18278043 0.11259034 0.11461189 0.13553919 -0.10847478 0.15017001 -0.022792751 -0.097498678 -0.18964498 0.1537344 0.0041187964 0.18492679 0.013397785 0.13223495 -0.18680766 -0.12160915 -0.17863421 0.01031632 -0.049047824 -0.10015216 0.16667546 -0.19893333 -0.12344278 0.076010302 0.073618144 -0.22492708 -0.067974828 -0.10319702 0.031036936 -0.19516842 0.021178583 -0.049477253 -0.052434932 -0.028545996 0.10092115 -0.09680514 0.040936913 0.033340998 -0.11889248 0.045906879 0.0036805319 -0.16632973 -0.0065720123 -0.18600366 -0.12101534 0.22684826 0.032991461 -0.0025712638 0.00096642569 -0.010359414 0.049968086 0.1090273 -0.0034066292 -0.029403294 -0.015626375 0.14423078 -0.10278765 -0.024481378 0.012404053 -0.18777545 -0.066826291 0.079543516 -0.12769139 -0.010249336 -0.0041437838 0.014401214 0.25295553 0.010846173 -0.022902885 -0.1320011 0.089632981 -0.028355593 -0.046339653 0.12084707 -0.069246687 0.077356949 -0.16830982 0.23566774 -0.074811108 -0.010845379 -0.043518379 -0.21941355 0.044557147 -0.17982903 -0.050740205 0.14868157 0.041415308 0.070631988
26 -0.055331454 -0.099913016 0.21842493 0.0029331706 0.049610492 -0.097659878 0.12355402 -0.097278401 -0.075729117 0.11871895 -0.076647699 0.093388364 0.062800251 -0.19031121 -0.016434999 -0.10221449 -0.084777445 -0.16214213 0.029005101 0.0038755953 0.18168215 0.034934051 0.076356456 -0.039252531 -0.13824748 0.019846031 -0.041056927 0.099594712 0.01639832 0.13207991 -0.039415196 0.17353271 -0.053169966 -0.013033089 -0.12683935 -0.12223645 0.3693136 0.19775255 0.084202014 -0.041282646 -0.19525476 0.12322845 0.11329796 0.12986119 -0.11316516 0.15038103 -0.029969312 -0.099402435 -0.20695642 0.15921694 0.020345096 0.19901808 0.0090883384 0.12577775 -0.18238436 -0.12043518 -0.1912768 0.013112711 -0.055678796 -0.10105779 0.16928239 -0.20862082 -0.13426851 0.082949638 0.0861542 -0.24430072 -0.062851854 -0.11125895 0.02958866 -0.19602314 0.032083802 -0.047949553 -0.05423208 -0.027417889 0.087037235 -0.10179611 0.033468843 0.031969443 -0.12263536 0.06161144 0.013344853 -0.16979492 -0.0032635983 -0.18931969 -0.11135631 0.24909785 0.0094252871 0.013317917 -0.0026132795 -0.0098663513 0.048380051 0.12549265 -0.0043710144 -0.022843326 0.0024198149 0.14669056 -0.10201357 -0.0094816526 0.0057351706 -0.21087475 -0.061763633 0.080203563 -0.12499521 -0.013455476 0.0041186335 0.020543911 0.26808116 0.0091176108 -0.018470053 -0.12298946 0.089163221 -0.034891691 -0.052421644 0.12788357 -0.054584488 0.078929178 -0.17877272 0.24054769 -0.070746183 -0.0073978417 -0.049166046 -0.23259415 0.036225829 -0.17740659 -0.030213615 0.15789242 0.033158392 0.062750034
11 -0.066004671 -0.16796866 0.2050456 0.0061177514 0.045941532 -0.14128774 0.10469364 0.0075178025 0.033000253 0.09597978 0.0033632154 0.15953192 0.026849775 -0.22159296 0.077789299 -0.20621271 -0.11285917 -0.26534227 0.10697984 -0.060000662 0.20199375 -0.016826093 0.004671114 -0.035120923 0.010407728 0.0072406321 0.0065132016 0.048427332 0.097624741 0.15194508 -0.048446197 0.056940444 -0.090635404 0.0061374377 -0.075336397 -0.17386718 0.24923213 0.16489492 0.063717879 -0.003761827 -0.050593756 0.0029864034 0.12667686 0.18125191 -0.11890464 0.14161012 0.019826571 -0.099704117 -0.078847453 0.1425339 -0.06146118 0.074407861 0.005287034 0.13106719 -0.15459657 -0.12199025 -0.093572833 0.028047431 -0.00043530756 -0.13120097 0.17817694 -0.15479332 -0.029416058 0.074087389 0.0060447119 -0.075194001 -0.10001753 -0.057771601 0.070915677 -0.21509296 -0.048818756 -0.033181518 -0.099939123 -0.056832008 0.2452791 -0.043119062 0.10595016 0.020020297 -0.1205645 -0.061961178 -0.085074335 -0.080323592 -0.022691967 -0.11055277 -0.16948213 0.058582641 0.20917296 -0.066913888 0.058609117 0.020768013 0.1022829 -0.0087788636 -0.013249514 -0.011622887 -0.11113806 0.090598106 -0.084949523 -0.15470719 0.066799253 -0.042675771 -0.043883905 0.062941782 -0.11788289 0.015135353 -0.087168902 -0.0075446316 0.14095989 0.0063692224 -0.026657013 -0.17582023 0.10292073 0.050083034 -0.027589697 0.11689915 -0.15244976 0.08846724 -0.11917656 0.19293153 -0.076077238 -0.056516487 -0.012180237 -0.15391234 0.12756592 -0.22027691 -0.19593516 0.057510499 0.14086609 0.10708832
5 -0.063554347 -0.17449453 0.20085159 0.0038435981 0.050319616 -0.14542031 0.11099198 0.0052848654 0.04067263 0.093732677 0.015074475 0.16549936 0.02440468 -0.2220791 0.080641255 -0.21110818 -0.11044998 -0.27060008 0.11042001 -0.055277653 0.20041984 -0.014074571 -0.0096900426 -0.030314226 0.022307409 0.0063351644 0.011340351 0.04335783 0.10601521 0.15626375 -0.053709745 0.048327871 -0.097261623 0.016758056 -0.070752352 -0.18611839 0.2325224 0.15944728 0.061453726 -0.0010297794 -0.037671763 -0.013504453 0.11863591 0.18445681 -0.11995307 0.13705489 0.018415231 -0.10471887 -0.067258388 0.13472289 -0.071369454 0.065058142 0.010582343 0.12800063 -0.15073352 -0.12224995 -0.082170755 0.02226354 0.0088415863 -0.1381422 0.17434254 -0.14747624 -0.024967512 0.071146622 -0.00080620113 -0.060122561 -0.093642898 -0.056737974 0.072919182 -0.21314612 -0.060604267 -0.030193957 -0.10194125 -0.062511116 0.25258029 -0.043757226 0.10415337 0.020019524 -0.1215573 -0.075491145 -0.098391213 -0.079144888 -0.024265803 -0.10081464 -0.17161621 0.041516677 0.2224384 -0.071193427 0.062614851 0.021982329 0.109908 -0.017086353 -0.011524937 -0.014876088 -0.12585045 0.088143729 -0.092459671 -0.16612564 0.076479807 -0.028424365 -0.05286786 0.057104554 -0.11985794 0.012875555 -0.096044198 -0.0096955774 0.13319983 0.010173002 -0.034999155 -0.1780587 0.10047476 0.048618622 -0.016701456 0.11606743 -0.16105208 0.094592616 -0.10531507 0.18752076 -0.069677435 -0.057842083 -0.010653302 -0.1458112 0.1298089 -0.22145341 -0.2125473 0.056495771 0.14709468 0.11408366
27 -0.059145451 -0.1259315 0.21167737 0.003348687 0.045460664 -0.10650889 0.12237956 -0.062921874 -0.040217921 0.11702245 -0.055504564 0.11503689 0.047888167 -0.19735436 0.011436816 -0.13663989 -0.094325855 -0.20222545 0.052778337 -0.019618217 0.19060133 0.017877514 0.056120317 -0.03689155 -0.089848034 0.012645884 -0.029664727 0.084123269 0.037750624 0.1379763 -0.042539079 0.13690123 -0.065295018 -0.011783637 -0.10905599 -0.13978013 0.32938647 0.18882133 0.074264675 -0.035362937 -0.15885472 0.093160346 0.11726677 0.14374182 -0.11129466 0.14664151 -0.00627599 -0.098132595 -0.16574153 0.15475443 -0.0017979851 0.16613767 0.0045761513 0.12853925 -0.16951585 -0.12114548 -0.16592909 0.016595084 -0.02802396 -0.10854127 0.16792123 -0.18714607 -0.10378995 0.079262733 0.065647148 -0.19835666 -0.075996742 -0.08642336 0.039307199 -0.20081761 0.0081008021 -0.041402537 -0.065599866 -0.036543336 0.12625179 -0.086037204 0.058566105 0.02653525 -0.12123193 0.029630665 -0.014674254 -0.14141414 -0.0064029605 -0.16395299 -0.13238695 0.18793505 0.071367733 -0.0093050012 0.0095739197 0.00067673682 0.061146725 0.083776906 -0.0085642356 -0.016734375 -0.033198006 0.13372928 -0.090563603 -0.053358763 0.025586298 -0.16520134 -0.060873274 0.076796338 -0.12050407 -0.011337483 -0.020377064 0.013302426 0.22580455 0.0027340925 -0.023947466 -0.13517706 0.099821173 -0.0060762619 -0.048237082 0.11854672 -0.080521666 0.080390088 -0.1613805 0.22610995 -0.076342776 -0.015645973 -0.039752267 -0.19951944 0.066027135 -0.18848607 -0.081077784 0.12846619 0.06791383 0.077271745
10 -0.055219691 -0.11846359 0.20305662 0.0046548708 0.045088664 -0.10025901 0.11540304 -0.058383193 -0.03331387 0.10837256 -0.045633081 0.11743496 0.043826837 -0.19200957 0.0098660933 -0.13014393 -0.091399953 -0.18439007 0.052725594 -0.014065497 0.17900418 0.01483032 0.045935757 -0.037119359 -0.085923746 0.021894703 -0.016331689 0.08138258 0.047072582 0.1301149 -0.050185353 0.12417424 -0.064784929 0.0050437525 -0.10818551 -0.13560274 0.32310334 0.17726798 0.077383578 -0.029782819 -0.14433658 0.07697513 0.11849196 0.15177558 -0.10096996 0.14150386 -0.0080491193 -0.1036375 -0.15563285 0.14035349 -0.011206426 0.14601824 0.014747507 0.12482283 -0.17160669 -0.10960682 -0.1556673 0.011924562 -0.034108728 -0.10508785 0.16383201 -0.18064238 -0.10263186 0.071659975 0.064091325 -0.17935343 -0.072002649 -0.090222932 0.035247363 -0.19381523 0.0074330424 -0.045577016 -0.053629078 -0.034859188 0.12984627 -0.072868042 0.060706925 0.025979919 -0.11498282 0.023096848 -0.019231664 -0.14301634 -0.01288453 -0.15395135 -0.12640552 0.17758386 0.069295689 -0.017250972 0.014511145 -0.0017416091 0.068023041 0.077130347 -0.0093180872 -0.019711789 -0.038110625 0.12597564 -0.095694982 -0.058281228 0.021600582 -0.14322516 -0.056240935 0.063162744 -0.1152459 -0.0057303901 -0.025993554 0.0061056316 0.20905612 0.011464447 -0.031435758 -0.13170697 0.094402097 -0.012447731 -0.036796156 0.11028358 -0.079741508 0.076794326 -0.14831489 0.21561043 -0.074419409 -0.017760172 -0.036887135 -0.19058099 0.060024004 -0.17173833 -0.072498903 0.11434822 0.067411937 0.074625395
13 -0.053593542 -0.13679686 0.19823948 -0.0017482016 0.041856073 -0.12306993 0.10259162 -0.023657717 0.00090036727 0.10370644 -0.015274765 0.13449793 0.037681669 -0.2105042 0.048495956 -0.17038117 -0.103948 -0.2251104 0.08273384 -0.041171208 0.18913917 -0.001312303 0.010624024 -0.034427334 -0.032134023 0.017310567 0.0034902336 0.068530753 0.082870707 0.14186147 -0.051789749 0.082826316 -0.083149582 0.0093441801 -0.086520642 -0.1588362 0.26826796 0.16762067 0.071820416 -0.012497394 -0.078572288 0.026656855 0.11457537 0.16622694 -0.10666188 0.13883814 0.0031176019 -0.1007957 -0.11193122 0.13782392 -0.044234268 0.095957741 0.011596562 0.12965386 -0.16324411 -0.11375082 -0.11564648 0.018046254 -0.0094626322 -0.11994324 0.16921084 -0.15787628 -0.061154597 0.06296102 0.033337262 -0.11283193 -0.086075857 -0.072275095 0.058439508 -0.20020315 -0.031051625 -0.037449185 -0.074615791 -0.049516842 0.19158377 -0.056321323 0.086061992 0.021358879 -0.1128345 -0.030056385 -0.056753486 -0.10776243 -0.021607285 -0.12447765 -0.14607464 0.10268805 0.15123005 -0.049546842 0.037623338 0.013758646 0.088652819 0.022925008 -0.018812297 -0.024800066 -0.08211191 0.097433388 -0.092727736 -0.11487941 0.04450867 -0.079987898 -0.046898674 0.056255754 -0.10996716 0.0086265327 -0.059784815 -0.006030275 0.15858606 0.0069520231 -0.029195704 -0.1562167 0.096417621 0.02001803 -0.027468376 0.1136032 -0.12176429 0.078589506 -0.12688828 0.1920135 -0.068307519 -0.041716401 -0.0207917 -0.15771081 0.095107973 -0.18994403 -0.14157583 0.082006127 0.11136579 0.091836788
15 -0.056928903 -0.10769783 0.20546873 0.0016657934 0.044331931 -0.093045279 0.11472283 -0.07549119 -0.049954947 0.10993065 -0.054797661 0.10351232 0.049695935 -0.18498343 0.0019123324 -0.11777066 -0.09194532 -0.17368692 0.039622694 -0.0098074218 0.17538865 0.023080248 0.054574683 -0.038572278 -0.10501292 0.022383122 -0.028211456 0.087132342 0.035148624 0.12371379 -0.045244511 0.14196007 -0.055276778 -0.0036189621 -0.10824113 -0.12368391 0.32701528 0.18239768 0.082852103 -0.02807943 -0.16077001 0.095329285 0.11072784 0.13763796 -0.10121555 0.14272954 -0.020864435 -0.10089432 -0.17743687 0.14385757 0.00098187302 0.16144954 0.010301094 0.12358508 -0.17273182 -0.11560223 -0.17154995 0.0095316954 -0.035978161 -0.099793307 0.16440146 -0.18439497 -0.10940814 0.07054919 0.074731044 -0.20024404 -0.064865343 -0.095650531 0.038591184 -0.18581985 0.018342337 -0.045918714 -0.051747445 -0.033569641 0.10370128 -0.082459971 0.052058611 0.028840721 -0.11593639 0.03613903 -0.0016711187 -0.14503051 -0.0088066347 -0.16925721 -0.11819278 0.19722609 0.045651957 -0.006576709 0.0066394499 -0.0015825817 0.0586523 0.096504524 -0.0077540069 -0.02422813 -0.025386432 0.13252729 -0.094145887 -0.030680772 0.015016789 -0.16418371 -0.053464845 0.068789758 -0.12046864 -0.0084190192 -0.010496764 0.0080865622 0.22403163 0.0073624887 -0.024362817 -0.1314759 0.090238079 -0.018820835 -0.045646075 0.10981382 -0.070425414 0.079704218 -0.15694349 0.22267629 -0.073575065 -0.0066983486 -0.037884526 -0.20476753 0.053345658 -0.16714977 -0.060139932 0.12924473 0.055957634 0.069642954
17 -0.062654436 -0.17717439 0.19750966 0.009002029 0.03766128 -0.14658341 0.10610516 0.026290532 0.055157769 0.097429536 0.020046046 0.17505157 0.024076087 -0.22605975 0.089324228 -0.21459264 -0.11589876 -0.28649396 0.11749496 -0.064865164 0.2005879 -0.029751988 -0.0093975058 -0.037960954 0.042546403 0.0098164333 0.014433975 0.036877688 0.11523311 0.16033332 -0.050720926 0.036875591 -0.095185712 0.012317023 -0.070154577 -0.19149587 0.22484742 0.15710728 0.056720022 0.00035936874 -0.029038507 -0.026933303 0.12255409 0.19219285 -0.12193552 0.1343082 0.027445039 -0.099423893 -0.052673321 0.13893925 -0.082175069 0.049944874 0.0052483673 0.12453389 -0.14316759 -0.12092405 -0.081257336 0.030698642 0.017000074 -0.14307851 0.18107784 -0.14334656 -0.0098165292 0.068655312 -0.0055873394 -0.041788936 -0.10126905 -0.046969909 0.074566655 -0.21358253 -0.067326605 -0.029593641 -0.10570608 -0.062437009 0.27130365 -0.02839214 0.11263707 0.018804293 -0.116652 -0.088246346 -0.10294035 -0.065840177 -0.019985352 -0.087469123 -0.17850254 0.022016168 0.24297442 -0.082000516 0.072477251 0.024579819 0.11249797 -0.029671533 -0.01489679 -0.0072374246 -0.13324107 0.080169 -0.077796757 -0.17972638 0.081495851 -0.011693525 -0.040121399 0.053277109 -0.11830389 0.020824136 -0.10247875 -0.013084516 0.11653516 0.0078304987 -0.031626813 -0.17809576 0.10373956 0.063248686 -0.014351133 0.11866923 -0.16764936 0.093126409 -0.10515463 0.18412533 -0.076374255 -0.067300238 -0.0027949722 -0.13217486 0.14283229 -0.21986538 -0.22878587 0.038110726 0.16140628 0.11676524
21 -0.061532129 -0.11179519 0.21093664 0.0011456982 0.039090987 -0.10294705 0.11633495 -0.072300844 -0.043810364 0.12011429 -0.05504645 0.11406202 0.049927335 -0.20039415 0.0078168074 -0.12715195 -0.09782701 -0.19197722 0.051499188 -0.013886593 0.18568225 0.018817684 0.053424302 -0.039218526 -0.098061115 0.018685915 -0.024959641 0.086635605 0.038473759 0.13268821 -0.040417619 0.14112835 -0.061626948 -0.0051661213 -0.11376574 -0.13479654 0.3402057 0.19645326 0.082024068 -0.031614628 -0.16263071 0.09952572 0.11505007 0.13971794 -0.11507385 0.14612262 -0.011971183 -0.098320067 -0.17144299 0.15181133 -3.6707082e-05 0.16793621 0.010271144 0.12323321 -0.17281339 -0.11692413 -0.17070337 0.011914624 -0.038658701 -0.10688806 0.16791159 -0.19261283 -0.1059028 0.080901489 0.072091162 -0.20605269 -0.071782432 -0.095967852 0.03548339 -0.20420949 0.017321125 -0.048560768 -0.061407786 -0.029752051 0.12304998 -0.082266934 0.052454621 0.025825394 -0.11682294 0.035844088 -0.0081802672 -0.14372119 -0.0088350475 -0.17229848 -0.12746979 0.19328868 0.057299752 -0.007491577 0.015029429 -0.0055288305 0.065630324 0.094581783 -0.012664627 -0.016518421 -0.026593987 0.13135168 -0.094861455 -0.043092627 0.019082306 -0.16682433 -0.05730328 0.071173579 -0.12414937 -0.0052220398 -0.014657406 0.013449094 0.22669427 0.0039126351 -0.023040399 -0.13935392 0.099686272 -0.00643217 -0.048037861 0.12179462 -0.079830162 0.085815765 -0.16771848 0.22719425 -0.07359568 -0.010634365 -0.039573729 -0.20738088 0.060232807 -0.18532395 -0.067413792 0.12943216 0.064933181 0.070963405
19 -0.048566215 -0.10927472 0.19424526 0.001616184 0.038098171 -0.093762666 0.10639636 -0.060981892 -0.035356108 0.1051509 -0.051694598 0.10907617 0.044178661 -0.18124764 0.0081978105 -0.11957952 -0.092639901 -0.17986286 0.050208233 -0.010604511 0.16891211 0.012577091 0.047038697 -0.035304107 -0.084488988 0.023202986 -0.022942757 0.07852108 0.037888099 0.11978652 -0.041129064 0.12596346 -0.057222243 -0.0071637281 -0.1003752 -0.12338395 0.30665046 0.17614023 0.076749466 -0.027730154 -0.14179625 0.080619298 0.10865285 0.13481838 -0.099276513 0.1342795 -0.0088377269 -0.096391574 -0.15632845 0.14017877 -0.0087242406 0.14510857 0.0054622642 0.11610837 -0.15620345 -0.10620116 -0.15673423 0.016076621 -0.027864551 -0.10380419 0.15715426 -0.17841063 -0.092462003 0.073541589 0.060540464 -0.18331328 -0.063623123 -0.084944949 0.033353146 -0.18755412 0.0085127838 -0.040585913 -0.056463528 -0.031095376 0.11483698 -0.07645762 0.057274643 0.028045297 -0.11201761 0.022113178 -0.011695664 -0.13216016 -0.0083719958 -0.15486734 -0.1188736 0.17403698 0.064819314 -0.0069233901 0.010686554 -0.0025244406 0.060917281 0.083148077 -0.0059602628 -0.017237984 -0.033521987 0.12326106 -0.087332577 -0.047768079 0.018544221 -0.14856023 -0.049483694 0.067390531 -0.11676256 -0.0099103842 -0.02188359 0.0093203289 0.2039106 0.0071718195 -0.023809649 -0.12856314 0.085580066 -0.0070810108 -0.039944146 0.10808869 -0.073596731 0.078265347 -0.14385851 0.21210077 -0.072269239 -0.011308271 -0.036902726 -0.18772581 0.055660959 -0.1714619 -0.073599063 0.11500581 0.05888525 0.068071596
23 -0.056570113 -0.11534464 0.20461406 0.0064979941 0.043202575 -0.10174431 0.11565271 -0.061158229 -0.038057588 0.11162648 -0.053879689 0.11506026 0.048891444 -0.19789784 0.0072420044 -0.12703905 -0.096098907 -0.18599632 0.052612398 -0.0097416472 0.17913477 0.015151732 0.048862606 -0.038602017 -0.089619696 0.019741438 -0.027126772 0.079199925 0.037550047 0.1342473 -0.044604372 0.13693348 -0.063100845 -0.0045170197 -0.11115348 -0.13505504 0.32751352 0.18140431 0.074493803 -0.029536491 -0.15300146 0.088887431 0.11679485 0.14416733 -0.10593248 0.13984376 -0.013796703 -0.097323418 -0.16822459 0.14700313 -0.0056072609 0.15584864 0.011456192 0.12068306 -0.16889143 -0.118113 -0.16565229 0.014599308 -0.032544442 -0.11195711 0.16798465 -0.18953082 -0.099798083 0.077265859 0.069040649 -0.19506314 -0.068285085 -0.087258063 0.039758433 -0.19180164 0.010699205 -0.042911373 -0.056180511 -0.032238655 0.11924804 -0.07803715 0.059581887 0.030060513 -0.11169191 0.030416301 -0.007213085 -0.14355834 -0.0058804723 -0.16440012 -0.12512346 0.18938528 0.062892452 -0.0078551834 0.0098865479 -0.0030970387 0.06496904 0.087339677 -0.012322273 -0.019608501 -0.035436012 0.12685685 -0.091623433 -0.050764751 0.018779974 -0.15438697 -0.056671306 0.068749249 -0.11758146 -0.011294888 -0.021717042 0.0065577808 0.21409032 0.0049453741 -0.021965118 -0.1336941 0.089231119 -0.01129111 -0.045222435 0.11283139 -0.0799658 0.079684585 -0.15950905 0.22251034 -0.073651984 -0.013816467 -0.036838703 -0.19682543 0.057662938 -0.18110888 -0.071255811 0.11969998 0.063659668 0.072533518
16 -0.055130634 -0.10436586 0.20358546 0.0064539625 0.040917609 -0.095179759 0.11759113 -0.074192971 -0.048404694 0.11297126 -0.061481349 0.1053434 0.047946982 -0.18352765 0.003360766 -0.11672889 -0.0958905 -0.17895664 0.036128387 -0.011200809 0.17347942 0.022420079 0.062687919 -0.041391216 -0.10306571 0.020494541 -0.029285016 0.082990512 0.028146315 0.1215665 -0.043348655 0.14644639 -0.057385895 -0.013148997 -0.10789321 -0.12011297 0.33957511 0.18309362 0.074551947 -0.036634143 -0.16805711 0.10671567 0.11535465 0.13412109 -0.10458655 0.13959962 -0.012906228 -0.094586924 -0.1807752 0.15105835 0.0079699438 0.17049052 0.0079006469 0.12298081 -0.16565305 -0.11276735 -0.17294776 0.014145571 -0.035197441 -0.10632902 0.16626342 -0.19472684 -0.11270773 0.074347861 0.076513492 -0.21413049 -0.066453047 -0.09056332 0.033172801 -0.19459133 0.024497459 -0.048249826 -0.055137657 -0.030877396 0.10798186 -0.085831799 0.051573616 0.026638195 -0.11752082 0.044392195 0.0058356565 -0.14843529 -0.0057837297 -0.17383149 -0.11688353 0.20715438 0.043665159 0.0045340485 0.0072577535 -0.0027429457 0.053820737 0.10186765 -0.012112088 -0.017221346 -0.017386887 0.1377407 -0.087528177 -0.033379402 0.011167952 -0.17848517 -0.052649513 0.075092569 -0.11726756 -0.012778183 -0.013441375 0.0095711201 0.22635259 0.0047734813 -0.018549237 -0.12752803 0.093269885 -0.011281184 -0.051370136 0.11691885 -0.066815265 0.081247218 -0.16520877 0.22819979 -0.072160102 -0.009135698 -0.041872732 -0.20621751 0.0510046 -0.17691605 -0.053199891 0.13611475 0.054221407 0.073075697
22 -0.055556387 -0.13604639 0.20012005 0.0023664867 0.045339689 -0.12077503 0.10442784 -0.031803939 -0.010032265 0.10013059 -0.021747932 0.13156849 0.039960362 -0.20382251 0.040461667 -0.16156688 -0.099119365 -0.21292603 0.079665333 -0.028902104 0.18472612 0.0035222031 0.026027784 -0.034377888 -0.043574456 0.020083701 -0.0058632796 0.063229926 0.073787697 0.1425629 -0.048725165 0.090198256 -0.081507176 0.0092684748 -0.091089219 -0.15402907 0.27010491 0.16165486 0.068267487 -0.016386548 -0.092847109 0.035571899 0.11241478 0.16352595 -0.10348982 0.14039174 -0.0047409218 -0.099416703 -0.11819965 0.13502955 -0.035749093 0.10461459 0.0071951365 0.12553197 -0.15913758 -0.11197541 -0.12022421 0.021132359 -0.014983171 -0.11754556 0.1682197 -0.16259465 -0.067707576 0.070878319 0.037988681 -0.12667468 -0.083748728 -0.073696561 0.056383595 -0.19222338 -0.021333359 -0.035664435 -0.07246621 -0.046235196 0.18124089 -0.058629118 0.077951223 0.026771318 -0.11064588 -0.015823577 -0.050814189 -0.11621777 -0.016164428 -0.13700452 -0.14169164 0.12056416 0.13411853 -0.044389833 0.03577913 0.00868796 0.082649492 0.036394443 -0.013668078 -0.025144698 -0.074274823 0.10875548 -0.095370188 -0.097723238 0.045694172 -0.099084146 -0.054922875 0.061637521 -0.11134167 0.0079984544 -0.050831698 0.0022198737 0.17175227 0.012041111 -0.028800068 -0.15033457 0.096933089 0.012965998 -0.027931958 0.11491236 -0.11319166 0.081031993 -0.13422653 0.1987108 -0.074434943 -0.034784608 -0.023619117 -0.17440869 0.087801017 -0.19325593 -0.12755109 0.091538087 0.10315227 0.088282838
18 -0.058475129 -0.13821895 0.20616898 0.00067966571 0.049310151 -0.12378307 0.10610446 -0.03151482 -0.0087913917 0.11018442 -0.024352884 0.13744648 0.043560192 -0.21054059 0.038183313 -0.16965127 -0.10033022 -0.2167622 0.077156313 -0.0282766 0.19307159 0.0041970401 0.029029373 -0.035321046 -0.042089041 0.022155546 -0.0043135332 0.072831541 0.075470611 0.14662075 -0.050441127 0.099735804 -0.080859289 0.012692991 -0.092229076 -0.15772986 0.28562412 0.17106462 0.077572525 -0.012216517 -0.10257261 0.045525774 0.11509247 0.16450036 -0.1091317 0.14354956 -0.0061550508 -0.10531155 -0.12469534 0.1402835 -0.03349195 0.10801721 0.013435282 0.13542151 -0.16968031 -0.11226574 -0.12714772 0.016555725 -0.021256397 -0.11848808 0.17123035 -0.17257863 -0.073871009 0.068883777 0.043407764 -0.13284446 -0.081001028 -0.08091291 0.056189016 -0.19588938 -0.022325354 -0.03953236 -0.070374317 -0.048641864 0.18206389 -0.060554907 0.085419133 0.027383728 -0.11306757 -0.014079627 -0.052119829 -0.11800578 -0.017231947 -0.14095642 -0.14667249 0.13060264 0.13402455 -0.041718673 0.03083813 0.010258985 0.080551401 0.0374415 -0.011189132 -0.025823278 -0.078890115 0.11331386 -0.10069498 -0.095080718 0.044737287 -0.1038673 -0.05681321 0.064635277 -0.11377474 0.0050505679 -0.050631605 0.0015089511 0.17537795 0.0065436885 -0.031554107 -0.15494448 0.093130633 0.0083873002 -0.033245325 0.11302081 -0.1124412 0.080194384 -0.13481653 0.20095924 -0.071506396 -0.033831567 -0.027708599 -0.17967568 0.084617414 -0.19474576 -0.12544718 0.090563022 0.098094285 0.085284851
12 -0.061888017 -0.15516143 0.19469689 0.00078650529 0.04172603 -0.1324393 0.098476201 -0.0041205878 0.019701928 0.096715309 0.0071416497 0.15149692 0.027983289 -0.20923366 0.066249035 -0.18581955 -0.10771367 -0.24179122 0.10048459 -0.054414883 0.18888704 -0.0080928029 0.0032905445 -0.035169236 0.00042847687 0.010492466 0.009715098 0.051528405 0.095426381 0.14539509 -0.048365697 0.05940903 -0.092347011 0.014708138 -0.073463671 -0.16379476 0.23580679 0.15603799 0.063320741 -0.003828808 -0.053563874 0.002371385 0.1178243 0.17085522 -0.11070859 0.13710757 0.013265663 -0.10187921 -0.084892899 0.13140507 -0.058710061 0.073387615 0.0066917352 0.12244096 -0.15470591 -0.11590369 -0.091570862 0.022850024 -0.00062795461 -0.12228181 0.17152311 -0.14536923 -0.040663764 0.067904964 0.010324509 -0.077741444 -0.086793572 -0.059314258 0.066414975 -0.19595927 -0.04016351 -0.030314613 -0.08620391 -0.051435445 0.22348048 -0.044071853 0.10248303 0.024447711 -0.1106713 -0.048805047 -0.078587174 -0.085260451 -0.026001431 -0.10929286 -0.15717372 0.068439648 0.18663046 -0.063680232 0.049241871 0.01398493 0.09593226 0.0024278741 -0.01612011 -0.018500216 -0.10343584 0.087915488 -0.085397623 -0.144637 0.063319445 -0.048365392 -0.051609837 0.050682515 -0.10894697 0.014275643 -0.07736744 -0.010424693 0.13493061 0.0096258866 -0.024623614 -0.16593896 0.092494883 0.037909795 -0.021636039 0.11300502 -0.13861348 0.08827424 -0.1124772 0.18409504 -0.074111633 -0.053059213 -0.016111672 -0.14956903 0.11347087 -0.20086151 -0.17812203 0.062831081 0.12737811 0.098578252
